0 1 2 100 0.0158389
1 1 2 100 0.984161
0 2 2 100 0.0150639
1 2 2 100 0.184953
2 2 2 100 0.799983
0 3 2 100 0.0714222
1 3 2 100 0.4286
2 3 2 100 0.499978
0 4 2 100 0.000145219
1 4 2 100 0.285714
2 4 2 100 0.71414
0 5 2 100 0.00809985
1 5 2 100 0.9919
1 6 2 100 1
0 7 2 100 3.95366e-05
1 7 2 100 0.5
2 7 2 100 0.49996
1 8 2 100 1
0 9 2 100 0.00339456
2 9 2 100 0.996605
0 1 3 100 0.0045265
1 1 3 100 0.45055
2 1 3 100 0.544923
0 2 3 100 0.0241071
1 2 3 100 0.0949195
2 2 3 100 0.637076
3 2 3 100 0.243898
0 3 3 100 3.30524e-05
1 3 3 100 0.0425864
2 3 3 100 0.150962
3 3 3 100 0.806419
0 4 3 100 0.000113033
2 4 3 100 0.166667
3 4 3 100 0.83322
0 5 3 100 4.3666e-05
3 5 3 100 0.999956
0 1 4 100 0.0210459
1 1 4 100 0.517495
2 1 4 100 0.142002
3 1 4 100 0.319457
0 2 4 100 0.0323687
1 2 4 100 0.169171
2 2 4 100 0.153841
3 2 4 100 0.541529
4 2 4 100 0.103091
0 3 4 100 0.0231128
1 3 4 100 0.137607
2 3 4 100 0.0347395
3 3 4 100 0.333296
4 3 4 100 0.471245
0 4 4 100 8.16568e-05
1 4 4 100 0.0653951
3 4 4 100 0.238953
4 4 4 100 0.69557
0 5 4 100 0.000119819
1 5 4 100 0.0714408
3 5 4 100 0.285695
4 5 4 100 0.642745
0 6 4 100 0.000427085
1 6 4 100 0.2
4 6 4 100 0.799573
0 7 4 100 0.000327516
4 7 4 100 0.999672
0 1 5 100 0.0426461
1 1 5 100 0.763207
2 1 5 100 0.0922285
3 1 5 100 0.0394705
4 1 5 100 0.0624478
0 2 5 100 0.0182395
1 2 5 100 0.281264
2 2 5 100 0.369353
3 2 5 100 0.144101
4 2 5 100 0.176517
5 2 5 100 0.0105261
0 3 5 100 0.0299606
1 3 5 100 0.123273
2 3 5 100 0.113757
3 3 5 100 0.30611
4 3 5 100 0.299246
5 3 5 100 0.127654
0 4 5 100 0.01418
1 4 5 100 0.0605815
2 4 5 100 0.0554497
3 4 5 100 0.153805
4 4 5 100 0.362363
5 4 5 100 0.353621
0 5 5 100 0.0422079
1 5 5 100 0.075465
2 5 5 100 0.0189488
3 5 5 100 5.94745e-05
4 5 5 100 0.108717
5 5 5 100 0.754602
0 6 5 100 0.000324478
1 6 5 100 0.0769231
3 6 5 100 0.076923
4 6 5 100 0.076923
5 6 5 100 0.768906
0 7 5 100 0.000185604
1 7 5 100 0.333333
3 7 5 100 0.333333
5 7 5 100 0.333148
0 8 5 100 0.000217841
3 8 5 100 0.5
5 8 5 100 0.499782
0 9 5 100 0.000454699
5 9 5 100 0.999545
0 1 6 100 0.0461142
1 1 6 100 0.635543
2 1 6 100 0.114292
3 1 6 100 0.11588
4 1 6 100 0.0293448
5 1 6 100 0.0588263
0 2 6 100 0.0210646
1 2 6 100 0.133995
2 2 6 100 0.246626
3 2 6 100 0.280416
4 2 6 100 0.0552844
5 2 6 100 0.255151
6 2 6 100 0.00746253
0 3 6 100 0.0254978
1 3 6 100 0.0658324
2 3 6 100 0.128766
3 3 6 100 0.233868
4 3 6 100 0.134526
5 3 6 100 0.351362
6 3 6 100 0.0601474
0 4 6 100 0.0207296
1 4 6 100 0.0394931
2 4 6 100 0.0713752
3 4 6 100 0.136469
4 4 6 100 0.130463
5 4 6 100 0.393488
6 4 6 100 0.207981
0 5 6 100 0.0203627
1 5 6 100 0.0202161
2 5 6 100 0.0202113
3 5 6 100 0.0891761
4 5 6 100 0.0379187
5 5 6 100 0.307163
6 5 6 100 0.504952
0 6 6 100 0.0298802
1 6 6 100 0.000105273
2 6 6 100 1.22586e-05
3 6 6 100 0.0612244
4 6 6 100 0.00012047
5 6 6 100 0.235364
6 6 6 100 0.673293
0 7 6 100 0.0002318
3 7 6 100 0.0624999
5 7 6 100 0.25
6 7 6 100 0.687268
0 8 6 100 0.000157313
5 8 6 100 0.399993
6 8 6 100 0.59985
0 9 6 100 9.55907e-05
5 9 6 100 0.5
6 9 6 100 0.499904
5 10 6 100 1
0 11 6 100 0.00692617
6 11 6 100 0.993074
0 1 7 100 0.0384025
1 1 7 100 0.714785
2 1 7 100 0.0934879
3 1 7 100 0.0669906
4 1 7 100 0.0210538
5 1 7 100 0.0312909
6 1 7 100 0.0339897
0 2 7 100 0.00610473
1 2 7 100 0.103272
2 2 7 100 0.247831
3 2 7 100 0.218173
4 2 7 100 0.146571
5 2 7 100 0.123446
6 2 7 100 0.154603
0 3 7 100 0.0126179
1 3 7 100 0.0467497
2 3 7 100 0.0543742
3 3 7 100 0.285479
4 3 7 100 0.188059
5 3 7 100 0.111406
6 3 7 100 0.291368
7 3 7 100 0.00994639
0 4 7 100 0.0550721
1 4 7 100 0.03557
2 4 7 100 0.0368047
3 4 7 100 0.141512
4 4 7 100 0.158685
5 4 7 100 0.0886117
6 4 7 100 0.320969
7 4 7 100 0.162776
0 5 7 100 0.0397633
1 5 7 100 0.00694876
2 5 7 100 0.0277632
3 5 7 100 0.0694326
4 5 7 100 0.170838
5 5 7 100 0.0541824
6 5 7 100 0.311992
7 5 7 100 0.319079
0 6 7 100 0.1049
1 6 7 100 0.0102067
2 6 7 100 0.0102048
3 6 7 100 0.040835
4 6 7 100 0.0886342
5 6 7 100 0.0511142
6 6 7 100 0.194209
7 6 7 100 0.499897
0 7 7 100 0.00322521
1 7 7 100 8.99638e-06
2 7 7 100 0.0204053
3 7 7 100 3.18872e-07
4 7 7 100 0.020408
6 7 7 100 0.102032
7 7 7 100 0.85392
0 8 7 100 0.000880016
2 8 7 100 3.89201e-06
4 8 7 100 0.142853
6 8 7 100 0.285714
7 8 7 100 0.570549
0 9 7 100 4.6495e-05
4 9 7 100 0.333334
6 9 7 100 0.333334
7 9 7 100 0.333286
0 10 7 100 0.0108719
2 10 7 100 0.0220169
4 10 7 100 0.422725
5 10 7 100 0.0463583
7 10 7 100 0.498028
6 11 7 100 1
0 12 7 100 0.00721343
7 12 7 100 0.992787
0 1 8 100 0.0342664
1 1 8 100 0.723217
2 1 8 100 0.0636309
3 1 8 100 0.0891499
4 1 8 100 0.0339436
5 1 8 100 0.015107
6 1 8 100 0.0084193
7 1 8 100 0.0322657
0 2 8 100 0.0387801
1 2 8 100 0.085231
2 2 8 100 0.241665
3 2 8 100 0.163015
4 2 8 100 0.164494
5 2 8 100 0.12649
6 2 8 100 0.0469756
7 2 8 100 0.127668
8 2 8 100 0.00568176
0 3 8 100 0.0212996
1 3 8 100 0.0350167
2 3 8 100 0.0675571
3 3 8 100 0.150664
4 3 8 100 0.185887
5 3 8 100 0.171959
6 3 8 100 0.126529
7 3 8 100 0.223944
8 3 8 100 0.0171421
0 4 8 100 0.0299694
1 4 8 100 0.0237081
2 4 8 100 0.0405679
3 4 8 100 0.0933619
4 4 8 100 0.168654
5 4 8 100 0.107212
6 4 8 100 0.0733778
7 4 8 100 0.387575
8 4 8 100 0.0755739
0 5 8 100 0.0378255
1 5 8 100 0.00629768
2 5 8 100 0.0190349
3 5 8 100 0.0406293
4 5 8 100 0.151003
5 5 8 100 0.0919498
6 5 8 100 0.0623414
7 5 8 100 0.396253
8 5 8 100 0.194665
0 6 8 100 0.0308846
2 6 8 100 0.0233914
3 6 8 100 0.0381848
4 6 8 100 0.105011
5 6 8 100 0.0491109
6 6 8 100 0.0375048
7 6 8 100 0.231684
8 6 8 100 0.484228
0 7 8 100 0.0313281
3 7 8 100 0.0303024
4 7 8 100 0.0151555
5 7 8 100 0.0454476
6 7 8 100 0.0454548
7 7 8 100 0.18102
8 7 8 100 0.651291
0 8 8 100 0.0929462
2 8 8 100 5.8725e-07
6 8 8 100 0.0869472
7 8 8 100 0.130444
8 8 8 100 0.689662
0 9 8 100 0.00117597
3 9 8 100 0.142856
7 9 8 100 0.142857
8 9 8 100 0.713111
0 10 8 100 0.000606762
1 10 8 100 0.499351
3 10 8 100 0.500002
5 10 8 100 3.37951e-05
7 10 8 100 5.9377e-06
0 11 8 100 0.00101359
3 11 8 100 0.5
8 11 8 100 0.498986
0 12 8 100 0.952467
4 12 8 100 0.0475329
3 13 8 100 1
3 14 8 100 1
3 15 8 100 1
0 16 8 100 3.35793e-05
7 16 8 100 0.999966
0 17 8 100 0.00545911
8 17 8 100 0.994541
0 1 9 100 0.0503661
1 1 9 100 0.64966
2 1 9 100 0.105436
3 1 9 100 0.0791083
4 1 9 100 0.027559
5 1 9 100 0.0315921
6 1 9 100 0.00169905
7 1 9 100 0.00651884
8 1 9 100 0.0480597
0 2 9 100 0.00938902
1 2 9 100 0.115099
2 2 9 100 0.188026
3 2 9 100 0.178066
4 2 9 100 0.150445
5 2 9 100 0.13843
6 2 9 100 0.0616381
7 2 9 100 0.0214479
8 2 9 100 0.137458
0 3 9 100 0.0349044
1 3 9 100 0.0746141
2 3 9 100 0.0490084
3 3 9 100 0.138401
4 3 9 100 0.129547
5 3 9 100 0.181067
6 3 9 100 0.141957
7 3 9 100 0.0445789
8 3 9 100 0.205922
0 4 9 100 0.0448051
1 4 9 100 0.0282405
2 4 9 100 0.0197542
3 4 9 100 0.101313
4 4 9 100 0.0991059
5 4 9 100 0.180842
6 4 9 100 0.152804
7 4 9 100 0.0620044
8 4 9 100 0.277121
9 4 9 100 0.0340109
0 5 9 100 0.0923194
1 5 9 100 0.014727
2 5 9 100 0.0211488
3 5 9 100 0.0786193
4 5 9 100 0.0410042
5 5 9 100 0.159155
6 5 9 100 0.144814
7 5 9 100 0.0903427
8 5 9 100 0.238176
9 5 9 100 0.119694
0 6 9 100 0.0424751
1 6 9 100 0.0323433
2 6 9 100 0.00803993
3 6 9 100 0.0331677
4 6 9 100 0.0515085
5 6 9 100 0.155575
6 6 9 100 0.104566
7 6 9 100 0.0555894
8 6 9 100 0.180856
9 6 9 100 0.335879
0 7 9 100 0.0166426
1 7 9 100 0.012081
2 7 9 100 0.0241265
3 7 9 100 0.0124713
4 7 9 100 0.0124331
5 7 9 100 0.139559
6 7 9 100 0.0602644
7 7 9 100 0.0361327
8 7 9 100 0.192517
9 7 9 100 0.493772
0 8 9 100 0.0142737
1 8 9 100 0.0238095
2 8 9 100 0.0237214
3 8 9 100 0.000198903
4 8 9 100 0.047619
5 8 9 100 0.0475997
6 8 9 100 0.023775
7 8 9 100 0.0238083
8 8 9 100 0.18582
9 8 9 100 0.609374
0 9 9 100 0.00017156
1 9 9 100 0.0625
3 9 9 100 0.000122316
4 9 9 100 0.125
5 9 9 100 0.124871
7 9 9 100 0.0497574
8 9 9 100 0.262742
9 9 9 100 0.374835
0 10 9 100 0.00116506
1 10 9 100 0.1
3 10 9 100 0.022836
4 10 9 100 0.2
8 10 9 100 0.276425
9 10 9 100 0.399574
0 11 9 100 0.0018928
1 11 9 100 0.333312
8 11 9 100 1.73219e-05
9 11 9 100 0.664778
0 12 9 100 0.00898692
9 12 9 100 0.991013
0 1 10 100 0.044937
1 1 10 100 0.502695
2 1 10 100 0.217757
3 1 10 100 0.0878006
4 1 10 100 0.0586709
5 1 10 100 0.0438603
6 1 10 100 0.0227009
7 1 10 100 5.18637e-05
8 1 10 100 0.00620034
9 1 10 100 0.0153253
0 2 10 100 0.0456087
1 2 10 100 0.0788299
2 2 10 100 0.164606
3 2 10 100 0.230378
4 2 10 100 0.134624
5 2 10 100 0.0842129
6 2 10 100 0.0978718
7 2 10 100 0.0542719
8 2 10 100 0.0352729
9 2 10 100 0.0743241
0 3 10 100 0.0582776
1 3 10 100 0.0454956
2 3 10 100 0.0471835
3 3 10 100 0.128029
4 3 10 100 0.154874
5 3 10 100 0.110423
6 3 10 100 0.173888
7 3 10 100 0.101134
8 3 10 100 0.0309364
9 3 10 100 0.149759
0 4 10 100 0.0478702
1 4 10 100 0.00803986
2 4 10 100 0.0221439
3 4 10 100 0.0491226
4 4 10 100 0.135148
5 4 10 100 0.135133
6 4 10 100 0.165132
7 4 10 100 0.132447
8 4 10 100 0.0857995
9 4 10 100 0.211588
10 4 10 100 0.00757548
0 5 10 100 0.0331262
1 5 10 100 0.00263161
2 5 10 100 0.0152719
3 5 10 100 0.0294736
4 5 10 100 0.0755493
5 5 10 100 0.0734897
6 5 10 100 0.164864
7 5 10 100 0.109578
8 5 10 100 0.0535022
9 5 10 100 0.343295
10 5 10 100 0.0992185
0 6 10 100 0.0805219
1 6 10 100 0.000158683
2 6 10 100 0.0158958
3 6 10 100 0.0326767
4 6 10 100 0.0449538
5 6 10 100 0.0239348
6 6 10 100 0.0932383
7 6 10 100 0.0846451
8 6 10 100 0.0428619
9 6 10 100 0.259166
10 6 10 100 0.321947
0 7 10 100 0.0628226
1 7 10 100 4.38116e-05
2 7 10 100 0.0375007
3 7 10 100 0.0126017
4 7 10 100 0.0247952
5 7 10 100 0.0249913
6 7 10 100 0.0597375
7 7 10 100 0.0513608
8 7 10 100 0.0606582
9 7 10 100 0.253152
10 7 10 100 0.412336
0 8 10 100 0.0639658
2 8 10 100 0.0425471
4 8 10 100 6.06131e-06
6 8 10 100 0.0212061
7 8 10 100 5.57415e-05
8 8 10 100 0.0417544
9 8 10 100 0.234945
10 8 10 100 0.59552
0 9 10 100 0.0137802
2 9 10 100 0.0526316
3 9 10 100 0.0025991
7 9 10 100 2.53678e-05
8 9 10 100 0.105263
9 9 10 100 0.246962
10 9 10 100 0.578738
0 10 10 100 0.000430124
5 10 10 100 0.00204066
7 10 10 100 0.125
8 10 10 100 0.124995
9 10 10 100 0.497671
10 10 10 100 0.249864
0 11 10 100 0.166768
5 11 10 100 9.52178e-05
7 11 10 100 0.166571
8 11 10 100 0.166667
9 11 10 100 0.499899
0 12 10 100 0.000525474
7 12 10 100 0.166667
9 12 10 100 0.333183
10 12 10 100 0.499625
0 13 10 100 0.00178301
9 13 10 100 0.333179
10 13 10 100 0.665038
0 14 10 100 0.927321
9 14 10 100 0.0726785
0 15 10 100 0.00329189
10 15 10 100 0.996708
0 1 11 100 0.0574294
1 1 11 100 0.496495
2 1 11 100 0.153151
3 1 11 100 0.134926
4 1 11 100 0.0282063
5 1 11 100 0.0743506
6 1 11 100 0.0174332
7 1 11 100 0.0081212
8 1 11 100 0.00654681
9 1 11 100 1.50643e-05
10 1 11 100 0.023326
0 2 11 100 0.0519057
1 2 11 100 0.153404
2 2 11 100 0.120841
3 2 11 100 0.225519
4 2 11 100 0.0933544
5 2 11 100 0.106852
6 2 11 100 0.0543859
7 2 11 100 0.0665685
8 2 11 100 0.0471428
9 2 11 100 0.0160266
10 2 11 100 0.0639998
0 3 11 100 0.0822427
1 3 11 100 0.102458
2 3 11 100 0.0723153
3 3 11 100 0.116387
4 3 11 100 0.0607124
5 3 11 100 0.120235
6 3 11 100 0.0886092
7 3 11 100 0.121317
8 3 11 100 0.0586725
9 3 11 100 0.0185953
10 3 11 100 0.150456
11 3 11 100 0.00799966
0 4 11 100 0.0870919
1 4 11 100 0.0511662
2 4 11 100 0.0366528
3 4 11 100 0.0968296
4 4 11 100 0.0528776
5 4 11 100 0.0403327
6 4 11 100 0.095254
7 4 11 100 0.173462
8 4 11 100 0.121613
9 4 11 100 0.0436399
10 4 11 100 0.193016
11 4 11 100 0.00806401
0 5 11 100 0.0409056
1 5 11 100 0.0165957
2 5 11 100 0.0324681
3 5 11 100 0.0649448
4 5 11 100 0.0377943
5 5 11 100 0.0740149
6 5 11 100 0.0767433
7 5 11 100 0.147086
8 5 11 100 0.136011
9 5 11 100 0.0633849
10 5 11 100 0.261283
11 5 11 100 0.048769
0 6 11 100 0.0421618
1 6 11 100 0.00866574
2 6 11 100 0.0143204
3 6 11 100 0.0769822
4 6 11 100 0.0262171
5 6 11 100 0.0425978
6 6 11 100 0.0541203
7 6 11 100 0.0589185
8 6 11 100 0.135988
9 6 11 100 0.0528761
10 6 11 100 0.26499
11 6 11 100 0.222162
0 7 11 100 0.0484947
1 7 11 100 0.000144881
2 7 11 100 6.67622e-05
3 7 11 100 0.0398782
4 7 11 100 0.0262111
5 7 11 100 0.0505984
6 7 11 100 0.076877
7 7 11 100 0.0111998
8 7 11 100 0.0905335
9 7 11 100 0.0548232
10 7 11 100 0.261656
11 7 11 100 0.339516
0 8 11 100 0.0288905
1 8 11 100 0.0126712
2 8 11 100 0.00084125
3 8 11 100 0.0316638
6 8 11 100 0.0333321
7 8 11 100 0.0333345
8 8 11 100 0.0350048
9 8 11 100 0.0474129
10 8 11 100 0.127083
11 8 11 100 0.649766
0 9 11 100 0.0898643
2 9 11 100 0.0476191
4 9 11 100 0.00328889
6 9 11 100 0.0476191
7 9 11 100 0.0474765
8 9 11 100 0.01065
10 9 11 100 0.0400711
11 9 11 100 0.713411
0 10 11 100 0.000492142
11 10 11 100 0.999508
0 1 12 100 0.0174402
1 1 12 100 0.430678
2 1 12 100 0.246227
3 1 12 100 0.0726909
4 1 12 100 0.020252
5 1 12 100 0.0188818
6 1 12 100 0.0354666
7 1 12 100 0.00915616
8 1 12 100 0.0474818
9 1 12 100 0.0180844
10 1 12 100 0.0197757
11 1 12 100 0.0638653
0 2 12 100 0.053477
1 2 12 100 0.0561743
2 2 12 100 0.125237
3 2 12 100 0.201941
4 2 12 100 0.110132
5 2 12 100 0.104661
6 2 12 100 0.0441352
7 2 12 100 0.0190007
8 2 12 100 0.0443689
9 2 12 100 0.0709777
10 2 12 100 0.0302313
11 2 12 100 0.139665
0 3 12 100 0.0843982
1 3 12 100 0.0277776
2 3 12 100 0.0459831
3 3 12 100 0.0485933
4 3 12 100 0.138704
5 3 12 100 0.114303
6 3 12 100 0.153227
7 3 12 100 0.0758061
8 3 12 100 0.0645754
9 3 12 100 0.0770198
10 3 12 100 0.0616875
11 3 12 100 0.107924
0 4 12 100 0.0387668
1 4 12 100 0.0152307
2 4 12 100 0.018769
3 4 12 100 0.0302614
4 4 12 100 0.11616
5 4 12 100 0.0866597
6 4 12 100 0.0968469
7 4 12 100 0.0692826
8 4 12 100 0.123775
9 4 12 100 0.18056
10 4 12 100 0.0654533
11 4 12 100 0.158235
0 5 12 100 0.0594736
1 5 12 100 0.00808404
2 5 12 100 1.81824e-05
3 5 12 100 0.0287617
4 5 12 100 0.0542121
5 5 12 100 0.0773195
6 5 12 100 0.0764888
7 5 12 100 0.0577319
8 5 12 100 0.145087
9 5 12 100 0.244835
10 5 12 100 0.0526712
11 5 12 100 0.176454
12 5 12 100 0.0188636
0 6 12 100 0.0573696
1 6 12 100 0.0176105
2 6 12 100 0.00961532
3 6 12 100 0.0288689
4 6 12 100 0.0431715
5 6 12 100 0.046618
6 6 12 100 0.0745126
7 6 12 100 0.0384646
8 6 12 100 0.125565
9 6 12 100 0.214006
10 6 12 100 0.0329755
11 6 12 100 0.205484
12 6 12 100 0.105739
0 7 12 100 0.0318654
1 7 12 100 7.89802e-05
2 7 12 100 4.35839e-07
3 7 12 100 0.0429125
4 7 12 100 0.0216378
5 7 12 100 0.0429941
6 7 12 100 0.0537784
7 7 12 100 0.0321078
8 7 12 100 0.0837213
9 7 12 100 0.225242
10 7 12 100 0.0136064
11 7 12 100 0.108135
12 7 12 100 0.343919
0 8 12 100 0.0402219
1 8 12 100 1.06403e-05
3 8 12 100 0.0487808
4 8 12 100 0.000396135
5 8 12 100 0.0163893
6 8 12 100 0.0328644
7 8 12 100 0.0803412
8 8 12 100 0.0815906
9 8 12 100 0.066022
11 8 12 100 0.125451
12 8 12 100 0.507932
0 9 12 100 0.0677742
1 9 12 100 0.000996653
3 9 12 100 0.0981596
4 9 12 100 0.0333099
5 9 12 100 0.00186322
6 9 12 100 0.0651536
7 9 12 100 0.0666575
8 9 12 100 0.0332349
9 9 12 100 6.83853e-07
10 9 12 100 1.23223e-05
11 9 12 100 0.199982
12 9 12 100 0.432855
0 10 12 100 0.116805
2 10 12 100 0.0011884
3 10 12 100 0.0588235
4 10 12 100 0.0579886
5 10 12 100 0.00101234
7 10 12 100 0.117627
11 10 12 100 0.0589442
12 10 12 100 0.587611
0 11 12 100 0.000550764
3 11 12 100 0.144027
4 11 12 100 5.96198e-06
5 11 12 100 9.80348e-05
7 11 12 100 0.285656
9 11 12 100 0.00222568
11 11 12 100 0.282157
12 11 12 100 0.285279
0 12 12 100 0.200208
5 12 12 100 0.000357886
6 12 12 100 0.199642
7 12 12 100 0.2
12 12 12 100 0.399793
0 13 12 100 0.390715
6 13 12 100 0.275952
7 13 12 100 0.333333
0 14 12 100 0.00122615
5 14 12 100 1.90881e-05
6 14 12 100 0.333123
11 14 12 100 0.333326
12 14 12 100 0.332306
0 15 12 100 0.000828688
6 15 12 100 0.5
9 15 12 100 0.495398
10 15 12 100 0.00377334
0 16 12 100 0.00437395
10 16 12 100 0.5
12 16 12 100 0.495626
0 17 12 100 0.999823
10 17 12 100 0.000177452
3 18 12 100 7.8521e-05
8 18 12 100 0.999767
10 18 12 100 0.000154619
0 19 12 100 0.999947
4 19 12 100 5.32169e-05
7 20 12 100 1
7 21 12 100 1
7 22 12 100 1
0 23 12 100 0.0301356
8 23 12 100 0.969864
0 24 12 100 0.00408268
12 24 12 100 0.995917
0 1 13 100 0.0670572
1 1 13 100 0.390072
2 1 13 100 0.240878
3 1 13 100 0.149822
4 1 13 100 0.0603928
5 1 13 100 0.0249075
6 1 13 100 6.40612e-05
7 1 13 100 0.0105467
8 1 13 100 0.0107566
9 1 13 100 0.0336748
10 1 13 100 0.00067371
12 1 13 100 0.0111551
0 2 13 100 0.026481
1 2 13 100 0.188181
2 2 13 100 0.150746
3 2 13 100 0.130518
4 2 13 100 0.178499
5 2 13 100 0.105904
6 2 13 100 0.0754163
7 2 13 100 0.0332613
8 2 13 100 0.0112043
9 2 13 100 0.0234553
10 2 13 100 0.0429899
11 2 13 100 0.011105
12 2 13 100 0.0222392
0 3 13 100 0.0760617
1 3 13 100 0.0907852
2 3 13 100 0.0666577
3 3 13 100 0.119353
4 3 13 100 0.0748664
5 3 13 100 0.154616
6 3 13 100 0.117943
7 3 13 100 0.0748313
8 3 13 100 0.0566654
9 3 13 100 0.0326421
10 3 13 100 0.0621096
11 3 13 100 0.0169769
12 3 13 100 0.0564921
0 4 13 100 0.0795896
1 4 13 100 0.0111432
2 4 13 100 0.0335586
3 4 13 100 0.066527
4 4 13 100 0.0406813
5 4 13 100 0.0675834
6 4 13 100 0.0884154
7 4 13 100 0.0808861
8 4 13 100 0.0890255
9 4 13 100 0.119795
10 4 13 100 0.174784
11 4 13 100 0.0476815
12 4 13 100 0.100329
0 5 13 100 0.0245869
1 5 13 100 0.0114594
2 5 13 100 0.0222249
3 5 13 100 0.0653536
4 5 13 100 8.44573e-05
5 5 13 100 0.0559495
6 5 13 100 0.124975
7 5 13 100 0.125735
8 5 13 100 0.0406567
9 5 13 100 0.124899
10 5 13 100 0.225745
11 5 13 100 0.0545342
12 5 13 100 0.123796
0 6 13 100 0.0509617
1 6 13 100 4.13978e-06
2 6 13 100 0.0223723
3 6 13 100 0.042843
4 6 13 100 0.0222232
5 6 13 100 0.0347037
6 6 13 100 0.0341977
7 6 13 100 0.0743363
8 6 13 100 0.0981218
9 6 13 100 0.0880926
10 6 13 100 0.231475
11 6 13 100 0.0486885
12 6 13 100 0.196447
13 6 13 100 0.0555337
0 7 13 100 0.0524136
1 7 13 100 3.72932e-05
2 7 13 100 0.0470473
3 7 13 100 0.0352149
4 7 13 100 0.0235371
5 7 13 100 0.0354616
6 7 13 100 0.0347985
7 7 13 100 0.0423591
8 7 13 100 0.0117665
9 7 13 100 0.143122
10 7 13 100 0.179728
11 7 13 100 0.093546
12 7 13 100 0.17161
13 7 13 100 0.129358
0 8 13 100 0.0514249
2 8 13 100 0.026772
3 8 13 100 0.0408407
5 8 13 100 0.0270438
7 8 13 100 6.39383e-05
8 8 13 100 0.0407135
9 8 13 100 0.137068
10 8 13 100 0.0698882
11 8 13 100 0.0539816
12 8 13 100 0.133453
13 8 13 100 0.41875
0 9 13 100 0.0522327
1 9 13 100 6.88997e-07
2 9 13 100 0.0232564
3 9 13 100 0.0169556
5 9 13 100 0.0465503
6 9 13 100 0.00317186
7 9 13 100 0.000115699
8 9 13 100 0.0235408
9 9 13 100 0.137283
10 9 13 100 0.0264581
12 9 13 100 0.275415
13 9 13 100 0.395021
0 10 13 100 0.0220857
1 10 13 100 0.000359367
2 10 13 100 0.0384614
4 10 13 100 8.02502e-07
5 10 13 100 0.0765637
7 10 13 100 4.91758e-07
9 10 13 100 0.0328386
10 10 13 100 0.0434517
11 10 13 100 0.0189777
12 10 13 100 0.1522
13 10 13 100 0.61506
0 11 13 100 0.285412
1 11 13 100 1.58137e-05
4 11 13 100 5.85717e-06
5 11 13 100 3.4317e-05
7 11 13 100 0.0991129
9 11 13 100 0.0242793
10 11 13 100 0.1
11 11 13 100 0.000408411
12 11 13 100 0.0910794
13 11 13 100 0.399652
0 12 13 100 0.000552667
6 12 13 100 0.00028581
8 12 13 100 9.73343e-06
10 12 13 100 0.166662
12 12 13 100 0.333042
13 12 13 100 0.499448
0 13 13 100 0.000391345
13 13 13 100 0.999609
0 1 14 100 0.0426052
1 1 14 100 0.460927
2 1 14 100 0.0634818
3 1 14 100 0.187152
4 1 14 100 0.0746014
5 1 14 100 0.00445739
6 1 14 100 0.0025327
7 1 14 100 0.0580042
8 1 14 100 0.00305427
9 1 14 100 0.00367866
10 1 14 100 0.0389689
11 1 14 100 0.0012042
12 1 14 100 0.0126775
13 1 14 100 0.0466545
0 2 14 100 0.0818489
1 2 14 100 0.0784182
2 2 14 100 0.0446746
3 2 14 100 0.127095
4 2 14 100 0.138643
5 2 14 100 0.0774585
6 2 14 100 0.0949764
7 2 14 100 0.0913341
8 2 14 100 0.0694714
9 2 14 100 0.0139414
10 2 14 100 0.0416519
11 2 14 100 0.0295082
12 2 14 100 0.0138559
13 2 14 100 0.0971231
0 3 14 100 0.0438
1 3 14 100 0.0286312
2 3 14 100 0.0344299
3 3 14 100 0.0640806
4 3 14 100 0.11343
5 3 14 100 0.132783
6 3 14 100 0.169582
7 3 14 100 0.068787
8 3 14 100 0.0890814
9 3 14 100 0.0488308
10 3 14 100 0.0837918
11 3 14 100 0.0390839
12 3 14 100 0.000123595
13 3 14 100 0.0696761
14 3 14 100 0.0138889
0 4 14 100 0.0611359
1 4 14 100 0.0140874
2 4 14 100 0.016025
3 4 14 100 0.0281845
4 4 14 100 0.0819904
5 4 14 100 0.109236
6 4 14 100 0.110072
7 4 14 100 0.126653
8 4 14 100 0.100356
9 4 14 100 0.0424142
10 4 14 100 0.0563393
11 4 14 100 0.0844147
12 4 14 100 0.0154237
13 4 14 100 0.139587
14 4 14 100 0.0140809
0 5 14 100 0.135067
1 5 14 100 0.00127682
2 5 14 100 0.00331311
3 5 14 100 0.0282747
4 5 14 100 0.0541003
5 5 14 100 0.0591141
6 5 14 100 0.0875966
7 5 14 100 0.112228
8 5 14 100 0.0985559
9 5 14 100 0.0896754
10 5 14 100 0.0571758
11 5 14 100 0.129665
12 5 14 100 0.0286181
13 5 14 100 0.11534
0 6 14 100 0.0706494
1 6 14 100 3.31794e-05
2 6 14 100 3.45319e-05
3 6 14 100 5.5197e-06
4 6 14 100 0.0480115
5 6 14 100 0.0251466
6 6 14 100 0.0433103
7 6 14 100 0.11038
8 6 14 100 0.117824
9 6 14 100 0.0991495
10 6 14 100 0.0529162
11 6 14 100 0.0880347
12 6 14 100 0.0997448
13 6 14 100 0.173347
14 6 14 100 0.0714122
0 7 14 100 0.0752079
1 7 14 100 9.31116e-07
3 7 14 100 8.89483e-07
4 7 14 100 0.040635
5 7 14 100 0.000767714
6 7 14 100 0.0161179
7 7 14 100 0.0769446
8 7 14 100 0.0608117
9 7 14 100 0.125388
10 7 14 100 0.109894
11 7 14 100 0.0756987
12 7 14 100 0.122324
13 7 14 100 0.188587
14 7 14 100 0.107622
0 8 14 100 0.0348534
1 8 14 100 1.37823e-05
3 8 14 100 3.1177e-06
4 8 14 100 1.76544e-05
5 8 14 100 0.00024365
6 8 14 100 0.0172512
7 8 14 100 0.0343038
8 8 14 100 0.105765
9 8 14 100 0.0517253
10 8 14 100 0.0484671
11 8 14 100 0.0733778
12 8 14 100 0.0191566
13 8 14 100 0.287468
14 8 14 100 0.327354
0 9 14 100 0.0491904
1 9 14 100 3.05046e-05
6 9 14 100 0.025641
7 9 14 100 0.051271
8 9 14 100 0.000274951
9 9 14 100 0.104669
10 9 14 100 0.025641
11 9 14 100 0.102442
12 9 14 100 7.19033e-05
13 9 14 100 0.307544
14 9 14 100 0.333225
0 10 14 100 0.0074121
2 10 14 100 0.0375863
3 10 14 100 0.000875852
6 10 14 100 0.00270626
7 10 14 100 0.0321463
9 10 14 100 0.0769231
10 10 14 100 0.0778955
11 10 14 100 0.0411313
12 10 14 100 0.000128798
13 10 14 100 0.184732
14 10 14 100 0.538462
0 11 14 100 2.09786e-05
2 11 14 100 0.0833334
9 11 14 100 0.166667
10 11 14 100 5.12853e-06
11 11 14 100 0.0833334
12 11 14 100 3.41357e-06
13 11 14 100 0.499991
14 11 14 100 0.166646
0 12 14 100 0.199945
2 12 14 100 0.1
9 12 14 100 0.2
13 12 14 100 0.400056
14 12 14 100 0.0999992
0 13 14 100 0.0116924
2 13 14 100 0.113457
8 13 14 100 0.000114975
9 13 14 100 3.72587e-06
10 13 14 100 1.84391e-05
13 13 14 100 0.432677
14 13 14 100 0.442037
0 14 14 100 0.000167642
13 14 14 100 0.199998
14 14 14 100 0.799834
0 15 14 100 0.000300894
14 15 14 100 0.999699
0 1 15 100 0.124042
1 1 15 100 0.446213
2 1 15 100 0.0554441
3 1 15 100 0.125843
4 1 15 100 0.0720782
5 1 15 100 0.065351
6 1 15 100 0.0347202
7 1 15 100 0.0412933
8 1 15 100 1.38504e-05
9 1 15 100 0.0136824
10 1 15 100 3.98065e-05
11 1 15 100 1.97336e-06
12 1 15 100 0.0212758
13 1 15 100 1.16579e-06
14 1 15 100 2.35619e-07
0 2 15 100 0.00577421
1 2 15 100 0.18272
2 2 15 100 0.0883959
3 2 15 100 0.212395
4 2 15 100 0.126139
5 2 15 100 0.0867441
6 2 15 100 0.0842819
7 2 15 100 0.108103
8 2 15 100 0.0241588
9 2 15 100 0.0425409
10 2 15 100 0.00174679
12 2 15 100 0.0369691
13 2 15 100 2.98456e-05
14 2 15 100 9.46478e-07
0 3 15 100 0.0407706
1 3 15 100 0.122278
2 3 15 100 0.0656623
3 3 15 100 0.133196
4 3 15 100 0.0852357
5 3 15 100 0.106272
6 3 15 100 0.0627091
7 3 15 100 0.128227
8 3 15 100 0.0425563
9 3 15 100 0.064037
10 3 15 100 0.0638499
11 3 15 100 0.000178227
12 3 15 100 0.0425872
13 3 15 100 0.000355004
14 3 15 100 0.0420861
0 4 15 100 0.109252
1 4 15 100 0.0425533
2 4 15 100 0.0566294
3 4 15 100 0.0869605
4 4 15 100 0.000392552
5 4 15 100 0.212474
6 4 15 100 0.0252472
7 4 15 100 0.0865887
8 4 15 100 0.083084
9 4 15 100 0.0714297
10 4 15 100 0.0648759
11 4 15 100 0.0255979
12 4 15 100 0.0286074
13 4 15 100 0.063737
14 4 15 100 0.021295
15 4 15 100 0.0212753
0 5 15 100 0.0629051
1 5 15 100 0.0434778
2 5 15 100 0.0434589
3 5 15 100 0.0790375
4 5 15 100 1.9408e-05
5 5 15 100 0.14711
6 5 15 100 0.043475
7 5 15 100 0.021739
8 5 15 100 0.0652155
9 5 15 100 0.10876
10 5 15 100 0.0936142
11 5 15 100 0.0510903
12 5 15 100 0.0441858
13 5 15 100 0.00326601
14 5 15 100 0.192645
0 6 15 100 0.0600938
1 6 15 100 0.0218757
2 6 15 100 0.0434687
3 6 15 100 0.0434869
4 6 15 100 5.58567e-06
5 6 15 100 0.123388
6 6 15 100 0.0077834
7 6 15 100 0.000181194
8 6 15 100 0.0432908
9 6 15 100 0.0940749
10 6 15 100 0.108689
11 6 15 100 0.0869695
12 6 15 100 0.0635908
13 6 15 100 0.0434795
14 6 15 100 0.259622
0 7 15 100 0.0657676
1 7 15 100 0.0217391
2 7 15 100 0.0217391
3 7 15 100 0.0434633
4 7 15 100 1.82595e-05
5 7 15 100 0.130408
6 7 15 100 0.0216929
7 7 15 100 2.19519e-07
8 7 15 100 0.0218485
9 7 15 100 0.070738
10 7 15 100 0.0835746
11 7 15 100 0.0816126
12 7 15 100 0.0893608
13 7 15 100 0.0470687
14 7 15 100 0.214047
15 7 15 100 0.0869212
0 8 15 100 0.0402645
1 8 15 100 0.0397261
2 8 15 100 0.000554178
3 8 15 100 0.0237872
4 8 15 100 0.00833262
5 8 15 100 0.119291
6 8 15 100 0.0238091
7 8 15 100 8.9391e-06
8 8 15 100 0.0238131
9 8 15 100 0.0242181
10 8 15 100 0.0718337
11 8 15 100 0.0556212
12 8 15 100 0.064413
13 8 15 100 0.00382727
14 8 15 100 0.214865
15 8 15 100 0.285635
0 9 15 100 0.0357546
2 9 15 100 0.0332553
5 9 15 100 0.0889007
8 9 15 100 0.0333339
9 9 15 100 0.0667446
11 9 15 100 0.0759597
12 9 15 100 0.0668928
14 9 15 100 0.0995073
15 9 15 100 0.499651
0 10 15 100 0.000335038
2 10 15 100 0.063174
5 10 15 100 0.0701596
8 10 15 100 0.0666656
10 10 15 100 0.0101522
11 10 15 100 0.189136
12 10 15 100 0.0666668
13 10 15 100 2.3521e-06
14 10 15 100 0.200685
15 10 15 100 0.333023
0 11 15 100 0.000752934
5 11 15 100 0.1
11 11 15 100 0.2
12 11 15 100 0.1
15 11 15 100 0.599247
0 12 15 100 0.240717
10 12 15 100 1.72722e-05
11 12 15 100 0.259736
15 12 15 100 0.49953
0 13 15 100 0.000294877
15 13 15 100 0.999705
0 1 16 100 0.0972787
1 1 16 100 0.474072
2 1 16 100 0.0876451
3 1 16 100 0.0316774
4 1 16 100 0.0588843
5 1 16 100 0.0970796
6 1 16 100 0.0653978
7 1 16 100 0.000871436
8 1 16 100 0.000403413
9 1 16 100 0.0435745
11 1 16 100 0.0218109
12 1 16 100 1.25428e-06
14 1 16 100 0.000865767
15 1 16 100 0.0204375
0 2 16 100 0.0771173
1 2 16 100 0.28306
2 2 16 100 0.102161
3 2 16 100 0.190854
4 2 16 100 0.0270878
5 2 16 100 0.0890649
6 2 16 100 0.0654152
7 2 16 100 0.0364935
8 2 16 100 0.0218291
9 2 16 100 0.0416876
10 2 16 100 0.0217388
11 2 16 100 0.0217487
15 2 16 100 0.0217423
0 3 16 100 0.00698
1 3 16 100 0.192044
2 3 16 100 0.0432633
3 3 16 100 0.199584
4 3 16 100 0.0477343
5 3 16 100 0.0421197
6 3 16 100 0.130229
7 3 16 100 0.142279
8 3 16 100 0.0435708
9 3 16 100 0.043485
10 3 16 100 0.0217382
11 3 16 100 0.00141634
12 3 16 100 1.6084e-06
13 3 16 100 0.0420743
14 3 16 100 0.0217391
15 3 16 100 0.0217412
0 4 16 100 0.0883828
1 4 16 100 0.0196384
2 4 16 100 0.100626
3 4 16 100 0.131111
4 4 16 100 0.0833096
5 4 16 100 0.0218353
6 4 16 100 0.102819
7 4 16 100 0.152502
8 4 16 100 0.0830346
9 4 16 100 0.0459228
10 4 16 100 0.0628671
11 4 16 100 0.0217388
12 4 16 100 6.81603e-05
13 4 16 100 0.0217394
14 4 16 100 0.0425075
15 4 16 100 0.0218977
0 5 16 100 0.0725707
1 5 16 100 6.86471e-05
2 5 16 100 0.00510202
3 5 16 100 0.0653022
4 5 16 100 0.0350605
5 5 16 100 0.000139132
6 5 16 100 0.153885
7 5 16 100 0.0825731
8 5 16 100 0.0445756
9 5 16 100 0.108491
10 5 16 100 0.275154
11 5 16 100 0.023098
12 5 16 100 0.0219302
13 5 16 100 0.0633916
14 5 16 100 0.000324352
15 5 16 100 0.0483337
0 6 16 100 0.0410738
2 6 16 100 0.0217391
3 6 16 100 2.95176e-07
4 6 16 100 0.000849642
5 6 16 100 7.69906e-07
6 6 16 100 0.0252792
7 6 16 100 0.105088
8 6 16 100 0.0869221
9 6 16 100 0.129835
10 6 16 100 0.0891875
11 6 16 100 0.239107
12 6 16 100 0.0453967
13 6 16 100 0.0815419
14 6 16 100 7.88925e-06
15 6 16 100 0.133971
0 7 16 100 0.0669182
1 7 16 100 1.27241e-05
2 7 16 100 0.0011639
3 7 16 100 4.37231e-06
4 7 16 100 5.30057e-06
5 7 16 100 0.0217605
6 7 16 100 0.0217392
7 7 16 100 0.0434321
8 7 16 100 0.0217983
9 7 16 100 0.135231
10 7 16 100 0.0680982
11 7 16 100 0.0318615
12 7 16 100 0.218279
13 7 16 100 0.0993301
14 7 16 100 0.0434492
15 7 16 100 0.139993
16 7 16 100 0.0869245
0 8 16 100 0.142545
3 8 16 100 1.62299e-06
4 8 16 100 2.49787e-06
5 8 16 100 0.0238098
6 8 16 100 0.0476218
7 8 16 100 0.000357951
8 8 16 100 0.0238113
9 8 16 100 0.0577256
10 8 16 100 0.095243
11 8 16 100 3.82204e-05
12 8 16 100 0.210314
13 8 16 100 0.0745284
14 8 16 100 0.0229826
15 8 16 100 0.205796
16 8 16 100 0.0952222
0 9 16 100 0.0620068
2 9 16 100 0.0261951
3 9 16 100 8.41784e-07
4 9 16 100 4.80408e-06
5 9 16 100 0.0263562
6 9 16 100 0.0261744
7 9 16 100 0.0263158
8 9 16 100 0.0262761
9 9 16 100 0.0263158
10 9 16 100 0.0527638
11 9 16 100 0.00476451
12 9 16 100 0.120687
13 9 16 100 0.0398878
14 9 16 100 0.0441641
15 9 16 100 0.439222
16 9 16 100 0.0788644
0 10 16 100 0.0365672
3 10 16 100 4.75417e-06
5 10 16 100 0.0285739
7 10 16 100 0.0285714
9 10 16 100 0.0286007
10 10 16 100 0.0285714
11 10 16 100 5.29237e-05
12 10 16 100 0.0657897
13 10 16 100 0.0286163
14 10 16 100 0.0856382
15 10 16 100 0.211966
16 10 16 100 0.457048
0 11 16 100 0.0238239
10 11 16 100 0.052718
11 11 16 100 0.0506691
12 11 16 100 0.10526
13 11 16 100 0.0526256
14 11 16 100 0.105271
15 11 16 100 0.293917
16 11 16 100 0.315715
0 12 16 100 0.0529944
10 12 16 100 0.0140685
11 12 16 100 1.34339e-05
13 12 16 100 0.0588306
14 12 16 100 0.0769096
15 12 16 100 0.182252
16 12 16 100 0.614931
0 13 16 100 0.00238862
3 13 16 100 1.27235e-05
4 13 16 100 1.70032e-05
10 13 16 100 0.19807
14 13 16 100 0.19985
15 13 16 100 0.200092
16 13 16 100 0.399569
0 14 16 100 0.000491421
6 14 16 100 6.43138e-06
9 14 16 100 0.000185761
15 14 16 100 0.333137
16 14 16 100 0.666179
0 15 16 100 0.00269831
16 15 16 100 0.997302
0 1 17 100 0.0340013
1 1 17 100 0.386544
2 1 17 100 0.209758
3 1 17 100 0.104057
4 1 17 100 0.0290443
5 1 17 100 0.0332914
6 1 17 100 0.081876
7 1 17 100 0.0248535
8 1 17 100 0.00648091
9 1 17 100 0.00027882
10 1 17 100 0.000319937
11 1 17 100 0.0599099
12 1 17 100 1.02515e-06
13 1 17 100 3.79118e-06
14 1 17 100 2.23545e-05
16 1 17 100 0.0295581
0 2 17 100 0.0653229
1 2 17 100 0.0873729
2 2 17 100 0.065805
3 2 17 100 0.121746
4 2 17 100 0.110854
5 2 17 100 0.158127
6 2 17 100 0.147834
7 2 17 100 0.0326746
8 2 17 100 0.0295626
9 2 17 100 0.0294221
11 2 17 100 0.0588242
12 2 17 100 1.64353e-06
13 2 17 100 0.00678791
14 2 17 100 0.0294118
16 2 17 100 0.0562533
0 3 17 100 0.0332438
1 3 17 100 0.000426103
3 3 17 100 0.0852213
4 3 17 100 0.0588016
5 3 17 100 0.0387715
6 3 17 100 0.204588
7 3 17 100 0.0882613
8 3 17 100 0.0874162
9 3 17 100 0.0869639
10 3 17 100 0.023519
11 3 17 100 0.0477798
12 3 17 100 0.0296879
13 3 17 100 0.0338257
14 3 17 100 0.0568774
15 3 17 100 0.0298607
16 3 17 100 0.0947557
0 4 17 100 0.0678004
1 4 17 100 1.41949e-05
2 4 17 100 8.78974e-06
3 4 17 100 1.90816e-05
4 4 17 100 3.52967e-05
5 4 17 100 0.0616448
6 4 17 100 0.192096
7 4 17 100 0.115011
8 4 17 100 0.0644842
9 4 17 100 0.123821
10 4 17 100 0.029654
11 4 17 100 0.0512982
12 4 17 100 0.0293773
13 4 17 100 0.00380563
14 4 17 100 0.0588275
15 4 17 100 5.49993e-07
16 4 17 100 0.172693
17 4 17 100 0.0294098
0 5 17 100 0.0303414
1 5 17 100 1.55673e-05
3 5 17 100 0.00368198
5 5 17 100 1.55634e-06
6 5 17 100 0.131786
7 5 17 100 0.0606533
8 5 17 100 0.151413
9 5 17 100 0.117488
10 5 17 100 0.12476
11 5 17 100 0.0606187
12 5 17 100 0.0300905
13 5 17 100 0.0910324
14 5 17 100 0.0609064
15 5 17 100 0.0159865
16 5 17 100 0.060641
17 5 17 100 0.0605849
0 6 17 100 0.0322502
1 6 17 100 2.12663e-06
3 6 17 100 0.0626567
5 6 17 100 3.30446e-07
6 6 17 100 0.0321115
7 6 17 100 0.0645083
8 6 17 100 0.0364062
9 6 17 100 0.129051
10 6 17 100 0.0674238
11 6 17 100 0.0598146
12 6 17 100 0.0945605
13 6 17 100 0.064522
14 6 17 100 0.121865
15 6 17 100 0.0644874
16 6 17 100 0.17034
0 7 17 100 0.110337
3 7 17 100 0.127509
6 7 17 100 0.0307045
7 7 17 100 0.0508405
8 7 17 100 0.0322581
9 7 17 100 0.0647212
10 7 17 100 0.0644805
11 7 17 100 0.0644744
12 7 17 100 0.0974016
13 7 17 100 0.0645133
14 7 17 100 0.0654512
15 7 17 100 0.095578
16 7 17 100 0.13173
0 8 17 100 0.0323842
3 8 17 100 0.0967742
4 8 17 100 2.59747e-06
5 8 17 100 5.93498e-07
7 8 17 100 0.0321942
8 8 17 100 0.065253
9 8 17 100 0.064514
10 8 17 100 0.064489
11 8 17 100 0.096835
12 8 17 100 0.0322581
13 8 17 100 0.000297348
14 8 17 100 0.0322914
15 8 17 100 0.128196
16 8 17 100 0.193345
17 8 17 100 0.161165
0 9 17 100 0.153815
1 9 17 100 7.33831e-07
3 9 17 100 0.0769324
4 9 17 100 0.000314026
5 9 17 100 5.03803e-06
6 9 17 100 0.000204266
7 9 17 100 0.0384665
9 9 17 100 0.00127321
10 9 17 100 0.0388779
11 9 17 100 0.0759997
12 9 17 100 0.00286018
13 9 17 100 0.0725054
14 9 17 100 0.000951036
15 9 17 100 0.116169
16 9 17 100 0.306449
17 9 17 100 0.115177
0 10 17 100 0.0438776
8 10 17 100 0.0434783
11 10 17 100 0.0434782
12 10 17 100 0.0433286
13 10 17 100 0.0869512
14 10 17 100 0.0434736
15 10 17 100 0.0433001
16 10 17 100 0.217729
17 10 17 100 0.434383
0 11 17 100 0.158684
6 11 17 100 0.0769231
10 11 17 100 9.69384e-07
11 11 17 100 1.56719e-06
12 11 17 100 5.89161e-06
13 11 17 100 0.153839
14 11 17 100 0.0854858
15 11 17 100 0.00105781
16 11 17 100 0.144226
17 11 17 100 0.379777
0 12 17 100 0.0004518
6 12 17 100 0.125
10 12 17 100 2.26068e-06
11 12 17 100 5.98966e-06
13 12 17 100 0.229884
14 12 17 100 3.08934e-05
15 12 17 100 0.144974
16 12 17 100 0.374967
17 12 17 100 0.124684
0 13 17 100 0.27984
3 13 17 100 2.45456e-05
6 13 17 100 1.7676e-05
10 13 17 100 6.03488e-06
11 13 17 100 1.75341e-06
13 13 17 100 2.09936e-05
14 13 17 100 0.000430974
15 13 17 100 0.143556
16 13 17 100 0.433359
17 13 17 100 0.142743
0 14 17 100 0.166924
14 14 17 100 4.93771e-05
17 14 17 100 0.833027
16 15 17 100 1
14 16 17 100 0.000668961
16 16 17 100 0.999331
0 17 17 100 3.67912e-05
17 17 17 100 0.999963
0 1 18 100 0.0935267
1 1 18 100 0.268152
2 1 18 100 0.194205
3 1 18 100 0.264843
4 1 18 100 0.178614
5 1 18 100 2.18166e-05
8 1 18 100 0.00044441
9 1 18 100 4.81725e-06
10 1 18 100 8.22077e-06
11 1 18 100 6.4566e-06
12 1 18 100 8.7804e-07
13 1 18 100 6.14061e-06
14 1 18 100 8.47514e-07
15 1 18 100 0.000163517
16 1 18 100 2.3523e-06
0 2 18 100 0.05325
1 2 18 100 0.215778
2 2 18 100 0.0526988
3 2 18 100 0.310377
4 2 18 100 0.104627
5 2 18 100 0.0525228
6 2 18 100 0.11281
9 2 18 100 0.0978395
11 2 18 100 6.07045e-05
13 2 18 100 5.48435e-06
16 2 18 100 1.25621e-06
17 2 18 100 2.90744e-05
0 3 18 100 0.0415529
1 3 18 100 0.315729
2 3 18 100 0.0526343
3 3 18 100 0.157602
4 3 18 100 0.000571207
5 3 18 100 0.0178763
6 3 18 100 0.164187
7 3 18 100 0.000124839
8 3 18 100 0.0572886
9 3 18 100 0.0526307
12 3 18 100 0.0525087
13 3 18 100 0.0346632
16 3 18 100 0.0526316
0 4 18 100 0.17982
1 4 18 100 0.171249
2 4 18 100 0.0526317
3 4 18 100 0.0526986
4 4 18 100 0.00154745
5 4 18 100 0.00558976
6 4 18 100 0.153269
7 4 18 100 0.0527183
8 4 18 100 0.0445006
9 4 18 100 0.0526333
10 4 18 100 0.0629605
11 4 18 100 0.0652084
12 4 18 100 0.0526333
15 4 18 100 3.60621e-06
17 4 18 100 0.0525369
0 5 18 100 0.0615199
1 5 18 100 0.0526378
2 5 18 100 0.052628
3 5 18 100 0.0526316
6 5 18 100 0.137694
7 5 18 100 0.0526316
8 5 18 100 0.0546922
9 5 18 100 0.0952491
10 5 18 100 0.11142
11 5 18 100 0.0505711
12 5 18 100 0.105237
13 5 18 100 0.105263
14 5 18 100 0.0202145
15 5 18 100 0.000743855
16 5 18 100 0.046866
0 6 18 100 0.0727391
1 6 18 100 0.0526316
2 6 18 100 0.0526316
6 6 18 100 0.0526325
8 6 18 100 0.000205534
9 6 18 100 0.101955
10 6 18 100 0.0526316
11 6 18 100 0.138694
12 6 18 100 0.185527
13 6 18 100 0.0625742
14 6 18 100 0.10526
15 6 18 100 0.0172558
17 6 18 100 0.105263
0 7 18 100 0.0537607
1 7 18 100 0.0526316
2 7 18 100 0.0526316
6 7 18 100 0.0526316
9 7 18 100 0.0585395
10 7 18 100 0.105252
11 7 18 100 0.0526331
12 7 18 100 0.151991
13 7 18 100 0.0526327
14 7 18 100 0.10413
15 7 18 100 3.85451e-06
16 7 18 100 0.0515228
17 7 18 100 0.21164
0 8 18 100 0.157864
2 8 18 100 0.0526316
5 8 18 100 5.23284e-06
9 8 18 100 0.0526316
10 8 18 100 0.0528735
11 8 18 100 0.0526304
12 8 18 100 0.157572
13 8 18 100 0.0526316
14 8 18 100 0.101576
15 8 18 100 0.052596
17 8 18 100 0.214363
18 8 18 100 0.0526247
0 9 18 100 0.0438962
1 9 18 100 0.0555557
2 9 18 100 0.0555556
4 9 18 100 7.77703e-06
8 9 18 100 0.00539154
10 9 18 100 0.0617683
11 9 18 100 0.0555944
12 9 18 100 0.165104
13 9 18 100 0.111325
14 9 18 100 0.0571486
16 9 18 100 0.0556303
17 9 18 100 0.221925
18 9 18 100 0.111098
0 10 18 100 0.117496
1 10 18 100 0.0624759
3 10 18 100 2.3881e-05
4 10 18 100 0.00449138
6 10 18 100 2.41966e-05
7 10 18 100 0.0136463
8 10 18 100 0.0435773
10 10 18 100 0.0626506
11 10 18 100 1.21074e-05
12 10 18 100 0.12443
13 10 18 100 0.00810861
14 10 18 100 0.0689966
15 10 18 100 0.00439053
16 10 18 100 0.0633701
17 10 18 100 0.238896
18 10 18 100 0.187411
0 11 18 100 0.000218193
4 11 18 100 0.0394626
10 11 18 100 0.0769232
11 11 18 100 0.0373674
12 11 18 100 0.0769232
13 11 18 100 0.0765207
14 11 18 100 0.153864
15 11 18 100 1.46983e-06
16 11 18 100 5.73538e-06
17 11 18 100 0.231146
18 11 18 100 0.307568
0 12 18 100 2.27862e-05
5 12 18 100 1.54928e-05
10 12 18 100 0.110874
12 12 18 100 0.111116
13 12 18 100 0.11109
14 12 18 100 0.222439
15 12 18 100 1.58218e-05
17 12 18 100 5.60459e-06
18 12 18 100 0.444422
0 13 18 100 0.000122565
10 13 18 100 4.18937e-05
12 13 18 100 0.20001
13 13 18 100 0.2
14 13 18 100 0.19999
15 13 18 100 0.194684
17 13 18 100 0.00527427
18 13 18 100 0.199878
0 14 18 100 0.000389493
17 14 18 100 0.25
18 14 18 100 0.749611
16 15 18 100 3.78785e-05
17 15 18 100 0.999962
0 16 18 100 3.56428e-05
18 16 18 100 0.999964
0 1 19 100 0.0395761
1 1 19 100 0.290255
2 1 19 100 0.0853986
3 1 19 100 0.15309
4 1 19 100 0.0782976
5 1 19 100 0.155565
6 1 19 100 0.0743125
7 1 19 100 0.00405219
8 1 19 100 0.000665501
9 1 19 100 0.00848999
10 1 19 100 0.0370379
11 1 19 100 0.00316536
12 1 19 100 6.75555e-06
13 1 19 100 0.016215
14 1 19 100 3.43059e-05
15 1 19 100 0.000243183
16 1 19 100 0.053595
0 2 19 100 0.0733654
1 2 19 100 0.14809
2 2 19 100 0.0746882
3 2 19 100 0.185121
4 2 19 100 0.0741327
5 2 19 100 0.0440969
6 2 19 100 0.111136
7 2 19 100 8.15436e-05
8 2 19 100 0.0018871
9 2 19 100 7.89497e-06
10 2 19 100 0.0351457
11 2 19 100 3.25564e-06
12 2 19 100 0.0670621
13 2 19 100 0.0370378
14 2 19 100 0.000313848
15 2 19 100 8.03583e-07
16 2 19 100 0.0734876
17 2 19 100 0.0367279
18 2 19 100 0.037614
0 3 19 100 0.00129986
1 3 19 100 0.000952108
2 3 19 100 0.0364425
3 3 19 100 0.109363
4 3 19 100 0.0365796
5 3 19 100 0.156573
6 3 19 100 0.184781
7 3 19 100 0.111058
8 3 19 100 0.0200639
9 3 19 100 0.0369314
10 3 19 100 0.0466848
11 3 19 100 1.05196e-05
12 3 19 100 0.0740741
13 3 19 100 0.037037
14 3 19 100 4.41519e-06
16 3 19 100 0.074072
17 3 19 100 0.0370362
18 3 19 100 0.0370371
0 4 19 100 0.105433
1 4 19 100 1.41244e-05
3 4 19 100 1.198e-05
4 4 19 100 0.031208
5 4 19 100 0.101515
6 4 19 100 0.157503
7 4 19 100 0.0633522
8 4 19 100 0.000105701
9 4 19 100 0.110383
10 4 19 100 0.083048
11 4 19 100 0.000218552
12 4 19 100 0.0729472
13 4 19 100 0.0736506
14 4 19 100 0.00510198
15 4 19 100 0.00352332
16 4 19 100 0.0748373
17 4 19 100 0.0393099
18 4 19 100 0.0778376
0 5 19 100 0.0283517
1 5 19 100 0.037037
3 5 19 100 5.32484e-06
5 5 19 100 0.0740742
6 5 19 100 0.0857607
7 5 19 100 0.074033
8 5 19 100 0.037037
9 5 19 100 0.11058
10 5 19 100 0.0740388
11 5 19 100 0.111048
12 5 19 100 0.0369862
13 5 19 100 0.0459896
14 5 19 100 0.0739774
15 5 19 100 0.0259468
17 5 19 100 2.42591e-06
18 5 19 100 0.185132
0 6 19 100 0.0017356
1 6 19 100 0.0369903
4 6 19 100 7.82375e-05
5 6 19 100 0.0740563
6 6 19 100 0.0724209
8 6 19 100 0.074074
9 6 19 100 0.00101091
10 6 19 100 0.0740462
11 6 19 100 0.0730618
12 6 19 100 0.0370409
13 6 19 100 0.0739258
14 6 19 100 0.111111
15 6 19 100 0.0370389
16 6 19 100 4.52846e-05
17 6 19 100 0.0370731
18 6 19 100 0.296291
0 7 19 100 0.0363172
1 7 19 100 0.037037
3 7 19 100 5.09221e-06
5 7 19 100 0.0352999
7 7 19 100 0.0029548
8 7 19 100 0.146903
9 7 19 100 0.0399876
10 7 19 100 0.0374059
11 7 19 100 0.10521
12 7 19 100 0.0370738
13 7 19 100 0.000658211
14 7 19 100 0.147834
15 7 19 100 0.0387724
16 7 19 100 0.037037
17 7 19 100 0.0012112
18 7 19 100 0.25926
19 7 19 100 0.0370333
0 8 19 100 0.115888
7 8 19 100 2.55862e-06
8 8 19 100 0.000200655
9 8 19 100 3.21839e-06
10 8 19 100 0.0444421
11 8 19 100 0.153706
12 8 19 100 0.0707362
13 8 19 100 1.37363e-05
14 8 19 100 0.125161
15 8 19 100 0.0767872
16 8 19 100 0.0777351
17 8 19 100 0.114951
18 8 19 100 0.181968
19 8 19 100 0.0384044
0 9 19 100 0.0291411
3 9 19 100 0.04
6 9 19 100 0.000167303
10 9 19 100 9.07324e-06
11 9 19 100 0.0110744
12 9 19 100 0.115462
14 9 19 100 0.0400021
15 9 19 100 0.0818684
16 9 19 100 0.0799321
17 9 19 100 0.162453
18 9 19 100 0.319965
19 9 19 100 0.119925
0 10 19 100 0.090467
1 10 19 100 5.55431e-06
2 10 19 100 3.01468e-06
3 10 19 100 0.0454558
4 10 19 100 2.2561e-06
6 10 19 100 1.01389e-06
7 10 19 100 0.00214053
8 10 19 100 0.0108836
10 10 19 100 0.0002303
12 10 19 100 0.0116498
14 10 19 100 0.0321973
15 10 19 100 0.0457613
16 10 19 100 0.137061
17 10 19 100 0.135827
18 10 19 100 0.442862
19 10 19 100 0.0454523
0 11 19 100 0.161162
8 11 19 100 0.047279
10 11 19 100 1.83695e-06
12 11 19 100 0.0476191
14 11 19 100 7.39386e-06
15 11 19 100 0.0835811
16 11 19 100 0.076854
17 11 19 100 0.0952709
18 11 19 100 0.202901
19 11 19 100 0.285324
0 12 19 100 0.0466882
5 12 19 100 2.51992e-06
12 12 19 100 0.0666667
14 12 19 100 7.33844e-05
16 12 19 100 8.42701e-07
17 12 19 100 0.2
18 12 19 100 0.353463
19 12 19 100 0.333105
0 13 19 100 0.000490721
11 13 19 100 5.58342e-05
12 13 19 100 2.94695e-06
16 13 19 100 2.07105e-06
17 13 19 100 0.199981
18 13 19 100 0.499716
19 13 19 100 0.299752
0 14 19 100 0.000263302
6 14 19 100 0.00280118
15 14 19 100 9.50747e-05
17 14 19 100 7.2756e-06
18 14 19 100 0.282811
19 14 19 100 0.714022
18 15 19 100 1
0 16 19 100 0.00018321
19 16 19 100 0.999817
0 1 20 100 0.019506
1 1 20 100 0.364093
2 1 20 100 0.115772
3 1 20 100 0.0750725
4 1 20 100 0.105286
6 1 20 100 0.0503802
7 1 20 100 0.152252
8 1 20 100 2.59174e-05
9 1 20 100 0.000126215
11 1 20 100 2.3825e-05
12 1 20 100 0.000108152
16 1 20 100 0.117355
0 2 20 100 0.0740826
1 2 20 100 3.03631e-05
2 2 20 100 0.058789
3 2 20 100 0.231535
4 2 20 100 0.114254
5 2 20 100 0.0546488
6 2 20 100 3.92946e-05
7 2 20 100 0.287013
8 2 20 100 0.0589484
9 2 20 100 0.00102281
10 2 20 100 0.00179677
11 2 20 100 0.000173788
12 2 20 100 1.88312e-05
16 2 20 100 0.117647
0 3 20 100 0.0582129
1 3 20 100 6.22494e-06
2 3 20 100 1.75749e-06
3 3 20 100 0.176432
4 3 20 100 0.0581451
5 3 20 100 0.0595322
6 3 20 100 0.000465416
7 3 20 100 0.176305
8 3 20 100 0.0589999
9 3 20 100 0.0589975
11 3 20 100 0.160183
12 3 20 100 1.88075e-06
13 3 20 100 0.016268
14 3 20 100 2.81651e-05
16 3 20 100 0.0587873
17 3 20 100 0.0587955
18 3 20 100 0.0588366
19 3 20 100 1.3971e-06
0 4 20 100 0.110155
1 4 20 100 0.0536002
2 4 20 100 7.67037e-05
3 4 20 100 0.117617
4 4 20 100 0.00401888
5 4 20 100 0.117201
6 4 20 100 0.10143
7 4 20 100 0.057714
8 4 20 100 0.0694789
9 4 20 100 0.00123537
10 4 20 100 0.00145121
11 4 20 100 0.0546256
12 4 20 100 0.0130634
13 4 20 100 0.0630201
14 4 20 100 0.0588233
15 4 20 100 2.90318e-05
16 4 20 100 0.058812
17 4 20 100 0.117647
0 5 20 100 0.158456
1 5 20 100 0.0588344
2 5 20 100 0.00296565
3 5 20 100 0.0588236
4 5 20 100 0.0581469
6 5 20 100 0.1283
7 5 20 100 0.0588126
8 5 20 100 0.062674
9 5 20 100 0.000864431
10 5 20 100 0.0465699
11 5 20 100 0.0225681
12 5 20 100 5.57393e-05
13 5 20 100 0.0488686
14 5 20 100 0.0587075
15 5 20 100 7.83931e-05
17 5 20 100 0.117626
18 5 20 100 0.0588236
19 5 20 100 0.0588244
0 6 20 100 0.131123
1 6 20 100 3.97044e-06
2 6 20 100 5.7927e-05
4 6 20 100 4.03484e-06
5 6 20 100 0.0587249
6 6 20 100 0.0269741
8 6 20 100 0.0574251
9 6 20 100 0.117715
10 6 20 100 2.16932e-06
11 6 20 100 0.198939
12 6 20 100 0.0589819
13 6 20 100 4.35424e-06
14 6 20 100 0.0585275
15 6 20 100 0.0588236
16 6 20 100 3.93907e-05
17 6 20 100 0.0588248
18 6 20 100 0.114916
19 6 20 100 0.0589138
0 7 20 100 0.295902
10 7 20 100 0.11562
11 7 20 100 0.0867115
12 7 20 100 0.116776
13 7 20 100 0.0309375
14 7 20 100 0.00906518
15 7 20 100 0.0588236
16 7 20 100 0.0589711
17 7 20 100 0.0588724
18 7 20 100 0.0588236
19 7 20 100 0.109498
0 8 20 100 0.0691415
1 8 20 100 1.92011e-06
2 8 20 100 0.000910673
4 8 20 100 5.30453e-06
7 8 20 100 0.0587618
11 8 20 100 0.116739
12 8 20 100 0.107537
13 8 20 100 0.176021
14 8 20 100 0.0591631
15 8 20 100 0.117596
16 8 20 100 0.0588236
17 8 20 100 0.0588243
19 8 20 100 0.176475
0 9 20 100 0.0996017
5 9 20 100 8.89761e-05
7 9 20 100 0.0588235
8 9 20 100 3.24816e-06
11 9 20 100 9.51746e-07
12 9 20 100 0.172959
13 9 20 100 0.0595991
14 9 20 100 0.0575926
15 9 20 100 0.137837
16 9 20 100 0.0588235
17 9 20 100 0.110367
18 9 20 100 0.0581253
19 9 20 100 0.186178
0 10 20 100 0.228343
1 10 20 100 1.06398e-06
4 10 20 100 2.40263e-06
5 10 20 100 2.49307e-05
6 10 20 100 1.48873e-05
8 10 20 100 0.0039751
12 10 20 100 0.117572
13 10 20 100 0.0602567
14 10 20 100 7.65433e-05
15 10 20 100 0.117634
16 10 20 100 0.00784717
17 10 20 100 0.121214
18 10 20 100 0.00278008
19 10 20 100 0.163919
20 10 20 100 0.176339
0 11 20 100 0.0648331
5 11 20 100 1.21097e-05
12 11 20 100 0.0066529
13 11 20 100 0.0714737
14 11 20 100 2.55407e-05
15 11 20 100 0.0714424
16 11 20 100 0.0714334
17 11 20 100 0.285332
18 11 20 100 0.071385
19 11 20 100 0.214627
20 11 20 100 0.142783
0 12 20 100 0.166749
9 12 20 100 1.43144e-06
15 12 20 100 0.083332
16 12 20 100 0.0833398
17 12 20 100 0.25
18 12 20 100 0.0833335
19 12 20 100 0.166659
20 12 20 100 0.166585
0 13 20 100 0.00315349
3 13 20 100 8.24918e-06
6 13 20 100 1.79634e-06
12 13 20 100 0.000925293
13 13 20 100 0.0990113
14 13 20 100 8.17646e-05
16 13 20 100 0.100019
17 13 20 100 0.199993
18 13 20 100 0.1
19 13 20 100 0.297004
20 13 20 100 0.199802
0 14 20 100 0.000210927
3 14 20 100 4.95476e-06
12 14 20 100 0.000187746
13 14 20 100 0.123135
14 14 20 100 0.00167706
16 14 20 100 0.124999
19 14 20 100 0.249995
20 14 20 100 0.49979
0 15 20 100 2.99596e-05
16 15 20 100 0.25
19 15 20 100 0.25
20 15 20 100 0.49997
0 16 20 100 9.07424e-05
19 16 20 100 0.499999
20 16 20 100 0.49991
0 17 20 100 0.0049267
20 17 20 100 0.995073
0 1 21 100 0.00703996
1 1 21 100 0.351553
2 1 21 100 0.0482258
3 1 21 100 0.229967
4 1 21 100 0.117843
5 1 21 100 0.132275
6 1 21 100 0.0454547
7 1 21 100 0.0444095
11 1 21 100 9.5676e-06
16 1 21 100 1.92868e-05
19 1 21 100 0.023203
0 2 21 100 0.104892
1 2 21 100 0.0454821
2 2 21 100 3.69909e-05
3 2 21 100 0.272674
4 2 21 100 0.105692
5 2 21 100 0.179719
6 2 21 100 0.0754321
7 2 21 100 0.0930056
12 2 21 100 0.0454599
13 2 21 100 0.0319695
14 2 21 100 4.61542e-07
15 2 21 100 0.000122516
16 2 21 100 5.85672e-05
19 2 21 100 2.35072e-05
20 2 21 100 0.0454311
0 3 21 100 0.143401
1 3 21 100 0.0513871
3 3 21 100 0.251107
4 3 21 100 0.0877984
5 3 21 100 0.0195245
6 3 21 100 0.0454874
7 3 21 100 0.0909092
8 3 21 100 0.0454554
9 3 21 100 1.81512e-06
10 3 21 100 0.0454462
12 3 21 100 0.0454904
13 3 21 100 0.0385402
14 3 21 100 0.0908812
15 3 21 100 6.87428e-06
18 3 21 100 5.28471e-06
20 3 21 100 0.0445576
0 4 21 100 0.0451384
1 4 21 100 5.84881e-07
2 4 21 100 0.090861
3 4 21 100 0.136193
4 4 21 100 0.000512809
5 4 21 100 0.0464014
6 4 21 100 0.0922776
7 4 21 100 0.13461
8 4 21 100 0.0454729
9 4 21 100 1.23966e-06
10 4 21 100 0.120551
11 4 21 100 1.84282e-05
12 4 21 100 0.0454507
13 4 21 100 0.0477301
14 4 21 100 0.0907747
15 4 21 100 1.27681e-06
16 4 21 100 0.0131043
20 4 21 100 0.0454478
21 4 21 100 0.0454531
0 5 21 100 0.0959048
1 5 21 100 7.08496e-05
2 5 21 100 0.095238
4 5 21 100 0.0131077
5 5 21 100 0.048794
6 5 21 100 0.0952082
7 5 21 100 0.177303
8 5 21 100 0.0464853
9 5 21 100 0.0451664
10 5 21 100 0.047686
11 5 21 100 0.0122659
12 5 21 100 0.047636
14 5 21 100 0.142894
15 5 21 100 0.0286277
16 5 21 100 0.0476191
17 5 21 100 0.00831568
18 5 21 100 5.80452e-05
20 5 21 100 0.0476191
0 6 21 100 0.171375
1 6 21 100 0.000311895
2 6 21 100 5.53043e-07
3 6 21 100 8.61804e-07
4 6 21 100 0.0950219
5 6 21 100 0.0503082
6 6 21 100 0.0574874
7 6 21 100 0.0952159
8 6 21 100 0.142572
9 6 21 100 0.0476298
10 6 21 100 0.0479134
11 6 21 100 0.0471129
12 6 21 100 0.0897549
13 6 21 100 0.00257781
14 6 21 100 0.0476419
15 6 21 100 6.93671e-05
16 6 21 100 0.00913748
17 6 21 100 3.64598e-05
18 6 21 100 0.0195282
20 6 21 100 0.0763043
0 7 21 100 0.00357953
4 7 21 100 0.0476191
5 7 21 100 0.0481508
7 7 21 100 0.103479
8 7 21 100 0.0463898
9 7 21 100 0.0952388
10 7 21 100 0.0950456
11 7 21 100 0.0476198
12 7 21 100 0.188467
13 7 21 100 0.0471377
14 7 21 100 0.000321892
15 7 21 100 0.0952382
16 7 21 100 0.0864235
17 7 21 100 4.90506e-05
18 7 21 100 7.54544e-07
20 7 21 100 0.0476242
21 7 21 100 0.0476153
0 8 21 100 0.000836739
1 8 21 100 3.16726e-06
2 8 21 100 1.71973e-06
5 8 21 100 0.100032
6 8 21 100 1.95787e-05
7 8 21 100 0.100004
8 8 21 100 0.00118366
9 8 21 100 0.00304485
10 8 21 100 0.246079
12 8 21 100 0.168935
13 8 21 100 0.05
14 8 21 100 0.0510514
15 8 21 100 2.5268e-06
16 8 21 100 0.0799086
17 8 21 100 0.018426
18 8 21 100 0.0805026
19 8 21 100 1.7708e-06
21 8 21 100 0.0999682
0 9 21 100 0.230561
1 9 21 100 4.06247e-06
3 9 21 100 1.21566e-05
5 9 21 100 0.102253
6 9 21 100 1.27461e-05
7 9 21 100 0.00819454
8 9 21 100 0.00886482
10 9 21 100 0.159284
11 9 21 100 0.0555558
12 9 21 100 0.0472902
13 9 21 100 0.107814
14 9 21 100 0.00117016
15 9 21 100 0.0563511
17 9 21 100 0.055512
18 9 21 100 0.111601
19 9 21 100 0.0555192
0 10 21 100 0.116783
6 10 21 100 0.000274163
7 10 21 100 0.0555509
8 10 21 100 0.0555556
10 10 21 100 0.0555555
11 10 21 100 1.36615e-06
12 10 21 100 0.15739
13 10 21 100 0.0639444
14 10 21 100 0.0555784
15 10 21 100 0.000769819
16 10 21 100 0.0555587
17 10 21 100 1.18986e-05
18 10 21 100 0.10536
19 10 21 100 0.111139
20 10 21 100 0.166527
0 11 21 100 0.0596902
8 11 21 100 0.0555539
11 11 21 100 0.111112
12 11 21 100 0.0555683
13 11 21 100 0.0574281
14 11 21 100 0.0555536
15 11 21 100 0.106098
16 11 21 100 0.0555555
17 11 21 100 4.74792e-05
18 11 21 100 0.0555755
19 11 21 100 4.97031e-06
20 11 21 100 0.387812
0 12 21 100 0.00763462
7 12 21 100 0.00174443
8 12 21 100 0.0555556
11 12 21 100 0.111111
12 12 21 100 0.0538108
13 12 21 100 8.93005e-06
14 12 21 100 0.054629
15 12 21 100 0.109454
16 12 21 100 0.0555556
17 12 21 100 0.000115722
18 12 21 100 0.0409259
19 12 21 100 0.0695533
20 12 21 100 0.273246
21 12 21 100 0.166654
0 13 21 100 0.140766
4 13 21 100 0.000234375
11 13 21 100 0.0666668
13 13 21 100 1.09293e-05
15 13 21 100 0.130606
16 13 21 100 0.0666668
17 13 21 100 0.0616763
18 13 21 100 0.133428
19 13 21 100 0.0660985
20 13 21 100 0.000610429
21 13 21 100 0.333236
0 14 21 100 0.199708
8 14 21 100 0.0999991
10 14 21 100 2.19449e-05
11 14 21 100 0.1
12 14 21 100 2.27964e-05
14 14 21 100 0.100081
15 14 21 100 1.13431e-06
16 14 21 100 0.0986863
17 14 21 100 0.0999881
18 14 21 100 0.199999
20 14 21 100 0.00153218
21 14 21 100 0.0999596
0 15 21 100 0.00723258
11 15 21 100 0.111111
14 15 21 100 0.111111
15 15 21 100 0.0174432
16 15 21 100 0.104307
17 15 21 100 0.0936686
18 15 21 100 0.332904
20 15 21 100 0.222222
0 16 21 100 2.78836e-05
11 16 21 100 0.111111
14 16 21 100 0.111111
15 16 21 100 0.111111
17 16 21 100 9.84175e-06
18 16 21 100 0.222213
20 16 21 100 0.222222
21 16 21 100 0.222194
0 17 21 100 0.146702
1 17 21 100 3.1619e-06
8 17 21 100 0.000170955
14 17 21 100 5.86377e-06
15 17 21 100 0.142857
18 17 21 100 0.139241
20 17 21 100 0.28554
21 17 21 100 0.28548
0 18 21 100 0.206475
10 18 21 100 1.92962e-05
16 18 21 100 5.15122e-05
18 18 21 100 0.197701
19 18 21 100 0.0022796
20 18 21 100 0.193557
21 18 21 100 0.399916
0 19 21 100 0.342327
12 19 21 100 0.324131
20 19 21 100 0.00022877
21 19 21 100 0.333313
0 20 21 100 0.0268945
11 20 21 100 5.99102e-06
13 20 21 100 0.499994
19 20 21 100 2.33463e-05
20 20 21 100 0.473082
0 21 21 100 3.23146e-05
14 21 21 100 0.5
21 21 21 100 0.499968
0 22 21 100 0.000263738
16 22 21 100 0.999736
11 23 21 100 0.000202164
19 23 21 100 0.945978
20 23 21 100 0.05382
17 24 21 100 0.00299898
20 24 21 100 0.997001
20 25 21 100 1
0 26 21 100 6.84927e-05
21 26 21 100 0.999932
0 1 22 100 0.0997395
1 1 22 100 0.334114
2 1 22 100 0.053643
3 1 22 100 0.119883
4 1 22 100 0.0941273
5 1 22 100 0.214773
7 1 22 100 5.95478e-05
10 1 22 100 0.08329
12 1 22 100 9.19898e-07
13 1 22 100 1.01495e-05
15 1 22 100 2.0849e-05
17 1 22 100 2.07745e-06
19 1 22 100 9.5113e-05
21 1 22 100 0.000241278
0 2 22 100 0.083116
1 2 22 100 0.249872
3 2 22 100 0.0834193
4 2 22 100 0.00015646
5 2 22 100 0.0833397
6 2 22 100 0.166706
7 2 22 100 0.0834807
9 2 22 100 0.0832474
13 2 22 100 0.0833296
17 2 22 100 0.0831891
21 2 22 100 0.00014423
0 3 22 100 0.0833349
1 3 22 100 0.00156726
2 3 22 100 0.000436495
3 3 22 100 0.249476
4 3 22 100 8.23424e-05
5 3 22 100 8.88412e-07
6 3 22 100 0.166803
7 3 22 100 0.248305
8 3 22 100 1.84056e-06
9 3 22 100 0.0787583
10 3 22 100 0.00456505
14 3 22 100 9.74496e-07
16 3 22 100 4.75566e-06
17 3 22 100 0.0833335
18 3 22 100 1.58631e-05
21 3 22 100 0.0833147
0 4 22 100 0.230876
3 4 22 100 0.166667
4 4 22 100 0.079805
5 4 22 100 0.00349401
6 4 22 100 0.0833676
7 4 22 100 3.42452e-06
8 4 22 100 0.0827199
11 4 22 100 0.0833335
12 4 22 100 4.84254e-05
13 4 22 100 0.0196905
16 4 22 100 0.0833332
17 4 22 100 0.0833308
19 4 22 100 7.99994e-06
21 4 22 100 0.0833221
0 5 22 100 0.00397309
2 5 22 100 7.39977e-05
3 5 22 100 0.0833334
5 5 22 100 0.162802
7 5 22 100 0.0496776
9 5 22 100 0.166713
10 5 22 100 1.59422e-05
11 5 22 100 0.119877
13 5 22 100 0.0337925
14 5 22 100 0.112178
16 5 22 100 0.0833199
17 5 22 100 0.100895
18 5 22 100 1.6337e-05
19 5 22 100 7.81097e-06
21 5 22 100 0.0833242
0 6 22 100 0.0869442
1 6 22 100 1.20532e-06
5 6 22 100 2.49222e-06
6 6 22 100 0.0794315
7 6 22 100 3.96556e-06
8 6 22 100 0.0834328
9 6 22 100 0.0833319
10 6 22 100 0.0833314
11 6 22 100 0.0833335
12 6 22 100 0.0835222
15 6 22 100 2.57055e-06
16 6 22 100 0.0830858
17 6 22 100 0.0835932
21 6 22 100 0.249983
0 7 22 100 0.166667
3 7 22 100 2.70682e-06
8 7 22 100 0.00517734
9 7 22 100 0.0836878
10 7 22 100 0.0779346
11 7 22 100 0.155984
12 7 22 100 0.166405
13 7 22 100 0.00964873
14 7 22 100 0.00026186
16 7 22 100 0.00624949
17 7 22 100 0.161314
20 7 22 100 1.95761e-06
21 7 22 100 0.166666
0 8 22 100 0.305006
1 8 22 100 3.34979e-06
7 8 22 100 7.45085e-05
9 8 22 100 1.44118e-06
10 8 22 100 0.0832189
11 8 22 100 7.15307e-06
12 8 22 100 0.0833335
13 8 22 100 0.111748
15 8 22 100 1.48522e-05
17 8 22 100 0.249957
18 8 22 100 0.0758356
20 8 22 100 0.00749775
21 8 22 100 0.0833014
0 9 22 100 0.0621601
4 9 22 100 8.89559e-05
5 9 22 100 7.16073e-05
10 9 22 100 0.00866999
11 9 22 100 0.0833074
12 9 22 100 0.0831741
13 9 22 100 0.0833307
14 9 22 100 0.0833334
17 9 22 100 0.0213202
18 9 22 100 5.44033e-05
19 9 22 100 0.0746087
20 9 22 100 0.0833334
21 9 22 100 0.25
22 9 22 100 0.166547
0 10 22 100 0.00103351
10 10 22 100 0.0719825
12 10 22 100 0.0023592
13 10 22 100 0.0882313
14 10 22 100 0.0115041
15 10 22 100 0.1
16 10 22 100 0.0992312
17 10 22 100 0.0953198
18 10 22 100 0.000120453
19 10 22 100 0.130338
20 10 22 100 0.0998797
21 10 22 100 0.3
0 11 22 100 0.000131078
3 11 22 100 4.38335e-06
10 11 22 100 0.0998578
12 11 22 100 0.1
13 11 22 100 0.000676404
15 11 22 100 0.0992002
16 11 22 100 2.9205e-06
17 11 22 100 0.100265
19 11 22 100 0.199899
20 11 22 100 7.73225e-06
21 11 22 100 0.199988
22 11 22 100 0.199967
0 12 22 100 0.237534
4 12 22 100 5.6216e-06
7 12 22 100 0.000215699
10 12 22 100 0.125
12 12 22 100 0.125
13 12 22 100 3.51118e-05
15 12 22 100 1.35647e-06
16 12 22 100 0.0121324
18 12 22 100 0.000130507
19 12 22 100 0.125
20 12 22 100 0.125
22 12 22 100 0.249945
0 13 22 100 0.000225634
8 13 22 100 3.93304e-05
15 13 22 100 0.166331
16 13 22 100 0.166369
17 13 22 100 0.000106377
18 13 22 100 0.167154
19 13 22 100 0.166671
20 13 22 100 0.166663
22 13 22 100 0.166441
0 14 22 100 0.227225
3 14 22 100 2.59752e-06
5 14 22 100 5.14385e-06
8 14 22 100 2.82549e-05
16 14 22 100 0.200088
18 14 22 100 0.172653
19 14 22 100 0.199998
21 14 22 100 0.2
0 15 22 100 0.398639
7 15 22 100 0.000135899
11 15 22 100 0.2
20 15 22 100 0.2
21 15 22 100 0.00124199
22 15 22 100 0.199982
0 16 22 100 2.49765e-05
8 16 22 100 9.44224e-06
11 16 22 100 0.25
16 16 22 100 1.3433e-05
17 16 22 100 2.89077e-06
18 16 22 100 0.0188235
19 16 22 100 0.000306324
20 16 22 100 0.720572
21 16 22 100 0.0102476
0 17 22 100 0.000167133
20 17 22 100 0.25
21 17 22 100 0.25
22 17 22 100 0.499833
0 18 22 100 7.6377e-05
22 18 22 100 0.999924
0 1 23 100 0.0845937
1 1 23 100 0.296855
2 1 23 100 0.211715
3 1 23 100 0.0549419
4 1 23 100 0.236396
5 1 23 100 0.00405045
6 1 23 100 1.86111e-06
7 1 23 100 0.111115
8 1 23 100 4.24377e-06
10 1 23 100 1.37443e-06
11 1 23 100 3.42054e-06
12 1 23 100 0.000258623
13 1 23 100 3.14861e-06
14 1 23 100 1.06434e-06
15 1 23 100 6.14673e-07
18 1 23 100 5.79493e-05
0 2 23 100 0.0010037
1 2 23 100 0.111171
2 2 23 100 0.0677365
3 2 23 100 0.112971
4 2 23 100 0.0990611
5 2 23 100 0.148759
6 2 23 100 0.167083
7 2 23 100 0.111111
8 2 23 100 1.58203e-06
9 2 23 100 0.0555557
11 2 23 100 0.018263
12 2 23 100 0.0470391
14 2 23 100 0.00468486
15 2 23 100 2.16521e-06
16 2 23 100 8.49489e-07
17 2 23 100 7.68332e-07
20 2 23 100 0.0555556
0 3 23 100 0.0555536
1 3 23 100 0.111101
2 3 23 100 0.0556542
3 3 23 100 0.0555054
4 3 23 100 0.110604
5 3 23 100 0.000408252
6 3 23 100 0.222282
7 3 23 100 0.111119
9 3 23 100 0.0555557
11 3 23 100 0.111103
14 3 23 100 0.0555568
20 3 23 100 0.0555557
0 4 23 100 0.174151
1 4 23 100 0.0555629
2 4 23 100 0.0966884
3 4 23 100 0.0558077
4 4 23 100 0.00624207
5 4 23 100 0.11036
6 4 23 100 0.111104
7 4 23 100 0.166522
8 4 23 100 0.000802638
9 4 23 100 0.000272587
10 4 23 100 6.07948e-05
11 4 23 100 0.111212
13 4 23 100 2.11674e-06
15 4 23 100 0.000100848
18 4 23 100 9.54294e-07
20 4 23 100 0.11111
22 4 23 100 9.12976e-07
0 5 23 100 0.114408
3 5 23 100 0.0555576
4 5 23 100 4.04387e-05
5 5 23 100 3.63351e-06
6 5 23 100 0.0594536
7 5 23 100 0.218783
8 5 23 100 0.111105
9 5 23 100 0.0554952
10 5 23 100 0.107291
11 5 23 100 0.165344
12 5 23 100 0.0568645
14 5 23 100 4.8512e-05
15 5 23 100 5.62559e-06
21 5 23 100 4.01306e-05
22 5 23 100 0.0555556
23 5 23 100 4.57211e-06
0 6 23 100 0.0592505
2 6 23 100 7.36627e-06
3 6 23 100 0.0555702
6 6 23 100 6.46371e-06
7 6 23 100 0.0555572
8 6 23 100 0.162357
9 6 23 100 0.115261
10 6 23 100 1.69965e-05
11 6 23 100 0.110331
12 6 23 100 0.111111
13 6 23 100 0.163042
14 6 23 100 0.000779592
15 6 23 100 0.0556417
17 6 23 100 8.3261e-06
19 6 23 100 1.37706e-05
20 6 23 100 8.1808e-07
21 6 23 100 0.0554891
22 6 23 100 0.0555556
0 7 23 100 0.0189834
6 7 23 100 4.87925e-05
7 7 23 100 4.8012e-06
8 7 23 100 0.055569
9 7 23 100 0.151182
11 7 23 100 0.11127
12 7 23 100 0.120998
13 7 23 100 0.0639541
14 7 23 100 0.162608
15 7 23 100 0.0934619
16 7 23 100 0.0553269
17 7 23 100 0.0554681
19 7 23 100 0.0555556
21 7 23 100 3.85683e-06
22 7 23 100 0.0555656
0 8 23 100 0.0128631
1 8 23 100 4.91273e-06
7 8 23 100 5.46129e-06
8 8 23 100 0.0555556
9 8 23 100 0.0559125
10 8 23 100 0.111839
11 8 23 100 0.0415948
12 8 23 100 0.0555578
13 8 23 100 0.0555677
14 8 23 100 0.111111
15 8 23 100 0.222031
16 8 23 100 0.0556812
17 8 23 100 0.0555556
18 8 23 100 0.000287039
19 8 23 100 1.50798e-05
20 8 23 100 0.0553258
21 8 23 100 0.0555354
22 8 23 100 0.0555562
0 9 23 100 0.113291
1 9 23 100 9.1954e-06
3 9 23 100 3.74378e-05
5 9 23 100 8.04913e-07
7 9 23 100 0.000724981
10 9 23 100 0.00359738
11 9 23 100 0.0560411
12 9 23 100 0.111321
13 9 23 100 0.00361777
14 9 23 100 0.0586316
15 9 23 100 0.290093
16 9 23 100 0.110996
17 9 23 100 0.106974
18 9 23 100 0.0005504
20 9 23 100 0.0560509
21 9 23 100 0.0293843
22 9 23 100 0.05868
0 10 23 100 0.0634023
1 10 23 100 0.00924667
5 10 23 100 1.97084e-06
6 10 23 100 0.0555556
8 10 23 100 0.000411648
9 10 23 100 0.0555586
12 10 23 100 0.0963731
13 10 23 100 0.0476419
14 10 23 100 3.92668e-05
15 10 23 100 8.04144e-06
16 10 23 100 0.116486
17 10 23 100 2.72721e-05
18 10 23 100 0.166141
20 10 23 100 0.0555794
22 10 23 100 0.333527
0 11 23 100 0.120202
5 11 23 100 1.22635e-06
9 11 23 100 0.0555556
11 11 23 100 1.15238e-05
13 11 23 100 0.0555556
14 11 23 100 4.03369e-05
15 11 23 100 0.0217182
16 11 23 100 0.0554872
17 11 23 100 0.0804632
18 11 23 100 0.0555556
19 11 23 100 0.166511
20 11 23 100 0.0556149
21 11 23 100 0.0533023
22 11 23 100 0.168888
23 11 23 100 0.111093
0 12 23 100 0.00858165
5 12 23 100 7.89715e-07
6 12 23 100 0.0625167
7 12 23 100 8.48922e-07
10 12 23 100 7.3901e-06
11 12 23 100 0.00123452
14 12 23 100 3.50417e-06
16 12 23 100 0.124974
18 12 23 100 0.187389
19 12 23 100 0.234097
20 12 23 100 0.0686098
21 12 23 100 0.00010931
22 12 23 100 0.249997
23 12 23 100 0.0624775
0 13 23 100 0.0804717
1 13 23 100 3.49738e-06
3 13 23 100 8.32144e-06
6 13 23 100 0.0666667
12 13 23 100 0.000186244
14 13 23 100 2.40921e-06
15 13 23 100 0.000242565
16 13 23 100 0.121735
18 13 23 100 0.0666667
19 13 23 100 0.133333
20 13 23 100 0.132836
21 13 23 100 1.32617e-06
22 13 23 100 0.331202
23 13 23 100 0.0666434
0 14 23 100 0.119525
2 14 23 100 1.23162e-05
4 14 23 100 7.84699e-06
6 14 23 100 0.0714286
9 14 23 100 5.3106e-05
16 14 23 100 0.0714286
17 14 23 100 0.000248054
18 14 23 100 0.0714286
19 14 23 100 0.094653
21 14 23 100 0.0714084
22 14 23 100 0.28559
23 14 23 100 0.214216
0 15 23 100 0.00585877
6 15 23 100 0.0909189
11 15 23 100 0.00015008
16 15 23 100 0.0902494
18 15 23 100 0.0908866
22 15 23 100 0.267642
23 15 23 100 0.454295
0 16 23 100 0.000588814
16 16 23 100 0.166667
18 16 23 100 0.166667
22 16 23 100 0.166667
23 16 23 100 0.499411
0 17 23 100 0.333477
3 17 23 100 1.15872e-05
18 17 23 100 0.333334
23 17 23 100 0.333178
11 18 23 100 2.29039e-05
18 18 23 100 8.60044e-06
21 18 23 100 0.499967
22 18 23 100 0.500001
21 19 23 100 0.499998
22 19 23 100 0.500002
22 20 23 100 1
5 21 23 100 0.500001
22 21 23 100 0.499999
0 22 23 100 0.499899
5 22 23 100 0.5
9 22 23 100 0.000100757
5 23 23 100 0.5
22 23 23 100 0.5
0 24 23 100 0.0138407
2 24 23 100 0.0961383
3 24 23 100 0.391883
8 24 23 100 3.29325e-05
9 24 23 100 0.000111167
13 24 23 100 7.24128e-05
17 24 23 100 6.74664e-05
23 24 23 100 0.497854
3 25 23 100 1
0 26 23 100 0.978269
3 26 23 100 0.0217306
0 27 23 100 0.955761
4 27 23 100 0.0441749
6 27 23 100 6.39349e-05
0 28 23 100 0.000780412
4 28 23 100 0.895208
6 28 23 100 0.0932347
15 28 23 100 0.000142028
19 28 23 100 0.0106344
5 29 23 100 0.999447
18 29 23 100 0.00055304
5 30 23 100 1
0 31 23 100 1
5 32 23 100 1
5 33 23 100 1
0 34 23 100 0.0124971
23 34 23 100 0.987503
0 1 24 100 0.0834934
1 1 24 100 0.416577
2 1 24 100 0.084712
3 1 24 100 0.168856
5 1 24 100 0.0201923
6 1 24 100 0.000550953
7 1 24 100 0.135852
8 1 24 100 0.00642862
10 1 24 100 1.50735e-06
13 1 24 100 0.0833333
18 1 24 100 3.91787e-06
0 2 24 100 0.086399
1 2 24 100 0.0852796
2 2 24 100 0.080195
3 2 24 100 0.0842411
4 2 24 100 0.240193
5 2 24 100 2.90807e-06
6 2 24 100 2.20716e-05
7 2 24 100 0.121388
9 2 24 100 0.135573
11 2 24 100 7.06054e-06
12 2 24 100 2.73253e-06
13 2 24 100 3.00118e-05
16 2 24 100 0.0833309
17 2 24 100 0.0833337
19 2 24 100 2.11147e-06
0 3 24 100 0.022569
1 3 24 100 0.166667
3 3 24 100 0.166666
4 3 24 100 0.166595
7 3 24 100 0.0834044
9 3 24 100 0.0844878
11 3 24 100 0.0596098
13 3 24 100 0.0833334
16 3 24 100 0.0833333
17 3 24 100 0.0833346
0 4 24 100 0.00443013
1 4 24 100 0.000127727
2 4 24 100 0.0673677
3 4 24 100 0.167016
4 4 24 100 0.0944076
6 4 24 100 0.0833334
7 4 24 100 0.0832943
11 4 24 100 5.46902e-05
13 4 24 100 0.249946
14 4 24 100 0.0833334
17 4 24 100 0.0833331
19 4 24 100 0.083336
20 4 24 100 2.06721e-05
0 5 24 100 0.241595
2 5 24 100 1.69557e-06
4 5 24 100 0.000152142
5 5 24 100 0.0138419
6 5 24 100 0.000177823
7 5 24 100 0.160105
8 5 24 100 0.083341
9 5 24 100 1.09503e-06
10 5 24 100 3.15321e-06
11 5 24 100 9.71283e-06
12 5 24 100 0.000291722
13 5 24 100 0.0833286
14 5 24 100 0.083391
15 5 24 100 0.0835197
17 5 24 100 0.0834052
19 5 24 100 0.000233424
20 5 24 100 9.64105e-07
21 5 24 100 0.166594
23 5 24 100 7.31565e-06
0 6 24 100 0.166745
3 6 24 100 0.0833334
5 6 24 100 1.03622e-05
7 6 24 100 0.000165432
8 6 24 100 0.0912626
9 6 24 100 0.171328
10 6 24 100 1.76564e-06
11 6 24 100 0.237085
12 6 24 100 7.59038e-05
13 6 24 100 1.19165e-06
15 6 24 100 0.0833228
17 6 24 100 0.0833351
21 6 24 100 0.0151328
23 6 24 100 0.0682006
0 7 24 100 0.0249791
3 7 24 100 0.0833334
8 7 24 100 0.0833253
9 7 24 100 0.199411
10 7 24 100 0.0833569
11 7 24 100 0.16665
14 7 24 100 0.0833334
15 7 24 100 0.0256129
17 7 24 100 0.0833334
18 7 24 100 8.7185e-06
23 7 24 100 0.0833334
24 7 24 100 0.0833229
0 8 24 100 0.00349701
1 8 24 100 0.000416445
2 8 24 100 3.35693e-05
3 8 24 100 0.0904921
5 8 24 100 8.57624e-05
8 8 24 100 0.090858
9 8 24 100 0.00188295
10 8 24 100 0.0909605
11 8 24 100 0.181732
12 8 24 100 0.0873786
14 8 24 100 0.0890263
17 8 24 100 0.0909122
21 8 24 100 0.0909092
22 8 24 100 0.0909092
23 8 24 100 0.0909062
0 9 24 100 0.00170336
4 9 24 100 1.30032e-05
8 9 24 100 0.0909097
9 9 24 100 1.63705e-05
11 9 24 100 0.120965
14 9 24 100 0.1501
15 9 24 100 1.62517e-05
16 9 24 100 0.0908532
17 9 24 100 0.181818
18 9 24 100 0.0909085
21 9 24 100 0.0908929
22 9 24 100 0.0909092
23 9 24 100 0.0908941
0 10 24 100 0.0953304
6 10 24 100 0.00142539
7 10 24 100 0.00131911
8 10 24 100 0.0872481
12 10 24 100 4.60248e-05
13 10 24 100 2.87839e-05
14 10 24 100 0.180711
15 10 24 100 0.179388
16 10 24 100 0.0909092
19 10 24 100 0.00177755
21 10 24 100 0.270949
24 10 24 100 0.0908673
0 11 24 100 0.294814
4 11 24 100 1.79741e-05
5 11 24 100 1.32604e-05
11 11 24 100 0.100012
13 11 24 100 0.000515525
14 11 24 100 0.0999999
15 11 24 100 0.0999933
16 11 24 100 0.199845
18 11 24 100 0.000176279
19 11 24 100 0.00063702
21 11 24 100 0.113484
22 11 24 100 0.0904883
23 11 24 100 3.69964e-06
0 12 24 100 0.196401
9 12 24 100 1.6859e-05
11 12 24 100 5.67175e-05
14 12 24 100 0.196904
17 12 24 100 0.103256
18 12 24 100 4.7642e-06
19 12 24 100 0.00298696
20 12 24 100 0.000269769
21 12 24 100 0.100009
22 12 24 100 0.0824841
23 12 24 100 0.317612
0 13 24 100 0.000842092
13 13 24 100 0.000120125
14 13 24 100 0.1
15 13 24 100 0.1
16 13 24 100 0.1
18 13 24 100 1.25884e-06
19 13 24 100 0.1
20 13 24 100 8.09983e-06
21 13 24 100 0.222722
23 13 24 100 0.376307
0 14 24 100 0.169727
2 14 24 100 9.57772e-06
4 14 24 100 0.0947352
8 14 24 100 7.18364e-06
9 14 24 100 0.000126786
12 14 24 100 0.000806978
15 14 24 100 0.000360552
16 14 24 100 0.1
19 14 24 100 0.0342294
21 14 24 100 0.178744
22 14 24 100 3.74631e-06
23 14 24 100 0.221266
24 14 24 100 0.199983
0 15 24 100 0.12839
4 15 24 100 2.92322e-05
5 15 24 100 0.125
9 15 24 100 0.122722
11 15 24 100 2.98313e-06
14 15 24 100 0.00319376
17 15 24 100 0.24568
18 15 24 100 1.55525e-05
23 15 24 100 0.25
24 15 24 100 0.124967
0 16 24 100 3.07107e-05
4 16 24 100 4.55466e-06
5 16 24 100 0.142857
14 16 24 100 0.142857
17 16 24 100 0.142853
18 16 24 100 0.142911
22 16 24 100 1.56794e-05
23 16 24 100 0.142787
24 16 24 100 0.285684
0 17 24 100 0.203748
14 17 24 100 0.199992
17 17 24 100 0.200001
19 17 24 100 0.196301
20 17 24 100 8.44369e-06
24 17 24 100 0.19995
0 18 24 100 0.00040758
5 18 24 100 0.25
20 18 24 100 0.25
23 18 24 100 0.249997
24 18 24 100 0.249596
0 19 24 100 0.00614338
5 19 24 100 0.333335
10 19 24 100 0.333334
21 19 24 100 0.327187
5 20 24 100 0.333333
10 20 24 100 0.333333
22 20 24 100 0.333327
23 20 24 100 5.88875e-06
6 21 24 100 0.333333
10 21 24 100 0.333333
22 21 24 100 0.292245
23 21 24 100 0.0410889
0 22 24 100 0.0118967
7 22 24 100 0.000592624
10 22 24 100 0.333333
12 22 24 100 0.333333
20 22 24 100 0.0277607
23 22 24 100 0.293083
0 23 24 100 0.0119454
11 23 24 100 0.333395
13 23 24 100 0.321346
18 23 24 100 5.01731e-06
24 23 24 100 0.333309
0 24 24 100 0.485008
8 24 24 100 8.11449e-06
12 24 24 100 0.0146287
14 24 24 100 0.5
15 24 24 100 0.000355045
10 25 24 100 0.5
12 25 24 100 0.5
11 26 24 100 0.5
12 26 24 100 0.5
0 27 24 100 0.00509384
11 27 24 100 0.500023
13 27 24 100 0.494883
0 28 24 100 0.111032
12 28 24 100 0.888962
15 28 24 100 5.83969e-06
12 29 24 100 0.5
17 29 24 100 0.5
11 30 24 100 0.5
12 30 24 100 0.5
0 31 24 100 0.32402
12 31 24 100 0.675668
15 31 24 100 0.000312071
10 32 24 100 0.5
12 32 24 100 0.5
11 33 24 100 0.5
12 33 24 100 0.5
0 34 24 100 0.435431
11 34 24 100 8.03279e-05
12 34 24 100 0.0778146
13 34 24 100 0.486374
15 34 24 100 0.000280737
18 34 24 100 1.93814e-05
5 35 24 100 0.499999
10 35 24 100 0.500001
5 36 24 100 0.5
10 36 24 100 0.5
5 37 24 100 0.5
10 37 24 100 0.5
4 38 24 100 0.5
5 38 24 100 0.5
4 39 24 100 0.499999
10 39 24 100 0.500001
0 40 24 100 0.499228
10 40 24 100 0.499999
24 40 24 100 0.00077217
0 41 24 100 7.76569e-05
4 41 24 100 0.5
20 41 24 100 0.499922
0 42 24 100 0.499817
4 42 24 100 0.5
13 42 24 100 0.000182943
4 43 24 100 1
4 44 24 100 1
4 45 24 100 0.499867
14 45 24 100 0.500001
17 45 24 100 0.000132004
4 46 24 100 0.5
17 46 24 100 0.5
0 47 24 100 0.0998372
8 47 24 100 0.500001
12 47 24 100 0.400162
10 48 24 100 0.500001
11 48 24 100 0.499999
0 49 24 100 0.5
4 49 24 100 0.499967
12 49 24 100 3.27446e-05
0 50 24 100 0.0109934
9 50 24 100 0.5
12 50 24 100 0.487347
13 50 24 100 0.00165943
12 51 24 100 0.5
20 51 24 100 0.5
0 52 24 100 0.00018419
11 52 24 100 0.499693
13 52 24 100 0.000122823
17 52 24 100 0.5
14 53 24 100 0.499998
20 53 24 100 0.500002
17 54 24 100 0.5
20 54 24 100 0.5
0 55 24 100 0.5
20 55 24 100 0.5
17 56 24 100 0.5
20 56 24 100 0.5
0 57 24 100 0.0104002
12 57 24 100 0.489599
20 57 24 100 0.500001
10 58 24 100 0.49999
17 58 24 100 0.5
21 58 24 100 9.62741e-06
0 59 24 100 0.0137419
12 59 24 100 0.486258
20 59 24 100 0.5
3 60 24 100 0.499994
12 60 24 100 6.43479e-06
20 60 24 100 0.5
3 61 24 100 0.5
22 61 24 100 0.5
0 62 24 100 0.000777518
7 62 24 100 0.499999
11 62 24 100 0.499151
13 62 24 100 7.2428e-05
4 63 24 100 0.496575
5 63 24 100 0.000310509
7 63 24 100 0.00311354
22 63 24 100 0.500001
0 64 24 100 0.498507
3 64 24 100 0.0014928
22 64 24 100 0.5
0 65 24 100 0.00388962
22 65 24 100 0.5
24 65 24 100 0.49611
22 66 24 100 1
22 67 24 100 1
0 68 24 100 1.27697e-05
11 68 24 100 0.999987
11 69 24 100 1
22 70 24 100 1
14 71 24 100 1
15 72 24 100 1
16 73 24 100 1
0 74 24 100 0.832075
16 74 24 100 0.167878
19 74 24 100 4.65682e-05
0 75 24 100 1
14 76 24 100 1
0 77 24 100 1
11 78 24 100 1
0 79 24 100 1
0 80 24 100 1.63327e-05
21 80 24 100 0.999984
23 81 24 100 1
24 82 24 100 1
0 1 25 100 0.0402484
1 1 25 100 0.250788
2 1 25 100 0.194913
3 1 25 100 0.127399
4 1 25 100 0.136623
5 1 25 100 0.124861
6 1 25 100 0.125
7 1 25 100 6.88655e-06
8 1 25 100 0.000139584
11 1 25 100 6.88655e-06
20 1 25 100 1.34667e-05
1 2 25 100 0.124935
3 2 25 100 0.124999
4 2 25 100 0.125
5 2 25 100 0.374923
6 2 25 100 0.124974
7 2 25 100 0.125091
13 2 25 100 7.72041e-05
0 3 25 100 0.125001
1 3 25 100 0.000691285
2 3 25 100 0.000421388
3 3 25 100 0.125423
4 3 25 100 0.12508
6 3 25 100 0.249992
7 3 25 100 0.249317
11 3 25 100 0.124074
0 4 25 100 0.00155824
4 4 25 100 0.246693
5 4 25 100 0.0032384
7 4 25 100 0.249962
8 4 25 100 0.153204
9 4 25 100 0.0248927
10 4 25 100 9.49453e-05
11 4 25 100 0.125
12 4 25 100 0.195226
13 4 25 100 0.000109627
19 4 25 100 2.02154e-05
0 5 25 100 1.69142e-05
1 5 25 100 1.73725e-06
5 5 25 100 0.250019
7 5 25 100 0.124964
11 5 25 100 0.249851
12 5 25 100 0.125
13 5 25 100 0.125
14 5 25 100 0.125148
0 6 25 100 9.3957e-05
1 6 25 100 1.7112e-05
5 6 25 100 7.93278e-05
8 6 25 100 1.1956e-05
9 6 25 100 0.126286
10 6 25 100 7.88621e-05
11 6 25 100 0.249976
12 6 25 100 0.218912
13 6 25 100 0.140925
14 6 25 100 0.138442
17 6 25 100 0.00017916
19 6 25 100 0.124998
1 7 25 100 7.75153e-06
9 7 25 100 0.224267
10 7 25 100 5.82427e-06
11 7 25 100 0.125042
12 7 25 100 0.125
13 7 25 100 0.249958
14 7 25 100 0.0257249
16 7 25 100 0.125
19 7 25 100 0.124994
0 8 25 100 0.00863689
4 8 25 100 7.52422e-05
8 8 25 100 6.87268e-05
9 8 25 100 0.125
10 8 25 100 2.27392e-06
13 8 25 100 0.305606
14 8 25 100 0.190337
17 8 25 100 0.120271
19 8 25 100 0.125003
21 8 25 100 0.125
0 9 25 100 0.238003
14 9 25 100 0.127505
15 9 25 100 0.13268
16 9 25 100 0.125
17 9 25 100 6.77564e-06
18 9 25 100 0.124757
19 9 25 100 0.00234644
20 9 25 100 0.000312219
21 9 25 100 0.249354
22 9 25 100 3.45898e-05
0 10 25 100 1.85368e-05
9 10 25 100 0.124981
16 10 25 100 0.125
17 10 25 100 0.000115963
18 10 25 100 0.249884
19 10 25 100 0.13097
21 10 25 100 0.243875
22 10 25 100 0.125
24 10 25 100 0.000155316
0 11 25 100 0.00324326
5 11 25 100 1.91897e-06
6 11 25 100 2.1163e-05
8 11 25 100 2.04221e-06
13 11 25 100 0.124999
18 11 25 100 0.124977
19 11 25 100 0.246823
21 11 25 100 0.125
22 11 25 100 0.125
23 11 25 100 0.125
25 11 25 100 0.124933
0 12 25 100 0.142886
6 12 25 100 0.142857
16 12 25 100 3.27635e-06
19 12 25 100 2.58511e-05
20 12 25 100 0.142857
21 12 25 100 0.142831
23 12 25 100 0.142857
24 12 25 100 0.142857
25 12 25 100 0.142824
0 13 25 100 0.335725
5 13 25 100 2.93006e-05
13 13 25 100 0.16663
21 13 25 100 0.166655
23 13 25 100 0.164294
24 13 25 100 0.166667
0 14 25 100 0.0206318
6 14 25 100 0.16661
18 14 25 100 8.41661e-06
19 14 25 100 0.142723
21 14 25 100 0.166667
23 14 25 100 0.33339
24 14 25 100 0.00335335
25 14 25 100 0.166617
0 15 25 100 0.227502
5 15 25 100 3.19317e-06
8 15 25 100 0.000137131
14 15 25 100 1.11158e-05
19 15 25 100 0.177568
22 15 25 100 0.00325932
23 15 25 100 0.20309
24 15 25 100 0.188451
25 15 25 100 0.199978
0 16 25 100 7.1733e-05
6 16 25 100 0.247856
21 16 25 100 0.00214417
23 16 25 100 0.25
25 16 25 100 0.499928
6 17 25 100 0.5
23 17 25 100 0.5
0 18 25 100 0.000119364
25 18 25 100 0.999881
0 1 26 100 0.163109
1 1 26 100 0.280275
2 1 26 100 0.127213
3 1 26 100 0.0935716
4 1 26 100 0.0616279
5 1 26 100 7.80967e-05
6 1 26 100 0.0072287
7 1 26 100 0.000462253
8 1 26 100 0.0106554
11 1 26 100 0.00071065
12 1 26 100 0.0736887
14 1 26 100 0.00244464
15 1 26 100 5.26792e-06
18 1 26 100 1.18465e-06
19 1 26 100 0.000622596
20 1 26 100 0.0909092
22 1 26 100 0.0339905
25 1 26 100 0.0534058
0 2 26 100 1.03608e-06
1 2 26 100 0.0910104
3 2 26 100 0.0909093
4 2 26 100 0.188474
6 2 26 100 0.0842588
9 2 26 100 0.0908058
10 2 26 100 0.0909093
11 2 26 100 0.0909092
12 2 26 100 1.21739e-06
15 2 26 100 0.0909086
20 2 26 100 0.0909036
24 2 26 100 3.76636e-05
25 2 26 100 0.0908716
0 3 26 100 0.0906961
1 3 26 100 0.00260022
4 3 26 100 0.181853
5 3 26 100 0.000240612
6 3 26 100 0.0909092
7 3 26 100 0.0882543
8 3 26 100 0.0909092
10 3 26 100 0.0908665
11 3 26 100 0.0909092
13 3 26 100 0.000236895
15 3 26 100 0.0908822
20 3 26 100 0.0909092
21 3 26 100 1.11043e-06
22 3 26 100 1.07648e-05
23 3 26 100 6.14137e-06
25 3 26 100 0.0907151
0 4 26 100 6.34247e-05
1 4 26 100 1.33535e-05
2 4 26 100 0.0750161
4 4 26 100 0.181745
7 4 26 100 0.0908603
8 4 26 100 0.180628
9 4 26 100 0.0908579
10 4 26 100 0.0909137
11 4 26 100 0.0159725
13 4 26 100 3.07526e-06
16 4 26 100 0.0174578
17 4 26 100 0.0652719
18 4 26 100 0.00934364
20 4 26 100 0.0909093
22 4 26 100 4.88666e-05
26 4 26 100 0.0908958
0 5 26 100 0.00952704
1 5 26 100 0.000736178
4 5 26 100 0.1
5 5 26 100 1.61142e-05
6 5 26 100 0.0937519
9 5 26 100 0.183638
10 5 26 100 0.0995225
12 5 26 100 0.0151425
13 5 26 100 0.0923813
14 5 26 100 0.0981537
15 5 26 100 0.000356746
16 5 26 100 0.000249195
17 5 26 100 0.0174967
18 5 26 100 0.00202911
19 5 26 100 0.182503
20 5 26 100 0.1
21 5 26 100 3.82178e-06
22 5 26 100 0.00429372
24 5 26 100 0.000198581
0 6 26 100 0.178743
9 6 26 100 0.1
10 6 26 100 0.021293
11 6 26 100 6.17533e-06
12 6 26 100 0.299775
13 6 26 100 0.1
14 6 26 100 0.000246368
15 6 26 100 0.0988742
17 6 26 100 5.79038e-06
18 6 26 100 0.00103683
19 6 26 100 0.0999944
20 6 26 100 0.0999803
22 6 26 100 1.69218e-06
24 6 26 100 1.36327e-06
25 6 26 100 4.13407e-05
0 7 26 100 0.105066
6 7 26 100 9.1177e-06
9 7 26 100 0.100003
10 7 26 100 0.000123595
11 7 26 100 0.0106725
12 7 26 100 0.200026
13 7 26 100 0.0950228
14 7 26 100 0.0890535
15 7 26 100 7.47419e-06
17 7 26 100 1.44744e-05
19 7 26 100 2.96988e-06
20 7 26 100 0.199756
22 7 26 100 0.100005
23 7 26 100 0.1
25 7 26 100 0.000236437
0 8 26 100 2.95144e-05
5 8 26 100 5.54144e-05
6 8 26 100 2.45961e-06
10 8 26 100 0.0999412
13 8 26 100 0.0999976
14 8 26 100 0.199998
17 8 26 100 0.1
19 8 26 100 0.100002
20 8 26 100 0.0999963
21 8 26 100 5.60534e-05
22 8 26 100 0.1
23 8 26 100 0.199921
0 9 26 100 0.000518615
11 9 26 100 0.1
13 9 26 100 0.1
16 9 26 100 0.1
17 9 26 100 0.0999949
18 9 26 100 0.0994814
19 9 26 100 0.1
20 9 26 100 0.0999995
22 9 26 100 0.0999997
23 9 26 100 0.2
25 9 26 100 5.22034e-06
0 10 26 100 0.301645
5 10 26 100 1.99902e-06
8 10 26 100 1.52659e-06
11 10 26 100 9.03275e-06
13 10 26 100 0.000160989
14 10 26 100 0.0981315
15 10 26 100 5.97779e-05
17 10 26 100 0.197921
18 10 26 100 0.101921
19 10 26 100 0.100098
20 10 26 100 0.10005
22 10 26 100 0.1
0 11 26 100 0.00294262
1 11 26 100 6.82659e-06
12 11 26 100 0.0971332
15 11 26 100 0.0999542
16 11 26 100 1.84487e-05
17 11 26 100 0.0993268
18 11 26 100 0.200022
19 11 26 100 1.35645e-06
20 11 26 100 0.0975525
21 11 26 100 0.0041377
22 11 26 100 0.1
23 11 26 100 0.199949
24 11 26 100 0.00238935
25 11 26 100 0.0965663
0 12 26 100 0.118215
1 12 26 100 7.64908e-06
4 12 26 100 0.000293493
7 12 26 100 1.01817e-05
8 12 26 100 7.81556e-05
11 12 26 100 0.000293493
18 12 26 100 0.0878258
20 12 26 100 0.193427
21 12 26 100 7.43884e-06
22 12 26 100 0.1
23 12 26 100 0.1
25 12 26 100 0.199922
26 12 26 100 0.19992
0 13 26 100 0.0998345
2 13 26 100 1.42732e-06
4 13 26 100 1.0812e-05
6 13 26 100 1.26163e-06
8 13 26 100 3.63857e-06
10 13 26 100 1.13916e-05
12 13 26 100 8.51202e-06
13 13 26 100 0.000111854
15 13 26 100 0.124943
17 13 26 100 4.96123e-05
19 13 26 100 0.125185
20 13 26 100 0.0247592
21 13 26 100 8.21753e-05
22 13 26 100 0.125
23 13 26 100 0.125019
25 13 26 100 0.249986
26 13 26 100 0.124994
0 14 26 100 6.9581e-06
3 14 26 100 9.48778e-06
8 14 26 100 3.97989e-05
15 14 26 100 0.142857
20 14 26 100 0.142848
21 14 26 100 0.14285
22 14 26 100 0.142857
23 14 26 100 0.142857
25 14 26 100 0.285674
0 15 26 100 0.147945
5 15 26 100 3.6141e-06
18 15 26 100 0.128319
20 15 26 100 0.142857
22 15 26 100 0.00317111
23 15 26 100 0.142857
24 15 26 100 0.0065718
26 15 26 100 0.428275
20 16 26 100 0.25
22 16 26 100 0.25
23 16 26 100 0.25
25 16 26 100 0.25
0 17 26 100 5.84506e-05
20 17 26 100 0.25
22 17 26 100 0.249942
23 17 26 100 0.25
25 17 26 100 0.25
0 18 26 100 0.00709884
5 18 26 100 4.93252e-06
22 18 26 100 8.4407e-05
23 18 26 100 2.6794e-05
25 18 26 100 0.249889
26 18 26 100 0.742896
0 19 26 100 1
25 20 26 100 1
0 21 26 100 0.00077074
26 21 26 100 0.999229
0 1 27 100 0.18183
1 1 27 100 0.204423
2 1 27 100 0.133744
3 1 27 100 0.26667
4 1 27 100 0.000868773
5 1 27 100 0.0178915
6 1 27 100 0.194559
12 1 27 100 1.18629e-06
18 1 27 100 2.27428e-06
23 1 27 100 7.55058e-06
25 1 27 100 2.80366e-06
0 2 27 100 0.106782
1 2 27 100 0.13332
2 2 27 100 0.138717
3 2 27 100 0.0698917
4 2 27 100 0.152028
5 2 27 100 0.0629465
6 2 27 100 0.141523
7 2 27 100 0.0612845
8 2 27 100 0.0130365
11 2 27 100 0.120296
12 2 27 100 7.09886e-07
13 2 27 100 4.40636e-05
15 2 27 100 2.05387e-05
18 2 27 100 0.000110241
0 3 27 100 0.00925907
1 3 27 100 0.133308
2 3 27 100 0.0666616
3 3 27 100 0.0661488
4 3 27 100 0.0666663
5 3 27 100 0.133342
6 3 27 100 0.266065
7 3 27 100 0.0666667
8 3 27 100 0.0578382
10 3 27 100 0.00067796
11 3 27 100 0.133333
13 3 27 100 2.72422e-05
15 3 27 100 4.01047e-06
18 3 27 100 1.87284e-06
0 4 27 100 0.13204
1 4 27 100 2.1081e-05
3 4 27 100 1.26121e-05
4 4 27 100 6.81258e-06
5 4 27 100 8.69958e-05
6 4 27 100 0.400908
7 4 27 100 0.0666472
8 4 27 100 0.133316
9 4 27 100 3.18381e-06
10 4 27 100 0.0666667
11 4 27 100 0.0669328
12 4 27 100 0.0666438
17 4 27 100 0.0666667
18 4 27 100 1.25876e-06
20 4 27 100 4.59983e-05
24 4 27 100 8.59891e-07
0 5 27 100 0.00384537
2 5 27 100 0.00117166
3 5 27 100 1.68086e-05
4 5 27 100 0.000225353
5 5 27 100 0.0666663
6 5 27 100 0.265269
7 5 27 100 0.199984
8 5 27 100 0.0670042
9 5 27 100 0.0666678
10 5 27 100 0.0662009
11 5 27 100 0.0666474
12 5 27 100 0.126607
13 5 27 100 0.00174399
17 5 27 100 0.0666667
18 5 27 100 1.93774e-05
19 5 27 100 0.00126202
21 5 27 100 1.3091e-06
0 6 27 100 0.116808
1 6 27 100 3.38927e-06
4 6 27 100 4.23062e-06
6 6 27 100 0.0666217
7 6 27 100 0.0676817
8 6 27 100 0.132086
9 6 27 100 0.133319
10 6 27 100 0.200227
11 6 27 100 0.000237461
12 6 27 100 0.0668088
13 6 27 100 0.133289
14 6 27 100 0.0736393
16 6 27 100 1.23869e-05
18 6 27 100 2.2441e-05
19 6 27 100 0.000587643
21 6 27 100 0.00858738
25 6 27 100 6.38476e-05
0 7 27 100 0.0698828
1 7 27 100 6.28102e-06
4 7 27 100 2.52276e-06
5 7 27 100 7.89975e-06
6 7 27 100 0.0666668
7 7 27 100 2.2761e-05
8 7 27 100 0.200011
10 7 27 100 0.133333
11 7 27 100 0.0632164
12 7 27 100 0.133122
13 7 27 100 0.0670076
14 7 27 100 0.0666589
15 7 27 100 0.122684
16 7 27 100 0.0106966
18 7 27 100 1.34892e-05
19 7 27 100 0.0666668
0 8 27 100 0.072361
5 8 27 100 3.47564e-06
6 8 27 100 0.0666668
8 8 27 100 0.0666709
9 8 27 100 0.131281
10 8 27 100 0.133335
11 8 27 100 0.000463072
12 8 27 100 0.200894
13 8 27 100 0.000176861
14 8 27 100 0.129634
15 8 27 100 0.00310111
16 8 27 100 0.0665498
17 8 27 100 0.000168421
18 8 27 100 0.00171154
19 8 27 100 0.124555
21 8 27 100 0.00242637
25 8 27 100 1.8171e-06
0 9 27 100 0.0648265
3 9 27 100 1.42218e-05
4 9 27 100 3.82214e-06
6 9 27 100 0.000580114
8 9 27 100 0.0666462
9 9 27 100 2.8508e-05
10 9 27 100 0.223991
11 9 27 100 0.00877624
12 9 27 100 0.0853214
13 9 27 100 0.000160292
14 9 27 100 0.0742377
15 9 27 100 0.011662
16 9 27 100 0.0738118
17 9 27 100 0.199619
18 9 27 100 0.0568713
19 9 27 100 3.19304e-06
20 9 27 100 0.0661156
21 9 27 100 4.19692e-05
22 9 27 100 0.0666487
24 9 27 100 0.000641226
0 10 27 100 0.12296
8 10 27 100 0.00014173
10 10 27 100 0.0664538
12 10 27 100 0.133384
13 10 27 100 0.00994753
15 10 27 100 0.0668013
16 10 27 100 0.133334
17 10 27 100 0.133237
18 10 27 100 0.13332
19 10 27 100 0.000114475
21 10 27 100 0.00109471
22 10 27 100 0.0706478
23 10 27 100 0.0081455
24 10 27 100 1.16959e-06
25 10 27 100 0.0626714
26 10 27 100 0.0577458
0 11 27 100 0.0186827
4 11 27 100 9.9839e-06
7 11 27 100 2.67635e-06
8 11 27 100 1.81053e-06
11 11 27 100 0.000747198
12 11 27 100 0.0666649
13 11 27 100 0.124308
14 11 27 100 0.0666675
15 11 27 100 0.0646901
17 11 27 100 0.138745
18 11 27 100 0.133481
19 11 27 100 0.0666668
20 11 27 100 2.25768e-06
21 11 27 100 0.0525842
22 11 27 100 0.0666081
24 11 27 100 0.000180614
26 11 27 100 0.199958
0 12 27 100 0.199638
5 12 27 100 9.85685e-06
6 12 27 100 6.05127e-06
9 12 27 100 2.56197e-05
11 12 27 100 0.0649821
13 12 27 100 3.44885e-06
14 12 27 100 0.000200749
15 12 27 100 1.34001e-05
16 12 27 100 0.061548
17 12 27 100 0.0666668
18 12 27 100 5.48784e-05
19 12 27 100 0.0660026
20 12 27 100 0.0666595
21 12 27 100 0.133364
22 12 27 100 0.2
23 12 27 100 0.00750666
24 12 27 100 1.71297e-06
25 12 27 100 1.12046e-06
26 12 27 100 0.0666626
27 12 27 100 0.0666531
0 13 27 100 0.0732023
3 13 27 100 1.26788e-06
4 13 27 100 1.13759e-06
5 13 27 100 1.67402e-05
6 13 27 100 2.11197e-06
13 13 27 100 0.0714301
15 13 27 100 0.0714548
17 13 27 100 0.142275
19 13 27 100 3.15007e-06
20 13 27 100 0.0714286
21 13 27 100 0.138049
22 13 27 100 0.214286
24 13 27 100 0.00359822
26 13 27 100 0.142828
27 13 27 100 0.0714246
0 14 27 100 0.00176134
3 14 27 100 0.0769232
6 14 27 100 7.83926e-07
8 14 27 100 2.55214e-05
11 14 27 100 1.1969e-06
12 14 27 100 0.0770413
13 14 27 100 0.076923
16 14 27 100 3.33529e-06
19 14 27 100 0.0769232
20 14 27 100 0.0663859
22 14 27 100 0.243047
24 14 27 100 0.0875153
25 14 27 100 0.0614116
26 14 27 100 0.155138
27 14 27 100 0.0768993
0 15 27 100 0.00521052
3 15 27 100 0.0833333
6 15 27 100 6.66189e-06
13 15 27 100 0.0895629
15 15 27 100 0.0376562
16 15 27 100 0.000306432
17 15 27 100 0.00709224
19 15 27 100 0.0833329
20 15 27 100 0.000372328
21 15 27 100 0.0191002
22 15 27 100 0.166976
23 15 27 100 0.00709224
26 15 27 100 0.333331
27 15 27 100 0.166627
0 16 27 100 5.77195e-05
3 16 27 100 0.000693585
4 16 27 100 3.8016e-06
7 16 27 100 4.09958e-05
13 16 27 100 0.0999963
14 16 27 100 0.100031
15 16 27 100 1.35169e-05
19 16 27 100 0.0992689
22 16 27 100 0.182429
23 16 27 100 0.017572
26 16 27 100 0.29995
27 16 27 100 0.199943
0 17 27 100 0.136905
5 17 27 100 2.17695e-06
6 17 27 100 9.41039e-06
11 17 27 100 2.5001e-06
14 17 27 100 0.11739
18 17 27 100 6.49927e-05
20 17 27 100 0.12075
23 17 27 100 0.125
25 17 27 100 0.00284723
26 17 27 100 0.122153
27 17 27 100 0.374876
0 18 27 100 4.06328e-06
1 18 27 100 3.23473e-06
14 18 27 100 0.2
15 18 27 100 0.199997
25 18 27 100 0.2
26 18 27 100 0.2
27 18 27 100 0.199996
14 19 27 100 0.25
18 19 27 100 0.25
25 19 27 100 0.25
26 19 27 100 0.25
0 20 27 100 0.00029702
9 20 27 100 6.49152e-06
18 20 27 100 0.25
21 20 27 100 0.249722
23 20 27 100 0.249975
26 20 27 100 0.25
0 21 27 100 0.248769
5 21 27 100 3.20565e-05
9 21 27 100 1.17247e-05
10 21 27 100 5.86743e-06
14 21 27 100 0.000539675
19 21 27 100 0.000752802
22 21 27 100 0.249746
24 21 27 100 3.48878e-06
25 21 27 100 2.64558e-05
26 21 27 100 0.00024832
27 21 27 100 0.499865
18 22 27 100 0.5
26 22 27 100 0.5
0 23 27 100 5.58344e-05
18 23 27 100 0.5
27 23 27 100 0.499944
0 24 27 100 0.0591272
5 24 27 100 1.7129e-05
19 24 27 100 0.931274
24 24 27 100 0.00111638
25 24 27 100 0.00846566
18 25 27 100 1
18 26 27 100 1
0 27 27 100 0.00128369
27 27 27 100 0.998716
0 1 28 100 0.246708
1 1 28 100 0.164672
2 1 28 100 0.00151239
3 1 28 100 0.262153
4 1 28 100 0.153661
5 1 28 100 0.0268904
9 1 28 100 0.144398
12 1 28 100 5.03018e-06
0 2 28 100 0.00314452
2 2 28 100 6.57685e-05
3 2 28 100 0.087402
4 2 28 100 0.425081
5 2 28 100 0.174959
6 2 28 100 0.000128273
7 2 28 100 0.0269844
9 2 28 100 0.282041
16 2 28 100 0.000194322
0 3 28 100 2.34414e-05
1 3 28 100 4.86039e-05
2 3 28 100 4.24646e-06
3 3 28 100 0.0140131
4 3 28 100 0.0110649
5 3 28 100 0.149603
6 3 28 100 0.167785
7 3 28 100 0.105787
8 3 28 100 0.144342
9 3 28 100 0.14805
10 3 28 100 0.116331
11 3 28 100 7.37181e-05
12 3 28 100 1.60007e-05
15 3 28 100 0.142857
0 4 28 100 0.145952
1 4 28 100 3.23431e-06
5 4 28 100 0.144844
6 4 28 100 0.139763
8 4 28 100 0.285675
9 4 28 100 0.140866
13 4 28 100 3.94042e-05
15 4 28 100 0.142857
0 5 28 100 0.0189512
1 5 28 100 9.50307e-06
3 5 28 100 7.78067e-06
4 5 28 100 2.65031e-05
5 5 28 100 5.19805e-05
6 5 28 100 0.000100309
7 5 28 100 0.286103
8 5 28 100 0.142805
9 5 28 100 0.142359
13 5 28 100 0.14285
15 5 28 100 0.142857
18 5 28 100 0.123877
0 6 28 100 0.00129559
2 6 28 100 5.70323e-06
7 6 28 100 0.142857
8 6 28 100 0.142857
9 6 28 100 0.285713
10 6 28 100 0.14047
13 6 28 100 0.0178494
14 6 28 100 0.126038
15 6 28 100 0.142857
16 6 28 100 5.61687e-05
0 7 28 100 0.142672
7 7 28 100 0.128929
9 7 28 100 0.142857
12 7 28 100 0.142857
14 7 28 100 0.14274
15 7 28 100 0.285714
16 7 28 100 0.000117551
20 7 28 100 0.0139269
23 7 28 100 0.000185117
9 8 28 100 0.142857
12 8 28 100 0.143108
13 8 28 100 0.142857
14 8 28 100 0.142857
17 8 28 100 0.142857
19 8 28 100 0.142462
22 8 28 100 0.000144063
24 8 28 100 0.141429
27 8 28 100 0.00142769
0 9 28 100 0.142535
1 9 28 100 0.000322955
9 9 28 100 0.142849
10 9 28 100 0.142857
12 9 28 100 2.80851e-06
13 9 28 100 0.0379226
14 9 28 100 0.104933
17 9 28 100 0.142862
21 9 28 100 0.142857
24 9 28 100 0.142697
25 9 28 100 0.000160078
0 10 28 100 6.73679e-06
7 10 28 100 0.00534667
9 10 28 100 0.0288744
10 10 28 100 0.142804
13 10 28 100 0.103933
14 10 28 100 2.99238e-06
15 10 28 100 0.145653
17 10 28 100 0.144809
19 10 28 100 0.285719
21 10 28 100 0.142852
0 11 28 100 0.268485
1 11 28 100 0.000179837
4 11 28 100 0.000207769
8 11 28 100 0.0007737
11 11 28 100 0.000449843
12 11 28 100 6.62853e-06
13 11 28 100 1.24128e-05
14 11 28 100 0.000297865
16 11 28 100 0.142857
17 11 28 100 0.142857
18 11 28 100 0.0153209
20 11 28 100 0.14286
21 11 28 100 0.141745
22 11 28 100 0.142393
23 11 28 100 5.81437e-06
25 11 28 100 0.00108283
27 11 28 100 0.000464002
1 12 28 100 0.142787
4 12 28 100 4.03893e-06
5 12 28 100 4.44874e-06
8 12 28 100 8.0056e-05
11 12 28 100 1.14766e-05
14 12 28 100 5.03519e-06
16 12 28 100 0.142851
18 12 28 100 0.142843
19 12 28 100 0.142857
21 12 28 100 0.140402
22 12 28 100 0.14366
23 12 28 100 0.142857
24 12 28 100 0.000115824
25 12 28 100 0.00152169
0 13 28 100 0.000433623
1 13 28 100 1.69441e-06
17 13 28 100 0.142864
19 13 28 100 0.283568
20 13 28 100 0.00835122
21 13 28 100 0.134506
22 13 28 100 0.142857
23 13 28 100 0.00103095
24 13 28 100 0.00110201
25 13 28 100 0.142368
27 13 28 100 6.77808e-05
28 13 28 100 0.142851
0 14 28 100 0.000523575
1 14 28 100 0.166666
18 14 28 100 0.000119803
20 14 28 100 0.166547
21 14 28 100 0.166667
25 14 28 100 0.166667
28 14 28 100 0.33281
0 15 28 100 0.0542971
20 15 28 100 0.25
21 15 28 100 0.25
23 15 28 100 0.195711
28 15 28 100 0.249991
1 16 28 100 0.333314
19 16 28 100 0.000188632
20 16 28 100 6.40601e-06
21 16 28 100 0.333336
22 16 28 100 0.000117277
25 16 28 100 0.33302
26 16 28 100 1.80573e-05
0 17 28 100 4.13924e-05
21 17 28 100 0.333333
25 17 28 100 0.333333
28 17 28 100 0.333292
0 18 28 100 1.33631e-05
18 18 28 100 7.73054e-06
22 18 28 100 0.00114605
25 18 28 100 0.998532
27 18 28 100 0.000301363
0 19 28 100 0.499443
5 19 28 100 5.08849e-05
21 19 28 100 0.000643362
23 19 28 100 1.67674e-05
28 19 28 100 0.499846
26 20 28 100 0.991202
27 20 28 100 0.00879752
27 21 28 100 1
0 22 28 100 0.000147956
28 22 28 100 0.999852
0 1 29 100 0.221027
1 1 29 100 0.121076
2 1 29 100 0.333332
3 1 29 100 2.93727e-06
4 1 29 100 0.102019
5 1 29 100 0.111112
6 1 29 100 3.04014e-05
9 1 29 100 0.111046
11 1 29 100 1.60843e-05
12 1 29 100 6.32004e-05
13 1 29 100 0.000148623
19 1 29 100 2.82824e-05
23 1 29 100 9.73624e-05
28 1 29 100 2.14714e-06
0 2 29 100 0.112683
2 2 29 100 0.0886624
3 2 29 100 0.260241
4 2 29 100 8.64037e-05
5 2 29 100 0.316093
6 2 29 100 0.111104
7 2 29 100 9.22199e-06
9 2 29 100 0.11108
12 2 29 100 3.07972e-05
22 2 29 100 2.71835e-06
28 2 29 100 6.9605e-06
0 3 29 100 8.92112e-05
1 3 29 100 3.21337e-05
3 3 29 100 0.337718
4 3 29 100 0.106175
5 3 29 100 1.71448e-05
6 3 29 100 0.11123
7 3 29 100 0.107469
9 3 29 100 0.111105
11 3 29 100 0.111078
13 3 29 100 0.00330409
17 3 29 100 0.000665657
22 3 29 100 5.47386e-06
28 3 29 100 0.111111
0 4 29 100 0.112517
4 4 29 100 0.0997357
5 4 29 100 0.120761
6 4 29 100 0.0168239
7 4 29 100 0.110207
8 4 29 100 0.0942947
9 4 29 100 0.111105
10 4 29 100 0.000956419
11 4 29 100 0.111108
12 4 29 100 0.000150738
16 4 29 100 4.39031e-05
19 4 29 100 0.111111
20 4 29 100 1.2446e-06
22 4 29 100 7.3193e-05
28 4 29 100 0.111111
0 5 29 100 0.000238427
1 5 29 100 2.2603e-06
4 5 29 100 0.000956484
5 5 29 100 0.221255
6 5 29 100 0.0200863
7 5 29 100 0.0061522
8 5 29 100 0.111109
9 5 29 100 0.202136
10 5 29 100 0.104721
11 5 29 100 0.111111
17 5 29 100 9.33184e-06
19 5 29 100 0.111111
28 5 29 100 0.111111
0 6 29 100 0.0102489
1 6 29 100 8.87993e-06
3 6 29 100 0.0875177
5 6 29 100 0.109334
6 6 29 100 2.42161e-05
9 6 29 100 0.111103
11 6 29 100 0.12704
12 6 29 100 0.222223
13 6 29 100 4.7811e-05
14 6 29 100 0.110243
19 6 29 100 0.111111
29 6 29 100 0.111099
0 7 29 100 0.00353724
5 7 29 100 0.125
6 7 29 100 9.57744e-06
7 7 29 100 2.33075e-06
9 7 29 100 0.124348
10 7 29 100 7.9921e-05
11 7 29 100 0.0006273
12 7 29 100 0.374628
13 7 29 100 0.121117
14 7 29 100 0.000353389
15 7 29 100 0.125261
19 7 29 100 0.125007
20 7 29 100 2.87623e-05
0 8 29 100 0.00188388
6 8 29 100 0.141083
7 8 29 100 0.108915
9 8 29 100 2.56389e-06
10 8 29 100 3.1948e-05
12 8 29 100 0.125
13 8 29 100 0.123092
14 8 29 100 0.125315
15 8 29 100 0.125018
17 8 29 100 0.124569
19 8 29 100 0.0945414
20 8 29 100 0.0304637
23 8 29 100 8.49315e-05
0 9 29 100 0.0931668
1 9 29 100 2.60734e-06
7 9 29 100 0.127139
9 9 29 100 0.122861
12 9 29 100 0.125
14 9 29 100 0.125154
16 9 29 100 0.0316763
17 9 29 100 0.125
18 9 29 100 0.125
20 9 29 100 0.125
0 10 29 100 0.131901
7 10 29 100 3.3783e-05
8 10 29 100 3.27511e-05
9 10 29 100 0.124966
10 10 29 100 8.24484e-05
12 10 29 100 0.117966
14 10 29 100 0.125
17 10 29 100 0.125
18 10 29 100 0.125
19 10 29 100 1.69351e-05
20 10 29 100 0.125
28 10 29 100 0.125
0 11 29 100 0.11919
5 11 29 100 2.36933e-05
8 11 29 100 6.95859e-06
9 11 29 100 2.28633e-05
10 11 29 100 3.86699e-06
12 11 29 100 8.4033e-05
13 11 29 100 0.132302
14 11 29 100 2.95545e-05
15 11 29 100 9.82267e-05
16 11 29 100 0.000226139
17 11 29 100 0.123181
19 11 29 100 3.60835e-05
20 11 29 100 0.125028
21 11 29 100 0.129758
23 11 29 100 0.124994
25 11 29 100 6.48593e-06
26 11 29 100 0.120121
28 11 29 100 0.124889
0 12 29 100 0.125042
10 12 29 100 0.000148817
11 12 29 100 0.00210952
12 12 29 100 2.79866e-05
13 12 29 100 0.000201728
14 12 29 100 0.124676
16 12 29 100 0.122526
17 12 29 100 3.14421e-05
18 12 29 100 0.125
20 12 29 100 8.80449e-05
21 12 29 100 8.14405e-05
23 12 29 100 0.101263
24 12 29 100 0.124919
25 12 29 100 0.0238855
26 12 29 100 0.125
28 12 29 100 0.125
0 13 29 100 0.125
11 13 29 100 0.0154643
13 13 29 100 0.109536
18 13 29 100 0.249965
21 13 29 100 3.53649e-05
23 13 29 100 4.5545e-06
24 13 29 100 0.125
25 13 29 100 0.124996
26 13 29 100 0.125
28 13 29 100 0.125
0 14 29 100 0.00015861
13 14 29 100 0.124847
18 14 29 100 0.125
19 14 29 100 0.12549
24 14 29 100 0.045529
27 14 29 100 0.204485
28 14 29 100 0.249495
29 14 29 100 0.124996
0 15 29 100 0.0109132
10 15 29 100 0.000152654
14 15 29 100 0.00174786
16 15 29 100 0.135087
17 15 29 100 0.137943
19 15 29 100 0.142857
27 15 29 100 0.140452
28 15 29 100 0.28812
29 15 29 100 0.142727
0 16 29 100 0.00027182
5 16 29 100 9.80823e-05
15 16 29 100 2.65222e-06
17 16 29 100 0.166569
18 16 29 100 0.166664
19 16 29 100 0.166667
26 16 29 100 0.163711
28 16 29 100 0.336017
0 17 29 100 0.00635278
18 17 29 100 0.166667
19 17 29 100 0.327397
25 17 29 100 1.61194e-05
28 17 29 100 0.166667
29 17 29 100 0.3329
0 18 29 100 6.42877e-05
18 18 29 100 0.25
19 18 29 100 0.0609123
20 18 29 100 0.189088
21 18 29 100 0.25
29 18 29 100 0.249936
18 19 29 100 0.330995
20 19 29 100 0.333333
21 19 29 100 0.335672
0 20 29 100 0.000127096
4 20 29 100 4.04272e-06
18 20 29 100 0.333334
20 20 29 100 0.333334
22 20 29 100 0.330524
23 20 29 100 0.0026767
0 21 29 100 0.0244015
5 21 29 100 2.9448e-05
20 21 29 100 0.333334
22 21 29 100 0.30893
23 21 29 100 0.333305
0 22 29 100 0.00383097
10 22 29 100 2.18055e-05
14 22 29 100 7.18716e-06
20 22 29 100 0.333333
23 22 29 100 0.333333
24 22 29 100 0.329473
6 23 29 100 6.11568e-06
20 23 29 100 0.332434
25 23 29 100 0.333327
26 23 29 100 0.333333
28 23 29 100 0.000899241
5 24 29 100 1.27479e-05
23 24 29 100 6.72405e-06
26 24 29 100 0.333235
27 24 29 100 0.0343077
28 24 29 100 0.632437
0 25 29 100 0.33303
5 25 29 100 7.82211e-05
13 25 29 100 0.000165703
23 25 29 100 2.48122e-05
24 25 29 100 9.58809e-06
26 25 29 100 0.333334
27 25 29 100 3.37234e-05
28 25 29 100 0.333324
0 26 29 100 0.332388
19 26 29 100 2.64205e-05
25 26 29 100 0.000958112
28 26 29 100 0.333333
29 26 29 100 0.333294
0 27 29 100 0.00042895
29 27 29 100 0.999571
1 1 30 100 0.285336
2 1 30 100 0.142858
3 1 30 100 0.285713
4 1 30 100 0.000379451
6 1 30 100 0.142858
7 1 30 100 0.142857
0 2 30 100 0.0357798
2 2 30 100 0.000166415
3 2 30 100 0.146947
4 2 30 100 0.140724
5 2 30 100 0.247346
6 2 30 100 0.142859
7 2 30 100 0.14286
10 2 30 100 0.000107665
13 2 30 100 0.142856
16 2 30 100 5.09271e-06
17 2 30 100 0.000339477
25 2 30 100 1.47912e-06
27 2 30 100 2.09722e-06
28 2 30 100 5.80544e-06
1 3 30 100 2.02063e-05
3 3 30 100 0.142857
4 3 30 100 2.33114e-05
5 3 30 100 0.285657
6 3 30 100 0.141675
7 3 30 100 0.142541
9 3 30 100 0.00147487
10 3 30 100 0.142837
11 3 30 100 0.000492537
13 3 30 100 0.137487
15 3 30 100 0.00493476
0 4 30 100 4.42489e-06
2 4 30 100 1.44594e-05
3 4 30 100 0.142862
5 4 30 100 0.142779
6 4 30 100 0.28562
7 4 30 100 0.142843
10 4 30 100 0.142857
11 4 30 100 0.00016252
16 4 30 100 0.142857
0 5 30 100 0.286391
5 5 30 100 0.0258771
6 5 30 100 0.142857
7 5 30 100 0.281792
8 5 30 100 0.116622
10 5 30 100 0.000244256
11 5 30 100 0.00393188
12 5 30 100 0.141937
19 5 30 100 0.00032851
23 5 30 100 1.44624e-05
28 5 30 100 4.79776e-06
0 6 30 100 0.0254292
4 6 30 100 4.55889e-05
7 6 30 100 5.49205e-06
9 6 30 100 0.000348381
10 6 30 100 0.264294
11 6 30 100 0.137889
13 6 30 100 0.231992
15 6 30 100 1.03225e-05
16 6 30 100 0.190194
17 6 30 100 0.00634062
18 6 30 100 0.14312
29 6 30 100 0.000331833
0 7 30 100 0.000336819
4 7 30 100 5.43393e-05
11 7 30 100 0.144035
13 7 30 100 0.284442
16 7 30 100 0.151043
17 7 30 100 0.277228
18 7 30 100 0.142857
22 7 30 100 3.35764e-06
0 8 30 100 0.00931636
5 8 30 100 0.000454234
7 8 30 100 0.043939
10 8 30 100 4.69455e-05
13 8 30 100 0.142901
14 8 30 100 0.132074
15 8 30 100 0.00203747
16 8 30 100 0.143686
17 8 30 100 0.28313
18 8 30 100 0.242043
20 8 30 100 0.000325504
29 8 30 100 4.73201e-05
0 9 30 100 0.00334618
13 9 30 100 0.142884
14 9 30 100 7.54177e-06
15 9 30 100 0.242121
16 9 30 100 0.142857
17 9 30 100 0.142858
18 9 30 100 0.182394
23 9 30 100 0.000262275
25 9 30 100 0.000440862
26 9 30 100 0.14283
0 10 30 100 0.0142646
3 10 30 100 0.142853
11 10 30 100 1.77292e-05
14 10 30 100 0.124825
15 10 30 100 0.142865
16 10 30 100 0.00374236
17 10 30 100 0.142828
18 10 30 100 3.07199e-05
19 10 30 100 0.285715
26 10 30 100 0.142858
0 11 30 100 0.00457831
4 11 30 100 0.142839
12 11 30 100 1.29838e-05
15 11 30 100 0.142857
17 11 30 100 0.285701
19 11 30 100 0.138292
23 11 30 100 0.142857
24 11 30 100 4.07949e-06
26 11 30 100 0.142857
4 12 30 100 0.142857
17 12 30 100 0.142857
19 12 30 100 0.285714
20 12 30 100 0.142857
23 12 30 100 0.142857
26 12 30 100 0.142857
0 13 30 100 0.156516
1 13 30 100 1.9585e-06
4 13 30 100 0.142853
11 13 30 100 8.03257e-06
13 13 30 100 4.56537e-06
14 13 30 100 8.31384e-05
16 13 30 100 2.23071e-06
18 13 30 100 0.000133148
19 13 30 100 0.133181
20 13 30 100 0.420656
23 13 30 100 5.91954e-06
24 13 30 100 6.06147e-05
25 13 30 100 0.142858
26 13 30 100 0.00363659
0 14 30 100 2.92977e-05
3 14 30 100 1.44217e-06
4 14 30 100 0.142857
5 14 30 100 1.16152e-05
11 14 30 100 0.000174674
19 14 30 100 6.58877e-05
20 14 30 100 0.285713
21 14 30 100 0.15636
22 14 30 100 0.142792
23 14 30 100 0.129138
25 14 30 100 0.142858
0 15 30 100 0.27264
19 15 30 100 0.0129623
21 15 30 100 9.60905e-05
22 15 30 100 0.142857
24 15 30 100 1.65315e-05
26 15 30 100 0.428571
27 15 30 100 0.142857
0 16 30 100 0.148988
11 16 30 100 5.85124e-06
18 16 30 100 0.00177314
22 16 30 100 0.137822
23 16 30 100 0.131204
24 16 30 100 0.142858
25 16 30 100 0.00374235
26 16 30 100 0.285714
27 16 30 100 0.147893
0 17 30 100 4.7669e-05
3 17 30 100 1.5411e-06
21 17 30 100 3.32586e-05
24 17 30 100 0.137312
25 17 30 100 0.00554494
26 17 30 100 0.428489
27 17 30 100 0.285709
29 17 30 100 0.142863
0 18 30 100 0.144947
16 18 30 100 4.95895e-05
18 18 30 100 7.43779e-06
19 18 30 100 6.60762e-05
25 18 30 100 2.32993e-06
26 18 30 100 0.234297
27 18 30 100 0.162071
29 18 30 100 0.315789
30 18 30 100 0.142771
0 19 30 100 4.5799e-05
12 19 30 100 8.44068e-05
24 19 30 100 3.93842e-06
26 19 30 100 0.194036
27 19 30 100 0.167103
28 19 30 100 0.16796
29 19 30 100 0.304136
30 19 30 100 0.16663
0 20 30 100 0.0166842
13 20 30 100 5.95187e-06
24 20 30 100 5.04018e-06
26 20 30 100 0.200013
27 20 30 100 0.199999
29 20 30 100 0.583293
0 21 30 100 0.000386525
27 21 30 100 0.000360836
29 21 30 100 0.399638
30 21 30 100 0.599615
0 22 30 100 3.02171e-05
10 22 30 100 1.66967e-05
18 22 30 100 8.12744e-05
29 22 30 100 0.499902
30 22 30 100 0.49997
29 23 30 100 1
29 24 30 100 1
0 25 30 100 0.000582109
30 25 30 100 0.999418
0 1 31 100 0.190198
1 1 31 100 0.409997
3 1 31 100 0.399796
6 1 31 100 8.51573e-06
0 2 31 100 0.00153335
2 2 31 100 3.48541e-05
3 2 31 100 0.6
4 2 31 100 0.398431
2 3 31 100 0.000208929
3 3 31 100 0.199955
4 3 31 100 0.228435
5 3 31 100 0.171358
6 3 31 100 0.145257
7 3 31 100 0.200001
8 3 31 100 0.0547386
9 3 31 100 3.6125e-05
18 3 31 100 8.61198e-06
24 3 31 100 2.36483e-06
0 4 31 100 7.52163e-05
4 4 31 100 0.2
5 4 31 100 0.399919
7 4 31 100 0.199895
8 4 31 100 0.2
9 4 31 100 0.000103973
25 4 31 100 6.53088e-06
0 5 31 100 0.190326
2 5 31 100 0.000811815
5 5 31 100 0.202412
6 5 31 100 0.202
7 5 31 100 0.00653677
8 5 31 100 0.192215
9 5 31 100 0.000318205
10 5 31 100 0.204795
11 5 31 100 0.000509427
13 5 31 100 4.7658e-06
19 5 31 100 4.92135e-05
29 5 31 100 2.17681e-05
0 6 31 100 0.0854342
6 6 31 100 0.2
7 6 31 100 0.18557
9 6 31 100 0.128992
11 6 31 100 0.400001
27 6 31 100 2.67063e-06
