2 0 100 2 1
1 1 100 2 1
1 2 100 2 0.0793314
2 2 100 2 0.920669
1 3 100 2 0.206753
2 3 100 2 0.793247
1 4 100 2 0.100554
2 4 100 2 0.899446
1 5 100 2 0.504715
2 5 100 2 0.495285
1 6 100 2 0.114777
2 6 100 2 0.885223
1 7 100 2 1
2 8 100 2 1
2 0 100 3 0.0364023
3 0 100 3 0.963598
1 1 100 3 0.605811
2 1 100 3 0.394189
1 2 100 3 0.310847
2 2 100 3 0.535083
3 2 100 3 0.154069
1 3 100 3 0.138452
2 3 100 3 0.367973
3 3 100 3 0.493575
1 4 100 3 0.0188521
2 4 100 3 0.0752324
3 4 100 3 0.905915
1 5 100 3 0.260141
2 5 100 3 0.246994
3 5 100 3 0.492865
1 6 100 3 3.56261e-07
2 6 100 3 0.00133644
3 6 100 3 0.998663
1 7 100 3 1.1043e-06
2 7 100 3 7.15351e-06
3 7 100 3 0.999992
1 8 100 3 2.38702e-06
2 8 100 3 1.13659e-05
3 8 100 3 0.999986
2 9 100 3 1
1 10 100 3 0.175023
2 10 100 3 0.824977
3 11 100 3 1
2 12 100 3 1
2 14 100 3 4.0047e-06
3 14 100 3 0.999996
1 0 100 4 2.95715e-06
2 0 100 4 0.450479
3 0 100 4 0.00621402
4 0 100 4 0.543304
1 1 100 4 0.52799
2 1 100 4 0.27947
3 1 100 4 0.19254
1 2 100 4 0.0980552
2 2 100 4 0.486212
3 2 100 4 0.33356
4 2 100 4 0.0821732
1 3 100 4 0.064683
2 3 100 4 0.358046
3 3 100 4 0.480463
4 3 100 4 0.0968085
1 4 100 4 0.0672734
2 4 100 4 0.11305
3 4 100 4 0.29696
4 4 100 4 0.522716
1 5 100 4 0.0824489
2 5 100 4 0.110654
3 5 100 4 0.252484
4 5 100 4 0.554413
1 6 100 4 0.036239
2 6 100 4 0.114094
3 6 100 4 0.171931
4 6 100 4 0.677736
1 7 100 4 0.0596071
2 7 100 4 0.107834
3 7 100 4 0.117107
4 7 100 4 0.715451
1 8 100 4 0.0908143
2 8 100 4 0.130948
3 8 100 4 0.20713
4 8 100 4 0.571108
1 9 100 4 0.00632358
2 9 100 4 0.156673
3 9 100 4 0.171565
4 9 100 4 0.665439
1 10 100 4 0.256632
2 10 100 4 0.244716
3 10 100 4 0.256636
4 10 100 4 0.242015
4 11 100 4 1
3 12 100 4 1
1 13 100 4 0.651167
2 13 100 4 0.348833
3 14 100 4 3.08047e-05
4 14 100 4 0.999969
4 15 100 4 1
3 16 100 4 1
4 17 100 4 1
3 18 100 4 1
2 19 100 4 1
1 20 100 4 0.382766
2 20 100 4 0.090258
3 20 100 4 0.526976
4 21 100 4 1
2 24 100 4 1
1 25 100 4 0.198756
2 25 100 4 0.315374
3 25 100 4 0.485871
4 26 100 4 1
2 0 100 5 0.252659
3 0 100 5 0.216723
4 0 100 5 0.0227761
5 0 100 5 0.507842
1 1 100 5 0.587198
2 1 100 5 0.216177
3 1 100 5 0.108711
4 1 100 5 0.0879129
1 2 100 5 0.110111
2 2 100 5 0.461289
3 2 100 5 0.292635
4 2 100 5 0.135965
1 3 100 5 0.105942
2 3 100 5 0.277505
3 3 100 5 0.373042
4 3 100 5 0.243453
5 3 100 5 5.73223e-05
1 4 100 5 0.0758146
2 4 100 5 0.216081
3 4 100 5 0.29005
4 4 100 5 0.338009
5 4 100 5 0.080046
1 5 100 5 0.022564
2 5 100 5 0.142822
3 5 100 5 0.210306
4 5 100 5 0.269268
5 5 100 5 0.355039
1 6 100 5 0.0322331
2 6 100 5 0.0848318
3 6 100 5 0.196548
4 6 100 5 0.293033
5 6 100 5 0.393354
1 7 100 5 0.0242494
2 7 100 5 0.0966249
3 7 100 5 0.117803
4 7 100 5 0.242807
5 7 100 5 0.518516
1 8 100 5 0.037503
2 8 100 5 0.0982582
3 8 100 5 0.109697
4 8 100 5 0.19399
5 8 100 5 0.560552
1 9 100 5 0.0449727
2 9 100 5 0.0779105
3 9 100 5 0.0934856
4 9 100 5 0.119789
5 9 100 5 0.663842
2 10 100 5 7.88146e-05
3 10 100 5 4.12965e-06
4 10 100 5 0.0957894
5 10 100 5 0.904128
1 11 100 5 0.108049
2 11 100 5 0.113465
3 11 100 5 0.119092
4 11 100 5 0.112911
5 11 100 5 0.546484
3 12 100 5 0.815593
4 12 100 5 0.184407
3 13 100 5 1
4 14 100 5 1
3 15 100 5 1
1 16 100 5 0.26009
2 16 100 5 0.250996
3 16 100 5 0.228128
4 16 100 5 0.260786
5 17 100 5 1
2 0 100 6 0.0809441
3 0 100 6 0.0375307
4 0 100 6 0.362837
5 0 100 6 0.0402261
6 0 100 6 0.478462
1 1 100 6 0.700352
2 1 100 6 0.113763
3 1 100 6 0.0662158
4 1 100 6 0.0596283
5 1 100 6 0.0600412
1 2 100 6 0.135323
2 2 100 6 0.538336
3 2 100 6 0.214587
4 2 100 6 0.0757523
5 2 100 6 0.036002
1 3 100 6 0.0115378
2 3 100 6 0.346057
3 3 100 6 0.299243
4 3 100 6 0.229232
5 3 100 6 0.11393
1 4 100 6 0.11579
2 4 100 6 0.196386
3 4 100 6 0.306628
4 4 100 6 0.233637
5 4 100 6 0.104036
6 4 100 6 0.0435244
1 5 100 6 0.00852728
2 5 100 6 0.255097
3 5 100 6 0.266834
4 5 100 6 0.248649
5 5 100 6 0.187134
6 5 100 6 0.0337586
1 6 100 6 0.00594498
2 6 100 6 0.109364
3 6 100 6 0.237636
4 6 100 6 0.203491
5 6 100 6 0.266054
6 6 100 6 0.17751
1 7 100 6 0.0200116
2 7 100 6 0.085235
3 7 100 6 0.12263
4 7 100 6 0.234254
5 7 100 6 0.30905
6 7 100 6 0.22882
1 8 100 6 0.0533222
2 8 100 6 0.0669674
3 8 100 6 0.0821569
4 8 100 6 0.133644
5 8 100 6 0.22832
6 8 100 6 0.435589
1 9 100 6 0.0143361
2 9 100 6 0.095629
3 9 100 6 0.132931
4 9 100 6 0.138475
5 9 100 6 0.218435
6 9 100 6 0.400194
1 10 100 6 0.00429155
2 10 100 6 0.0454328
3 10 100 6 0.107633
4 10 100 6 0.107158
5 10 100 6 0.204238
6 10 100 6 0.531248
1 11 100 6 0.0293387
2 11 100 6 0.071007
3 11 100 6 0.11746
4 11 100 6 0.109879
5 11 100 6 0.0997744
6 11 100 6 0.572541
1 12 100 6 0.113829
2 12 100 6 0.107099
3 12 100 6 0.111712
4 12 100 6 0.114609
5 12 100 6 0.225231
6 12 100 6 0.32752
1 13 100 6 5.9547e-06
2 13 100 6 2.3978e-05
3 13 100 6 0.00225094
4 13 100 6 0.000223355
5 13 100 6 9.26451e-05
6 13 100 6 0.997403
5 14 100 6 7.5256e-07
6 14 100 6 0.999999
5 15 100 6 1
3 17 100 6 1
1 28 100 6 0.20667
2 28 100 6 0.173189
3 28 100 6 0.206665
4 28 100 6 0.206741
5 28 100 6 0.206735
6 29 100 6 1
1 0 100 7 4.83894e-07
2 0 100 7 0.175649
3 0 100 7 0.0514527
4 0 100 7 0.0937377
5 0 100 7 0.317642
6 0 100 7 0.0345893
7 0 100 7 0.326928
1 1 100 7 0.688284
2 1 100 7 0.144782
3 1 100 7 0.0655358
4 1 100 7 0.0437188
5 1 100 7 0.0288971
6 1 100 7 0.0287819
1 2 100 7 0.0874396
2 2 100 7 0.584042
3 2 100 7 0.164109
4 2 100 7 0.0962471
5 2 100 7 0.0310859
6 2 100 7 0.028129
7 2 100 7 0.00894721
1 3 100 7 0.0391161
2 3 100 7 0.277301
3 3 100 7 0.336604
4 3 100 7 0.171555
5 3 100 7 0.121698
6 3 100 7 0.0537272
1 4 100 7 0.0465799
2 4 100 7 0.181648
3 4 100 7 0.231297
4 4 100 7 0.285579
5 4 100 7 0.212675
6 4 100 7 0.0370464
7 4 100 7 0.00517414
1 5 100 7 0.024941
2 5 100 7 0.106859
3 5 100 7 0.208285
4 5 100 7 0.23905
5 5 100 7 0.28458
6 5 100 7 0.130091
7 5 100 7 0.00619289
1 6 100 7 0.00747184
2 6 100 7 0.131154
3 6 100 7 0.174803
4 6 100 7 0.220697
5 6 100 7 0.207889
6 6 100 7 0.189942
7 6 100 7 0.0680439
1 7 100 7 0.00850009
2 7 100 7 0.0565634
3 7 100 7 0.117924
4 7 100 7 0.183341
5 7 100 7 0.213808
6 7 100 7 0.272127
7 7 100 7 0.147736
1 8 100 7 6.50264e-06
2 8 100 7 0.0445252
3 8 100 7 0.12422
4 8 100 7 0.147095
5 8 100 7 0.117558
6 8 100 7 0.245895
7 8 100 7 0.3207
1 9 100 7 0.0159618
2 9 100 7 0.0499865
3 9 100 7 0.0720951
4 9 100 7 0.0864979
5 9 100 7 0.151925
6 9 100 7 0.29432
7 9 100 7 0.329214
1 10 100 7 0.000847709
2 10 100 7 0.0199789
3 10 100 7 0.0541358
4 10 100 7 0.0872718
5 10 100 7 0.117348
6 10 100 7 0.286892
7 10 100 7 0.433525
1 11 100 7 0.063229
2 11 100 7 0.0823154
3 11 100 7 0.0868255
4 11 100 7 0.114067
5 11 100 7 0.103705
6 11 100 7 0.165977
7 11 100 7 0.383881
1 12 100 7 1.20542e-05
2 12 100 7 4.84446e-05
3 12 100 7 1.94285e-05
4 12 100 7 0.00486164
5 12 100 7 0.00172982
6 12 100 7 0.242654
7 12 100 7 0.750675
1 13 100 7 0.0950564
2 13 100 7 0.0717814
3 13 100 7 0.0762748
4 13 100 7 0.159509
5 13 100 7 0.0942649
6 13 100 7 0.159174
7 13 100 7 0.343939
2 14 100 7 2.73309e-05
3 14 100 7 0.0846813
4 14 100 7 0.00138954
5 14 100 7 0.250463
6 14 100 7 0.256973
7 14 100 7 0.406466
1 15 100 7 0.100544
2 15 100 7 0.0905878
3 15 100 7 0.105496
4 15 100 7 0.111077
5 15 100 7 0.16598
6 15 100 7 0.16531
7 15 100 7 0.261005
7 16 100 7 1
5 17 100 7 1
1 18 100 7 0.156813
2 18 100 7 0.167028
3 18 100 7 0.156206
4 18 100 7 0.171516
5 18 100 7 0.173188
6 18 100 7 0.175248
7 19 100 7 1
1 20 100 7 0.169121
2 20 100 7 0.169195
3 20 100 7 0.169196
4 20 100 7 0.167656
5 20 100 7 0.16917
6 20 100 7 0.155662
7 21 100 7 1
2 22 100 7 1
7 24 100 7 1
1 0 100 8 7.45843e-07
2 0 100 8 0.0925
3 0 100 8 0.0971106
4 0 100 8 0.0570143
5 0 100 8 0.0800496
6 0 100 8 0.289672
7 0 100 8 0.00130797
8 0 100 8 0.382345
1 1 100 8 0.762259
2 1 100 8 0.140235
3 1 100 8 0.0523474
4 1 100 8 0.0199448
5 1 100 8 0.00313668
6 1 100 8 0.00945511
7 1 100 8 0.012622
1 2 100 8 0.0046421
2 2 100 8 0.482069
3 2 100 8 0.32457
4 2 100 8 0.0902593
5 2 100 8 0.0335333
6 2 100 8 0.0374819
7 2 100 8 0.0274446
1 3 100 8 0.0363467
2 3 100 8 0.20056
3 3 100 8 0.179739
4 3 100 8 0.312404
5 3 100 8 0.148369
6 3 100 8 0.0795346
7 3 100 8 0.0430463
1 4 100 8 0.0174049
2 4 100 8 0.160718
3 4 100 8 0.20887
4 4 100 8 0.230602
5 4 100 8 0.182165
6 4 100 8 0.162596
7 4 100 8 0.0376447
1 5 100 8 0.0328352
2 5 100 8 0.139473
3 5 100 8 0.205117
4 5 100 8 0.181887
5 5 100 8 0.203594
6 5 100 8 0.154578
7 5 100 8 0.078943
8 5 100 8 0.00357357
1 6 100 8 0.0295234
2 6 100 8 0.0598698
3 6 100 8 0.168995
4 6 100 8 0.168279
5 6 100 8 0.218631
6 6 100 8 0.209931
7 6 100 8 0.138892
8 6 100 8 0.00587944
1 7 100 8 0.0131231
2 7 100 8 0.0508539
3 7 100 8 0.0822163
4 7 100 8 0.169668
5 7 100 8 0.189451
6 7 100 8 0.163128
7 7 100 8 0.271317
8 7 100 8 0.0602428
1 8 100 8 0.0111915
2 8 100 8 0.0439586
3 8 100 8 0.0629448
4 8 100 8 0.0931975
5 8 100 8 0.167093
6 8 100 8 0.143773
7 8 100 8 0.242115
8 8 100 8 0.235726
1 9 100 8 0.0052292
2 9 100 8 0.0266746
3 9 100 8 0.0457839
4 9 100 8 0.0846589
5 9 100 8 0.18542
6 9 100 8 0.18488
7 9 100 8 0.277415
8 9 100 8 0.189938
1 10 100 8 0.00393833
2 10 100 8 0.0368339
3 10 100 8 0.0718633
4 10 100 8 0.0887113
5 10 100 8 0.136367
6 10 100 8 0.168743
7 10 100 8 0.265014
8 10 100 8 0.228529
1 11 100 8 0.034345
2 11 100 8 0.0431347
3 11 100 8 0.0543105
4 11 100 8 0.0891512
5 11 100 8 0.125446
6 11 100 8 0.0964294
7 11 100 8 0.127433
8 11 100 8 0.42975
1 12 100 8 4.43077e-05
2 12 100 8 0.0139459
3 12 100 8 0.0375633
4 12 100 8 0.0837013
5 12 100 8 0.113891
6 12 100 8 0.0963979
7 12 100 8 0.247742
8 12 100 8 0.406714
1 13 100 8 0.0511473
2 13 100 8 0.0675177
3 13 100 8 0.0489166
4 13 100 8 0.0797098
5 13 100 8 0.083172
6 13 100 8 0.101891
7 13 100 8 0.153435
8 13 100 8 0.41421
1 14 100 8 0.0296033
2 14 100 8 0.059054
3 14 100 8 0.0586331
4 14 100 8 0.0327007
5 14 100 8 0.0817489
6 14 100 8 0.118055
7 14 100 8 0.167579
8 14 100 8 0.452626
1 15 100 8 0.064757
2 15 100 8 0.0189665
3 15 100 8 0.0767822
4 15 100 8 0.0532478
5 15 100 8 0.0496042
6 15 100 8 0.0638337
7 15 100 8 0.0514517
8 15 100 8 0.621357
2 16 100 8 0.000419392
3 16 100 8 0.181447
4 16 100 8 0.111098
5 16 100 8 0.107474
6 16 100 8 0.0930658
7 16 100 8 0.109327
8 16 100 8 0.397169
3 17 100 8 0.000418231
4 17 100 8 0.130076
5 17 100 8 0.0130648
6 17 100 8 0.130696
7 17 100 8 0.129927
8 17 100 8 0.595818
1 18 100 8 0.20667
2 18 100 8 0.282884
3 18 100 8 0.259902
4 18 100 8 4.97981e-05
5 18 100 8 3.22067e-07
6 18 100 8 4.82017e-05
7 18 100 8 2.36342e-06
8 18 100 8 0.250444
3 19 100 8 6.18091e-05
6 19 100 8 8.97643e-05
8 19 100 8 0.999848
1 20 100 8 0.163728
2 20 100 8 0.163106
3 20 100 8 3.55416e-05
4 20 100 8 0.162573
5 20 100 8 0.163729
6 20 100 8 0.183099
7 20 100 8 0.163729
8 21 100 8 1
2 0 100 9 0.0626802
3 0 100 9 0.0236267
4 0 100 9 0.0586564
5 0 100 9 0.0707448
6 0 100 9 0.108895
7 0 100 9 0.231685
8 0 100 9 0.0278593
9 0 100 9 0.415852
1 1 100 9 0.673372
2 1 100 9 0.133675
3 1 100 9 0.0695784
4 1 100 9 0.0370364
5 1 100 9 0.0246665
6 1 100 9 0.0185026
7 1 100 9 0.0184999
8 1 100 9 0.0246693
1 2 100 9 0.0648437
2 2 100 9 0.462913
3 2 100 9 0.234799
4 2 100 9 0.109233
5 2 100 9 0.0769329
6 2 100 9 0.0192116
7 2 100 9 0.019217
8 2 100 9 5.75797e-05
9 2 100 9 0.0127926
1 3 100 9 0.0772494
2 3 100 9 0.288105
3 3 100 9 0.243588
4 3 100 9 0.108557
5 3 100 9 0.0852744
6 3 100 9 0.0763894
7 3 100 9 0.0488707
8 3 100 9 0.0719659
1 4 100 9 0.0293524
2 4 100 9 0.21779
3 4 100 9 0.281454
4 4 100 9 0.236361
5 4 100 9 0.0737344
6 4 100 9 0.102078
7 4 100 9 0.0592137
8 4 100 9 1.73713e-05
1 5 100 9 0.0276398
2 5 100 9 0.181182
3 5 100 9 0.175347
4 5 100 9 0.175524
5 5 100 9 0.150962
6 5 100 9 0.0950386
7 5 100 9 0.134296
8 5 100 9 0.052949
9 5 100 9 0.00706116
1 6 100 9 0.0121065
2 6 100 9 0.0816822
3 6 100 9 0.222129
4 6 100 9 0.234029
5 6 100 9 0.224021
6 6 100 9 0.11371
7 6 100 9 0.0690695
8 6 100 9 0.0432524
1 7 100 9 0.0275395
2 7 100 9 0.0885
3 7 100 9 0.126549
4 7 100 9 0.19377
5 7 100 9 0.153785
6 7 100 9 0.206797
7 7 100 9 0.144235
8 7 100 9 0.0463003
9 7 100 9 0.0125248
1 8 100 9 0.0187755
2 8 100 9 0.0464382
3 8 100 9 0.0576395
4 8 100 9 0.110476
5 8 100 9 0.163341
6 8 100 9 0.192816
7 8 100 9 0.19667
8 8 100 9 0.180608
9 8 100 9 0.033237
1 9 100 9 0.00969226
2 9 100 9 0.0189499
3 9 100 9 0.0387283
4 9 100 9 0.0830356
5 9 100 9 0.183717
6 9 100 9 0.16584
7 9 100 9 0.184428
8 9 100 9 0.203733
9 9 100 9 0.111876
1 10 100 9 0.0099497
2 10 100 9 0.0321012
3 10 100 9 0.0571734
4 10 100 9 0.105054
5 10 100 9 0.132952
6 10 100 9 0.122269
7 10 100 9 0.166532
8 10 100 9 0.228852
9 10 100 9 0.145117
1 11 100 9 0.00485989
2 11 100 9 0.00536315
3 11 100 9 0.000294226
4 11 100 9 0.0392053
5 11 100 9 0.0860429
6 11 100 9 0.135487
7 11 100 9 0.162821
8 11 100 9 0.266605
9 11 100 9 0.299321
1 12 100 9 0.0306721
2 12 100 9 0.0257034
3 12 100 9 0.0774241
4 12 100 9 0.0525103
5 12 100 9 0.0594928
6 12 100 9 0.159688
7 12 100 9 0.130406
8 12 100 9 0.138751
9 12 100 9 0.325353
1 13 100 9 0.00957854
2 13 100 9 0.000697905
3 13 100 9 0.0316112
4 13 100 9 0.0358028
5 13 100 9 0.0376322
6 13 100 9 0.039936
7 13 100 9 0.00741762
8 13 100 9 0.333528
9 13 100 9 0.503796
1 14 100 9 0.0571781
2 14 100 9 0.0590908
3 14 100 9 0.0468707
4 14 100 9 0.0371381
5 14 100 9 0.0805074
6 14 100 9 0.115642
7 14 100 9 0.143906
8 14 100 9 0.219833
9 14 100 9 0.239834
1 15 100 9 0.0454089
2 15 100 9 0.04583
3 15 100 9 0.0201605
4 15 100 9 0.0371527
5 15 100 9 0.0425136
6 15 100 9 0.0812015
7 15 100 9 0.0444841
8 15 100 9 0.0911162
9 15 100 9 0.592132
1 16 100 9 0.000497207
2 16 100 9 0.088096
3 16 100 9 0.0889737
4 16 100 9 0.171444
5 16 100 9 0.162797
6 16 100 9 0.106368
7 16 100 9 0.0289995
8 16 100 9 0.0973935
9 16 100 9 0.255431
1 17 100 9 0.000725056
2 17 100 9 0.000442128
3 17 100 9 0.00134646
4 17 100 9 2.73335e-05
5 17 100 9 1.12315e-05
6 17 100 9 0.000206227
7 17 100 9 2.21824e-06
8 17 100 9 0.000799683
9 17 100 9 0.99644
1 18 100 9 0.202451
2 18 100 9 0.00221249
3 18 100 9 3.07403e-05
4 18 100 9 1.1481e-06
5 18 100 9 0.00277827
6 18 100 9 0.148841
7 18 100 9 0.259472
8 18 100 9 0.292986
9 18 100 9 0.0912272
3 19 100 9 2.17381e-06
4 19 100 9 0.00304809
5 19 100 9 0.000414753
6 19 100 9 1.32323e-05
7 19 100 9 3.53874e-06
9 19 100 9 0.996518
3 20 100 9 0.00288341
4 20 100 9 0.00287511
5 20 100 9 0.00303176
6 20 100 9 0.00251389
7 20 100 9 0.988696
1 21 100 9 0.0859008
2 21 100 9 0.0861098
3 21 100 9 0.147676
4 21 100 9 0.169017
5 21 100 9 0.170025
6 21 100 9 0.169375
7 21 100 9 0.00147221
8 21 100 9 0.170424
9 22 100 9 1
1 0 100 10 2.07894e-07
2 0 100 10 0.0182045
3 0 100 10 0.0359734
4 0 100 10 0.169892
5 0 100 10 0.0956455
6 0 100 10 0.0117302
7 0 100 10 0.117652
8 0 100 10 0.200079
9 0 100 10 0.0261525
10 0 100 10 0.324671
1 1 100 10 0.578861
2 1 100 10 0.229948
3 1 100 10 0.144661
4 1 100 10 0.0260345
5 1 100 10 0.000132028
6 1 100 10 9.3123e-05
7 1 100 10 0.0069603
8 1 100 10 0.0066458
9 1 100 10 0.0066649
1 2 100 10 0.0293429
2 2 100 10 0.359427
3 2 100 10 0.168904
4 2 100 10 0.202967
5 2 100 10 0.0330138
6 2 100 10 0.0450641
7 2 100 10 0.0694125
8 2 100 10 0.0450572
9 2 100 10 0.0468104
1 3 100 10 0.0828814
2 3 100 10 0.155835
3 3 100 10 0.159131
4 3 100 10 0.101846
5 3 100 10 0.116759
6 3 100 10 0.0996765
7 3 100 10 0.0868734
8 3 100 10 0.101403
9 3 100 10 0.0955946
1 4 100 10 0.0473369
2 4 100 10 0.25468
3 4 100 10 0.245468
4 4 100 10 0.23166
5 4 100 10 0.125337
6 4 100 10 0.0394642
7 4 100 10 0.0361638
8 4 100 10 0.000161187
9 4 100 10 0.0197297
1 5 100 10 1.22142e-05
2 5 100 10 0.128793
3 5 100 10 0.214652
4 5 100 10 0.14588
5 5 100 10 0.133204
6 5 100 10 0.129566
7 5 100 10 0.102349
8 5 100 10 0.0752465
9 5 100 10 0.0702965
1 6 100 10 4.52451e-05
2 6 100 10 0.115699
3 6 100 10 0.236728
4 6 100 10 0.252293
5 6 100 10 0.192075
6 6 100 10 0.0663042
7 6 100 10 0.051821
8 6 100 10 0.043318
9 6 100 10 0.0417179
1 7 100 10 0.014503
2 7 100 10 0.110796
3 7 100 10 0.132501
4 7 100 10 0.144179
5 7 100 10 0.174625
6 7 100 10 0.169234
7 7 100 10 0.0823726
8 7 100 10 0.0876911
9 7 100 10 0.0602334
10 7 100 10 0.023865
1 8 100 10 0.0156771
2 8 100 10 0.0506936
3 8 100 10 0.0785764
4 8 100 10 0.13613
5 8 100 10 0.161692
6 8 100 10 0.245351
7 8 100 10 0.0944453
8 8 100 10 0.109053
9 8 100 10 0.108381
2 9 100 10 6.966e-07
3 9 100 10 0.0337107
4 9 100 10 0.113936
5 9 100 10 0.0955869
6 9 100 10 0.109975
7 9 100 10 0.236619
8 9 100 10 0.219893
9 9 100 10 0.125705
10 9 100 10 0.0645739
1 10 100 10 0.0130552
2 10 100 10 0.0283003
3 10 100 10 0.0618252
4 10 100 10 0.0892062
5 10 100 10 0.280049
6 10 100 10 0.178654
7 10 100 10 0.0848408
8 10 100 10 0.121013
9 10 100 10 0.11394
10 10 100 10 0.0291164
1 11 100 10 0.0303922
2 11 100 10 0.0526838
3 11 100 10 0.0374056
4 11 100 10 0.0503745
5 11 100 10 0.104534
6 11 100 10 0.22528
7 11 100 10 0.122539
8 11 100 10 0.122605
9 11 100 10 0.149146
10 11 100 10 0.105039
1 12 100 10 0.0137576
2 12 100 10 0.0138228
3 12 100 10 0.0420297
4 12 100 10 0.030317
5 12 100 10 0.0461005
6 12 100 10 0.108271
7 12 100 10 0.230877
8 12 100 10 0.15784
9 12 100 10 0.192047
10 12 100 10 0.164937
1 13 100 10 0.0194121
2 13 100 10 0.00990738
3 13 100 10 0.0239416
4 13 100 10 0.0441531
5 13 100 10 0.063497
6 13 100 10 0.0800424
7 13 100 10 0.128791
8 13 100 10 0.122747
9 13 100 10 0.232995
10 13 100 10 0.274514
1 14 100 10 4.10051e-07
2 14 100 10 1.45164e-05
3 14 100 10 1.06998e-05
4 14 100 10 0.0381487
5 14 100 10 0.0670657
6 14 100 10 0.0908333
7 14 100 10 0.0290979
8 14 100 10 0.0386165
9 14 100 10 0.134319
10 14 100 10 0.601894
1 15 100 10 2.41498e-06
2 15 100 10 3.01754e-05
3 15 100 10 5.82549e-05
4 15 100 10 9.3402e-05
5 15 100 10 0.0172764
6 15 100 10 0.0562577
7 15 100 10 0.252421
8 15 100 10 0.254038
9 15 100 10 0.327388
10 15 100 10 0.0924346
1 16 100 10 7.69589e-07
2 16 100 10 0.0141528
3 16 100 10 0.0598727
4 16 100 10 0.0707871
5 16 100 10 0.0405791
6 16 100 10 0.112747
7 16 100 10 0.0746922
8 16 100 10 0.0349867
9 16 100 10 0.0782931
10 16 100 10 0.513888
2 17 100 10 3.35478e-07
3 17 100 10 2.33147e-05
4 17 100 10 0.0612647
5 17 100 10 0.0620139
6 17 100 10 0.110543
7 17 100 10 0.120008
8 17 100 10 0.117679
9 17 100 10 0.0146782
10 17 100 10 0.513789
1 18 100 10 3.75887e-05
3 18 100 10 0.00147815
4 18 100 10 0.000110068
6 18 100 10 1.03858e-06
7 18 100 10 0.00752102
8 18 100 10 0.00180019
9 18 100 10 0.411318
10 18 100 10 0.577734
1 19 100 10 8.31887e-05
2 19 100 10 9.78363e-07
3 19 100 10 5.91156e-07
4 19 100 10 1.24754e-05
5 19 100 10 2.76449e-06
6 19 100 10 0.00159211
7 19 100 10 0.210705
8 19 100 10 0.31595
9 19 100 10 0.319303
10 19 100 10 0.152349
4 20 100 10 8.04191e-05
5 20 100 10 0.000255857
10 20 100 10 0.999664
4 21 100 10 0.0187066
5 21 100 10 0.199318
6 21 100 10 0.200587
7 21 100 10 0.191494
8 21 100 10 0.198003
9 21 100 10 0.191892
3 22 100 10 1
5 23 100 10 0.000680452
6 23 100 10 0.0842849
7 23 100 10 0.812285
8 23 100 10 0.0900952
9 23 100 10 0.0126542
3 24 100 10 4.77051e-05
10 24 100 10 0.999952
1 0 100 11 1.94881e-05
2 0 100 11 0.0301775
3 0 100 11 0.0248772
4 0 100 11 0.103732
5 0 100 11 0.0275561
6 0 100 11 0.0500608
7 0 100 11 0.030856
8 0 100 11 0.19989
9 0 100 11 0.140047
10 0 100 11 0.0193464
11 0 100 11 0.373438
1 1 100 11 0.554878
2 1 100 11 0.177866
3 1 100 11 0.127996
4 1 100 11 0.0354538
5 1 100 11 0.0255454
6 1 100 11 0.0143991
7 1 100 11 0.0255372
8 1 100 11 0.0127727
9 1 100 11 0.0127694
10 1 100 11 0.0127814
1 2 100 11 0.000135481
2 2 100 11 0.298444
3 2 100 11 0.142305
4 2 100 11 0.168223
5 2 100 11 0.166949
6 2 100 11 0.0727584
7 2 100 11 0.0727478
8 2 100 11 0.0363739
9 2 100 11 0.0363818
10 2 100 11 0.00568197
1 3 100 11 0.0503248
2 3 100 11 0.157093
3 3 100 11 0.226085
4 3 100 11 0.151994
5 3 100 11 0.117465
6 3 100 11 0.0753487
7 3 100 11 0.123777
8 3 100 11 0.0476645
9 3 100 11 0.0251036
10 3 100 11 0.0251443
1 4 100 11 0.0634177
2 4 100 11 0.448504
3 4 100 11 1.03343e-05
4 4 100 11 0.0140636
5 4 100 11 0.125052
6 4 100 11 0.101894
7 4 100 11 4.69281e-05
8 4 100 11 0.208366
9 4 100 11 0.0137036
10 4 100 11 0.0249416
1 5 100 11 0.0527032
2 5 100 11 0.202369
3 5 100 11 0.131131
4 5 100 11 0.154361
5 5 100 11 0.131142
6 5 100 11 0.0859459
7 5 100 11 0.0524669
8 5 100 11 0.058089
9 5 100 11 0.0793383
10 5 100 11 0.0524528
1 6 100 11 0.0299804
2 6 100 11 0.075628
3 6 100 11 0.179042
4 6 100 11 0.287028
5 6 100 11 0.261582
6 6 100 11 0.0913284
7 6 100 11 0.0301896
8 6 100 11 0.0298191
9 6 100 11 5.17552e-06
10 6 100 11 7.54575e-05
11 6 100 11 0.015322
1 7 100 11 0.0600033
2 7 100 11 0.172138
3 7 100 11 0.24041
4 7 100 11 0.178246
5 7 100 11 0.0640562
6 7 100 11 0.0373181
7 7 100 11 0.0807503
8 7 100 11 0.0600084
9 7 100 11 0.0538357
10 7 100 11 0.0532341
1 8 100 11 0.0260652
3 8 100 11 0.0908963
4 8 100 11 0.118946
5 8 100 11 0.129206
6 8 100 11 0.120441
7 8 100 11 0.157978
8 8 100 11 0.148434
9 8 100 11 0.117762
10 8 100 11 0.0902656
11 8 100 11 6.88398e-06
2 9 100 11 8.66991e-05
3 9 100 11 0.0400411
4 9 100 11 0.0792689
5 9 100 11 0.154949
6 9 100 11 0.221704
7 9 100 11 0.238603
8 9 100 11 0.0444705
9 9 100 11 0.100179
10 9 100 11 0.0799956
11 9 100 11 0.0407018
2 10 100 11 1.93455e-06
3 10 100 11 0.038952
4 10 100 11 0.123614
5 10 100 11 0.204854
6 10 100 11 0.152387
7 10 100 11 0.101902
8 10 100 11 0.10687
9 10 100 11 0.115959
10 10 100 11 0.116858
11 10 100 11 0.0386029
1 11 100 11 0.0316171
2 11 100 11 0.0558319
3 11 100 11 0.0829775
4 11 100 11 0.0811949
5 11 100 11 0.12528
6 11 100 11 0.137448
7 11 100 11 0.111585
8 11 100 11 0.11157
9 11 100 11 0.152966
10 11 100 11 0.0820452
11 11 100 11 0.0274843
2 12 100 11 0.0531188
3 12 100 11 1.96935e-06
4 12 100 11 1.95153e-05
5 12 100 11 1.74673e-06
6 12 100 11 0.129019
7 12 100 11 0.0804828
8 12 100 11 0.258077
9 12 100 11 0.180953
10 12 100 11 0.262582
11 12 100 11 0.0357448
1 13 100 11 2.22975e-05
2 13 100 11 4.43733e-06
3 13 100 11 0.0423375
4 13 100 11 0.0539564
5 13 100 11 0.0296567
6 13 100 11 0.188703
7 13 100 11 0.163844
8 13 100 11 0.128243
9 13 100 11 0.0823884
10 13 100 11 0.082156
11 13 100 11 0.228689
1 14 100 11 0.0619634
2 14 100 11 0.0411173
3 14 100 11 0.083672
4 14 100 11 3.89207e-05
5 14 100 11 0.098108
6 14 100 11 0.0422699
7 14 100 11 0.0949063
8 14 100 11 0.0485899
9 14 100 11 0.140609
10 14 100 11 0.280476
11 14 100 11 0.108249
1 15 100 11 5.04623e-07
2 15 100 11 1.61677e-05
3 15 100 11 0.000447811
4 15 100 11 0.000911427
5 15 100 11 0.00100379
6 15 100 11 0.0142994
7 15 100 11 0.00122724
8 15 100 11 0.198352
9 15 100 11 0.117895
10 15 100 11 0.375104
11 15 100 11 0.290742
3 16 100 11 1.05813e-05
4 16 100 11 0.00272466
5 16 100 11 0.0513467
6 16 100 11 0.0575478
7 16 100 11 0.109245
8 16 100 11 0.111779
9 16 100 11 0.165091
10 16 100 11 0.174969
11 16 100 11 0.327286
2 17 100 11 0.00237187
3 17 100 11 5.83039e-06
4 17 100 11 0.00310829
5 17 100 11 0.0124223
6 17 100 11 0.111353
7 17 100 11 0.0935835
8 17 100 11 0.273778
9 17 100 11 0.245945
10 17 100 11 0.0352571
11 17 100 11 0.222175
1 18 100 11 0.04615
2 18 100 11 0.046292
3 18 100 11 0.0461497
4 18 100 11 0.023635
5 18 100 11 0.0457533
6 18 100 11 0.224052
7 18 100 11 0.138397
8 18 100 11 0.00225249
9 18 100 11 0.138762
10 18 100 11 0.23069
11 18 100 11 0.0578658
1 19 100 11 8.20309e-07
3 19 100 11 4.38694e-07
4 19 100 11 0.00836131
5 19 100 11 0.000482957
6 19 100 11 0.000104483
7 19 100 11 0.191635
8 19 100 11 0.0962473
9 19 100 11 0.100338
10 19 100 11 0.0825324
11 19 100 11 0.520298
2 20 100 11 6.21227e-06
4 20 100 11 0.0268476
5 20 100 11 0.000665724
7 20 100 11 0.000227724
8 20 100 11 0.000485418
9 20 100 11 0.00100925
11 20 100 11 0.970758
4 21 100 11 0.000201216
5 21 100 11 1.46164e-05
6 21 100 11 0.153501
7 21 100 11 0.228278
8 21 100 11 0.156137
9 21 100 11 0.230889
10 21 100 11 0.23098
4 22 100 11 8.36968e-07
5 22 100 11 0.118903
6 22 100 11 0.119317
7 22 100 11 0.119295
8 22 100 11 0.119318
9 22 100 11 0.11942
10 22 100 11 0.238634
11 22 100 11 0.165113
6 23 100 11 2.37152e-05
11 23 100 11 0.999976
11 25 100 11 1
1 0 100 12 2.9407e-07
2 0 100 12 0.0265206
3 0 100 12 0.000193453
4 0 100 12 0.00988499
5 0 100 12 0.0908159
6 0 100 12 0.0909351
7 0 100 12 0.0539485
8 0 100 12 0.0180902
9 0 100 12 0.0621805
10 0 100 12 0.0930947
11 0 100 12 0.0394675
12 0 100 12 0.514868
1 1 100 12 0.485325
2 1 100 12 0.120756
3 1 100 12 0.118099
4 1 100 12 0.0965017
5 1 100 12 0.029523
6 1 100 12 0.0295249
7 1 100 12 0.0147732
8 1 100 12 0.0147615
9 1 100 12 0.0295229
10 1 100 12 0.0315217
11 1 100 12 0.029691
1 2 100 12 0.101073
2 2 100 12 0.178516
4 2 100 12 2.00622e-05
5 2 100 12 0.0904813
6 2 100 12 0.000513432
7 2 100 12 0.151419
8 2 100 12 0.149925
9 2 100 12 0.149925
10 2 100 12 0.176574
11 2 100 12 0.0015531
1 3 100 12 0.0918156
2 3 100 12 0.365093
3 3 100 12 0.192881
4 3 100 12 0.120889
5 3 100 12 0.0606108
6 3 100 12 0.0190421
7 3 100 12 0.0289
8 3 100 12 0.0603859
9 3 100 12 0.0301927
10 3 100 12 9.83783e-07
11 3 100 12 0.030189
1 4 100 12 0.0285453
2 4 100 12 0.178229
3 4 100 12 0.120494
4 4 100 12 0.0402151
5 4 100 12 0.0367542
6 4 100 12 0.0802177
7 4 100 12 0.116838
8 4 100 12 0.120134
9 4 100 12 0.160166
10 4 100 12 0.118407
1 5 100 12 0.0571437
2 5 100 12 0.109803
3 5 100 12 0.119415
4 5 100 12 0.114381
5 5 100 12 0.0286327
6 5 100 12 0.0906656
7 5 100 12 0.145894
8 5 100 12 0.114367
9 5 100 12 0.0572148
10 5 100 12 0.105452
11 5 100 12 0.0570313
1 6 100 12 0.0885106
2 6 100 12 0.0567278
3 6 100 12 0.147331
4 6 100 12 0.156057
5 6 100 12 0.206414
6 6 100 12 0.0885502
7 6 100 12 0.0801901
8 6 100 12 0.116826
9 6 100 12 0.0298445
10 6 100 12 3.07923e-05
11 6 100 12 0.0295175
1 7 100 12 0.0597305
2 7 100 12 0.0898315
3 7 100 12 0.183798
4 7 100 12 0.180346
5 7 100 12 0.240005
6 7 100 12 0.119782
7 7 100 12 0.0878987
8 7 100 12 0.0299445
10 7 100 12 1.55756e-05
11 7 100 12 0.000524027
12 7 100 12 0.0081242
1 8 100 12 0.0539428
2 8 100 12 0.0270373
3 8 100 12 0.0270346
4 8 100 12 0.0764604
5 8 100 12 0.082509
6 8 100 12 0.167258
7 8 100 12 0.162008
8 8 100 12 0.135154
9 8 100 12 0.10622
10 8 100 12 0.0810326
11 8 100 12 0.0813437
1 9 100 12 2.60584e-05
2 9 100 12 0.102593
3 9 100 12 0.176395
4 9 100 12 0.169543
5 9 100 12 0.168215
6 9 100 12 0.10024
7 9 100 12 9.55266e-06
8 9 100 12 0.0677046
9 9 100 12 0.043325
10 9 100 12 0.0342382
11 9 100 12 0.114364
12 9 100 12 0.0233481
1 10 100 12 1.55005e-06
2 10 100 12 0.0539519
3 10 100 12 0.0611181
4 10 100 12 0.16214
5 10 100 12 0.110591
6 10 100 12 0.0538422
8 10 100 12 0.0624681
9 10 100 12 0.0397445
10 10 100 12 0.150308
11 10 100 12 0.0543334
12 10 100 12 0.251501
1 11 100 12 7.75155e-06
2 11 100 12 0.0855781
3 11 100 12 0.0856474
4 11 100 12 0.1426
5 11 100 12 0.061513
6 11 100 12 0.113495
7 11 100 12 0.086831
8 11 100 12 0.0856054
9 11 100 12 0.121251
10 11 100 12 0.103431
11 11 100 12 0.11404
1 12 100 12 6.76153e-06
2 12 100 12 1.42608e-06
3 12 100 12 1.79603e-06
4 12 100 12 7.85978e-05
5 12 100 12 0.000307526
6 12 100 12 0.0545075
7 12 100 12 0.0474556
8 12 100 12 0.174402
9 12 100 12 0.183936
10 12 100 12 0.236035
11 12 100 12 0.270019
12 12 100 12 0.0332484
1 13 100 12 0.00176593
2 13 100 12 0.0552786
3 13 100 12 0.110567
4 13 100 12 0.0626505
5 13 100 12 0.10206
6 13 100 12 0.113444
7 13 100 12 0.213499
8 13 100 12 0.0552857
9 13 100 12 3.26897e-06
10 13 100 12 0.0552805
11 13 100 12 0.0552797
12 13 100 12 0.174886
2 14 100 12 0.0217054
3 14 100 12 0.00158103
4 14 100 12 0.00102326
5 14 100 12 0.144799
6 14 100 12 0.25128
7 14 100 12 0.143865
8 14 100 12 0.0776974
9 14 100 12 0.0987744
10 14 100 12 0.108007
11 14 100 12 0.100339
12 14 100 12 0.0509284
1 15 100 12 0.0350298
2 15 100 12 0.0360099
3 15 100 12 0.034396
4 15 100 12 0.0168759
5 15 100 12 0.000388051
6 15 100 12 0.11423
7 15 100 12 0.134884
8 15 100 12 0.108517
9 15 100 12 0.17588
10 15 100 12 0.129304
11 15 100 12 0.176463
12 15 100 12 0.0380223
1 16 100 12 0.000251547
2 16 100 12 8.80193e-05
3 16 100 12 7.03046e-05
4 16 100 12 0.0767876
5 16 100 12 0.112319
6 16 100 12 0.00556548
7 16 100 12 0.0969134
8 16 100 12 0.0634753
9 16 100 12 0.138298
10 16 100 12 0.100079
11 16 100 12 0.144847
12 16 100 12 0.261306
2 17 100 12 0.0458739
3 17 100 12 0.143959
4 17 100 12 0.156614
5 17 100 12 0.00304436
6 17 100 12 0.120154
7 17 100 12 0.146272
8 17 100 12 0.124733
9 17 100 12 0.0739483
10 17 100 12 0.0257135
11 17 100 12 0.0970203
12 17 100 12 0.0626683
1 18 100 12 6.20281e-06
2 18 100 12 7.75602e-06
3 18 100 12 9.82458e-05
4 18 100 12 0.00125405
5 18 100 12 0.175319
6 18 100 12 0.100773
7 18 100 12 0.0660958
8 18 100 12 0.0872018
9 18 100 12 0.225096
10 18 100 12 0.125323
11 18 100 12 0.104527
12 18 100 12 0.114298
1 19 100 12 3.61385e-07
3 19 100 12 0.000296073
4 19 100 12 0.000916448
5 19 100 12 6.20029e-05
6 19 100 12 1.01874e-05
7 19 100 12 0.000273764
8 19 100 12 0.1182
9 19 100 12 0.000296734
10 19 100 12 0.233876
11 19 100 12 5.36395e-05
12 19 100 12 0.646014
1 20 100 12 4.08854e-06
3 20 100 12 1.47488e-07
4 20 100 12 0.00364898
5 20 100 12 0.0497288
6 20 100 12 0.0544778
7 20 100 12 0.118713
8 20 100 12 0.164955
9 20 100 12 0.179585
10 20 100 12 0.170778
11 20 100 12 0.227738
12 20 100 12 0.0303714
5 21 100 12 0.000702111
6 21 100 12 0.000110432
7 21 100 12 4.36851e-05
8 21 100 12 0.000427188
9 21 100 12 0.221547
10 21 100 12 0.212603
11 21 100 12 0.558668
12 21 100 12 0.0058983
5 22 100 12 0.0301653
6 22 100 12 2.89334e-05
7 22 100 12 0.000226535
8 22 100 12 0.000256222
9 22 100 12 0.000745401
10 22 100 12 0.280105
11 22 100 12 0.276927
12 22 100 12 0.411546
3 23 100 12 7.91545e-07
4 23 100 12 1.82002e-06
5 23 100 12 8.33552e-07
6 23 100 12 1.06374e-05
7 23 100 12 0.197895
8 23 100 12 0.269686
9 23 100 12 0.266874
10 23 100 12 0.000482909
11 23 100 12 0.262387
12 23 100 12 0.0026597
3 24 100 12 0.000397779
4 24 100 12 2.21429e-05
5 24 100 12 0.416653
6 24 100 12 0.000922515
7 24 100 12 1.92955e-05
8 24 100 12 0.0417776
9 24 100 12 0.0224424
10 24 100 12 0.0282631
11 24 100 12 0.489503
6 25 100 12 0.22381
7 25 100 12 0.648884
8 25 100 12 0.075069
9 25 100 12 0.0215557
10 25 100 12 1.48186e-05
11 25 100 12 0.000822964
12 25 100 12 0.0298436
3 26 100 12 2.50697e-06
5 26 100 12 0.00686817
6 26 100 12 0.000689989
10 26 100 12 5.27232e-05
11 26 100 12 6.66606e-05
12 26 100 12 0.99232
8 27 100 12 0.684776
9 27 100 12 0.0123829
12 27 100 12 0.302841
2 0 100 13 0.066186
4 0 100 13 0.0668472
5 0 100 13 0.0472755
6 0 100 13 0.0766539
7 0 100 13 0.131802
8 0 100 13 0.0220974
9 0 100 13 0.0331879
10 0 100 13 0.0602677
11 0 100 13 0.129087
12 0 100 13 0.00213089
13 0 100 13 0.364464
1 1 100 13 0.574687
2 1 100 13 0.232539
3 1 100 13 0.134762
4 1 100 13 0.0288831
5 1 100 13 0.0289886
6 1 100 13 2.17464e-06
8 1 100 13 0.000137796
1 2 100 13 0.000280354
2 2 100 13 0.428902
3 2 100 13 0.196102
4 2 100 13 0.194988
5 2 100 13 0.177784
6 2 100 13 0.00100662
8 2 100 13 0.000720693
12 2 100 13 0.000215702
1 3 100 13 0.0528641
2 3 100 13 0.251167
3 3 100 13 0.334243
4 3 100 13 0.159519
5 3 100 13 0.0463938
6 3 100 13 0.102915
7 3 100 13 0.0528618
9 3 100 13 8.91716e-07
10 3 100 13 2.37696e-05
11 3 100 13 1.17124e-05
1 4 100 13 0.0829812
2 4 100 13 0.0741544
3 4 100 13 0.148335
4 4 100 13 0.221936
5 4 100 13 0.227299
6 4 100 13 0.151242
7 4 100 13 0.0740455
8 4 100 13 0.0190192
9 4 100 13 0.000418876
10 4 100 13 2.4829e-05
11 4 100 13 0.000233041
12 4 100 13 0.000310799
1 5 100 13 0.0911712
2 5 100 13 0.140788
3 5 100 13 0.0935872
4 5 100 13 0.187137
5 5 100 13 0.111168
6 5 100 13 0.0937648
7 5 100 13 0.0935713
8 5 100 13 0.0955084
9 5 100 13 0.0932906
11 5 100 13 1.37811e-05
1 6 100 13 0.055308
2 6 100 13 0.110121
3 6 100 13 0.338496
4 6 100 13 0.112598
5 6 100 13 0.0565501
6 6 100 13 0.00433082
7 6 100 13 0.112957
8 6 100 13 0.112958
9 6 100 13 0.0961593
12 6 100 13 0.000520872
2 7 100 13 0.0453358
3 7 100 13 0.055431
4 7 100 13 0.133967
5 7 100 13 0.323808
6 7 100 13 7.24657e-07
7 7 100 13 0.0809648
8 7 100 13 0.0898107
9 7 100 13 0.0905411
10 7 100 13 0.0896112
11 7 100 13 0.0452577
12 7 100 13 0.045271
2 8 100 13 1.2751e-05
4 8 100 13 0.214618
5 8 100 13 0.116356
6 8 100 13 0.314404
7 8 100 13 0.107512
8 8 100 13 0.107694
9 8 100 13 0.139402
3 9 100 13 0.031944
4 9 100 13 0.12351
5 9 100 13 0.0831558
6 9 100 13 0.181429
7 9 100 13 0.168721
8 9 100 13 0.12357
9 9 100 13 0.123305
10 9 100 13 0.0820352
11 9 100 13 0.0411654
12 9 100 13 0.0411654
4 10 100 13 5.21428e-06
5 10 100 13 0.166393
6 10 100 13 0.269837
7 10 100 13 0.0836503
8 10 100 13 8.58114e-05
9 10 100 13 1.38878e-06
10 10 100 13 0.0864632
11 10 100 13 0.166355
12 10 100 13 0.168493
13 10 100 13 0.0587175
5 11 100 13 0.104389
6 11 100 13 0.156249
7 11 100 13 0.0960385
8 11 100 13 0.15075
9 11 100 13 0.101769
10 11 100 13 0.18807
11 11 100 13 0.101897
12 11 100 13 0.100837
1 12 100 13 0.00368439
3 12 100 13 4.15135e-06
4 12 100 13 9.98339e-06
5 12 100 13 0.000709369
6 12 100 13 0.28186
7 12 100 13 0.142945
8 12 100 13 0.0716106
9 12 100 13 0.137949
10 12 100 13 0.0720958
11 12 100 13 0.0770825
12 12 100 13 0.21205
1 13 100 13 0.0454162
2 13 100 13 0.0451051
3 13 100 13 0.0457658
4 13 100 13 0.0454162
6 13 100 13 7.27634e-05
7 13 100 13 0.0559298
8 13 100 13 0.137152
9 13 100 13 0.0454156
10 13 100 13 0.0908344
11 13 100 13 0.181664
12 13 100 13 0.174548
13 13 100 13 0.13268
2 14 100 13 4.24022e-05
3 14 100 13 0.0548607
4 14 100 13 0.0548607
5 14 100 13 0.000311568
6 14 100 13 0.000117325
7 14 100 13 0.0531628
8 14 100 13 0.125501
9 14 100 13 0.143592
10 14 100 13 0.148923
11 14 100 13 0.164581
12 14 100 13 0.160769
13 14 100 13 0.093279
2 15 100 13 0.0778264
3 15 100 13 0.0488701
4 15 100 13 0.000827569
5 15 100 13 0.0820615
6 15 100 13 0.0707513
7 15 100 13 0.282326
8 15 100 13 0.094397
9 15 100 13 0.0933659
10 15 100 13 0.0873062
11 15 100 13 0.0739643
12 15 100 13 0.0756272
13 15 100 13 0.0126767
1 16 100 13 0.0853217
2 16 100 13 0.0843608
3 16 100 13 0.00052533
4 16 100 13 0.000402112
5 16 100 13 0.000139074
6 16 100 13 0.000334039
7 16 100 13 0.00248271
8 16 100 13 0.145296
9 16 100 13 0.095385
10 16 100 13 0.0950911
11 16 100 13 0.170715
12 16 100 13 0.170162
13 16 100 13 0.149785
2 17 100 13 0.00149226
3 17 100 13 0.125925
4 17 100 13 0.178571
5 17 100 13 0.132638
6 17 100 13 0.000153157
7 17 100 13 0.000453129
8 17 100 13 0.178916
9 17 100 13 0.244706
10 17 100 13 0.00330002
11 17 100 13 0.0152247
12 17 100 13 0.00243905
13 17 100 13 0.116182
2 18 100 13 4.70552e-05
4 18 100 13 0.019443
5 18 100 13 2.30027e-05
6 18 100 13 0.00601931
7 18 100 13 0.0002826
8 18 100 13 0.134166
9 18 100 13 0.220465
10 18 100 13 0.220099
11 18 100 13 0.186604
12 18 100 13 0.184543
13 18 100 13 0.0283071
1 19 100 13 3.06983e-06
2 19 100 13 2.24613e-06
4 19 100 13 0.000129902
5 19 100 13 0.116932
6 19 100 13 0.130931
7 19 100 13 0.00236618
8 19 100 13 0.00122125
9 19 100 13 0.112135
10 19 100 13 0.260989
11 19 100 13 0.000413259
12 19 100 13 0.047219
13 19 100 13 0.327659
1 20 100 13 0.0964099
2 20 100 13 0.0916567
3 20 100 13 2.343e-05
4 20 100 13 4.29015e-06
5 20 100 13 1.57147e-05
6 20 100 13 6.97187e-06
7 20 100 13 0.0103222
8 20 100 13 2.30928e-06
9 20 100 13 2.30181e-05
10 20 100 13 0.0841199
11 20 100 13 0.186828
12 20 100 13 0.413212
13 20 100 13 0.117376
5 21 100 13 3.88583e-06
6 21 100 13 0.0236915
7 21 100 13 7.14525e-05
8 21 100 13 0.218704
9 21 100 13 0.218787
10 21 100 13 0.213656
11 21 100 13 0.00100794
12 21 100 13 0.0124484
13 21 100 13 0.311629
4 22 100 13 1.13967e-05
5 22 100 13 0.000293616
6 22 100 13 0.00267651
7 22 100 13 0.00205614
8 22 100 13 0.955622
9 22 100 13 8.36437e-05
10 22 100 13 0.0364158
12 22 100 13 4.85062e-05
13 22 100 13 0.00279232
9 23 100 13 0.13984
10 23 100 13 1.84364e-05
11 23 100 13 0.00613913
12 23 100 13 0.854002
6 24 100 13 4.78197e-06
7 24 100 13 0.00115638
9 24 100 13 0.00433466
10 24 100 13 0.994504
9 25 100 13 9.78848e-06
10 25 100 13 0.197775
11 25 100 13 0.402259
12 25 100 13 0.399956
7 26 100 13 4.97641e-05
9 26 100 13 0.000174965
10 26 100 13 5.54302e-06
11 26 100 13 0.529489
12 26 100 13 0.00444649
13 26 100 13 0.465835
6 27 100 13 0.421479
12 27 100 13 0.561548
13 27 100 13 0.0169724
13 28 100 13 1
2 0 100 14 0.0285454
3 0 100 14 0.00394065
4 0 100 14 0.0395571
5 0 100 14 0.0320855
6 0 100 14 0.0621134
7 0 100 14 0.000689483
8 0 100 14 0.00411331
9 0 100 14 0.0137508
10 0 100 14 0.0782534
11 0 100 14 0.132119
12 0 100 14 0.0818807
13 0 100 14 0.0026275
14 0 100 14 0.520323
1 1 100 14 0.562295
2 1 100 14 0.203171
3 1 100 14 0.0706464
4 1 100 14 0.0388397
5 1 100 14 0.0412201
6 1 100 14 0.0418864
7 1 100 14 0.0209969
8 1 100 14 0.0209432
10 1 100 14 2.76071e-07
12 1 100 14 2.40249e-07
1 2 100 14 0.0120752
2 2 100 14 0.326999
3 2 100 14 0.261069
4 2 100 14 0.101521
5 2 100 14 0.0994209
7 2 100 14 1.13373e-05
8 2 100 14 0.0994226
9 2 100 14 0.0994198
13 2 100 14 6.10617e-05
1 3 100 14 0.0791463
2 3 100 14 0.207014
3 3 100 14 0.158153
4 3 100 14 0.0790726
5 3 100 14 0.160458
6 3 100 14 0.0790712
7 3 100 14 0.0788705
9 3 100 14 0.0791045
10 3 100 14 0.0790712
13 3 100 14 3.8505e-05
1 4 100 14 0.132609
2 4 100 14 0.35473
3 4 100 14 0.26001
4 4 100 14 0.181847
5 4 100 14 0.0628395
6 4 100 14 0.00794358
9 4 100 14 1.85943e-06
10 4 100 14 3.6728e-07
11 4 100 14 1.86444e-05
1 5 100 14 0.00478011
2 5 100 14 0.105725
3 5 100 14 0.288331
4 5 100 14 0.215676
5 5 100 14 0.147511
6 5 100 14 0.0728811
7 5 100 14 0.0412274
8 5 100 14 0.0412807
9 5 100 14 0.0412807
10 5 100 14 0.0412807
11 5 100 14 2.30631e-05
12 5 100 14 2.59673e-06
2 6 100 14 0.108528
3 6 100 14 0.342336
4 6 100 14 0.174622
5 6 100 14 0.134443
6 6 100 14 0.0889177
7 6 100 14 0.0441269
9 6 100 14 1.6861e-05
10 6 100 14 1.1803e-05
11 6 100 14 0.0534225
12 6 100 14 0.0534141
13 6 100 14 0.000160357
1 7 100 14 0.0676999
2 7 100 14 0.0305977
3 7 100 14 0.000931116
4 7 100 14 0.137625
5 7 100 14 0.197843
6 7 100 14 0.10237
7 7 100 14 0.16845
8 7 100 14 0.159099
9 7 100 14 0.067701
10 7 100 14 0.0338511
11 7 100 14 0.0338314
13 7 100 14 6.39936e-07
1 8 100 14 0.0566152
2 8 100 14 0.0566613
3 8 100 14 0.0864216
4 8 100 14 0.0815179
5 8 100 14 0.241534
6 8 100 14 0.226062
7 8 100 14 0.123168
8 8 100 14 0.0732769
9 8 100 14 0.0532388
10 8 100 14 0.000717688
11 8 100 14 0.000171424
13 8 100 14 0.000614932
2 9 100 14 0.00141766
3 9 100 14 0.0599849
4 9 100 14 0.164291
5 9 100 14 0.178182
6 9 100 14 0.120042
7 9 100 14 0.115307
8 9 100 14 1.92687e-05
9 9 100 14 0.120745
10 9 100 14 0.120029
11 9 100 14 0.119983
5 10 100 14 0.0922115
6 10 100 14 0.128135
7 10 100 14 0.196928
8 10 100 14 0.190891
9 10 100 14 0.0692456
10 10 100 14 0.0764419
11 10 100 14 0.0657866
12 10 100 14 0.114479
13 10 100 14 0.0658813
1 11 100 14 4.77513e-06
2 11 100 14 0.000512554
3 11 100 14 0.0689228
4 11 100 14 0.328237
5 11 100 14 0.165466
6 11 100 14 0.0666258
7 11 100 14 0.0132449
8 11 100 14 0.00790439
10 11 100 14 0.00253531
11 11 100 14 3.61545e-06
12 11 100 14 0.203386
13 11 100 14 0.143156
3 12 100 14 1.7731e-05
4 12 100 14 0.0098613
5 12 100 14 0.0311017
6 12 100 14 0.0872703
7 12 100 14 0.183701
8 12 100 14 0.160715
9 12 100 14 0.160733
10 12 100 14 0.0908581
11 12 100 14 0.0921408
12 12 100 14 0.0917056
13 12 100 14 0.0615185
14 12 100 14 0.0303769
1 13 100 14 0.0398966
2 13 100 14 0.0450165
3 13 100 14 0.0451325
4 13 100 14 0.0552107
5 13 100 14 0.0396219
6 13 100 14 0.0892864
7 13 100 14 0.0853826
8 13 100 14 0.0928544
9 13 100 14 0.0896458
10 13 100 14 0.108624
11 13 100 14 0.0900565
12 13 100 14 0.0452139
13 13 100 14 0.174058
1 14 100 14 0.034736
2 14 100 14 0.0347365
3 14 100 14 0.0347361
4 14 100 14 0.0347409
5 14 100 14 0.034769
6 14 100 14 0.104259
7 14 100 14 0.138939
8 14 100 14 0.0699108
9 14 100 14 0.0689716
10 14 100 14 0.104214
11 14 100 14 0.0989257
12 14 100 14 0.034738
13 14 100 14 0.137433
14 14 100 14 0.0688904
4 15 100 14 0.00190632
5 15 100 14 4.51692e-07
6 15 100 14 0.095489
7 15 100 14 0.04275
8 15 100 14 0.128193
9 15 100 14 0.171261
10 15 100 14 0.0891938
11 15 100 14 0.166698
12 15 100 14 0.177439
13 15 100 14 0.085495
14 15 100 14 0.0415745
1 16 100 14 0.000100255
2 16 100 14 2.21203e-05
3 16 100 14 0.000155709
4 16 100 14 0.0383704
5 16 100 14 0.0400517
6 16 100 14 0.0706628
7 16 100 14 0.0826046
8 16 100 14 0.181096
9 16 100 14 0.206387
10 16 100 14 0.133797
11 16 100 14 0.0300583
12 16 100 14 0.0728465
13 16 100 14 0.141056
14 16 100 14 0.00279203
2 17 100 14 0.000170377
3 17 100 14 2.42315e-06
4 17 100 14 0.00111374
5 17 100 14 0.0443477
6 17 100 14 0.0591628
7 17 100 14 0.122325
8 17 100 14 0.191446
9 17 100 14 0.0988966
10 17 100 14 0.118173
11 17 100 14 0.0731546
12 17 100 14 0.0892524
13 17 100 14 0.044044
14 17 100 14 0.157911
1 18 100 14 0.0358366
2 18 100 14 0.0348662
3 18 100 14 0.0555532
4 18 100 14 0.000374233
5 18 100 14 0.0518328
6 18 100 14 0.0248293
7 18 100 14 0.0532199
8 18 100 14 0.000303672
9 18 100 14 0.00104192
10 18 100 14 0.169733
11 18 100 14 0.126533
12 18 100 14 0.211133
13 18 100 14 0.234013
14 18 100 14 0.000729623
1 19 100 14 9.97358e-06
2 19 100 14 1.81696e-07
4 19 100 14 0.000116459
5 19 100 14 0.0008213
6 19 100 14 0.0635981
7 19 100 14 0.0716235
8 19 100 14 0.0851867
9 19 100 14 0.0107982
10 19 100 14 0.129596
11 19 100 14 0.132239
12 19 100 14 0.126794
13 19 100 14 0.132364
14 19 100 14 0.246853
2 20 100 14 0.112863
3 20 100 14 0.112764
4 20 100 14 0.113207
5 20 100 14 0.00146395
6 20 100 14 0.000137766
7 20 100 14 0.00275288
8 20 100 14 0.00100403
9 20 100 14 0.00214358
10 20 100 14 0.122667
11 20 100 14 0.287583
12 20 100 14 0.116348
13 20 100 14 0.115187
14 20 100 14 0.0118785
5 21 100 14 0.0030696
6 21 100 14 0.125086
7 21 100 14 0.128827
8 21 100 14 0.126559
9 21 100 14 0.367162
10 21 100 14 0.247013
11 21 100 14 0.00178567
12 21 100 14 6.49565e-05
13 21 100 14 0.000222669
14 21 100 14 0.000211721
2 22 100 14 2.20893e-05
3 22 100 14 1.17016e-06
4 22 100 14 7.46491e-05
5 22 100 14 0.0113556
6 22 100 14 0.000334971
7 22 100 14 0.047028
8 22 100 14 0.0204504
9 22 100 14 0.2247
10 22 100 14 0.184064
11 22 100 14 0.138253
12 22 100 14 0.213578
13 22 100 14 0.160138
5 23 100 14 0.037234
6 23 100 14 7.26864e-06
7 23 100 14 6.83283e-06
8 23 100 14 3.94024e-05
10 23 100 14 0.000453921
11 23 100 14 0.147497
12 23 100 14 0.248673
13 23 100 14 0.389183
14 23 100 14 0.176906
2 24 100 14 1.35202e-07
4 24 100 14 2.08888e-06
5 24 100 14 0.000116079
6 24 100 14 2.75017e-06
7 24 100 14 1.32755e-05
8 24 100 14 0.128528
9 24 100 14 0.126292
10 24 100 14 0.157365
11 24 100 14 0.127193
12 24 100 14 0.178121
13 24 100 14 0.126648
14 24 100 14 0.155717
5 25 100 14 0.000130205
8 25 100 14 0.000127789
9 25 100 14 0.00125251
10 25 100 14 0.00188554
11 25 100 14 0.33143
12 25 100 14 0.333178
13 25 100 14 0.330812
14 25 100 14 0.00118403
2 26 100 14 2.58518e-06
4 26 100 14 3.20015e-06
5 26 100 14 8.5091e-06
6 26 100 14 4.12121e-07
7 26 100 14 2.35938e-06
8 26 100 14 1.08844e-06
9 26 100 14 6.90036e-06
10 26 100 14 0.00547186
11 26 100 14 0.329044
12 26 100 14 0.332051
13 26 100 14 0.333408
2 27 100 14 0.00135231
5 27 100 14 0.00716446
6 27 100 14 6.56259e-06
8 27 100 14 0.0885836
9 27 100 14 0.000340666
10 27 100 14 0.00114047
11 27 100 14 0.873278
12 27 100 14 0.0249996
14 27 100 14 0.00313386
1 28 100 14 0.0072281
10 28 100 14 8.54819e-05
14 28 100 14 0.992686
14 29 100 14 1
1 0 100 15 6.50448e-07
2 0 100 15 0.0466811
3 0 100 15 0.0433153
4 0 100 15 0.0469475
5 0 100 15 0.0401012
6 0 100 15 0.0554013
7 0 100 15 0.00522805
8 0 100 15 0.000112611
9 0 100 15 0.0895537
10 0 100 15 0.0442386
11 0 100 15 0.000105148
12 0 100 15 0.0435157
13 0 100 15 0.0446677
14 0 100 15 0.0046035
15 0 100 15 0.535528
1 1 100 15 0.49065
2 1 100 15 0.115935
3 1 100 15 0.0396018
4 1 100 15 0.0393625
5 1 100 15 0.000236612
6 1 100 15 0.000200466
7 1 100 15 0.0385265
8 1 100 15 0.0394001
9 1 100 15 0.039351
10 1 100 15 0.0394309
11 1 100 15 0.0393317
12 1 100 15 0.0393562
13 1 100 15 0.039356
14 1 100 15 0.0392614
1 2 100 15 0.234968
2 2 100 15 0.191242
3 2 100 15 7.88046e-05
4 2 100 15 6.28828e-06
5 2 100 15 5.63878e-05
6 2 100 15 4.39206e-06
7 2 100 15 3.00673e-05
11 2 100 15 0.191205
12 2 100 15 0.191205
13 2 100 15 0.191205
1 3 100 15 0.0100601
2 3 100 15 0.248437
3 3 100 15 0.184856
4 3 100 15 0.123529
5 3 100 15 0.123138
6 3 100 15 0.184947
7 3 100 15 0.0630563
8 3 100 15 0.0616717
9 3 100 15 1.72052e-05
10 3 100 15 6.00014e-05
11 3 100 15 4.74373e-05
12 3 100 15 9.00952e-06
13 3 100 15 9.39966e-06
14 3 100 15 0.000162961
1 4 100 15 0.110651
2 4 100 15 0.223364
3 4 100 15 0.332318
4 4 100 15 0.11077
5 4 100 15 0.219889
6 4 100 15 0.000275187
12 4 100 15 0.00261181
14 4 100 15 0.000119714
1 5 100 15 0.101037
2 5 100 15 0.1193
3 5 100 15 0.174902
4 5 100 15 0.30278
5 5 100 15 0.0012987
6 5 100 15 0.100735
7 5 100 15 1.38595e-06
10 5 100 15 3.03648e-06
11 5 100 15 2.06721e-05
12 5 100 15 3.26099e-06
13 5 100 15 0.101001
14 5 100 15 0.0989175
1 6 100 15 0.0202873
2 6 100 15 0.269321
3 6 100 15 0.171899
4 6 100 15 0.149367
5 6 100 15 0.389115
12 6 100 15 8.49094e-06
13 6 100 15 2.40147e-06
1 7 100 15 0.19102
2 7 100 15 0.284436
3 7 100 15 0.210257
4 7 100 15 0.0954915
5 7 100 15 0.0257275
6 7 100 15 0.192263
11 7 100 15 2.84051e-06
12 7 100 15 0.000801958
2 8 100 15 0.0707943
3 8 100 15 0.144744
4 8 100 15 0.219635
5 8 100 15 0.0935896
6 8 100 15 0.137285
7 8 100 15 0.150124
8 8 100 15 0.150136
11 8 100 15 1.1916e-06
14 8 100 15 0.0336917
1 9 100 15 0.139938
2 9 100 15 0.141084
3 9 100 15 0.139082
5 9 100 15 0.416236
6 9 100 15 0.163274
9 9 100 15 8.99518e-05
14 9 100 15 0.000295889
3 10 100 15 0.121099
4 10 100 15 0.119329
5 10 100 15 0.241776
6 10 100 15 0.370735
7 10 100 15 0.12057
8 10 100 15 0.000329287
9 10 100 15 4.32364e-05
12 10 100 15 6.04534e-06
13 10 100 15 1.27421e-05
15 10 100 15 0.0261
1 11 100 15 0.000362637
3 11 100 15 0.0493945
4 11 100 15 0.0982119
5 11 100 15 0.110602
6 11 100 15 0.00245002
7 11 100 15 0.222863
8 11 100 15 0.0980773
9 11 100 15 0.145772
10 11 100 15 0.0982061
11 11 100 15 0.0486128
12 11 100 15 0.0492586
13 11 100 15 0.0491059
14 11 100 15 0.0270836
2 12 100 15 5.229e-05
3 12 100 15 6.58226e-05
4 12 100 15 0.00234308
5 12 100 15 0.106585
6 12 100 15 0.240496
7 12 100 15 0.169599
10 12 100 15 0.240189
11 12 100 15 0.240659
14 12 100 15 1.01978e-05
2 13 100 15 0.00310521
3 13 100 15 0.0719026
4 13 100 15 0.0719025
5 13 100 15 9.17547e-05
6 13 100 15 0.216802
7 13 100 15 0.275806
8 13 100 15 0.144077
9 13 100 15 0.0719034
10 13 100 15 0.0718595
11 13 100 15 0.000146162
12 13 100 15 0.000502305
14 13 100 15 0.0719019
3 14 100 15 6.59465e-06
7 14 100 15 0.0381064
8 14 100 15 0.77175
9 14 100 15 0.00384082
15 14 100 15 0.186296
5 15 100 15 4.37398e-05
7 15 100 15 0.161645
8 15 100 15 0.131649
9 15 100 15 0.179998
10 15 100 15 7.27186e-05
11 15 100 15 0.131649
12 15 100 15 0.131651
13 15 100 15 0.131649
14 15 100 15 0.131641
4 16 100 15 0.0541205
5 16 100 15 0.0551131
6 16 100 15 0.0887809
7 16 100 15 0.0369507
8 16 100 15 0.165119
9 16 100 15 0.221285
10 16 100 15 0.220337
11 16 100 15 0.110203
12 16 100 15 0.00203063
15 16 100 15 0.0460589
1 17 100 15 5.15564e-05
2 17 100 15 6.6603e-05
3 17 100 15 2.46111e-05
4 17 100 15 0.108188
5 17 100 15 0.0817745
6 17 100 15 0.00140615
7 17 100 15 0.09291
8 17 100 15 0.0992884
9 17 100 15 0.268253
10 17 100 15 0.178271
11 17 100 15 0.167808
12 17 100 15 0.00161205
13 17 100 15 4.06975e-05
14 17 100 15 0.000305253
2 18 100 15 2.33297e-06
3 18 100 15 0.000536287
4 18 100 15 3.00496e-06
5 18 100 15 0.000791308
6 18 100 15 0.000192461
7 18 100 15 0.00220276
8 18 100 15 0.269758
9 18 100 15 0.281232
10 18 100 15 0.43286
11 18 100 15 0.00904087
12 18 100 15 0.00306683
13 18 100 15 1.76083e-05
14 18 100 15 0.000296822
1 19 100 15 0.0479426
2 19 100 15 0.051342
3 19 100 15 0.0492239
4 19 100 15 0.0503218
5 19 100 15 0.0459809
6 19 100 15 6.18501e-05
7 19 100 15 1.86851e-05
8 19 100 15 1.19719e-06
9 19 100 15 1.48409e-05
10 19 100 15 0.000122317
11 19 100 15 0.10268
12 19 100 15 0.214844
13 19 100 15 0.194627
14 19 100 15 0.242819
2 20 100 15 4.5581e-06
3 20 100 15 0.00206415
4 20 100 15 2.86023e-06
5 20 100 15 0.000617103
6 20 100 15 0.0193135
7 20 100 15 0.000368884
8 20 100 15 2.87894e-06
9 20 100 15 0.00076178
10 20 100 15 0.0929581
11 20 100 15 0.289721
12 20 100 15 0.243435
13 20 100 15 0.225529
14 20 100 15 0.000353147
15 20 100 15 0.124867
3 21 100 15 0.000222278
4 21 100 15 0.000139944
5 21 100 15 3.96222e-05
6 21 100 15 0.00342829
7 21 100 15 2.85452e-05
8 21 100 15 8.17002e-05
9 21 100 15 0.377303
10 21 100 15 0.00196274
11 21 100 15 0.013714
12 21 100 15 0.000207147
13 21 100 15 0.000380828
14 21 100 15 0.602492
1 22 100 15 3.01283e-06
2 22 100 15 1.44816e-05
3 22 100 15 0.000176538
4 22 100 15 2.85438e-05
5 22 100 15 2.47375e-07
7 22 100 15 0.04054
8 22 100 15 0.0393938
9 22 100 15 0.0680826
10 22 100 15 0.155034
11 22 100 15 0.143987
12 22 100 15 0.187323
13 22 100 15 0.192587
14 22 100 15 0.156418
15 22 100 15 0.0164106
3 23 100 15 0.000284175
5 23 100 15 7.49671e-06
6 23 100 15 3.03619e-05
7 23 100 15 0.121234
8 23 100 15 0.122648
9 23 100 15 0.12587
10 23 100 15 9.0627e-06
11 23 100 15 0.121484
12 23 100 15 0.245683
13 23 100 15 0.121216
14 23 100 15 0.140231
15 23 100 15 0.00130281
2 24 100 15 0.000369629
3 24 100 15 0.000784248
4 24 100 15 7.0063e-05
6 24 100 15 0.000429665
7 24 100 15 4.35552e-05
9 24 100 15 0.0243979
11 24 100 15 0.967412
12 24 100 15 0.000315559
13 24 100 15 4.96786e-06
14 24 100 15 0.0011932
15 24 100 15 0.00497918
1 25 100 15 9.38005e-06
3 25 100 15 3.50516e-06
4 25 100 15 2.30741e-05
5 25 100 15 4.51545e-06
6 25 100 15 1.85128e-07
7 25 100 15 2.17578e-05
8 25 100 15 2.63923e-07
9 25 100 15 6.67572e-05
10 25 100 15 5.74125e-05
11 25 100 15 0.165762
12 25 100 15 0.167202
13 25 100 15 0.328979
14 25 100 15 0.337824
15 25 100 15 4.69334e-05
4 26 100 15 1.24674e-05
5 26 100 15 0.000127752
6 26 100 15 3.56464e-06
7 26 100 15 0.000507554
8 26 100 15 1.24583e-06
9 26 100 15 0.00090497
10 26 100 15 1.98089e-05
13 26 100 15 6.12303e-05
14 26 100 15 0.348643
15 26 100 15 0.649719
4 27 100 15 8.1195e-07
7 27 100 15 6.34307e-06
8 27 100 15 1.04396e-06
9 27 100 15 0.00683028
13 27 100 15 0.0193146
15 27 100 15 0.973847
4 28 100 15 1.70132e-06
6 28 100 15 2.26581e-05
9 28 100 15 0.000412825
10 28 100 15 0.206804
11 28 100 15 0.199668
12 28 100 15 0.206841
13 28 100 15 0.206841
14 28 100 15 0.178686
15 28 100 15 0.000723839
15 29 100 15 1
2 0 100 16 0.0676869
3 0 100 16 0.0503593
4 0 100 16 0.0878372
5 0 100 16 0.00100615
6 0 100 16 0.083195
7 0 100 16 0.00030857
8 0 100 16 0.0508236
9 0 100 16 0.00535298
10 0 100 16 0.0504148
11 0 100 16 0.0347092
12 0 100 16 0.051678
13 0 100 16 0.0527366
15 0 100 16 0.00725353
16 0 100 16 0.456638
1 1 100 16 0.460162
2 1 100 16 0.132794
3 1 100 16 0.0783833
4 1 100 16 9.09621e-05
5 1 100 16 0.0657125
6 1 100 16 0.0657135
7 1 100 16 0.0657133
9 1 100 16 0.0657125
10 1 100 16 0.0657125
14 1 100 16 5.59184e-06
1 2 100 16 0.262652
3 2 100 16 0.457742
4 2 100 16 0.253267
6 2 100 16 0.0261066
8 2 100 16 3.71834e-05
10 2 100 16 0.000167508
14 2 100 16 2.84055e-05
1 3 100 16 0.0830963
2 3 100 16 0.168984
3 3 100 16 0.249186
4 3 100 16 0.0830963
6 3 100 16 2.23186e-05
7 3 100 16 0.0830963
8 3 100 16 0.0830963
9 3 100 16 0.0831003
10 3 100 16 0.0830963
11 3 100 16 0.0830963
13 3 100 16 0.000129977
1 4 100 16 0.212091
2 4 100 16 0.226516
3 4 100 16 0.213572
4 4 100 16 0.213205
6 4 100 16 0.0191426
8 4 100 16 3.94108e-05
9 4 100 16 9.74084e-06
10 4 100 16 9.18316e-06
11 4 100 16 0.115401
13 4 100 16 4.44623e-06
14 4 100 16 8.05254e-06
1 5 100 16 0.292962
2 5 100 16 0.545641
4 5 100 16 5.80979e-05
5 5 100 16 0.155409
6 5 100 16 0.00579634
8 5 100 16 0.000113034
9 5 100 16 7.29676e-06
10 5 100 16 3.2255e-06
12 5 100 16 5.54042e-06
14 5 100 16 4.16127e-06
2 6 100 16 0.0012118
3 6 100 16 0.132401
4 6 100 16 0.150713
5 6 100 16 0.0882844
6 6 100 16 0.0882774
7 6 100 16 0.0441504
8 6 100 16 0.0441422
10 6 100 16 0.0988355
12 6 100 16 0.0883282
13 6 100 16 0.087092
14 6 100 16 0.0882782
15 6 100 16 0.0882863
3 7 100 16 0.000730096
4 7 100 16 0.410571
5 7 100 16 0.572527
6 7 100 16 8.83243e-06
9 7 100 16 4.22536e-06
10 7 100 16 0.0161551
12 7 100 16 3.26851e-06
1 8 100 16 0.0500401
2 8 100 16 0.0500402
3 8 100 16 0.0500402
4 8 100 16 0.0500409
5 8 100 16 0.15061
6 8 100 16 0.166609
7 8 100 16 0.100087
8 8 100 16 0.100045
9 8 100 16 0.0500396
10 8 100 16 0.0823444
11 8 100 16 0.0500238
12 8 100 16 0.0500402
14 8 100 16 0.0500398
5 9 100 16 0.162218
6 9 100 16 0.328509
7 9 100 16 0.324372
8 9 100 16 0.162219
15 9 100 16 0.0226819
3 10 100 16 6.09218e-05
4 10 100 16 0.106637
5 10 100 16 0.106615
6 10 100 16 0.106892
7 10 100 16 0.213263
8 10 100 16 0.213251
9 10 100 16 0.253265
12 10 100 16 2.49634e-06
13 10 100 16 1.33632e-05
2 11 100 16 0.119648
3 11 100 16 0.119042
6 11 100 16 0.210057
7 11 100 16 0.358973
8 11 100 16 0.119647
9 11 100 16 0.0175121
11 11 100 16 0.0549542
12 11 100 16 0.000160408
15 11 100 16 6.31026e-06
5 12 100 16 2.19377e-05
6 12 100 16 0.00119864
7 12 100 16 9.05347e-05
8 12 100 16 0.208417
9 12 100 16 0.434917
10 12 100 16 0.233969
11 12 100 16 0.0507123
13 12 100 16 0.00012012
16 12 100 16 0.0705527
1 13 100 16 0.432838
2 13 100 16 0.000110308
4 13 100 16 0.000125512
6 13 100 16 0.432788
8 13 100 16 0.13389
9 13 100 16 0.000248466
2 14 100 16 3.39006e-05
4 14 100 16 0.00947201
5 14 100 16 1.76512e-05
7 14 100 16 0.217954
8 14 100 16 0.302004
9 14 100 16 0.360837
11 14 100 16 0.000296063
12 14 100 16 0.109386
4 15 100 16 0.0288969
5 15 100 16 0.0890807
6 15 100 16 0.115353
8 15 100 16 0.0038108
9 15 100 16 0.122539
10 15 100 16 0.115349
11 15 100 16 0.264809
12 15 100 16 0.115171
13 15 100 16 0.113509
14 15 100 16 0.0314822
2 16 100 16 0.0731622
3 16 100 16 0.0731625
7 16 100 16 0.0731683
8 16 100 16 0.0731625
9 16 100 16 0.146325
10 16 100 16 0.145246
11 16 100 16 0.0731624
12 16 100 16 0.0736855
13 16 100 16 0.0731625
14 16 100 16 0.0731622
15 16 100 16 0.122602
9 17 100 16 0.0186505
11 17 100 16 0.347659
12 17 100 16 0.251425
13 17 100 16 0.127879
14 17 100 16 0.125614
15 17 100 16 0.128773
1 18 100 16 0.132265
2 18 100 16 0.144937
3 18 100 16 0.0728077
4 18 100 16 0.0063478
5 18 100 16 0.00232142
6 18 100 16 8.16965e-06
7 18 100 16 7.53066e-06
8 18 100 16 0.070426
9 18 100 16 3.55687e-05
10 18 100 16 0.0300894
11 18 100 16 0.00141556
12 18 100 16 0.13929
13 18 100 16 0.0729729
14 18 100 16 0.138389
15 18 100 16 0.144311
16 18 100 16 0.0443768
1 19 100 16 3.42171e-07
2 19 100 16 3.97302e-05
3 19 100 16 8.67045e-05
4 19 100 16 0.172451
5 19 100 16 9.10571e-05
6 19 100 16 2.55734e-06
7 19 100 16 0.000599534
8 19 100 16 0.00013406
9 19 100 16 0.000151
10 19 100 16 0.25303
11 19 100 16 0.172398
12 19 100 16 0.258111
13 19 100 16 0.00460604
14 19 100 16 8.92959e-06
15 19 100 16 0.000897684
16 19 100 16 0.137393
2 20 100 16 7.36698e-05
5 20 100 16 8.14746e-06
6 20 100 16 2.59821e-05
7 20 100 16 5.35755e-07
8 20 100 16 0.0056196
9 20 100 16 0.359523
10 20 100 16 2.77846e-05
11 20 100 16 0.00311625
12 20 100 16 3.5891e-05
13 20 100 16 0.350184
14 20 100 16 0.000313327
16 20 100 16 0.281071
2 21 100 16 0.000195802
3 21 100 16 1.25425e-06
4 21 100 16 1.64144e-05
5 21 100 16 0.0872439
8 21 100 16 5.28225e-05
9 21 100 16 0.00246183
10 21 100 16 0.0873782
11 21 100 16 0.168348
12 21 100 16 0.0896524
13 21 100 16 0.266251
14 21 100 16 0.256251
15 21 100 16 0.0414216
16 21 100 16 0.000725346
2 22 100 16 2.05204e-05
6 22 100 16 0.000321678
7 22 100 16 9.11687e-05
8 22 100 16 1.51417e-05
9 22 100 16 0.000191856
10 22 100 16 0.0973371
11 22 100 16 0.0990309
12 22 100 16 0.107385
13 22 100 16 0.197319
14 22 100 16 0.205306
15 22 100 16 0.292982
2 23 100 16 1.5614e-05
3 23 100 16 4.10987e-05
6 23 100 16 1.72339e-05
9 23 100 16 2.18864e-06
10 23 100 16 0.0618037
11 23 100 16 0.105888
12 23 100 16 0.106094
13 23 100 16 0.186596
14 23 100 16 0.217279
15 23 100 16 0.268087
16 23 100 16 0.0541766
6 24 100 16 0.000121408
8 24 100 16 0.000611155
9 24 100 16 5.85267e-05
13 24 100 16 0.00117325
14 24 100 16 0.000322512
15 24 100 16 0.980404
16 24 100 16 0.0173096
2 25 100 16 0.000170091
3 25 100 16 2.99445e-05
14 25 100 16 0.538085
16 25 100 16 0.461715
2 26 100 16 0.000105656
3 26 100 16 0.000174753
12 26 100 16 2.70478e-05
13 26 100 16 0.00120714
14 26 100 16 8.26346e-05
15 26 100 16 0.998403
16 27 100 16 1
1 0 100 17 4.61139e-07
2 0 100 17 0.0693882
3 0 100 17 0.0405517
4 0 100 17 0.059614
5 0 100 17 0.0160307
6 0 100 17 0.00042489
7 0 100 17 0.0302716
8 0 100 17 0.0581473
9 0 100 17 0.00748937
10 0 100 17 0.0558703
11 0 100 17 0.00151414
12 0 100 17 0.0543242
13 0 100 17 0.00131581
14 0 100 17 0.041244
15 0 100 17 0.0876432
16 0 100 17 5.30937e-07
17 0 100 17 0.47617
1 1 100 17 0.598406
2 1 100 17 0.236408
3 1 100 17 0.125054
4 1 100 17 0.0401174
6 1 100 17 5.27416e-06
8 1 100 17 8.87743e-06
14 1 100 17 6.22482e-07
1 2 100 17 0.14309
2 2 100 17 0.271872
3 2 100 17 0.307486
4 2 100 17 0.276529
5 2 100 17 0.000700638
8 2 100 17 0.000284706
10 2 100 17 7.95925e-06
12 2 100 17 2.94134e-05
1 3 100 17 1.75822e-05
2 3 100 17 0.0809809
3 3 100 17 0.124789
4 3 100 17 0.183336
5 3 100 17 0.12218
6 3 100 17 0.12218
7 3 100 17 0.0610629
8 3 100 17 0.0610902
10 3 100 17 0.0610902
11 3 100 17 0.0610902
13 3 100 17 0.0610911
14 3 100 17 0.0610902
1 4 100 17 0.0512462
2 4 100 17 0.418998
3 4 100 17 7.6725e-05
4 4 100 17 0.00383684
5 4 100 17 0.494276
9 4 100 17 2.61405e-05
11 4 100 17 1.79623e-05
12 4 100 17 0.001489
16 4 100 17 0.0300333
1 5 100 17 0.150405
2 5 100 17 0.527054
3 5 100 17 0.303491
4 5 100 17 0.000363962
5 5 100 17 0.00481594
7 5 100 17 0.00657075
8 5 100 17 4.35872e-06
12 5 100 17 0.0072715
13 5 100 17 2.40254e-05
2 6 100 17 0.0379858
3 6 100 17 0.417016
4 6 100 17 0.218087
5 6 100 17 0.326427
6 6 100 17 1.43794e-05
7 6 100 17 2.70999e-06
8 6 100 17 1.88724e-05
9 6 100 17 0.000291893
10 6 100 17 0.000154299
13 6 100 17 2.43053e-06
1 7 100 17 0.0381438
2 7 100 17 0.0431809
3 7 100 17 0.131929
4 7 100 17 0.187348
5 7 100 17 0.214881
6 7 100 17 0.0869026
7 7 100 17 0.0837313
8 7 100 17 0.0429763
9 7 100 17 0.0849521
10 7 100 17 2.40588e-06
15 7 100 17 0.0429763
16 7 100 17 0.0429763
4 8 100 17 0.137983
5 8 100 17 0.119261
6 8 100 17 0.249235
7 8 100 17 0.115085
8 8 100 17 0.230078
10 8 100 17 2.47574e-06
14 8 100 17 0.0705301
17 8 100 17 0.0778261
4 9 100 17 0.0761107
5 9 100 17 0.00107518
6 9 100 17 0.0761093
7 9 100 17 0.15507
8 9 100 17 0.0761093
9 9 100 17 0.0831903
12 9 100 17 0.0761093
13 9 100 17 0.0759177
14 9 100 17 0.0761093
15 9 100 17 0.15198
16 9 100 17 0.152219
4 10 100 17 0.0491284
5 10 100 17 0.470607
6 10 100 17 0.241895
7 10 100 17 0.000726808
8 10 100 17 0.118778
9 10 100 17 5.19622e-05
10 10 100 17 0.118783
11 10 100 17 2.37138e-05
12 10 100 17 1.1898e-06
14 10 100 17 5.58213e-06
1 11 100 17 0.0531104
2 11 100 17 0.0531202
3 11 100 17 0.0531103
4 11 100 17 0.0531105
5 11 100 17 0.108855
6 11 100 17 0.254526
7 11 100 17 0.158361
8 11 100 17 0.0533317
9 11 100 17 0.0531104
10 11 100 17 3.12652e-05
11 11 100 17 0.106221
12 11 100 17 0.0531124
2 12 100 17 7.2504e-05
3 12 100 17 4.13874e-06
5 12 100 17 0.00018678
6 12 100 17 0.301762
7 12 100 17 0.493289
8 12 100 17 0.174098
9 12 100 17 0.0242447
10 12 100 17 2.49918e-06
11 12 100 17 3.08502e-05
13 12 100 17 0.00610531
14 12 100 17 0.000203912
3 13 100 17 0.0767314
4 13 100 17 0.0858041
5 13 100 17 1.93931e-05
6 13 100 17 2.28896e-05
7 13 100 17 0.00798912
8 13 100 17 0.00920886
9 13 100 17 0.301916
10 13 100 17 0.180137
11 13 100 17 0.0880436
12 13 100 17 0.0858476
13 13 100 17 0.0825858
14 13 100 17 0.0816936
3 14 100 17 0.00966186
5 14 100 17 0.0897761
6 14 100 17 0.104929
7 14 100 17 0.0762404
8 14 100 17 0.0818977
10 14 100 17 0.0908406
11 14 100 17 0.091288
13 14 100 17 0.0874579
14 14 100 17 0.185335
15 14 100 17 0.0912826
16 14 100 17 0.0912908
3 15 100 17 1.99289e-06
4 15 100 17 3.33977e-06
6 15 100 17 1.43484e-06
7 15 100 17 0.308239
8 15 100 17 0.145253
9 15 100 17 0.151308
10 15 100 17 0.123653
11 15 100 17 0.136357
12 15 100 17 0.135175
13 15 100 17 7.05994e-06
4 16 100 17 3.86242e-05
7 16 100 17 0.00863512
8 16 100 17 6.01419e-05
9 16 100 17 1.22499e-05
10 16 100 17 0.160391
11 16 100 17 0.166172
12 16 100 17 0.0831266
13 16 100 17 0.166253
14 16 100 17 0.083167
15 16 100 17 0.165899
16 16 100 17 0.166246
2 17 100 17 0.000101985
4 17 100 17 0.000269124
7 17 100 17 0.182386
8 17 100 17 0.30164
9 17 100 17 0.203704
10 17 100 17 0.210063
13 17 100 17 2.72475e-05
14 17 100 17 0.101289
17 17 100 17 0.000520118
5 18 100 17 5.13781e-06
7 18 100 17 1.16513e-05
8 18 100 17 0.0663751
9 18 100 17 0.211343
10 18 100 17 0.145735
11 18 100 17 0.13914
12 18 100 17 0.0729791
13 18 100 17 0.218507
14 18 100 17 9.46683e-07
15 18 100 17 0.0728883
16 18 100 17 0.0730144
2 19 100 17 4.70774e-07
4 19 100 17 2.75741e-05
5 19 100 17 0.0033036
6 19 100 17 0.0586022
7 19 100 17 0.00326974
8 19 100 17 0.058481
9 19 100 17 0.0596649
10 19 100 17 0.149325
11 19 100 17 0.180453
12 19 100 17 0.216822
13 19 100 17 0.091084
14 19 100 17 0.0591803
15 19 100 17 0.0599136
16 19 100 17 0.0598729
2 20 100 17 1.29747e-05
3 20 100 17 3.36552e-06
4 20 100 17 1.5151e-06
5 20 100 17 7.32852e-05
6 20 100 17 6.88515e-06
7 20 100 17 0.0869156
8 20 100 17 0.186801
9 20 100 17 0.185306
10 20 100 17 0.0970532
11 20 100 17 0.00782839
12 20 100 17 0.0568939
13 20 100 17 0.10202
14 20 100 17 0.0899418
15 20 100 17 0.0931656
16 20 100 17 0.093898
17 20 100 17 7.85442e-05
3 21 100 17 3.12465e-06
5 21 100 17 0.000143235
6 21 100 17 1.02438e-05
7 21 100 17 0.000958491
8 21 100 17 1.90559e-05
9 21 100 17 6.43304e-05
10 21 100 17 0.0319679
11 21 100 17 0.262138
12 21 100 17 0.200475
13 21 100 17 0.0991372
14 21 100 17 0.104656
15 21 100 17 0.115493
16 21 100 17 0.16853
17 21 100 17 0.016405
2 22 100 17 3.34983e-05
3 22 100 17 1.10251e-05
4 22 100 17 0.00601994
5 22 100 17 0.000157379
6 22 100 17 9.61032e-05
7 22 100 17 0.000330665
8 22 100 17 0.000873717
9 22 100 17 1.15532e-05
10 22 100 17 0.0609099
11 22 100 17 0.00132513
12 22 100 17 0.00318935
13 22 100 17 0.000262971
14 22 100 17 0.0900092
15 22 100 17 0.00379159
16 22 100 17 0.00148162
17 22 100 17 0.831496
2 23 100 17 7.23523e-07
4 23 100 17 3.73662e-05
6 23 100 17 3.62165e-06
7 23 100 17 9.64711e-05
8 23 100 17 6.81808e-06
9 23 100 17 0.000129308
10 23 100 17 0.038268
11 23 100 17 0.0660594
12 23 100 17 0.211905
13 23 100 17 0.207772
14 23 100 17 0.213044
15 23 100 17 0.000197479
16 23 100 17 0.262365
17 23 100 17 0.000114886
4 24 100 17 1.23422e-05
5 24 100 17 0.00493015
7 24 100 17 1.71914e-05
8 24 100 17 1.0298e-05
10 24 100 17 0.000414261
11 24 100 17 0.00423023
12 24 100 17 0.370137
13 24 100 17 0.576026
14 24 100 17 0.0411354
15 24 100 17 4.98994e-05
17 24 100 17 0.00303766
2 25 100 17 0.000214258
4 25 100 17 0.1002
5 25 100 17 0.123679
6 25 100 17 5.24602e-05
7 25 100 17 1.38749e-05
8 25 100 17 0.000242838
9 25 100 17 1.81219e-06
10 25 100 17 8.90681e-05
11 25 100 17 0.00249226
12 25 100 17 5.18814e-05
13 25 100 17 0.00261794
15 25 100 17 2.4726e-05
16 25 100 17 0.77032
2 26 100 17 7.39122e-06
3 26 100 17 3.89866e-06
4 26 100 17 8.28904e-06
5 26 100 17 0.000474085
6 26 100 17 0.0316252
7 26 100 17 0.0136638
8 26 100 17 0.0138396
9 26 100 17 0.0689764
10 26 100 17 3.42543e-05
11 26 100 17 0.0353939
12 26 100 17 0.105477
13 26 100 17 0.136812
14 26 100 17 0.141889
15 26 100 17 0.208124
16 26 100 17 0.243671
2 27 100 17 0.102734
3 27 100 17 0.107797
4 27 100 17 0.107794
5 27 100 17 0.107797
6 27 100 17 0.107797
7 27 100 17 5.56054e-06
9 27 100 17 1.67932e-06
10 27 100 17 0.00828961
11 27 100 17 0.107768
12 27 100 17 1.63006e-05
13 27 100 17 0.000251918
14 27 100 17 0.179597
15 27 100 17 0.169787
16 27 100 17 3.32021e-07
17 27 100 17 0.00036423
4 28 100 17 4.57374e-06
5 28 100 17 0.000163719
7 28 100 17 2.85317e-05
9 28 100 17 0.102019
10 28 100 17 0.0263384
11 28 100 17 0.0962766
12 28 100 17 0.118407
13 28 100 17 0.0859825
14 28 100 17 0.222342
15 28 100 17 0.14407
16 28 100 17 0.204342
17 28 100 17 2.52617e-05
6 29 100 17 3.01456e-05
7 29 100 17 4.13003e-06
10 29 100 17 0.497582
11 29 100 17 0.00010987
12 29 100 17 0.00229002
13 29 100 17 0.497436
14 29 100 17 0.000922248
15 29 100 17 2.7593e-06
16 29 100 17 0.000217221
17 29 100 17 0.00140656
2 30 100 17 0.00259617
4 30 100 17 4.22031e-05
7 30 100 17 0.000676796
10 30 100 17 0.967309
12 30 100 17 0.00658095
13 30 100 17 0.0205327
15 30 100 17 0.000104774
16 30 100 17 0.00215771
3 31 100 17 0.0156588
7 31 100 17 0.00168863
11 31 100 17 0.0907608
12 31 100 17 0.000475179
15 31 100 17 0.875727
16 31 100 17 0.0156894
12 32 100 17 0.0263493
13 32 100 17 3.74563e-06
17 32 100 17 0.973647
3 33 100 17 0.0734761
7 33 100 17 0.915396
11 33 100 17 0.0110559
16 33 100 17 7.17756e-05
17 34 100 17 1
2 0 100 18 0.0735732
3 0 100 18 0.0360657
4 0 100 18 0.00505405
5 0 100 18 0.000259245
6 0 100 18 0.0341202
7 0 100 18 0.000566283
8 0 100 18 6.71039e-05
9 0 100 18 0.0466812
10 0 100 18 0.000282856
11 0 100 18 0.00815925
12 0 100 18 0.0433084
13 0 100 18 0.10388
14 0 100 18 0.00273079
15 0 100 18 0.0716217
16 0 100 18 0.000323611
17 0 100 18 4.51809e-05
18 0 100 18 0.573261
1 1 100 18 0.690456
2 1 100 18 0.259269
3 1 100 18 0.0502499
4 1 100 18 1.11951e-05
6 1 100 18 1.22918e-05
17 1 100 18 9.35577e-07
1 2 100 18 0.338661
2 2 100 18 0.368593
3 2 100 18 8.22718e-05
4 2 100 18 0.292517
6 2 100 18 3.0153e-05
13 2 100 18 7.5985e-05
15 2 100 18 4.00251e-05
2 3 100 18 0.162068
3 3 100 18 0.517169
4 3 100 18 0.160489
5 3 100 18 0.160264
13 3 100 18 6.86834e-06
14 3 100 18 2.63365e-06
1 4 100 18 0.0085155
2 4 100 18 0.233678
3 4 100 18 0.377233
4 4 100 18 0.299989
6 4 100 18 0.0800758
9 4 100 18 3.0552e-06
12 4 100 18 4.0473e-06
13 4 100 18 0.000501428
1 5 100 18 0.0711225
2 5 100 18 0.142254
3 5 100 18 0.142242
4 5 100 18 0.284342
5 5 100 18 0.153642
6 5 100 18 0.064146
7 5 100 18 7.39525e-07
8 5 100 18 9.77039e-06
14 5 100 18 7.51785e-07
16 5 100 18 0.0711196
17 5 100 18 0.0711225
2 6 100 18 0.0708128
3 6 100 18 0.207201
4 6 100 18 0.070567
5 6 100 18 0.356851
6 6 100 18 0.0840037
8 6 100 18 2.42047e-06
11 6 100 18 0.0705658
12 6 100 18 0.0706008
14 6 100 18 0.0693962
1 7 100 18 3.10144e-06
2 7 100 18 0.16328
3 7 100 18 0.323035
4 7 100 18 0.16328
5 7 100 18 0.0163502
6 7 100 18 0.00733066
7 7 100 18 0.16328
8 7 100 18 0.16328
9 7 100 18 4.92781e-05
12 7 100 18 1.59e-05
15 7 100 18 9.72348e-05
1 8 100 18 0.081651
3 8 100 18 0.0816491
4 8 100 18 0.420593
5 8 100 18 0.081646
6 8 100 18 0.170774
7 8 100 18 0.163302
11 8 100 18 1.096e-05
13 8 100 18 1.32119e-05
14 8 100 18 4.50901e-06
15 8 100 18 2.43916e-06
17 8 100 18 0.000354245
1 9 100 18 0.0609999
2 9 100 18 0.061
4 9 100 18 0.0409455
5 9 100 18 0.163197
6 9 100 18 0.243998
7 9 100 18 0.185755
8 9 100 18 0.121999
9 9 100 18 0.000100974
10 9 100 18 0.061
11 9 100 18 1.02237e-06
12 9 100 18 0.0609996
13 9 100 18 9.36734e-07
14 9 100 18 2.42704e-06
2 10 100 18 0.0797365
3 10 100 18 0.0797279
4 10 100 18 0.0801913
5 10 100 18 0.16049
6 10 100 18 0.0798915
7 10 100 18 0.158721
8 10 100 18 0.296495
9 10 100 18 0.0625665
11 10 100 18 0.00212201
13 10 100 18 1.83645e-05
15 10 100 18 3.86454e-05
3 11 100 18 1.08051e-05
4 11 100 18 2.0951e-05
5 11 100 18 0.23578
6 11 100 18 0.000268834
7 11 100 18 0.232855
8 11 100 18 0.297933
9 11 100 18 0.232854
11 11 100 18 7.36012e-05
12 11 100 18 0.000201094
13 11 100 18 2.65892e-06
4 12 100 18 0.0110199
6 12 100 18 0.120269
7 12 100 18 0.201026
8 12 100 18 0.134015
9 12 100 18 0.131142
10 12 100 18 0.134012
11 12 100 18 0.134497
12 12 100 18 0.13401
13 12 100 18 8.70805e-06
2 13 100 18 0.0823667
5 13 100 18 0.181587
6 13 100 18 0.281409
7 13 100 18 0.180697
8 13 100 18 0.180261
9 13 100 18 0.0897239
10 13 100 18 0.00373361
11 13 100 18 3.47799e-05
12 13 100 18 1.64544e-06
13 13 100 18 0.000182564
15 13 100 18 1.9508e-06
2 14 100 18 1.28429e-06
3 14 100 18 0.0504133
4 14 100 18 0.050413
5 14 100 18 0.0504196
6 14 100 18 0.0504065
7 14 100 18 0.0481368
8 14 100 18 0.100826
9 14 100 18 0.197868
10 14 100 18 0.199438
11 14 100 18 0.100811
15 14 100 18 0.0504419
16 14 100 18 0.0504132
17 14 100 18 0.0504114
2 15 100 18 1.31413e-06
3 15 100 18 1.71939e-06
6 15 100 18 0.104688
7 15 100 18 0.0475052
10 15 100 18 0.215532
11 15 100 18 0.322537
12 15 100 18 0.00112118
13 15 100 18 0.205623
14 15 100 18 0.102986
15 15 100 18 5.35355e-06
6 16 100 18 0.0138047
7 16 100 18 3.16909e-06
9 16 100 18 0.129395
11 16 100 18 5.57419e-05
12 16 100 18 0.339236
13 16 100 18 0.258715
14 16 100 18 0.258789
16 16 100 18 1.64969e-06
2 17 100 18 0.000104688
4 17 100 18 1.86595e-06
5 17 100 18 0.0503601
6 17 100 18 0.0523849
7 17 100 18 0.0523846
8 17 100 18 0.104836
9 17 100 18 0.209536
10 17 100 18 0.217795
11 17 100 18 0.104617
12 17 100 18 0.0592931
13 17 100 18 0.0520271
14 17 100 18 8.00511e-06
15 17 100 18 0.0523922
16 17 100 18 0.0442591
6 18 100 18 0.00197947
7 18 100 18 0.107432
8 18 100 18 0.0693281
9 18 100 18 0.0693599
10 18 100 18 0.0693575
11 18 100 18 0.0693433
12 18 100 18 0.267853
13 18 100 18 0.138745
14 18 100 18 0.133994
15 18 100 18 0.0726076
4 19 100 18 2.02647e-05
7 19 100 18 0.0480037
8 19 100 18 0.0960064
9 19 100 18 0.145362
10 19 100 18 0.176151
11 19 100 18 0.127194
12 19 100 18 0.101355
13 19 100 18 0.145237
14 19 100 18 0.0479628
15 19 100 18 0.0572588
16 19 100 18 0.00744605
17 19 100 18 0.0480032
1 20 100 18 1.32415e-06
3 20 100 18 2.8652e-05
4 20 100 18 1.77667e-05
5 20 100 18 1.27066e-06
6 20 100 18 1.25167e-07
7 20 100 18 1.55406e-06
8 20 100 18 0.000131308
9 20 100 18 3.01664e-06
10 20 100 18 0.00773284
11 20 100 18 0.0456433
12 20 100 18 0.0457502
13 20 100 18 0.0918498
14 20 100 18 0.181691
15 20 100 18 0.172227
16 20 100 18 0.227984
17 20 100 18 0.226937
2 21 100 18 1.09764e-06
4 21 100 18 0.000119491
5 21 100 18 5.20028e-06
7 21 100 18 2.40607e-06
8 21 100 18 6.91497e-05
9 21 100 18 3.43907e-05
10 21 100 18 0.000110535
11 21 100 18 0.149471
12 21 100 18 0.00541391
13 21 100 18 0.0496274
14 21 100 18 0.362205
15 21 100 18 0.185405
16 21 100 18 0.123351
17 21 100 18 0.123431
18 21 100 18 0.000754228
2 22 100 18 0.000108575
4 22 100 18 4.36664e-06
5 22 100 18 3.71854e-05
8 22 100 18 6.97419e-07
9 22 100 18 0.000545956
10 22 100 18 0.000421785
11 22 100 18 0.0528096
12 22 100 18 0.177772
13 22 100 18 0.220998
14 22 100 18 0.00191163
15 22 100 18 0.0148458
16 22 100 18 0.0361807
17 22 100 18 0.289381
18 22 100 18 0.204983
2 23 100 18 7.48542e-06
3 23 100 18 1.92116e-05
4 23 100 18 4.4357e-05
5 23 100 18 3.57834e-05
7 23 100 18 4.4575e-06
8 23 100 18 0.000215609
9 23 100 18 0.000653347
10 23 100 18 7.54385e-06
11 23 100 18 7.47988e-05
12 23 100 18 0.123575
13 23 100 18 0.138472
14 23 100 18 0.000837349
15 23 100 18 0.244766
16 23 100 18 0.245644
17 23 100 18 0.245643
2 24 100 18 9.50687e-06
4 24 100 18 1.1012e-05
5 24 100 18 0.00523352
6 24 100 18 9.24273e-06
10 24 100 18 2.91658e-05
11 24 100 18 0.000318074
12 24 100 18 0.0085174
13 24 100 18 0.0344949
14 24 100 18 0.228202
15 24 100 18 0.717956
16 24 100 18 0.00377771
18 24 100 18 0.00144158
2 25 100 18 0.000110905
3 25 100 18 5.17926e-06
5 25 100 18 1.82024e-06
7 25 100 18 3.39347e-05
9 25 100 18 0.000336989
11 25 100 18 0.000137864
12 25 100 18 6.22062e-06
13 25 100 18 0.23544
14 25 100 18 0.224809
15 25 100 18 0.00199221
16 25 100 18 0.41639
17 25 100 18 0.00852189
18 25 100 18 0.112214
2 26 100 18 4.98336e-06
3 26 100 18 1.23422e-05
4 26 100 18 2.92112e-06
5 26 100 18 0.00091069
6 26 100 18 3.26848e-06
8 26 100 18 9.2144e-06
9 26 100 18 2.49631e-06
10 26 100 18 8.28755e-06
11 26 100 18 0.0615455
12 26 100 18 0.0644844
13 26 100 18 6.67915e-06
14 26 100 18 5.76487e-06
15 26 100 18 0.21013
16 26 100 18 0.221007
17 26 100 18 0.412968
18 26 100 18 0.0288989
2 27 100 18 8.52987e-06
4 27 100 18 9.23662e-06
5 27 100 18 1.88099e-05
6 27 100 18 0.000919675
8 27 100 18 4.05553e-06
11 27 100 18 3.67762e-06
12 27 100 18 0.0278363
13 27 100 18 0.031899
14 27 100 18 0.932555
15 27 100 18 6.84297e-05
17 27 100 18 0.00115797
18 27 100 18 0.0055189
2 28 100 18 0.000344243
7 28 100 18 9.50893e-07
11 28 100 18 6.3856e-07
12 28 100 18 1.28704e-06
13 28 100 18 1.76255e-05
14 28 100 18 7.90891e-05
15 28 100 18 0.326297
16 28 100 18 0.346961
17 28 100 18 0.326297
2 29 100 18 2.35703e-06
4 29 100 18 5.13195e-05
8 29 100 18 0.0019662
11 29 100 18 8.92574e-05
14 29 100 18 0.0171787
16 29 100 18 2.63017e-05
17 29 100 18 0.978316
18 29 100 18 0.00237008
7 30 100 18 6.27892e-07
13 30 100 18 1.74498e-05
14 30 100 18 0.386859
15 30 100 18 0.0990855
16 30 100 18 0.318731
17 30 100 18 0.195204
18 30 100 18 0.000102687
11 31 100 18 5.50408e-06
15 31 100 18 0.997076
16 31 100 18 1.13529e-05
17 31 100 18 0.00212961
18 31 100 18 0.000777072
11 32 100 18 6.64913e-06
12 32 100 18 0.1949
14 32 100 18 0.000668631
15 32 100 18 0.0354477
16 32 100 18 0.000399092
18 32 100 18 0.768578
14 33 100 18 4.12443e-05
15 33 100 18 0.32253
16 33 100 18 0.338299
17 33 100 18 0.338433
18 33 100 18 0.000696073
2 34 100 18 4.06341e-05
11 34 100 18 0.000339326
15 34 100 18 0.422858
18 34 100 18 0.576762
7 35 100 18 6.17392e-05
13 35 100 18 6.97386e-05
15 35 100 18 0.999631
16 35 100 18 0.000237943
14 36 100 18 1
8 37 100 18 0.0724041
12 37 100 18 0.273699
14 37 100 18 0.653897
7 38 100 18 4.23584e-06
8 38 100 18 0.000607742
9 38 100 18 0.00262218
10 38 100 18 7.23173e-06
11 38 100 18 0.000904532
12 38 100 18 2.64915e-05
13 38 100 18 4.36444e-06
14 38 100 18 0.00612696
15 38 100 18 0.989477
16 38 100 18 0.000214019
17 38 100 18 5.31371e-06
7 39 100 18 7.41321e-07
11 39 100 18 0.000401738
12 39 100 18 0.092277
13 39 100 18 0.209277
14 39 100 18 0.209198
15 39 100 18 0.0702612
16 39 100 18 0.209387
17 39 100 18 0.209198
7 40 100 18 6.35078e-06
8 40 100 18 0.000365942
9 40 100 18 5.18495e-05
11 40 100 18 3.57167e-05
12 40 100 18 6.7672e-06
13 40 100 18 6.63889e-06
14 40 100 18 0.0106889
15 40 100 18 0.109179
16 40 100 18 0.0949561
17 40 100 18 0.784612
18 40 100 18 9.05808e-05
7 41 100 18 0.000964536
13 41 100 18 0.00140871
16 41 100 18 0.997627
16 42 100 18 0.49954
17 42 100 18 0.50046
7 43 100 18 0.0950192
13 43 100 18 0.0879447
16 43 100 18 0.817036
8 44 100 18 6.31015e-06
15 44 100 18 6.27152e-06
17 44 100 18 0.999987
16 45 100 18 0.179561
17 45 100 18 0.820439
16 46 100 18 1
17 47 100 18 1
8 48 100 18 0.000933121
9 48 100 18 0.229027
10 48 100 18 0.385069
11 48 100 18 0.384708
12 48 100 18 0.000249328
14 48 100 18 1.21158e-05
15 48 100 18 9.47276e-07
12 49 100 18 1
7 51 100 18 0.506427
8 51 100 18 7.76484e-05
12 51 100 18 0.00886258
13 51 100 18 0.388687
16 51 100 18 0.0959459
4 52 100 18 0.798654
7 52 100 18 0.00266059
13 52 100 18 0.0670882
16 52 100 18 0.131597
7 53 100 18 0.522094
13 53 100 18 0.395297
16 53 100 18 0.0820611
18 53 100 18 0.000548022
3 0 100 19 0.124247
6 0 100 19 0.00231356
7 0 100 19 0.000539596
8 0 100 19 0.000938435
9 0 100 19 0.106088
10 0 100 19 0.0063715
11 0 100 19 9.5644e-05
12 0 100 19 0.00101416
13 0 100 19 0.00616438
14 0 100 19 0.125429
15 0 100 19 4.51555e-05
16 0 100 19 0.000472248
17 0 100 19 0.000848743
18 0 100 19 0.00271639
19 0 100 19 0.622717
1 1 100 19 0.484628
2 1 100 19 0.255944
3 1 100 19 0.0978851
4 1 100 19 0.0807713
5 1 100 19 0.0807713
2 2 100 19 0.268717
4 2 100 19 0.243758
5 2 100 19 0.243758
6 2 100 19 0.243758
13 2 100 19 7.5081e-06
2 3 100 19 0.0627346
6 3 100 19 0.935651
7 3 100 19 0.00158526
14 3 100 19 2.96504e-05
1 4 100 19 0.133205
2 4 100 19 0.230249
3 4 100 19 0.370137
4 4 100 19 0.26641
2 5 100 19 0.318961
3 5 100 19 0.681021
5 5 100 19 5.81151e-06
12 5 100 19 1.22378e-05
2 6 100 19 2.71211e-05
4 6 100 19 0.950457
6 6 100 19 0.0495155
5 7 100 19 0.666746
6 7 100 19 0.333254
4 8 100 19 0.499938
5 8 100 19 0.49993
6 8 100 19 0.000125042
12 8 100 19 7.03223e-06
6 9 100 19 0.0406532
7 9 100 19 0.959174
9 9 100 19 0.000172883
3 10 100 19 0.00156983
4 10 100 19 0.166789
5 10 100 19 0.165719
6 10 100 19 0.166789
8 10 100 19 0.165529
9 10 100 19 0.166789
10 10 100 19 0.166789
14 10 100 19 2.42829e-05
5 11 100 19 0.101057
6 11 100 19 0.296962
7 11 100 19 0.202115
8 11 100 19 0.101057
9 11 100 19 0.202115
10 11 100 19 0.096348
13 11 100 19 7.05049e-05
16 11 100 19 0.000275509
7 12 100 19 0.351245
8 12 100 19 0.321505
9 12 100 19 0.167663
10 12 100 19 0.159514
11 12 100 19 3.12444e-06
14 12 100 19 5.92216e-05
17 12 100 19 1.03545e-05
9 13 100 19 0.00268327
11 13 100 19 0.997317
6 14 100 19 7.29386e-05
7 14 100 19 0.156712
9 14 100 19 8.96297e-05
10 14 100 19 0.00160642
11 14 100 19 1.64641e-05
12 14 100 19 0.840153
13 14 100 19 0.000135907
14 14 100 19 0.000639904
16 14 100 19 1.7611e-05
17 14 100 19 5.45625e-05
18 14 100 19 0.000501348
7 15 100 19 0.017747
9 15 100 19 1.01502e-05
10 15 100 19 7.6521e-05
12 15 100 19 3.18582e-06
13 15 100 19 0.31599
14 15 100 19 4.28029e-05
15 15 100 19 0.0332866
16 15 100 19 0.316419
17 15 100 19 0.316425
6 16 100 19 5.79284e-05
7 16 100 19 0.829414
9 16 100 19 0.164329
10 16 100 19 0.00127584
11 16 100 19 8.71378e-05
13 16 100 19 0.000107938
14 16 100 19 0.00439193
17 16 100 19 0.000288777
18 16 100 19 4.74952e-05
11 17 100 19 0.345448
12 17 100 19 0.345448
15 17 100 19 0.309099
18 17 100 19 5.89315e-06
10 18 100 19 0.499671
12 18 100 19 0.499646
13 18 100 19 0.000676475
18 18 100 19 6.04748e-06
5 19 100 19 0.000107858
7 19 100 19 0.00743231
9 19 100 19 4.25082e-06
10 19 100 19 4.34076e-06
11 19 100 19 0.248178
12 19 100 19 0.248178
13 19 100 19 0.24821
14 19 100 19 0.247879
16 19 100 19 2.83528e-06
17 19 100 19 2.58771e-06
7 20 100 19 0.106589
8 20 100 19 0.0839638
10 20 100 19 1.49084e-05
13 20 100 19 0.0683748
14 20 100 19 0.106588
15 20 100 19 0.212282
16 20 100 19 0.106142
17 20 100 19 0.106074
18 20 100 19 0.20997
8 21 100 19 5.88551e-05
9 21 100 19 0.0081152
12 21 100 19 8.22665e-06
13 21 100 19 0.163045
14 21 100 19 0.219268
15 21 100 19 0.179366
16 21 100 19 0.179366
17 21 100 19 0.179297
19 21 100 19 0.0714765
2 22 100 19 1.34105e-05
7 22 100 19 3.57908e-05
8 22 100 19 0.27448
9 22 100 19 0.089211
12 22 100 19 0.624045
14 22 100 19 0.0122001
15 22 100 19 1.40134e-05
6 23 100 19 8.59292e-05
7 23 100 19 0.0316059
9 23 100 19 0.236428
10 23 100 19 0.230692
11 23 100 19 0.302877
12 23 100 19 0.160374
13 23 100 19 0.0378206
14 23 100 19 8.28133e-07
15 23 100 19 2.01643e-05
16 23 100 19 7.86598e-05
17 23 100 19 1.68305e-05
5 24 100 19 2.86438e-07
6 24 100 19 0.000417178
7 24 100 19 0.00196631
8 24 100 19 0.271778
9 24 100 19 0.0003662
10 24 100 19 0.178199
11 24 100 19 0.162693
12 24 100 19 0.178007
13 24 100 19 0.206446
14 24 100 19 7.37042e-06
15 24 100 19 1.61552e-05
16 24 100 19 9.56651e-05
17 24 100 19 7.41639e-06
5 25 100 19 8.56119e-06
6 25 100 19 4.95576e-05
7 25 100 19 9.77197e-05
9 25 100 19 0.164633
10 25 100 19 0.00012935
11 25 100 19 3.95069e-06
12 25 100 19 7.39028e-05
13 25 100 19 0.0240611
14 25 100 19 0.284431
15 25 100 19 3.95069e-06
16 25 100 19 7.15487e-05
17 25 100 19 0.000209906
18 25 100 19 0.526227
1 26 100 19 1.65708e-05
2 26 100 19 4.38028e-06
3 26 100 19 1.50994e-06
4 26 100 19 1.76344e-06
5 26 100 19 2.02978e-06
6 26 100 19 0.0109345
7 26 100 19 0.00142563
8 26 100 19 0.000835252
9 26 100 19 0.0435927
10 26 100 19 0.000116515
11 26 100 19 0.000168987
12 26 100 19 0.0001007
13 26 100 19 0.932757
14 26 100 19 0.00969946
15 26 100 19 0.000185892
16 26 100 19 7.79062e-05
17 26 100 19 7.89974e-05
4 27 100 19 2.78044e-07
6 27 100 19 2.83155e-07
7 27 100 19 0.000160374
8 27 100 19 0.000393887
9 27 100 19 1.18811e-06
10 27 100 19 2.31194e-06
11 27 100 19 0.000614003
12 27 100 19 9.24257e-07
13 27 100 19 0.0021268
14 27 100 19 7.20385e-07
15 27 100 19 0.247214
16 27 100 19 0.248941
17 27 100 19 0.24595
18 27 100 19 0.254594
6 28 100 19 2.16858e-05
7 28 100 19 0.582615
8 28 100 19 1.43237e-06
9 28 100 19 0.393488
10 28 100 19 1.75443e-05
11 28 100 19 0.00299872
12 28 100 19 1.7942e-05
13 28 100 19 0.0117523
14 28 100 19 0.002536
15 28 100 19 0.00328035
16 28 100 19 0.000206762
17 28 100 19 0.00114047
19 28 100 19 0.00192396
3 29 100 19 1.28112e-07
5 29 100 19 0.000283632
6 29 100 19 4.86906e-05
7 29 100 19 0.00151299
8 29 100 19 0.0391398
9 29 100 19 0.009292
10 29 100 19 0.0767722
11 29 100 19 0.0428164
12 29 100 19 0.0662604
13 29 100 19 0.057629
14 29 100 19 0.158115
15 29 100 19 0.167626
16 29 100 19 0.160255
17 29 100 19 0.135231
18 29 100 19 0.0850171
4 30 100 19 1.51217e-06
6 30 100 19 0.000127588
7 30 100 19 0.0011056
8 30 100 19 0.00363235
9 30 100 19 0.000770838
10 30 100 19 0.0426008
11 30 100 19 0.041997
12 30 100 19 0.0420083
13 30 100 19 0.0441486
15 30 100 19 0.00573803
16 30 100 19 0.00111422
17 30 100 19 0.397218
18 30 100 19 0.41949
19 30 100 19 4.7613e-05
6 31 100 19 0.000128628
7 31 100 19 0.000812838
8 31 100 19 0.000330007
9 31 100 19 0.0122053
10 31 100 19 0.000144113
11 31 100 19 0.000182604
12 31 100 19 0.000122332
13 31 100 19 0.000215439
14 31 100 19 0.0711862
15 31 100 19 0.000184391
16 31 100 19 0.000270821
17 31 100 19 0.00402569
18 31 100 19 0.909641
19 31 100 19 0.000550265
7 32 100 19 3.5136e-05
9 32 100 19 7.90287e-06
11 32 100 19 7.90287e-06
13 32 100 19 7.90287e-06
15 32 100 19 7.90287e-06
16 32 100 19 0.507014
17 32 100 19 0.492914
18 32 100 19 5.12314e-06
6 33 100 19 0.00471487
7 33 100 19 0.02678
8 33 100 19 0.184215
9 33 100 19 0.0134451
10 33 100 19 0.170967
11 33 100 19 0.01608
12 33 100 19 0.144892
13 33 100 19 0.154688
14 33 100 19 0.0439102
15 33 100 19 0.0431949
16 33 100 19 0.157463
17 33 100 19 0.0396208
18 33 100 19 2.99383e-05
3 34 100 19 0.000298546
4 34 100 19 0.000136797
7 34 100 19 0.114155
9 34 100 19 0.0292531
11 34 100 19 0.0340435
13 34 100 19 0.039313
15 34 100 19 0.0884969
16 34 100 19 0.00369794
17 34 100 19 0.0738515
19 34 100 19 0.616754
7 35 100 19 0.00307218
13 35 100 19 0.996928
7 36 100 19 0.914967
18 36 100 19 0.085033
16 37 100 19 0.000800288
17 37 100 19 0.0238268
19 37 100 19 0.975373
13 38 100 19 0.554786
19 38 100 19 0.445214
9 0 100 20 0.0147897
12 0 100 20 0.492572
20 0 100 20 0.492638
1 1 100 20 1
1 2 100 20 1
1 3 100 20 1
1 4 100 20 0.539452
2 4 100 20 0.0861059
9 4 100 20 0.374442
1 5 100 20 0.00318545
2 5 100 20 0.996815
1 6 100 20 0.306015
12 6 100 20 0.693985
2 7 100 20 1
3 8 100 20 0.999036
4 8 100 20 0.000964158
4 9 100 20 1
4 10 100 20 1
4 11 100 20 1
4 12 100 20 1
4 13 100 20 0.899611
9 13 100 20 0.100389
4 14 100 20 1
4 15 100 20 2.5893e-05
5 15 100 20 0.49994
6 15 100 20 0.500034
9 16 100 20 1
5 17 100 20 1
9 18 100 20 1
9 19 100 20 0.145964
10 19 100 20 0.854036
12 20 100 20 1
11 21 100 20 1
12 22 100 20 1
2 23 100 20 0.00191115
3 23 100 20 0.00153285
9 23 100 20 0.955712
10 23 100 20 0.0408436
1 24 100 20 0.0522705
2 24 100 20 0.0498149
3 24 100 20 0.0511984
4 24 100 20 0.213259
5 24 100 20 0.0506475
6 24 100 20 0.0527343
7 24 100 20 0.264753
8 24 100 20 0.264751
10 24 100 20 2.72569e-05
11 24 100 20 0.000542652
13 24 100 20 1.70952e-06
2 25 100 20 0.000199323
8 25 100 20 3.0957e-05
9 25 100 20 0.636839
10 25 100 20 0.362931
2 26 100 20 0.82459
8 26 100 20 3.83674e-06
10 26 100 20 9.17776e-05
13 26 100 20 0.175315
2 27 100 20 0.00132174
3 27 100 20 0.00263337
4 27 100 20 0.00308424
7 27 100 20 0.000260412
8 27 100 20 0.00389315
10 27 100 20 0.0475311
11 27 100 20 0.940874
13 27 100 20 0.000155187
14 27 100 20 0.0002471
8 28 100 20 6.10173e-05
9 28 100 20 0.000610231
11 28 100 20 0.0620634
12 28 100 20 0.000153917
16 28 100 20 0.937111
11 29 100 20 0.00192133
12 29 100 20 0.998079
10 30 100 20 0.00349557
11 30 100 20 0.784413
12 30 100 20 0.2098
13 30 100 20 0.00229126
2 31 100 20 0.00067862
9 31 100 20 0.0241221
10 31 100 20 0.95123
12 31 100 20 0.016171
13 31 100 20 0.00779789
2 32 100 20 4.05642e-05
4 32 100 20 2.85169e-07
10 32 100 20 0.000173261
11 32 100 20 0.273987
12 32 100 20 0.000635398
13 32 100 20 0.165704
14 32 100 20 0.278218
15 32 100 20 0.276551
16 32 100 20 0.00468936
17 32 100 20 1.27521e-06
2 33 100 20 3.75289e-05
9 33 100 20 0.45123
10 33 100 20 0.520161
12 33 100 20 0.00024494
13 33 100 20 0.0283271
11 34 100 20 0.00791319
12 34 100 20 8.24426e-05
16 34 100 20 0.992004
2 35 100 20 0.0046913
9 35 100 20 0.0273055
10 35 100 20 0.684018
12 35 100 20 0.122106
13 35 100 20 0.156783
15 35 100 20 0.00509563
9 36 100 20 0.982821
10 36 100 20 0.0165587
12 36 100 20 0.000620604
11 37 100 20 3.04587e-05
13 37 100 20 7.16618e-07
14 37 100 20 1.74234e-06
15 37 100 20 0.00142634
16 37 100 20 0.232769
17 37 100 20 0.255462
18 37 100 20 0.255466
19 37 100 20 0.254844
9 38 100 20 0.110371
10 38 100 20 0.381556
12 38 100 20 0.508072
2 39 100 20 0.0139706
9 39 100 20 0.0725565
10 39 100 20 0.292321
12 39 100 20 0.00242202
13 39 100 20 0.61873
1 40 100 20 0.993341
2 40 100 20 2.61811e-05
3 40 100 20 1.40361e-05
4 40 100 20 1.14699e-05
11 40 100 20 0.000207841
13 40 100 20 4.27064e-05
14 40 100 20 3.50782e-06
15 40 100 20 0.000564427
16 40 100 20 0.00240428
17 40 100 20 3.56057e-05
18 40 100 20 2.15655e-05
19 40 100 20 0.00332723
9 41 100 20 0.815623
10 41 100 20 0.140531
20 41 100 20 0.0438454
2 0 100 21 0.0101985
3 0 100 21 0.0528209
4 0 100 21 0.00106514
5 0 100 21 5.10272e-06
6 0 100 21 4.79517e-06
7 0 100 21 0.000160854
8 0 100 21 0.027031
9 0 100 21 0.0115228
10 0 100 21 0.000801371
11 0 100 21 0.00126279
12 0 100 21 0.00897748
13 0 100 21 0.0415118
14 0 100 21 0.0524351
15 0 100 21 0.158988
16 0 100 21 0.00117286
17 0 100 21 0.0532122
18 0 100 21 0.0537198
19 0 100 21 0.0474311
20 0 100 21 0.00202339
21 0 100 21 0.475655
1 1 100 21 0.624676
2 1 100 21 0.250208
3 1 100 21 0.125069
4 1 100 21 4.66213e-05
1 2 100 21 0.00475875
2 2 100 21 0.640003
3 2 100 21 0.000360132
4 2 100 21 0.354878
1 3 100 21 0.141058
2 3 100 21 0.297263
3 3 100 21 0.27954
4 3 100 21 0.141057
10 3 100 21 0.141057
20 3 100 21 2.53924e-05
1 4 100 21 1.37764e-05
2 4 100 21 0.000704665
3 4 100 21 0.14277
4 4 100 21 0.142747
5 4 100 21 0.142749
11 4 100 21 0.142749
12 4 100 21 0.142749
13 4 100 21 0.14277
14 4 100 21 0.142749
1 5 100 21 0.16141
2 5 100 21 0.466363
3 5 100 21 0.323029
4 5 100 21 7.66266e-06
5 5 100 21 0.0487316
7 5 100 21 1.87414e-05
8 5 100 21 0.00039736
10 5 100 21 3.72123e-06
12 5 100 21 4.65688e-06
13 5 100 21 3.15038e-05
15 5 100 21 2.75309e-06
1 6 100 21 0.0625229
2 6 100 21 0.124989
3 6 100 21 0.250093
4 6 100 21 0.311977
5 6 100 21 0.125059
6 6 100 21 0.125046
7 6 100 21 6.9371e-06
10 6 100 21 0.000288652
12 6 100 21 1.51813e-05
13 6 100 21 7.31815e-07
15 6 100 21 1.8434e-06
17 6 100 21 6.90965e-07
4 7 100 21 0.00778352
5 7 100 21 0.992164
6 7 100 21 1.16205e-05
10 7 100 21 1.43115e-05
12 7 100 21 2.68314e-05
3 8 100 21 0.277405
5 8 100 21 0.18559
6 8 100 21 0.276849
7 8 100 21 0.259523
8 8 100 21 2.7635e-05
9 8 100 21 8.38256e-06
10 8 100 21 0.000597104
3 9 100 21 0.091534
4 9 100 21 0.264062
5 9 100 21 0.183054
6 9 100 21 0.182949
7 9 100 21 0.188673
8 9 100 21 0.0897191
9 9 100 21 6.74037e-06
17 9 100 21 1.3637e-06
3 10 100 21 1.18843e-05
4 10 100 21 0.158064
5 10 100 21 0.128804
6 10 100 21 0.152036
7 10 100 21 0.152027
8 10 100 21 0.173158
9 10 100 21 0.15158
10 10 100 21 0.0843116
18 10 100 21 7.89059e-06
1 11 100 21 0.123782
2 11 100 21 0.123739
4 11 100 21 0.123852
5 11 100 21 0.123306
6 11 100 21 0.247586
7 11 100 21 0.124388
8 11 100 21 0.126247
9 11 100 21 0.00513208
11 11 100 21 0.00196659
13 11 100 21 1.45447e-06
5 12 100 21 0.177589
6 12 100 21 0.152861
7 12 100 21 0.152435
8 12 100 21 0.228649
9 12 100 21 0.152885
10 12 100 21 0.135578
11 12 100 21 2.01001e-06
14 12 100 21 1.62656e-06
5 13 100 21 0.000532751
6 13 100 21 0.175406
7 13 100 21 0.259692
8 13 100 21 0.166341
9 13 100 21 0.130189
10 13 100 21 0.143862
11 13 100 21 0.123895
12 13 100 21 6.04688e-05
13 13 100 21 2.25402e-05
6 14 100 21 0.205116
7 14 100 21 0.23101
8 14 100 21 0.198278
9 14 100 21 0.162355
10 14 100 21 0.203102
11 14 100 21 2.15812e-05
14 14 100 21 8.85238e-05
15 14 100 21 5.1286e-06
17 14 100 21 2.40734e-05
7 15 100 21 0.074165
8 15 100 21 0.00454364
9 15 100 21 0.240798
11 15 100 21 0.169314
12 15 100 21 0.240562
13 15 100 21 0.186317
14 15 100 21 0.0842548
19 15 100 21 4.52978e-05
6 16 100 21 0.328212
7 16 100 21 0.0604309
8 16 100 21 0.000696655
9 16 100 21 0.0734158
10 16 100 21 0.534756
11 16 100 21 0.000375391
12 16 100 21 0.00204409
14 16 100 21 6.88777e-05
3 17 100 21 4.91225e-06
6 17 100 21 0.00432982
7 17 100 21 0.213212
8 17 100 21 0.327568
9 17 100 21 0.112995
10 17 100 21 0.225656
11 17 100 21 0.114052
12 17 100 21 7.44655e-05
13 17 100 21 0.00206007
16 17 100 21 9.51407e-06
18 17 100 21 3.47306e-05
20 17 100 21 2.898e-06
4 18 100 21 2.18267e-06
8 18 100 21 0.0567019
9 18 100 21 0.111632
10 18 100 21 0.113241
11 18 100 21 0.221954
12 18 100 21 0.113224
13 18 100 21 0.0565708
14 18 100 21 0.0566118
15 18 100 21 0.103157
16 18 100 21 0.110299
18 18 100 21 0.0566066
5 19 100 21 0.000113503
9 19 100 21 0.00531027
10 19 100 21 0.223343
11 19 100 21 0.0101895
13 19 100 21 0.071917
14 19 100 21 0.223263
15 19 100 21 0.246757
16 19 100 21 6.09709e-06
17 19 100 21 0.219091
18 19 100 21 9.53479e-06
8 20 100 21 0.000145578
10 20 100 21 0.000157435
11 20 100 21 0.218961
12 20 100 21 0.33499
13 20 100 21 0.224398
14 20 100 21 0.111665
15 20 100 21 1.41794e-06
19 20 100 21 0.0123574
20 20 100 21 0.0973242
7 21 100 21 5.1256e-06
8 21 100 21 0.000599812
12 21 100 21 0.358641
13 21 100 21 0.607891
14 21 100 21 2.38477e-05
17 21 100 21 6.69122e-05
20 21 100 21 0.0299501
21 21 100 21 0.00282174
8 22 100 21 0.000282123
9 22 100 21 6.51629e-06
11 22 100 21 7.33528e-06
12 22 100 21 0.0232577
14 22 100 21 0.241713
15 22 100 21 0.272045
16 22 100 21 0.462685
18 22 100 21 3.16827e-06
2 23 100 21 3.23655e-07
3 23 100 21 5.17797e-06
4 23 100 21 1.71588e-06
5 23 100 21 6.02603e-05
8 23 100 21 2.64831e-06
9 23 100 21 0.0888688
10 23 100 21 0.163397
11 23 100 21 0.0914849
12 23 100 21 0.0914252
13 23 100 21 0.0752326
14 23 100 21 0.00040408
15 23 100 21 0.0734241
16 23 100 21 0.00394225
17 23 100 21 0.0999236
18 23 100 21 0.0881887
19 23 100 21 0.132212
20 23 100 21 0.0914271
3 24 100 21 1.84899e-05
4 24 100 21 1.52196e-05
5 24 100 21 8.74867e-07
7 24 100 21 1.31255e-06
8 24 100 21 7.34359e-07
9 24 100 21 5.7375e-05
10 24 100 21 0.000688787
11 24 100 21 0.215164
12 24 100 21 0.213555
13 24 100 21 0.000181835
14 24 100 21 5.0534e-05
15 24 100 21 0.0287167
16 24 100 21 0.330605
17 24 100 21 0.21064
18 24 100 21 5.39162e-05
19 24 100 21 0.000228024
20 24 100 21 2.29696e-05
6 25 100 21 0.00125089
8 25 100 21 0.00031638
9 25 100 21 0.000236064
10 25 100 21 1.669e-06
11 25 100 21 7.93546e-06
12 25 100 21 2.37889e-05
13 25 100 21 0.0820427
14 25 100 21 0.225069
15 25 100 21 0.0646481
16 25 100 21 0.118958
17 25 100 21 0.113406
18 25 100 21 0.119436
19 25 100 21 0.161882
20 25 100 21 0.112722
2 26 100 21 6.25016e-07
3 26 100 21 3.51434e-07
4 26 100 21 1.10539e-05
8 26 100 21 9.77164e-05
9 26 100 21 8.09009e-05
10 26 100 21 6.84009e-06
11 26 100 21 1.70589e-07
13 26 100 21 9.52289e-05
14 26 100 21 3.56988e-05
15 26 100 21 0.0963275
16 26 100 21 0.0720385
17 26 100 21 0.0985068
18 26 100 21 0.195233
19 26 100 21 0.199302
20 26 100 21 0.338001
21 26 100 21 0.000262645
3 27 100 21 3.31206e-06
4 27 100 21 7.88123e-06
5 27 100 21 9.19208e-07
7 27 100 21 2.59866e-06
8 27 100 21 2.42524e-05
9 27 100 21 7.22502e-06
10 27 100 21 1.08966e-06
11 27 100 21 3.00766e-05
12 27 100 21 3.81692e-06
13 27 100 21 0.00944623
14 27 100 21 0.00178189
15 27 100 21 0.24371
16 27 100 21 0.33331
17 27 100 21 0.30766
18 27 100 21 0.0395958
19 27 100 21 0.000951734
21 27 100 21 0.0634624
2 28 100 21 3.43938e-06
3 28 100 21 1.09619e-05
5 28 100 21 0.000460267
6 28 100 21 5.17448e-07
7 28 100 21 2.48258e-07
8 28 100 21 0.00155547
9 28 100 21 0.150065
10 28 100 21 0.150412
11 28 100 21 0.150429
12 28 100 21 0.150145
13 28 100 21 0.132351
14 28 100 21 0.000311466
15 28 100 21 7.15366e-05
16 28 100 21 0.112318
17 28 100 21 0.150416
18 28 100 21 0.000772417
19 28 100 21 0.000676509
20 28 100 21 9.6676e-07
2 29 100 21 7.33391e-07
8 29 100 21 3.50343e-07
9 29 100 21 3.23014e-05
11 29 100 21 0.0027129
12 29 100 21 0.159921
13 29 100 21 0.180528
14 29 100 21 0.187517
15 29 100 21 0.000327694
16 29 100 21 0.264442
17 29 100 21 0.190214
18 29 100 21 0.00119746
19 29 100 21 0.00221984
20 29 100 21 0.0108866
3 30 100 21 2.2794e-06
7 30 100 21 2.08823e-05
8 30 100 21 0.00120271
9 30 100 21 2.38396e-05
10 30 100 21 0.000984622
11 30 100 21 5.73303e-06
13 30 100 21 4.75396e-05
14 30 100 21 0.0629092
15 30 100 21 0.000194728
16 30 100 21 0.00394126
17 30 100 21 0.133108
18 30 100 21 0.51242
19 30 100 21 0.22709
20 30 100 21 0.056964
21 30 100 21 0.00108563
2 31 100 21 1.36655e-07
6 31 100 21 7.2042e-07
7 31 100 21 3.76789e-05
8 31 100 21 2.49819e-05
9 31 100 21 0.000164719
10 31 100 21 8.01973e-06
13 31 100 21 0.000220502
14 31 100 21 0.0119904
15 31 100 21 0.135676
16 31 100 21 1.63413e-07
17 31 100 21 8.82078e-06
18 31 100 21 0.271945
19 31 100 21 0.136927
20 31 100 21 0.396184
21 31 100 21 0.0468124
7 32 100 21 1.59436e-06
8 32 100 21 1.50095e-06
9 32 100 21 0.000136637
13 32 100 21 0.000299433
14 32 100 21 0.116238
15 32 100 21 0.000414423
16 32 100 21 0.00023477
17 32 100 21 0.000295973
18 32 100 21 3.78543e-05
19 32 100 21 0.351334
20 32 100 21 0.351303
21 32 100 21 0.179703
2 33 100 21 2.68388e-05
3 33 100 21 1.95722e-06
4 33 100 21 1.38097e-05
8 33 100 21 0.00347704
13 33 100 21 0.00453664
15 33 100 21 0.00012086
16 33 100 21 6.27323e-05
17 33 100 21 6.97897e-05
18 33 100 21 0.00282152
19 33 100 21 0.98886
20 33 100 21 8.50795e-06
2 34 100 21 8.87952e-05
3 34 100 21 1.63761e-05
8 34 100 21 4.23058e-06
13 34 100 21 0.000317545
15 34 100 21 3.55525e-06
16 34 100 21 0.916348
17 34 100 21 0.00237978
18 34 100 21 6.3149e-06
20 34 100 21 0.0808356
8 35 100 21 1.14591e-06
16 35 100 21 0.00298613
17 35 100 21 0.500118
18 35 100 21 0.00540804
19 35 100 21 0.490976
20 35 100 21 3.36783e-05
21 35 100 21 0.000476526
8 36 100 21 2.30126e-06
11 36 100 21 3.81822e-06
13 36 100 21 0.00175377
14 36 100 21 1.13156e-06
19 36 100 21 0.000932033
20 36 100 21 0.71487
21 36 100 21 0.282437
3 37 100 21 0.000184343
8 37 100 21 0.00154865
13 37 100 21 0.00498134
20 37 100 21 6.0042e-05
21 37 100 21 0.993226
8 38 100 21 0.999443
13 38 100 21 0.000523458
18 38 100 21 3.38907e-05
14 39 100 21 1
14 40 100 21 0.143221
15 40 100 21 0.143233
16 40 100 21 0.143233
17 40 100 21 0.140685
18 40 100 21 0.143232
19 40 100 21 0.143233
20 40 100 21 0.143162
3 41 100 21 7.26292e-05
8 41 100 21 2.70353e-05
13 41 100 21 0.99652
21 41 100 21 0.00337998
3 0 100 22 0.0910684
4 0 100 22 0.00117651
5 0 100 22 0.113088
6 0 100 22 0.000366191
7 0 100 22 0.0011412
8 0 100 22 0.000511156
9 0 100 22 0.0820446
11 0 100 22 0.012314
12 0 100 22 0.0651004
13 0 100 22 0.0259627
15 0 100 22 0.0159302
16 0 100 22 0.00310437
17 0 100 22 0.000476599
19 0 100 22 0.0296163
20 0 100 22 2.53364e-06
21 0 100 22 1.65859e-05
22 0 100 22 0.55808
1 1 100 22 0.414061
2 1 100 22 0.173242
3 1 100 22 0.103515
4 1 100 22 0.103513
5 1 100 22 0.103513
6 1 100 22 0.102139
7 1 100 22 1.69998e-05
1 2 100 22 0.28403
2 2 100 22 0.689396
3 2 100 22 0.0127844
4 2 100 22 0.0128083
5 2 100 22 0.000816346
6 2 100 22 2.08029e-05
11 2 100 22 8.9766e-05
15 2 100 22 5.48811e-05
1 3 100 22 0.33629
2 3 100 22 0.333902
4 3 100 22 0.329524
9 3 100 22 3.4274e-06
12 3 100 22 0.000281176
2 4 100 22 0.999934
4 4 100 22 4.12334e-05
13 4 100 22 1.64109e-05
21 4 100 22 8.39841e-06
5 5 100 22 0.960897
9 5 100 22 0.0387607
12 5 100 22 2.53967e-05
13 5 100 22 1.03962e-05
19 5 100 22 0.000306301
1 6 100 22 0.166334
2 6 100 22 0.167511
3 6 100 22 0.166672
4 6 100 22 0.166255
5 6 100 22 0.000439642
6 6 100 22 1.73637e-06
7 6 100 22 0.166307
8 6 100 22 0.166328
11 6 100 22 0.000101911
15 6 100 22 1.37237e-05
17 6 100 22 3.61358e-05
3 7 100 22 0.103655
4 7 100 22 0.103647
5 7 100 22 0.184172
6 7 100 22 0.104634
7 7 100 22 0.207309
8 7 100 22 0.103655
9 7 100 22 0.103653
10 7 100 22 0.0579734
11 7 100 22 3.09498e-05
12 7 100 22 0.0311511
13 7 100 22 6.39643e-06
15 7 100 22 0.000112917
5 8 100 22 6.21409e-05
6 8 100 22 0.66661
7 8 100 22 0.333305
11 8 100 22 1.73112e-05
15 8 100 22 4.91914e-06
1 9 100 22 0.157817
4 9 100 22 1.03622e-05
5 9 100 22 0.000219179
7 9 100 22 0.283191
8 9 100 22 0.275487
10 9 100 22 0.28319
11 9 100 22 6.10588e-05
12 9 100 22 7.0724e-06
15 9 100 22 1.73505e-05
8 10 100 22 0.84209
9 10 100 22 0.00848898
10 10 100 22 0.143446
11 10 100 22 0.00100637
12 10 100 22 0.00496836
2 11 100 22 0.1667
3 11 100 22 0.333066
8 11 100 22 0.166704
9 11 100 22 0.166704
10 11 100 22 0.166704
11 11 100 22 0.000122448
4 12 100 22 0.611224
9 12 100 22 0.0762733
10 12 100 22 0.272733
11 12 100 22 0.00286913
13 12 100 22 0.0369009
2 13 100 22 5.28914e-05
8 13 100 22 0.499923
9 13 100 22 0.488936
11 13 100 22 0.0110875
5 14 100 22 0.977382
9 14 100 22 0.0214818
12 14 100 22 0.000482669
13 14 100 22 0.000653907
10 15 100 22 0.502263
11 15 100 22 0.488473
13 15 100 22 0.00925582
15 15 100 22 7.66757e-06
4 16 100 22 0.100706
5 16 100 22 5.25041e-06
6 16 100 22 0.20141
7 16 100 22 0.100706
8 16 100 22 0.100706
9 16 100 22 0.100712
11 16 100 22 0.294992
12 16 100 22 0.100706
18 16 100 22 5.56136e-05
7 17 100 22 0.260821
9 17 100 22 0.231519
11 17 100 22 0.000300895
13 17 100 22 0.507359
8 18 100 22 0.12505
9 18 100 22 0.125049
10 18 100 22 0.124586
12 18 100 22 0.250011
13 18 100 22 0.125143
14 18 100 22 0.125278
15 18 100 22 0.124881
19 18 100 22 1.63071e-06
5 19 100 22 0.000207111
8 19 100 22 6.41984e-06
10 19 100 22 0.199725
11 19 100 22 0.386056
12 19 100 22 0.399286
15 19 100 22 0.0146826
16 19 100 22 3.56366e-05
11 20 100 22 7.27162e-05
12 20 100 22 0.00154166
13 20 100 22 0.252846
14 20 100 22 0.588764
15 20 100 22 0.14726
16 20 100 22 0.00950703
17 20 100 22 8.69595e-06
5 21 100 22 1.56369e-05
9 21 100 22 0.00394387
10 21 100 22 0.350105
11 21 100 22 0.350105
15 21 100 22 0.294869
17 21 100 22 5.10322e-05
19 21 100 22 0.000910424
12 22 100 22 0.167735
13 22 100 22 0.000217965
15 22 100 22 0.324801
16 22 100 22 0.507186
18 22 100 22 5.97402e-05
11 23 100 22 0.00130213
17 23 100 22 0.99854
19 23 100 22 0.000157465
1 24 100 22 7.96383e-07
2 24 100 22 2.5848e-05
4 24 100 22 8.93681e-07
5 24 100 22 6.68423e-05
6 24 100 22 4.28388e-06
7 24 100 22 2.11196e-07
8 24 100 22 3.12572e-05
9 24 100 22 2.37308e-06
11 24 100 22 5.66299e-05
12 24 100 22 0.000121757
13 24 100 22 0.402144
14 24 100 22 0.192143
15 24 100 22 0.193201
16 24 100 22 0.192152
17 24 100 22 0.0159446
18 24 100 22 0.00404704
19 24 100 22 4.87947e-05
20 24 100 22 9.0064e-06
1 25 100 22 6.81742e-07
2 25 100 22 1.30005e-07
3 25 100 22 0.000121702
4 25 100 22 3.13044e-06
5 25 100 22 2.41692e-05
6 25 100 22 1.03194e-05
8 25 100 22 3.49346e-07
10 25 100 22 2.46088e-05
11 25 100 22 0.000262344
13 25 100 22 0.000211323
14 25 100 22 0.120782
15 25 100 22 0.120583
16 25 100 22 0.118313
17 25 100 22 0.316624
18 25 100 22 0.322922
19 25 100 22 9.43643e-06
20 25 100 22 2.18214e-05
21 25 100 22 8.69272e-05
2 26 100 22 0.000364894
5 26 100 22 7.17523e-06
6 26 100 22 2.42581e-07
9 26 100 22 1.15963e-05
11 26 100 22 2.24383e-05
12 26 100 22 1.80574e-06
13 26 100 22 1.09024e-05
14 26 100 22 1.10256e-05
15 26 100 22 0.0164031
16 26 100 22 2.19748e-05
17 26 100 22 3.58662e-05
18 26 100 22 0.209952
19 26 100 22 0.562926
20 26 100 22 0.210041
21 26 100 22 0.000189769
3 27 100 22 3.06006e-07
4 27 100 22 6.4438e-07
5 27 100 22 4.72653e-07
6 27 100 22 9.04484e-07
7 27 100 22 3.45372e-07
8 27 100 22 1.0222e-06
9 27 100 22 5.9949e-06
11 27 100 22 6.08647e-06
12 27 100 22 7.5283e-06
13 27 100 22 3.98179e-06
15 27 100 22 2.78006e-05
16 27 100 22 0.138866
17 27 100 22 0.138984
18 27 100 22 0.180651
19 27 100 22 0.139154
20 27 100 22 0.207669
21 27 100 22 0.194622
1 28 100 22 0.00087964
4 28 100 22 8.60215e-06
5 28 100 22 5.64941e-05
8 28 100 22 0.000129282
9 28 100 22 0.0381992
11 28 100 22 1.4901e-05
12 28 100 22 4.48168e-07
13 28 100 22 0.000279092
14 28 100 22 4.31646e-06
15 28 100 22 6.32755e-05
17 28 100 22 0.000147474
18 28 100 22 7.31546e-05
19 28 100 22 0.0102606
20 28 100 22 0.363854
21 28 100 22 0.58545
22 28 100 22 0.000579014
2 29 100 22 7.48618e-07
3 29 100 22 0.138115
4 29 100 22 0.138576
5 29 100 22 0.138578
6 29 100 22 0.0279556
7 29 100 22 2.37256e-06
9 29 100 22 4.84518e-06
10 29 100 22 2.46857e-05
11 29 100 22 4.6868e-06
12 29 100 22 9.97167e-05
15 29 100 22 3.67037e-05
16 29 100 22 0.00190376
17 29 100 22 7.42057e-05
18 29 100 22 0.138362
19 29 100 22 0.138877
20 29 100 22 0.115932
21 29 100 22 0.161452
4 30 100 22 0.0194304
7 30 100 22 5.24978e-06
8 30 100 22 4.89115e-06
9 30 100 22 0.000152822
11 30 100 22 3.04221e-05
12 30 100 22 5.81877e-05
13 30 100 22 0.00580965
14 30 100 22 4.21624e-05
15 30 100 22 7.56759e-05
16 30 100 22 0.0023736
17 30 100 22 6.01323e-05
20 30 100 22 0.964214
22 30 100 22 0.00774235
3 31 100 22 8.81394e-05
