2 0.455651 0.225391 0.195779 0.0504325 0.0423647 0.0168285 0.00798054 0.00205785 0.000542753 0.00297303 
3 0.456037 0.224871 0.195913 0.0504318 0.0423647 0.0168285 0.00798054 0.00205785 0.000542753 0.00297303 
4 0.0178512 0.982081 3.76807e-05 1.95778e-06 2.84303e-05 0 0 0 0 0 
5 0.970178 0.0256386 0.00394432 9.88546e-05 8.00772e-05 2.37283e-05 1.23307e-05 4.41103e-06 0 2.0094e-05 
6 0.534786 0.271695 0.12161 0.0453129 0.0139981 0.00505235 0.00224366 0.00174778 0.00156566 0.00198854 
7 0.976717 0.0221154 0.000986936 6.7438e-05 6.43881e-05 1.90794e-05 9.91479e-06 3.54681e-06 0 1.61571e-05 
8 0.554519 0.323846 0.0728027 0.0306988 0.00954417 0.00344478 0.00152977 0.00119167 0.00106749 0.00135582 
9 0.53953 0.349258 0.0766393 0.00640221 0.0141712 0.0114564 0.00148188 0 0.000707755 0.000353875 
10 0.587004 0.283397 0.0773426 0.0286972 0.0161194 0.00298367 0.001325 0.00103216 0.000924601 0.00117434 
11 0.5897 0.147192 0.143068 0.0647705 0.0284903 0.0139733 0.00815331 0.00208052 0.00127907 0.00129348 
12 0.825358 0.0911018 0.0820642 0.000551368 0.000526433 0.000155992 8.10627e-05 2.89985e-05 0 0.000132099 
13 0.648125 0.181693 0.132009 0.00979301 0.01846 0.0060482 0.00224751 0 0.00108245 0.00054122 
14 0.408461 0.118372 0.271069 0.0828876 0.0933401 0.0106312 0.0116328 0.0013857 0.00222086 0 
15 0.479052 0.236431 0.11226 0.0548052 0.0728519 0.0129313 0.0262968 0.000552677 0.00178241 0.00303687 
16 0.964293 0.0294577 0.00194667 0.00203473 0.000117232 0.000378743 0.0012833 0.00045906 0 2.9416e-05 
17 0.985278 0.0132346 0.000756002 0.000188101 0.000325923 0.000157733 2.00729e-05 3.99082e-05 0 0 
18 0.878723 0.0944692 0.0130123 0.00572794 0.00342955 0.00316575 0.000937002 0.000239099 0.000146995 0.00014865 
19 0.982682 0.0161027 0.00103799 6.62378e-05 6.32422e-05 1.87398e-05 9.73834e-06 3.48368e-06 0 1.58696e-05 
20 0.571974 0.199107 0.137275 0.0435519 0.0247903 0.0121586 0.00709444 0.00181032 0.00111296 0.00112549 
21 0.503384 0.306771 0.110851 0.0496597 0.0154391 0.00557244 0.00247462 0.0019277 0.00172683 0.00219325 
22 0.647902 0.189326 0.12284 0.0102435 0.019312 0.00632735 0.00235124 0 0.00113241 0.000566199 
23 0.820763 0.0769955 0.101157 0.000405087 0.000386767 0.000114606 5.95563e-05 2.1305e-05 0 9.70527e-05 
24 0.766636 0.228023 0.00451506 0.000308538 0.000294584 8.72908e-05 4.53615e-05 1.62271e-05 0 7.39209e-05 
25 0.333371 0.120973 0.306504 0.097933 0.110572 0.0125939 0.0137804 0.00164152 0.00263086 0 
26 0.455372 0.247178 0.13229 0.0575205 0.0761634 0.0126867 0.013175 0.000575827 0.00186343 0.00317491 
27 0.542473 0.457398 7.19593e-05 3.7166e-06 5.39713e-05 0 0 0 0 0 
28 0.464558 0.236437 0.127733 0.0682974 0.0728675 0.0121351 0.0126022 0.000550791 0.00178241 0.00303687 
29 0.808301 0.0512733 0.139808 0.000230922 0.000220367 6.5299e-05 3.39332e-05 1.21389e-05 0 5.52974e-05 
30 0.607845 0.151717 0.132092 0.0513752 0.029367 0.0144032 0.00840418 0.00214454 0.00131843 0.00133328 
31 0.897967 0.0825059 0.00992253 0.00246883 0.00427775 0.00207025 0.000263457 0.000523795 4.97463e-07 0 
32 0.526617 0.283483 0.10726 0.0519518 0.0161517 0.00582963 0.00258884 0.00201667 0.00180653 0.00229447 
33 0.827373 0.172482 8.07392e-05 4.13128e-06 5.99932e-05 0 0 0 0 0 
34 0.598635 0.164569 0.13009 0.0505981 0.028922 0.014185 0.00827684 0.00211205 0.00129845 0.00131308 
35 0.778759 0.213307 0.00670755 0.00045806 0.000437345 0.000129593 6.73444e-05 2.4091e-05 0 0.000109744 
36 0.658412 0.183674 0.104247 0.0100026 0.033596 0.00613848 0.00228105 0 0.0010986 0.000549298 
37 0.345848 0.216409 0.153503 0.194966 0.0333199 0.0178179 0.0292936 0 0 0.00884296 
38 0.333371 0.136358 0.291119 0.097933 0.110572 0.0125939 0.0137804 0.00164152 0.00263086 0 
39 0.383648 0.615375 0.000550704 2.74271e-05 0.000398288 0 0 0 0 0 
40 0.459692 0.24745 0.166125 0.0600476 0.0388343 0.0154262 0.0073155 0.00188636 0.000497523 0.00272528 
41 0.647902 0.189326 0.122839 0.0102435 0.019312 0.00632735 0.00235124 0 0.00113241 0.000566199 
42 0.608799 0.166146 0.116709 0.0513752 0.029367 0.0144032 0.00840418 0.00214454 0.00131843 0.00133328 
43 0.547502 0.285103 0.0884012 0.0496597 0.0154391 0.00557244 0.00247462 0.0019277 0.00172683 0.00219325 
44 0.659782 0.134927 0.106001 0.0535726 0.0235661 0.0115581 0.00674409 0.00172093 0.001058 0.00106991 
45 0.658766 0.189844 0.11431 0.00951184 0.0179326 0.0058754 0.00218329 0 0.00105152 0.000525757 
46 0.526617 0.298868 0.0918755 0.0519517 0.0161517 0.00582963 0.00258884 0.00201667 0.00180653 0.00229447 
47 0.902363 0.0760074 0.0109911 0.0027347 0.00473843 0.0022932 0.000291829 0.000580204 5.51036e-07 0 
48 0.927625 0.0659292 0.0033994 0.000783064 0.00135682 0.000656644 8.35635e-05 0.000166138 1.57786e-07 0 
49 0.597654 0.28364 0.0680306 0.0318572 0.00990433 0.00357477 0.00158749 0.00123664 0.00110778 0.00140699 
50 0.607845 0.151716 0.132094 0.0513752 0.029367 0.0144032 0.00840418 0.00214454 0.00131843 0.00133328 
51 0.320773 0.634566 0.020029 0.0146711 0.00680051 0.00126848 0.000562791 0.000438407 0.000392724 0.000498799 
52 0.472907 0.20646 0.167736 0.0584548 0.0665917 0.0154262 0.0073155 0.00188636 0.000497523 0.00272528 
53 0.849442 0.138743 0.0060042 0.00149374 0.00258822 0.00125259 0.000159403 0.000316918 3.00986e-07 0 
54 0.461569 0.20554 0.207777 0.0503329 0.0529135 0.00881391 0.00915316 0.000400048 0.00129459 0.00220573 
55 0.612823 0.178631 0.0974657 0.0385884 0.0512937 0.0085441 0.00887296 0.000387802 0.00125496 0.00213821 
56 0.757587 0.125384 0.0606897 0.0267151 0.0152708 0.00748968 0.00437017 0.00111516 0.000685584 0.000693304 
57 0.647902 0.189326 0.107455 0.0102439 0.0346963 0.00632735 0.00235124 0 0.00113241 0.000566199 
58 0.535046 0.293069 0.0904977 0.0511645 0.015907 0.0057413 0.00254961 0.00198612 0.00177916 0.00225971 
59 0.346151 0.123578 0.291119 0.097933 0.110572 0.0125939 0.0137804 0.00164152 0.00263086 0 
60 0.605353 0.237804 0.0879768 0.0432931 0.0134597 0.00485802 0.00215736 0.00168056 0.00150544 0.00191206 
61 0.636176 0.221994 0.0798925 0.0429402 0.00999865 0.00360882 0.00160261 0.00124842 0.00111833 0.00142039 
62 0.607845 0.151716 0.132093 0.0513752 0.029367 0.0144032 0.00840418 0.00214454 0.00131843 0.00133328 
63 0.696453 0.162325 0.0973728 0.00811986 0.0153083 0.00501558 0.00186379 0 0.0130928 0.000448817 
64 0.530305 0.29518 0.0918759 0.0519517 0.0161517 0.00582963 0.00258884 0.00201667 0.00180653 0.00229447 
65 0.447669 0.243322 0.183935 0.0512076 0.0430165 0.0170874 0.00810332 0.00208951 0.000551103 0.00301877 
66 0.447669 0.227938 0.199319 0.0512076 0.0430165 0.0170874 0.00810332 0.00208951 0.000551103 0.00301877 
67 0.446993 0.266239 0.119295 0.0581778 0.0773351 0.0128819 0.0133777 0.000584686 0.0018921 0.00322376 
68 0.66107 0.191542 0.107455 0.0102435 0.019312 0.00632735 0.00235124 0 0.00113241 0.000566199 
69 0.942555 0.0503284 0.00310487 0.000206048 0.000203395 0.00351184 3.0294e-05 1.08368e-05 0 4.93659e-05 
70 0.558593 0.276828 0.0796254 0.0452035 0.0271527 0.00505241 0.00224366 0.00174778 0.00156566 0.00198854 
71 0.597892 0.274876 0.0718549 0.034813 0.0108233 0.00390645 0.00173479 0.00135138 0.00121056 0.00153753 
72 0.446993 0.265074 0.12046 0.0581778 0.0773351 0.0128819 0.0133777 0.000584686 0.0018921 0.00322376 
73 0.873838 0.0617006 0.0537734 0.00421254 0.00421235 0.00138013 0.000512854 0 0.000247002 0.0001235 
74 0.991369 0.00543108 0.000950029 0.000236411 0.00173932 0.000198216 2.52246e-05 5.01505e-05 0 0 
75 0.660372 0.126583 0.122756 0.0428128 0.0244725 0.0120027 0.00700348 0.00178712 0.00109869 0.00111106 
76 0.159259 0.513945 0.0929273 0.0962873 0.0572164 0.0405847 0.0238967 0.00405478 0.00781497 0.0040144 
77 0.447669 0.22794 0.199317 0.0512076 0.0430165 0.0170874 0.00810332 0.00208951 0.000551103 0.00301877 
78 0.544584 0.273894 0.0878221 0.0496597 0.0154391 0.00557244 0.00247462 0.00194724 0.0164132 0.00219325 
79 0.610832 0.141224 0.139127 0.0619419 0.0241627 0.0118508 0.00691483 0.00176449 0.00108478 0.001097 
80 0.744262 0.159088 0.0726159 0.00616508 0.011623 0.00380813 0.0014151 0 0.000681542 0.000340768 
81 0.349043 0.178994 0.20529 0.187182 0.0296684 0.0158652 0.0260834 0 0 0.00787387 
82 0.53379 0.279198 0.104581 0.052209 0.015907 0.0057413 0.00254961 0.00198612 0.00177916 0.00225971 
83 0.877858 0.0908914 0.0222701 0.00230851 0.00399997 0.00193582 0.000246349 0.000489782 4.6516e-07 0 
84 0.333371 0.120973 0.306385 0.0980521 0.110572 0.0125939 0.0137804 0.00164152 0.00263086 0 
85 0.815695 0.171863 0.00632233 0.00157306 0.00272564 0.0013191 0.000167866 0.000333745 3.16968e-07 0 
86 0.897308 0.085738 0.00862227 0.00214163 0.00371082 0.00179588 0.000228541 0.000454376 4.31534e-07 0 
87 0.159259 0.49856 0.0929273 0.0964064 0.072482 0.0405847 0.0238967 0.00405478 0.00781497 0.0040144 
88 0.54128 0.291904 0.0878221 0.0496597 0.0154391 0.00557244 0.00247462 0.0019277 0.00172683 0.00219325 
89 0.534061 0.294067 0.0904846 0.0511645 0.015907 0.0057413 0.00254961 0.00198612 0.00177916 0.00225971 
90 0.347686 0.21362 0.154455 0.194966 0.0333199 0.0178179 0.0292937 0 0 0.00884296 
91 0.447669 0.227938 0.183935 0.0512077 0.0453931 0.0292397 0.00895903 0.00208951 0.000551103 0.00301877 
92 0.19395 0.207754 0.0902843 0.0891111 0.34128 4.78373e-05 0.0581785 0 0.019394 0 
93 0.446993 0.250981 0.119169 0.0735616 0.0773353 0.0128819 0.0133777 0.000584686 0.0018921 0.00322376 
94 0.32786 0.167974 0.338374 0.0473276 0.028305 0.0698904 0.00501372 0.0152556 0 0 
95 0.453043 0.330309 0.0900692 0.0439716 0.0584509 0.0097363 0.010111 0.000441913 0.00143007 0.00243656 
96 0.653236 0.186457 0.105827 0.0100883 0.0190194 0.00625661 0.0174419 0 0.00111525 0.000557621 
97 0.159259 0.49856 0.0929308 0.111668 0.0572171 0.0405847 0.0238967 0.00405478 0.00781497 0.0040144 
98 0.916325 0.0650251 0.0103181 0.00214163 0.00371082 0.00179588 0.000228541 0.000454376 4.31534e-07 0 
99 0.632056 0.136998 0.122658 0.0568552 0.0265118 0.0130029 0.00758711 0.00193604 0.00119025 0.00120365 
100 0.613757 0.149446 0.114967 0.0657218 0.0289227 0.014185 0.00827684 0.00211205 0.00129845 0.00131308 
101 0.623226 0.151719 0.116709 0.0513752 0.029367 0.0144032 0.00840418 0.00214454 0.00131843 0.00133328 
102 0.835669 0.164176 8.54743e-05 4.44098e-06 6.44904e-05 0 0 0 0 0 
103 0.735393 0.255872 0.00738491 0.000504642 0.00048182 0.000142772 7.4193e-05 2.6541e-05 0 0.000120905 
104 0.45733 0.217882 0.190528 0.0636523 0.0411187 0.0163336 0.00774582 0.00199732 0.000526789 0.00288559 
105 0.609266 0.146196 0.11156 0.0502155 0.0524744 0.0176697 0.00803341 0.00204993 0.00126026 0.00127446 
106 0.546141 0.265645 0.0993931 0.0603032 0.0150197 0.00541323 0.00240392 0.00187262 0.00167749 0.00213058 
107 0.766183 0.22569 0.00412962 0.00102749 0.00178033 0.000861607 0.000109647 0.000217996 2.07037e-07 0 
108 0.536458 0.291672 0.0904834 0.0511645 0.015907 0.0057413 0.00254961 0.00198612 0.00177916 0.00225971 
109 0.333371 0.120973 0.291119 0.097933 0.125957 0.0125939 0.0137804 0.00164152 0.00263086 0 
110 0.333371 0.120973 0.306504 0.097933 0.110572 0.0125939 0.0137804 0.00164152 0.00263086 0 
111 0 0 0.999999 0 0 0 0 0 0 0 
112 0.966447 0.0301139 0.00174876 0.00043461 0.000753051 0.000364445 4.63787e-05 9.22084e-05 0 0 
113 0.667477 0.147281 0.0960974 0.0422707 0.0241627 0.0118508 0.00691483 0.00176449 0.00108478 0.001097 
114 0.603785 0.250997 0.0702728 0.0514772 0.0123519 0.00445795 0.0019797 0.00154216 0.00138146 0.0017546 
115 0.584629 0.167061 0.135299 0.0608535 0.0268865 0.0131861 0.00769397 0.00196331 0.00120701 0.00122061 
116 0.159259 0.49856 0.0929273 0.0962873 0.0572164 0.0405899 0.0392583 0.00407248 0.00781497 0.0040144 
117 0.613786 0.149417 0.114948 0.0640634 0.0305998 0.014185 0.00827684 0.00211205 0.00129845 0.00131308 
118 0.44514 0.226642 0.107999 0.0806357 0.11073 0.0116295 0.0120771 0.000527841 0.00170814 0.00291034 
119 0.457347 0.232571 0.17582 0.0636543 0.0411187 0.0163336 0.00774582 0.00199732 0.000526789 0.00288559 
120 0.272467 0.721305 0.0059086 2.05704e-05 0.000298716 0 0 0 0 0 
121 0.50066 0.21276 0.134133 0.0613686 0.0644459 0.0107349 0.0111481 0.000487238 0.00157675 0.00268646 
122 0.480182 0.237567 0.118795 0.0656338 0.0693648 0.0114702 0.0119116 0.00052061 0.00168474 0.00287047 
123 0.446993 0.250981 0.119168 0.0581778 0.0773351 0.012884 0.0287601 0.000584832 0.0018921 0.00322376 
124 0.413187 0.201492 0.180256 0.123398 0.0577886 0.00962439 0.00999483 0.000436834 0.00141364 0.00240855 
125 0.607845 0.151716 0.116709 0.0667598 0.029367 0.0144032 0.00840418 0.00214454 0.00131843 0.00133328 
126 0.446993 0.250981 0.119168 0.0584166 0.0924809 0.0128819 0.0133777 0.000584686 0.0018921 0.00322376 
127 0.62513 0.131176 0.151012 0.0439572 0.0251165 0.0123185 0.00718778 0.00183414 0.0011276 0.0011403 
128 0.466851 0.238669 0.172749 0.0444917 0.0505025 0.0148091 0.00702288 0.00181091 0.000477622 0.00261627 
129 0.513108 0.377793 0.0574485 0.0324698 0.0100948 0.00364352 0.00161802 0.00126042 0.00112908 0.00143405 
130 0.544148 0.361356 0.0528502 0.0261826 0.00813844 0.00293741 0.00130445 0.00101615 0.000910266 0.00115613 
131 0.611197 0.158971 0.126266 0.0491087 0.0280714 0.0137678 0.00803341 0.00204993 0.00126026 0.00127446 
132 0.526617 0.283483 0.0918755 0.0672295 0.0162584 0.00582963 0.00258884 0.00201667 0.00180653 0.00229447 
133 0.446993 0.250981 0.134553 0.0581779 0.0773351 0.0128819 0.0133777 0.000584686 0.0018921 0.00322376 
134 0.44923 0.236059 0.178445 0.049682 0.0566532 0.016579 0.00786143 0.00202713 0.000534652 0.00292866 
135 0.446993 0.250981 0.119168 0.0735576 0.0773399 0.0128819 0.0133777 0.000584686 0.0018921 0.00322376 
136 0.159259 0.49856 0.0929273 0.111672 0.0572166 0.0405847 0.0238967 0.00405478 0.00781497 0.0040144 
137 0.330705 0.20712 0.175882 0.200958 0.0318499 0.0170318 0.0280013 0 0 0.00845283 
138 0.653237 0.186457 0.120978 0.0100883 0.0190194 0.00623148 0.00231561 0 0.00111525 0.000557621 
139 0.446993 0.26635 0.119183 0.0581778 0.0773351 0.0128819 0.0133777 0.000584686 0.0018921 0.00322376 
140 0.463518 0.258396 0.115612 0.0564412 0.0750266 0.0124973 0.0129784 0.000567232 0.00183562 0.00312752 
141 0.358042 0 0.199451 0.353316 0.0891908 0 0 0 0 0 
142 0.737735 0.248451 0.0116889 0.00079397 0.000758064 0.000224628 0.00011673 4.17578e-05 0 0.000190223 
143 0.520725 0.154647 0.18697 0.061164 0.0598932 0.00682168 0.00746438 0.000889155 0.00142505 0 
144 0.333371 0.120973 0.291119 0.0986529 0.121896 0.015935 0.0137804 0.00164152 0.00263086 0 
145 0.499305 0.263298 0.12726 0.0955739 0.0076654 0.00276588 0.00122828 0.000956815 0.000857112 0.00108862 
146 0.246557 0.586296 0.105646 0.0213647 0.0283999 0.00473063 0.00491271 0.000214715 0.000694838 0.00118387 
147 0.56325 0.149946 0.0543484 0.0254236 0.196268 0.00433846 0.00450544 0.000196915 0.000637235 0.00108572 
148 0.703942 0.208959 0.0635021 0.00605299 0.0114116 0.00373889 0.00138937 0 0.00066915 0.000334572 
149 0.475941 0.265731 0.154246 0.0390642 0.0424478 0.0125194 0.00591815 0.00152604 0.000402491 0.00220472 
150 0.456273 0.219536 0.116219 0.0786667 0.10515 0.0097363 0.010111 0.000441913 0.00143007 0.00243656 
151 0.480397 0.321576 0.125439 0.0297188 0.0249649 0.00991682 0.00470282 0.00121266 0.000319836 0.00175196 
152 0.345848 0.201024 0.153503 0.194966 0.0333199 0.0178355 0.0446607 0 0 0.00884296 
153 0.647622 0.228843 0.0553005 0.0405021 0.00974611 0.00350865 0.00155813 0.00121376 0.00352766 0.008178 
154 0.62155 0.169446 0.108397 0.0477055 0.0272693 0.0133744 0.00780388 0.00199136 0.00122426 0.00123804 
155 0.647902 0.189732 0.122433 0.0102435 0.019312 0.00632735 0.00235124 0 0.00113241 0.000566199 
156 0.530644 0.294841 0.0918759 0.0519517 0.0161517 0.00582963 0.00258884 0.00201667 0.00180653 0.00229447 
157 0.457243 0.256116 0.119168 0.0581778 0.0773351 0.0128819 0.0133777 0.000584686 0.0018921 0.00322376 
158 0.537331 0.288154 0.0918755 0.0519517 0.0161517 0.00582963 0.00258884 0.00201667 0.00180653 0.00229447 
159 0.453631 0.237267 0.184027 0.0512076 0.0430165 0.0170874 0.00810332 0.00208951 0.000551103 0.00301877 
160 0.333371 0.120973 0.291119 0.097933 0.110572 0.0125939 0.0138765 0.0167447 0.00281627 0 
161 0.446993 0.250981 0.119168 0.0581896 0.0925643 0.0130255 0.0133777 0.000584686 0.0018921 0.00322376 
162 0.671467 0.119704 0.193691 0.00441667 0.00697378 0.00228488 0.000849058 0 0.000408925 0.000204461 
163 0.607845 0.151716 0.116709 0.0513752 0.029367 0.0145717 0.0236201 0.0021447 0.00131843 0.00133328 
164 0.662413 0.310646 0.0196499 0.00187031 0.00352607 0.00115527 0.000429299 0 0.00020676 0.000103379 
165 0.459931 0.243085 0.168395 0.046882 0.0534639 0.0156435 0.00741853 0.00191293 0.000504531 0.00276366 
166 0.679606 0.127449 0.0936554 0.041227 0.0235661 0.0115581 0.0111289 0.00968167 0.00105811 0.00106991 
167 0.681445 0.160389 0.131262 0.00700932 0.012941 0.00423998 0.00157557 0 0.00075883 0.000379412 
168 0.566208 0.25994 0.0841113 0.0475614 0.0147867 0.00533698 0.00237006 0.00184625 0.00165389 0.016185 
169 0.448575 0.258415 0.115618 0.0713595 0.0750266 0.0124973 0.0129784 0.000567232 0.00183562 0.00312752 
170 0.646509 0.245769 0.0447988 0.0218587 0.0290565 0.00484001 0.0050263 0.000219679 0.000710903 0.00121124 
171 0.943042 0.0314062 0.0204295 0.00213555 0.00179068 0.000866617 0.000110284 0.000219263 2.0824e-07 0 
172 0.480701 0.250357 0.106124 0.0518022 0.0689811 0.0250477 0.0119116 0.00052061 0.00168474 0.00287047 
173 0.937459 0.0580188 0.00382293 0.000261174 0.000249363 7.38909e-05 3.83981e-05 1.37361e-05 0 6.25734e-05 
174 0.518638 0.279188 0.0905191 0.0814318 0.015907 0.0057413 0.00254961 0.00198612 0.00177916 0.00225971 
175 0.580299 0.20891 0.120849 0.0503014 0.0205531 0.00995968 0.0058114 0.00148293 0.00091168 0.000921947 
176 0.607845 0.151716 0.116709 0.0518882 0.0442383 0.0144035 0.00840418 0.00214454 0.00131843 0.00133328 
177 0.630569 0.14293 0.114924 0.0579089 0.0276646 0.0135683 0.00791698 0.00202022 0.001242 0.00125599 
178 0.308557 0.260046 0.327648 0.0336707 0.016767 0.0413265 0.00296463 0.00902072 0 0 
179 0.117486 0.88074 0.00149999 0.000102492 9.78568e-05 2.89968e-05 1.50685e-05 5.39042e-06 0 2.45555e-05 
180 0.758042 0.232259 0.00493052 0.0012259 0.00212412 0.00102799 0.00013082 0.000260091 2.47016e-07 0 
181 0.610304 0.146392 0.125033 0.0505105 0.0413753 0.0137678 0.00803341 0.00204993 0.00126026 0.00127446 
182 0.0589312 0.940891 9.84696e-05 5.11595e-06 7.42921e-05 0 0 0 0 0 
183 0.717745 0.244045 0.0201847 0.0113317 0.00352302 0.00127156 0.000564679 0.000439878 0.000394041 0.000500472 
184 0.532795 0.270977 0.102527 0.0643663 0.0154393 0.00557244 0.00247462 0.0019277 0.00172683 0.00219325 
185 0.607845 0.167091 0.116719 0.0513752 0.029367 0.0144032 0.00840418 0.00214454 0.00131843 0.00133328 
186 0.333371 0.120973 0.291119 0.100835 0.123047 0.0126018 0.0137804 0.00164152 0.00263086 0 
187 0.63705 0.217732 0.0702577 0.0397277 0.0123513 0.00445795 0.0019797 0.00154216 0.00138148 0.0135193 
188 0.345848 0.201024 0.155471 0.208372 0.0333305 0.0178179 0.0292936 0 0 0.00884296 
189 0.455947 0.279178 0.16692 0.0401082 0.0336876 0.0133817 0.00634597 0.00163636 0.000431586 0.0023641 
190 0.630577 0.142922 0.109943 0.0483969 0.0277145 0.0280014 0.0079266 0.00202022 0.001242 0.00125599 
191 0.805843 0.180594 0.0114658 0.000783523 0.000748089 0.000221673 0.000115194 4.12083e-05 0 0.00018772 
192 0.881517 0.110954 0.0063741 0.000431506 0.000411991 0.000122081 6.34404e-05 2.26944e-05 0 0.000103382 
193 0.624735 0.145433 0.11156 0.0491087 0.0280733 0.0282387 0.00826643 0.00204993 0.00126026 0.00127446 
194 0.156846 0.506158 0.0915623 0.109937 0.0563495 0.0399697 0.0235346 0.00399334 0.00769656 0.00395358 
195 0.891148 0.0367495 0.0661412 0.00153237 0.00265515 0.00128498 0.000163525 0.000325114 3.0877e-07 0 
196 0.446993 0.250981 0.119168 0.0601073 0.0907875 0.0128846 0.0133777 0.000584686 0.0018921 0.00322376 
197 0.392135 0.606814 0.000581741 3.02258e-05 0.00043893 0 0 0 0 0 
198 0.941732 0.0452903 0.00898081 0.00102749 0.00178033 0.000861607 0.000109647 0.000217996 2.07037e-07 0 
199 0.618922 0.147816 0.128151 0.0498416 0.0284903 0.0139733 0.00815331 0.00208052 0.00127907 0.00129348 
200 0.437169 0.305184 0.153418 0.042673 0.035847 0.0142395 0.00675277 0.00174126 0.000459252 0.00251564 
201 0.616083 0.143613 0.122643 0.0639917 0.0276645 0.0135683 0.00791698 0.00202022 0.001242 0.00125599 
202 0.333373 0.126864 0.288604 0.10227 0.120832 0.0115296 0.0126159 0.0015028 0.00240854 0 
203 0.607845 0.151716 0.116709 0.0513752 0.0420841 0.0170706 0.00840418 0.00214454 0.00131843 0.00133328 
204 0.45649 0.240104 0.131325 0.0675907 0.0739412 0.0123136 0.0127875 0.000558891 0.00180862 0.00308153 
205 0.728321 0.124459 0.121001 0.00672555 0.0126796 0.00415432 0.00154374 0 0.0007435 0.000371747 
206 0.679924 0.310443 0.00814392 0.000556521 0.000531353 0.00015745 8.18203e-05 2.92695e-05 0 0.000133334 
207 0.159259 0.49856 0.0929273 0.0962873 0.0572164 0.0405847 0.0238967 0.00405551 0.0231988 0.00401441 
208 0.482624 0.279183 0.158489 0.0326326 0.0274124 0.0108891 0.00516388 0.00133155 0.000351193 0.00192373 
209 0.516713 0.193288 0.267021 0.00589935 0.0111087 0.00363963 0.00135248 0 0.000651385 0.00032569 
210 0.258261 0.173152 0.418281 0.0428985 0.0256632 0.0633673 0.00454577 0.0138318 0 0 
211 0.486488 0.233059 0.110753 0.0682069 0.0718158 0.0119617 0.0124221 0.000542922 0.00175695 0.00299349 
212 0.381464 0.363207 0.102574 0.10669 0.0171989 0.00919177 0.0151118 0 0 0.00456184 
213 0.60145 0.168119 0.160514 0.0591341 0.00567491 0.00204825 0.000909591 0.00070856 0.000634726 0.000806166 
214 0.43365 0.253141 0.13443 0.057921 0.0898513 0.0124973 0.0129784 0.000567232 0.00183562 0.00312752 
215 0.619232 0.165499 0.158218 0.0270418 0.0174768 0.00694177 0.00329197 0.000848862 0.000223885 0.00122638 
216 0.442939 0.32879 0.118314 0.0381976 0.0507756 0.0084578 0.00878333 0.000383884 0.00124229 0.00211661 
217 0.618226 0.150822 0.13314 0.0463804 0.0265118 0.0130029 0.00758711 0.00193604 0.00119025 0.00120365 
218 0.548256 0.278629 0.0974588 0.0475614 0.0147867 0.00533698 0.00237006 0.00184625 0.00165386 0.00210057 
219 0.544894 0.264485 0.103629 0.0584965 0.014998 0.00541323 0.00240392 0.00187262 0.00167749 0.00213058 
220 0.617891 0.26527 0.0851854 0.00811987 0.0153083 0.00501558 0.00186379 0 0.00089764 0.000448817 
221 0.607845 0.151716 0.116709 0.0513752 0.0300302 0.0291246 0.00840419 0.00214454 0.00131843 0.00133328 
222 0.446993 0.250981 0.119168 0.0581778 0.0778117 0.0277644 0.0134032 0.000584686 0.0018921 0.00322376 
223 0.161201 0.6399 0.0542424 0.0648096 0.033206 0.0235536 0.0138686 0.00235322 0.00453547 0.00232979 
224 0.361478 0.116484 0.293889 0.0936828 0.110262 0.0108699 0.0101787 0.00121248 0.00194325 0 
225 0.333371 0.120973 0.291119 0.0984512 0.125439 0.0125939 0.0137804 0.00164152 0.00263086 0 
226 0.649105 0.1746 0.105247 0.0157021 0.04575 0.00588784 0.00215254 0 0.00103671 0.000518352 
227 0.521375 0.23728 0.122956 0.0392268 0.0585939 0.00829032 0.00860941 0.000376283 0.00121769 0.00207469 
228 0.769776 0.125883 0.0731767 0.013725 0.0113628 0.00370521 0.00137685 0 0.000663122 0.000331558 
229 0.637684 0.147069 0.114397 0.0427875 0.0242959 0.0231724 0.00674575 0.00172093 0.001058 0.00106991 
230 0.675048 0.137867 0.102695 0.0442613 0.0208363 0.0100668 0.00587389 0.00149887 0.000921483 0.00093186 
231 0.966065 0.0290017 0.00250731 0.000623703 0.00108069 0.000523011 6.65576e-05 0.000132327 1.25675e-07 0 
232 0.65547 0.133333 0.102515 0.0453047 0.03475 0.0170325 0.00738205 0.00188372 0.00115808 0.00117112 
233 0.515213 0.213814 0.111958 0.0589678 0.0743994 0.0103373 0.0107352 0.000469192 0.00151835 0.00258696 
234 0.349716 0.216485 0.169858 0.181043 0.0309399 0.0165452 0.0272012 0 0 0.00821132 
235 0.440886 0.224484 0.181185 0.0655267 0.0575333 0.0168311 0.00798054 0.00205785 0.000542753 0.00297303 
236 0.440886 0.224484 0.181148 0.0507137 0.0723858 0.0168285 0.00798054 0.00205785 0.000542753 0.00297303 
237 0.455315 0.225206 0.183421 0.0633092 0.0423652 0.0168285 0.00798054 0.00205785 0.000542753 0.00297303 
238 0.865486 0.121961 0.00637881 0.0015871 0.00274998 0.00133088 0.000169365 0.000336725 3.19798e-07 0 
239 0.473554 0.228012 0.162881 0.0633536 0.0493761 0.012657 0.00598541 0.00154339 0.000407064 0.00222977 
240 0.885121 0.0858334 0.0207138 0.00214165 0.00371082 0.00179588 0.000228541 0.000454376 4.31534e-07 0 
241 0.599872 0.248283 0.0855296 0.0416896 0.0129612 0.0046781 0.00207746 0.00161832 0.00144968 0.00184124 
242 0.629442 0.216143 0.119806 0.00887808 0.0167371 0.00548371 0.00203774 0 0.00098142 0.000490706 
243 0.537264 0.355005 0.0647406 0.0270336 0.00839887 0.00303141 0.0013462 0.00104867 0.000939395 0.00119313 
244 0.171989 0.491014 0.0915193 0.0948284 0.0563495 0.0399697 0.0235346 0.00415683 0.0223059 0.00433228 
245 0.159259 0.49856 0.0929273 0.0962873 0.05722 0.05593 0.0239324 0.00405478 0.00781497 0.0040144 
246 0.607845 0.151716 0.117124 0.0663407 0.0293709 0.0144032 0.00840418 0.00214454 0.00131843 0.00133328 
247 0.455363 0.247187 0.117363 0.0575604 0.0910501 0.0126874 0.013175 0.000575827 0.00186343 0.00317491 
248 0.448576 0.258414 0.118896 0.0680811 0.0750266 0.0124973 0.0129784 0.000567232 0.00183562 0.00312753 
249 0.834837 0.133713 0.00720218 0.00160177 0.0143603 0.00777498 0.000170891 0.000339759 3.22679e-07 0 
250 0.156847 0.506157 0.0915194 0.0984733 0.0678562 0.0399697 0.0235346 0.00399334 0.00769656 0.00395358 
251 0.616087 0.157412 0.109943 0.0628897 0.0276645 0.0135683 0.00791698 0.00202022 0.001242 0.00125599 
252 0.619653 0.143066 0.138455 0.0480984 0.0261487 0.0128248 0.00748317 0.00190952 0.00117394 0.00118716 
253 0.693096 0.200385 0.0805587 0.00666225 0.0125528 0.00411278 0.0015283 0 0.000736065 0.00036803 
254 0.641481 0.133812 0.116023 0.0456851 0.0387512 0.0126515 0.00738205 0.00188372 0.00115808 0.00117112 
255 0.659088 0.171861 0.124194 0.0212706 0.0121583 0.00596312 0.00347944 0.000887866 0.000545847 0.000551994 
256 0.95048 0.0350435 0.0103085 0.00107262 0.00185541 0.00089794 0.000114271 0.000227188 2.15767e-07 0 
257 0.613786 0.149417 0.114941 0.0657473 0.028923 0.014185 0.00827684 0.00211205 0.00129845 0.00131308 
258 0.452903 0.444902 0.0495574 0.0361522 0.00867652 0.00313162 0.0013907 0.00108334 0.000970449 0.00123257 
259 0.520927 0.3114 0.0815701 0.0456373 0.0276968 0.00512062 0.00227398 0.0017714 0.00158682 0.00201542 
260 0.708383 0.123034 0.0944509 0.035152 0.0200932 0.00985484 0.00575023 0.00146732 0.000902084 0.000912242 
261 0.523428 0.212063 0.112126 0.0487815 0.0769674 0.0107349 0.0111481 0.000487238 0.00157675 0.00268646 
262 0.508423 0.199357 0.189311 0.0421329 0.0353933 0.0140593 0.00666729 0.00171921 0.000453439 0.0024838 
263 0.455365 0.247186 0.117385 0.070047 0.078542 0.0126867 0.013175 0.000575827 0.00186343 0.00317491 
264 0.633597 0.190124 0.0914299 0.0402336 0.0229982 0.0112796 0.00658159 0.00167946 0.00103251 0.00104413 
265 0.561812 0.275773 0.0785779 0.0444324 0.0163659 0.0155918 0.00221414 0.00172479 0.00154506 0.00196238 
266 0.601983 0.201982 0.16128 0.0153161 0.0113201 0.00449669 0.00213245 0.00054987 0.000145027 0.000794413 
267 0.607845 0.151716 0.116709 0.0667598 0.029367 0.0144032 0.00840418 0.00214454 0.00131843 0.00133328 
268 0.646267 0.132704 0.127129 0.0445252 0.0254514 0.0124828 0.00728362 0.0018586 0.00114264 0.00115551 
269 0.547505 0.332742 0.0873078 0.00832286 0.015691 0.00514097 0.00191038 0 0.000920081 0.000460037 
270 0.447669 0.227938 0.183935 0.0512142 0.0583945 0.0170875 0.00810332 0.00208951 0.000551103 0.00301877 
271 0.735996 0.159927 0.0800435 0.00616513 0.011623 0.00380813 0.0014151 0 0.000681542 0.000340768 
272 0.517966 0.300282 0.101099 0.0429115 0.0257812 0.00479653 0.00213006 0.00165929 0.00148638 0.00188786 
273 0.625146 0.145023 0.11156 0.0638145 0.0280714 0.0137678 0.00803341 0.00204993 0.00126026 0.00127446 
274 0.171997 0.491006 0.0915193 0.0948284 0.0563495 0.0399697 0.0235346 0.00399334 0.0077002 0.0191014 
275 0.333371 0.120973 0.291119 0.113318 0.110572 0.0125939 0.0137804 0.00164152 0.00263086 0 
276 0.440317 0.266675 0.130535 0.0564416 0.0750266 0.0124973 0.0129784 0.000567232 0.00183562 0.00312752 
277 0.605067 0.234192 0.0839762 0.0527316 0.0126489 0.00456537 0.0020274 0.00157932 0.00141475 0.00179688 
278 0.487492 0.233702 0.118188 0.0511021 0.0679295 0.0113152 0.0117507 0.000513575 0.00174917 0.016258 
279 0.447669 0.227938 0.183935 0.0512077 0.0430168 0.0324685 0.00810657 0.00208951 0.000551103 0.00301877 
280 0.505986 0.181714 0.115484 0.137467 0.0222366 0.011818 0.0194295 0 0 0.00586523 
281 0.18164 0.476569 0.108292 0.101403 0.0552763 0.0387942 0.0228424 0.00387589 0.00747019 0.0038373 
282 0.456037 0.224484 0.196299 0.0504318 0.0423647 0.0168285 0.00798054 0.00205785 0.000542753 0.00297303 
283 0.333371 0.120973 0.291321 0.113115 0.110573 0.0125939 0.0137804 0.00164152 0.00263086 0 
284 0.150026 0.517068 0.0980936 0.0907129 0.0538995 0.041088 0.034148 0.00381972 0.00736192 0.00378168 
285 0.333371 0.120973 0.291119 0.097933 0.110572 0.0130062 0.0287527 0.00164153 0.00263086 0 
286 0.491125 0.250564 0.104141 0.060694 0.0661419 0.0110174 0.0114414 0.00050006 0.00161824 0.00275716 
287 0.430687 0.274456 0.195503 0.0408009 0.0340984 0.0135449 0.00642336 0.00165632 0.00043685 0.00239293 
288 0.345848 0.201025 0.168887 0.194966 0.0333199 0.0178179 0.0292937 0 0 0.00884296 
289 0.159259 0.49856 0.0929332 0.111666 0.0572164 0.0405847 0.0238967 0.00405478 0.00781497 0.0040144 
290 0.38737 0.121576 0.116824 0.324633 0.0185111 0.00989883 0.0162742 0 0 0.00491276 
291 0.57805 0.249384 0.093954 0.0539854 0.0129612 0.0046781 0.00207746 0.00161832 0.00144968 0.00184124 
292 0.641872 0.162678 0.108488 0.0448817 0.0216915 0.0106387 0.00620763 0.00158403 0.000973841 0.000984807 
293 0.325852 0.213659 0.191687 0.184703 0.0313883 0.016785 0.0275955 0 0 0.00833032 
294 0.695008 0.147198 0.129581 0.00723727 0.0136443 0.00447041 0.0016612 0 0.000800071 0.000400032 
295 0.321877 0.250767 0.162686 0.185179 0.0296684 0.0158652 0.0260834 0 0 0.00787387 
296 0.447669 0.227938 0.183935 0.0534159 0.0561904 0.0170899 0.00810332 0.00208951 0.000551103 0.00301877 
297 0.637121 0.148777 0.103967 0.058564 0.0269912 0.0128248 0.00748317 0.00190952 0.00117394 0.00118716 
298 0.345848 0.206533 0.163357 0.194988 0.0333199 0.0178179 0.0292936 0 0 0.00884296 
299 0.582069 0.198415 0.131157 0.0472141 0.0212095 0.0104023 0.00606968 0.00154883 0.0009522 0.000962922 
300 0.318664 0.145049 0.290728 0.0958897 0.120374 0.0120383 0.0131724 0.0015691 0.0025148 0 
301 0.296855 0.176301 0.368765 0.0341466 0.0296113 0.0731161 0.00524512 0.0159597 0 0 
302 0.343472 0.11914 0.286708 0.109548 0.110949 0.012403 0.0135716 0.00161665 0.002591 0 
303 0.537397 0.252757 0.118227 0.0515136 0.0271621 0.00519077 0.00230513 0.00179567 0.00160855 0.00204302 
304 0.333371 0.120973 0.291119 0.0991017 0.124788 0.0125939 0.0137804 0.00164152 0.00263086 0 
305 0.17393 0.503719 0.0875472 0.0907671 0.0683304 0.0382322 0.0225114 0.00381972 0.00736192 0.00378168 
306 0.427822 0.266717 0.12576 0.0796417 0.0707997 0.0117933 0.0122472 0.000535276 0.0017322 0.00295133 
307 0.491393 0.375449 0.0747713 0.036705 0.0114115 0.00411876 0.00182907 0.00142482 0.00127635 0.00162109 
308 0.503305 0.325258 0.0968321 0.0469008 0.0145814 0.00526286 0.00233714 0.00182061 0.00163089 0.0020714 
309 0.593708 0.211427 0.158307 0.0093779 0.01768 0.00579265 0.00215254 0 0.00103671 0.000518352 
310 0.411021 0.587328 0.00104549 3.89754e-05 0.000565988 0 0 0 0 0 
311 0.610342 0.192872 0.144617 0.0241744 0.0182181 0.00596055 0.00221493 0 0.00106676 0.000533376 
312 0.617727 0.157426 0.127034 0.0463804 0.0265118 0.0130029 0.00758711 0.00193604 0.00119025 0.00120365 
313 0.5871 0.186387 0.110327 0.062079 0.0281031 0.0135683 0.00791698 0.00202022 0.001242 0.00125599 
314 0.628672 0.213415 0.104247 0.00993993 0.0336586 0.00613857 0.00228105 0 0.0010986 0.000549298 
315 0.647902 0.204711 0.107455 0.0102435 0.019312 0.00632735 0.00235124 0 0.00113241 0.000566199 
316 0.526617 0.283483 0.107258 0.0519537 0.0161517 0.00582963 0.00258884 0.00201667 0.00180653 0.00229447 
317 0.638085 0.21676 0.105827 0.0100883 0.0190194 0.00623148 0.00231561 0 0.00111525 0.000557621 
318 0.523046 0.298063 0.0866266 0.0633554 0.0152153 0.00549168 0.00243876 0.00189976 0.0017018 0.00216146 
319 0.643487 0.213525 0.104247 0.00993774 0.0187355 0.00613848 0.00228105 0 0.0010986 0.000549298 
320 0.423432 0.419359 0.0991393 0.023775 0.0199719 0.00793345 0.00376226 0.000970128 0.000255869 0.00140157 
321 0.504188 0.285111 0.0961146 0.0398059 0.0529135 0.00881391 0.00915316 0.000400048 0.00129459 0.00220573 
322 0.170061 0.499942 0.0975442 0.0845767 0.0502659 0.0528006 0.0308572 0.00356163 0.0068645 0.00352616 
323 0.687765 0.174653 0.0867875 0.0347084 0.00846661 0.00305585 0.00135705 0.00105713 0.00094697 0.00120275 
324 0.355553 0.198185 0.152297 0.206043 0.0328151 0.0175479 0.0288498 0 0 0.00870898 
325 0.475606 0.230753 0.166838 0.0465874 0.0523635 0.0154276 0.0073155 0.00188636 0.000497523 0.00272528 
326 0.196934 0.195566 0.0916733 0.0908459 0.346167 4.85733e-05 0.0590735 0 0.0196924 0 
327 0.441978 0.23991 0.125091 0.0743586 0.0881129 0.0123136 0.0127875 0.000558891 0.00180862 0.00308153 
328 0.434386 0.553634 0.0114331 3.52675e-05 0.000512085 0 0 0 0 0 
329 0.449234 0.250976 0.178449 0.0496791 0.0417324 0.0165774 0.00786143 0.00202713 0.000534652 0.00292866 
330 0.4225 0.576274 0.000678698 3.52635e-05 0.000512085 0 0 0 0 0 
331 0.447669 0.243321 0.183936 0.0512076 0.0430165 0.0170874 0.00810332 0.00208951 0.000551103 0.00301877 
332 0.537138 0.288347 0.0918755 0.0519517 0.0161517 0.00582963 0.00258884 0.00201667 0.00180653 0.00229447 
333 0.489156 0.246068 0.124148 0.0495485 0.0644459 0.0107349 0.0111481 0.000487238 0.00157675 0.00268646 
334 0.471331 0.239968 0.113911 0.0556111 0.0739233 0.0123136 0.0127875 0.000558891 0.00181165 0.0177844 
335 0.559996 0.248761 0.10565 0.0581417 0.0148536 0.00505235 0.00224366 0.00174778 0.00156566 0.00198854 
336 0.522926 0.283685 0.115538 0.0489416 0.0152153 0.00549168 0.00243876 0.00189976 0.0017018 0.00216146 
337 0.375414 0.16585 0.312215 0.0289159 0.0252473 0.0744577 0.00442772 0.0134725 0 0 
338 0.664129 0.167216 0.13621 0.00832286 0.015691 0.00514097 0.00191038 0 0.000920081 0.000460037 
339 0.601593 0.142921 0.138929 0.0483969 0.0277429 0.027444 0.00845556 0.00202022 0.001242 0.00125599 
340 0.472141 0.241308 0.121471 0.0525219 0.0698514 0.0254834 0.0120771 0.000527841 0.00170814 0.00291034 
341 0.604608 0.162056 0.113299 0.0498491 0.0426313 0.0147502 0.00815331 0.00208052 0.00127907 0.00129348 
342 0.345848 0.201024 0.153503 0.194966 0.0333288 0.0331936 0.0292936 0 0 0.00884296 
343 0.440221 0.247183 0.132509 0.0572964 0.0913109 0.0126906 0.013175 0.000575827 0.00186343 0.00317491 
344 0.455372 0.247178 0.117363 0.0572963 0.0761634 0.0126878 0.0283254 0.000575827 0.00186343 0.00317491 
345 0.525073 0.26705 0.0865494 0.0924182 0.0152153 0.00549168 0.00243876 0.00189976 0.0017018 0.00216146 
346 0.426916 0.229757 0.211392 0.0607669 0.0507067 0.0113335 0.00537465 0.0013859 0.000365527 0.00200225 
347 0.49464 0.298243 0.0880287 0.0757264 0.0325014 0.00435553 0.00193419 0.00150671 0.00134971 0.00171426 
348 0.747461 0.238337 0.0072164 0.00179551 0.00311109 0.00150564 0.000191605 0.000380942 3.61791e-07 0 
349 0.896889 0.0546907 0.0408209 0.00195336 0.00338459 0.001638 0.00020845 0.000414431 3.93597e-07 0 
350 0.446993 0.255372 0.130153 0.0581866 0.0773351 0.0128819 0.0133777 0.000584686 0.0018921 0.00322376 
351 0.447002 0.262009 0.123516 0.0581778 0.0773351 0.0128819 0.0133777 0.000584686 0.0018921 0.00322376 
352 0.340001 0.182408 0.188776 0.20822 0.0300805 0.0160856 0.0264457 0 0 0.00798323 
353 0.86093 0.129699 0.0079218 0.000541343 0.000516862 0.000153156 7.95888e-05 2.84712e-05 0 0.000129698 
354 0.370405 0.10925 0.304445 0.0884118 0.099822 0.0113695 0.0124406 0.00148193 0.00237509 0 
355 0.340608 0.197979 0.151179 0.222314 0.0328151 0.0175479 0.0288498 0 0 0.00870898 
356 0.347196 0.111007 0.308771 0.0896571 0.115312 0.0115296 0.0126159 0.0015028 0.00240854 0 
357 0.33337 0.117961 0.290082 0.0978539 0.131439 0.0120383 0.0131724 0.0015691 0.0025148 0 
358 0.454596 0.250926 0.18608 0.04438 0.0372809 0.0148091 0.00702288 0.00181091 0.000477622 0.00261627 
359 0.446993 0.250981 0.119168 0.0581778 0.0773353 0.0282663 0.0133777 0.000584686 0.0018921 0.00322376 
360 0.435495 0.199021 0.243583 0.0587255 0.0367904 0.0146143 0.00693047 0.00178708 0.000471338 0.00258184 
361 0.865986 0.110937 0.00990224 0.000676679 0.000646077 0.000191445 9.9486e-05 3.5589e-05 0 0.0115258 
362 0.61044 0.159728 0.117174 0.0581979 0.0280736 0.0137678 0.00803341 0.00204993 0.00126026 0.00127446 
363 0.447669 0.227938 0.183935 0.0516563 0.0579524 0.0170874 0.00810332 0.00208951 0.000551103 0.00301877 
364 0.16943 0.498603 0.0901534 0.0934131 0.0555134 0.0542935 0.0231834 0.00393374 0.00758168 0.00389457 
365 0.564093 0.207096 0.10518 0.0471762 0.0474225 0.00789926 0.0082033 0.000358534 0.00116025 0.0114108 
366 0.48176 0.250547 0.208665 0.0371084 0.0115369 0.00416402 0.00184917 0.00144048 0.00129038 0.00163891 
367 0.650545 0.245364 0.0548107 0.0309804 0.00963173 0.00347638 0.0015438 0.0012026 0.00107729 0.00136826 
368 0.779047 0.208534 0.0104988 0.000717443 0.000684998 0.000202977 0.000105479 3.77329e-05 0 0.000171888 
369 0.456035 0.224487 0.181148 0.0513133 0.0566347 0.0168285 0.00798054 0.00205785 0.000542753 0.00297303 
370 0.663453 0.195662 0.102714 0.0097916 0.01846 0.0060482 0.00224751 0 0.00108245 0.00054122 
371 0.446993 0.251005 0.134445 0.058262 0.0773351 0.0128819 0.0133777 0.000584686 0.0018921 0.00322376 
372 0.32832 0.119144 0.316999 0.096457 0.108897 0.012403 0.0135716 0.00161665 0.002591 0 
373 0.604625 0.162112 0.126105 0.0518874 0.0284903 0.0139733 0.00815331 0.00208052 0.00127907 0.00129348 
374 0.330287 0.205529 0.161875 0.219293 0.0310578 0.0165452 0.0272012 0 0 0.00821132 
375 0.466505 0.278267 0.106109 0.0518022 0.06886 0.0114702 0.0119116 0.00052061 0.00168474 0.00287047 
376 0.607845 0.151716 0.116717 0.0667515 0.029367 0.0144032 0.00840418 0.00214454 0.00131843 0.00133328 
377 0.59137 0.236529 0.0892482 0.0392869 0.0224571 0.0110142 0.00642673 0.00163994 0.00100821 0.00101956 
378 0.647902 0.189326 0.107455 0.0102435 0.019312 0.00632871 0.0177345 0 0.00113241 0.0005662 
379 0.901487 0.068059 0.0204628 0.003488 0.00389871 0.00188681 0.000240113 0.000477383 4.53384e-07 0 
380 0.532796 0.285682 0.0878224 0.0496899 0.0301148 0.00557244 0.00247462 0.0019277 0.00172683 0.00219325 
381 0.524747 0.29734 0.092964 0.0583526 0.0139984 0.00505235 0.00224366 0.00174778 0.00156566 0.00198854 
382 0.611513 0.15169 0.114941 0.0505968 0.028922 0.0141898 0.023414 0.00212153 0.00129845 0.00131308 
383 0.444176 0.253277 0.141014 0.0570589 0.0739233 0.0123136 0.0127875 0.000558891 0.00180862 0.00308153 
384 0.464047 0.221245 0.193368 0.0496791 0.0417324 0.0165774 0.00786143 0.00202713 0.000534652 0.00292866 
385 0.472271 0.264875 0.178984 0.0343717 0.0288255 0.0114503 0.00543006 0.00140019 0.000369296 0.00202289 
386 0.607845 0.151716 0.116709 0.0513752 0.029367 0.0297878 0.00840418 0.00214454 0.00131843 0.00133328 
387 0.529239 0.328945 0.0746716 0.0422107 0.0131232 0.00473657 0.00210343 0.00163855 0.0014678 0.00186426 
388 0.880661 0.056397 0.0235552 0.0320473 0.00439997 0.0021294 0.000270984 0.00053876 5.11676e-07 0 
389 0.159259 0.49856 0.0929274 0.111672 0.0572164 0.0405847 0.0238967 0.00405478 0.00781497 0.0040144 
390 0.473164 0.333015 0.0838638 0.0381976 0.0507756 0.0084578 0.00878333 0.000383884 0.00124229 0.00211661 
391 0.589763 0.174961 0.115504 0.0630751 0.0299164 0.0139733 0.00815331 0.00208052 0.00127907 0.00129348 
392 0.891953 0.0725451 0.0106268 0.00262155 0.0192223 0.00219745 0.000278955 0.000554606 5.26725e-07 0 
393 0.457326 0.217886 0.17582 0.0523725 0.0671064 0.0163336 0.00774582 0.00199732 0.000526789 0.00288559 
394 0.333371 0.120973 0.291123 0.113314 0.110572 0.0125939 0.0137804 0.00164152 0.00263086 0 
395 0.547926 0.278222 0.0841113 0.0476346 0.0287981 0.00533698 0.00237006 0.00184625 0.00165386 0.00210057 
396 0.53845 0.271646 0.0860789 0.0475629 0.0288017 0.0194893 0.00237025 0.00184625 0.00165386 0.00210057 
397 0.446993 0.253133 0.132401 0.0581778 0.0773351 0.0128819 0.0133777 0.000584686 0.0018921 0.00322376 
398 0.528662 0.22685 0.144289 0.0474383 0.030726 0.0122053 0.00578809 0.0014925 0.000393645 0.00215626 
399 0.361528 0.110759 0.280602 0.0896574 0.101346 0.0395809 0.0126159 0.0015028 0.00240854 0 
400 0.6419 0.133429 0.129179 0.0454493 0.0257953 0.0126515 0.00738205 0.00188372 0.00115808 0.00117112 
401 0.307339 0.173218 0.363771 0.033618 0.0291627 0.0720083 0.00516565 0.0157179 0 0 
402 0.640578 0.207881 0.120268 0.00802204 0.0151239 0.00495515 0.00184133 0 0.000886825 0.000443409 
403 0.33483 0.120878 0.294737 0.0976254 0.122197 0.0122179 0.013369 0.00159252 0.00255233 0 
404 0.607845 0.151716 0.116719 0.0667496 0.029367 0.0144032 0.00840418 0.00214454 0.00131843 0.00133328 
405 0.345848 0.201024 0.153911 0.209942 0.0333199 0.0178179 0.0292936 0 0 0.00884296 
406 0.619551 0.147245 0.128093 0.0498416 0.0284903 0.0139733 0.00815331 0.00208052 0.00127907 0.00129348 
407 0.447669 0.227938 0.183935 0.0512101 0.0583878 0.0170982 0.00810332 0.00208951 0.000551103 0.00301877 
408 0.447669 0.227938 0.184104 0.066423 0.0430165 0.0170874 0.00810332 0.00208951 0.000551103 0.00301877 
409 0.173966 0.475072 0.136856 0.0881504 0.0523813 0.037155 0.0218772 0.00371212 0.00715455 0.00367516 
410 0.343203 0.128281 0.288748 0.106736 0.104162 0.0118638 0.0129815 0.00154636 0.00247835 0 
411 0.327874 0.16796 0.338373 0.032622 0.028305 0.0698904 0.00502392 0.0299513 0 0 
412 0.447669 0.233111 0.194135 0.0512183 0.0430164 0.0170874 0.00810332 0.00208951 0.000551103 0.00301877 
413 0.54931 0.262983 0.089577 0.0633165 0.0222157 0.00505235 0.00224366 0.00174778 0.00156566 0.00198854 
414 0.330097 0.140444 0.282522 0.109934 0.107271 0.0122179 0.013369 0.00159252 0.00255233 0 
415 0.593147 0.183587 0.108373 0.0477056 0.0272693 0.0133894 0.0220746 0.00199136 0.00122426 0.00123804 
416 0.544393 0.288783 0.0878301 0.0496597 0.0154391 0.00557244 0.00247462 0.0019277 0.00172683 0.00219325 
417 0.607845 0.151716 0.116709 0.0667241 0.0294027 0.0144032 0.00840418 0.00214454 0.00131843 0.00133328 
418 0.488526 0.229211 0.172139 0.0452416 0.0377847 0.0150092 0.00711778 0.00183538 0.000484077 0.00265162 
419 0.35769 0.128278 0.2743 0.105138 0.105724 0.0118638 0.0129815 0.00154636 0.00247835 0 
420 0.447669 0.227938 0.184038 0.0664462 0.0430589 0.0170874 0.00810332 0.00208951 0.000551103 0.00301877 
421 0.525877 0.282659 0.111291 0.050401 0.0156695 0.00565561 0.00251156 0.00195647 0.0017526 0.00222598 
422 0.447669 0.227938 0.183935 0.0512077 0.0430165 0.0170932 0.0234737 0.002098 0.000551103 0.00301877 
423 0.456037 0.224485 0.181148 0.0504318 0.0423647 0.0168285 0.00798054 0.00205785 0.000543274 0.018124 
424 0.653235 0.186458 0.105827 0.0100883 0.0341709 0.00623148 0.00231561 0 0.00111525 0.000557621 
425 0.526617 0.283483 0.0918755 0.0519517 0.0161651 0.0212007 0.00258895 0.00201667 0.00180653 0.00229447 
426 0.45733 0.217882 0.178953 0.0643364 0.0520092 0.0163336 0.00774582 0.00199732 0.000526789 0.00288559 
427 0.584308 0.268374 0.0775572 0.0438553 0.0136345 0.00492112 0.00218538 0.00170239 0.00152499 0.00193689 
428 0.518766 0.329481 0.110112 0.0261777 0.00813844 0.00293741 0.00130445 0.00101615 0.000910266 0.00115613 
429 0.503287 0.334252 0.0857243 0.0482408 0.014998 0.00541323 0.00240392 0.00187262 0.00167749 0.00213058 
430 0.453411 0.297448 0.111347 0.0478678 0.0636301 0.010599 0.011007 0.00048107 0.00155679 0.00265246 
431 0.440886 0.224484 0.193638 0.0530929 0.0575162 0.0168285 0.00798054 0.00205785 0.000542753 0.00297303 
432 0.552484 0.285215 0.0816478 0.042745 0.016958 0.0137861 0.00213006 0.00165929 0.00148638 0.00188786 
433 0.604609 0.147208 0.128162 0.0647507 0.0284903 0.0139733 0.00815331 0.00208052 0.00127907 0.00129348 
434 0.869054 0.0765806 0.0329538 0.00225007 0.0165569 0.00188681 0.000240113 0.000477383 4.53384e-07 0 
435 0.518884 0.226159 0.100597 0.0492708 0.0781102 0.0108743 0.0112929 0.000493566 0.00159722 0.00272135 
436 0.456488 0.228739 0.178591 0.0645194 0.0417324 0.0165774 0.00786143 0.00202713 0.000534652 0.00292866 
437 0.539494 0.28417 0.0853139 0.0482718 0.0292525 0.00541349 0.00240392 0.00187262 0.00167749 0.00213058 
438 0.647768 0.230948 0.0884284 0.00842821 0.0158896 0.00520605 0.00193456 0 0.000931728 0.00046586 
439 0.446993 0.256004 0.129505 0.0582019 0.0773351 0.0128819 0.0133777 0.000584686 0.0018921 0.00322376 
440 0.526617 0.283492 0.107251 0.0519522 0.0161517 0.00582963 0.00258884 0.00201667 0.00180653 0.00229447 
441 0.447669 0.227938 0.199319 0.0512076 0.0430165 0.0170874 0.00810332 0.00208951 0.000551103 0.00301877 
442 0.604625 0.162112 0.128151 0.0498416 0.0284903 0.0139733 0.00815331 0.00208052 0.00127907 0.00129348 
443 0.455898 0.239736 0.181186 0.0504318 0.0423647 0.0168285 0.00798054 0.00205785 0.000542753 0.00297303 
444 0.546089 0.26329 0.0853129 0.0483367 0.0407841 0.00810274 0.00240392 0.00187262 0.00167749 0.00213058 
445 0.604635 0.16188 0.128365 0.0498497 0.0284903 0.0139733 0.00815331 0.00208052 0.00127907 0.00129348 
446 0.604617 0.147195 0.113506 0.0644861 0.0434021 0.0139875 0.00815331 0.00208052 0.00127907 0.00129348 
447 0.587367 0.170064 0.120597 0.0639399 0.0334538 0.0128248 0.00748317 0.00190952 0.00117394 0.00118716 
448 0.613786 0.149417 0.114941 0.0505968 0.028922 0.0142386 0.0233747 0.00211205 0.00129845 0.00131308 
449 0.32832 0.119147 0.301853 0.111601 0.108897 0.012403 0.0135716 0.00161665 0.002591 0 
450 0.446994 0.264549 0.120984 0.0581778 0.0773351 0.0128819 0.0133777 0.000584686 0.0018921 0.00322376 
451 0.447669 0.227938 0.185759 0.0647682 0.0430165 0.0170874 0.00810332 0.00208951 0.000551103 0.00301877 
452 0.45536 0.247191 0.118004 0.0702849 0.0776849 0.0126867 0.013175 0.000575827 0.00186343 0.00317491 
453 0.526617 0.283483 0.0919382 0.0672735 0.0161517 0.00582963 0.00258884 0.00201667 0.00180653 0.00229447 
454 0.638085 0.186498 0.136089 0.0100883 0.0190194 0.00623148 0.00231561 0 0.00111525 0.000557621 
455 0.573865 0.233994 0.109922 0.0587976 0.0129242 0.00421029 0.00186972 0.00145649 0.00130472 0.00165712 
456 0.446993 0.250981 0.119168 0.0581841 0.0927135 0.0128819 0.0133777 0.000584686 0.0018921 0.00322376 
457 0.533789 0.279189 0.10561 0.0511897 0.015907 0.0057413 0.00254961 0.00198612 0.00177916 0.00225971 
458 0.46096 0.22433 0.178444 0.0496791 0.0417324 0.0165774 0.00786143 0.00202713 0.000536591 0.0178521 
459 0.526617 0.288323 0.101655 0.0527168 0.0161517 0.00582963 0.00258884 0.00201667 0.00180653 0.00229447 
460 0.647902 0.189405 0.122761 0.0102435 0.019312 0.00632735 0.00235124 0 0.00113241 0.000566199 
461 0.526618 0.298789 0.091954 0.0519517 0.0161517 0.00582963 0.00258884 0.00201667 0.00180653 0.00229447 
462 0.547502 0.270977 0.0878221 0.0496604 0.0296633 0.00605336 0.00247462 0.0019277 0.00172683 0.00219325 
463 0.619551 0.147187 0.113225 0.0647669 0.0284903 0.0139733 0.00815331 0.00208052 0.00127907 0.00129348 
464 0.487472 0.205784 0.166052 0.046247 0.066457 0.0155634 0.0073155 0.00188636 0.000497523 0.00272528 
465 0.456037 0.224484 0.181148 0.0655832 0.0423647 0.0168285 0.00798054 0.00205785 0.000542753 0.00297303 
466 0.526617 0.283483 0.0918755 0.0519517 0.0161517 0.00680231 0.0170008 0.00201667 0.00180653 0.00229447 
467 0.447669 0.227938 0.183935 0.0514144 0.0581943 0.0170874 0.00810332 0.00208951 0.000551103 0.00301877 
468 0.444474 0.270898 0.102153 0.0626822 0.0738824 0.0226217 0.0184124 0.00050006 0.00161824 0.00275716 
469 0.455368 0.247182 0.117363 0.0572963 0.0761634 0.0126867 0.013175 0.000575827 0.00674466 0.0134452 
470 0.440221 0.248176 0.144827 0.0591373 0.0761634 0.0126867 0.013175 0.000575827 0.00186343 0.00317491 
471 0.602854 0.157357 0.136223 0.0491087 0.0280714 0.0137678 0.00803341 0.00204993 0.00126026 0.00127446 
472 0.446994 0.266365 0.119168 0.0581778 0.0773351 0.0128819 0.0133777 0.000584686 0.0018921 0.00322376 
473 0.514492 0.278567 0.0882541 0.0409311 0.0495233 0.0168553 0.00797781 0.000348666 0.00112831 0.00192242 
474 0.159259 0.498575 0.108297 0.0962873 0.0572164 0.0405847 0.0238967 0.00405478 0.00781497 0.0040144 
475 0.504992 0.196006 0.207649 0.0374047 0.0314165 0.0124796 0.00591815 0.00152604 0.000402491 0.00220472 
476 0.647902 0.189326 0.107455 0.0102439 0.0346961 0.00632753 0.00235124 0 0.00113241 0.0005662 
477 0.534504 0.192272 0.177578 0.0391594 0.0328949 0.0130669 0.00619666 0.00159786 0.000421431 0.00230847 
478 0.401179 0.297884 0.174805 0.0661157 0.0349509 0.0138835 0.00658395 0.00169772 0.000447771 0.00245275 
479 0.525823 0.275021 0.0891329 0.06533 0.0305907 0.00565608 0.00251156 0.00195647 0.0017526 0.00222598 
480 0.800806 0.155269 0.0126293 0.0298475 0.000824766 0.000244161 0.000126881 4.53889e-05 0 0.000206764 
481 0.333371 0.120973 0.291488 0.112949 0.110572 0.0125939 0.0137804 0.00164152 0.00263086 0 
482 0.612583 0.15062 0.114941 0.0505968 0.0290204 0.0292381 0.00827684 0.00211205 0.00129845 0.00131308 
483 0.302919 0.170465 0.358349 0.0331091 0.0287274 0.0711728 0.0197747 0.0154833 0 0 
484 0.619537 0.147201 0.113225 0.0498416 0.0284905 0.0288985 0.00815331 0.00208052 0.00127907 0.00129348 
485 0.421717 0.25401 0.191956 0.0482393 0.0405227 0.0161324 0.0220908 0.00196838 0.000519155 0.00284377 
486 0.532795 0.276171 0.0973351 0.0643652 0.0154391 0.00557244 0.00247462 0.0019277 0.00172683 0.00219325 
487 0.333371 0.121005 0.306468 0.0979374 0.110572 0.0125939 0.0137804 0.00164152 0.00263086 0 
488 0.567686 0.248644 0.0887771 0.071329 0.0124476 0.00445795 0.0019797 0.00154216 0.00138146 0.0017546 
489 0.440221 0.249878 0.124467 0.0626427 0.0761634 0.0126918 0.0283214 0.000575843 0.00186343 0.00317491 
490 0.447669 0.227938 0.183935 0.0512077 0.0430165 0.0264891 0.0139908 0.00218499 0.000551103 0.00301877 
491 0.543249 0.289936 0.0878221 0.0496597 0.0154391 0.00557244 0.00247462 0.0019277 0.00172683 0.00219325 
492 0.672459 0.176411 0.114049 0.00951184 0.0179326 0.0058754 0.00218329 0 0.00105152 0.000525757 
493 0.447669 0.227938 0.199319 0.0512076 0.0430165 0.0170874 0.00810332 0.00208951 0.000551103 0.00301877 
494 0.582276 0.178946 0.110026 0.0683714 0.0245712 0.0247872 0.00702442 0.00178712 0.00109869 0.00111106 
495 0.332171 0.15013 0.292402 0.0922649 0.104162 0.0118638 0.0129815 0.00154636 0.00247835 0 
496 0.603538 0.220506 0.0732611 0.0356751 0.0474225 0.00789926 0.0082033 0.000358534 0.00116025 0.00197683 
497 0.455372 0.247178 0.117363 0.0573027 0.0913085 0.0126867 0.013175 0.000575827 0.00186343 0.00317491 
498 0.456035 0.224486 0.181148 0.0504318 0.0423679 0.0319769 0.00798055 0.00205785 0.000542753 0.00297303 
499 0.463501 0.243489 0.115611 0.0576333 0.0887362 0.012521 0.0129784 0.000567232 0.00183562 0.00312752 
500 0.613786 0.149417 0.117961 0.0627279 0.028922 0.014185 0.00827684 0.00211205 0.00129845 0.00131308 
501 0.510589 0.296057 0.115506 0.04894 0.0152153 0.00549168 0.00243876 0.00189976 0.0017018 0.00216146 
502 0.58797 0.226575 0.112973 0.0374144 0.0187568 0.008511 0.00496611 0.00126723 0.000779072 0.000787845 
503 0.220574 0.124758 0.53952 0.0471532 0.0532384 0.00606371 0.00663501 0.00079036 0.00126671 0 
504 0.528601 0.306179 0.0960819 0.043889 0.0132894 0.00479653 0.00213006 0.00165929 0.00148638 0.00188786 
505 0.526617 0.283493 0.10725 0.0519517 0.0161517 0.00582963 0.00258884 0.00201667 0.00180653 0.00229447 
506 0.156846 0.505479 0.107346 0.0948315 0.0563495 0.0399697 0.0235346 0.00399334 0.00769656 0.00395358 
507 0.598635 0.167645 0.127015 0.0505968 0.028922 0.014185 0.00827684 0.00211205 0.00129845 0.00131308 
508 0.159259 0.49856 0.0929273 0.103101 0.0657872 0.0405847 0.0238967 0.00405478 0.00781497 0.0040144 
509 0.159259 0.49856 0.0929273 0.0962945 0.0725619 0.0406166 0.0238967 0.00405478 0.00781497 0.0040144 
510 0.48549 0.207766 0.179941 0.0462291 0.0388343 0.0154263 0.0212042 0.00188636 0.000497523 0.00272528 
511 0.345867 0.21639 0.153503 0.194966 0.0333199 0.0178179 0.0292936 0 0 0.00884296 
512 0.641152 0.149867 0.108373 0.0477056 0.0272693 0.0133744 0.00780388 0.00199136 0.00122426 0.00123804 
513 0.638372 0.141508 0.106846 0.0470336 0.0268852 0.0131861 0.00769397 0.00196331 0.00120701 0.0153051 
514 0.183136 0.698139 0.0338005 0.0349647 0.0207769 0.0147374 0.00867756 0.00147241 0.00283784 0.00145774 
515 0.473704 0.233976 0.118189 0.0659453 0.0801123 0.0113152 0.0117507 0.000513575 0.00166198 0.00283168 
516 0.333371 0.120973 0.306504 0.097933 0.110572 0.0125939 0.0137804 0.00164152 0.00263086 0 
517 0.607845 0.151716 0.116743 0.0667262 0.029367 0.0144032 0.00840418 0.00214454 0.00131843 0.00133328 
518 0.635734 0.141 0.108373 0.0477062 0.0415544 0.0133744 0.00780388 0.00199136 0.00122426 0.00123804 
519 0.607845 0.1671 0.116709 0.0513752 0.029367 0.0144032 0.00840418 0.00214454 0.00131843 0.00133328 
520 0.607845 0.151716 0.132093 0.0513756 0.029367 0.0144032 0.00840418 0.00214454 0.00131843 0.00133328 
521 0.681521 0.177409 0.0931276 0.00887772 0.0300704 0.0054837 0.00203774 0 0.00098142 0.000490706 
522 0.607845 0.151716 0.116709 0.0513752 0.0293671 0.0297877 0.00840418 0.00214454 0.00131843 0.00133328 
523 0.526617 0.298868 0.0918755 0.0519517 0.0161517 0.00582963 0.00258884 0.00201667 0.00180653 0.00229447 
524 0.663431 0.195684 0.102714 0.0097916 0.01846 0.0060482 0.00224751 0 0.00108245 0.00054122 
525 0.658412 0.183674 0.104247 0.00993774 0.0187355 0.00613904 0.0172059 0 0.0010986 0.000549298 
526 0.200037 0.205016 0.109024 0.0997286 0.311949 4.57575e-05 0.0556489 0 0.0185508 0 
527 0.342428 0.113191 0.223845 0.111809 0.19106 0.00737354 0.00785725 0.000935953 0.00150005 0 
528 0.660505 0.192107 0.107455 0.0102435 0.019312 0.00632735 0.00235124 0 0.00113241 0.000566199 
529 0.345848 0.201024 0.168888 0.194966 0.0333199 0.0178179 0.0292936 0 0 0.00884296 
530 0.333371 0.120973 0.306504 0.097933 0.110572 0.0125939 0.0137804 0.00164152 0.00263086 0 
531 0.607845 0.151716 0.132094 0.0513752 0.029367 0.0144032 0.00840418 0.00214454 0.00131843 0.00133328 
532 0.622797 0.135716 0.103919 0.0594717 0.0535178 0.0128248 0.00748317 0.00190952 0.00117394 0.00118716 
533 0.625145 0.159729 0.11156 0.0491087 0.0280714 0.0137678 0.00803341 0.00204993 0.00126026 0.00127446 
534 0.5871 0.157389 0.138951 0.0484032 0.0421531 0.0135684 0.00791698 0.00202022 0.001242 0.00125599 
535 0.613786 0.149417 0.114944 0.0657454 0.028922 0.014185 0.00827684 0.00211205 0.00129845 0.00131308 
536 0.171997 0.491006 0.0915198 0.10998 0.0563495 0.0399697 0.0235346 0.00399334 0.00769656 0.00395358 
537 0.512434 0.303335 0.089133 0.0504762 0.0305196 0.00565561 0.00251156 0.00195647 0.0017526 0.00222598 
538 0.355759 0.197979 0.15144 0.206897 0.032819 0.0175479 0.0288498 0 0 0.00870898 
539 0.334442 0.143974 0.278282 0.108314 0.105694 0.0120383 0.0131724 0.0015691 0.0025148 0 
540 0.604616 0.147197 0.12815 0.064767 0.0284903 0.0139733 0.00815331 0.00208052 0.00127907 0.00129348 
541 0.417388 0.282276 0.148494 0.0531725 0.0698164 0.0116295 0.0120771 0.000527841 0.00170814 0.00291034 
542 0.612815 0.152842 0.125661 0.0451269 0.0393082 0.012652 0.00738205 0.00188372 0.00115808 0.00117112 
543 0.351849 0.118783 0.282639 0.109725 0.107271 0.0122179 0.013369 0.00159252 0.00255233 0 
544 0.447669 0.227938 0.188286 0.0622409 0.0430165 0.0170874 0.00810332 0.00208951 0.000551103 0.00301877 
545 0.476894 0.235073 0.180077 0.0464001 0.035847 0.0142395 0.00675277 0.00174126 0.000459252 0.00251564 
546 0.196934 0.195566 0.0916733 0.0904829 0.34653 4.85733e-05 0.0590735 0 0.0196924 0 
547 0.610124 0.160044 0.11156 0.0491087 0.0280714 0.0137678 0.00803341 0.00204993 0.00126035 0.0159802 
548 0.156846 0.506155 0.0915222 0.0948329 0.0714935 0.0399728 0.0235346 0.00399334 0.00769656 0.00395358 
549 0.400859 0.10637 0.282706 0.0860223 0.0971241 0.0110622 0.0121044 0.00144187 0.00231089 0 
550 0.376844 0.156381 0.262237 0.0837585 0.0945682 0.0107711 0.0117859 0.00140393 0.00225008 0 
551 0.617741 0.152428 0.126264 0.0491099 0.0280714 0.0137678 0.00803341 0.00204993 0.00126026 0.00127446 
552 0.592382 0.18934 0.14437 0.0302591 0.0254188 0.0100971 0.00478833 0.00123471 0.000325652 0.00178382 
553 0.638085 0.201609 0.105827 0.0113331 0.0329261 0.00623148 0.00231561 0 0.00111525 0.000557621 
554 0.510383 0.311271 0.100497 0.04894 0.0152153 0.00549168 0.00243876 0.00189976 0.0017018 0.00216146 
555 0.440221 0.247237 0.132499 0.0724039 0.0761634 0.0126867 0.013175 0.000575827 0.00186343 0.00317491 
556 0.401473 0.294492 0.202412 0.0416062 0.0349509 0.0138835 0.00658395 0.00169772 0.000447771 0.00245275 
557 0.540745 0.275024 0.0891329 0.0504009 0.0156695 0.00565561 0.00251156 0.00195904 0.0166754 0.00222598 
558 0.533399 0.223548 0.0870332 0.0442603 0.0884175 0.00940831 0.00977023 0.000427018 0.00138187 0.00235443 
559 0.604625 0.161423 0.128841 0.0498416 0.0284903 0.0139733 0.00815331 0.00208052 0.00127907 0.00129348 
560 0.53379 0.279202 0.105615 0.0511702 0.015907 0.0057413 0.00254961 0.00198612 0.00177916 0.00225971 
561 0.827621 0.1319 0.0351468 0.00398241 0.000768308 0.000227664 0.000118308 4.23221e-05 0 0.000192794 
562 0.456034 0.224488 0.181148 0.0504318 0.0423647 0.020347 0.0190872 0.00258424 0.000542753 0.00297303 
563 0.570615 0.271126 0.0765724 0.0475646 0.0220087 0.00485802 0.00215736 0.00168056 0.00150544 0.00191206 
564 0.333371 0.120973 0.291131 0.113306 0.110572 0.0125939 0.0137804 0.00164152 0.00263086 0 
565 0.462699 0.252784 0.11226 0.0608667 0.0812831 0.0121351 0.0126022 0.000550791 0.00178241 0.00303687 
566 0.566353 0.262576 0.102204 0.0432933 0.0134597 0.00485802 0.00215736 0.00168056 0.00150544 0.00191206 
567 0.612801 0.138909 0.149097 0.0470364 0.0268852 0.0131861 0.00769397 0.00196331 0.00120701 0.00122061 
568 0.560552 0.217806 0.158763 0.029816 0.0170433 0.00835902 0.00487742 0.0012446 0.00076516 0.000773777 
569 0.652795 0.201929 0.09602 0.00912094 0.0207982 0.0157175 0.00210611 0 0.00100831 0.00050415 
570 0.445224 0.24068 0.133676 0.0679448 0.083623 0.0116295 0.0120771 0.000527841 0.00170814 0.00291034 
571 0.607845 0.151716 0.117437 0.0660005 0.0293986 0.0144032 0.00840418 0.00214454 0.00131843 0.00133328 
572 0.672636 0.1653 0.118862 0.0199481 0.0151262 0.00495516 0.00184133 0 0.000886825 0.000443409 
573 0.352934 0.117698 0.284519 0.106878 0.108239 0.0122179 0.013369 0.00159252 0.00255233 0 
574 0.53379 0.279188 0.0904834 0.0511646 0.0310584 0.00574131 0.00254961 0.00198612 0.00177916 0.00225971 
575 0.53379 0.279188 0.0904834 0.0511645 0.015907 0.020882 0.00256037 0.00198612 0.00177916 0.00225971 
576 0.302925 0.18451 0.344298 0.0331089 0.0287275 0.0858588 0.00508855 0.0154833 0 0 
577 0.448489 0.238464 0.187973 0.0512076 0.0430165 0.0170874 0.00810332 0.00208951 0.000551103 0.00301877 
578 0.658412 0.1876 0.115246 0.00993873 0.0187355 0.00613848 0.00228105 0 0.0010986 0.000549298 
579 0.607845 0.151716 0.11671 0.0667576 0.0293678 0.0144032 0.00840418 0.00214454 0.00131843 0.00133328 
580 0.159259 0.49856 0.0929279 0.111671 0.0572169 0.0405847 0.0238967 0.00405478 0.00781497 0.0040144 
581 0.32342 0.121047 0.298659 0.10491 0.118641 0.0158088 0.013369 0.00159252 0.00255233 0 
582 0.472223 0.234413 0.183502 0.0449798 0.0377847 0.0150092 0.00711778 0.00183538 0.000484077 0.00265162 
583 0.447669 0.227938 0.183935 0.0665922 0.0430165 0.0170874 0.00810332 0.00208951 0.000551103 0.00301877 
584 0.533013 0.285465 0.0878221 0.0496597 0.0154391 0.0202716 0.00248135 0.0019277 0.00172683 0.00219325 
585 0.472036 0.217882 0.17582 0.0489485 0.0411188 0.0310393 0.00774587 0.00199732 0.000526789 0.00288559 
586 0.530961 0.297602 0.0829853 0.0607479 0.0145814 0.00526286 0.00233714 0.00182061 0.00163089 0.0020714 
587 0.687501 0.184687 0.101326 0.00679424 0.012809 0.00419671 0.00155949 0 0.000751087 0.00037554 
588 0.526084 0.300712 0.108486 0.040685 0.0126489 0.00456537 0.0020274 0.00157932 0.00141475 0.00179688 
589 0.607845 0.151716 0.116709 0.0513752 0.0293973 0.0297571 0.0084045 0.00214454 0.00131843 0.00133328 
590 0.539688 0.276081 0.0891329 0.0504009 0.0305937 0.00565677 0.00251156 0.00195647 0.0017526 0.00222598 
591 0.595795 0.141866 0.120423 0.075543 0.0410689 0.0132186 0.00769397 0.00196331 0.00120701 0.00122061 
592 0.447669 0.227938 0.183943 0.0600389 0.0495617 0.0170874 0.00810332 0.00208951 0.000551103 0.00301877 
593 0.449215 0.236067 0.178452 0.04968 0.0566568 0.0165774 0.00786143 0.00202713 0.000534652 0.00292866 
594 0.160928 0.503814 0.116188 0.0913159 0.0531296 0.0376858 0.0221898 0.00376515 0.00725675 0.00372766 
595 0.372016 0.11396 0.274243 0.092284 0.113096 0.0173949 0.0129815 0.00154636 0.00247835 0 
596 0.637918 0.202841 0.126385 0.00842821 0.0158896 0.00520605 0.00193456 0 0.000931728 0.00046586 
597 0.61955 0.147187 0.113388 0.0645972 0.0284976 0.0139733 0.00815331 0.00208052 0.00127907 0.00129348 
598 0.317844 0.170465 0.343424 0.0331089 0.0287355 0.0858508 0.00508855 0.0154833 0 0 
599 0.35325 0.117383 0.282429 0.0950096 0.107271 0.0122187 0.0278935 0.00199265 0.00255233 0 
600 0.446993 0.250981 0.119168 0.0581778 0.0773351 0.0128857 0.0287553 0.000587832 0.0018921 0.00322376 
601 0.491921 0.231576 0.109098 0.0532614 0.0848842 0.0117933 0.0122472 0.000535275 0.0017322 0.00295133 
602 0.631595 0.151342 0.105362 0.0463804 0.0267478 0.0266558 0.00758713 0.00193604 0.00119025 0.00120365 
603 0.213519 0.171785 0.0805238 0.0804741 0.384469 4.26657e-05 0.0518889 0 0.0172973 0 
604 0.619547 0.14719 0.113244 0.0647481 0.0284903 0.0139733 0.00815331 0.00208052 0.00127907 0.00129348 
605 0.526617 0.283483 0.0918755 0.0519517 0.0164964 0.0208695 0.00258884 0.00201667 0.00180653 0.00229447 
606 0.226534 0.520909 0.0836514 0.0695409 0.041323 0.0293111 0.0172587 0.00292845 0.00564414 0.00289929 
607 0.441979 0.245638 0.137314 0.0705958 0.0739233 0.0123136 0.0127875 0.000558891 0.00180862 0.00308153 
608 0.169428 0.512838 0.0908467 0.0934131 0.0555085 0.0393732 0.0231833 0.00393374 0.00758168 0.00389457 
609 0.159259 0.49856 0.0929273 0.0962873 0.0572164 0.0414223 0.0381727 0.00432567 0.00781497 0.0040144 
610 0.638085 0.186457 0.105853 0.0403653 0.0190194 0.00623148 0.00231561 0 0.00111525 0.000557621 
611 0.637068 0.142811 0.106846 0.0470374 0.0408911 0.0132609 0.00769397 0.00196331 0.00120701 0.00122061 
612 0.457603 0.370041 0.102594 0.0438568 0.0136345 0.00492112 0.00218538 0.00170239 0.00152499 0.00193689 
613 0.706203 0.117709 0.134575 0.00611002 0.011309 0.0216274 0.00147245 0 0.000663122 0.000331558 
614 0.490066 0.217784 0.188262 0.043112 0.0353933 0.0140593 0.00666729 0.00171921 0.000453439 0.0024838 
615 0.446994 0.266242 0.119291 0.0581778 0.0773351 0.0128819 0.0133777 0.000584686 0.0018921 0.00322376 
616 0.447669 0.243322 0.183935 0.0512076 0.0430165 0.0170874 0.00810332 0.00208951 0.000551103 0.00301877 
617 0.159259 0.513945 0.0929273 0.0962873 0.0572164 0.0405847 0.0238967 0.00405478 0.00781497 0.0040144 
618 0.333371 0.121036 0.306435 0.0979391 0.110572 0.0125939 0.0137804 0.00164152 0.00263086 0 
619 0.333371 0.120973 0.291119 0.0979333 0.125941 0.0126097 0.0137804 0.00164152 0.00263086 0 
620 0.447669 0.227938 0.18396 0.0665674 0.0430165 0.0170874 0.00810332 0.00208951 0.000551103 0.00301877 
621 0.533751 0.285192 0.102051 0.0496724 0.0154391 0.00557244 0.00247462 0.0019277 0.00172683 0.00219325 
622 0.447669 0.227938 0.183954 0.066573 0.0430166 0.0170874 0.00810332 0.00208951 0.000551103 0.00301877 
623 0.446993 0.251055 0.134479 0.0581779 0.0773351 0.0128819 0.0133777 0.000584686 0.0018921 0.00322376 
624 0.619551 0.147187 0.128151 0.0498416 0.0284903 0.0139733 0.00815331 0.00208052 0.00127907 0.00129348 
625 0.474603 0.235468 0.176319 0.0469253 0.0388343 0.0154262 0.0073155 0.00188636 0.000497523 0.00272528 
626 0.159259 0.49856 0.0929273 0.0962916 0.0725944 0.040587 0.0238967 0.00405478 0.00781497 0.0040144 
627 0.902363 0.0606228 0.0109911 0.00273516 0.0201226 0.0022932 0.000291829 0.000580204 5.51036e-07 0 
628 0.911486 0.0550977 0.00992253 0.00246883 0.00427775 0.00207025 0.000295035 0.0143549 2.66548e-05 0 
629 0.581028 0.15919 0.141448 0.0491712 0.0284925 0.0280525 0.00803341 0.00204993 0.00126026 0.00127446 
630 0.897965 0.0547296 0.0377003 0.00246883 0.00427775 0.00207025 0.000263457 0.000523795 4.97463e-07 0 
631 0.456037 0.224484 0.181148 0.0506051 0.0573429 0.0168285 0.00798054 0.00205785 0.000542753 0.00297303 
632 0.829636 0.140932 0.012629 0.0153558 0.000823983 0.000244161 0.000126881 4.53889e-05 0 0.000206764 
633 0.607242 0.152361 0.125505 0.0477056 0.0273039 0.0276254 0.00780407 0.00199136 0.00122426 0.00123804 
634 0.46142 0.23302 0.18773 0.0482451 0.0405227 0.0160969 0.00763356 0.00196838 0.000519155 0.00284377 
635 0.525823 0.275021 0.0893554 0.0800291 0.0156695 0.00565561 0.00251156 0.00195647 0.0017526 0.00222598 
636 0.891959 0.057954 0.0105451 0.0173472 0.0191691 0.00219203 0.000278955 0.000554606 5.26726e-07 0 
637 0.503961 0.305766 0.113509 0.0482685 0.014998 0.00541323 0.00240392 0.00187262 0.00167749 0.00213058 
638 0.602202 0.180321 0.118287 0.0470336 0.0268852 0.0131861 0.00769397 0.00196331 0.00120701 0.00122061 
639 0.616081 0.142925 0.112716 0.0601191 0.041282 0.0144411 0.00791698 0.00202022 0.001242 0.00125599 
640 0.770003 0.21661 0.0113169 0.000773348 0.000738374 0.000218794 0.000113698 4.06732e-05 0 0.000185282 
641 0.447669 0.227938 0.183935 0.0512248 0.0582407 0.0172307 0.00810332 0.00208951 0.000551103 0.00301877 
642 0.572018 0.278703 0.0785998 0.0444323 0.0138139 0.00498587 0.00221414 0.00172479 0.00154506 0.00196238 
643 0.456009 0.224512 0.181148 0.0504916 0.0574534 0.0168315 0.00798054 0.00205785 0.000542753 0.00297303 
644 0.553725 0.274837 0.0829486 0.0607648 0.0146015 0.00526286 0.00233714 0.00182061 0.00163089 0.0020714 
645 0.447669 0.227938 0.183935 0.0512076 0.0430707 0.0324178 0.00810332 0.00208951 0.000551103 0.00301877 
646 0.43378 0.244941 0.211412 0.0449848 0.0377847 0.0150092 0.00711778 0.00183538 0.000484077 0.00265162 
647 0.607845 0.155051 0.128404 0.0517301 0.029367 0.0144032 0.00840418 0.00214454 0.00131843 0.00133328 
648 0.465194 0.214725 0.173272 0.0482599 0.0694875 0.0160969 0.00763356 0.00196838 0.000519155 0.00284377 
649 0.159259 0.49856 0.0931944 0.111342 0.0572791 0.0405847 0.0238967 0.00405478 0.00781497 0.0040144 
650 0.555948 0.264758 0.0996409 0.0422189 0.0131232 0.00473657 0.00210343 0.00163855 0.0014678 0.0143643 
651 0.529232 0.298634 0.0907464 0.0511645 0.015907 0.0057413 0.00254961 0.00198612 0.00177916 0.00225971 
652 0.345848 0.201024 0.153503 0.194966 0.0333199 0.0181333 0.0443628 0 0 0.00884296 
653 0.32832 0.119262 0.305304 0.108035 0.108897 0.012403 0.0135716 0.00161665 0.002591 0 
654 0.509139 0.28297 0.101216 0.0695083 0.0234732 0.00549168 0.00243876 0.00189976 0.0017018 0.00216146 
655 0.171961 0.491042 0.0915193 0.0948284 0.0573112 0.0541596 0.0235346 0.00399334 0.00769656 0.00395358 
656 0.289813 0.163771 0.399643 0.0316935 0.0274962 0.0678935 0.00487047 0.0148198 0 0 
657 0.333371 0.120973 0.291119 0.0979713 0.125918 0.0125939 0.0137804 0.00164152 0.00263086 0 
658 0.624671 0.178514 0.101226 0.00966568 0.0644403 0.0176677 0.00221493 0 0.00106676 0.000533376 
659 0.446993 0.250981 0.11927 0.073461 0.0773351 0.0128819 0.0133777 0.000584686 0.0018921 0.00322376 
660 0.624892 0.159982 0.11156 0.0491087 0.0280714 0.0137678 0.00803341 0.00204993 0.00126026 0.00127446 
661 0.58281 0.29276 0.0751144 0.0310158 0.00963173 0.00347638 0.0015438 0.0012026 0.00107729 0.00136826 
662 0.43365 0.243491 0.14545 0.0713745 0.0750281 0.0124973 0.0129784 0.000567232 0.00183562 0.00312752 
663 0.503386 0.300386 0.102736 0.0641582 0.0154391 0.00557244 0.00247462 0.0019277 0.00172683 0.00219325 
664 0.1719 0.491103 0.0919326 0.109536 0.0563801 0.0399697 0.0235346 0.00399334 0.00769656 0.00395358 
665 0.607845 0.152162 0.131648 0.0513754 0.029367 0.0144032 0.00840418 0.00214454 0.00131843 0.00133328 
666 0.447669 0.227938 0.183935 0.0665648 0.0430438 0.0170874 0.00810332 0.00208951 0.000551103 0.00301877 
667 0.422291 0.240531 0.189199 0.0658342 0.0554091 0.0148091 0.00702288 0.00181091 0.000477622 0.00261627 
668 0.44544 0.261549 0.120946 0.066032 0.0750266 0.0124973 0.0129784 0.000567232 0.00183562 0.00312752 
669 0.333371 0.120973 0.294363 0.110074 0.110572 0.0125939 0.0137804 0.00164152 0.00263086 0 
670 0.345848 0.201024 0.153503 0.210338 0.0333319 0.0178179 0.0292937 0 0 0.00884296 
671 0.429808 0.230697 0.195551 0.0586302 0.0411187 0.0163336 0.00774612 0.0167029 0.000526794 0.00288559 
672 0.663383 0.207589 0.0973745 0.00811992 0.0153083 0.00501558 0.00186379 0 0.00089764 0.000448817 
673 0.613786 0.149418 0.127043 0.0536447 0.028922 0.014185 0.00827684 0.00211205 0.00129845 0.00131308 
674 0.607845 0.151716 0.116709 0.0513752 0.0293707 0.0297841 0.00840418 0.00214454 0.00131843 0.00133328 
675 0.346862 0.114474 0.328582 0.0860379 0.0971241 0.0110622 0.0121044 0.00144187 0.00231089 0 
676 0.609729 0.161893 0.118155 0.059497 0.0261487 0.0128248 0.00748317 0.00190952 0.00117394 0.00118716 
677 0.447669 0.227938 0.199319 0.0512083 0.0430165 0.0170874 0.00810332 0.00208951 0.000551103 0.00301877 
678 0.598635 0.149533 0.131046 0.0646762 0.0289244 0.014185 0.00827684 0.00211205 0.00129845 0.00131308 
679 0.51809 0.300388 0.102524 0.0496639 0.0154391 0.00557244 0.00247462 0.0019277 0.00172683 0.00219325 
680 0.460389 0.28854 0.149449 0.0416062 0.0349509 0.0138835 0.00658395 0.00169772 0.000447771 0.00245275 
681 0.553993 0.267119 0.100021 0.0499591 0.0152153 0.00549168 0.00243876 0.00189976 0.0017018 0.00216146 
682 0.446993 0.250981 0.119172 0.0735585 0.0773351 0.0128819 0.0133777 0.000584686 0.0018921 0.00322376 
683 0.53127 0.272505 0.120479 0.0480413 0.0145814 0.00526286 0.00233714 0.00182061 0.00163089 0.0020714 
684 0.517612 0.304917 0.0865275 0.0624474 0.014998 0.00541323 0.00240392 0.00187262 0.00167749 0.00213058 
685 0.405211 0.219654 0.257776 0.0550044 0.0363126 0.0144245 0.00684047 0.00176387 0.000465217 0.00254831 
686 0.513226 0.313522 0.0945904 0.047431 0.0195655 0.0046781 0.00207746 0.00161832 0.00144968 0.00184124 
687 0.638085 0.186518 0.136069 0.0100891 0.0190194 0.00623148 0.00231561 0 0.00111525 0.000557621 
688 0.171997 0.491108 0.106564 0.0948329 0.0563495 0.0399697 0.0235346 0.00399334 0.00769656 0.00395358 
689 0.607845 0.151716 0.116724 0.0667444 0.029367 0.0144032 0.00840418 0.00214454 0.00131843 0.00133328 
690 0.54583 0.272649 0.0878221 0.0570103 0.0227943 0.00557244 0.00247462 0.0019277 0.00172683 0.00219325 
691 0.533766 0.279213 0.105612 0.0511861 0.015907 0.0057413 0.00254961 0.00198612 0.00177916 0.00225971 
692 0.159259 0.49856 0.108312 0.0962873 0.0572164 0.0405847 0.0238967 0.00405478 0.00781497 0.0040144 
693 0.598635 0.149417 0.114941 0.0505969 0.0441454 0.0292643 0.00827712 0.00211205 0.00129845 0.00131308 
694 0.447669 0.227938 0.184084 0.0662856 0.0431741 0.0170874 0.00810332 0.00208951 0.000551103 0.00301877 
695 0.456682 0.24208 0.132812 0.0639528 0.0739233 0.0123136 0.0127875 0.000558891 0.00180862 0.00308153 
696 0.446993 0.250981 0.119168 0.0581778 0.0773351 0.0128998 0.0287416 0.000587481 0.0018921 0.00322376 
697 0.663225 0.189387 0.107455 0.0102435 0.019312 0.00632735 0.00235124 0 0.00113241 0.000566199 
698 0.32832 0.11914 0.287104 0.111205 0.108897 0.0127894 0.0283367 0.00161665 0.002591 0 
699 0.242935 0.184782 0.0863589 0.0852366 0.311949 4.59745e-05 0.0701415 0 0.0185508 0 
700 0.456037 0.224484 0.181148 0.0504945 0.0574528 0.0168293 0.00798054 0.00205785 0.000542753 0.00297303 
701 0.586662 0.27614 0.104341 0.00842822 0.0158896 0.00520605 0.00193456 0 0.000931728 0.00046586 
702 0.333371 0.120973 0.291164 0.112686 0.111159 0.0125939 0.0137804 0.00164152 0.00263086 0 
703 0.446993 0.250981 0.119168 0.0600988 0.0907815 0.0128992 0.0133777 0.000584686 0.0018921 0.00322376 
704 0.156846 0.491006 0.0915194 0.0953157 0.0860504 0.0400846 0.0235346 0.00399334 0.00769656 0.00395358 
705 0.440886 0.238443 0.197492 0.0504318 0.0423647 0.0168285 0.00798054 0.00205785 0.000542753 0.00297303 
706 0.53379 0.293819 0.0910031 0.0511645 0.015907 0.0057413 0.00254961 0.00198612 0.00177916 0.00225971 
707 0.647902 0.189326 0.12284 0.0102435 0.019312 0.00632735 0.00235124 0 0.00113241 0.000566199 
708 0.53625 0.263511 0.0993659 0.0735471 0.0143831 0.00519077 0.00230513 0.00179567 0.00160855 0.00204302 
709 0.473584 0.235321 0.173272 0.0482391 0.0405227 0.0160969 0.00763356 0.00196838 0.000519155 0.00284377 
710 0.526783 0.298701 0.0918762 0.0519517 0.0161517 0.00582963 0.00258884 0.00201667 0.00180653 0.00229447 
711 0.445629 0.251993 0.124978 0.0713667 0.0750267 0.0124973 0.0129784 0.000567232 0.00183562 0.00312753 
712 0.619548 0.14719 0.113225 0.0498416 0.0284903 0.0161137 0.0207795 0.00223932 0.00127907 0.00129348 
713 0.448036 0.244029 0.118557 0.0684201 0.089952 0.0124973 0.0129784 0.000567232 0.00183562 0.00312752 
714 0.607845 0.151716 0.116709 0.0513752 0.029367 0.0144032 0.0237888 0.00214454 0.00131843 0.00133328 
715 0.607845 0.151716 0.116709 0.0513752 0.0447516 0.0144032 0.00840418 0.00214454 0.00131843 0.00133328 
716 0.463501 0.243489 0.115611 0.0564412 0.0899519 0.0124973 0.0129784 0.000567232 0.00183562 0.00312752 
717 0.613786 0.149417 0.114941 0.0657482 0.028922 0.014185 0.00827684 0.00211205 0.00129845 0.00131308 
718 0.523751 0.199643 0.173613 0.0496447 0.0310674 0.0123409 0.0058524 0.00150909 0.000398019 0.00218022 
719 0.436086 0.268668 0.12779 0.0673237 0.0708732 0.0117933 0.0122472 0.000535276 0.0017322 0.00295133 
720 0.440221 0.247178 0.117363 0.0711126 0.0774986 0.0126867 0.013175 0.000575885 0.0170149 0.00317491 
721 0.88869 0.0748558 0.0259761 0.00269326 0.00466663 0.00225846 0.000287408 0.000571413 5.42687e-07 0 
722 0.613776 0.149427 0.114941 0.0506564 0.0440139 0.014185 0.00827684 0.00211205 0.00129845 0.00131308 
723 0.549738 0.298982 0.0796586 0.0450248 0.0139981 0.00505235 0.00224366 0.00174778 0.00156566 0.00198854 
724 0.626573 0.24031 0.097066 0.00924762 0.0174344 0.00571219 0.00212265 0 0.00102231 0.000511152 
725 0.45537 0.24718 0.117367 0.0724431 0.0761634 0.0126867 0.013175 0.000575827 0.00186343 0.00317491 
726 0.452135 0.240362 0.192998 0.0468802 0.0393813 0.0156434 0.00741853 0.00191293 0.000504531 0.00276366 
727 0.472035 0.217883 0.179919 0.0594852 0.0411885 0.0163336 0.00774582 0.00199732 0.000526789 0.00288559 
728 0.531845 0.263249 0.113971 0.0624395 0.014998 0.00541323 0.00240392 0.00187262 0.00167749 0.00213058 
729 0.607845 0.151716 0.116709 0.0513752 0.0430541 0.0161007 0.00840418 0.00214454 0.00131843 0.00133328 
730 0.428672 0.297333 0.113911 0.0556111 0.0739233 0.0123136 0.0127875 0.000558891 0.00180862 0.00308153 
731 0.447669 0.227938 0.199315 0.0512118 0.0430165 0.0170874 0.00810332 0.00208951 0.000551103 0.00301877 
732 0.447669 0.227938 0.183939 0.0665882 0.0430165 0.0170874 0.00810332 0.00208951 0.000551103 0.00301877 
733 0.446993 0.250981 0.119168 0.0581991 0.0926984 0.0128819 0.0133777 0.000584686 0.0018921 0.00322376 
734 0.56843 0.245291 0.116518 0.0438553 0.0136345 0.00492112 0.00218538 0.00170239 0.00152499 0.00193689 
735 0.354481 0.208698 0.152441 0.176011 0.0301242 0.029931 0.0264458 0 0 0.0218679 
736 0.637824 0.174079 0.155652 0.00832287 0.015691 0.00514097 0.00191038 0 0.000920081 0.000460037 
737 0.196934 0.195566 0.0916733 0.090482 0.331146 4.85733e-05 0.0590735 0 0.035077 0 
738 0.445615 0.207062 0.234373 0.0462642 0.0388343 0.0154262 0.0073155 0.00188636 0.000497523 0.00272528 
739 0.518638 0.279188 0.0904834 0.0521792 0.0316129 0.0193237 0.00254961 0.00198612 0.00177916 0.00225971 
740 0.449204 0.246292 0.181325 0.0504318 0.0423647 0.0168285 0.00798054 0.00205785 0.000542753 0.00297303 
741 0.32832 0.131626 0.289374 0.0964492 0.11573 0.0202555 0.0140372 0.00161665 0.002591 0 
742 0.440221 0.247776 0.142921 0.0614435 0.0761634 0.0126867 0.013175 0.000575827 0.00186343 0.00317491 
743 0.431922 0.229218 0.212109 0.0599685 0.0389323 0.0154262 0.0073155 0.00188636 0.000497523 0.00272528 
744 0.395974 0.247703 0.188578 0.0746168 0.0696744 0.00952007 0.00977023 0.000427018 0.00138187 0.00235443 
745 0.578648 0.183803 0.122657 0.0619903 0.0272701 0.0133744 0.00780388 0.00199136 0.00122426 0.00123804 
746 0.647919 0.204694 0.107455 0.0102435 0.019312 0.00632735 0.00235124 0 0.00113241 0.000566199 
747 0.333371 0.121346 0.306113 0.09795 0.110572 0.0125939 0.0137804 0.00164152 0.00263086 0 
748 0.345848 0.201024 0.153503 0.194966 0.0333199 0.0178234 0.0446727 0 0 0.00884296 
749 0.34347 0.121383 0.29955 0.096518 0.108897 0.012403 0.0135716 0.00161665 0.002591 0 
750 0.520666 0.291983 0.111695 0.0475614 0.0147867 0.00533698 0.00237006 0.00184625 0.00165386 0.00210057 
751 0.629662 0.157777 0.102361 0.00854031 0.0930123 0.00527282 0.00195937 0 0.000943673 0.000471833 
752 0.690244 0.13095 0.0849587 0.0540291 0.0205256 0.0100668 0.00587389 0.00149887 0.000921483 0.00093186 
753 0.468986 0.24655 0.12895 0.0540249 0.0718112 0.0119617 0.0124221 0.000542922 0.00175695 0.00299349 
754 0.343472 0.120297 0.300703 0.0964492 0.108897 0.012403 0.0135716 0.00161665 0.002591 0 
755 0.447669 0.227938 0.199319 0.0512076 0.0430165 0.0170874 0.00810332 0.00208951 0.000551103 0.00301877 
756 0.477478 0.237504 0.180094 0.0433688 0.035847 0.0142395 0.00675277 0.00174126 0.000459252 0.00251564 
757 0.616954 0.260565 0.0647224 0.0363103 0.0112888 0.00407447 0.0018094 0.0014095 0.00126263 0.00160366 
758 0.345848 0.201024 0.168888 0.194966 0.0333199 0.0178179 0.0292936 0 0 0.00884296 
759 0.440938 0.239584 0.181148 0.0504318 0.0423657 0.0289167 0.011043 0.00205785 0.000542753 0.00297303 
760 0.292357 0.187525 0.349302 0.0336105 0.0291627 0.0720083 0.00516681 0.0308683 0 0 
761 0.345848 0.201024 0.153503 0.194967 0.0487036 0.0178179 0.0292936 0 0 0.00884296 
762 0.607845 0.151716 0.132094 0.0513752 0.029367 0.0144032 0.00840418 0.00214454 0.00131843 0.00133328 
763 0.587075 0.14459 0.154281 0.0603865 0.0276645 0.0135683 0.00791698 0.00202022 0.001242 0.00125599 
764 0.333371 0.120973 0.291119 0.0985233 0.12536 0.0125999 0.0137804 0.00164152 0.00263086 0 
765 0.658377 0.184217 0.118658 0.0099445 0.0187355 0.00613848 0.00228105 0 0.0010986 0.000549298 
766 0.460029 0.245296 0.12443 0.0687562 0.0718115 0.0119617 0.0124221 0.000542922 0.00175695 0.00299349 
767 0.540748 0.275153 0.103926 0.0504009 0.0156695 0.00565561 0.00251156 0.00195647 0.0017526 0.00222598 
768 0.547445 0.17385 0.170023 0.058638 0.0257974 0.0126515 0.00738205 0.00188372 0.00115808 0.00117112 
769 0.44741 0.258413 0.116778 0.0576088 0.0882142 0.0130675 0.0129784 0.000567232 0.00183562 0.00312752 
770 0.447669 0.227938 0.183943 0.0665837 0.0430165 0.0170874 0.00810332 0.00208951 0.000551103 0.00301877 
771 0.463433 0.243556 0.115611 0.0567615 0.0893603 0.0127686 0.0129784 0.000567232 0.00183562 0.00312752 
772 0.345848 0.201024 0.153503 0.194966 0.0333224 0.0332 0.0292937 0 0 0.00884296 
773 0.451157 0.231036 0.199982 0.0482397 0.0405227 0.0160969 0.00763356 0.00196838 0.000519155 0.00284377 
774 0.594267 0.257665 0.0805434 0.0456 0.0115417 0.00416402 0.00184917 0.00144048 0.00129038 0.00163891 
775 0.62503 0.145138 0.11156 0.0504108 0.0414744 0.0137685 0.00803341 0.00204993 0.00126026 0.00127446 
776 0.510897 0.275084 0.13224 0.0520069 0.0156695 0.00565561 0.00251156 0.00195647 0.0017526 0.00222598 
777 0.170564 0.528498 0.081999 0.0980902 0.0502577 0.0356487 0.0209903 0.00356163 0.0068645 0.00352616 
778 0.478071 0.213146 0.19169 0.0434923 0.0478918 0.0142395 0.00675277 0.00174126 0.000459252 0.00251564 
779 0.613786 0.149417 0.114941 0.0505968 0.028922 0.014185 0.00828247 0.0172579 0.00129846 0.00131308 
780 0.43365 0.27334 0.115611 0.0713101 0.075083 0.0124973 0.0129784 0.000567232 0.00183562 0.00312752 
781 0.63977 0.212605 0.108297 0.0100883 0.0190194 0.00623148 0.00231561 0 0.00111525 0.000557621 
782 0.448531 0.238296 0.188098 0.0512076 0.0430165 0.0170874 0.00810332 0.00208951 0.000551103 0.00301877 
783 0.83182 0.153454 0.0124485 0.000850683 0.000812211 0.000240673 0.000125068 4.47405e-05 0 0.000203811 
784 0.446993 0.250981 0.119168 0.0581836 0.0926738 0.012922 0.0133777 0.000584686 0.0018921 0.00322376 
785 0.58985 0.161975 0.121993 0.0593775 0.040024 0.0139748 0.00815331 0.00208052 0.00127907 0.00129348 
786 0.5897 0.177027 0.128161 0.0498416 0.0284903 0.0139733 0.00815331 0.00208052 0.00127907 0.00129348 
787 0.60521 0.176453 0.113225 0.0498416 0.0284903 0.0139733 0.00815331 0.00208052 0.00127907 0.00129348 
788 0.526617 0.283483 0.0919582 0.0672535 0.0161517 0.00582963 0.00258884 0.00201667 0.00180653 0.00229447 
789 0.45537 0.261778 0.117916 0.0572963 0.0761634 0.0126867 0.013175 0.000575827 0.00186343 0.00317491 
790 0.905277 0.0588132 0.010663 0.00265388 0.0195215 0.00222475 0.000283118 0.000562884 5.34587e-07 0 
791 0.46466 0.219832 0.199346 0.0475717 0.0399439 0.0158669 0.00752451 0.00194026 0.000511738 0.00280314 
792 0.345848 0.201024 0.153503 0.194966 0.0333199 0.0178179 0.0446783 0 0 0.00884296 
793 0.196934 0.195566 0.0916733 0.090482 0.331146 4.85733e-05 0.0744581 0 0.0196924 0 
794 0.296855 0.17571 0.353991 0.034128 0.0449955 0.0731162 0.00524512 0.0159597 0 0 
795 0.464106 0.221184 0.193369 0.0496791 0.0417324 0.0165774 0.00786143 0.00202713 0.000534652 0.00292866 
796 0.609067 0.165877 0.116709 0.0513752 0.029367 0.0144032 0.00840418 0.00214454 0.00131843 0.00133328 
797 0.526388 0.289381 0.0892356 0.0652237 0.0156695 0.00565561 0.00251156 0.00195647 0.0017526 0.00222598 
798 0.540748 0.275021 0.0893824 0.0643265 0.0164198 0.00565561 0.00251156 0.00195647 0.0017526 0.00222598 
799 0.607845 0.151716 0.116709 0.0667588 0.0293679 0.0144032 0.00840418 0.00214454 0.00131843 0.00133328 
800 0.447669 0.227938 0.199319 0.0512076 0.0430165 0.0170874 0.00810332 0.00208951 0.000551103 0.00301877 
801 0.885671 0.0676722 0.00979168 0.0298209 0.00422542 0.00204189 0.000259848 0.00051662 4.90648e-07 0 
802 0.625143 0.145025 0.11156 0.0491093 0.0427766 0.0137678 0.00803341 0.00204993 0.00126026 0.00127446 
803 0.526617 0.283483 0.0925626 0.0666492 0.0161517 0.00582963 0.00258884 0.00201667 0.00180653 0.00229447 
805 0.560429 0.263236 0.0995978 0.0482408 0.014998 0.00541323 0.00240392 0.00187262 0.00167749 0.00213058 
806 0.333371 0.120973 0.306504 0.097933 0.110572 0.0125939 0.0137804 0.00164152 0.00263086 0 
807 0.441312 0.239208 0.181149 0.0519778 0.0548631 0.0179356 0.00798054 0.00205785 0.000542753 0.00297303 
808 0.5897 0.147244 0.143018 0.0498878 0.0433696 0.0139742 0.00815331 0.00208052 0.00127907 0.00129348 
809 0.159395 0.513808 0.0929273 0.0962873 0.0572164 0.0405847 0.0238967 0.00405478 0.00781497 0.0040144 
810 0.62374 0.16217 0.103919 0.0594424 0.0261499 0.0128248 0.00748317 0.00190952 0.00117394 0.00118716 
811 0.551071 0.266549 0.092384 0.0626704 0.0143827 0.00519077 0.00230513 0.00179567 0.00160855 0.00204302 
812 0.579599 0.24354 0.0930342 0.0455798 0.0261329 0.00485803 0.00215736 0.00168056 0.00150544 0.00191206 
813 0.381533 0.118617 0.240692 0.0887639 0.147497 0.0094094 0.0102957 0.00122642 0.00196559 0 
814 0.347981 0.115731 0.292177 0.0946935 0.120123 0.0120383 0.0131724 0.0015691 0.0025148 0 
815 0.819643 0.0532498 0.00965435 0.00240243 0.0981369 0.0161473 0.000256337 0.000509638 4.84018e-07 0 
816 0.280889 0.181377 0.388836 0.0321492 0.0278947 0.0688775 0.00494105 0.0150345 0 0 
817 0.309559 0.112332 0.270325 0.110941 0.168386 0.0116943 0.0127961 0.00152427 0.00244295 0 
818 0.442675 0.262762 0.129626 0.0572977 0.0761634 0.0126867 0.013175 0.000575827 0.00186343 0.00317491 
819 0.541639 0.161235 0.188444 0.0451281 0.0393085 0.0126515 0.00738205 0.00188372 0.00115808 0.00117112 
820 0.578849 0.254351 0.0942108 0.0456332 0.0141873 0.00512062 0.00227398 0.0017714 0.00158682 0.00201542 
821 0.303047 0.110996 0.347597 0.111901 0.0995393 0.0110622 0.0121044 0.00144187 0.00231089 0 
822 0.160197 0.526053 0.0889929 0.0985623 0.0526217 0.037155 0.0218772 0.00371212 0.00715455 0.00367516 
823 0.338345 0.117386 0.297328 0.0950118 0.107271 0.0129347 0.0275776 0.00159252 0.00255233 0 
824 0.548685 0.263379 0.0850928 0.0605587 0.0149084 0.0194057 0.00237006 0.00184625 0.00165386 0.00210057 
825 0.159259 0.49856 0.0929273 0.0962873 0.0614582 0.0517275 0.0238967 0.00405478 0.00781497 0.0040144 
826 0.436227 0.22423 0.181593 0.0883659 0.0405227 0.0160969 0.00763356 0.00196838 0.000519155 0.00284377 
827 0.396096 0.20848 0.262151 0.0700975 0.0367904 0.0146143 0.00693047 0.00178708 0.000471338 0.00258184 
828 0.33573 0.128794 0.297437 0.0989585 0.108897 0.012403 0.0135716 0.00161665 0.002591 0 
829 0.447174 0.259816 0.123237 0.0637407 0.0750266 0.0124973 0.0129784 0.000567232 0.00183562 0.00312752 
830 0.546857 0.222422 0.145156 0.0461705 0.020307 0.00995968 0.0058114 0.00148293 0.000911681 0.000921947 
831 0.625523 0.178067 0.121388 0.0360429 0.0200932 0.00985484 0.00575023 0.00146732 0.000902084 0.000912242 
832 0.519978 0.290127 0.108507 0.0511648 0.015907 0.0057413 0.00254961 0.00198612 0.00177916 0.00225971 
833 0.52727 0.193646 0.188723 0.0370125 0.0310674 0.0123409 0.0058524 0.00150909 0.000398019 0.00218022 
834 0.446993 0.251 0.132557 0.0601546 0.0773351 0.0128819 0.0133777 0.000584686 0.0018921 0.00322376 
835 0.446993 0.250981 0.119168 0.058179 0.0927185 0.0128819 0.0133777 0.000584686 0.0018921 0.00322376 
836 0.486266 0.2638 0.152057 0.0426891 0.0321387 0.0127665 0.0060542 0.00156113 0.000411743 0.0022554 
837 0.433276 0.255889 0.146605 0.0597562 0.0739233 0.0123136 0.0127875 0.000558891 0.00180862 0.00308153 
838 0.53061 0.264483 0.0968243 0.0640437 0.0162552 0.00541323 0.00240392 0.00200085 0.015835 0.00213058 
839 0.613786 0.149417 0.114941 0.0505968 0.0440735 0.014185 0.00827684 0.00211205 0.00129845 0.00131308 
840 0.333371 0.120973 0.291119 0.100819 0.12307 0.012594 0.0137804 0.00164152 0.00263086 0 
841 0.42849 0.267947 0.128538 0.0697117 0.0747626 0.0123136 0.0127875 0.000558891 0.00180862 0.00308153 
842 0.524264 0.288667 0.110204 0.0487701 0.0147867 0.00533698 0.00237006 0.00184625 0.00165386 0.00210057 
843 0.479688 0.214724 0.173272 0.0627318 0.0405227 0.0160969 0.00763356 0.00196838 0.000519155 0.00284377 
844 0.533785 0.279193 0.0904834 0.0511645 0.0159069 0.0057413 0.00437277 0.0153145 0.00177917 0.00225971 
845 0.540711 0.289958 0.0891584 0.0504009 0.0156695 0.00565561 0.00251156 0.00195647 0.0017526 0.00222598 
846 0.622998 0.165805 0.102515 0.0451269 0.0393088 0.0126515 0.00738205 0.00188372 0.00115808 0.00117112 
847 0.607845 0.151716 0.116709 0.0514058 0.0446216 0.0145026 0.00840418 0.00214454 0.00131843 0.00133328 
848 0.526617 0.298868 0.0918755 0.0519517 0.0161517 0.00582963 0.00258884 0.00201667 0.00180653 0.00229447 
849 0.647902 0.20471 0.107455 0.0102435 0.019312 0.00632735 0.00235124 0 0.00113241 0.000566199 
850 0.159259 0.49856 0.0929273 0.111672 0.0572164 0.0405847 0.0238967 0.00405478 0.00781497 0.0040144 
851 0.526617 0.283483 0.0918755 0.0522348 0.0312532 0.00582963 0.00258884 0.00201667 0.00180653 0.00229447 
852 0.591668 0.191277 0.118532 0.0470919 0.0265118 0.0130029 0.00758711 0.00193604 0.00119025 0.00120365 
853 0.446993 0.250981 0.119168 0.0581893 0.0927083 0.0128819 0.0133777 0.000584686 0.0018921 0.00322376 
854 0.358042 0 0.184123 0.368643 0.0891908 0 0 0 0 0 
855 0.479729 0.229949 0.191178 0.0405914 0.0340984 0.0135449 0.00642336 0.00165632 0.00043685 0.00239293 
856 0.446993 0.250981 0.134553 0.0581778 0.0773351 0.0128819 0.0133777 0.000584686 0.0018921 0.00322376 
857 0.647902 0.189326 0.107455 0.0102435 0.0193149 0.021709 0.00235124 0 0.00113241 0.000566199 
858 0.429976 0.254457 0.185174 0.0615872 0.0401601 0.0158669 0.00752451 0.00194026 0.000511738 0.00280314 
859 0.338315 0.128545 0.286202 0.0952602 0.121555 0.0126087 0.013369 0.00159252 0.00255233 0 
860 0.345848 0.201024 0.153503 0.194966 0.0333199 0.017818 0.0446782 0 0 0.00884296 
861 0.608924 0.174915 0.125831 0.0428541 0.0244725 0.0120027 0.00700348 0.00178712 0.00109869 0.00111106 
862 0.879 0.0612712 0.0365396 0.00245243 0.00428059 0.0156619 0.000277016 0.00051662 4.90648e-07 0 
863 0.607845 0.151716 0.116709 0.0514192 0.0447075 0.0144033 0.00840418 0.00214454 0.00131843 0.00133328 
864 0.479663 0.214862 0.187651 0.0482394 0.0405227 0.0160969 0.00763356 0.00196838 0.000519155 0.00284377 
865 0.440886 0.224484 0.194421 0.0651264 0.0446997 0.0168285 0.00798054 0.00205785 0.000542753 0.00297303 
866 0.469469 0.250074 0.110792 0.0665921 0.0733957 0.0119617 0.0124221 0.000542922 0.00175695 0.00299349 
867 0.446993 0.250981 0.119168 0.0581806 0.0927169 0.0128819 0.0133777 0.000584686 0.0018921 0.00322376 
868 0.159259 0.49856 0.0929273 0.0962873 0.0572184 0.0559673 0.0238967 0.00405478 0.00781497 0.0040144 
869 0.157471 0.495637 0.0929305 0.120487 0.0555085 0.0393732 0.0231833 0.00393374 0.00758168 0.00389457 
870 0.613786 0.149417 0.114941 0.0505968 0.028922 0.014185 0.00828471 0.0172553 0.00129886 0.00131308 
871 0.456031 0.22449 0.181196 0.0655349 0.0423647 0.0168285 0.00798054 0.00205785 0.000542753 0.00297303 
872 0.159259 0.513898 0.0929738 0.0962873 0.0572164 0.0405847 0.0238967 0.00405478 0.00781497 0.0040144 
873 0.446993 0.250981 0.119168 0.0735624 0.0773351 0.0128819 0.0133777 0.000584686 0.0018921 0.00322376 
874 0.643487 0.183676 0.119224 0.02481 0.0187359 0.00613848 0.00228105 0 0.0010986 0.000549298 
875 0.623196 0.151749 0.116709 0.0513752 0.029367 0.0144032 0.00840418 0.00214454 0.00131843 0.00133328 
876 0.625145 0.145023 0.11156 0.0516636 0.0402223 0.0137678 0.00803341 0.00204993 0.00126026 0.00127446 
877 0.61397 0.152768 0.113225 0.0498416 0.0284903 0.0139733 0.00815331 0.00256725 0.0157177 0.00129348 
878 0.159259 0.49856 0.0993133 0.105286 0.0572164 0.0405847 0.0238967 0.00405478 0.00781497 0.0040144 
879 0.647902 0.189326 0.107455 0.0102435 0.019312 0.00641244 0.0176508 0 0.00113241 0.0005662 
880 0.607845 0.151716 0.116709 0.0513752 0.0293682 0.0294652 0.00872556 0.00214454 0.00131843 0.00133328 
881 0.448288 0.222585 0.192861 0.0566886 0.0496482 0.0165774 0.00786143 0.00202713 0.000534652 0.00292866 
882 0.515114 0.272402 0.120363 0.0522716 0.026352 0.00541323 0.00240392 0.00187262 0.00167749 0.00213058 
883 0.33337 0.123821 0.296031 0.11179 0.105694 0.0120383 0.0131724 0.0015691 0.0025148 0 
884 0.482744 0.301571 0.128515 0.0598445 0.0143816 0.00519077 0.00230513 0.00179567 0.00160855 0.00204302 
885 0.159259 0.49856 0.0929957 0.111601 0.0572194 0.0405847 0.0238967 0.00405478 0.00781497 0.0040144 
886 0.613872 0.20101 0.149067 0.00924762 0.0174344 0.00571219 0.00212265 0 0.00102231 0.000511152 
887 0.451325 0.237182 0.187245 0.0458544 0.0464762 0.0198283 0.00711778 0.00183538 0.000484077 0.00265162 
888 0.656163 0.192642 0.113562 0.0100642 0.0179326 0.0058754 0.00218329 0 0.00105152 0.000525757 
889 0.466501 0.237177 0.147198 0.0518061 0.06886 0.0114702 0.0119116 0.00052061 0.00168474 0.00287047 
890 0.55759 0.289097 0.0807242 0.0456332 0.0141873 0.00512062 0.00227398 0.0017714 0.00158682 0.00201542 
891 0.539078 0.263014 0.111936 0.0460436 0.015335 0.0165232 0.00276923 0.00174778 0.00156566 0.00198854 
892 0.457875 0.247386 0.110657 0.0540672 0.0860519 0.0119815 0.0266829 0.000548117 0.00175695 0.00299349 
893 0.517573 0.291825 0.110998 0.0511086 0.014998 0.00541323 0.00240392 0.00187262 0.00167749 0.00213058 
894 0.53379 0.279188 0.0919178 0.0648817 0.015907 0.0057413 0.00254961 0.00198612 0.00177916 0.00225971 
895 0.447669 0.227938 0.198407 0.05212 0.0430165 0.0170874 0.00810332 0.00208951 0.000551103 0.00301877 
896 0.353271 0.117362 0.282429 0.0950096 0.117424 0.0169912 0.013369 0.00159252 0.00255233 0 
897 0.525814 0.283417 0.107977 0.0530198 0.0156695 0.00565561 0.00251156 0.00195647 0.0017526 0.00222598 
898 0.607845 0.151716 0.116709 0.0667597 0.029367 0.0144032 0.00840418 0.00214454 0.00131843 0.00133328 
899 0.663538 0.187251 0.112435 0.00959546 0.01768 0.00579265 0.00215254 0 0.00103671 0.000518352 
900 0.838024 0.134156 0.011937 0.000818815 0.0142558 0.000449311 0.000119928 4.29018e-05 0 0.000195435 
901 0.798228 0.17237 0.0130729 0.000838731 0.0148852 0.000237284 0.000123307 4.41103e-05 0 0.00020094 
902 0.607845 0.152589 0.12462 0.0579754 0.029367 0.0144032 0.00840418 0.00214454 0.00131843 0.00133328 
903 0.320766 0.142838 0.307792 0.0936153 0.105694 0.0120383 0.0131724 0.0015691 0.0025148 0 
904 0.333371 0.12104 0.306437 0.097933 0.110572 0.0125939 0.0137804 0.00164152 0.00263086 0 
905 0.439386 0.308568 0.106903 0.0504208 0.0670238 0.0111643 0.011594 0.000506727 0.00163982 0.00279392 
906 0.599051 0.164152 0.130092 0.0505977 0.028922 0.014185 0.00827684 0.00211205 0.00129845 0.00131308 
907 0.333371 0.120973 0.306504 0.097933 0.110572 0.0125939 0.0137804 0.00164152 0.00263086 0 
908 0.905912 0.0734123 0.0105062 0.00261405 0.00452938 0.00219203 0.000278955 0.000554606 5.26726e-07 0 
909 0.456037 0.224484 0.196299 0.0504318 0.0423647 0.0168285 0.00798054 0.00205785 0.000542753 0.00297303 
910 0.456035 0.224486 0.181148 0.0655811 0.0423666 0.0168285 0.00798054 0.00205785 0.000542753 0.00297303 
911 0.613786 0.149417 0.114941 0.0505968 0.0294133 0.0266803 0.0104418 0.00211205 0.00129845 0.00131308 
912 0.607845 0.151716 0.116718 0.0665819 0.0295361 0.0144032 0.00840418 0.00214454 0.00131843 0.00133328 
913 0.447669 0.227938 0.183935 0.0512077 0.0430165 0.032472 0.00810333 0.00208951 0.000551103 0.00301877 
914 0.526617 0.283483 0.0918755 0.0519517 0.0161517 0.00584152 0.017917 0.00206128 0.00180653 0.00229447 
915 0.607845 0.151716 0.116709 0.0513764 0.0447503 0.0144032 0.00840418 0.00214454 0.00131843 0.00133328 
916 0.532846 0.285632 0.102528 0.0496597 0.0154391 0.00557244 0.00247462 0.0019277 0.00172683 0.00219325 
917 0.546991 0.282459 0.101041 0.0439365 0.0134597 0.00485803 0.00215736 0.00168056 0.00150544 0.00191206 
918 0.53379 0.279188 0.090497 0.0663024 0.015907 0.0057413 0.00254961 0.00198612 0.00177916 0.00225971 
919 0.333371 0.120973 0.291119 0.0979805 0.125872 0.0126306 0.0137804 0.00164152 0.00263086 0 
920 0.625146 0.145023 0.126265 0.0491087 0.0280714 0.0137678 0.00803341 0.00204993 0.00126026 0.00127446 
921 0.472025 0.217892 0.17582 0.0490208 0.0526837 0.0194021 0.00774582 0.00199732 0.000526789 0.00288559 
922 0.53379 0.279188 0.0909244 0.065875 0.015907 0.0057413 0.00254961 0.00198612 0.00177916 0.00225971 
923 0.352376 0.128392 0.297162 0.0909378 0.102674 0.0116943 0.0127961 0.00152427 0.00244295 0 
924 0.607993 0.165089 0.118572 0.0513752 0.029367 0.0144032 0.00840418 0.00214454 0.00131843 0.00133328 
925 0.540748 0.289947 0.0891329 0.0504009 0.0156695 0.00565561 0.00251156 0.00195647 0.0017526 0.00222598 
926 0.526617 0.283483 0.0918755 0.0673362 0.0161517 0.00582963 0.00258884 0.00201667 0.00180653 0.00229447 
927 0.607845 0.151716 0.132094 0.0513752 0.029367 0.0144032 0.00840418 0.00214454 0.00131843 0.00133328 
928 0.156846 0.491052 0.103779 0.0976806 0.0714944 0.0399697 0.0235346 0.00399334 0.00769656 0.00395358 
929 0.313157 0.168114 0.367642 0.032622 0.028305 0.0698904 0.00501372 0.0152556 0 0 
930 0.156846 0.506158 0.0915194 0.0948284 0.0563496 0.0551196 0.0235363 0.00399334 0.00769656 0.00395358 
931 0.446993 0.250981 0.119168 0.0583211 0.0925764 0.0128819 0.0133777 0.000584686 0.0018921 0.00322376 
932 0.333371 0.120973 0.306336 0.0981008 0.110572 0.0125939 0.0137804 0.00164152 0.00263086 0 
933 0.156847 0.506157 0.0915193 0.0948284 0.0563495 0.0399697 0.0386829 0.00399659 0.00769656 0.00395358 
934 0.350405 0.195571 0.178266 0.189148 0.0323253 0.017286 0.0284192 0 0 0.00857899 
935 0.463474 0.243516 0.115611 0.0564521 0.0899388 0.0124995 0.0129784 0.000567232 0.00183562 0.00312752 
936 0.343465 0.119147 0.28671 0.111599 0.108897 0.012403 0.0135716 0.00161665 0.002591 0 
937 0.458235 0.244778 0.168398 0.0468802 0.039498 0.0296112 0.00741853 0.00191293 0.000504531 0.00276366 
938 0.634953 0.19395 0.135047 0.00924771 0.0174344 0.00571219 0.00212265 0 0.00102231 0.000511152 
939 0.159259 0.49856 0.0929273 0.0962873 0.0573094 0.0553022 0.0244709 0.00405478 0.00781497 0.0040144 
940 0.366719 0.418583 0.134993 0.0326323 0.0274124 0.0108891 0.00516388 0.00133155 0.000351193 0.00192373 
941 0.333371 0.120973 0.291119 0.097933 0.110572 0.0141654 0.0275933 0.0016417 0.00263086 0 
942 0.903845 0.0748525 0.0108246 0.00269326 0.00466663 0.00225846 0.000287408 0.000571413 5.42687e-07 0 
943 0.607845 0.151716 0.132059 0.05141 0.029367 0.0144032 0.00840418 0.00214454 0.00131843 0.00133328 
944 0.652894 0.191515 0.117419 0.00979242 0.01846 0.0060482 0.00224751 0 0.00108245 0.00054122 
945 0.473765 0.247871 0.117737 0.0511109 0.0679405 0.0248177 0.0117507 0.000513575 0.00166198 0.00283168 
946 0.447669 0.227938 0.183935 0.0512119 0.0583968 0.0170874 0.00810332 0.00208951 0.000551103 0.00301877 
947 0.635681 0.206156 0.105286 0.0236393 0.019318 0.0060482 0.00224751 0 0.00108245 0.00054122 
948 0.447798 0.242207 0.18492 0.0512076 0.0430165 0.0170874 0.00810332 0.00208951 0.000551103 0.00301877 
949 0.333371 0.120973 0.29112 0.113317 0.110572 0.0125939 0.0137804 0.00164152 0.00263086 0 
950 0.633745 0.221571 0.116775 0.00715947 0.0134976 0.00442234 0.00164334 0 0.000791468 0.000395731 
951 0.196934 0.195575 0.107049 0.090482 0.331146 4.85733e-05 0.0590735 0 0.0196924 0 
952 0.32832 0.119142 0.301857 0.0965764 0.123183 0.0131412 0.0135716 0.00161665 0.002591 0 
953 0.442564 0.280317 0.123799 0.0532614 0.0707997 0.0117933 0.0122472 0.000535275 0.0017322 0.00295133 
954 0.32832 0.120008 0.300319 0.102298 0.118153 0.013122 0.0135716 0.00161665 0.002591 0 
955 0.345848 0.201454 0.167128 0.196295 0.0333199 0.0178179 0.0292936 0 0 0.00884296 
956 0.333371 0.120973 0.291119 0.097948 0.125806 0.0127293 0.0137804 0.00164152 0.00263086 0 
957 0.552239 0.202358 0.15888 0.0354454 0.0297454 0.0118158 0.00560336 0.00144487 0.000381082 0.00208745 
958 0.446993 0.253507 0.132026 0.0581786 0.0773351 0.0128819 0.0133777 0.000584686 0.0018921 0.00322376 
959 0.607845 0.151716 0.132083 0.0513854 0.029367 0.0144032 0.00840418 0.00214454 0.00131843 0.00133328 
960 0.357524 0.11396 0.274243 0.0922561 0.133147 0.0118638 0.0129815 0.00154636 0.00247835 0 
961 0.196934 0.195566 0.0927036 0.104076 0.331906 4.85733e-05 0.0590735 0 0.0196924 0 
962 0.383295 0.110259 0.276657 0.0884138 0.113509 0.0115696 0.0124406 0.00148193 0.00237509 0 
963 0.447669 0.227938 0.183935 0.0512077 0.0430522 0.0324363 0.00810332 0.00208951 0.000551103 0.00301877 
964 0.503342 0.236428 0.116334 0.0539702 0.0636301 0.010599 0.011007 0.00048107 0.00155679 0.00265246 
965 0.296855 0.17571 0.369375 0.0341276 0.0296113 0.0731161 0.00524512 0.0159597 0 0 
966 0.333371 0.120973 0.291119 0.113318 0.110572 0.0125939 0.0137804 0.00164152 0.00263086 0 
967 0.345848 0.201024 0.153503 0.19518 0.0484906 0.0178179 0.0292936 0 0 0.00884296 
968 0.447669 0.229866 0.196247 0.052352 0.0430165 0.0170874 0.00810332 0.00208951 0.000551103 0.00301877 
969 0.442624 0.217897 0.205233 0.0636383 0.0411187 0.0163336 0.00774582 0.00199732 0.000526789 0.00288559 
970 0.456037 0.224485 0.196181 0.0505501 0.0423647 0.0168285 0.00798054 0.00205785 0.000542753 0.00297303 
971 0.338345 0.132287 0.282434 0.109813 0.107388 0.0122179 0.013369 0.00159252 0.00255233 0 
972 0.634015 0.210235 0.102873 0.0097916 0.0184611 0.020753 0.00224751 0 0.00108245 0.00054122 
973 0.607845 0.151716 0.116709 0.0667594 0.029367 0.0144032 0.00840418 0.00214454 0.00131843 0.00133328 
974 0.447669 0.227938 0.183935 0.0513073 0.0583014 0.0170874 0.00810332 0.00208951 0.000551103 0.00301877 
975 0.333371 0.120973 0.291119 0.097933 0.110572 0.0126318 0.0290845 0.0016841 0.00263086 0 
976 0.526617 0.283483 0.0918755 0.0520464 0.0314136 0.00585757 0.00258884 0.00201667 0.00180653 0.00229447 
977 0.159259 0.49856 0.0929273 0.0962873 0.0572164 0.0405918 0.0392741 0.00405483 0.00781497 0.0040144 
978 0.532346 0.283421 0.0891346 0.0504009 0.0156695 0.0057055 0.0173304 0.00201308 0.0017526 0.00222598 
979 0.446993 0.250981 0.119168 0.0581778 0.0773351 0.0128819 0.0133777 0.0159693 0.0018921 0.00322376 
980 0.53379 0.279188 0.0904834 0.0511645 0.015907 0.00574175 0.0177003 0.00198649 0.00177916 0.00225971 
981 0.53273 0.271698 0.113436 0.0528022 0.0154391 0.00557244 0.00247462 0.0019277 0.00172683 0.00219325 
