Titan Después 3.03141e-06
wishawe hemos 5.87525e-07
bematikopi cascabel 0.000181933
bematikopi semillas 0.000495082
bematikopi siguientes 3.55641e-05
bematikopi NULL 0.000631637
pichika cuenta 1.58703e-05
bikani narración 2.03432e-07
peibotibi libro 4.81891e-06
: hojas 2.5831e-07
jaskaati piñón 5.42493e-05
jaskaati curar 2.65194e-05
jaskaati debe 3.03444e-05
jaskaati cómo 4.36769e-05
jaskaati cuaderno 2.24897e-05
pei colorado 3.38854e-06
pionis hojas 9.68631e-06
pionis tres 4.769e-06
ixon soplar 7.84151e-08
jato elaboren 1.73564e-08
bakebo expliquen 1.12075e-08
oinxon mismo 7.87461e-06
oinxon entrégale 5.34715e-07
oinxon NULL 5.22156e-06
jaton envíe 1.44066e-07
shinamawe NULL 2.36794e-05
jiwinki qué 7.47282e-06
jono entonces 5.45935e-06
ja coloréalos 7.25925e-09
yapabo mirando 4.55665e-07
yapabo realiza 4.96375e-06
rama dibujo 2.07243e-06
wishati ; 1.54819e-05
ixon explique 3.717e-06
yokawe niño 6.80237e-06
jawen pregúntale 1.88968e-06
jaskaakin mazamorra 4.75431e-07
wishawe cantidad 2.82213e-06
rebo su 6.06649e-05
, : 1.15495e-08
itan callana. 0.0004326
chosko contar 0.000943886
chosko a 0.000521315
chosko Enséñales 0.00016385
noa planta 1.15524e-05
shinanxon dijo 1.54748e-05
jawekibo árboles 4.43577e-05
noa NULL 1.95944e-06
Rekenpari a 2.00269e-05
Rekenpari escoge 4.2136e-05
Rekenpari En 2.17424e-05
kokokana olieron 0.00681753
kokokana levantaron 6.9355e-05
jisa irnos 2.97279e-06
Bakebo niño 2.743e-06
Bakebo cada 1.80845e-06
Bakebo entrega 2.48183e-06
Bakebo le 9.23562e-07
Jainxon pise 7.50049e-07
yapa huesos 2.69885e-07
bebon ; 1.2072e-05
ribojanxon plumas 0.0408821
jan identifican 3.78021e-06
akai comunidad 2.52583e-05
akai realizan 7.28624e-06
9 Contando 0.00140073
betan hacerle 5.19498e-08
betan conversa 4.67013e-07
bewe escuela 7.4476e-05
jainxon rallan 0.00109779
meken menear 0.037706
yokawe papalote 2.33161e-07
yobinboribi .. 0.012243
yobinboribi diferentes 4.02373e-05
nishi Tiende 0.000516995
taxnanwe dentro 0.00716971
pikoti sol 4.12751e-06
pikoti terminarlos 5.16181e-06
imaa tiene 0.000207372
imaa significado 1.46564e-05
imaa explícales 1.10309e-05
imaa muéstrales 0.000116604
imaa Después 6.66559e-06
sikaxon nuevamente 0.00364552
ribojo pinta 5.82406e-05
bakebo papelote 7.53238e-08
noa esta 0.00448019
taxnanwe debajo 1.44511e-07
naman y 9.06859e-05
raonmeti duele 3.92266e-05
raonmeti nos 9.26989e-06
jisabiresbo expliquen 8.96328e-06
, conversen. 2.02347e-07
pakexbo para 4.61253e-05
taxnanwe frente 2.23611e-05
bebon pégalos 0.10551
bebon y 0.0021604
bebon dibujos 0.00533383
Ramatianra ya 0.000259064
Bakebo conocer 5.27842e-06
Bakebo En 2.18359e-06
pokoti traerlos 2.0765e-05
non aderezamos 9.2314e-05
jatiribi cola 0.13551
jatiribi una 0.0209133
jatiribi formen 0.0180314
jatiribi les 0.0198309
jatiribi luego 0.000286916
jatiribi NULL 0.000213114
jato sembrado 2.20943e-05
non bosques 0.00713736
jiwin nos 0.00017211
jawekibo dan 0.0169721
jiwin las 0.00446194
jiwin NULL 2.07047e-05
noa árboles 0.000630879
jaweboribimein nos 5.48233e-06
ichama siguen 5.23817e-05
: rallador 0.00308303
yoiwe esto 3.27203e-05
moa tercer 0.0107164
moa inin 2.46182e-07
wetsa personas 0.000658445
katowe dueño 0.00097662
Rekenpari , 2.71439e-05
rastonmarin jugando 1.01853e-05
ikowe niño 0.0422935
akainkobo .. 0.000599796
akainkobo dibujos 0.000258324
akainkobo realizan 0.0019688
akainkobo se 0.00981803
akainkobo trabajos 0.0228674
joi coordinar 0.0223912
joi anciana 6.7587e-05
yoxaman dice 0.000682935
bana pescado 0.00251213
bana qué 7.06884e-06
imai NULL 0.000352913
Jainxon El 1.35438e-05
bebon pone 1.11487e-05
tee Realiza 0.000740834
oimai cuál 0.000322204
yosiba visitar 0.00148042
yosiba ideas 6.41487e-05
beti plantas 0.000379487
beti NULL 4.30558e-05
yakati diles 0.00909063
wishati nombres 0.00324654
, varón 3.71732e-06
yoiyai NULL 1.17616e-06
itan trapo 1.68781e-06
chaniwe aula 0.000164206
akai nuestra 0.00315456
oroti jugar 5.89958e-05
oroti terminen 1.10733e-05
oroti pescando 2.37397e-05
moa hecho 0.0107067
westiora primero 5.0716e-08
, conocimientos 3.02297e-08
jenetiaxonki qué 0.917817
jenetiaxonki NULL 0.0180238
beai .. 0.0143749
beai tempera 0.00824192
betan limpiarlo 0.000565935
winokanketian cuidarse 0.64903
winokanketian comparten 0.270893
bakebaon vean 1.19352e-07
Yamaketian canastilla 0.984043
Yamaketian bonito 1.33883e-05
Yamaketian prepara 0.000379273
Yamaketian mismo 0.00120637
Yamaketian tú 0.000720654
Yamaketian mano 0.013387
Yamaketian tienes 0.000234932
Yamaketian Si 1.53126e-05
: amiga 0.000685916
: tu 8.13595e-05
: pregúntale 0.00941873
: ? 3.14307e-05
yokawe preguntas 1.29098e-05
yokawe diferentes 0.0292077
yokawe hazles 0.00457921
jawekiakinwe coman 0.000107482
Jainxo cantidad 0.0011112
Jainxo cuenta 8.07216e-05
Tsekaxon pega 9.50443e-05
yobinbo hazles 0.0686455
non consumirlos 0.000754981
kokotibo frutas 1
yora fortalece 0.0382921
beai frutas 0.036389
yobinboribi frutas 0.722391
jawekiboribi traigan 0.00495752
jawekiboribi a 1.7533e-05
jawekiboribi diles 0.0102829
jawekiboribi , 1.4456e-05
jawekiboribi aula 1.30742e-05
jawekiboribi aprender 0.000475555
jawekiboribi para 0.00102035
jawekiboribi también 0.845362
jawekiboribi cosas 0.00259605
jawekiboribi otras 0.00031536
Non hacienda 1.12815e-05
Non autoridades 0.000175737
Non eligen 1.45811e-06
Non nuestras 3.27237e-05
Ipo escuchar 3.84714e-06
jainoax compañeros 0.000175633
jainoax tus 0.000211355
jainoax juega 0.265844
jainoax luego 0.000189243
Jainoax juega 0.0148507
Jainoax Ahora 0.000338303
yosin lo 0.0149147
yosin con 0.000675023
yosin Escucha 0.0448825
Jeman afuera 3.34384e-05
Jeman Sal 1.35341e-06
wishawe final 0.0274565
wishawe cuadros 4.47644e-05
bematikopi : 0.0405005
papabo profesor 0.144478
jain dibujo 0.149816
jain saca 0.00214195
toponwe hasta 0.000249621
kenponki podemos 0.0269373
taxnanxon tráelo 0.033714
Kenpo mocahua 0.547331
Kenpo La 0.00377105
toponaki cuántas 0.04222
toponaki contamos 0.95778
pikoti cosas 0.0014219
pikoti otras 0.007891
pikoti elaboren 0.0380824
pikoti dice 0.00115158
pikoti les 9.83594e-05
pikoti lado 0.00350471
pikoti otro 0.00197145
pikoti por 0.000274069
pikoti ponen 0.247712
ika saca 0.00821245
westiora amárralos 0.000398431
westiora ordenadamente 0.00131728
kirika cada 8.99535e-07
akanai preguntas 0.0208201
shinamai alumnos 0.749679
naman pégalos 0.0453145
.. opiniones 0.284925
rabiti nuestras 0.119114
westiora sacándoles 5.15983e-07
oinmawe cómo 7.62276e-06
oinmawe diles 0.102672
oinmawe y 2.25845e-05
oinmawe trabajo 4.89058e-05
yoxaman escucharon 0.0298039
yoxaman explicaciones 2.60531e-05
raobaon plantas 0.000133222
raonmeti colorado 0.264755
kirika aprendido 0.0050776
kirika has 0.000688335
kimisha cuadrados 0.00295134
chitemeran tres 0.00806344
chitemeran total 0.0836447
beti aula 0.387885
jainxo luego 6.581e-05
xobonko un 2.06405e-06
xobonko Dibuja 0.0113188
betan visitarnos 2.1612e-06
betan pueda 7.25286e-06
pakexbo elaboren 0.0636883
yokawe ayer 5.5914e-06
yokawe aprendieron 2.97213e-06
onana escuchado 1.16374e-05
onana o 0.0587146
Ramatianra Ahora 0.000924701
itan arreglaban 0.00028935
xatexon píntala 0.0712804
ani bandera 1.41399e-06
, entrégale 0.000257666
min Muéstrales 2.43923e-05
wetsaboribi demás 0.681739
sikawe bonito 0.0473845
kene Piensa 0.0153728
jaskaakin tiñe 6.35293e-08
titan miran 0.0392504
Yamekintin mamá 0.000976175
Yamekintin La 0.000422858
onanmai tela 3.85646e-05
onanmai venga 0.000342008
betikopi .. 0.00610488
betikopi aula 0.00466894
, huito 3.55982e-08
, cabello 2.33232e-07
jotikopi aula 0.632937
Jaweranoboki lugares 0.138508
Jaweranoboki otros 0.0168933
Jaweranoboki qué 3.80287e-05
yoiwe compañeros 6.7851e-07
yoina un 2.48313e-05
axetixobonko sobre 0.562779
iaxon sobre 0.87833
bake sujeten 1.85402e-06
jiwin cosas 0.32537
pikoxon cada 0.0081437
imaxon explícales 0.0820517
imaxon grupos 4.80592e-06
jaweboribimein más 2.28716e-05
jaweboribimein qué 0.00051658
jaweboribimein NULL 3.8684e-05
jawekibo .. 3.04775e-05
jawekibo saben 0.0165384
Jainxonra debemos 0.994618
Jainxonra Luego 0.00537292
jono quién 1.50333e-05
jono comérselo 0.0218329
moa hablaba 0.0140701
moa normal 3.61611e-06
, seguridad 3.55458e-07
jainxon miró 7.57947e-07
; animales 8.2662e-05
; buscando 0.000179725
, personas 3.81884e-08
koirante mundo 0.999932
tee explicado 0.00271209
tee había 8.53988e-08
tee suelo 5.60971e-06
akai frutas 0.0165545
Jan saborizantes 0.00526222
Jan Mirando 0.0423109
jawerato saborizantes 2.62311e-06
jaweratorin cojan 1
atiki realizar 5.42688e-06
atiki a 0.000638824
sikawe tenía 6.83654e-05
sikawe .. 6.4151e-05
sikawe cuadrado 0.0178838
jatibi agarrarán 3.2777e-06
jatibi piernas 4.11257e-05
katowe será 0.165441
Rekenpari lugar 0.10812
atsa arrancando 0.000667216
atsa jugar 0.0808475
rastonmarin reconozcan 0.333001
yoiwe juegues 8.55671e-06
Bekebo niños 0.000489108
Bekebo a 0.00230231
Bekebo Saca 0.997178
akainkobo saca 0.964474
jaskakin sembrar 0.00188144
jaskakin cómo 0.00272503
jaskakin dibujos 0.000780768
jaskakin mirando 0.0476673
yoyo visiten 0.0110806
Papabobetan papás 1.5759e-05
: comieron 0.00138676
, levantaron 0.00010006
: NULL 0.000192401
anoxon trabajo 0.000173905
jainxon quisieras 1.99579e-08
jaskaakin salga 1.76638e-07
bana Explícales 0.0310513
¿ realizarlo 0.000639149
imai serpiente 0.409336
jawen corta 3.25776e-05
koroman coloréalos 0.402289
onana sandía 0.0863311
Jainxon círculo 0.00209213
bana debe 0.000745417
banati frutas 0.024147
menixon escojan 0.000786701
menixon y 3.81671e-06
Jainxon arranquen 0.00264152
meniwe tarea 6.73812e-07
sikawe NULL 0.091847
jake ; 3.78347e-06
jake NULL 0.0802773
oinkanon pescado 0.270821
joxo papelote 1.4452e-05
joxo un 0.0040908
joxo dibuja 0.902189
jawenki qué 2.03925e-05
.. jugando 0.714825
isakan nombre 0.000135204
Charax catalán 0.848393
rakanai ellos 0.000519297
jeman saliendo 0.0169159
bebon parejas 0.0213044
bebon en 0.00321076
bebon niños 0.000316173
bebon a 0.00166553
bebon Agrupa 1.86702e-06
bebon NULL 0.000142511
yosinki te 6.25108e-05
yosinki qué 0.000218277
Jaskakin curaban 0.223249
Jaskakin antiguamente 0.00123423
Bakebo reflexiona 0.000915098
Bakebo profesor 2.64179e-07
Bakebo NULL 3.65925e-05
yoiwe nombre 0.00130336
taxnanwe orden 0.0057251
taxnanwe NULL 2.44085e-05
ja muñecos 5.714e-08
yoikanai muñecos 0.0190023
bero NULL 0.000701682
yoiyai trabajo 4.89351e-06
yoman negra 0.0410349
panchabero semillas 0.00827075
yoman trapo 0.00166971
yoman NULL 0.000228057
betan deben 2.99064e-07
wishawe nombre 0.0916606
jane escribe 4.99364e-05
min escribe 3.61478e-06
wishawe NULL 7.45719e-06
min puso 0.000656182
min NULL 0.000160608
jane hijos 0.027646
ixon explicación 0.0245868
ixon hogar 7.89031e-05
ixon su 4.99188e-06
ixon familia 9.70457e-06
ixon miembros 1.01583e-06
yokawe NULL 6.93732e-06
tee similares 0.000434109
tee imitado 3.70121e-06
axon diles 7.73788e-07
westiora , 3.0858e-06
bewatibo cantar 0.001086
koshonara nace 1
piai frutos 0.330719
piai pan 0.356388
piai fruto 1.19214e-05
Jaweranoboki ¿ 0.844538
Westiora Siéntate 0.000157642
Axeti El 0.000752227
piti qué 0.172311
bixon qué 0.318329
potai que 1
bakekibires que 1
yoa y 0.568532
meniribai niños 1
pirota niños 0.840622
nonoti NULL 1
jisati NULL 0.260977
iaxon NULL 0.12167
Jaskaxon Luego 0.522345
Bakebo Antes 0.00171898
wetsaribi les 1
tsiniribiwe empezar 0.752337
tsiniribiwe Vuelve 0.247663
nokotax doncella 0.126876
maponko doncella 1
Kobin Un 0.124924
atipanke patarashca 0.00153808
piti ahumado 0.00970848
Westiora ahumado 0.00210509
ja ocho 0.000219359
bewawe canción 0.534582
bewawe Cantan 0.465418
Westiora Cantan 0.01038
nokotax Llegando 0.0742677
bewain Llegando 1
bakebo Llegando 0.000235266
ja Cuanta 0.000219136
Toponti Contando 0.375962
kimisha tercero 0.0167923
winomaxon tercero 0.249696
Pirotain llega 1
tsiniti Estos 0.0305648
jaskati Estos 0.0135993
pikoketian Estos 1
ribojobo Estos 0.00338972
Neskara Estos 1
ashokoai juegan 0.542629
oinxon dado 0.00386228
ja tira 1.93454e-06
bakenpari tira 1
jake recogido 0.00653235
biananamawe Junta 0.361021
bakebo Junta 0.000335966
ati gustó 0.00150174
shinanxon gustó 0.0109133
ika gustó 0.00236453
jawen gustó 0.00226352
tee devuélveles 0.00122868
ja devuélveles 0.000469701
jiwibo recoge 0.0321961
non recoger 0.0020534
jaweribimein recoger 0.53129
toshbapaketai recogen 1
jaweboki recogen 6.08687e-07
jenetiaxonki creciente 0.0641597
iki canoa 2.44634e-07
jakon canoa 0.03963
iti canoa 0.0271211
Taxnanwe Pégalo 0.315869
jisakin trajera 0.0290748
toxbata trajera 1
jiwibo trajera 0.00846419
jene corriente 0.0580296
mesko trajera 1.03333e-06
mesko corriente 0.00598536
pikowe canoa 0.172889
westiora canoa 4.19105e-05
ninkakiwe les 1
nonti anciano 0.696638
meranon visitarlos 1
chiteres cuadro 0.910294
jawekirin parecidos 0.00477927
jawekirin cuáles 0.995221
oinwe mira 0.170445
jenetiaxon creciente 1
jawekibo peligrosos 0.00221694
jaskara peligrosos 0.00440192
topona contamos 0.100773
jawetiki contamos 0.0553489
jaa serpientes 0.0567983
Ribojobo Muéstrales 0.0705874
pikokinxon entrado 0.00839765
bakebo entrado 3.29746e-05
Jeman entrado 0.0216843
jeman soléalo 0.0114247
Mansia Hazle 0.409294
sikawe parezca 0.02096
jisakin parezca 0.0581547
jisakin témperas 1.2323e-05
rono témperas 0.153987
jan Píntalo 0.0018501
Mesko Píntalo 0.0163943
maxko pequeño 0.158331
aninkoxon pequeño 0.670344
aninkoxon desde 0.00489357
nexati huecos 0.0962976
yomaman huecos 0.0168892
Ja huecos 0.00421407
joyonkanai huingos 0.983115
joyonkanai ordenar 0.0168849
akin ordenar 0.0142437
maxko ordenar 0.0764236
aninkoxon ordenar 0.32382
beabo Empiencen 0.0370039
pikoti Convirtiendo 0.0388973
akin Convirtiendo 0.011057
jato Ayúdales 0.000613594
westiora mostrar 1.8943e-05
Ramara mostrar 1
yoiyai trajiste 0.000506823
oimaxon trajiste 0.0162748
jato trajiste 0.000435202
beabo trajiste 0.0186676
jawekibo trajiste 0.00025669
beti canero 0.020355
ribojanxon canero 0.0147391
Rono La 1
kirikanin raya 0.0637558
Westiora raya 0.00316532
tempera tempera 1
sikatibo tempera 0.039066
masen mitad 0.0939682
; mitad 0.0763226
bemati mitad 4.72209e-06
bemati partir 0.30934
xobonko partir 8.57221e-06
papa limpiarlo 0.100378
bakebaon limpiarlo 0.000287834
iwe deberían 0.0227349
yoyo deberían 0.00461615
betan deberían 0.000754712
mibe estudiantes 0.0640134
ribojana estudiantes 0.00645973
koirametibo comparten 0.308275
jaskati cuidarse 0.027668
jawekibo cuidarse 0.0085079
jakoma cuidarse 0.24202
Mesko cuidarse 0.00108961
mato llenar 0.0312615
chiteres coloréalos 1.02785e-05
ribojoinoa medio 1
ninkaxon revisan 0.185051
yoishokonon explique 1
ribojobiri explique 1
ixon colocando 0.00759131
ixon revisan 3.60287e-06
ribojoya colocando 1
yoiketian parecido 1
oinxon explicarlo 0.00231903
Jene peligrosos 0.181814
bixon corriente 0.083725
kirikainoa explicarlo 0.0544274
bakebo preguntar 0.000498029
koirametiboribiki cuidarnos 1
oina aseo 0.0881114
maton aseo 0.00507453
ja aseo 0.000315329
bexon peligrosos 0.0139648
non cuidamos 0.000906001
atipana cuidamos 0.0352248
jawe corremos 1.87875e-05
noa nadar 0.00256726
jawekopimein nadar 6.14946e-05
ixon Ve 0.00655247
yoiyai Viéndolos 0.000811178
oina podido 0.071355
maton podido 0.00410852
ribojoboki podido 1
jawe podido 1.21237e-06
jawekiboribiki cuidarnos 1
niweabataitian cuidarnos 1
beaitain cuidarnos 1
jene cuidarnos 0.0245711
iki vivimos 0.000783512
jax vivimos 1
esewe delos 0.170201
yakakinxon delos 0.0122613
Jakoma evitar 1
xatexon pegarlas 1.1163e-05
ninkaxon explicación 0.300927
axona explicación 0.79457
jenen creciente 0.137759
Shinanxon explicación 0.531364
iki mostrárles 0.00044039
anibobo mostrárles 1
jawen mostrárles 0.00214879
xobonko mostrárles 0.000443752
tee Sus 0.000867667
wakexon le 1
mapoa uno 0.927674
xeatiatiribi está 1
xakixon está 0.912789
kokoa está 0.675846
joshinax está 0.801497
oinaketian antes 1
jake estar 0.00798692
iti estar 0.0118473
ribojanxon estar 0.00972837
ika tapadas 0.00131319
bea tapadas 0.0120748
joxo tapadas 0.0468529
ani tapadas 0.00275038
ani estar 0.00550084
yoitibo estar 0.526295
shinanxon estar 0.0121219
jake responder 0.00887399
shinanxon responder 0.0138653
bakebaon responder 0.00028176
kokoti pela 0.0941344
xokaxon pela 1
itan canero 6.29871e-08
non escribimos 0.00151001
janra escribimos 0.421053
ribojobora tapadas 1
riki punta 0.0101657
yoiwe háblales 0.00058454
neskaakin háblales 0.0141939
napowe lápiz 1
westiora siéntate 0.00233847
rotitima resiste 0.426413
yamekiritibi mañana 1
saweya mañana 1
chopa mañana 0.0164956
panshin mañana 0.045365
Xaka Cada 1
jeneshaman jugoso 1
Bero hundidos 0.319401
naporiki roja 1
riki rayas 0.0212185
winokanketian estudiantes 0.0651056
jisa toman 0.0111008
yorariki toman 0.159716
jawekiakanai asan 1
joaxon me 1
biti sancochan 0.0794833
aniai crecido 0.39988
jene toma 0.00963241
kikin toma 0.0255924
kokoa aroma 0.324154
poatai huelen 0.269933
inin huelen 0.269933
ochokeaxbi huelen 0.269933
, toma 8.28641e-05
, huelen 0.000157889
riki rojo 0.0147492
riki maduro 0.010589
chitemeran preparación 0.150093
ken preparación 0.533121
benbo amigo 0.010026
mibe amigo 0.0246982
sere dentro 0.788426
iki Escribe 0.00251766
Kenshaman Escribe 1
iamax Mazamorra 0.00939218
Beten Mazamorra 1
iki favoritas 0.000728586
kenshaman favoritas 0.0737197
min favoritas 0.00163059
jawerato comidas 0.0132133
yokawe amigo 0.00235973
jane amiga 0.0235059
ainbo amigo 0.0128468
bake amigo 0.00611995
westiora amigo 0.000961566
Mibe amigo 1
axonbo preparan 1
jawekeskakin preparan 0.169651
jemankoboki preparan 0.263258
pitin favorito 0.428697
min favorito 0.00229366
yoa favorito 0.0165402
jawekeskaki favorito 1
onana carnes 0.00923103
maton carnes 0.00308262
jawe carnes 2.73185e-07
piai comes 0.122482
xobonkoxon comes 0.0174761
min comes 0.00143595
min prepares 0.000127017
axonki comes 1.5335e-05
axonki prepares 0.165799
yoa prepares 0.0214433
jawekeskakin prepares 0.0916473
akaboki base 0.281274
akaboki comida 0.718726
yoa base 0.0331588
yapa base 0.00350007
akin base 0.0219715
akin formas 0.000365087
xobonko Retorna 0.00256951
Axeti Retorna 0.00878111
niax Saca 1
shinanbenotai haz 1
basiai círculo 1
yoiyaikaman juego 1
jaskabainai juego 1
jaska juego 0.103731
jainxon consiste 0.000735252
beten consiste 0.184979
en fuera 0.109309
pirotaran fuera 1
iti consiste 0.0177709
oinyabi formen 1
ea formen 0.0807801
matora formen 1
chankatai fuera 0.651093
kirikain libros 0.0133844
aka libros 0.00258268
yoa busca 0.0165385
yapa busca 0.00174667
akin busca 0.0110558
Mesko busca 0.00791878
axon alimentarse 0.0111196
jawekiati Diferentes 0.0585804
Mesko Diferentes 0.0306383
toponti contado 0.0228389
5 contado 0.0674355
yoiwe cuente 3.27342e-06
yoiwe prueba 0.000424847
ixon salieron 0.00607391
Natanwe Escribe 1
paketa carachamas 0.0405303
ika referida 0.00295481
Jati Haz 0.0073838
yoimawe mesa 0.00373993
menixon mesa 0.00196667
Bakebo Ordena 0.000859559
itan raíz 0.000482583
iki probaron 5.42576e-05
ipo probaron 0.0173106
matonki probaron 0.0224264
iki revuelto 0.0036314
ati revuelto 0.00643754
bachi come 2.47644e-05
ipo come 0.198651
bikanai recogen 0.499998
bachi recogen 0.134939
ipo huevos 0.0353787
kopi observar 0.0720356
jaskaaxon visitarla 0.00300463
meranonxo visitarla 1
iwe visitarla 0.0171254
yoyo visitarla 0.00347718
tsinkixon llevarlos 0.215687
Mesko Juntar 0.0262109
itan jugoso 0.00121622
ixon carachamas 0.0103955
min píntalo 0.0042298
min preparación 0.00306172
beteni puedas 1
Yapa puedas 0.052732
benxoaxon escritas 1
wishabo escritas 0.312319
yoyo corrige 1.73302e-07
akin corrige 0.0221108
shinanbokin pensando 1
ninkawana pensando 0.395785
titan pensando 0.0254789
oinbokin pensando 1
yapa Trayendo 0.0014089
jaskaakin Trayendo 0.000425971
betenti realicen 0.0827122
jan realicen 0.00277035
Mesko Diles 0.0361535
yapaboreski sirven 1.21339e-05
yapaboreski nomás 0.992557
yapaboreski pescados 0.00743101
nato mazamorra 0.000810656
itan amigo 0.000361696
iki ponerle 0.00126214
atiboribiki ingredientes 0.415978
iki nomas 0.00251331
xakiyabichoki rallado 1
aka hicieron 0.00619874
jawe hicieron 0.0029599
maton hicieron 0.00739745
rekenpariki hicieron 1
betena mazamorra 1
maton mazamorra 0.0181235
Jenen Contar 1
nepotai cortan 1
tashiribi cortan 1
nepoti cortan 0.220849
betan cortan 0.000323448
taxnanwe trajera 0.00333935
chiwinkanai mueven 1
xakikanai meten 1
beyasankani meten 1
chikan meten 1
potexon tripas 0.5
akanai limpian 0.00483533
akin menear 0.00887619
jaska menear 0.0182919
yapaki mazamorra 0.513535
yapaki imaginariamente 0.0390939
jakopira imaginariamente 1
ixon imaginariamente 0.0016872
iwexon Retorna 0.00748083
akai chapo 0.0123655
ramara imaginariamente 0.0132624
betenai pescado 0.648596
betenai mamás 0.351404
yoiya Manual 0.00299374
atibo Manual 0.00255581
tee Manual 0.000651317
betan Manual 1.79288e-07
jaskaaxon Manual 3.46255e-07
Axeamisnin Manual 0.00218226
betenti mazamorra 0.489702
yapa mazamorra 0.016233
raenanai amigo 1
tsekaxon dibújalos 0.00376618
shinanxon acuerdo 0.054548
onama Pensando 0.130807
mishkianti Pensando 0.0964843
Yoxaman Pensando 0.012717
aka sacado 0.00457209
wishaxon papalote 0.0243268
kirikain papalote 0.0133842
ixon agrado 0.00506034
ika agrado 0.00393887
kenmaki agrado 1
awe agradó 0.00334071
jawekiakinwe juntos 0.999892
menixon coman 0.00574241
tasomanbo tazones 0.96009
jaton tazones 0.00755678
bakebo echándole 2.91018e-06
pekao echándole 0.00394199
wata echándole 0.438777
meshonaketian queme 1
chiwinti queme 1
akin queme 0.00830681
kikin queme 0.0241175
tsosinaitian queme 1
ikainko échala 0.0183528
ja échala 0.000217192
ja Parte 3.43863e-08
kaxkexon Parte 0.599996
Pochabo Pela 0.583147
awe Prepración 0.00334716
akin Prepración 0.0147407
oinai observan 0.00855619
bakebaon observan 0.000143914
akai observan 0.00206102
akin observan 0.00552787
axeamisnin observan 0.00464411
akinbo echarlo 0.143094
onpax echarlo 0.268723
Wetsabaobiri Otro 0.0509707
ratakinai pelar 0.21332
jake nombrar 0.00599021
bake nombrar 0.00204004
imai agrupa 0.102149
bakebo agrupa 0.000251282
tsama agrupa 0.0190365
rabe agrupa 0.00828192
ninkakinwe papaya 0.0800285
jaskakin papaya 0.0736823
mishkiankin papaya 1
Titan papaya 0.0951908
mishkiankinoxon papaya 1
jaskaakin preparado 0.00263746
iwenoxon preparado 0.295144
merakin preparado 0.396953
yokapakeai imaginariamente 0.210823
ixon cuchara 0.00677596
bakebo cuchara 0.000524762
Tason Tazón 1
Joshin maduro 0.623038
Joshin Plátano 0.376962
ati papaya 0.00684632
akin cocción 0.0131093
jaska cocción 0.0270167
mishkin cocción 0.0410032
yobirin futas 0.021319
ikainkobo número 1
taxnanwe número 0.000129573
toponxo salió 0.348083
yobirin hay 0.978681
non imaginariamente 0.000503338
atibo miel 0.0427259
jawerato miel 0.00111508
jato compártelas 0.000451822
yobinbo compártelas 0.0127994
ja compártelas 2.82434e-05
Bakebo Pela 0.000227985
yoiwe Cuéntalas 1.18184e-05
pocharin papayas 1
atipana contar 0.177737
toponti estas 0.00358166
yobinboki estas 0.179841
jawe imaginariamente 0.000548151
iki miel 0.000177626
mishkianti sacar 0.705187
yobinboki miel 0.729602
yobinboki puede 0.0178172
anirin pequeñas 0.128308
beroya pepa 1
yobinrin pepa 1
iki piña 0.000840997
jisa piña 0.0183378
jawekeska interior 0.00214586
jisarin piña 0.00642706
jawekeska piña 0.00800356
bea traen 0.0823025
toponkinwe frutas 0.15433
itan agrado 2.87033e-07
rato cuerpos 1
xatexon cuerpos 0.0100392
meniaibores cuerpos 1
itan agradó 3.91341e-07
axon comparte 0.0219885
rataxon lavar 0.578586
bakebo lavar 1.24556e-08
itan Tazón 0.000341335
Pocha Parte 0.278321
jaabora acarrear 0.75
ratakinai papayas 0.78668
atipanke alimentan 0.014622
Jati Cuenta 0.332773
rakanwe piedra 1
jaabokayara consumirlos 1
jawekiboribi consumirlos 0.0224915
jawekiatibo alimentarse 0.0801303
kari camote 1
jatonbi explicar 1
jaskabainkin explicar 1
jainmashoko explicar 1
jan fortalece 0.000958782
jake consumirlos 0.00599044
matonra pero 1
shinanyamakanaitian explicar 1
ikaxbi gaseosa 0.312153
ikaxbi pero 0.32643
bakebaonra explicar 1
jawekiatiki comidas 0.999964
maton clases 0.00205508
yoiti mostrárles 0.00601609
jato traen 0.00137443
axeamisnin cáscaras 0.00928806
oimaxon cáscaras 0.0161457
beai traen 0.024901
yobinbo traen 1.19066e-05
mesko alimentan 0.00106914
meniamaibo cuerpo 1
koshi alimentan 0.0352013
koshi fortalece 0.0616012
koshi fortalecen 0.0951434
yora fortalecen 0.0591427
non dulces 0.00301988
non fortalecen 0.00206343
ribojo puedas 0.00173671
iki enfermarnos 0.00136019
piti crecer 0.037723
bocho medio 1
jawekibomein crecer 0.399812
ja pucallpa 2.34548e-05
jawe venta 0.00160911
kaxonki venta 1
maishiain venta 1
marotiain venden 1
ja venden 0.000219633
jaweboki venden 0.00817031
ribojanxon libros 0.0109444
iwexon regresar 0.0339698
akai bodeguero 0.00416855
ibo bodeguero 0.0929293
ja bodeguero 0.00021453
oinkinoxon obsérvenla 1
xobonko obsérvenla 0.00129542
maroti obsérvenla 0.44141
jawekibo obsérvenla 0.00399259
mesko calle 0.000337781
pikokin calle 0.421898
jeman calle 0.00653863
iwenoxon surtida 0.157482
bakebo surtida 1.56265e-08
merakin buscar 0.211617
benenaxon buscar 0.00135814
jaweki bodega 0.0096336
mesko bodega 0.0146064
yobinboribi además 0.265326
koiranti llegada 0.0431146
jawekiatibo llegada 0.0800476
non llegada 0.00147259
non almacenar 3.67646e-05
Jawekiatibo Los 0.234223
yoimawe comentar 0.0225827
axon través 0.0156609
yokabo través 0.00115382
Ja Leen 0.0115598
onamawe dalas 0.0678672
jato dalas 0.000835981
Kirika Comparte 0.0391092
ikanai Ve 0.0136807
ikanai rápido 0.00824534
bixon terminarla 0.0378137
ribojobo terminarla 0.00470152
kopi rápido 0.0385959
ixon construir 0.00759239
rabekeska clases 1
xoboakinon construir 1
Non Llamando 0.0207211
xobo final 0.191908
ati llamando 0.00688759
ati rapidez 4.53621e-05
xobo llamando 0.018962
xobo rapidez 0.109038
Rarebobo familiares 1
iki colaborar 5.11733e-07
Bakebo Trayendo 0.000347087
akinti colaborar 0.22604
non colaborar 0.00113152
tee colaborar 0.000650751
teeboki solos 0.0645493
ika estaban 0.00394085
jonibo estaban 0.0540502
Titabaon Las 0.808967
akanai construyen 0.0112549
, construyen 0.000135282
jato construyen 1.10292e-05
papaiba visita 0.999992
xobo construyendo 0.0469404
papabo construyendo 0.0235043
ita preparando 1
titabo preparando 1
anonxo dibuja 0.895545
akinti Minga 0.301365
xobo Minga 0.0766961
ribojobo dibújalos 0.0212309
xepoxon dibújalos 2.04806e-05
westiora Sólo 0.00096128
Jabores Sólo 1
jawe cargos 0.00326005
tsoabo cargos 0.141743
ani hacienda 1.8198e-06
janenoxon hacienda 1
koshibo hacienda 0.0465815
jema hacienda 0.00912841
jemankobora hacienda 0.484599
Ribojanxon Dibújalos 0.0816289
koshiboki ocupan 0.972521
koshiboki Qué 0.013933
jeman encuentros 2.88494e-07
tsinkikanai encuentros 1
, encuentros 0.000107232
jemankobora encuentros 0.514823
Non encuentros 0.0085413
axon asamblea 0.00586427
ani asamblea 0.0027476
westiora asamblea 2.57499e-07
jema eligen 0.0182716
nato asamblea 0.00224783
ken favorito 0.200086
jema municipal 9.50873e-07
jema agente 0.0180801
ikai agente 0.0380382
winotai teniente 0.991239
jakoma teniente 0.284377
jema teniente 0.0182895
ikai teniente 0.038474
renixona primer 0.336984
jema primer 0.0243846
joni jueguen 0.07313
ikatoni gobernador 1
ja teniente 2.74161e-07
ika municipal 0.0047579
ja agente 3.75581e-06
rekenatonin jefe 1
koshi jefe 0.164282
jeman jefe 0.0152298
jemankoniaborin comunidades 1
itan almacenar 0.000362655
akanaibo dirigentes 0.254004
tee dirigentes 0.000433841
ja dirigentes 0.000147497
ja autoridades 6.10216e-08
yoiyai dirigentes 0.000334961
bakebo dirigentes 1.15023e-06
pocha Pensando 0.0705745
onanmakin autoridades 1
jeman autoridades 0.0783183
xeamai masato 1
jeman elegir 0.0142706
jeman líderes 0.00187894
shinanya líderes 0.647339
jaskara líderes 0.018179
wishawe empieza 0.0257856
axeamisnin empieza 0.0243997
yoiya relato 0.00601267
seneanxon léeles 0.0485914
iki colocarlo 1.62345e-06
taxnanti colocarlo 0.0474747
jaweranon colocarlo 1
yoyo escriben 0.00346148
tsoabaon escriben 0.0139467
shinankinwe pensar 0.155189
ja venta 1.84037e-05
Ipo Después 0.230246
jawerano esconde 1
wakanawataitian esconde 0.281863
ipomein esconde 1
jaweraki mijano 0.271148
ipon mijano 0.330195
wakanawataitianki mijano 1
ipon enseña 0.669805
ipo época 0.141414
ipo explicará 2.23429e-06
yoiyai explicará 0.000501622
bakebo explicará 0.000391037
axeamisnin explicará 0.0136269
pekao relato 0.0118996
ninkata relato 0.0542167
iamai reunión 0.332506
jene Zumo 0.0241773
mato reunión 0.000351698
mato ninguna 0.046726
jaweranobi ninguna 0.99887
jemankoniama soy 1
nato soy 0.0170829
joni comunero 0.0407708
joni Entonces 0.00064487
Jatian Entonces 1
mato Asistan 0.0468883
Yoitima No 0.0284769
akinkasai ayudarles 1
mato ayudarles 0.0316244
Jatibi quiero 0.662814
koirankinki Ayúdenme 1
jema Ayúdenme 0.00912487
akinkanwe Ayúdenme 1
jan fortalecen 0.00148083
joni pasó 0.020154
ja pasó 0.000147453
jemanko pasó 0.53973
betan pasó 0.000379324
Jeman Lo 0.201647
kirikani papelote 0.520707
Seneantian Finalmente 1
bewe guantes 0.00765183
mesawemetax guantes 1
Jan guantes 0.0153063
itan cargos 0.000958631
Ipoki Narración 1
iwe lidere 0.034915
jonii lidere 0.0871283
jonii alguien 0.0252795
axonwe rosario 0.113684
taxnanwe compleméntalo 0.0133599
rani pelo 1
bochikiakin nariz 1
bixon nariz 0.0683917
rebo doblándolo 0.545837
ja doblándolo 1.61416e-06
rekianxonkasai quieres 1
jonon quieres 0.0518988
min quieres 0.00114833
wetsaboribi dobla 0.05839
wetsaboribi misma 0.160315
Jaskaxon De 0.476824
katoaribi doblado 1
Chosko Debes 0.14229
katowe doblar 0.113794
Ja doblar 0.0105342
katowe dobladas 0.113727
jemaoriakinbiri dobladas 1
jisakin techo 0.0145396
beporo doblar 0.507124
ja techo 0.000111251
katobekonwe afuera 1
jemaoriakin afuera 1
katoa Dobla 0.00344565
katowe Dobla 0.085178
axon Dobla 0.0123442
rabebires Dobla 1
jatio Dobla 0.749354
Kirika Dobla 0.029161
jaskaakin arranquen 0.000528861
westoira arranquen 1
iwe liderada 0.0337665
jonii liderada 0.0883767
Westiora patarashca 0.00699435
iki liderada 2.50511e-05
jaskakin patarashca 0.047077
jato sajinos 1.97271e-06
jato manada 2.93381e-06
jonon manada 0.421363
betan manada 0.00445742
jawekinin adórnalo 1
choshin secas 1
Kirika Doblando 0.0389289
iki lidera 0.00125178
jato lidera 2.16531e-05
jato único 0.000101024
jato líder 0.00121896
ichax andan 1
benaimein andan 1
jawe andan 2.56892e-06
jonobo siguen 0.782602
chibanimein siguen 1
iki sajinos 0.00293279
jane dirige 0.00604261
bai dirige 0.021085
jan dirige 0.000639191
jikikinxon Lleva 0.565621
axetixobonko Lleva 0.096957
natanaibo hacia 1
renikina hacia 1
jan hacia 0.00438287
betan poder 0.0031868
yokawe vas 0.0024305
yosi vas 0.0803517
anonxon vas 0.00627568
reni camino 0.824048
reni guía 0.175952
Bai camino 5.0237e-05
Bai guía 0.99995
pikanai preparan 0.194078
taxnanwe final 0.0111161
ninkaxon sonaja 0.0935803
Jainoax compañeros 0.984811
yoia sonaja 1
shakaatiati sonaja 1
Tanonianti confecciona 1
shakaati acompañados 0.26071
ja acompañados 1.95692e-05
pikokinxon canten 0.01743
bakebo canten 0.000337305
Jeman canten 0.0449651
ati sonaja 0.00354357
ibekona juntos 1
Ja Amarra 0.0106803
ja amarrando 0.000890214
Westiora confeccionando 0.00245245
westiora ensartar 0.000640982
mansian ensartar 0.0674469
keonti corto 0.231978
ati corto 0.00500461
tanonin corto 1
yomaman Confeccionar 0.0404686
ati Indicaciones 0.0037531
ikainko cuadros 0.0363885
ja gobernador 2.67592e-05
ati resultado 7.17158e-07
chitemeran cuadros 0.112528
ninkaxon sonajas 0.0903562
yoiya sonajas 0.00696552
ati sonajas 0.00366795
awe entrégaselas 0.00616286
yoiwe semilla 0.00148325
tanoni semilla 0.179064
paketabo digan 1
tanoni deciden 0.000191375
yoikanai deciden 0.0379554
Katoxon deciden 0.799777
joxon blancas 0.0493196
bewakinwe referida 0.0222508
joxon rayas 1.41925e-05
shakaati comenzar 0.133252
wishakanai escribir 0.621121
moa agujeros 0.014345
tanoni cascabel 0.751898
natobo siguientes 0.358744
jene almacenar 0.0121207
bakebo agujeros 5.08909e-08
Tanonin Confeccionando 1
Yoman Cortando 1
keonribiwe otro 1
ja vuelve 0.000723695
mayakin vueltas 1
keonxon dándole 0.522952
tanonianti ensarta 1
pekao ensarta 4.58396e-05
jaskara hablen 2.93803e-05
4 4 0.649014
westiora preparación 0.00256187
wishawe 1 0.0282973
kirikain tapadas 0.00594864
kirikain estar 0.0118971
winonaketian evitar 0.833056
nokotax Contando 0.168716
betenki preparación 1
chitebo 2 1
iki 2 0.000424103
sere preparación 0.211574
ponte 2 0.250127
Jaweratorin favorito 1
Ja contar 0.0859651
teoti confeccionar 0.342966
atipana adorno 0.0895865
berobo solamente 0.000329826
min confeccionan 0.00153127
betenti preparar 0.21688
atipana confeccionarlos 0.0352247
min confeccionarlos 0.000918663
ixon salido 0.014705
wishawe salido 0.0319692
kirikain salido 0.051846
ja salido 0.000974629
joyonkin Colócalos 0.0366121
kirika pedazos 0.0129188
ixon posee 0.00692155
wakanawataitian época 0.718137
inii época 0.24834
Xepox Huairuros 1
mansian rosarios 0.0705452
jaweti rosarios 0.00405886
jato rosarios 0.000242847
sawemaxonbo rosarios 1
Jaskaribiakin rosarios 0.0694419
Jaskaribiakin También 0.000119215
ixon hechos 0.0150489
bero hechos 0.00123814
onamawe Tiende 0.0349516
nexaxon Tiende 0.23761
joyonkin Tiende 0.0419933
jawetianki época 0.239498
Westiora Tiende 0.00405677
bimibo confecciona 1
bero También 8.51974e-05
Bimi También 0.599601
Teoti Trae 5.32679e-06
Bimi Contando 0.400399
tsekaxon sácalos 5.69621e-05
( consiste 0.0161944
jaskakin limpian 0.0133645
yakakinxon devuélveles 1.52179e-05
yoimawe hablen 0.026511
akanabo hablen 0.0694145
tee hablen 0.00236903
toponmawe cuéntenlos 0.123652
winomaxon ocho 0.233365
taxnanxon cuéntenlos 0.0106317
Kencha Pega 1
kiniati hacerle 1
jaweti platos 3.32026e-05
bakebo dibújales 0.000254605
jayaoma tienen 1
jawetiki tienen 0.766755
iki plato 0.00481774
kenchaya plato 1
bakeki plato 0.490657
toponti cuánto 0.0415491
kaman cuánto 0.0613837
matonki cuánto 0.0906064
non conseguido 0.00151298
jawetiki cuántos 0.0051529
pikoa hemos 0.303744
non formado 0.00075506
jemankobora comunidades 0.000577494
ribojo formado 0.00174055
oinai ves 0.0342256
min ves 0.00229675
ribojoain ves 0.055669
kirikain pegarlos 1.43157e-06
pikoti ordenarlos 0.0755268
ixon saber 0.0757807
ixon ordenarlos 0.00735519
jawerin Intenta 0.0858231
menixon recortados 0.000276836
menixon recorte 0.00235691
ribojo recorte 0.00174724
axon Tráelos 0.0132216
wetsa realizaron 8.13434e-06
jaweti Cuántas 0.00466732
biananamawe línea 0.638968
serekan línea 0.398431
westiora quita 0.00292579
ixon únelos 0.00506162
akai únelos 0.005496
min elaboras 0.00254411
jato mijano 0.00103295
jawekibo elaboradas 6.51158e-06
meinxon elaboradas 0.615939
Mapo elaboradas 0.394641
ishton rapidez 0.509833
yoa cocinar 0.0529306
min cocinar 0.00367482
kentikan cocinar 0.0959262
jaweboribi poner 0.0147633
non callana 5.05079e-05
kenchakamein poner 1
non tomar 0.00291373
ati tinaja 0.00299561
atibo uso 0.0020428
jawe dirige 0.000822223
onamawe uso 0.0244129
iki carachama 3.61959e-06
iki soy 0.00016644
biananamaxon cuéntenlos 1
atsa ayúdalos 0.0068935
tee ayúdalos 0.000472689
oimaxon cuaderno. 0.0218582
kirika cuaderno. 0.00236847
atipana elaborar 0.0754955
non elaborar 0.00194171
akanabo pequeña 0.0189603
nato pequeña 0.00316057
maxkorin pequeña 0.42723
anirin elaborada 0.633506
oimaxon traídas 0.00853389
westiorabo traídas 0.00767479
jawekibo traídas 0.00577442
jawekibo Reflexione 0.00399404
itan ensartadas 2.78469e-06
itan Cascabeles 2.34385e-06
taxnanxon papelote. 0.00168643
joto papelote. 0.24504
ati confecciona 0.000372369
ati Cascabeles 0.00750011
kirika papelote. 0.00118966
yamaketianra papelote. 1
betenti sirven 0.115675
beai sancochado. 0.0164883
onanti conocer 0.0561682
aka cocción 0.00306205
paranta chapo 0.0455743
atsa masato 0.0344598
tsama nombrar 0.0126305
kencha callana. 0.636228
jaweki modelos 0.00459606
axon Creando 0.0164915
taxnanwe palo. 0.0045625
jiwi palo. 0.0292265
kaman palo. 0.0196887
joni bodega 3.07798e-05
jawetiki conseguido 0.0387634
Taxnanwe cuenta 0.684131
akai agente 0.00815728
toponxon cuatro 0.3189
yoiti responder 0.0080652
bikanai madera 0.500002
akana cerámica 0.14457
jakomaakin escritas 1
Nenkema Confeccionar 1
yoiwe pregunte 0.000778014
yoiwe elaborada 0.00157266
yoiwe niños. 0.000120647
tee niños. 2.5876e-07
tee entrégalas 0.000901472
jainxon entrégalas 0.00067789
ani papalote 0.00618833
iti consumirlos 0.0088855
jawe formado 0.000822308
akai elaboran 0.00549726
akanai cerámica 0.0483926
chomo cerámica 0.642868
mantonki saben 1
Ja 2 0.0035117
jaweakanai elabora 0.426698
pikoa elaborado 0.367578
jisaboki formas 1
yokawe Mostrándoles 0.000348085
nato ves 0.00632041
Bakebo Mostrándoles 0.000562361
joyonxon ordenándolas 0.473676
aki Comparte 0.0230453
akanabo ordenándolas 0.0189603
mapó ordenándolas 0.223939
Ja Cuenta 0.0197696
toponkinwe ellos 0.00207415
pikoti elaborar 0.0666889
jeman cerámica. 0.00457128
moa cerámica. 0.00857355
ati cerámica. 0.00150123
ikanai puedas 0.00528662
akin elaborar 0.0189559
chomo elaborar 0.0963369
iki callana 0.00135459
mapó tabla 0.298586
menipakexon tabla 0.625
Tabara tabla 1
Ninkakinwe ellos 0.128381
Ninkakinwe Escucha 0.871619
jaweki cerámica 1.01521e-05
jaweki técnicas 0.00132475
yoyo comunero 0.00462426
mesko técnicas 0.00107863
axon técnicas 0.0047536
yoxaman sientan 0.0170337
merati haga 0.231988
bexon realicen 0.181567
janekanai asamblea 0.0916287
Axetixobonko Trae 0.377985
chosko cerámicas 0.133806
Chomo Contar 0.996677
senentian finalmente 0.365566
yoyo leerles 0.00274219
jakiribi leerles 0.229005
, leerles 4.04301e-06
Bakebaon leerles 0.00609259
shinanbo vas 0.00837116
mapo mezcla 0.0336257
iki chocitas 0.000580151
akana chocitas 0.0130576
jawekopimein chocitas 0.0149593
iki realizaron 0.00107902
pikoxon amárralos 0.0300627
jaskaaxon confecciona 0.00262932
xatepakexon recórtalos 0.606183
jainxon recórtalos 0.00318588
ribojanwe sacaba 0.163893
shinanxon sacaba 0.0662022
jato Reflexione 8.34798e-06
jaskaaxon piensa 0.0121775
Ja jefe 0.0140477
nato similar 0.00632056
peibaon dibújalo 0.0816661
kirika amárralos 0.00424575
kirika similar 6.44131e-07
ninkata narración 0.00815129
yoiya narración 0.00170916
imaa narración 0.0342262
jaskaaxon sacaba 0.00181002
ninkama explicarles 1
imaa explicarles 0.0782716
Bakebo explicarles 6.8994e-05
ikai lee 0.0308519
jato siéntate 6.93212e-07
yosin anécdotas 0.0184134
iki mocahua 5.83203e-08
yoiyai abuelos 0.000677436
imaa abuelos 0.0403716
iamax abuelos 0.00964092
mato abuelos 0.0316084
iki abuelos 0.00163105
Ja Dobla 0.0157716
ja dibújales 0.000217111
yoiya Explicando 0.00399048
Mapo Explicando 0.15194
ati hacerlas 0.00749251
ribojobo sonajas 0.0082759
ati Reuniendo 2.47909e-06
jawekibo hacerlas 3.63927e-05
jawekibo Reuniendo 0.00910444
josin contó 1
ipo huevo 0.163171
yapa limpian 0.000998133
iweai calle 0.0742125
axekana Reflexionen 9.56739e-06
berobo llevarlos 8.93247e-07
ika narración 0.00168842
neskakin papalote 0.0143849
apo jefe 0.799215
bero rosario 0.239277
xatexon amárrala 0.0198753
westiora amárrala 9.68243e-05
jan único 0.00124202
awe trabaja 0.00125525
tee trabaja 0.000325424
bero ojo 0.0249287
jaskaakin trabaja 0.000263774
kirika trabaja 0.00183225
Wetsa trabaja 0.0530687
toponxo escríbela 0.0358934
oinxon escríbela 0.00231888
iki escribirlo 0.0019936
non escribirlo 0.00183649
toponxonki escribirlo 1
non total 0.00174284
imakanatonin jefe 1
peiki total 1
jaweti total 0.00899905
jabe pegarlas 0.162804
atiki escriben 0.0643639
peibaon nombres 0.796995
peibotibi cada 0.954949
jati amárralas 0.0130607
tsekaxon amárralas 0.00190224
jaskati peligros 0.0711034
bero ensarta 0.0325431
westiora recorta 0.00901182
iki Cuántas 0.000505117
jaskakin puedas 0.0156006
jaskaakin igual 0.000842181
peibo igual 0.0160826
betan reunión 0.00112778
betan ninguna 7.61219e-08
kirika igual 0.00295986
chiniabainkin dobladas 0.00055136
Wetsa igual 0.169472
wishawe escríbelo 0.0156581
jati escríbelo 0.00252203
oinxon escríbelo 0.00432734
Senenxon Finalmente 1
ixon juntado 0.0037962
jati número 0.0574372
bewai deje 0.0776002
iki atraparse 0.0015312
yatanananti atraparse 1
bakebo atraparse 8.6919e-06
toponkinwe cuenten 0.272122
yakikinxon siéntate 1
yoiwe junten 0.000220508
jawekibo junten 0.00540709
Reken Primero 0.702669
5 Enséñales 0.000215103
4 contar 6.81538e-06
4 Enséñales 0.0926716
riki Esta 0.0076247
peinko Esta 0.198608
kirika Esta 0.00183232
Nato Esta 0.00990928
Toponti Aprendiendo 0.112669
mepinwe únelo 0.575456
oinxon estudiantes 0.00375661
jaki únelo 0.147324
jaki sigue 0.00947709
oinai pucallpa 0.02221
jawerato enfermo 0.00340977
Joni Donde 0.0998319
jawekeskatibo enferman 1
mato enferman 0.0234461
ribojanwe Haciendo 0.0169727
potaxon tira 1
isini Haciendo 0.104719
raonkanai beber 0.178031
noa beber 2.54013e-05
noa dándonos 0.00384707
jonibora quiero 0.999988
noa curan 0.0115585
jawebaonki curan 1
jawekeskakimein curar 0.680955
jaskaxon Pensando 0.0102292
teeboki agente 0.051394
jisakin papeles 0.0581567
ati niños. 0.00673085
yakata sentado 1
taxteta sentado 1
sionya blancas 1
aki cama 0.0231352
yona echado 1
bake echado 0.00611983
bake fiebre 6.38099e-07
oinxon peligrosos 0.00128844
mapon vómitos 0.21129
iamax pequeñas 0.00943025
raonkanai dándonos 4.39494e-05
ninkakinwe aplicar 0.0290466
yoiyaibo Escucha 0.152303
Kobin doncella 0.875076
anibobaon cuándo 0.347634
jawekeskakin cuándo 0.113102
Kirikani Escríbelo 1
isinaitianki cuándo 1
chibanti correcto 0.299924
jan correcto 0.00119976
jan seguimiento 0.00139084
tsekaxon Pon 0.00380145
kimishakaman cuenta 0.0077571
kimishakaman tres 0.99212
xobo techo 0.028762
chitemeran pegándolos 0.0783873
ja pegándolos 0.000541034
ribojana pegándolos 0.00693968
beabo recorte 0.0155947
Peibo Mirando 1
meniwe entregándoles 0.00532011
bakebo entregándoles 0.000250695
yoiwe contando 0.000691671
( tempera 0.0121431
toponxon contando 0.000226702
pekao contando 0.00713121
jeneta contando 0.213379
tsini contando 1
Bingon contando 1
jonii vuelvan 0.0446276
jatibi despega 0.013147
axeamisnin despega 0.0123841
seneankai fuertemente 0.444203
isiniki enferman 0.0733498
ribojotibirakankin fuertemente 1
ikainko encima 0.0364132
jaya fuertemente 0.545454
pei recórtalo 0.00625102
xatexon papelote. 0.00651616
tsoarin soy 0.20775
axon bolsa 0.0109942
ribojanabo bolsa 0.0808466
peirin planta 0.850009
yoiyai técnicas 0.000272557
oimaxon recortadas 0.0582675
jato recortadas 0.00054441
beabo recortadas 0.0668346
ribojanxon recortadas 0.039497
pei recortadas 3.49713e-05
Joni jugar 0.675196
betenti nomás 1.75935e-05
yokatai Pregunta 0.103448
Bakebo Pregunta 0.00084841
kirikanin recortado 0.0545164
Mesko recortado 0.00163555
yokatai esas 0.315682
janebo esas 0.491222
raobaon esas 0.856276
noa aplican 0.00192757
mia conociste 0.00713946
mesko junten 0.0020173
pekao agente 0.000188119
toponti parecidas 0.0304215
ja parecidas 0.000491712
pei parecidas 7.80415e-07
Toponti Contar 0.229722
min cuándo 0.00183729
bixon lavado 0.0523243
ribojona demostrar 0.199899
jan demostrar 0.000547817
Jan demostrar 0.00655952
iki sola 0.00121443
mechokiti sola 0.31455
westioraibichomein sola 1
itiki primero 0.546523
jawekianoxonki primero 1
jan lavamos 0.00127837
jaweborin lavamos 1
onanmai lavarse 0.0308815
onanmai demuestra 0.107978
maroti bodeguero 0.55859
mechokiti demuestra 0.250692
jakoni demuestra 0.11508
botaxnanwe pegándolos 1
mechokitai lavarse 1
onpax jabón 0.285255
bakebo jabón 0.000143336
bakebo laven 0.000178629
rama peligrosos 0.00598819
koirameti cuidemos 0.596285
noa cuidemos 2.53681e-06
Jakonrin Está 1
Ja Reflexionen 0.0105371
iki lavarnos 0.00151848
mechokiti lavarnos 0.434758
noa lavarnos 0.00540913
awe servido 0.00502068
awe decimos 1.16702e-07
noa decimos 0.00385508
jisarin parecen 0.00823296
bewe Tráelos 0.00455101
awe enséñales 0.00167363
wishawe dolor 0.039593
toponti creciente 0.0405749
ribojana elaboradas 0.00799005
oinxon parte 0.0114808
ribojanxo construyendo 0.0584179
awe corrígelo 0.00167358
jan únelos 0.00127835
jakon corrígelo 0.0129837
jakomakin corrígelo 1
ninkata corrígelo 0.00950899
axon mal 0.0347142
yoyo mal 0.0131214
yoyo escrito 0.00803325
ika Maneras 0.00393955
raonmetiki Maneras 1
kirikain voy 0.042251
mato voy 0.148029
maton yo 0.0137563
yoiwe opinión 3.71997e-08
taxnanwe Pégalo 0.00667993
, me 0.00245551
raonmetai duele 1
noa duele 0.00256956
taxnanwe Pon 0.00667999
Onanonxon saber 1
Oinkana ver 1
axon agrupar 0.00828431
bakebo agrupar 0.000251199
Ninkawe Escucha 1
maton decirme 0.00174697
jakoma corremos 0.282858
iki decirme 0.0020875
yoiti decirme 0.00120449
yoiti pueden 0.124715
teeti traídos 0.0242222
jan traídos 0.00383
jaskati dolor 0.0817617
yoiwe recitar 0.0002734
pekao recitar 0.00274275
ika recitar 0.0043185
non recitar 0.00105948
pikokasai aprendió 1
axon pruébales 0.00824567
axewe ayudó 0.0188427
axeamisnin ayudó 0.0102275
Jainxon ayudó 0.00107897
chibanti lees 0.0761942
min repitan 0.00114874
yoiwe repitan 0.000292434
bakebo repitan 0.000254365
awe lees 0.00143464
yoyo lees 0.00395575
yoyo lee 0.00545408
ja trata 5.35207e-07
nexabainti confeccionando 1
yoyo trata 0.00692214
jato Pero 0.000291814
Rekenpari Pero 0.0841229
yoiya siguiendo 0.00628338
tee siguiendo 1.69955e-08
chibankin siguiendo 0.19214
ja siguiendo 0.000362154
pekao narración 0.00169383
ninkawe comentarios 0.0182393
yoyo comenten 0.0108262
bexonke he 1
itan demostrar 0.000206695
taxnanwe desdoblado 0.00333975
mechokitibo lavamos 0.66666
beaitian corriente 0.827021
ikaxbi desdoblado 2.14191e-05
ikaxbi pared 0.0794325
kirikanin escrito 0.0897586
ani pared 0.00618529
Rabiti Pega 0.256223
ika Poema 0.00182466
taebo dobla 1
non Poema 0.00208864
Keyotimakopi acaben 1
itan jabón 0.000308395
ikanwe Cuidémoslas 0.454585
jakon lindos 0.0129846
joshin roja 0.262446
riki lindos 0.00508324
non lindos 0.000754803
pekao municipal 0.0046215
wishamawe sacado 1
tsiri Nosotros 1
miskin sacado 1
Noa Nosotros 1
akai cura 3.30031e-06
akai enfermamos 0.0180705
Non pedimos 6.97094e-05
ika A 0.0089281
raoboki A 0.387604
ikarin trata 0.0593987
jawenribiki curamos 0.590883
noa curamos 0.00715351
isiniki enfermedades 0.782399
jawekeskati enfermedades 0.654403
Seneantiain comenten 0.959609
Seneantiain Finalmente 0.0403914
pioniski dueño 0.151601
isinaitian mama 0.499981
noa enfermamos 0.0047448
iki curación 0.00362728
noa medicinales 0.00771028
noa aprendido 5.02779e-07
Mesko Hazles 0.00184598
westiora prueba 0.00149773
, sacándoles 0.000203667
bakebo prueba 0.000474141
janeti elegir 0.466245
taxnanatsekaribiai vuelvan 1
biti recoger 0.13586
jawekeskaxonki recoger 0.0791038
Tenexon Antes 1
jene escrito 0.0267152
jakon recortados 0.117998
xateabo Ordena 0.283639
Ribojobo Ordena 0.0274295
mia casos 0.00952628
jawekeskatimein casos 1
kirikainoa cuaderno 0.369044
teeti Muéstrales 6.56614e-06
Jan Muéstrales 0.059079
Rama Siéntate 0.015033
xobonko regresar 0.00679908
) consiste 0.0163935
ipoki ayuda 0.621842
jaskaati saca 0.335576
winoti pasaría 0.721318
akina ayuda 0.621855
jaweki pasaría 0.00443368
jainoax fueran 0.359982
Ribojobo parte 0.0489135
ninkaibata dijo 1
yoiyaibora yo 1
ja parte 0.000995467
ani Dobla 0.00926166
raobo mencionan 0.0203825
ea uno 0.598711
janekanai mencionan 0.130215
ea yo 0.158181
raobaon mencionan 0.143591
jaweboki elaboras 0.0145166
akai mijano 0.0101045
jaskaakin técnicas 0.000303559
chexa cabeza 0.795523
mapon cabeza 0.000198848
katobokin formar 0.800119
jisakin recoge 0.12775
jisakin rápido 0.025559
ikainko huecos 0.0145654
bewe dibujando 0.00917616
jawekeska parecen 0.00845981
kirikanin dibujando 0.064956
Pionis Curación 0.220583
Yoxaman Pinta 0.0231238
sikawe tocando 0.0277444
sikawe cuadro 0.0473278
ribojana tocando 0.0132649
yokatai tocando 0.13945
meenoxon tocando 1
Yoxan Pinta 0.160545
raometaibo curación 1
iboyabo dueño 0.994924
piti chilcano 0.0849693
min sabes 0.00343819
Axetixoboxon En 1
yokati permiso 0.173064
jawetiki carachamas 0.0799193
aka Recipientes 0.00344357
jawen permiso 0.0105208
pionisnin lleva 1
axon sancochado 0.0109942
iwe realizarle 0.0227234
yoyo realizarle 0.00461316
noa aplicar 2.83109e-06
betan realizarle 1.00997e-06
yoiti permiso 0.00981878
ibo permiso 0.454491
xeatiribi toma 1
jaki recitar 0.0700849
betenkinki hicieron 1
oinxon cuadrados 0.00760507
peibo cuadrados 0.0264581
peibo dibujadas 0.0366001
Rao Mirando 0.490139
japakeo esa 1
jisabiresbo esa 0.999991
riki hacia 0.0348529
Rawishkanai raspan 1
jaskaxon construyen 0.0170068
menixon piedras 0.00955579
itan piedras 0.000110242
ja ayer 0.00101802
shinankinwe realizaron 0.396936
Bewakina cantar 1
topona total 0.153687
toponti hay 0.205689
Jato Léeles 0.0798973
maton conocen 4.4981e-05
akai lees 0.00235561
kaman número 4.64042e-06
yoikanai cuentan 0.0391351
Tsamanxon cuentan 0.996432
Kiriki Arranca 1
yokatabo pedido 0.153134
ja pedido 0.000584934
seneanka pedido 0.729414
jake consiste 0.0119809
pei pongan 0.0003814
Tawan Con 1
iki ajo 0.0012562
boains sacha 1
pei sacha 0.00416563
pei luisa 0.00654822
pei hierba 0.00104628
ininti luisa 0.180302
axetixobonkoxon Regresa 1
bea colorado 0.191477
bea preguntando 8.67978e-06
pei preguntando 0.000830609
peota chocitas 1
topomai regreso 1
oinxon pregunte 0.0077232
pei regreso 0.00139227
ja regreso 0.000146702
axeamisnin regreso 0.00620534
iwexon regreso 0.00605496
Axetixobo De 0.668267
beti lleven 0.0199349
axetexobonko lleven 1
tsekaxon lleven 0.00243175
pei lleven 0.000344826
yoiwe lleven 1.67878e-07
raoki plantas 0.574072
jaweti cuántas 0.465541
toponkinwe cuenta 0.455219
xakayabo cáscaras. 1
beponya cáscaras. 1
iki raíces 0.00123956
taponya raíces 1
iki medicinal 0.000754271
iki recoger 0.00198204
jan enséñales 0.00063909
jane oler. 0.00453211
jawe oler. 0.000616699
onamai oler. 0.015126
xetemaxonbo oler. 1
ikain lleva 0.285507
, oler. 0.000101935
, mostrarle 5.0813e-05
iweai mostrarle 0.0277741
rao plantas 0.2645
mesko Ordena 0.00374196
yosi Coordina 0.5629
Isinaitianra Cuando 1
Pionis Contando 0.367431
ixon curado 0.00189743
jatibi único 0.0117783
raokanaki curado 1
raoboribiki otras 0.92421
yoiwe curado 0.000146139
xepoxon curado 0.0495063
Non comunidades 0.0492748
aka tuviste 0.00256235
jaskati tuviste 0.0168641
ribojana Pon 0.00996951
oinxon tuviste 9.11692e-05
mia curado 0.00356987
mia tuviste 0.00354175
mia curarte 0.00713943
pioniski tiene 0.734037
yoita enfermedades 1
oinon enfermedades 0.692811
isintiboki ver 0.999681
Jawekeskati A 1
bewa Cantan 0.115203
imawe curando 0.0440323
joni enfermos 0.00108936
joni curando 0.0613714
jato enfermos 0.00186611
jato estuvieran 3.68657e-05
iki estuvieran 0.00122642
mia curas 0.00807103
peibaonbichoki sólo 1
raonai cura 0.530345
ribojanxon recortado 0.014697
jawen enfermas 0.00566644
iki enfermado 0.000267102
jaskati enfermado 0.0202849
ikanai dolores 0.0105675
isiniboki dolores 0.571429
jawekeskati dolores 0.0818001
oinai vemos 0.0171236
min vemos 0.00114909
nato vemos 0.00315411
jaweboki vemos 2.24339e-07
ati siguiendo 1.33439e-06
oimaxon Muestra 0.0322913
Ribojobo Muestra 0.0274292
itan sacha 2.74719e-08
ixon enfermas 0.0151846
ribojo sácalos 0.00518526
mia enfermas 3.67093e-07
seneankin final 1
jake reaccionas 0.00740315
bakebaon reaccionas 0.000202744
itan luisa 3.18131e-05
kinibo huecos 1
jisati pie 0.251956
jisati tuviera 0.118248
tasketa tuviera 1
iki Cojear 0.00126735
Chanke Cojear 1
benbobaonreski solo 1
ikai barriga 0.00161225
itan cáscaras. 0.000482258
yatanya doliera 0.217935
jisati doliera 0.0406089
chexai doliera 4.70693e-05
Mapon cabeza 0.780389
shinanbo enséñales 0.0108418
ikanai acciones 0.00528662
meskotibo acciones 0.158287
bebon acciones 0.0132489
pikokinxon acciones 0.00866133
Jeman acciones 0.0224182
ribojanxon traerlos 0.0258356
isinbo Conociendo 1
jaskara pegue 4.90146e-05
yoimawe pegue 0.0212711
jato pegue 0.000107029
jato termine 0.000892628
taxnanxon termine 0.0335346
yora alimentan 0.0218794
yoiwe pinte 0.00116481
yoiwe Dígale 3.30176e-08
Ribojanxon Dígale 0.081962
ati haya 0.00250537
shinanxon haya 0.0182068
ika haya 0.00394456
jawen haya 0.00377632
menixon realice 0.00590054
tsekaxon realice 0.00378163
noa visitamos 0.0154204
xobonkoki visitamos 2.01805e-06
tsoabaon hogares 0.027892
axon preguntándoles 0.0329776
yokabo preguntándoles 0.0229136
mesko preguntándoles 0.00748442
bixon juntos 0.103959
Jato recordar 0.48577
Jato Hágales 0.113573
bewe recortado 0.00800632
jaweki cura 4.217e-05
jato ayúdales 0.000937666
bakebotibi Pega 0.750001
jiwiboreski madera 1
ja recortar 0.000475056
bero ensartadas 0.00595069
noa mama 1.8782e-06
ikanai antiguamente 0.0126723
yoyo antiguamente 0.00553559
bewakanaboki antiguamente 1
xobonxon antiguamente 1
jaskaxon sonaja 0.0258584
ayonba acabados 1
shinanbo comentarios 0.0216827
ayonkin terminando 0.99933
Senen terminando 0.40004
seneman Voy 1
chono Voy 1
neten día 0.753693
abanon Voy 1
winota abuelos 0.479337
En Voy 0.378323
iti bis 0.0266563
akebainxon hago 0.0666359
yasan hago 1
binon hago 1
barin hago 0.39064
topikan hago 1
pikoaboribi ensartadas 1
Binon hago 1
ikanai empiezan 0.0105683
masha empiezan 0.0399373
motsai preparando 1
bake intercalando 2.78721e-06
bake Salen 0.00187836
Jeman Salen 0.0569025
axeakai canto 0.339272
pein Curación 0.0492859
iti canto 0.021161
xaba municipal 0.184447
ika canto 0.00468941
besteaki canto 1
ixon enseñarles 0.00507732
jonon enseñarles 0.0694135
chokitibo aseo 0.851546
masha enseñarles 0.0400628
Yoxan Coordina 0.397998
Yoiwe Diga 0.254155
iti pero 0.0529494
Bonsin Viendo 0.612972
iki referente 0.000845132
yokati referente 0.0933145
papabo preguntarle 0.0368889
wishati escribirlo 0.0875259
jaton preguntarle 0.00565929
kaxon preguntarle 0.0722132
kaxon regresar 0.00270075
ixon hechice 0.00504851
yotoyamanon hechice 1
iki podría 0.000381525
wishakin termina 1
Moa queme 0.0295735
Moa hirviendo 0.485445
yotonaketian hechice 1
jawekeskakin hechice 0.0940182
jaono encuentra 1
non mostrar 0.0045226
iti sabe 0.022557
iti bingo 0.0533152
jaa nombrar 0.0191153
janeti nombrar 0.225894
imaxon dramaticen 0.012676
teebo pegarlo 0.0273961
jaton pegarlo 0.00523644
yoinabomein único 0.393071
menixon coloreen. 0.0039306
Bakebo Léeles 0.000604313
kirika lobos 0.00366529
tita pelar 0.0277135
itina ahumado 0.0189059
peibo recortado 0.0135357
yoiya habiéndoles 0.00598205
iki peligroso 0.00198431
iki lobo 2.25653e-07
ixon lobo 0.0474681
keonti adorno 0.176718
keonti solamente 0.0019454
bonsin peligroso 0.0238433
, coloreen. 0.00013471
akanai reuniones 0.0338477
yoiwe Pegue 0.000382845
jaweboribi callana 0.985237
Ribojo Pegue 0.0424175
bonsin río 0.435361
Bonsin Conociendo 0.387028
ribojorin escríbela 0.266171
metsaakin bonito. 0.190482
nawexon hacerle 1
jainxo bonito. 0.0981512
pikowe escoge 0.202349
imaa escoge 0.142641
sikaxon escoge 0.158543
iki ronco 0.00254197
mia imitas 0.000558562
mawaxa imitas 0.698383
ikai tuviese 0.0493391
mawatima embargo 1
min embargo 0.0029652
jaa Sin 0.0286718
yoiyai Sin 0.000502802
jato Imítalo 0.000934886
Tanaxonwe Imítalo 1
ixon emite 0.0113847
rabe agrupar 0.00828722
keotai emite 0.348758
maton piensan 0.011197
riki emite 0.022865
yoina emite 0.000180315
yoina ratón 0.219646
jawekeskara pintado 0.0120093
chitemeran dentro 0.000129518
jain respecto 0.00780507
kopi inventado 0.0507282
ika haber 0.00552398
jaki haber 0.140042
, respecto 8.39465e-05
topona carachamas 0.136216
chibankin reproducir 0.0718344
jaskaakin reproducir 0.000421181
jatibi pepa 0.013147
pikoxon reproducir 0.0103587
min decóralos 0.00114833
pekao decóralos 0.00296497
mishkin preparación 0.100936
taxnanxon crear 0.010627
peibo Pon 0.02017
peibo trabaja 0.00504292
, falte. 4.59631e-07
ribojanwe falte. 0.0678101
ja bonito. 1.34804e-07
imaa decóralos 0.0299463
imaa crear 0.0199632
westiora crear 0.000641181
ika cuento 0.00297748
jaskaaxon léalo 0.00212484
yoyo léalo 0.00571602
meniwe entrégala 0.0156638
tsekaxon entrégala 0.00271217
ika imiten 0.0257206
Jati digan 0.313229
meniwe algunas 0.0162454
jaskaxon uso 0.0102292
ninkawe conversen. 9.04959e-07
yoikanaibo conversen. 1
jisa conversen. 0.0077064
yoyo conversen. 0.00230682
pein ratón 0.154178
tsama agrupar 0.0190367
jaska explica 0.230715
Rao Contando 0.147208
imaa saliendo 0.0890678
imaa ratón 4.75991e-06
yoiti juntado 0.00793239
ika ratón 0.000363829
ika Hablar 5.62956e-06
westiora palitos 0.00170911
Jaweti Cuenta 0.556094
Jaskatax hábil 0.333944
toponwe cuenta 0.771789
jiwi palitos 0.152091
bai correcto 0.0711508
ainbo mujeres 0.0642363
iti hábil 0.0304346
te hábil 1
ixon sabe 0.00175225
ixon bingo 0.0075917
jati total 0.0230254
akai enseña 0.0204972
aiboboki niñas 1
yokatai soplar 0.104839
yoman Amarra 0.066555
ati tal 0.00150109
jato demostró. 0.000639662
mankoa haberles 0.12937
Toponwe Cuéntenlos 0.254244
pakarin bambús 1
jaweti bambús 0.00707297
benbo Llegando 0.0236493
aka soplar 0.0103341
kenki gustado 1
kesten fuerte 0.869112
kesten sonar 0.130353
jisakinbiresakin sonido 0.991063
aka soplado 0.00516535
xon soplado 0.089259
yosin enseñó 0.0450316
Axetixobonkoxon hace 0.79542
Axetixobonkoxon El 0.0779764
ashokoai imitan 0.457371
paka imitan 0.103616
mawakin imitan 1
ja imitan 0.000294371
bakebaon imitan 0.000371986
ati bambú 0.00562712
jaskakin demuestra 6.35785e-06
5 Salieron 0.0207085
jaskakin bambú 0.070127
yosin demuestra 0.0223449
menipakeai Hace 0.446086
jato bambú 6.06844e-07
jato Hace 0.000733036
pakabo Hace 1
ninkakinwe sombra 0.0248958
yoiyai sombra 0.000492388
ati sombra 0.00183794
ixon llevándolos 0.00303695
inon llevándolos 0.172928
teka sombra 0.328616
iwenoxon visitarnos 0.0470708
bakebo pueda 0.000506198
Westiora pueda 0.00669124
xama ramas 1
, ramas 5.35499e-05
paka corten 1.35887e-05
ixon bambú 0.0113922
jawetirin traducir 0.202824
raometai curamos 0.533804
iki posible 0.000534393
ati posible 0.00158614
inonxon traducir 0.0218712
menin traducir 0.104374
Te traducir 1
bero collar 0.0610806
peowa cuadernos 1
Bakebaon cuadernos 0.0170907
jaskaxon entrégalas 0.0177158
joto llévalos 0.75496
kirikani tráelo 0.258671
Ipo Dibuja 0.000325779
jaton mirarlos 0.00261822
xatexon recorte 0.00846189
tawa amarra 0.132918
westiora caña 0.00528899
mapo pequeña 0.0197187
chosko techo 0.0104602
yoikanai Aprecia 0.0190035
ixon Aprecia 0.00379619
keonkana Aprecia 1
jawe colocados 0.00082227
joyonxon colocados 0.315801
nishin amárralo 0.590334
teoti confeccionados 0.276016
Ja Aprecia 0.00526755
kirikanin pared 0.0406236
jainxon collar. 0.00220575
chibamakin vieron 1
rabe iguales 0.0316118
peibo Contando 0.0265334
oinxon cuadernos 0.0128789
Moa echándole 0.161353
rabebo cuéntenlos 0.333416
yokatirin pedir 0.635657
Bakebo Dales 0.00120982
wishaxon escríbelos 0.0496315
noa debemos 4.45332e-06
teotiakanon elaboren 1
berobo semillas 0.735623
merakinwe papás 1
jakonax reúnete 0.272518
seneanwe reúnete 0.0101261
seneanwe temas 0.033647
joibo temas 0.112952
noa hechice 0.00260253
akabo Sus 0.0547896
beroboribi hilos 0.721288
beroboribi e 0.278712
yoman hilos 0.156036
jan hilos 0.00221183
bake ponerlos 0.00305756
boxon mostrárles 0.430349
baken ponerlos 0.0230787
jawe ponerlos 1.52606e-06
jawe listos 0.00123216
onanxon rápido 0.0455036
tsinkixon confeccionables 0.0718321
ati collares 0.0334561
ati Confeccionando 0.00488265
bake Recórtalos 0.00611738
jain dado 1.95189e-07
taxnanwe Recórtalos 1.10139e-05
raokatibo adornos 1
xeatiainkokai mujer 1
ikinwe adórnalos 0.165187
masha adórnalos 0.0580468
ati cocción 0.00187332
raotibo Salga 0.0627301
ribojanxon papelote. 0.00709739
benbo Salga 0.0133783
axe cortan 0.0933571
bake Salga 0.00407772
Westiora Salga 0.00244934
Joni Si 0.184032
shinabo Escucha 1
iki vestirse 3.25251e-07
neskati vestirse 0.25309
jawerato cumplido 0.0125243
noa vestirse 0.00192733
jaskara también 2.10726e-05
iki adornarse 0.000796937
ja iguales 0.000128966
raotiki todos 0.000305766
oimaxon adornar 0.0108443
raotibo reunidos 0.176982
bebon mostrándoles 0.026614
jato adornar 0.000618228
jato mostrándoles 0.000621592
yoxaman mostrándoles 0.0199708
katowe nariz 0.148733
katowe atrás 0.113794
Bakebo sienta 0.00115079
jan adornos 0.010102
itan colocados 0.000241095
Kori labio 0.222222
raotiki esos 0.999694
Kori Adorno 0.222222
keonti hilos 0.201131
Chinexeti Correa 1
itan hilos 0.000825587
Westiora mostacilla 0.0200031
jan adorno 0.00195075
benbo adorno 0.0366957
meraxon enciérralos 0.415045
oranshi gaseosa 0.504352
jisama encuentra 0.827788
yoiwe actividades 1.27576e-05
ribojo actividades 0.00306948
nato actividades 0.00371141
meraxon encierra 0.25172
chosko encierra 0.0280993
akiboki están 0.000719909
besteti cualquiera 0.288864
bake cualquiera 0.00407915
ja juntar 2.58615e-05
onana bingo 0.0184602
iki juntar 0.00376061
non juntar 1.68457e-07
ixon Cuenten 0.00312075
oinmai shebon 0.371045
yakamaxon alfombra 0.571427
jisapei diga 1
Ja Ellos 0.0105351
sawemaxon Salga 1
ja enseñado 0.000658695
bewa aprendida 0.0410696
iti aprendida 0.0133245
iti shipiba 6.92046e-06
jawe realizaron 0.0038008
masha shipiba 0.0399102
bestei shipiba 1
Bake shipiba 0.0257689
bestepaokani era 1
jaskaakin era 0.00315843
moatian era 0.652442
ashtaroninbi poderosas 0.325267
pishtaxon era 1
jonon visite 0.0828597
seneanwe Conversar 0.000150147
joi Conversar 0.0199944
yoxanbetan Conversar 1
bestenoxon hija 0.322697
xatexon sonajas 0.0196008
bake corte 0.146878
bake actividad 0.00306475
westiora actividad 0.000959977
oimaxon Muéstrales 0.000673192
anoxon actividad 7.87732e-05
beti shapaja 0.0312622
axeti estera 0.00406397
riki tengo 0.0203324
Besteti Traer 0.00797788
ainbo cerquillo 0.281975
rama doblado 0.0269443
itan Cushma 7.53766e-05
akanabo relacionadas 0.0758447
shinanxon Respóndeles 0.027274
ika Respóndeles 0.00295467
yoyo Respóndeles 0.00692423
bewa canción 0.707021
pishtaboribi fiestas 1
nete san 0.0273118
ati cumpleaños 0.00190023
Non Celebración 0.0202171
tsinitibo fútbol 0.673352
beai creciente 2.61536e-05
pishtati alegrarse 1
rarokin alegrarse 0.663867
senenketian aniversario 0.999915
jeman aniversario 0.00761777
iki fiestas 0.0003751
iki celebran 4.20698e-05
jaabo celebran 0.191075
pishtabo celebran 0.144249
mesko celebran 0.00212554
itan adorno 1.38584e-07
ikanai masha 0.0158512
Bake cerquillo 0.108317
Bake Cortar 0.0398677
Yoinabo Flechear 0.0371682
iki cualquiera 1.28164e-08
yoiyai reflexionen 0.000409271
yoiyai ani 0.00246193
naman gobernador 0.0310834
akanaibo reflexionen 0.310541
xobonkoxon celebran 0.0144424
min celebran 1.72619e-05
min fiestas 0.00497594
oinmawe construyen 0.0147862
ayamakanai celebra 1
xeati celebra 0.000155472
joyonmawe orden 1
ani hoy 1.39487e-05
ani razones 0.0122069
jawekopimein razones 0.000778812
jemanxonbo realizan 1
non fiestas 0.00451876
jawekeskaakin tiempo 0.39054
ramatianki tiempo 1
pishtankoxon xeati 0.858485
jawebomein hacen 0.000419685
texbati ronco 0.00207715
maton aprendieron 0.00492857
iwexon aprendieron 3.96595e-06
jato sombra 0.000999917
nama bajo 1
betan conversen 7.07016e-06
betan Sal 1.29611e-06
yoiya Respondiendo 0.00239374
yokatabo Respondiendo 0.0456341
ika Respondiendo 0.00236017
xeatiki Respondiendo 1
Ani Respondiendo 0.0190809
bikani barro 0.955128
jawe cortarle 0.00123332
bake cortarle 0.00305817
xeatinkoki ani 1
ikanwe Hablemos 0.181864
inon Hablemos 0.172957
yoyo Hablemos 0.00277015
pishtaboki fiestas 0.916666
pishtaboki Hablemos 0.0833335
Non Hablemos 0.00828981
itan estera 1.16744e-08
itan Mocahua 0.000572766
akanai leen 0.00846181
yoyo leen 0.00346213
senentiain leen 1
joyonkin cuento 0.0358132
itinkobo pegarlos 0.0832907
jatonbicho deberán 1
pancha hundidos 0.726845
iki iguales 0.00117138
joi corresponda 0.0340339
iki elaborados 0.000793995
taxnanai pegando 0.517203
ikai Ustedes 0.0154865
yoyo Mientras 0.00276985
jawerin ordenarlos 0.00534381
nato Mientras 0.00252859
En Mientras 0.127323
ja Explícales 4.04531e-08
bebon Explícales 0.0637582
wishawe escríbela 0.00660322
iamaxon escuchado 0.758682
onana mashá 0.00418498
iti mashá 0.0917741
marokanaibo obsérvenla 1
kimishakaman hasta 0.00012298
noa adornamos 3.02329e-07
akimein estarán 0.110552
teebo estarán 0.0412848
jawe estarán 4.05995e-06
maton ven 0.00704633
nato ven 0.0144447
Yokabo Hazles 1
oimapakexon hazles 1
yoiya camino 6.77855e-07
shinamawe cumplir 0.0558499
jato cumplir 5.74546e-06
joibo cumplir 0.0967242
yobin lavar 0.241349
betan cumplir 0.00113153
Bakebo Hazles 0.0117363
ika xeati 0.0121782
isinaibo lindos 0.0970944
Boexeti Peine 1
pishtaki fiesta 6.54316e-05
non hermanos 0.000122453
non alegran 0.00399834
non futbol 0.00452954
rarokanai practican 0.999322
tsinkitax juntan 1
jaskarama juntan 1
Ramatianra juntan 0.998816
iki tomar 0.00119775
masha cantaban 0.0601751
jawekeskati aplican 0.0613502
benbobo arreglaban 0.285762
kanoxronki arreglaban 1
tsakakin adolescentes. 0.00288301
jisakinbiresakin sacar 0.00893674
kokoti hay 0.0519665
yoinaboribi adolescentes. 1
bestekin adolescentes. 0.391858
Pocha cocción 0.165016
rebo formando 0.250265
xontako adolescentes. 1
bake niñas 0.0480118
bake cerquillo 0.0699074
bake cortaban 6.22041e-05
jao formando 0.999865
akatikanai cortaban 1
jawekiati alimentarse 0.583283
ani ani 0.128323
sikawe colorean 0.0419106
Westiora Conversar 0.0049221
ikatiai Dice 0.454646
rotitima mí 0.558407
ribojanxon pinten 0.0377767
jonibaon Antiguamente 0.665622
Ani fiesta 0.613003
ika aprendidos 0.00912256
kenshaman aprendidos 0.0577477
wishati mazamorra 0.316954
mia aprendidos 0.000108528
teeki aprendidos 0.028773
yoiwe pinten 0.0025887
ati mente 0.0112607
ja mente 4.7689e-08
ika favorita 0.00236375
jisati tuviese 0.045081
jawen favorita 0.00226654
teeki favorita 0.00612469
jawerato favorita 0.00272789
anibo papás 0.326653
shinamawe haciéndoles 0.0512485
jato recuérdales 0.00115097
kirikain diga 0.0402039
axonwe lee 0.0321714
mia Enséñales 0.00010841
Ribojo mirando 0.130006
jaton peguen 0.0251283
oinmaxon Mostrándoles 0.094744
meniwe Organiza 0.0049449
ribojo Organiza 0.00196185
axon Organiza 0.00669825
akanabo colocados 0.0126395
Bakebo Organiza 0.000348981
riki muchos 0.00318081
jiwiboya Bosques 1
icha Muchos 0.15928
Yoinabo Muchos 0.074342
jake oro 0.0179964
mainko oro 0.0725649
Non oro 0.0206345
Cornocopia Cornocopia 1
pisha Bolsa 0.2
ribojanxo muestra 0.000505375
jaboribi escudo 0.000360675
jaboribi muestra 0.757455
makan coloca 2.36587e-05
bewe escudo 2.45236e-06
jisamein serán 0.288056
axetixobonko escudo 6.62266e-05
anin escudo 0.371225
Escudo escudo 0.444458
Bakebo Enseña 0.000573053
petsexon entrégaselas 0.517741
metsaawe aprendes 1
toponwe traducir 0.0219117
nachite aprendes 0.995843
nachite adorna 0.00415681
maxkatabora Debes 1
axeai aprendes 0.657189
axeti escondidos 0.00203262
bebon recogido 0.0144464
mia espacio 0.0141675
pakexnin palito 1
jiwi palito 0.128327
wetsaboribi viviendo 0.0497582
westiora pégala 6.12814e-06
sikawe achiote 0.0550581
maxen píntala 0.447744
ribojanxon achiote 0.0297916
Besteti tijera 0.428331
Bandera achiote 0.011404
axon hechas 0.0171137
non conocer 0.00651966
Wai lista 0.194909
jawerin abre 0.0886708
itan pelotas 0.000570105
bewakinwe nacional 0.0451022
jato nacional 0.000929167
nacional nacional 1.34014e-05
ixon mirarla 0.00216926
oinkanon mirarla 0.0212006
paka bambú 0.46205
rasa échalo 1
, sandias 0.000103244
jatixonbi mirarla 0.0493824
Seneanxo imitando 0.109691
taxnanwe mirarla 0.00190855
chio hermana 1
Jane Nombres 0.5
bebon mirarla 0.0113502
Mapa dibujado 1
axon mirarla 0.00471182
yapabo profundo 0.0104252
pei haberles 8.55183e-06
bakebo dibujada. 0.000508873
bimaxon recojan 1
mekeain recojan 1
kena gusta 0.193711
tsamanxon piedras 0.127643
jake costumbres 0.0100606
maxe recojan 0.636273
sikayarin pintada 3.90668e-05
jisa achote 0.00573004
joi tocuyo 0.0269566
yoimawe digan 0.0203662
sin zinc 1
sikabo pintados 1
sikatibo ve 0.052077
biti pensamiento 0.158967
Jan ve 0.0153057
nonribiki similares 1
jisakan colores 0.873411
jawekeska colores 0.013551
yokabo dibujada 0.00759819
oinmaxon dibujada 0.0959746
jakon ordenada 0.0466031
jainoax origina 0.0434937
ikinwe bandera. 0.108924
banderaki bandera. 1
raenankantikopi armonía 1
jakonax armonía 0.10443
pekao reflexión 0.00395323
Joi Reflexiona 0.031614
temperaribi témpera 1
besawemeya sajino 0.638322
Maxe Traer 0.498833
sikaoma coloreada 1
ribojana bandera 0.078214
Santira Cómo 0.158694
Ribojobo Recorta 0.0524522
seneanxon cerámica. 0.0195634
Bandera Dibuja 0.0014429
Baderanin Conociendo 1
tee comenten 0.00206909
jaskara comenten 0.0451543
metsaakin adórnalas 0.253997
bea traídas 0.0314393
ribojana dibujadas 0.071335
ribojana banderas 0.0182423
oinxon Completa 0.00571345
natanxon trazando. 0.421484
iki cantaban 0.00125581
titan mamá 0.758856
Kene Completa 1
jati sacado 0.0231068
meniwe libre 0.0105772
taxnanxon Pegue 0.0214422
tsekaxon libre 0.00430051
peru palabra 1
yoraya amarillo 4.66923e-05
yoyo significa 0.00692409
ika palabra 0.0218722
noa enseñan 0.00128499
jaweki enseñan 0.00153207
bewe tráelos 0.0868865
itan enseñan 0.000241115
janebo enseñan 0.0543663
bakerin género 0.0773954
nokoxon Celebración 0.0297084
jisa bordado 0.0115657
jake viviendo 0.0179625
awe mapa 0.00437018
pekao mapa 0.0042071
wishaxon léeselo 0.019366
pekao sobre 0.0809635
bakebo la 0.0128808
yoiti realizado 0.0693196
yoiti haz 0.469972
jaskaaxon explícales 3.47896e-06
jato hecho 0.0111774
santira tempranito 0.00911398
Yoinabo Con 0.0978756
ichaya selva 1
? ? 0.987243
yorariki amarillo 0.840284
selva Finalmente 1
chopa vegetación 0.0265745
chopa Cerros 0.015652
riki está 0.0672238
ochoma mar 0.239162
paro cerca 0.00142856
paro Está 0.373075
Ani Está 0.0636108
costa primera 0.000195935
Reken primera 0.297331
tanaxonwe hecho 1
kirika encargado 0.00183465
noa regiones 0.00638497
kirika reúnen 0.000663084
Westiora Ve 0.00402938
onamawe perú 0.0650551
Tsamanxon Las 0.00356806
mai regiones 0.124884
chexai vómitos 0.432307
Perú perú 0.534723
ishton construir 0.490167
ja péguenlos 0.000377462
ribojobo péguenlos 9.09437e-08
jato aprendido 4.61488e-06
naman Arránquenlos 0.015821
Ja Arránquenlos 0.00702642
oinxon Miren 0.00530705
taxnanwe corresponda 0.0101188
jawerato cultura 0.0109115
tsekaxon corresponda 0.00426595
jaweakanai hacen 0.0305292
mantanki Cómo 1
iamaxon bordamos 0.140394
akai bordamos 0.00590333
Jainxonra dirigimos 9.56103e-06
iki mundos 0.0019525
chopa pintamos 0.000796944
joi invítale 5.37869e-06
jan bordamos 0.00040229
teeti hacerla 0.0238287
Jan hacerla 0.0451709
akana hecho 0.129201
jaskaaxon hagan 0.0202875
ribojanshokokanti mismo 1
ribojana según 0.0308085
akanai Luego 0.0370392
yoiyai acerca 3.35228e-05
jaskara explique 0.0569085
yomoxoakanabo soleando 1
merakin reflexiones 0.0529353
bepon piñón 0.712033
Tonkon Partidos 0.396775
mesko huesos 0.00214538
pekao venir 0.00605015
tawa plátano. 0.0443442
sikawe escama 0.0203607
sikawe colorea 0.148227
keweyabo diferenciar 1
chopa diferenciar 0.0109985
xatexon recórtala 0.0782064
axetixobo mirarla 1
tsekaxon Arranca 1.19333e-05
Bakebo Muéstrales 0.00359268
bitan inin 1
Westiora Pídeles 0.0107685
Oinkanai Todos 0.482082
pakex pegando 0.182776
wisha Lo 0.170633
naranxa naranja 0.857143
manta mantas 0.137702
akaitianra Mientras 1
jakiribi vuélveselo 0.385497
shinakinwe recuérdales 0.334745
kaxon regresan 0.0514284
jaonoboki viven 0.00105081
onamai explican 0.1041
jawe nombre 0.00112244
, hubiese 0.000407797
wata hermana 0.561223
jato Una 0.00178207
bewe mantas 0.0115349
jaweki ordénenlos 0.00154475
jato expliquen 0.0137621
jato bebe 0.000463553
yoyo culturas 0.0221609
manta telares 0.315961
manta Nuestros 6.89184e-06
xeati tomar 0.0364384
chiteyabores puntos 5.16525e-05
itan viviendo 0.000361293
yokakanai preguntan 1
yoimeti significado 0.292484
akana hueso 0.034241
Bakebo Diles 0.00391876
akana realizaron 0.0391983
iwe Conversa 0.143961
rikani barriendo 1
axon escucha 0.0220121
axeakai enseña 0.00294225
jaska escucha 0.0608231
akai usos 0.00549595
Natobo Esos 1
natanti hueso 1
keonkanarin posee 1
atipanke hacerles 0.0511763
nepoti ponerle 0.779151
westiorabo carbón 0.032703
xobon hogar 0.515606
seneanxonki elabora 1
westiorabo hayas 0.00612385
Raxkanya Escamas 1
kene tiñe 0.015701
kene originó 0.0157025
pikonoxon reflexiona 0.733286
tanakin entregándole 0.309549
chomoakin elabora 1
mainko entregándole 0.0362331
nato vamos 0.012642
jeman sal 5.57855e-07
peokanamabi sal 0.749992
Xobon Al 0.64583
joa invitada 0.216151
maxen achiote 0.410781
maxen dedos 0.141475
kano dedos 1
jawen dedos 0.0037581
chiteyabores Pinta 0.999948
Shinanxon Recuerda 0.239854
bebon los 0.00575635
bantirabo banderas 1
ixon diseños 0.0201802
imax restinga 0.218295
pia flecha 0.647637
tee ayer 0.00505855
tee recordando 1.15877e-07
onanmaibata recordando 1
chorishakin pellizcan 1
Tsinikana tenía 0.300528
xao hueso 0.74272
xao diseños 1.89181e-05
kene Diseño 0.0397246
Menexeti Pulseras 1
Paronoti Aretes 0.5
Pisha Bolsos 1
jawekiain diseños 0.000541278
jawekiain Objetos 0.999459
moxa Además 1
naranxa Además 0.142857
Itan Además 1
bewe siguientes 0.0229635
teebo vecinas 0.013763
jawekibo materiales 0.127781
jawekibo siguientes 0.0099508
ribojanwe considerando 0.0678866
ninkawe Ahora 0.0627717
anonxon siguientes 0.0316667
Xao Diseño 0.605923
atipanakaman delgados 0.307507
axearin enseñado 0.504532
imaa barro 0.00013874
wisha Salieron 0.0189641
axon quede 0.0329827
ichama Pocos 0.33326
tanaxonai bambú 1
atipana completa 0.000438852
min delgados 0.00214329
Axetixobokoxon laven 0.992042
ikain completa 0.248175
bakebaon hayan 0.000281191
aka listo 0.00688712
iki parecen 0.0017116
bewabo referida 0.0579836
joi perú 0.129252
pikoni Piensa 0.574649
maya Piensa 0.210036
beporo frentes 0.366095
Tsini terminar 1
jainoax Piensa 0.0587601
maiti corona 0.50328
mainko curvado 0.0909778
menixon tal 0.0023476
wishatiki lean 1
bakebo sigan 8.09387e-07
chokitibo Materiales 0.000579908
chitonti dedo 0.318776
Jainxon dedo 0.00542366
akanai pintar 0.0451302
keneanoxonki pintar 1
ika bordado 0.00295473
keneakanaboki bordado 1
aka tiende 0.00258268
yapa se 0.771257
esebo comportarse 0.0811364
Jainxon ese 0.0531022
oinkanai tiñe 0.36908
Iboyabo Dueño 1
chomoki cerámicas 1
ikai silbato 0.0256114
ika suyo 0.0118181
onamai muestra 0.145053
yoiai asamblea 0.151172
chicokeax crecido 1
Ribojanxo Dibújalo 1
ramara muñeco 0.170393
oinxon compáralos 0.00579461
, NULL 0.0612137
yoman retazos 0.000121563
jawekopimein por 0.979304
iki río 0.0173958
Ixon Luego 0.686754
yamaketian libros 0.272194
wirishriki raíz 1
aibakana ayer 0.897257
machitonin limpian 1
ratawe Pela 1
Basi fuego 1
jaweranoaxki originó 0.699754
bana cuidado 0.0495653
ikanai imitado 0.00531883
noa hemos 0.016822
onanboresnoxon verla 0.183207
yoiyai atentamente 0.000913918
jato atentamente 1.24031e-05
jiwi propias 0.0430342
? originan 0.000272418
jaweranoaxki originan 0.300246
jaskatax originan 0.0282253
jaskakin explícales 0.441526
raonpaokatikanai sean 0.992933
banati Sembrando 0.0267746
bakebotibi 2 0.249999
kanoxon visiten 0.202554
merati visiten 0.123551
ikainko trabaja 0.00910397
jato repíteles 0.000427209
jaweki pensar 0.00553842
jato varias 0.00232881
bewe bordada 0.0137701
maya curvado 0.403947
Westiora Trae 0.0187931
Maya curvado 0.969815
Maya Diseño 0.0301851
minpari siéntalos 1
keyotima irán 0.0444761
jaweati podría 1
betikopi traerlos 0.56066
pokonoxon acuérdate 3.36333e-05
napon círculo 0.480135
taxnanwe ordenada 0.00798746
niniti cultivar. 1
betan resuelvan 0.000338488
ja corresponda 1.44321e-07
yoiya Sabiendo 0.00328035
joti invítale 0.306831
Titan Sabiendo 0.0877233
Chopa teñir 1
westiorabo cada 0.522705
basi cocina 0.599706
onanma abuela 0.589774
jan saborear 2.81152e-08
Choshiaitibi marrón 1
bariankanai pasto 0.624989
pastonko pasto 1
pekao pasto 0.00395311
kawanxon tiña 1
Ribojanxon Dibújalo 0.187765
yomerakana pescado 0.893242
ointikopi miran 1
bekebaon miran 1
pokoai mientras 1
tokoyo mientras 0.147022
tokoyo sumerge 0.0408689
jenen sumerge 0.045903
xena pesca. 1
imax género 0.163553
yoiyai mamá 0.0135355
iki bastante 0.00252202
onana garza 0.0210168
Bakabaon verla 1
kobianti fuego 0.0537151
mato ido 0.0625229
iki cocinarlos 0.000410848
Axeti Trae 0.0352554
beyasanti cocinarlos 1
yamikenti cocinarlos 1
keteketian cocinarlos 1
pitsomemawe agarrarán 1
moa cocinarlos 0.00887847
kechonxon Pedazos 0.970144
Jainxon Pedazos 0.00356877
isinaibo curarse 0.466016
yamikentinin echar 1
yokabo Haciéndoles 0.00572418
tasakan pocos 1
kobin echar 0.332022
jaya Deben 0.454546
peibo Deben 0.00672325
itan Deben 0.000241133
xatebo Deben 0.118239
Rekenpari Deben 0.0151983
Netexon primer 4.64021e-05
picha palometas 0.217637
axonki resina 0.770593
jaweranoki serpientes 0.000500448
joa fue 0.162189
itan témpera 1.75494e-05
tita invitada 0.0340832
jaa Luego 0.125499
oinmawe caoba 0.0149162
axon caoba 0.0110579
noa curarnos 0.00236537
ribojanxo tráelo 6.0665e-06
jene corteza 0.0828516
bawa quieren 1
yamikentin pon 1
xetarin dentadura 1
tokoyo tocuyo 0.81211
raonkanai curar 0.285933
ribojanxo escudo 0.457841
santira sembradas 0.018218
bemati envíe 0.17752
El quina 1
bakebo mamás 1.77378e-06
betan envíe 0.00127712
Titabo tocuyo 1
itan diferenciar 0.000241124
xao tengan 0.184053
chaniwe invítale 0.258678
axetixobonko invítale 0.0409447
bepon coger 0.286589
seneanwe invítale 0.000300659
iki shipibo 7.49681e-05
betan invítale 1.42716e-05
ikaxbi pequeños 0.0606489
shinanbo opinen 0.0108415
toponxon varias 0.145583
Titabetan observan 1
kobianxon traerlos 1
jake consiga 0.0119799
non siembra 0.00906007
bakebo maestro 0.00150155
papa coordinar 0.153184
rono Convirtiendo 0.0769733
Yapabaon Ella 1
anonxonra coordinar 0.310345
nachi tía 1
onanti tela 0.0884011
jaton conocen 0.012008
pokoti teñir 0.0026105
atipanke consiste 0.0341176
jan Todos 0.00114235
Tsanas animalito 1
taxnanwe desde 0.0252983
ja desde 5.37643e-05
ja Empieza 0.000167959
Mesko Mirando 0.00512392
janepakeai arrodillados 1
ikai pegando 0.066151
ribojobo dibujos 0.668814
yokabo ordenen 0.00418401
bebon delante 0.461536
rekena último 0.0816427
maxko Sácalos 0.0593221
jaweboribiki elaborado 0.555216
aninkoniax Sácalos 0.293751
pikokinxon Sácalos 0.0130275
Jeman Sácalos 0.0336093
ikai Otro 2.16391e-06
westiora uno 0.0658216
joyonkanabo ordénenlos 1
costa costa 0.999804
xatexon papel 0.0474046
ixon pegarlos 0.0182212
meskoti rostro 0.514278
joyonwe chico 0.565758
noa nosotros 0.0430346
maxkokaina chico 0.565597
Bakebobetan Antes 9.15797e-05
aninkoniax chico 0.510287
bixon ordénenlos 0.0175908
xobonkoxon diferentes 0.0704448
ishtokawanxon palma 1
aka guiarse 0.00516542
iki contiene 2.03703e-05
ikarin tiene 0.479817
natanxon dentaduras 0.170352
rastomabo yucas 1
tsamanxon escojan 0.0919971
tanawe Prueba 0.499782
jaton escogen 0.00224419
jato explícales 0.00401839
jawekibo utilizado 0.00507397
jato lleva 5.92129e-07
itan cuidado 0.000513079
beai sobre 0.149553
piairiki negros 1
rasaawe échalo 1
akanai tiempo 0.0253858
bakebo explícales 0.00023439
Tsekaxon Arranca 0.562482
akai aderezamos 0.00323036
noe aderezamos 0.0542373
yakakinxon sentados 0.0163704
pitibo aderezamos 1
koromanribira aderezamos 1
jawekeskara tipos 0.0878159
batashaman escrito 0.355872
moa juntan 0.0257633
Xobon Llegando 0.0430928
kexa orilla 0.120438
yobonko shapaja 1
min completa 0.00414819
jaskaribira negrearlo 1
iki principio 0.000608029
5 5 0.192295
oroai alrededor 0.799994
yoyo coordina 0.023294
itinabo orilla 1
neten debería 0.120111
rarebobo parientes 0.379146
nanen negrearlo 0.172427
nanen huito 0.827573
ochokeaxbi escrito 0.730067
pikoa conseguido 0.0587793
onana collares 0.0824082
iki se 0.0350799
tsama grupos. 0.037895
janenox encuentros 7.75196e-06
axeibakanabo aprendieron 1
bepon colorado 1.34255e-05
oimaxon colorear 0.100482
Eariki redondo 0.139339
Ronin La 0.189271
akin recortados 0.0589973
jene líquido 0.0241831
shoki líquido 0.596958
onanboresnoxon aprendiendo 0.816793
jisarin líquido 0.00810812
sikai huito 1
shokikan huito 1
nane huito 0.545578
sika sale 0.42539
non pintamos 0.00417446
koroman sale 1.99038e-05
jawe primero 0.0118028
onanananti Pescando 0.00151229
yapa aletas 0.003493
ati según 0.0231958
atiki trabajo 0.106738
jan sentándolos 0.00191677
sikatiboribi guisadores 1
jan colorear 0.00467582
jan guisadores 0.00191692
wetsa pelotas 0.00383037
joxon charla 0.0492907
neskakinbo pescas 1
yokatirin hechice 0.180526
iwe Discute 0.013233
pirota pelotas 0.0143739
bebon explicarán 0.0198045
oinmawe utiliza 0.0417127
shoki Huito 0.403042
bemanon deberán 0.581203
bakebo armonía 0.000166041
kaxon ideas 0.0822799
jaweki envíaselos 0.00230394
betan ayuden 0.00224404
iti tengamos 0.0163123
jaton deberás 0.00161071
Kirika Primero 4.69621e-05
itikopi perspicaces 0.314136
iti Antes 0.053311
ja acuérdate 0.000437469
yosin comunidad 0.00108786
pikotai pintamos 0.397045
yoiwe cantidad 4.24621e-08
jemanxon realizan 0.411287
banetiakin muñeco 3.64496e-05
kokokinwe compártelas 0.266955
jati escríbela 0.0104394
taxnanwe realicen 0.00965073
sikaxon anaconda 0.314919
itan algodón 0.000578718
ixon da 0.0189828
noa sirve 0.00393263
ikiribiki sirve 1
mia kene 0.00333957
raometiki curarnos 0.234761
neteronki día 1
Jiwi Llévalos 0.281503
axeaka enseñó 0.764547
noa enseñó 3.92081e-06
awe Pregúntale 0.00334766
yokabo Pregúntale 0.0076384
Bakebaon piri-piris 0.00553604
keneya pintada 0.379651
onamakin aves 0.450897
oinxon cuente 0.00874325
merati organízate 0.0257395
sitanmeran naranja 1
xakiai rallar 1
janan rallar 1
shinanmawe Recuérdales 0.748927
maton ustedes 0.0763191
jemaori soleen 1
yoinabaon viéndolos 0.0576494
neteshamanxon silenciosamente 0.666656
Yoxaman lengua 3.28257e-05
ninkakinwe silenciosamente 0.0508394
kenrin puso 1
yoa Sembrando 0.0100517
raenankintikopi recibimiento 1
meraketian recibimiento 1
yapa realizarlo 0.00232885
bake nunca 0.0122398
seneanwe ella 0.103435
betan coordina 0.00366608
Koron Guisador 1
awe Primero 0.010988
Non preferido 0.0192472
tsekaxon del 0.567308
taxnanxon salgan 0.0719508
keneya falda 0.244861
sikati coloree 0.0324339
oinwe comparen 0.112382
Ribojanxon coloree 0.0546591
xatewekokotibores otra 1
Jaweranoboki fuimos 2.25841e-05
neskaakin Haciéndoles 0.00710072
yoi colorea 0.170495
pikoxon digan 0.0927038
bewakanai aprendida 1
biti digan 0.140728
yoinamein animal 1
tsinikantikopi mirarlos 1
pikoa regresan 0.0440019
yoiai mostrar 0.848828
papa regresan 0.100371
napo parado. 0.269002
oimabokin extrae 1
koromanra guisador 1
axekanai Entre 1
bikin viene 0.0378432
manta manta 0.546329
toponti termina 0.0269871
jane llamas 0.0120851
pekao Responde 0.00237197
bakebo el 0.00106201
pekao pescando 0.00473825
pikoshokoai viene 1
ixon conocido 0.00508045
shinanxon viene 0.0136368
shinanxon dibujar 0.0503408
westiora viene 0.00048069
raometiki curarte 0.765239
meken jala 0.0273242
sikatibo colores 0.179653
rapis lápiz 1
sintanxon cartulina 1
en únanse 0.00020923
jaweatiki pintamos 0.269475
nokon mis 0.177245
niibo existieran 0.046191
iki playa 0.00366089
akin ordenada 0.0264551
Baken mete 0.724313
pekao cuidado 0.00386252
Kirika Muéstrales 0.100255
joi después 0.0221332
atipanke ser 0.438891
iki oriundos 0.00081467
yoiyai dicen 1.33639e-07
napoxon llena 0.287002
jaskaxon explícales 0.374143
itan playa 0.000743049
kankan piña 1
jatibira clases 1
shinanxon mostrado 0.013637
shinanwe van 0.587235
Ja mismo 0.0106775
non estamos 0.00584689
beabo sienten 0.0648969
beai canasta 0.0385754
joa sancochado 0.216198
jawemein será 0.52832
joxoriki blancos 1
oinmaxon conversen. 0.0482314
yoiwe son 0.00707032
ja haciendo 0.00114361
oinkanabo observado 0.501197
yoimeti hacernos 0.353355
jisati abiertas. 0.0241052
westiora NULL 1.04168e-05
non negros 0.00150997
onanti identifiquen 0.165243
joyonkin ordénalos 0.096194
jara jo 0.577113
ika Lo 0.0177299
esebo indicaciones 0.0912784
bewe aula 0.471073
Shinayamakanaitian recuerdan 1
yobinmein fruta 1
yoina será 0.060156
taxnanti peguen 0.227962
jawe contiene 0.00163138
non chaikonis 0.00113225
mia jugado 0.00475965
raoki conocido 0.06216
jisamein contiene 0.278268
chopa tiña 0.0332037
iki fueron 0.00302092
sintan pone 0.251435
oxe menguante 0.0144911
menipakewe imaginando 0.0375116
reratiki gusto 1
yakakinwe árbol 0.408468
keyoti aguantar 0.285206
pikowe hazla 0.0571862
konroman sale 1
sintankiin hazla 1
jain nuestro 0.197667
kirika cartulina 0.00417132
akinaton ayudado 0.0433927
minbi cartulina 0.627626
yamaketian cartulina 0.00882127
yamaketian hazla 0.355951
Peiya Ala 1
xetaya pico 0.000137707
jaweatiki vamos 0.561638
Eariki Yo 0.860661
axeamisnin ayudado 0.00928979
ika Aprende 0.00295466
Non Aprende 0.0103606
jawekibo debería 0.00379757
japekao inventado 0.0794347
jaa debería 0.0218335
yapabo trabajo 4.28288e-06
tsoabaomein debería 1
tanamawe recite 0.186291
xon sonido 0.431153
shinanketian habérselos 1
renixonaya lidera 1
ribojo échalo 0.00521598
baken poder 0.391141
akinwe repíteles 0.297036
pikoni origina 0.425351
jainxon ofrecen 0.000367634
ika poema 5.22666e-06
Rabe calabazas 0.0568289
neteki voz 0.217497
akebainxon sentar 4.80044e-06
yakakinxon Sienta 0.0197508
jawerato debe 0.0754641
taxnanwe pelo 0.00990857
kene diseño 0.424252
Rabiti Poema 0.47302
awe léeles 0.00500205
Bakebo entregar 0.00171918
kechibanai siguen 1
Minpari Léeles 1
taxnanxon elogio 0.0255057
yakakimaxon Siéntalos 1
jato elogio 5.33447e-08
Kirika Pégalo 0.0389578
bakebo conocen 6.67292e-07
onanabo conocen 1
onana conoces 0.249881
yoiyai creado 0.000467479
oinkana comieron 0.181538
xaten elogios 1
rabiti elogios 0.00785313
axonwe léeselo 0.0159452
jawerin llamas 0.0591139
Rabiti Elogios 0.150885
Irake Gracias 0.799433
riki Así 0.00831736
Jaskara Así 0.262375
jaskarainoax origina 1
roninmabiribi ríos 1
janeya shipibo 0.288751
Chaikoninra chaikonis 1
riki Dueño 0.0293414
iboya dueño 1
riki dueño 0.0568419
rabiti elogio 0.0565418
yapa pocos 0.0034904
taxnanwe costado 0.0106863
nenke cuelga 1.14895e-05
iwe coordina 0.114739
xatexon costado 0.0322116
yapa preparar 1.1179e-05
ribojanti muchos 0.515188
tsamakan muchos 0.772396
tsamakan grupo 0.0141256
kenti callana. 0.581733
neskaakin dibujar 0.026197
jakon Teniendo 0.0130124
axon Agrupa 0.0137895
nete recordando 0.00524449
netekoshiaka mantiene 1
jene mantiene 0.00772387
jawekeska mantiene 0.00226267
nete cuida 0.0178737
jawenki cuida 0.130837
yoikanai realizado 0.0793125
jakanabo perú 1
Seneanxon Al 0.0574955
taxnankanai lado 1
sikaxon saca 0.167758
ribojanxon pegan 0.0175112
yapabo pegan 0.0125808
ribojana pegan 0.00797525
ronin pegan 0.232141
iki dormir 0.000805942
bakebaon terminan 0.000360643
isiniki reaccionas 0.060433
jain Haciendo 0.00491444
yoinna hacia 1
ribojana aquello 0.00990371
yakakinxon Hazle 0.0202455
Paranta Hoja 1
pirotaxon pelota 0.999394
koiranara dueña 1
akai tiñe 0.00549603
jene cuida 0.0552906
noa Nuevamente 1.76278e-07
aniti costumbres 1
wisha cuéntalas 0.0319442
iki comunidad 0.0101051
itan delinear 0.000289256
Peokoti Vuelve 1
natanki doblada 1
teebo trabajos 0.571815
jato vez 0.000309142
Bake niño 0.392181
masen entrado 0.0339994
tsinkixon grupo 0.497032
ati tareas 0.0161675
besteai indica 1
pikokin reflexiona 0.578102
xatebo reúnen 0.645265
ichabires maleza 1
noe aquello 0.000808084
yoikanai recortes 0.0367861
yoikanai encargado 0.0189491
jakoni comportarse 0.0316084
xepenti encargado 1
kexa aprenden 0.27023
iki solos 0.00288721
awe entrégale 0.00750328
jan encargado 0.000959616
seneanwe termina 0.0518395
seneanwe tocuyo 0.0358519
peanxon dedo 0.6731
ja recortes 0.000459405
jaskati adornar 0.0114167
yosin escuchen 0.112144
ninkakinwe escuchen 0.177304
onankasai quieren 1
matonki quieren 0.0917186
axetixononko construyendo 1
bea cerrado 0.108673
oxa dormir 1
Bakebo Canta 0.00558011
Nii selva 0.25
tsamatibi reparte 1
jaskaxon cómo 1.50968e-05
jawekibo veamos 0.00285091
jawekiatibaonki fortalecen 1
Jaska Cómo 0.417263
ikainko taya 0.0301406
chankatai pararse 0.209298
Ja A 4.86953e-05
bokanwe veamos 0.299799
jain corresponda 0.0220215
jain lugar 0.198354
toponwe Contar 0.0529552
jawekibo existe 0.0159747
onantanan Teniendo 0.977965
oinkanon suelo 0.188545
kirikanin muéstraselos 0.0270764
jaweki significado 0.00656011
Wetsan Pocos 1
, venir 0.000599267
ribojana anaconda 0.0471576
jatibi juego 0.0448915
jane integran 0.0120854
kewe tiende 0.582723
itanribi diferenciar 0.45457
pei entrégasela 1.25529e-05
kirika anaconda 3.62602e-05
Ronin Dibuja 6.20936e-06
tita madre 0.231493
yapan madre 0.285811
Ronin anaconda 0.810721
shinanxon Piensa 0.0177984
ika salgan 1.86655e-07
bikin permiso 0.180448
ribojanxon existen 1.26079e-05
seneankai explicarán 0.555797
kaxon casa 0.057979
jaa vives 0.163854
jato himno 1.66435e-07
ja quien 0.000834584
jaa ahí 0.0391322
seneantibo cumplan 0.10073
jain pégalo 0.0785825
kirika dibújalo 0.00247443
ika perú 0.0197261
toponmawe cuenten 4.82709e-05
xobonkoki casas 0.226031
yoikanai experiencia 0.0758499
min comidas 4.73168e-05
tsinikanabo experiencia 0.00268504
xobonkoxon comparten 5.41094e-07
ika nuestras 0.0390783
onanxon tanto 0.0874778
mexokanai abiertas. 1
jan coser 0.000849544
jatian quedaron 0.370689
ipo carachama 0.4264
jawebo guisador 0.375877
akai dibuje 0.012368
dado tira 1
Jaa Porque 1
Babebobetan indicaciones 1
ikinwe significa 0.163393
toponxo amárralas 0.0449037
yoyo papás 0.0248995
ribojanxon dibujando 0.0350072
noa viviendo 4.80308e-06
senenain pararse 1
Jaska Y 0.582663
pei cuaderno 0.0289536
kax pararse 0.692308
toponti contar 0.157336
jawekibo aprendido 0.0771291
jawekibo todas 2.56372e-06
barikoshiketian calienta 1
ashpakana mete 1
sikayarin color 0.000803947
yomerai pescas 0.0944915
xateai jala 1
awe veces 0.0120497
ikai abiertas. 0.0248002
raobo raíces 0.0422222
Mato Según 1
bakera piernas 1
joyokanti fila 0.769077
banakanai siembran 0.670643
wishawe escribe 0.584947
inaati identificando 0.0992335
onana hemos 0.0637513
iki son 6.9622e-06
jan materiales 0.0465707
jonea encuentren 1
yoimawe realizada 0.0056981
awe tanto 0.00502073
yoiyati Según 0.599781
nonbichoati solos 1
tsinikinti hacerles 1
oma vegetación 1
merakanwe encuentren 1
nete juan 0.0104804
peokoti vuelvan 1
tasomanbo coman 0.0399103
axea recite 0.0148183
shinaxon explicar 0.341341
bari sol 1
soi fino 1
kirika libro 0.190225
rakanai piedra 0.210849
terakaki algunas 1
axearin aprendido 0.495468
noa convivimos 0.0019262
betan chullachaqui 1.46615e-05
Bakebaon Escucha 0.361876
aketian sujetar 1
rabiti aprende 0.000487906
tii sujetar 0.219811
tii girar 0.137381
mapo elaborar 0.0338091
ja último 4.79788e-07
itan otras 2.63916e-07
roniman sujetar 1
yoxaman conforme 0.00993737
jonii Separa 0.0356935
choronkanti sujetar 1
onanma Antes 0.410226
tsekawe imitar 0.266619
Xawi Zumo 1
yomerai técnica 0.31496
jisati toca 0.100779
jonon compartir 0.10369
westiora hueco 0.00141605
xatebo muéstraselos 0.118239
janerestima respetar 0.736659
iribikantikopi vuelvan 1
awe cerrados 0.00167334
janerestima mantener 0.263341
ikai toca 0.0614677
jisabires parecidas 0.134286
nokon poderosas 0.0576905
ronin toca 0.46428
xewai construyendo 1
iamakanwe rebeldes 1
Bakebo Agrupa 0.00257142
tsinikanai sucesivamente 0.204675
Bakebo Hijos 0.00171918
Bakebo Di 0.000689114
jati cuéntalos 0.0746699
nato soga 0.0126655
Bakebo visitante 0.000266386
ninkawe Escucha 0.05239
rao recortado 0.00971835
atipana seleccionar 0.203638
meraibata nosotros 0.428522
nato fuera 0.00983201
yobibores separen 1
wishai elogios 0.061724
Jainxo son 0.533723
jatiribi dice 0.104944
Yoitima rebeldes 0.971523
waran zapallo 1
Axeti Regrésalos 0.0121762
Ronin hermosos 1.80165e-06
iki juntan 0.0015133
iki dentadura 1.14953e-05
iki diseños 0.00031444
atipanke da 0.127953
peibo viento 0.0184795
jaweranoa hombres 1
axeakai confecciona 0.633554
nenke larga 0.999989
yoabores canasta 0.699823
jaskatax creado 0.0469247
ninkaxon disparó 0.185095
xoin seguía 0.38306
Kanan Kana 1
sikamawe dibujada. 0.599199
raoki ustedes 0.000112041
bekanabo amarran 0.229578
ikainko dibujar 0.0672095
nishi girar 0.0215825
kirikain Dibújalos 0.0266713
yoiya prepara 0.00240469
akanaki hazle 0.666907
ribojomeran visto 0.314187
meke cuidadosamente 1
jisarin son 0.295091
wisha corrígelo 0.01896
jokin retazos 0.356796
Xobon Cuando 0.311078
jaskakin Tiende 0.0267876
jan mantiene 0.000678446
iki cuando 0.0696403
axeti al 0.795547
maxko huitos 0.0789936
bebon Frente 0.0394546
toxpata recoge 1
Axetixobo Frente 0.331733
manpiankinki revuelto 1
jaabo menciona 0.168211
rama eres 0.0134723
tee trabajar 0.0013653
jake allí 0.00977583
iki marrón 0.000633063
jenen será 0.104332
menia dan 1
jawekeskaramein será 1
yoipakeai Ve 1
kewe bordamos 0.417277
yapa muchos 0.00685074
Chitonti Faldas 0.5
jenen ese 0.712006
Jaweakiki Ve 1
ribojobo piensen 0.0105105
iweai río 0.756409
iweai orillas 0.0113439
seneantibo van 0.67111
wachorin suave 1
shaka representar 0.0950098
mai pegajoso 0.0292978
kaxon van 0.343427
ribojana Realiza 0.00565248
oinxon viéndolos 0.0017207
min tus 0.0718746
min hecho 0.0145024
joibo van 0.322505
bakebo pueblo 3.22282e-07
seneanwe pueblo 0.121326
jaskati escondidas 0.0113769
joi pueblo 0.0912233
betan pueblo 0.00225689
betan Habla 9.9593e-05
yoimawe recogido 0.00410614
Ribojobo Explica 0.0398153
shinaman palabras 1
jawerato comunidades 0.0286121
noa momento 0.0013579
akai propias 0.00809431
jaska propias 0.0458439
jato todo 5.40041e-07
pei hoja 0.184867
papabaon preparado 0.493151
wainko habían 0.0881551
jaton preparado 4.0971e-06
nato decir 0.012612
kene bordamos 0.00843339
Jainxo colorean 0.116392
titabetan actividad 1
bakebaon almácigos 9.54829e-07
ninkawe escúchales 0.0364845
wetsa ayer 1.54019e-06
itan regresan 0.000361711
bakebaon escúchales 0.000767484
yoiya contó 0.0179508
ja vez 0.0167665
banayaborin tienes 1
joibo narra 0.0503732
jiwibo gusto 0.0084646
non gusto 0.00113235
aresbiriskimein gusto 1
bexon muéstraselos 0.0209458
Ja cósanlo 0.00480515
ribojoain estamos 0.111483
nato estamos 0.0126517
jaweakanai Cómo 0.542773
bana encogerse 0.0386553
non existen 1.67144e-06
banati sembrar 0.597996
mesko juegos 0.00148589
iwexon juegos 0.00719686
namanxon juegos 1
ota juegos 0.00251256
Yapaboya Animales 1
iki quemar 0.00126674
jisa Conociendo 0.0449687
iamax preparación 0.0190643
non nuestras 0.0164718
ixon pensó 0.0025308
yobinbo misma 7.28697e-06
koiranti Debemos 0.000476144
metsakin adorna 0.524171
niibo nuestros 0.000117238
niibo Debemos 0.21159
axeamisnin dice 0.0107118
Jiwibo Muéstrales 0.393238
non debería 0.000862092
neten Reflexione 0.126196
Bakebo a 0.00619031
xoxo almácigos 1
yokawe almácigos 0.00539388
moamabi almácigos 0.263077
merai decirle 1
jato vuelve 0.00198487
kirika cuídalo 0.00146609
bakebaon observado 0.000289086
ninkata escuchar 0.501533
santirabo variedad 0.497804
ribojo córtalo 0.00555646
maxkatainko córtalo 0.221219
yoakai Si 1
akinti Así 0.246572
nato sacar 0.000176793
Santira Preparándonos 0.0616042
jawe peces 1.06635e-05
onanti Aprendiendo 0.0661057
jonibaon vecinas 0.334378
seneanxon terminada 0.0585552
jato pongan 0.00135945
, en 0.156942
pikanai rallan 0.162478
jain uso 0.0078626
pikanai leña 0.323464
oinxon digan 0.0103743
; maraca 0.0209695
yora cuerpo 0.784306
jain flecheaba 0.0192155
itan charapita 0.000368374
oinai ven 0.0391282
beroki comenzar 1
tin atardecer 1
bakebo hazles 0.00384464
yoraya tengo 0.999953
taxnanti pegar 0.0316719
iwexon lleva 0.043498
non poner 0.00671429
pein gallina 0.0310167
seneaxon pegar 0.156564
nia lleva 0.705886
yokawe hijos 7.6689e-07
atapa gallina 1
yokawe Lleva 0.0103646
Ribojobo pégalos 6.93291e-06
Mesko Este 0.0263954
mawati guantes 0.0699125
jaskara realizado 0.405286
netenko mundos 0.0911839
Toponwe Cuéntalas 0.252959
nokotax llega 0.50359
jiwi pegar 0.0190127
join culturas 0.205395
nepowe échala 1
jato hazles 0.0238298
Japekao terminen 0.022536
akanabo comenten 0.0605293
ribojantibo declamar 1
natanmawe hayas 0.309321
oimaxon hazles 0.381967
rekena primer 0.178274
aka escuchó 0.00416717
yoiwe recortados 0.000870793
ribojobo realizarla 0.00847616
icha maleza 0.0796212
biti Adivinando 0.0794833
yapaborin escamas 0.876776
wasten kene 0.179804
titan mama 0.0213735
Shinanxon Adivinando 0.163416
xaba coser 0.0429646
shinanbo explican 0.000334157
jaweratobo avisan 0.284028
tsitsimitsa canero 1
itan buena 0.00289359
sihinanbo leerles 1
Rabe Junta 0.0514973
wetsa cuidarnos 0.0049363
janepaketa oxígeno 0.312176
yosibetan conversa 0.283175
minki sabías 0.102529
jaweboribimein árboles 0.816621
iki será 0.00903521
ikai servido 0.0384175
pei meter 2.69335e-05
ribojanai dibujan 0.385369
yakakinxon sientan 0.0225719
axon realizaron 0.0237424
, primero 9.80798e-07
Yosin abuelo 0.0368611
jaskati muñecos 0.016994
Chosko Cuanta 0.407169
kentikan echarlo 0.0240173
xatexon vendiéndoselos 0.0133841
bakebaon pellizcan 0.000191882
chanibata invitada 1
wishabo recortar 0.687681
Ribijobo digan 0.965237
aninkoniax huitos 0.195962
jonibo trabajan 0.0405656
non contamos 0.00458866
wishati reproducir 0.0434995
wishati haber 0.0140734
sikaawe coloreada 1
xatewe papeles 0.6
jonibo personas 0.104413
jisamein mantiene 0.148848
jato recite 0.000369421
isina enfermado 1
maxkokaina huitos 0.434403
biti compañeros 0.000976116
bake niño 0.465255
koroman puntos 0.315457
teeti trabajen 0.0513169
jiwibo crecen 0.0169297
taxnankanon pegarlos 1
xobobko pájaros. 1
Koton Blusa 1
paketa entregándoles 0.0158288
ani Dice 3.73082e-06
bakebo mamá 1.49277e-05
Wetsa Reflexione 0.0849345
Min invítala 0.423078
meniai oxígeno 0.0413385
toro palo 0.131495
meniai brindan 0.0999124
korosawe aspa 0.821468
Jainxo lees 0.0332514
iwexon sombra 0.0177446
mia aprendido 0.0648648
iti cultura 0.04265
jawen Inin 2.15527e-07
aka escapó 0.00206724
pakex Ustedes 0.177998
ika voz 0.00590917
tee realicen 8.5452e-06
bexon léeselo 0.0250114
axetixobonko tráelo 0.257838
ribojana dibujada 0.00693668
teebo acuérdate 0.0417883
ikainko desdoblado 0.0182054
jaweki enseña 4.53228e-07
noa bueno 0.00422411
raonai dramaticen 0.00114387
ikainko Recórtalos 0.0363982
jaweki pelotas 0.0036253
pikota sepan 0.177216
itan origina 0.000349609
iki pescando 0.00101754
tsamabo entrégale 0.706874
ribojo salen 0.00424427
imaxon Agrupa 0.0515929
raoaxon gallina 0.162027
itan Dos 2.47234e-08
toro chicos 0.0541801
joneta escondidas 0.146407
shinan Escucha 0.677723
akai llamado 0.00824393
akai reflexiona 0.00755479
betan conocimiento 0.000161391
itan flecha 2.14834e-05
ikainko actividades 0.0213937
akinonxon cerrados 1
keneboki tipos 0.999709
, entrégaselas 1.28722e-08
yomaman bordado 0.0211099
oinmawe rallador 0.0111661
rarebobaon integran 1
maxko chicas. 0.0796796
janeoma español 1
shinan algunas 0.154662
chokaxon lavar 1
betan alumnos 0.0110078
meniai árboles 0.00177043
meniai proporcionan 0.153567
jiwin proporcionan 0.0961721
noa proporcionan 0.0119563
jaweboki proporcionan 0.0124611
wishawe bosque 0.019798
Irake Agradecen 0.200567
wishawe ayuda 0.0422911
jaskakin bosque 0.056127
wishoshaman Huito 0.850927
natanxon sigue 0.408165
ja el 0.600679
, también 6.23734e-07
( ( 0.971663
yoiwe explícales 0.00776853
minki confeccionar 0.368047
imawe hablar 0.0440598
jaton indicaciones 0.00196367
westiorabo hazle 0.0176875
, reflexionar 0.000134444
pei espina 0.00833464
pei Hoja 0.00235062
, hazle 0.000271902
pikoa sacado 7.88169e-05
bakebo conocimiento 0.00400307
ramara van 0.2079
xeati mocahua 0.0475643
xobonko Regresen 0.00215784
yokaxon ordénenlos 0.178707
yapan aleta 0.0549305
bewa dedicada 0.0808869
yoinabo predicen 0.0159626
iketian vuélveselo 0.15211
jaimatani mucho 0.648568
yoyo léeles 0.0620865
jato leer 0.00237176
Wishawe Escribe 1
yoiyaibo lean 0.0342776
itan culantro 0.000208629
shinan lean 0.0386476
onanti pudieran 0.0413125
jaton lean 0.00261895
jaonoboki tus 0.521276
min palabras 0.00971752
yobinbo y 2.19712e-05
iwe conversa 0.175452
bakebaon lean 0.000191617
; Se 0.017215
oinmawe muéstrales 0.391416
tsoabaon dirigimos 0.0186293
oimanwe traído 1
mia eres 0.00356975
meratiki encontrar 1
iti Jugar 0.01777
oinax utilizado 1
tee haz 0.0434131
non escribiríamos 0.0011325
non sería 0.00339738
Bekebo patio 3.09703e-05
meran pone 7.00352e-06
jaweraki escribiríamos 0.11061
koirankantikopi ayudar 1
santira debe 0.485311
jato ayudar 9.90093e-05
jaton preguntan 0.014824
yoabo chacras 0.0718962
ja los 0.00221195
yoiwe expliquen 6.24757e-05
non deberíamos 0.00268953
kaman hasta 0.610185
xeta dentadura 8.95499e-05
maxe culantro 0.363726
yokaxon preguntan 0.466821
bake 5 0.00947333
yapaboki pescados 0.712396
ika sobre 0.397725
Bakebo Enséñales 0.00317369
Jiwi Dibuja 0.604407
wishaxon sobre 0.00456532
mapon dolor 0.506837
meniti inventado 0.705262
jiwiki escribe 0.0197927
jiwiki ayuda 0.000284987
ribojanameran Con 1
Jaskakin sepan 0.00250248
westiora conversa 0.00246618
tita conversan 0.0345827
xobo Con 0.302873
Rekenpari Primero 0.323131
shinanxon digan 0.0487219
kirika Entrégales 0.0549315
ramara vamos 6.70757e-06
ramara ahora 0.488758
