2 0.995267 0.00464421 6.38085e-05 1.26509e-05 5.06222e-06 3.03288e-06 2.0268e-06 2.53223e-06 0 0 
3 0.776194 0.191938 0.0082865 0.0124649 0.00694634 0.00256467 0.00117227 0.000208853 0.000224516 0 
4 0.997342 0.00160696 0.000642217 0.000202151 9.97506e-05 9.00331e-05 8.25543e-06 0 8.25608e-06 0 
5 0.945373 0.031888 0.00850945 0.00629725 0.0049565 0.00183 0.000836462 0.000149025 0.000160202 0 
6 0.568457 0.102423 0.100415 0.0952986 0.0773029 0.036537 0.014617 0.00320909 0.0017395 0 
7 0.955916 0.0437266 0.000256179 5.07881e-05 2.03227e-05 1.21758e-05 8.13676e-06 1.01658e-05 0 0 
8 0.312752 0.686979 0.000192792 3.82105e-05 1.52898e-05 9.16044e-06 6.1217e-06 7.64829e-06 0 0 
9 0.713632 0.197026 0.0159441 0.0483064 0.0157413 0.00646879 0.00108768 0.00160179 0.000175735 1.63705e-05 
10 0.568457 0.0943134 0.0802617 0.107894 0.0782647 0.0512428 0.014617 0.00320909 0.0017395 0 
11 0.00492797 0.995049 3.72947e-07 6.10072e-06 1.51227e-05 0 0 1.54237e-06 0 0 
12 0.996381 0.00353603 5.97469e-05 1.18456e-05 4.73999e-06 2.83982e-06 1.89779e-06 2.37104e-06 0 0 
13 0.597977 0.0878912 0.101092 0.0887713 0.0720081 0.0340344 0.0136158 0.00298929 0.00162035 0 
14 0.749848 0.249737 0.000297302 5.87429e-05 2.35058e-05 1.40828e-05 9.41119e-06 1.17581e-05 0 0 
15 0.562905 0.109785 0.0901221 0.0876015 0.0980322 0.0335745 0.0134318 0.00294889 0.00159846 0 
16 0.78949 0.106889 0.0266323 0.0320807 0.0260227 0.0122996 0.00492058 0.00108029 0.000585573 0 
17 0.404466 0.245846 0.0587941 0.170542 0.075236 0.021783 0.0174106 1.00366e-07 0.00592206 0 
18 0.595005 0.0960993 0.0757707 0.0912719 0.0756744 0.0472988 0.0141404 0.00307349 0.001666 0 
19 0.989161 0.0105559 0.000202903 4.02282e-05 1.60972e-05 9.64416e-06 6.44496e-06 8.05216e-06 0 0 
20 0.796493 0.160674 0.010719 0.0152426 0.0105847 0.0043497 0.000731374 0.00107707 0.000118167 1.10078e-05 
21 0.529657 0.155069 0.0841543 0.100848 0.0833606 0.027012 0.0158167 0.00202654 0.00149764 0.000558802 
22 0.856497 0.143312 3.08881e-06 5.02773e-05 0.000124629 0 0 1.2711e-05 0 0 
23 0.984755 0.0150432 0.000144322 2.8613e-05 1.14494e-05 6.85958e-06 4.58409e-06 5.72724e-06 0 0 
24 0.804436 0.173834 0.0070901 0.00625431 0.00475877 0.00221679 0.000951186 0.000303746 0.000114395 4.0467e-05 
25 0.994413 0.00544779 9.98856e-05 1.98036e-05 7.92438e-06 4.74765e-06 3.17274e-06 3.96394e-06 0 0 
26 0.761209 0.0791654 0.0610259 0.0421379 0.0320424 0.0149264 0.00640465 0.00204522 0.00077026 0.000272478 
27 0.994039 0.00350447 0.00150164 0.000472671 0.000233238 0.000210516 1.93029e-05 0 1.93045e-05 0 
28 0.519144 0.480563 0.000210263 4.16723e-05 1.66751e-05 9.99036e-06 6.67632e-06 8.34121e-06 0 0 
29 0.733151 0.123736 0.0333471 0.0503454 0.042617 0.0103341 0.00472355 0.000841554 0.000904669 0 
30 0.907843 0.0911523 0.00071917 0.000142563 5.70463e-05 3.41776e-05 2.284e-05 2.85357e-05 0 0 
31 0.531745 0.443631 0.00722195 0.0077011 0.00606145 0.00223796 0.00102293 0.000182247 0.000195916 0 
32 0.751511 0.121943 0.0328638 0.0351057 0.0420166 0.0101844 0.00465509 0.000829357 0.000891558 0 
33 0.949617 0.0503041 1.2708e-06 2.07864e-05 5.15261e-05 0 0 5.25515e-06 0 0 
34 0.883216 0.11569 0.00078318 0.000155276 6.21332e-05 3.72252e-05 2.48767e-05 3.10803e-05 0 0 
35 0.728644 0.0747882 0.0542493 0.0486204 0.0657914 0.0171197 0.00727802 0.00232412 0.000875295 0.000309634 
36 0.712352 0.108742 0.0459848 0.0553872 0.0449282 0.0212352 0.00849535 0.00186511 0.00101099 0 
37 0.699843 0.0729772 0.0664 0.0701553 0.05799 0.0187909 0.0110029 0.00140977 0.00104184 0.000388732 
38 0.995977 0.0039277 6.8046e-05 1.3491e-05 5.3984e-06 3.23429e-06 2.1614e-06 2.70039e-06 0 0 
39 0.586514 0.0741913 0.0861832 0.108738 0.0956345 0.0280644 0.0164329 0.0021055 0.00155599 0.000580574 
40 0.781142 0.105729 0.0369123 0.0325611 0.024775 0.011541 0.00495205 0.00158136 0.000595562 0.000210679 
41 0.881434 0.0207357 0.0591099 0.0363438 0.00114938 0.00103741 9.51235e-05 0 9.5131e-05 0 
42 0.957988 0.0419135 1.58045e-06 2.58532e-05 6.40859e-05 0 0 6.53613e-06 0 0 
43 0.51129 0.0838588 0.113962 0.120427 0.114449 0.0322531 0.0188856 0.00241975 0.00178823 0.000667227 
44 0.846787 0.0799355 0.0215646 0.0193591 0.0232124 0.0056218 0.00256961 0.000457805 0.00049214 0 
45 0.536177 0.0996827 0.0961754 0.116925 0.09665 0.0313182 0.0183382 0.00234961 0.00173639 0.000647887 
46 0.519028 0.0851275 0.100547 0.122983 0.115452 0.0327418 0.0191717 0.00245641 0.00181532 0.000677336 
47 0.932263 0.0282559 0.032828 0.00331346 0.00161495 0.00145763 0.000133655 0 0.000133665 0 
48 0.726164 0.163368 0.0504223 0.026573 0.0209153 0.00772221 0.00352968 0.000628853 0.000676017 0 
49 0.795982 0.160812 0.0108122 0.0153751 0.0106767 0.00438753 0.000737734 0.00108643 0.000119194 1.11035e-05 
50 0.764338 0.109276 0.0295245 0.0569471 0.0250745 0.00912625 0.00417145 0.00074319 0.000798929 0 
51 0.970888 0.0110932 0.00587923 0.00518625 0.00394611 0.00183822 0.000788751 0.000251875 9.48596e-05 3.35564e-05 
52 0.429816 0.0967991 0.067984 0.210878 0.132431 0.0345576 0.0204068 0.00598727 0.00114016 0 
53 0.702875 0.224919 0.0288547 0.0162238 0.0204364 0.00462905 0.000778343 0.00114624 0.000125755 1.17147e-05 
54 0.993778 0.00605598 0.000118572 2.35085e-05 9.40685e-06 5.63583e-06 3.76629e-06 4.7055e-06 0 0 
55 0.791495 0.0838065 0.040687 0.0358912 0.0273089 0.0127213 0.00545851 0.00174309 0.000656471 0.000232226 
56 0.852446 0.141786 0.00352593 0.00110966 0.000547558 0.000494216 4.53163e-05 0 4.53199e-05 0 
57 0.402077 0.0798502 0.0855043 0.163446 0.172456 0.0461179 0.039815 0.00740049 0.00236901 0.000964522 
58 0.769598 0.141532 0.0260644 0.0277948 0.021877 0.00807725 0.00369197 0.000657766 0.000707098 0 
59 0.990569 0.00597605 0.00211156 0.000664656 0.000327972 0.000296022 2.71432e-05 0 2.71453e-05 0 
60 0.425927 0.0786585 0.0823709 0.152831 0.179848 0.0454858 0.0243053 0.00729003 0.00233366 0.000950126 
61 0.304999 0.136256 0.0913569 0.264995 0.116905 0.0339222 0.0423633 1.55954e-07 0.00920197 0 
62 0.96865 0.0195625 0.00720523 0.00226799 0.00111913 0.00101011 9.26203e-05 0 9.26275e-05 0 
63 0.315529 0.134192 0.0899727 0.26098 0.119931 0.0436887 0.0266435 1.53591e-07 0.00906255 0 
64 0.809877 0.165647 0.00612515 0.00871006 0.00604839 0.00248554 0.000417928 0.000615467 6.75238e-05 6.29015e-06 
65 0.373956 0.606634 0.0048581 0.0069068 0.00479618 0.00197096 0.000331404 0.000488046 5.35443e-05 4.98789e-06 
66 0.740639 0.109039 0.0490476 0.0432661 0.0329203 0.0153353 0.00658013 0.00210126 0.000791363 0.000279943 
67 0.963639 0.0201706 0.00989634 0.00311508 0.00153712 0.00138738 0.000127213 0 0.000127223 0 
68 0.563925 0.0986662 0.0827651 0.115081 0.0808711 0.0382233 0.0152916 0.0033572 0.00181978 0 
69 0.767842 0.072512 0.0477394 0.0422328 0.0452553 0.0149264 0.00640466 0.00204522 0.00077026 0.000272478 
70 0.918307 0.0746933 0.00427904 0.00134662 0.000664485 0.000599752 5.49933e-05 0 5.49976e-05 0 
71 0.599592 0.073893 0.0953513 0.100892 0.0833606 0.027012 0.0158167 0.00202654 0.00149764 0.000558802 
72 0.511642 0.0864919 0.116291 0.12524 0.102598 0.0332455 0.0194667 0.00249421 0.00184325 0.000687757 
73 0.995209 0.00284588 0.00118871 0.00037417 0.000184633 0.000166646 1.52803e-05 0 1.52815e-05 0 
74 0.390022 0.111302 0.0673907 0.231664 0.131408 0.0379647 0.0224187 0.00657756 0.00125257 0 
75 0.408263 0.0810787 0.0849054 0.158622 0.184362 0.0468171 0.0250532 0.00751434 0.00240546 0.000979361 
76 0.75506 0.120201 0.0334606 0.0476058 0.0273486 0.0100389 0.00458859 0.000817509 0.000878822 0 
77 0.583163 0.0943492 0.0937835 0.0952986 0.0773029 0.036537 0.014617 0.00320909 0.0017395 0 
78 0.720495 0.219918 0.0152387 0.0210493 0.0146169 0.00600673 0.00100999 0.00148738 0.000163183 1.52012e-05 
79 0.380294 0.107954 0.0844376 0.222425 0.13944 0.0364256 0.0215098 0.0063109 0.00120179 0 
80 0.402077 0.0798502 0.0836191 0.185402 0.167537 0.0461077 0.0246736 0.00740049 0.00236901 0.000964522 
81 0.425927 0.0786585 0.0823709 0.153293 0.179452 0.0454195 0.0243053 0.00729003 0.00233366 0.000950126 
82 0.722192 0.234223 0.010907 0.01551 0.0107704 0.00442601 0.000744205 0.00109596 0.00012024 1.12009e-05 
83 0.364971 0.0988499 0.0642202 0.26031 0.139363 0.0402312 0.0237571 0.00697025 0.00132735 0 
84 0.567335 0.11064 0.0827649 0.099697 0.0808707 0.0382233 0.0152916 0.0033572 0.00181978 0 
85 0.563925 0.0986662 0.0827649 0.099697 0.0809045 0.0501638 0.018702 0.0033572 0.00181978 0 
86 0.931804 0.0480878 0.00113851 0.000225725 0.000108054 0.011144 0.00744709 4.51816e-05 0 0 
87 0.794443 0.102357 0.0262581 0.047108 0.0205439 0.00571322 0.00261139 0.000465249 0.000500142 0 
88 0.824907 0.114184 0.0194067 0.0202013 0.0133098 0.00491413 0.00224616 0.000400179 0.000430193 0 
89 0.496661 0.0722662 0.0831043 0.134506 0.143592 0.0395209 0.0211488 0.00634327 0.00203058 0.000826733 
90 0.764778 0.10909 0.0411547 0.0363037 0.0276228 0.0128676 0.00552125 0.00176312 0.000664017 0.000234895 
91 0.743795 0.0747882 0.0542493 0.0478549 0.0364172 0.0321079 0.00727803 0.00232412 0.000875295 0.000309634 
92 0.831811 0.0805161 0.0294384 0.0307936 0.0171468 0.00633082 0.00289371 0.000515546 0.000554212 0 
93 0.884335 0.051115 0.0210615 0.018579 0.0141363 0.00658516 0.00282558 0.000902304 0.000339821 0.000120211 
94 0.77488 0.0706769 0.0545263 0.0495046 0.0286094 0.0133271 0.00571844 0.00182609 0.000687732 0.000243284 
95 0.470454 0.529162 6.18764e-06 0.000101062 0.000250518 1.44841e-07 0 2.55503e-05 0 0 
96 0.563925 0.0986662 0.0827649 0.099697 0.0808707 0.0382233 0.0164192 0.0176142 0.00181978 0 
97 0.568454 0.0943165 0.0791135 0.0952986 0.093464 0.0497876 0.014617 0.00320909 0.0017395 0 
98 0.76418 0.0790558 0.0511493 0.0451204 0.0343311 0.0159925 0.00686213 0.00219131 0.000825278 0.000291941 
99 0.574705 0.0989871 0.0861832 0.104777 0.0866084 0.0280644 0.0164329 0.0021055 0.00155599 0.000580574 
100 0.896307 0.0409873 0.0204597 0.0180481 0.0137325 0.00639701 0.00274485 0.000876524 0.000330111 0.000116776 
101 0.704132 0.209365 0.0324867 0.0256516 0.0177945 0.00731255 0.00122956 0.00181072 0.000198657 1.85058e-05 
102 0.648755 0.191676 0.0940266 0.0394468 0.016371 0.00672754 0.00113119 0.00166586 0.000182765 1.70253e-05 
103 0.953825 0.0245738 0.00704813 0.00621737 0.00473067 0.0022037 0.000945569 0.000301952 0.000113719 4.0228e-05 
104 0.687049 0.221125 0.0191293 0.0272022 0.0189422 0.0230945 0.00130522 0.00192215 0.000210882 1.96446e-05 
105 0.581639 0.13605 0.074563 0.0906499 0.0749309 0.0242804 0.0142172 0.00182161 0.00134619 0.000502294 
106 0.969265 0.01981 0.00667803 0.00210204 0.00103725 0.000936199 8.58432e-05 0 8.58499e-05 0 
107 0.744092 0.125584 0.0465165 0.0383453 0.0284074 0.0104884 0.00479405 0.000854114 0.000918172 0 
108 0.511642 0.0864239 0.102094 0.124121 0.102749 0.0475728 0.0203732 0.00249421 0.00184325 0.000687757 
109 0.755949 0.0754103 0.0504289 0.0498116 0.0426052 0.0157674 0.00676548 0.00216045 0.000813655 0.000287829 
110 0.705191 0.208306 0.0180203 0.0256386 0.0322739 0.00731257 0.00122956 0.00181072 0.000198657 1.85058e-05 
111 0.758411 0.0612131 0.0913022 0.038054 0.028954 0.0134877 0.00578734 0.00184809 0.000696018 0.000246215 
112 0.993344 0.00408111 0.00157356 0.000495309 0.000244408 0.000220598 2.02274e-05 0 2.0229e-05 0 
113 0.562017 0.0957209 0.0802943 0.108706 0.0963218 0.0370823 0.0148352 0.00325698 0.00176546 0 
114 0.865444 0.0531719 0.0296841 0.0220869 0.0168054 0.00782851 0.00335908 0.00107267 0.000403982 0.000142908 
115 0.782393 0.0720949 0.137744 0.000201217 0.00745904 4.32916e-05 2.89307e-05 3.61452e-05 0 0 
116 0.743795 0.0748003 0.0693878 0.0478558 0.0364118 0.0169618 0.00727802 0.00232412 0.000875295 0.000309634 
117 0.304999 0.136263 0.10621 0.26552 0.116905 0.0338475 0.0270534 1.55954e-07 0.00920197 0 
118 0.987014 0.0127182 0.000191852 3.80317e-05 1.52183e-05 9.11757e-06 6.09305e-06 7.61249e-06 0 0 
119 0.576935 0.0957283 0.0802943 0.096721 0.093382 0.0370823 0.0148352 0.00325698 0.00176546 0 
120 0.746111 0.192984 0.0126878 0.0282463 0.0125288 0.00514863 0.000865708 0.0012749 0.000139871 1.30296e-05 
121 0.345449 0.101874 0.0661962 0.268423 0.143547 0.0414691 0.0244881 0.00718472 0.00136819 0 
122 0.749363 0.194809 0.0139708 0.0198668 0.0137958 0.00566928 0.000953251 0.00140382 0.000154015 1.43472e-05 
123 0.687049 0.221125 0.0191388 0.0351804 0.0262864 0.00776255 0.00130522 0.00192215 0.000210882 1.96446e-05 
124 0.993665 0.00381342 0.00154108 0.000485087 0.000239364 0.000216046 1.981e-05 0 1.98115e-05 0 
125 0.743616 0.137435 0.0348862 0.0372022 0.0292815 0.0108111 0.00494156 0.000880395 0.000946423 0 
126 0.848006 0.117247 0.00869511 0.0123646 0.00858618 0.00352843 0.000593282 0.000873704 9.58555e-05 8.92937e-06 
127 0.763877 0.122993 0.0392906 0.0326776 0.0257202 0.00949623 0.00434056 0.00077332 0.000831318 0 
128 0.519041 0.0851144 0.100551 0.132116 0.106314 0.0327418 0.0191717 0.00245641 0.00181532 0.000677336 
129 0.940776 0.0401336 0.00559903 0.00597073 0.0046995 0.00173511 0.00079309 0.000141298 0.000151895 0 
130 0.569272 0.0779436 0.102925 0.109025 0.0901196 0.0292022 0.0170991 0.00219086 0.00161907 0.000604111 
131 0.595043 0.0916481 0.0768531 0.106861 0.0750942 0.035493 0.0141994 0.0031174 0.0016898 0 
132 0.820285 0.0887599 0.0236212 0.0356054 0.019826 0.00732001 0.00334585 0.000596101 0.000640807 0 
133 0.991822 0.00528178 0.00177025 0.000557223 0.000274959 0.000248173 2.27558e-05 0 2.27576e-05 0 
134 0.857844 0.111485 0.00767532 0.0109145 0.00757916 0.0031146 0.0005237 0.000771233 8.46132e-05 7.8821e-06 
135 0.777497 0.0649576 0.0471113 0.0547161 0.0316208 0.01473 0.00632038 0.00201831 0.000760125 0.000268893 
136 0.759093 0.127509 0.0294495 0.0443914 0.0247181 0.00912625 0.00417145 0.00074319 0.000798929 0 
137 0.611058 0.0735266 0.077164 0.094237 0.1003 0.0252031 0.0147132 0.00188515 0.00139315 0.000519816 
138 0.78494 0.139246 0.0222447 0.0237073 0.0186598 0.00688942 0.00314903 0.000561036 0.000603113 0 
139 0.77139 0.112187 0.0302347 0.0322419 0.0253832 0.022697 0.00428268 0.000763009 0.000820234 0 
140 0.766894 0.0646189 0.0464994 0.052483 0.045719 0.0145394 0.0062383 0.0019921 0.000750253 0.000265401 
141 0.775004 0.140956 0.0246479 0.0262842 0.020688 0.00763827 0.00349132 0.000622018 0.000668669 0 
142 0.236354 0.75253 0.00278172 0.00395557 0.00274681 0.00112878 0.000189797 0.000279507 3.06652e-05 2.8566e-06 
143 0.971349 0.0190529 0.00586712 0.0018468 0.000911294 0.000822517 7.54194e-05 0 7.54253e-05 0 
144 0.731773 0.119175 0.0362642 0.0427157 0.0403521 0.0236093 0.00446113 0.000794801 0.00085441 0 
145 0.538826 0.079121 0.0934663 0.124015 0.111396 0.0307526 0.0178216 0.00228343 0.00168748 0.000629636 
146 0.88377 0.0361168 0.0735003 0.00327284 0.00161495 0.00145763 0.000133655 0 0.000133665 0 
147 0.765234 0.16811 0.0195514 0.0208461 0.0164077 0.00605794 0.00276898 0.000493325 0.000530323 0 
148 0.767403 0.138553 0.0117304 0.0295502 0.0270525 0.0235908 0.000800371 0.00117868 0.000129315 1.20462e-05 
149 0.779352 0.166859 0.0202272 0.0159292 0.0110615 0.00454564 0.000764319 0.00112558 0.00012349 1.15036e-05 
150 0.773302 0.225977 0.000516686 0.00010243 4.0987e-05 2.45562e-05 1.64103e-05 2.05026e-05 0 0 
151 0.563925 0.0986662 0.0827649 0.099697 0.0808913 0.0535869 0.015292 0.0033572 0.00181978 0 
152 0.730846 0.0605443 0.0570553 0.0661298 0.0546627 0.0177128 0.0103716 0.00132888 0.000982059 0.000366428 
153 0.587745 0.0729603 0.0861832 0.105156 0.0992166 0.0280644 0.0164329 0.0021055 0.00155599 0.000580574 
154 0.511642 0.0877047 0.116198 0.124121 0.102598 0.0332455 0.0194667 0.00249421 0.00184325 0.000687757 
155 0.784714 0.0849684 0.0433413 0.0371579 0.0282727 0.0131703 0.00565117 0.00180461 0.000679641 0.000240422 
156 0.583162 0.094315 0.0791135 0.0952986 0.0773029 0.0374129 0.0284469 0.00320909 0.0017395 0 
157 0.641798 0.188796 0.0583207 0.0462879 0.0375471 0.0177465 0.00709969 0.0015587 0.000844899 0 
158 0.98049 0.0189924 0.000370359 7.34286e-05 2.93823e-05 1.76035e-05 1.1764e-05 1.46976e-05 0 0 
159 0.743795 0.0747882 0.0573406 0.0599152 0.0364118 0.0169618 0.00727802 0.00232412 0.000875295 0.000309634 
160 0.800601 0.0781633 0.0408768 0.0343307 0.0261215 0.0121682 0.00522119 0.0016673 0.000627929 0.000222129 
161 0.570525 0.0971778 0.0815109 0.098192 0.0947913 0.0376441 0.0150599 0.00330633 0.00179221 0 
162 0.830413 0.0874708 0.0217276 0.0301533 0.0195564 0.00656748 0.00300188 0.000534819 0.00057493 0 
163 0.589204 0.0929464 0.077967 0.0939238 0.0906689 0.0360074 0.0144052 0.00316258 0.00171429 0 
164 0.79363 0.164728 0.0105975 0.0147345 0.0102319 0.00420471 0.000706995 0.00104116 0.000114228 1.06408e-05 
165 0.561261 0.437827 1.46871e-05 0.000240124 0.00059523 3.44141e-07 0 6.07076e-05 0 0 
166 0.576741 0.114517 0.0865557 0.0925919 0.0750942 0.035493 0.0141994 0.0031174 0.0016898 0 
167 0.511642 0.0864239 0.102094 0.124121 0.10263 0.0445543 0.0235101 0.00249421 0.00184325 0.000687757 
168 0.567418 0.118311 0.0817046 0.0899069 0.0927808 0.0303149 0.0139418 0.00447989 0 0.00114189 
169 0.486824 0.138842 0.0641728 0.119039 0.128565 0.035385 0.0189356 0.00567944 0.00181808 0.000740214 
170 0.595762 0.0693525 0.094273 0.111755 0.0825253 0.0266785 0.0156214 0.00200152 0.00147915 0.000551903 
171 0.362117 0.085328 0.133231 0.162105 0.167287 0.0546588 0.0251375 0.00807737 0 0.00205885 
172 0.765146 0.0685558 0.0497285 0.0439589 0.0458224 0.0169004 0.00667152 0.00213044 0.000802354 0.000283831 
173 0.691174 0.233542 0.0188394 0.02679 0.0186034 0.00764493 0.00128545 0.00189303 0.000207687 1.9347e-05 
174 0.563925 0.104125 0.0926908 0.099697 0.0808707 0.0382233 0.0152916 0.0033572 0.00181978 0 
175 0.739854 0.0759389 0.0656296 0.05343 0.036972 0.0172227 0.00738999 0.00235987 0.000888761 0.000314398 
176 0.576642 0.0795986 0.0873172 0.106161 0.100886 0.028448 0.0166491 0.0021332 0.00157646 0.000588213 
177 0.740603 0.183844 0.0157393 0.0224043 0.0229687 0.0115958 0.00107392 0.00158152 0.000173511 1.61633e-05 
178 0.3813 0.105866 0.0597604 0.228689 0.157104 0.0374501 0.0221073 0.00648621 0.00123517 0 
179 0.716949 0.143023 0.0651472 0.0325352 0.0240318 0.0111948 0.00480349 0.00153392 0.000577695 0.000204359 
180 0.537409 0.0875804 0.0990463 0.120415 0.0995351 0.0322531 0.0188856 0.00241975 0.00178823 0.000667227 
181 0.563925 0.102466 0.0928614 0.101185 0.0808707 0.0382233 0.0152916 0.0033572 0.00181978 0 
182 0.761282 0.0700774 0.0645129 0.044485 0.0338476 0.0157673 0.00676548 0.00216045 0.000813655 0.000287829 
183 0.826561 0.097234 0.0248643 0.0219335 0.0166887 0.00777415 0.00333576 0.00106522 0.000401177 0.000141916 
184 0.408263 0.0810787 0.0849054 0.158986 0.183997 0.046818 0.0250532 0.00751434 0.00240546 0.000979361 
185 0.485992 0.0714372 0.086918 0.136498 0.147421 0.0405748 0.0217128 0.00651243 0.00208473 0.000848779 
186 0.624922 0.103011 0.0677501 0.0923219 0.0648962 0.030673 0.0122711 0.00269405 0.00146032 0 
187 0.531326 0.119702 0.0921725 0.112053 0.0926229 0.0300133 0.0175741 0.00225171 0.00166405 0.000620891 
188 0.761197 0.0791595 0.061068 0.0421144 0.0320424 0.0149264 0.00640465 0.00204522 0.00077026 0.000272478 
189 0.739854 0.0759388 0.0550839 0.0485912 0.036972 0.0172227 0.00738999 0.00236123 0.0162719 0.000314478 
190 0.771053 0.0374668 0.186598 0.00241694 0.00119235 0.00107619 9.86795e-05 0 9.86873e-05 0 
191 0.79992 0.0662566 0.0436641 0.0385174 0.0293071 0.0136522 0.00585792 0.00187063 0.000704506 0.000249218 
192 0.758298 0.0706522 0.0511612 0.0593635 0.0343618 0.0159925 0.00686213 0.00219131 0.000825279 0.000291941 
193 0.539938 0.0814286 0.0961845 0.129595 0.098464 0.0313182 0.0183382 0.00234961 0.00173639 0.000647887 
194 0.778562 0.109579 0.0465637 0.030284 0.021877 0.00807725 0.00369197 0.000657766 0.000707098 0 
195 0.747619 0.0736719 0.0534396 0.0471407 0.0366345 0.0308678 0.00716939 0.00228943 0.000862231 0.000305013 
196 0.925722 0.0603211 0.0034927 0.00496669 0.00344894 0.00141732 0.000238313 0.000350954 3.85038e-05 3.5868e-06 
197 0.887442 0.0610128 0.0151174 0.016121 0.0126886 0.00468481 0.00214134 0.000381504 0.000410117 0 
198 0.558316 0.0875472 0.123016 0.100848 0.0833606 0.027012 0.0158167 0.00202654 0.00149764 0.000558802 
199 0.589929 0.104516 0.0818815 0.0876022 0.084518 0.0335746 0.0134318 0.00294889 0.00159846 0 
200 0.72005 0.226993 0.0155316 0.0165626 0.0130363 0.00481316 0.00220001 0.000391957 0.000421353 0 
201 0.724284 0.216565 0.0148024 0.0210493 0.0146169 0.00600673 0.00100999 0.00148738 0.000163183 1.52012e-05 
202 0.55538 0.0971712 0.0964943 0.0983835 0.0947679 0.0376441 0.0150599 0.00330633 0.00179221 0 
203 0.443407 0.0767427 0.090076 0.144234 0.169765 0.0428607 0.022936 0.00687933 0.00220218 0.000896598 
204 0.751188 0.0781086 0.0471402 0.067845 0.0316208 0.01473 0.00632038 0.00201831 0.000760125 0.000268893 
205 0.761834 0.0695251 0.0504289 0.0444849 0.0338476 0.0157755 0.0208418 0.00216045 0.000813655 0.000287829 
206 0.970097 0.0294567 0.000320887 6.26692e-05 2.50769e-05 1.50241e-05 1.00402e-05 1.2544e-05 0 0 
207 0.914139 0.0719714 0.00155265 0.01205 0.000114764 6.87572e-05 4.59488e-05 5.74072e-05 0 0 
208 0.749831 0.0740882 0.0571798 0.0549959 0.0369722 0.0164629 0.00706396 0.00225576 0.000849551 0.000300527 
209 0.347159 0.110815 0.0709303 0.253048 0.143537 0.0414691 0.0244881 0.00718472 0.00136819 0 
210 0.747748 0.0733414 0.0716192 0.0476495 0.0338476 0.0157673 0.00676548 0.00216045 0.000813655 0.000287829 
211 0.713884 0.211835 0.0265213 0.0226685 0.0157413 0.00646879 0.00108768 0.00160179 0.000175735 1.63705e-05 
212 0.599013 0.0963813 0.0774688 0.101143 0.0730083 0.0345071 0.0138049 0.0030308 0.00164286 0 
213 0.54652 0.0805632 0.108779 0.115255 0.0952693 0.0308708 0.0180762 0.00231605 0.00171159 0.000638631 
214 0.576894 0.10596 0.0815109 0.0981864 0.0796454 0.0376441 0.0150599 0.00330633 0.00179221 0 
215 0.584531 0.0976195 0.0780012 0.101771 0.0827872 0.0360074 0.0144052 0.00316258 0.00171429 0 
216 0.649823 0.083476 0.0730264 0.0816795 0.0648962 0.030673 0.0122711 0.00269405 0.00146032 0 
217 0.92522 0.0730456 0.00124201 0.000246245 9.85345e-05 5.9034e-05 3.9451e-05 4.9289e-05 0 0 
218 0.761225 0.137036 0.0298429 0.0318177 0.0250434 0.00924633 0.00422633 0.000752969 0.000809441 0 
219 0.967975 0.0206371 0.00696099 0.00219111 0.0010812 0.000975868 8.94806e-05 0 8.94876e-05 0 
220 0.797988 0.111051 0.0266777 0.0284488 0.0223917 0.0082673 0.00377884 0.000673243 0.000723736 0 
221 0.576941 0.0957225 0.0952129 0.0967272 0.0784566 0.0370823 0.0148352 0.00325698 0.00176546 0 
222 0.345449 0.101874 0.0661962 0.253048 0.158918 0.0414727 0.0244881 0.00718472 0.00136819 0 
223 0.85044 0.115356 0.00868811 0.0121106 0.00840975 0.00345593 0.000581092 0.000855752 9.38859e-05 8.74589e-06 
224 0.611443 0.145166 0.0625549 0.0753524 0.0611232 0.0288897 0.0115576 0.00253742 0.00137542 0 
225 0.413305 0.0767743 0.119992 0.151717 0.16024 0.044103 0.0236008 0.00707873 0.00226601 0.000922586 
226 0.968336 0.0209988 0.00651902 0.00205199 0.00101255 0.000913908 8.37993e-05 0 8.38059e-05 0 
227 0.560707 0.090832 0.0885997 0.107576 0.0983769 0.0326828 0.0168711 0.00216164 0.00159748 0.000596056 
228 0.408263 0.0810787 0.0849054 0.161127 0.181856 0.0468171 0.0250532 0.00751434 0.00240546 0.000979361 
229 0.936541 0.0621174 0.000960619 0.000190456 7.62103e-05 4.56591e-05 3.05129e-05 3.81219e-05 0 0 
230 0.571836 0.104775 0.0997595 0.101041 0.071035 0.0335745 0.0134318 0.00294889 0.00159846 0 
231 0.82851 0.0796815 0.0308218 0.0230376 0.027071 0.00672777 0.0030302 0.000539865 0.000580354 0 
232 0.760332 0.127278 0.0315885 0.0302268 0.0237912 0.00878959 0.0165094 0.000715321 0.000768969 0 
233 0.489174 0.0743712 0.0952235 0.145557 0.131626 0.0362275 0.0193864 0.00581467 0.00186137 0.000757839 
234 0.950052 0.0210122 0.0140949 0.0115834 0.00157508 0.00142163 0.000130354 0 0.000130365 0 
235 0.642447 0.126825 0.0610982 0.0740169 0.0611821 0.0198253 0.0116086 0.00148737 0.00109919 0.00041013 
236 0.73625 0.0729639 0.0526673 0.0758457 0.0353409 0.0164629 0.00706396 0.00225576 0.000849551 0.000300527 
237 0.503775 0.0832729 0.141045 0.118646 0.0980713 0.0317788 0.0186079 0.00238417 0.00176193 0.000657414 
238 0.745288 0.068485 0.0717732 0.049763 0.0402714 0.0149264 0.00640465 0.00204522 0.00077026 0.000272478 
239 0.526218 0.0838459 0.0990463 0.120415 0.0995351 0.032254 0.0338101 0.00241975 0.00178823 0.000667227 
240 0.408263 0.0810787 0.0879087 0.169754 0.170226 0.0468171 0.0250532 0.00751434 0.00240546 0.000979361 
241 0.352356 0.103341 0.0651932 0.264366 0.141363 0.0408408 0.0241171 0.00707586 0.00134746 0 
242 0.408263 0.0810787 0.0880882 0.166696 0.173104 0.0468171 0.0250532 0.00751434 0.00240546 0.000979361 
243 0.962601 0.0186593 0.0104658 0.00140533 0.006128 0.000625828 5.73843e-05 0 5.73888e-05 0 
244 0.560215 0.107431 0.083631 0.109364 0.0840668 0.0360106 0.0144052 0.00316258 0.00171429 0 
245 0.50389 0.0851208 0.130844 0.12224 0.101043 0.0327418 0.0191717 0.00245641 0.00181532 0.000677336 
246 0.604929 0.337345 0.0169498 0.0180459 0.0142037 0.00524419 0.00239702 0.000427057 0.000459086 0 
247 0.603536 0.121245 0.0878467 0.078076 0.0633325 0.0299339 0.0119754 0.00262913 0.00142513 0 
248 0.576945 0.396115 0.00790111 0.0084256 0.0066317 0.00244851 0.00111917 0.000199393 0.000214347 0 
249 0.757819 0.181891 0.012566 0.0279533 0.0124042 0.00509662 0.000856963 0.00126202 0.000138458 1.2898e-05 
250 0.684727 0.305606 0.00590933 0.00186008 0.00091785 0.000828435 7.59619e-05 0 7.59679e-05 0 
251 0.764824 0.124431 0.0500819 0.0271912 0.0209153 0.00772221 0.00352968 0.000628853 0.000676017 0 
252 0.428074 0.0763987 0.0944452 0.162871 0.16024 0.044103 0.0236008 0.00707873 0.00226601 0.000922586 
253 0.364296 0.0700928 0.144035 0.171917 0.162371 0.0530512 0.0243982 0.0078398 0 0.0019983 
254 0.654004 0.0820183 0.074321 0.0790281 0.0641048 0.0302989 0.0121214 0.00266119 0.00144251 0 
255 0.868933 0.0615759 0.0304613 0.0172729 0.013595 0.00501943 0.00229429 0.000408755 0.000439411 0 
256 0.839592 0.0674118 0.0303438 0.0267663 0.0203659 0.0094871 0.00407076 0.00129993 0.000489572 0.000173185 
257 0.724876 0.205468 0.0204296 0.0217851 0.0171468 0.00633082 0.00289371 0.000515546 0.000554212 0 
258 0.519036 0.0851199 0.100547 0.124884 0.113551 0.0327418 0.0191717 0.00245641 0.00181532 0.000677336 
259 0.576942 0.0957209 0.0802943 0.0967311 0.0933718 0.0370823 0.0148352 0.00325698 0.00176546 0 
260 0.563925 0.0986662 0.0835731 0.11427 0.0808743 0.0382233 0.0152916 0.0033572 0.00181978 0 
261 0.753563 0.208216 0.00956579 0.0136011 0.00944479 0.00388127 0.000652611 0.000961075 0.000105441 9.82231e-06 
262 0.945944 0.0232188 0.0239634 0.00340199 0.0016787 0.00151516 0.00013893 0 0.000138941 0 
263 0.743795 0.0747882 0.0542493 0.0478549 0.0364118 0.0313985 0.00799278 0.00232412 0.000875295 0.000309634 
264 0.408263 0.0810787 0.084909 0.17207 0.170909 0.0468171 0.0250532 0.00751434 0.00240546 0.000979361 
265 0.830856 0.137123 0.0112425 0.0103688 0.00653097 0.00268386 0.000451273 0.000664573 7.29114e-05 6.79202e-06 
266 0.562944 0.109719 0.0802997 0.111641 0.0784566 0.0370823 0.0148352 0.00325698 0.00176546 0 
267 0.69085 0.218715 0.0188396 0.0419413 0.0186034 0.00764493 0.00128545 0.00189303 0.000207687 1.9347e-05 
268 0.357108 0.0998919 0.0779816 0.256528 0.137267 0.0396396 0.0234078 0.00686775 0.00130783 0 
269 0.723399 0.249449 0.00679467 0.00966198 0.00670942 0.00275719 0.000463603 0.000682731 7.49035e-05 6.9776e-06 
270 0.739854 0.075942 0.0698337 0.0492228 0.036972 0.0172227 0.00738999 0.00235987 0.000888761 0.000314398 
271 0.606663 0.0707968 0.0819272 0.111949 0.0823315 0.0266785 0.0156214 0.00200152 0.00147915 0.000551903 
272 0.350832 0.078381 0.145012 0.164599 0.16986 0.0554997 0.0255243 0.00820164 0 0.00209053 
273 0.459436 0.0858681 0.0756008 0.140801 0.164595 0.0416866 0.0223076 0.00669085 0.00214185 0.000872033 
274 0.755052 0.120209 0.0323944 0.0488306 0.0271899 0.0100389 0.00458859 0.000817509 0.000878822 0 
275 0.736219 0.129486 0.0453066 0.0421273 0.0292815 0.0108111 0.00494156 0.000880395 0.000946423 0 
276 0.812968 0.0951192 0.0251923 0.0346577 0.0200347 0.00739706 0.00338107 0.000602375 0.000647553 0 
277 0.675577 0.176447 0.0555626 0.0394803 0.0300397 0.0139935 0.00600436 0.0019174 0.000722119 0.000255448 
278 0.743794 0.0747898 0.0542493 0.0481939 0.051223 0.0169631 0.00727802 0.00232412 0.000875295 0.000309634 
279 0.782832 0.118044 0.0290719 0.0310019 0.0244012 0.00900924 0.00411797 0.000733662 0.000788686 0 
280 0.564133 0.232576 0.0523018 0.0629156 0.0510349 0.0241215 0.00965006 0.00211862 0.00114841 0 
281 0.768363 0.0676173 0.0490507 0.0566596 0.033222 0.0153353 0.00658013 0.00210126 0.000791363 0.000279943 
282 0.546521 0.0802547 0.0948015 0.115255 0.0978175 0.0425981 0.0180865 0.00231605 0.00171159 0.000638631 
283 0.761834 0.057626 0.0592883 0.0662584 0.0355104 0.0119093 0.0051101 0.00163183 0.000614569 0.000217403 
284 0.754422 0.0641042 0.0527904 0.0736885 0.0312101 0.0145387 0.0062383 0.0019921 0.000750253 0.000265401 
285 0.578395 0.10311 0.0855909 0.106909 0.0730082 0.0345071 0.0138049 0.0030308 0.00164286 0 
286 0.788973 0.136682 0.0218049 0.0232514 0.0183009 0.00675693 0.00308847 0.000550247 0.000591515 0 
287 0.568184 0.0950136 0.0933926 0.110004 0.0773029 0.036537 0.014617 0.00320909 0.0017395 0 
288 0.566606 0.407913 0.00637666 0.00906739 0.00629653 0.00258752 0.000435074 0.000640717 7.0294e-05 6.54821e-06 
289 0.747619 0.0736719 0.0534396 0.062066 0.0358684 0.0167086 0.00716939 0.00228943 0.000862231 0.000305013 
290 0.739854 0.0759396 0.0649283 0.0541305 0.036972 0.0172227 0.00738999 0.00235987 0.000888761 0.000314398 
291 0.798752 0.10745 0.0306099 0.0269951 0.02054 0.00956818 0.00410555 0.00131104 0.000493756 0.000174665 
292 0.736219 0.129447 0.0499127 0.0375604 0.0292815 0.0108111 0.00494156 0.000880395 0.000946423 0 
293 0.784903 0.0635344 0.04544 0.0525205 0.03042 0.0141706 0.00608037 0.00194167 0.000731259 0.000258682 
294 0.551431 0.103831 0.0914553 0.110518 0.0913541 0.0296022 0.0173333 0.00222087 0.00164125 0.000612386 
295 0.725064 0.148594 0.0435521 0.0366386 0.0288378 0.0106473 0.00486669 0.000867055 0.000932084 0 
296 0.821388 0.0876568 0.0237323 0.0354942 0.019826 0.00732001 0.00334585 0.000596101 0.000640808 0 
297 0.733705 0.137833 0.0347792 0.0350602 0.0420622 0.0101844 0.00465509 0.000829357 0.000891558 0 
298 0.532135 0.0836634 0.0975898 0.133351 0.0980713 0.0317788 0.0186079 0.00238417 0.00176193 0.000657414 
299 0.788053 0.112642 0.0262106 0.0419938 0.0194402 0.00717062 0.00327756 0.000583935 0.00062773 0 
300 0.745767 0.15594 0.0330249 0.0337415 0.0199846 0.00709819 0.00324446 0.000578037 0.000621389 0 
301 0.951226 0.0262373 0.0175135 0.00248607 0.00122674 0.00110723 0.000101526 0 0.000101534 0 
302 0.345449 0.101874 0.0661962 0.253048 0.143537 0.0415025 0.0398386 0.0071855 0.00136819 0 
303 0.579708 0.0862238 0.12003 0.0995132 0.0732841 0.0237468 0.0139048 0.00178158 0.00131661 0.000491255 
304 0.8073 0.0566377 0.040687 0.0376195 0.0369442 0.0127213 0.00545851 0.00174309 0.000656472 0.000232226 
305 0.808782 0.0702735 0.0362725 0.041898 0.0242745 0.0113079 0.00485201 0.00154941 0.00058353 0.000206423 
306 0.601706 0.0884112 0.0862066 0.0875785 0.0845439 0.0335748 0.0134318 0.00294889 0.00159846 0 
307 0.576748 0.074909 0.0884814 0.114835 0.0949877 0.0288128 0.0168711 0.00216164 0.00159748 0.000596056 
308 0.408263 0.0810787 0.0849054 0.172882 0.170102 0.0468171 0.0250532 0.00751434 0.00240546 0.000979361 
309 0.764176 0.109438 0.0294494 0.050378 0.0317186 0.00912625 0.00417145 0.00074319 0.000798929 0 
310 0.576942 0.0957209 0.0802993 0.111628 0.0784698 0.0370823 0.0148352 0.00325698 0.00176546 0 
311 0.753153 0.0766166 0.0621568 0.0467023 0.0348287 0.0162243 0.00696158 0.00222307 0.000837239 0.000296172 
312 0.419652 0.0817536 0.10606 0.150819 0.162597 0.0447516 0.0239479 0.00718282 0.00229934 0.000936154 
313 0.688685 0.22088 0.0188394 0.02679 0.0186034 0.00767737 0.0164045 0.00189303 0.000207687 1.9347e-05 
314 0.746898 0.0743933 0.0534396 0.062066 0.0358683 0.0167086 0.00716939 0.00228943 0.000862231 0.000305013 
315 0.736625 0.073911 0.0661164 0.0610741 0.0353409 0.0164629 0.00706396 0.00225576 0.000849551 0.000300527 
316 0.559817 0.0871324 0.0998563 0.112359 0.0901196 0.0292022 0.0170991 0.00219086 0.00161907 0.000604111 
317 0.751331 0.0764787 0.0634695 0.0464474 0.0353409 0.0164629 0.00706396 0.00225576 0.000849551 0.000300527 
318 0.444179 0.0742323 0.0777303 0.158272 0.169811 0.0428607 0.022936 0.00687933 0.00220218 0.000896598 
319 0.739854 0.0759388 0.0550839 0.0486465 0.051725 0.017799 0.00738999 0.00235987 0.000888761 0.000314398 
320 0.417229 0.0804201 0.0981598 0.155152 0.167524 0.0461077 0.0246736 0.00740049 0.00236901 0.000964522 
321 0.533178 0.0831442 0.110924 0.119492 0.0980713 0.0317788 0.0186079 0.00238417 0.00176193 0.000657414 
322 0.526218 0.0838457 0.0990463 0.120415 0.0999603 0.0458977 0.0197412 0.00241975 0.00178823 0.000667227 
323 0.524737 0.0791258 0.0934678 0.146696 0.103115 0.030436 0.0178216 0.00228343 0.00168748 0.000629636 
324 0.764187 0.1162 0.0310631 0.0331253 0.0333016 0.0160959 0.00440002 0.000783913 0.000842706 0 
325 0.955985 0.0297193 0.00873826 0.00275055 0.00135725 0.00122503 0.000112327 0 0.000112336 0 
326 0.736219 0.129447 0.0348862 0.0372022 0.0429127 0.0125645 0.00494156 0.000880395 0.000946423 0 
327 0.576942 0.0957209 0.0802943 0.096721 0.0784648 0.0519995 0.0148352 0.00325698 0.00176546 0 
328 0.737013 0.122836 0.0592144 0.0367923 0.027584 0.0101844 0.00465509 0.000829357 0.000891558 0 
329 0.747619 0.0736719 0.0534396 0.0471407 0.0358725 0.0282176 0.0105817 0.00228943 0.000862231 0.000305013 
330 0.568451 0.108969 0.0792006 0.109973 0.0773035 0.036537 0.014617 0.00320909 0.0017395 0 
331 0.408263 0.0810787 0.0849054 0.157498 0.170108 0.0586928 0.0285556 0.00751434 0.00240546 0.000979361 
332 0.517925 0.0862309 0.102359 0.133415 0.103208 0.0327418 0.0191717 0.00245641 0.00181532 0.000677336 
333 0.810646 0.061755 0.0416332 0.0367259 0.0279439 0.0130172 0.00558545 0.00178362 0.000671738 0.000237626 
334 0.437489 0.0734357 0.0854804 0.154452 0.162927 0.0546363 0.0220062 0.00660043 0.0021129 0.000860249 
335 0.519041 0.0851144 0.100594 0.13705 0.101338 0.0327418 0.0191717 0.00245641 0.00181532 0.000677336 
336 0.511642 0.0864239 0.103228 0.138355 0.102614 0.0332455 0.0194667 0.00249421 0.00184325 0.000687757 
337 0.425443 0.0864282 0.0846598 0.161755 0.162597 0.0447516 0.0239479 0.00718283 0.00229934 0.000936154 
338 0.511642 0.0864239 0.117411 0.124189 0.102598 0.0332455 0.0194667 0.00249421 0.00184325 0.000687757 
339 0.862368 0.0469301 0.0346945 0.0239275 0.0182059 0.00848089 0.00363901 0.00116206 0.000437648 0.000154817 
340 0.783214 0.165556 0.0128253 0.0182283 0.012658 0.00520171 0.000874633 0.00128804 0.000141313 1.31639e-05 
341 0.417227 0.0798524 0.0867595 0.166928 0.167718 0.0461077 0.0246736 0.00740049 0.00236901 0.000964522 
342 0.606315 0.0890801 0.0747452 0.10367 0.0732044 0.0345071 0.0138049 0.0030308 0.00164286 0 
343 0.74162 0.139431 0.0348862 0.0372022 0.0292815 0.0108111 0.00494156 0.000880395 0.000946423 0 
344 0.443624 0.161786 0.0580926 0.180749 0.102527 0.0296208 0.0174915 0.00513194 0.000977281 0 
345 0.740195 0.127512 0.0478869 0.0382551 0.0288378 0.0106473 0.00486669 0.000867055 0.000932084 0 
346 0.511642 0.0864239 0.117398 0.124201 0.102598 0.0332455 0.0194667 0.00249421 0.00184325 0.000687757 
347 0.583144 0.0943323 0.0794285 0.109583 0.0774091 0.036537 0.014617 0.00320909 0.0017395 0 
348 0.578469 0.0967284 0.108804 0.0900042 0.0730082 0.0345071 0.0138049 0.0030308 0.00164286 0 
349 0.511642 0.0864239 0.102094 0.124121 0.102605 0.0486233 0.0194667 0.00249421 0.00184325 0.000687757 
350 0.350832 0.0728244 0.135184 0.168056 0.181788 0.0554997 0.0255243 0.00820164 0 0.00209053 
351 0.961056 0.0382595 0.000489877 9.71247e-05 3.88642e-05 2.32843e-05 1.55603e-05 1.94407e-05 0 0 
352 0.785666 0.105187 0.0408326 0.0302393 0.0237912 0.00878401 0.00401502 0.000715321 0.000768969 0 
353 0.75798 0.0802165 0.061898 0.0426814 0.0324754 0.0151281 0.0064912 0.00207286 0.000780669 0.00027616 
354 0.745986 0.0671245 0.0480332 0.0578599 0.0469339 0.0221832 0.00887461 0.00194837 0.00105612 0 
355 0.570532 0.0971712 0.0815109 0.0982285 0.0947548 0.0376441 0.0150599 0.00330633 0.00179221 0 
356 0.91827 0.0496477 0.00940915 0.0100338 0.0078975 0.00291585 0.00133279 0.000237451 0.000255259 0 
357 0.247537 0.158345 1.03336e-05 0.287464 0.111972 0.140889 0 0.0269728 0.0268088 0 
358 0.73997 0.205399 0.0136942 0.0194301 0.0134926 0.00554468 0.000932301 0.00137296 0.00015063 1.40319e-05 
359 0.808296 0.0672355 0.0474581 0.0329003 0.0250331 0.0116612 0.00500364 0.00159783 0.000601766 0.000212874 
360 0.743795 0.0747882 0.0576399 0.0596147 0.036413 0.0169618 0.00727802 0.00232412 0.000875295 0.000309634 
361 0.521102 0.0999682 0.0964713 0.120867 0.107201 0.0313182 0.0183382 0.00234961 0.00173639 0.000647887 
362 0.50389 0.0851144 0.100547 0.122549 0.116423 0.0473315 0.0191955 0.00245641 0.00181532 0.000677336 
363 0.744402 0.121223 0.043156 0.0365671 0.0385586 0.00989748 0.00452396 0.000805995 0.000866444 0 
364 0.804629 0.111115 0.0248644 0.0262842 0.020688 0.00763827 0.00349132 0.000622018 0.000668669 0 
365 0.682215 0.243625 0.0185582 0.0263902 0.0183257 0.00753083 0.00126626 0.00186477 0.000204587 1.90582e-05 
366 0.345516 0.071721 0.141301 0.183481 0.168047 0.0546588 0.0251375 0.00807737 0 0.00205885 
367 0.519041 0.0851148 0.109066 0.128872 0.101043 0.0327418 0.0191717 0.00245641 0.00181532 0.000677336 
368 0.752899 0.0782778 0.0550839 0.0485912 0.036972 0.0172227 0.00738999 0.00235987 0.000888761 0.000314398 
369 0.575323 0.102653 0.0827649 0.099697 0.0808707 0.0382233 0.0152916 0.0033572 0.00181978 0 
370 0.713695 0.0733858 0.0602438 0.0646015 0.0510349 0.0241215 0.00965006 0.00211862 0.00114841 0 
371 0.408263 0.0810787 0.0849054 0.163876 0.176117 0.0498083 0.0250532 0.00751434 0.00240546 0.000979361 
372 0.595092 0.208974 0.0507696 0.0655891 0.0461105 0.021794 0.00871891 0.00191419 0.00103759 0 
373 0.563925 0.0986662 0.0837883 0.114058 0.0808711 0.0382233 0.0152916 0.0033572 0.00181978 0 
374 0.796238 0.056336 0.0520506 0.0363117 0.0382519 0.0127213 0.00545851 0.00174309 0.000656471 0.000232226 
375 0.355362 0.100335 0.0651936 0.264333 0.141394 0.0408408 0.0241171 0.00707586 0.00134746 0 
376 0.746294 0.136588 0.0379385 0.0392304 0.0226715 0.0105611 0.00453159 0.00144709 0.000544995 0.000192791 
377 0.57287 0.109053 0.0840314 0.102125 0.0844158 0.0273539 0.0160169 0.00205219 0.0015166 0.000565876 
378 0.700856 0.211369 0.0182853 0.0260021 0.0194129 0.0207693 0.00124764 0.00183735 0.000201579 1.8778e-05 
379 0.747764 0.138535 0.0333471 0.035561 0.0279897 0.0103341 0.00472355 0.000841554 0.000904669 0 
380 0.747097 0.11774 0.0443323 0.0347146 0.0402454 0.00976001 0.00446113 0.000794801 0.00085441 0 
381 0.563925 0.0986662 0.0981495 0.099697 0.0808707 0.0382233 0.0152916 0.0033572 0.00181978 0 
382 0.591946 0.20123 0.05527 0.0661298 0.0546627 0.0177128 0.0103716 0.00132888 0.000982059 0.000366428 
383 0.708553 0.188891 0.0334622 0.029518 0.0224596 0.0104624 0.00448924 0.00143357 0.000539902 0.000190989 
384 0.340215 0.10033 0.0654194 0.263479 0.157174 0.0408408 0.0241171 0.00707586 0.00134746 0 
385 0.734955 0.0987438 0.0636203 0.043867 0.0333775 0.0155483 0.00667151 0.00213044 0.000802354 0.000283831 
386 0.605909 0.0833055 0.0828388 0.0842484 0.0903296 0.0360897 0.0129085 0.002834 0.00153618 0 
387 0.570531 0.0971718 0.0815109 0.0981864 0.0796454 0.0376441 0.0174318 0.016086 0.00179222 0 
388 0.784488 0.107726 0.0379811 0.0322003 0.0234975 0.00867557 0.00396545 0.00070649 0.000759476 0 
389 0.715995 0.158943 0.0550086 0.0310019 0.0244012 0.00900924 0.00411797 0.000733662 0.000788686 0 
390 0.736621 0.0872979 0.0526693 0.0611378 0.0353409 0.0164629 0.00706396 0.00225576 0.000849551 0.000300527 
391 0.529751 0.0860468 0.0975897 0.118665 0.112756 0.0317788 0.0186079 0.00238417 0.00176193 0.000657414 
392 0.519036 0.100271 0.100547 0.12224 0.101043 0.0327418 0.0191717 0.00245641 0.00181532 0.000677336 
393 0.734072 0.116877 0.0353274 0.0714191 0.0264347 0.00976001 0.00446113 0.000794801 0.00085441 0 
394 0.639443 0.304095 0.0141296 0.0200925 0.0139525 0.0057337 0.000964084 0.00141977 0.000155765 1.45102e-05 
395 0.519036 0.0851197 0.100547 0.122277 0.116155 0.0327444 0.0191717 0.00245641 0.00181532 0.000677336 
396 0.765145 0.0685566 0.0506551 0.056629 0.0335778 0.0155483 0.00667152 0.00213044 0.000802354 0.000283831 
397 0.940135 0.0248831 0.0122597 0.00385898 0.00191743 0.0166308 0.000157593 0 0.000157605 0 
398 0.733629 0.136047 0.0338449 0.0510171 0.0284074 0.0104884 0.00479405 0.000854114 0.000918172 0 
399 0.728644 0.0747882 0.0694006 0.0478598 0.0515586 0.0169618 0.00727802 0.00232412 0.000875295 0.000309634 
400 0.747619 0.073672 0.0534396 0.0471604 0.050774 0.0167086 0.00716939 0.00228943 0.000862231 0.000305013 
401 0.563925 0.0986662 0.0827649 0.115081 0.0808708 0.0382233 0.0152916 0.0033572 0.00181978 0 
402 0.740216 0.127485 0.034645 0.0497404 0.0306001 0.0106473 0.00486669 0.000867055 0.000932084 0 
403 0.720912 0.199506 0.0299119 0.0235754 0.016371 0.00672754 0.00113119 0.00166586 0.000182765 1.70253e-05 
404 0.575514 0.0807263 0.0873171 0.107547 0.0995146 0.0284337 0.0166491 0.0021332 0.00157646 0.000588213 
405 0.732694 0.0736719 0.0682845 0.0621465 0.0358684 0.0167086 0.00716939 0.00228943 0.000862231 0.000305013 
406 0.817114 0.103172 0.023383 0.0249293 0.0196216 0.00724455 0.00331135 0.000589955 0.000634201 0 
407 0.563925 0.114017 0.0827982 0.099697 0.0808707 0.0382233 0.0152916 0.0033572 0.00181978 0 
408 0.781712 0.117493 0.0316298 0.0306094 0.0240924 0.0088952 0.00406584 0.000724375 0.000778703 0 
409 0.793311 0.0575925 0.0639101 0.0365128 0.0276227 0.0128676 0.00552125 0.00176312 0.000664017 0.000234895 
410 0.6873 0.236236 0.019152 0.0272022 0.0188896 0.00776255 0.00130522 0.00192215 0.000210882 1.96446e-05 
411 0.739854 0.0759388 0.0550839 0.0485912 0.0369972 0.032365 0.00760717 0.00235987 0.000888761 0.000314398 
412 0.768298 0.113706 0.0327343 0.0440871 0.0257333 0.00949623 0.00434056 0.00077332 0.000831318 0 
413 0.828575 0.123697 0.0248737 0.0108475 0.00753266 0.00309549 0.000520487 0.000766502 8.40941e-05 7.83375e-06 
414 0.366443 0.0148448 0.103082 0.349082 1.14669e-05 0.0974641 0.0539104 0 0.0151624 0 
415 0.981559 0.0116774 0.0048073 0.000968357 0.000477832 0.000431282 3.95457e-05 0 3.95488e-05 0 
416 0.434366 0.0775047 0.0811596 0.150549 0.177215 0.0448395 0.0239479 0.00718283 0.00229934 0.000936154 
417 0.786229 0.108646 0.0392923 0.0291344 0.0229313 0.00846652 0.00386989 0.000689466 0.000741175 0 
418 0.785471 0.105474 0.0407255 0.030255 0.0237912 0.00878401 0.00401502 0.000715321 0.000768969 0 
419 0.733151 0.123736 0.0334093 0.0649083 0.0279919 0.0103341 0.00472355 0.000841554 0.000904669 0 
420 0.74548 0.174961 0.0152486 0.0420694 0.0139525 0.0057337 0.000964084 0.00141977 0.000155765 1.45102e-05 
421 0.557018 0.116674 0.0861832 0.104777 0.0866084 0.0280644 0.0164329 0.0021055 0.00155599 0.000580574 
422 0.740602 0.235754 0.00693459 0.00739494 0.00582048 0.00214899 0.000982267 0.000175002 0.000188127 0 
423 0.576942 0.0957209 0.0802943 0.096721 0.0784566 0.0370823 0.0148352 0.00325698 0.0166908 0 
424 0.403414 0.118712 0.0912919 0.226641 0.0999847 0.0289485 0.0231378 1.33382e-07 0.00787011 0 
425 0.717769 0.0887327 0.0682296 0.0473263 0.0500946 0.0172222 0.00716939 0.00228943 0.000862231 0.000305013 
426 0.747618 0.0736734 0.0645858 0.0509199 0.0358683 0.0167086 0.00716939 0.00228943 0.000862231 0.000305013 
427 0.52622 0.0848556 0.112959 0.120416 0.0995351 0.0322531 0.0188856 0.00241975 0.00178823 0.000667227 
428 0.563925 0.0986662 0.0979531 0.0998933 0.0808707 0.0382233 0.0152916 0.0033572 0.00181978 0 
429 0.425927 0.0786584 0.0823709 0.153261 0.179485 0.0454197 0.0243053 0.00729003 0.00233366 0.000950126 
430 0.967284 0.0152252 0.0135925 0.00192949 0.000952098 0.000859346 7.87963e-05 0 7.88025e-05 0 
431 0.70189 0.190525 0.0351041 0.030965 0.0235606 0.0109753 0.0047093 0.00150384 0.000566368 0.000200352 
432 0.765104 0.10973 0.0551641 0.0368938 0.020688 0.00763827 0.00349132 0.000622018 0.000668669 0 
433 0.56506 0.0911801 0.100475 0.106156 0.087748 0.0284337 0.0166491 0.0021332 0.00157646 0.000588213 
434 0.752917 0.136516 0.0325082 0.0345449 0.0271899 0.0100389 0.00458859 0.000817509 0.000878822 0 
435 0.774538 0.0658157 0.0477394 0.0421225 0.0436675 0.0166244 0.00640465 0.00204522 0.00077026 0.000272478 
436 0.938293 0.0256487 0.0126369 0.00397771 0.00196279 0.0017728 0.0155458 0 0.000162454 0 
437 0.774537 0.0699634 0.0464994 0.0413447 0.0423798 0.0160298 0.0062383 0.0019921 0.000750253 0.000265401 
438 0.373503 0.099011 0.06147 0.24912 0.147707 0.038507 0.022739 0.00667153 0.00127047 0 
439 0.393394 0.118096 0.0931638 0.146251 0.157951 0.043473 0.0233823 0.0211447 0.00223365 0.000909406 
440 0.804334 0.108793 0.0254787 0.0271702 0.0213854 0.00789574 0.003609 0.000642985 0.000691208 0 
441 0.762612 0.0710897 0.0515112 0.0558801 0.0334707 0.0155483 0.00667152 0.00213044 0.000802354 0.000283831 
442 0.580164 0.0973123 0.0791135 0.0952986 0.0773596 0.0511861 0.014617 0.00320909 0.0017395 0 
443 0.622809 0.108029 0.0697788 0.0830808 0.0673922 0.0318527 0.012743 0.00279767 0.00151648 0 
444 0.408263 0.0810787 0.0849054 0.1575 0.185484 0.0468171 0.0250532 0.00751434 0.00240546 0.000979361 
445 0.743795 0.0748964 0.0624832 0.0546643 0.0364118 0.0169618 0.00727802 0.00232412 0.000875295 0.000309634 
446 0.355367 0.10033 0.0651932 0.249214 0.156446 0.0409089 0.0241171 0.00707586 0.00134746 0 
447 0.419656 0.579243 0.000788286 0.000156271 6.25315e-05 3.74639e-05 2.50362e-05 3.12795e-05 0 0 
448 0.761838 0.116889 0.0453787 0.03359 0.0264347 0.00976001 0.00446113 0.000794801 0.00085441 0 
449 0.76778 0.114224 0.0306591 0.040894 0.0310016 0.00949623 0.00434056 0.00077332 0.000831318 0 
450 0.758056 0.112188 0.0567926 0.0323508 0.0253773 0.00936961 0.00428268 0.000763009 0.000820234 0 
451 0.248376 0.750969 1.05454e-05 0.000172503 0.000427608 2.47228e-07 0 4.36118e-05 0 0 
452 0.50389 0.0851144 0.10055 0.137389 0.101043 0.0331678 0.0338926 0.00246115 0.00181532 0.000677336 
453 0.511642 0.0864239 0.102094 0.131154 0.110949 0.0332455 0.0194667 0.00249421 0.00184325 0.000687757 
454 0.563925 0.0986662 0.0981058 0.0997407 0.0808707 0.0382233 0.0152916 0.0033572 0.00181978 0 
455 0.754935 0.071538 0.0663809 0.0457753 0.0348287 0.0162243 0.00696158 0.00222307 0.000837239 0.000296172 
456 0.953094 0.0262325 0.0126369 0.00397771 0.00196279 0.00177158 0.000162442 0 0.000162454 0 
457 0.563925 0.0992499 0.0975658 0.099697 0.0808707 0.0382233 0.0152916 0.0033572 0.00181978 0 
458 0.532239 0.0838981 0.119722 0.115259 0.0952693 0.0308708 0.0180762 0.00231605 0.00171159 0.000638631 
459 0.690698 0.208306 0.0199825 0.050517 0.0199261 0.00731254 0.00122956 0.00181072 0.000198657 1.85058e-05 
460 0.460495 0.0836015 0.0735869 0.163161 0.147422 0.0405748 0.0217128 0.00651243 0.00208473 0.000848779 
461 0.627648 0.091178 0.0721466 0.0927254 0.0673923 0.0318527 0.012743 0.00279767 0.00151648 0 
462 0.570532 0.0971712 0.0815109 0.0981864 0.0796454 0.0412765 0.0265791 0.00330633 0.00179221 0 
463 0.419494 0.0776733 0.0958503 0.165268 0.162597 0.0447516 0.0239479 0.00718282 0.00229934 0.000936154 
464 0.378008 0.0752122 0.149674 0.161321 0.153346 0.0501039 0.0230427 0.00740426 0 0.00188728 
465 0.731554 0.183854 0.0284526 0.0325593 0.0147931 0.0060791 0.00102216 0.0015053 0.000165149 1.53843e-05 
466 0.556457 0.0826815 0.104061 0.112053 0.0926229 0.0300133 0.0175741 0.00225171 0.00166405 0.000620891 
467 0.350832 0.0728244 0.135184 0.164599 0.16986 0.0554997 0.0255243 0.00820164 1.20697e-07 0.017475 
468 0.739777 0.121198 0.0323957 0.0623386 0.0279663 0.0100389 0.00458859 0.000817509 0.000878822 0 
469 0.756656 0.125348 0.0441568 0.0326776 0.0257202 0.00949623 0.00434056 0.00077332 0.000831318 0 
470 0.563925 0.0986662 0.0828758 0.114954 0.0808873 0.0382233 0.0152916 0.0033572 0.00181978 0 
471 0.739854 0.0759959 0.0703375 0.048665 0.036972 0.0172227 0.00738999 0.00235987 0.000888761 0.000314398 
472 0.77454 0.0658136 0.0477427 0.054564 0.0329207 0.0149264 0.00640465 0.00204522 0.00077026 0.000272478 
473 0.75449 0.186359 0.0148024 0.0210493 0.0146169 0.00600673 0.00100999 0.00148738 0.000163183 1.52012e-05 
474 0.740216 0.127485 0.0343577 0.0366793 0.0439486 0.0106473 0.00486669 0.000867055 0.000932084 0 
475 0.775118 0.0703258 0.0504289 0.0444849 0.0338476 0.0157673 0.00676548 0.00216045 0.000813655 0.000287829 
476 0.570532 0.0971712 0.0815109 0.10233 0.0906529 0.0376443 0.0150599 0.00330633 0.00179221 0 
477 0.751329 0.0725905 0.061898 0.0519091 0.0353409 0.0164629 0.00706396 0.00225576 0.000849551 0.000300527 
478 0.743795 0.0747882 0.0542493 0.0478797 0.0515385 0.0169618 0.00727802 0.00232412 0.000875295 0.000309634 
479 0.623517 0.100536 0.088575 0.078076 0.0633325 0.0299339 0.0119754 0.00262913 0.00142513 0 
480 0.402077 0.0798502 0.0836189 0.155111 0.167616 0.0763165 0.0246759 0.00740049 0.00236901 0.000964522 
481 0.75124 0.0726789 0.0526537 0.0464474 0.0353409 0.0195657 0.0186333 0.00228946 0.000849551 0.000300527 
482 0.737004 0.122061 0.0617447 0.0350456 0.027584 0.0101844 0.00465509 0.000829357 0.000891558 0 
483 0.351466 0.63239 2.66057e-05 0.000435061 0.01549 8.15966e-05 0 0.000109978 0 0 
484 0.366373 0.603428 5.99949e-05 0.0147392 0.015291 6.14538e-07 0 0.000108406 0 0 
485 0.351388 0.646961 2.65927e-05 0.000435008 0.00107832 6.23444e-07 0 0.000109977 0 0 
486 0.420617 0.0841093 0.0849054 0.157498 0.170101 0.0468171 0.0250532 0.00751434 0.00240546 0.000979361 
487 0.408263 0.0810787 0.0879331 0.169854 0.170101 0.0468171 0.0250532 0.00751434 0.00240546 0.000979361 
488 0.36498 0.0988412 0.0645549 0.260048 0.139289 0.0402312 0.0237571 0.00697025 0.00132735 0 
489 0.751329 0.0725905 0.0673334 0.0464737 0.0353409 0.0164629 0.00706396 0.00225576 0.000849551 0.000300527 
490 0.568128 0.0946431 0.0791135 0.110004 0.0773078 0.0511437 0.0147112 0.00320909 0.0017395 0 
491 0.740253 0.1426 0.0343577 0.0366386 0.0288378 0.0106473 0.00486669 0.000867055 0.000932084 0 
492 0.757335 0.148376 0.0276538 0.0294896 0.0232109 0.00856977 0.00391709 0.000697874 0.000750214 0 
493 0.765818 0.130598 0.0338387 0.0297965 0.0226715 0.0105611 0.0045316 0.00144709 0.000544995 0.000192791 
494 0.761836 0.0695238 0.0504289 0.0444849 0.0338476 0.0227337 0.0138835 0.00216045 0.000813655 0.000287829 
495 0.751328 0.0725912 0.0526537 0.0464474 0.0353456 0.0293554 0.00887266 0.00225576 0.000849551 0.000300527 
496 0.80949 0.0934914 0.0363067 0.0268683 0.0211477 0.00780801 0.0035689 0.000635841 0.000683528 0 
497 0.304999 0.136256 0.0913768 0.28036 0.116905 0.0338475 0.0270534 1.55954e-07 0.00920197 0 
498 0.563925 0.0986662 0.0827649 0.0996972 0.0962545 0.0382239 0.0152916 0.0033572 0.00181978 0 
499 0.733064 0.200685 0.0243936 0.0198668 0.0137958 0.00566928 0.000953251 0.00140382 0.000154015 1.43472e-05 
500 0.546524 0.0802517 0.0948015 0.115255 0.0952693 0.031246 0.0319843 0.00231854 0.00171159 0.000638631 
501 0.923695 0.0339787 0.0357137 0.0032728 0.00161495 0.00145763 0.000133655 0 0.000133665 0 
502 0.781626 0.156841 0.0128186 0.0184833 0.0227122 0.00520171 0.000874633 0.00128804 0.000141313 1.31639e-05 
503 0.739854 0.0759388 0.0550839 0.0511457 0.0448768 0.022148 0.00738999 0.00235987 0.000888761 0.000314398 
504 0.781974 0.124872 0.0273215 0.0291343 0.0229313 0.00846652 0.00386989 0.000689466 0.000741175 0 
505 0.583929 0.103659 0.0802943 0.096721 0.0784566 0.0370823 0.0148352 0.00325698 0.00176546 0 
506 0.753639 0.135832 0.0287068 0.0432661 0.0240924 0.0088952 0.00406584 0.000724375 0.000778703 0 
507 0.712553 0.176937 0.0324513 0.0345449 0.0271899 0.0100389 0.00458859 0.000817509 0.000878822 0 
508 0.798166 0.118674 0.0311201 0.02303 0.0181266 0.00669258 0.00305906 0.000545006 0.000585881 0 
509 0.345449 0.101874 0.0673737 0.266881 0.143912 0.0414691 0.0244881 0.00718472 0.00136819 0 
510 0.511642 0.101808 0.102094 0.124121 0.102598 0.0332455 0.0194667 0.00249421 0.00184325 0.000687757 
511 0.511642 0.101808 0.102094 0.124121 0.102598 0.0332455 0.0194667 0.00249421 0.00184325 0.000687757 
512 0.511642 0.101808 0.102094 0.124121 0.102598 0.0332455 0.0194667 0.00249421 0.00184325 0.000687757 
513 0.402077 0.110153 0.0836189 0.155111 0.167524 0.0461077 0.0246736 0.00740049 0.00236901 0.000964522 
514 0.620747 0.101614 0.0726661 0.0901423 0.0665392 0.0314495 0.0125817 0.00276225 0.00149729 0 
515 0.775445 0.105876 0.0506145 0.030919 0.0232109 0.00856977 0.00391709 0.000697874 0.000750214 0 
516 0.687373 0.224147 0.0210078 0.0395124 0.0175404 0.00720808 0.00121199 0.00178485 0.000195819 1.82414e-05 
517 0.765973 0.123537 0.0413238 0.0306094 0.0240924 0.0088952 0.00406584 0.000724375 0.000778703 0 
518 0.563925 0.0986662 0.0827649 0.10745 0.0885021 0.0382233 0.0152916 0.0033572 0.00181978 0 
519 0.570532 0.0971712 0.0936083 0.101241 0.0796454 0.0376441 0.0150599 0.00330633 0.00179221 0 
520 0.664731 0.239816 0.0279956 0.0298536 0.0234975 0.00867557 0.00396545 0.00070649 0.000759476 0 
521 0.77454 0.0658136 0.0477394 0.0554457 0.0320424 0.0149264 0.00640465 0.00204522 0.00077026 0.000272478 
522 0.568457 0.0943132 0.0791135 0.0989855 0.0869704 0.0525942 0.014617 0.00320909 0.0017395 0 
523 0.563925 0.0986662 0.0938062 0.10404 0.0808707 0.0382233 0.0152916 0.0033572 0.00181978 0 
524 0.761194 0.149925 0.0260756 0.0277948 0.021877 0.00807725 0.00369197 0.000657766 0.000707098 0 
525 0.597683 0.0944991 0.0791135 0.0952986 0.0773029 0.036537 0.014617 0.00320909 0.0017395 0 
526 0.345449 0.101874 0.0661962 0.258209 0.153762 0.0414691 0.0244881 0.00718472 0.00136819 0 
527 0.511293 0.083845 0.0990463 0.146033 0.103769 0.0322531 0.0188856 0.00241975 0.00178823 0.000667227 
528 0.511642 0.0864239 0.102094 0.124121 0.102599 0.0486291 0.0194667 0.00249421 0.00184325 0.000687757 
529 0.605458 0.0887879 0.0850629 0.0864041 0.0701542 0.0463939 0.0132528 0.00290957 0.00157714 0 
530 0.606149 0.103793 0.0931995 0.0820292 0.0665392 0.0314495 0.0125817 0.00276225 0.00149729 0 
531 0.739854 0.0759388 0.0550839 0.0485912 0.0523562 0.0172231 0.00738999 0.00235987 0.000888761 0.000314398 
532 0.511642 0.0864239 0.102094 0.138439 0.103664 0.0332455 0.0194667 0.00249421 0.00184325 0.000687757 
533 0.722882 0.185074 0.0269953 0.0287874 0.0226583 0.00836572 0.00382382 0.000681258 0.000732352 0 
534 0.573194 0.104781 0.0827649 0.099697 0.0808707 0.0382233 0.0152916 0.0033572 0.00181978 0 
535 0.747619 0.0736719 0.0681829 0.0473228 0.0358683 0.0167086 0.00716939 0.00228943 0.000862231 0.000305013 
536 0.511642 0.0864239 0.105459 0.135951 0.102788 0.0332455 0.0194667 0.00249421 0.00184325 0.000687757 
537 0.827784 0.100622 0.0209999 0.0223902 0.0176231 0.00650667 0.00297409 0.000529867 0.000569607 0 
538 0.52546 0.0814138 0.119402 0.122684 0.09665 0.0313182 0.0183382 0.00234961 0.00173639 0.000647887 
539 0.703944 0.224046 0.0180203 0.0256252 0.0177945 0.00731255 0.00122956 0.00181072 0.000198657 1.85058e-05 
540 0.350832 0.0728244 0.135184 0.164599 0.16986 0.0554997 0.0409089 0.00820164 0 0.00209053 
541 0.794613 0.101438 0.0306083 0.0370792 0.0226583 0.00836572 0.00382382 0.000681258 0.000732352 0 
542 0.609324 0.090243 0.0736948 0.0906812 0.0837932 0.0340381 0.0136158 0.00298929 0.00162035 0 
543 0.592399 0.0893318 0.102232 0.0900437 0.0730082 0.0345071 0.0138049 0.0030308 0.00164286 0 
544 0.576942 0.0957209 0.0803282 0.111612 0.0784566 0.0370823 0.0148352 0.00325698 0.00176546 0 
545 0.563925 0.0986662 0.0827649 0.115069 0.0808835 0.0382233 0.0152916 0.0033572 0.00181978 0 
546 0.743796 0.0747882 0.0542493 0.0630052 0.036413 0.0169618 0.00727802 0.00232412 0.000875295 0.000309634 
547 0.762395 0.0884946 0.0751798 0.0315843 0.0240318 0.0111948 0.00480349 0.00153392 0.000577695 0.000204359 
548 0.350832 0.073145 0.149388 0.165459 0.16986 0.0554997 0.0255243 0.00820164 0 0.00209053 
549 0.754787 0.127216 0.0306436 0.0326829 0.0392285 0.00949623 0.00434056 0.00077332 0.000831318 0 
550 0.564373 0.113281 0.0830855 0.099697 0.0808707 0.0382233 0.0152916 0.0033572 0.00181978 0 
551 0.550089 0.0749019 0.0941589 0.128249 0.102563 0.0288131 0.0168711 0.00216164 0.00159748 0.000596056 
552 0.304999 0.138921 0.103005 0.266067 0.116905 0.0338475 0.0270534 1.55954e-07 0.00920197 0 
553 0.747619 0.0736719 0.0534396 0.0471407 0.0369085 0.0305938 0.00716939 0.00228943 0.000862231 0.000305013 
554 0.545228 0.0780301 0.106053 0.112055 0.105715 0.0308087 0.0175741 0.00225171 0.00166405 0.000620891 
555 0.68615 0.211369 0.0183556 0.0548738 0.0185259 0.00742008 0.00124764 0.00183735 0.000201579 1.8778e-05 
556 0.350832 0.0728244 0.135184 0.164601 0.185242 0.0554997 0.0255243 0.00820164 0 0.00209053 
557 0.810655 0.106939 0.0307734 0.022897 0.0179556 0.00662944 0.0030302 0.000539865 0.000580354 0 
558 0.585549 0.0864036 0.123417 0.0852672 0.0691657 0.032691 0.0130784 0.00287129 0.00155639 0 
559 0.763005 0.0706967 0.049735 0.0577494 0.0333775 0.0155483 0.00667151 0.00213044 0.000802354 0.000283831 
560 0.611567 0.120975 0.0778015 0.0790281 0.0641048 0.0302989 0.0121214 0.00266119 0.00144251 0 
561 0.751428 0.115261 0.0584001 0.0331855 0.0260726 0.00962631 0.00440002 0.000783913 0.000842706 0 
562 0.625799 0.122013 0.0648159 0.078076 0.0633325 0.0299339 0.0119754 0.00262913 0.00142513 0 
563 0.618949 0.0962253 0.0698665 0.0971439 0.0682703 0.0322664 0.0129085 0.002834 0.00153618 0 
564 0.773297 0.0839188 0.0492011 0.0399801 0.03042 0.0141706 0.00608037 0.00194167 0.000731259 0.000258682 
565 0.656074 0.231691 0.0175157 0.067154 0.0172933 0.00710656 0.00119492 0.00175972 0.000193061 1.79845e-05 
566 0.743002 0.0755813 0.0542493 0.0478549 0.0364118 0.0210915 0.0182998 0.00232412 0.000875295 0.000309634 
567 0.73925 0.134204 0.0329293 0.0489669 0.02809 0.0101844 0.00465509 0.000829357 0.000891558 0 
568 0.685817 0.248805 0.0163606 0.023265 0.0161556 0.00663902 0.00111631 0.00164394 0.00018036 1.68013e-05 
569 0.761856 0.11687 0.0314945 0.0335854 0.0264422 0.0236413 0.00446113 0.000794801 0.00085441 0 
570 0.696374 0.214541 0.0185582 0.0263902 0.01882 0.0219619 0.00126626 0.00186477 0.000204587 1.90582e-05 
571 0.563925 0.0986662 0.0827649 0.0998396 0.0961127 0.0382233 0.0152916 0.0033572 0.00181978 0 
572 0.676758 0.237541 0.0321316 0.0237073 0.0186598 0.00688942 0.00314903 0.000561036 0.000603113 0 
573 0.631878 0.0832958 0.0698665 0.0842018 0.0812125 0.0322664 0.0129085 0.002834 0.00153618 0 
574 0.75493 0.0715412 0.0518906 0.0457743 0.034829 0.0307167 0.00696158 0.00222307 0.000837239 0.000296172 
575 0.775447 0.0820407 0.0464994 0.0410185 0.0312101 0.0145387 0.0062383 0.0019921 0.000750253 0.000265401 
576 0.732144 0.189321 0.0163605 0.023265 0.0161591 0.0197934 0.00111631 0.00164394 0.00018036 1.68013e-05 
577 0.736219 0.129447 0.034888 0.0525851 0.0292815 0.0108111 0.00494156 0.000880395 0.000946423 0 
578 0.666627 0.272394 0.0217662 0.018612 0.0129245 0.00531122 0.000893046 0.00131516 0.000144288 1.34411e-05 
579 0.777197 0.104124 0.0276712 0.0538623 0.0232109 0.00856977 0.00391709 0.000697874 0.000750214 0 
580 0.611714 0.0878534 0.0770891 0.0990756 0.0720081 0.0340344 0.0136158 0.00298929 0.00162035 0 
581 0.519041 0.0851144 0.100547 0.122851 0.115583 0.0327418 0.0191717 0.00245641 0.00181532 0.000677336 
582 0.563925 0.0986662 0.0827649 0.099697 0.0962553 0.0382233 0.0152916 0.0033572 0.00181978 0 
583 0.743795 0.0747882 0.0542522 0.0630035 0.0364118 0.0169618 0.00727802 0.00232412 0.000875295 0.000309634 
584 0.754664 0.0676167 0.0530979 0.0666094 0.0329236 0.0153353 0.00658013 0.00210126 0.000791363 0.000279943 
585 0.563925 0.0986662 0.0827649 0.0997246 0.0962277 0.0382233 0.0152916 0.0033572 0.00181978 0 
586 0.345449 0.115041 0.0684141 0.253048 0.143537 0.0414691 0.0244881 0.00718472 0.00136819 0 
587 0.761837 0.0695709 0.0644644 0.0444852 0.0338476 0.0157673 0.00676548 0.00216045 0.000813655 0.000287829 
588 0.511642 0.0975226 0.10638 0.124121 0.102598 0.0332455 0.0194667 0.00249421 0.00184325 0.000687757 
589 0.525425 0.0959487 0.110471 0.117115 0.09665 0.0313182 0.0183382 0.00234961 0.00173639 0.000647887 
590 0.772769 0.111372 0.0508101 0.0287874 0.0226583 0.00836572 0.00382382 0.000681258 0.000732352 0 
591 0.743796 0.0747882 0.0542499 0.0630059 0.0364118 0.0169618 0.00727802 0.00232412 0.000875295 0.000309634 
592 0.737772 0.13382 0.0480326 0.0355814 0.0279897 0.0103341 0.00472355 0.000841554 0.00090467 0 
593 0.783209 0.063285 0.0459034 0.0528563 0.0312667 0.0143523 0.00615832 0.00196656 0.000740635 0.000261998 
594 0.971168 0.0160339 0.00782282 0.00246239 0.00121506 0.00109669 0.000100559 0 0.000100567 0 
595 0.689668 0.239873 0.0187193 0.0245575 0.0170531 0.00700786 0.00117832 0.00173527 0.00019038 1.77347e-05 
596 0.370793 0.0767469 0.133136 0.162105 0.167287 0.0546588 0.0251375 0.00807737 0 0.00205885 
597 0.785917 0.0638869 0.0706726 0.0339901 0.0258406 0.0120374 0.00516504 0.00164937 0.000621177 0.00021974 
598 0.345449 0.101874 0.0661962 0.260282 0.151689 0.0414691 0.0244881 0.00718472 0.00136819 0 
599 0.737439 0.0753847 0.0540542 0.0801893 0.0300397 0.0139935 0.00600436 0.0019174 0.000722119 0.000255448 
600 0.920467 0.0414212 0.0321756 0.00293809 0.00144979 0.00130855 0.000119985 0 0.000119995 0 
601 0.744093 0.125583 0.0338449 0.0510171 0.0284074 0.0104884 0.00479405 0.000854114 0.000918172 0 
602 0.450528 0.0752889 0.0923095 0.147065 0.157951 0.043473 0.0232637 0.0069776 0.00223364 0.000909406 
603 0.345449 0.101874 0.0661962 0.268433 0.143537 0.0414691 0.0244881 0.00718472 0.00136819 0 
604 0.747619 0.0736719 0.0534396 0.0471407 0.0507937 0.0167086 0.00716939 0.00228943 0.000862231 0.000305013 
605 0.526218 0.0853444 0.112473 0.120416 0.0995351 0.0322531 0.0188856 0.00241975 0.00178823 0.000667227 
606 0.941407 0.0164198 0.00875951 0.021159 0.0109313 0.00111798 0.000102512 0 0.00010252 0 
607 0.345449 0.101874 0.0662037 0.268425 0.143538 0.0414691 0.0244881 0.00718472 0.00136819 0 
608 0.601258 0.0727268 0.114172 0.0985635 0.0724875 0.0234887 0.0137536 0.00176221 0.0013023 0.000485915 
609 0.570532 0.0971714 0.0815109 0.0981864 0.0796454 0.0379276 0.0299279 0.00330636 0.00179221 0 
610 0.563925 0.0986662 0.0849161 0.112882 0.0809196 0.0382233 0.0152916 0.0033572 0.00181978 0 
611 0.778518 0.0605382 0.0808768 0.0345337 0.0258406 0.0120374 0.00516504 0.00164937 0.000621177 0.00021974 
612 0.432418 0.0854184 0.084045 0.152796 0.165024 0.0454195 0.0243053 0.00729003 0.00233366 0.000950126 
613 0.511642 0.086424 0.112275 0.129324 0.102598 0.0332455 0.0194667 0.00249421 0.00184325 0.000687757 
614 0.853711 0.0548438 0.0298371 0.0263202 0.0200265 0.00932898 0.00400291 0.00127826 0.000481412 0.000170299 
615 0.751511 0.121943 0.0328638 0.0350456 0.028271 0.02399 0.00465521 0.000829357 0.000891558 0 
616 0.530242 0.256603 0.0576369 0.064803 0.0525659 0.0248451 0.00993956 0.00218218 0.00118286 0 
617 0.334503 0.131403 0.0873309 0.268003 0.11175 0.0323542 0.0258598 1.49074e-07 0.00879601 0 
618 0.750597 0.117894 0.0306433 0.0326928 0.043412 0.0188162 0.00434056 0.00077332 0.000831318 0 
619 0.781767 0.0739738 0.043138 0.0399243 0.0391297 0.0134891 0.00578734 0.00184809 0.000696018 0.000246215 
620 0.828782 0.0657038 0.0344274 0.0303695 0.0231075 0.0107642 0.00461874 0.00147492 0.000555476 0.000196499 
621 0.622068 0.0855107 0.0717296 0.0864041 0.0834212 0.0331268 0.0132527 0.00290957 0.00157714 0 
622 0.570532 0.0971712 0.0815109 0.0981864 0.0947969 0.0376441 0.0150599 0.00330633 0.00179221 0 
623 0.652546 0.089435 0.0632908 0.0762389 0.0669708 0.0358657 0.0116936 0.00256727 0.0013916 0 
624 0.750254 0.180712 0.0202477 0.0215906 0.0169937 0.00627429 0.00286787 0.000510943 0.000549264 0 
625 0.762698 0.117716 0.0427384 0.0351222 0.0260726 0.00962631 0.00440002 0.000783913 0.000842706 0 
626 0.723892 0.21321 0.0157421 0.0223815 0.0155421 0.00638691 0.00107392 0.00158152 0.000173511 1.61633e-05 
627 0.703104 0.138003 0.0521541 0.0586185 0.0273089 0.0127213 0.00545851 0.00174309 0.000656471 0.000232226 
628 0.75625 0.242114 0.00117105 0.000232174 9.29039e-05 5.56606e-05 3.71966e-05 4.64725e-05 0 0 
629 0.740442 0.0715365 0.0806674 0.045983 0.0348287 0.0162243 0.00696158 0.00222307 0.000837239 0.000296172 
630 0.570527 0.0971759 0.0897081 0.105141 0.0796454 0.0376441 0.0150599 0.00330633 0.00179221 0 
631 0.536145 0.0852216 0.0978331 0.127912 0.0984983 0.0313182 0.0183382 0.00234961 0.00173639 0.000647887 
632 0.827493 0.0616258 0.0365697 0.0351017 0.0222517 0.0103655 0.00444768 0.00142029 0.000534903 0.000189221 
633 0.561476 0.0806372 0.09091 0.124183 0.0913839 0.0296022 0.0173333 0.00222087 0.00164125 0.000612386 
634 0.363403 0.100418 0.0642202 0.245494 0.139253 0.0402312 0.0237866 0.0213121 0.00188145 0 
635 0.791663 0.103136 0.0273205 0.0292081 0.0349056 0.00846652 0.00386989 0.000689466 0.000741175 0 
636 0.52474 0.0791226 0.0935541 0.154372 0.0953526 0.030436 0.0178216 0.00228343 0.00168748 0.000629636 
637 0.440897 0.0967807 0.0980594 0.147992 0.145481 0.0400409 0.0214271 0.00642674 0.0020573 0.000837611 
638 0.434365 0.0775054 0.0811596 0.150564 0.177288 0.0447516 0.0239479 0.00718283 0.00229934 0.000936154 
639 0.747619 0.0736719 0.0536683 0.0605744 0.0371313 0.0167086 0.00716939 0.00228943 0.000862231 0.000305013 
640 0.755025 0.120237 0.0323944 0.0345449 0.0271917 0.0243228 0.0045886 0.000817509 0.000878822 0 
641 0.73544 0.190872 0.0153506 0.0341746 0.0151583 0.00622921 0.0010474 0.00154247 0.000169226 1.57642e-05 
642 0.794606 0.0579679 0.0634142 0.0358912 0.0273089 0.0127213 0.00545851 0.00174309 0.000656471 0.000232226 
643 0.68615 0.211641 0.0327106 0.0260107 0.0180562 0.00742008 0.00124764 0.0165432 0.000201615 1.8778e-05 
644 0.315529 0.134192 0.0899727 0.261103 0.123387 0.0401105 0.0266435 1.53591e-07 0.00906255 0 
645 0.412303 0.0921491 0.0941764 0.162356 0.161044 0.044103 0.0236008 0.00707873 0.00226601 0.000922586 
646 0.519041 0.0851144 0.115699 0.12224 0.101043 0.0327418 0.0191717 0.00245641 0.00181532 0.000677336 
647 0.849481 0.148317 0.0015764 0.000312542 0.000125063 7.49277e-05 5.00724e-05 6.25591e-05 0 0 
648 0.666534 0.262485 0.0177629 0.0252592 0.0175403 0.00720808 0.00121199 0.00178485 0.000195819 1.82414e-05 
649 0.436875 0.561753 2.21072e-05 0.000361633 0.000896431 5.18285e-07 0 9.14271e-05 0 0 
650 0.734204 0.158493 0.0362161 0.0303695 0.0231075 0.0107642 0.00461874 0.00147492 0.000555476 0.000196499 
651 0.563925 0.0986662 0.0827649 0.099697 0.080918 0.0535606 0.0152916 0.0033572 0.00181978 0 
652 0.778894 0.0609395 0.0442044 0.0636167 0.0297352 0.0138207 0.00593024 0.00189372 0.000713204 0.000252295 
653 0.78758 0.0785967 0.0436641 0.0385174 0.0293071 0.0136522 0.00585792 0.00187063 0.000704506 0.000249218 
654 0.563925 0.0986662 0.0827649 0.099697 0.0808749 0.0536036 0.0152917 0.0033572 0.00181978 0 
655 0.355935 0.580839 0.00297284 0.0244905 0.0356675 1.34825e-06 0 9.36845e-05 0 0 
656 0.818369 0.132891 0.0103254 0.0218516 0.0106337 0.00410216 0.000689751 0.00101577 0.000111442 1.03813e-05 
657 0.787657 0.110811 0.0263675 0.0397459 0.0221314 0.00817117 0.0037349 0.000665415 0.00071532 0 
658 0.336474 0.662008 2.44653e-05 0.000400207 0.000992051 5.73569e-07 0 0.000101179 0 0 
659 0.529782 0.0860164 0.0975898 0.133351 0.0980713 0.0317788 0.0186079 0.00238417 0.00176193 0.000657414 
660 0.39549 0.0693337 0.139814 0.152842 0.157727 0.0515354 0.0237011 0.00761581 0 0.00194121 
661 0.417229 0.0798502 0.083619 0.170257 0.16753 0.0461077 0.0246736 0.00740049 0.00236901 0.000964522 
662 0.345449 0.101874 0.0661962 0.253048 0.143537 0.0414768 0.0398651 0.00718472 0.00136819 0 
663 0.747754 0.0695214 0.0645075 0.0585753 0.0338476 0.0157673 0.00676548 0.00216045 0.000813655 0.000287829 
664 0.909547 0.0770145 0.00821411 0.00258551 0.00127581 0.00115152 0.000105587 0 0.000105595 0 
665 0.515533 0.483242 1.97301e-05 0.000322748 0.000800041 4.62555e-07 0 8.15962e-05 0 0 
666 0.358272 0.0807687 0.135184 0.164599 0.16986 0.0554997 0.0255243 0.00820164 0 0.00209053 
667 0.571869 0.106106 0.0827649 0.099697 0.0808707 0.0382233 0.0152916 0.0033572 0.00181978 0 
668 0.517306 0.48147 1.97301e-05 0.000322748 0.000800041 4.62555e-07 0 8.15962e-05 0 0 
669 0.408263 0.0964633 0.0849054 0.157498 0.170101 0.0468171 0.0250532 0.00751434 0.00240546 0.000979361 
670 0.563925 0.114051 0.0827649 0.099697 0.0808707 0.0382233 0.0152916 0.0033572 0.00181978 0 
671 0.408263 0.0964633 0.0849054 0.157498 0.170101 0.0468171 0.0250532 0.00751434 0.00240546 0.000979361 
672 0.744089 0.125587 0.0338449 0.0360917 0.0284074 0.0151684 0.0150394 0.000854114 0.000918172 0 
673 0.949583 0.0225399 0.023473 0.00220576 0.00106318 0.000959603 8.79892e-05 0 8.79962e-05 0 
674 0.556924 0.0821878 0.101026 0.114912 0.0949108 0.0288128 0.0168711 0.00216164 0.00159748 0.000596056 
675 0.774595 0.0757365 0.0572557 0.0394803 0.0300397 0.0139935 0.00600436 0.0019174 0.000722119 0.000255448 
676 0.738467 0.133125 0.0345883 0.0490256 0.0279897 0.0103341 0.00472355 0.000841554 0.000904669 0 
677 0.743428 0.114073 0.0512276 0.0389929 0.0296689 0.0138207 0.00593024 0.00189372 0.000713204 0.000252295 
678 0.408263 0.0810787 0.0849054 0.157498 0.170103 0.0622002 0.0250532 0.00751434 0.00240546 0.000979361 
679 0.576942 0.0957211 0.0802943 0.096721 0.093382 0.0370823 0.0148352 0.00325698 0.00176546 0 
680 0.411399 0.0910124 0.0872208 0.157498 0.170101 0.0468171 0.0250532 0.00751434 0.00240546 0.000979361 
681 0.511642 0.0864239 0.104409 0.134054 0.105733 0.0332455 0.0194667 0.00249421 0.00184325 0.000687757 
682 0.595241 0.0990048 0.0850406 0.0867644 0.0830665 0.0331436 0.0132527 0.00290957 0.00157714 0 
683 0.778547 0.149611 0.0150289 0.027754 0.0215405 0.00520171 0.000874633 0.00128804 0.000141313 1.31639e-05 
684 0.519041 0.0851144 0.100547 0.122298 0.116137 0.0327418 0.0191717 0.00245641 0.00181532 0.000677336 
685 0.761865 0.116862 0.0314945 0.0336024 0.0403065 0.00976001 0.00446113 0.000794801 0.00085441 0 
686 0.573569 0.117535 0.0757707 0.0912869 0.088106 0.0349931 0.0139994 0.00307349 0.001666 0 
687 0.821108 0.0888747 0.0233774 0.0255844 0.028639 0.00788139 0.00331135 0.000589955 0.000634201 0 
688 0.739854 0.199836 0.0154271 0.0213029 0.0147931 0.0060791 0.00102216 0.0015053 0.000165149 1.53843e-05 
689 0.304999 0.136256 0.0913569 0.279455 0.11783 0.0338475 0.0270534 1.55954e-07 0.00920197 0 
690 0.50389 0.0851144 0.102806 0.150284 0.101043 0.0327418 0.0191717 0.00245641 0.00181532 0.000677336 
691 0.671445 0.255486 0.0182853 0.0260021 0.0180562 0.00742008 0.00124764 0.00183735 0.000201579 1.8778e-05 
692 0.771118 0.0670784 0.061583 0.0429964 0.0324754 0.0151281 0.0064912 0.00207286 0.000780669 0.00027616 
693 0.790284 0.121784 0.0258401 0.0274789 0.0216284 0.00798546 0.00365001 0.000650292 0.000699063 0 
694 0.715639 0.225905 0.0146283 0.0208017 0.014445 0.00593607 0.00099811 0.00146988 0.000161263 1.50224e-05 
695 0.725031 0.194311 0.0168078 0.0374021 0.0165923 0.00681845 0.00114648 0.00168838 0.000185234 1.72554e-05 
696 0.735818 0.186666 0.0161481 0.0229638 0.0289319 0.0065528 0.00110181 0.00162259 0.000178017 1.65831e-05 
697 0.519338 0.093812 0.102394 0.124121 0.102598 0.0332455 0.0194667 0.00249421 0.00184325 0.000687757 
698 0.578427 0.104428 0.0815109 0.0981864 0.0796454 0.0376441 0.0150599 0.00330633 0.00179221 0 
699 0.95733 0.0177363 0.0193765 0.00275057 0.00135725 0.00122503 0.000112327 0 0.000112336 0 
700 0.570532 0.0971712 0.0815109 0.0981864 0.0796454 0.0379699 0.029542 0.00365005 0.00179221 0 
701 0.753519 0.131083 0.0338449 0.0360917 0.0284074 0.0104884 0.00479405 0.000854114 0.000918172 0 
702 0.576942 0.0957211 0.080491 0.107884 0.0820223 0.0370823 0.0148352 0.00325698 0.00176546 0 
703 0.69268 0.230872 0.0191361 0.0272022 0.0188896 0.00776255 0.00130522 0.00192215 0.000210882 1.96446e-05 
704 0.558681 0.0874353 0.0934662 0.113632 0.0939275 0.030436 0.0178216 0.00228343 0.00168748 0.000629636 
705 0.739854 0.0759388 0.0550908 0.0639481 0.0369928 0.0172227 0.00738999 0.00235987 0.000888761 0.000314398 
706 0.740216 0.127485 0.0343577 0.0379808 0.0389853 0.0143091 0.00486669 0.000867055 0.000932084 0 
707 0.572145 0.118958 0.0757726 0.105356 0.0740365 0.0349931 0.0139994 0.00307349 0.001666 0 
708 0.440809 0.0776028 0.0777303 0.158738 0.168085 0.0441215 0.022936 0.00687933 0.00220218 0.000896598 
709 0.3645 0.11424 0.0642261 0.245494 0.139253 0.0402312 0.0237571 0.00697025 0.00132735 0 
710 0.570532 0.0971712 0.0815109 0.0981864 0.0801569 0.0522841 0.0150599 0.00330633 0.00179221 0 
711 0.519036 0.0851196 0.100547 0.12224 0.101043 0.0329613 0.0341037 0.00245641 0.00181532 0.000677336 
712 0.511642 0.0864239 0.115616 0.125983 0.102598 0.0332455 0.0194667 0.00249421 0.00184325 0.000687757 
713 0.580786 0.105908 0.0911358 0.0925758 0.0750942 0.035493 0.0141994 0.0031174 0.0016898 0 
714 0.743795 0.0747882 0.0693991 0.0478566 0.0364118 0.0169618 0.00727802 0.00232412 0.000875295 0.000309634 
715 0.765146 0.0781771 0.0539962 0.043867 0.0333775 0.0155483 0.00667151 0.00213044 0.000802354 0.000283831 
716 0.511642 0.0864239 0.102094 0.124123 0.11798 0.0332455 0.0194667 0.00249421 0.00184325 0.000687757 
717 0.739854 0.0913234 0.0550839 0.0485912 0.036972 0.0172227 0.00738999 0.00235987 0.000888761 0.000314398 
718 0.740475 0.100428 0.0519513 0.0457743 0.0348287 0.0162243 0.00696158 0.00222307 0.000837239 0.000296172 
719 0.747619 0.0736722 0.0534396 0.0471476 0.0495057 0.0179897 0.00716939 0.00228943 0.000862231 0.000305013 
720 0.744083 0.125593 0.0364118 0.0484501 0.0284075 0.0104884 0.00479405 0.000854114 0.000918172 0 
721 0.767384 0.120535 0.0292078 0.0310087 0.0371682 0.00905599 0.00411797 0.000733662 0.000788686 0 
722 0.747619 0.0736719 0.0534396 0.0471407 0.0361362 0.0297437 0.00879187 0.00228943 0.000862231 0.000305013 
723 0.408263 0.0964631 0.0849054 0.157498 0.170101 0.0468171 0.0250532 0.00751434 0.00240546 0.000979361 
724 0.778704 0.127007 0.0276537 0.0294896 0.0232109 0.00856977 0.00391709 0.000697874 0.000750214 0 
725 0.757604 0.119414 0.0356633 0.0444176 0.0268071 0.00989748 0.00452396 0.000805995 0.000866444 0 
726 0.758104 0.0942296 0.0626889 0.0363037 0.0276228 0.0128676 0.00552125 0.00176312 0.000664017 0.000234895 
727 0.736231 0.144819 0.0348862 0.0372022 0.0292815 0.0108111 0.00494156 0.000880395 0.000946423 0 
728 0.734084 0.130754 0.045405 0.0474471 0.0264402 0.00976001 0.00446113 0.000794801 0.00085441 0 
729 0.519613 0.0996943 0.100547 0.12224 0.101043 0.0327418 0.0191717 0.00245641 0.00181532 0.000677336 
730 0.691219 0.233498 0.0188394 0.02679 0.0186034 0.00764493 0.00128545 0.00189303 0.000207687 1.9347e-05 
731 0.608735 0.0968286 0.0870779 0.0864041 0.0700879 0.0331268 0.0132528 0.00290957 0.00157714 0 
732 0.555484 0.0907877 0.125578 0.105541 0.0784571 0.025423 0.0148863 0.00190733 0.00140954 0.000525932 
733 0.563925 0.0986662 0.0827649 0.099697 0.080948 0.0535306 0.0152916 0.0033572 0.00181978 0 
734 0.691791 0.217774 0.0339909 0.02679 0.0186034 0.00764493 0.00128545 0.00189303 0.000207687 1.9347e-05 
735 0.665379 0.079603 0.0741828 0.0753524 0.0611232 0.0288897 0.0115576 0.00253742 0.00137542 0 
736 0.762856 0.0664407 0.0475902 0.0673951 0.0316208 0.01473 0.00632038 0.00201831 0.000760125 0.000268893 
737 0.729168 0.125583 0.0338449 0.0510446 0.0433053 0.0104884 0.00479405 0.000854114 0.000918172 0 
738 0.417229 0.0798502 0.0836189 0.158159 0.179628 0.0461077 0.0246736 0.00740049 0.00236901 0.000964522 
739 0.729733 0.133201 0.0319381 0.0481429 0.0268117 0.0239773 0.00452398 0.000805995 0.000866444 0 
740 0.739854 0.0759388 0.0550839 0.0609057 0.040042 0.0172227 0.00738999 0.00235987 0.000888761 0.000314398 
741 0.758039 0.112205 0.0302347 0.033704 0.0505819 0.00936964 0.00428268 0.000763009 0.000820234 0 
742 0.67994 0.219965 0.0295936 0.0403836 0.0192322 0.00753083 0.00126626 0.00186477 0.000204587 1.90582e-05 
743 0.363697 0.136978 0.0618783 0.234973 0.133285 0.038507 0.022739 0.00667153 0.00127047 0 
744 0.751675 0.0795023 0.0550839 0.0485912 0.036972 0.0172227 0.00738999 0.00235987 0.000888761 0.000314398 
745 0.745642 0.135405 0.0348895 0.0372022 0.0292815 0.0108111 0.00494156 0.000880395 0.000946423 0 
746 0.304999 0.136256 0.0913602 0.280371 0.116911 0.0338475 0.0270534 1.55954e-07 0.00920197 0 
747 0.55538 0.112323 0.0966624 0.0981864 0.0796454 0.0376441 0.0150599 0.00330633 0.00179221 0 
748 0.749535 0.121365 0.042123 0.0371579 0.0282727 0.0131703 0.00565117 0.00180461 0.000679641 0.000240422 
749 0.764019 0.146075 0.0263691 0.028118 0.0221314 0.00817117 0.0037349 0.000665415 0.00071532 0 
750 0.698177 0.21532 0.0180203 0.0401176 0.0177949 0.00731255 0.00122956 0.00181072 0.000198657 1.85058e-05 
751 0.519041 0.0851144 0.100547 0.122265 0.116169 0.0327418 0.0191717 0.00245641 0.00181532 0.000677336 
752 0.762635 0.131451 0.0310631 0.0331253 0.0260726 0.00962631 0.00440002 0.000783913 0.000842706 0 
753 0.754934 0.0715375 0.0518977 0.06026 0.0348287 0.0162243 0.00696158 0.00222307 0.000837239 0.000296172 
754 0.770784 0.0650826 0.0705507 0.0399801 0.03042 0.0141706 0.00608037 0.00194167 0.000731259 0.000258682 
755 0.814676 0.132967 0.010907 0.01551 0.0109833 0.00904605 0.00468323 0.00109596 0.00012024 1.12009e-05 
756 0.576685 0.0959775 0.0802943 0.0967254 0.0933775 0.0370823 0.0148352 0.00325698 0.00176546 0 
757 0.742304 0.128798 0.0516233 0.0343737 0.026807 0.00989748 0.00452396 0.000805995 0.000866444 0 
758 0.791725 0.115122 0.0273205 0.0291343 0.0229313 0.00846652 0.00386989 0.000689466 0.000741175 0 
759 0.744093 0.125583 0.0338449 0.0360917 0.0284074 0.0104995 0.0197082 0.000854146 0.000918172 0 
760 0.571811 0.0958469 0.0779669 0.0979113 0.101173 0.0360084 0.0144052 0.00316258 0.00171429 0 
761 0.721919 0.0725885 0.0526537 0.0760182 0.0498877 0.0164629 0.00706396 0.00225576 0.000849551 0.000300527 
762 0.570318 0.0878282 0.107808 0.102125 0.0844158 0.0273539 0.0160169 0.00205219 0.0015166 0.000565876 
763 0.511642 0.0864239 0.102094 0.131514 0.110589 0.0332455 0.0194667 0.00249421 0.00184325 0.000687757 
764 0.511642 0.0864238 0.102094 0.124121 0.102598 0.0486301 0.0194667 0.0024942 0.00184325 0.000687757 
765 0.423241 0.128725 0.0554541 0.210873 0.119615 0.0345576 0.0204068 0.00598727 0.00114016 0 
766 0.511642 0.086428 0.117468 0.124127 0.102598 0.0332455 0.0194667 0.00249421 0.00184325 0.000687757 
767 0.92394 0.0625605 0.00832687 0.00255991 0.00126318 0.00114012 0.000104542 0 0.00010455 0 
768 0.436209 0.0753222 0.0788407 0.174819 0.157951 0.043473 0.0232637 0.0069776 0.00223364 0.000909406 
769 0.691791 0.217774 0.0219745 0.0388064 0.0186034 0.00764493 0.00128545 0.00189303 0.000207687 1.9347e-05 
770 0.521282 0.0887819 0.113972 0.120416 0.0995351 0.0322531 0.0188856 0.00241975 0.00178823 0.000667227 
771 0.751504 0.12195 0.0328638 0.035839 0.0412834 0.0101844 0.00465509 0.000829357 0.000891558 0 
772 0.563925 0.0986662 0.0827649 0.109388 0.0865645 0.0382233 0.0152916 0.0033572 0.00181978 0 
773 0.533181 0.0881857 0.0961754 0.116925 0.0976978 0.0447632 0.0183382 0.00234961 0.00173639 0.000647887 
774 0.563925 0.0986662 0.0827649 0.102683 0.0917779 0.039715 0.0152916 0.0033572 0.00181978 0 
775 0.345449 0.101874 0.0661962 0.253048 0.158922 0.0414691 0.0244881 0.00718472 0.00136819 0 
776 0.757716 0.0712341 0.0511493 0.0453844 0.0445826 0.0197627 0.00686213 0.00219131 0.000825278 0.000291941 
777 0.717457 0.199645 0.0172695 0.0245575 0.0188092 0.0191407 0.00117833 0.00173527 0.00019038 1.77347e-05 
778 0.747898 0.133152 0.0348862 0.0372022 0.0292815 0.0108111 0.00494156 0.000880395 0.000946423 0 
779 0.563925 0.102319 0.094149 0.100044 0.0808707 0.0382233 0.0152916 0.0033572 0.00181978 0 
780 0.692232 0.221265 0.0180203 0.040118 0.0177945 0.00731255 0.00122956 0.00181072 0.000198657 1.85058e-05 
781 0.726646 0.209653 0.015941 0.0226685 0.0157413 0.00646879 0.00108768 0.00160179 0.000175735 1.63705e-05 
782 0.563925 0.0986662 0.0831123 0.114715 0.0808901 0.0382233 0.0152916 0.0033572 0.00181978 0 
783 0.345449 0.101874 0.06966 0.264964 0.143542 0.0414691 0.0244881 0.00718472 0.00136819 0 
784 0.748215 0.194673 0.0142923 0.0203235 0.0141129 0.00579961 0.000975165 0.00143609 0.000157556 1.4677e-05 
785 0.742601 0.0759829 0.0542493 0.0478549 0.0374949 0.0305337 0.0077745 0.00232412 0.000875295 0.000309634 
786 0.758487 0.118531 0.0319381 0.039396 0.0355539 0.00989748 0.00452396 0.000805995 0.000866444 0 
787 0.891877 0.0931884 0.00912972 0.00287279 0.00141757 0.00127947 0.000117319 0 0.000117328 0 
788 0.740216 0.127485 0.0343697 0.0515994 0.0290165 0.0106473 0.00486669 0.000867055 0.000932084 0 
789 0.733669 0.0763383 0.0717819 0.0585006 0.0339155 0.0157673 0.00676548 0.00216045 0.000813655 0.000287829 
790 0.304999 0.136256 0.0913722 0.280365 0.116905 0.0338475 0.0270534 1.55954e-07 0.00920197 0 
791 0.551137 0.132065 0.126556 0.083517 0.0618423 0.0292296 0.0116936 0.00256727 0.0013916 0 
792 0.736219 0.129447 0.0348862 0.0372177 0.0446506 0.0108111 0.00494156 0.000880395 0.000946423 0 
793 0.761838 0.0695214 0.0504477 0.0585506 0.0338476 0.0157673 0.00676548 0.00216045 0.000813655 0.000287829 
794 0.583284 0.108899 0.0791135 0.0952986 0.0773029 0.036537 0.014617 0.00320909 0.0017395 0 
795 0.738284 0.0736947 0.0663834 0.0457743 0.0493214 0.0162243 0.00696158 0.00222307 0.000837239 0.000296172 
796 0.764649 0.0778558 0.0602178 0.0415593 0.0316208 0.01473 0.00632038 0.00201831 0.000760125 0.000268893 
797 0.739854 0.0759388 0.068078 0.0509817 0.036972 0.0172227 0.00738999 0.00235987 0.000888761 0.000314398 
798 0.357721 0.113128 0.0651932 0.249214 0.141363 0.0408408 0.0241171 0.00707586 0.00134746 0 
799 0.541078 0.090954 0.0934716 0.127111 0.0945271 0.030436 0.0178216 0.00228343 0.00168748 0.000629636 
800 0.744425 0.132593 0.0319656 0.0481084 0.0268139 0.00989748 0.00452396 0.000805995 0.000866444 0 
801 0.744463 0.0667059 0.0483845 0.0482865 0.0674104 0.0151285 0.0064912 0.00207286 0.000780669 0.00027616 
802 0.567395 0.0953759 0.0860091 0.110967 0.0841509 0.036537 0.014617 0.00320909 0.0017395 0 
803 0.754935 0.0715367 0.0518906 0.0457743 0.0350208 0.0305249 0.00696158 0.00222307 0.000837239 0.000296172 
804 0.304999 0.136256 0.0913569 0.264996 0.132282 0.033855 0.0270534 1.55954e-07 0.00920197 0 
805 0.465793 0.0731961 0.0788528 0.153839 0.153597 0.0422654 0.0226175 0.00678378 0.0021716 0.000884145 
806 0.563925 0.0986662 0.082771 0.115074 0.0808722 0.0382233 0.0152916 0.0033572 0.00181978 0 
807 0.580437 0.0970393 0.0791135 0.100039 0.0872682 0.036537 0.014617 0.00320909 0.0017395 0 
808 0.428074 0.082862 0.0907017 0.160146 0.160245 0.044103 0.0236008 0.00707873 0.00226601 0.000922586 
809 0.563925 0.0986662 0.0827649 0.099697 0.0962553 0.0382233 0.0152916 0.0033572 0.00181978 0 
810 0.755358 0.139158 0.0383156 0.0309077 0.0226583 0.00836572 0.00382382 0.000681258 0.000732352 0 
811 0.459111 0.0724946 0.0893111 0.153664 0.151721 0.0416864 0.0223076 0.00669085 0.00214185 0.000872034 
812 0.868173 0.129782 0.00146449 0.000290218 0.00011613 6.95758e-05 4.64958e-05 5.80906e-05 0 0 
813 0.563925 0.0986662 0.0827649 0.099711 0.0950912 0.0393734 0.0152916 0.0033572 0.00181978 0 
814 0.785325 0.118029 0.0283451 0.0302268 0.0237912 0.00878401 0.00401502 0.000715321 0.000768969 0 
815 0.562032 0.107827 0.0968827 0.0978611 0.0784566 0.0370823 0.0148352 0.00325698 0.00176546 0 
816 0.557948 0.0791945 0.0921681 0.112053 0.106511 0.0300139 0.0175741 0.00225171 0.00166405 0.000620891 
817 0.751511 0.121943 0.0328638 0.0350503 0.042072 0.0101844 0.00465509 0.000829357 0.000891558 0 
818 0.736219 0.129447 0.0348862 0.0372022 0.0292815 0.0108111 0.00494184 0.0162647 0.000946425 0 
819 0.728679 0.0776867 0.0832776 0.0471535 0.0358683 0.0167086 0.00716939 0.00228943 0.000862231 0.000305013 
820 0.345449 0.101874 0.0661962 0.253048 0.158922 0.0414691 0.0244881 0.00718472 0.00136819 0 
821 0.960676 0.0163463 0.0178561 0.00253482 0.0012508 0.00112895 0.000103517 0 0.000103525 0 
822 0.549463 0.092177 0.108388 0.109138 0.0901196 0.0292022 0.0170991 0.00219086 0.00161907 0.000604111 
823 0.718024 0.115678 0.0497286 0.0446244 0.0465089 0.0155483 0.00667152 0.00213044 0.000802354 0.000283831 
824 0.747591 0.118303 0.0439473 0.0385174 0.0293071 0.0136522 0.00585792 0.00187063 0.000704506 0.000249218 
825 0.402077 0.0798502 0.083619 0.180032 0.172906 0.0461077 0.0246736 0.00740049 0.00236901 0.000964522 
826 0.576942 0.0957209 0.0802943 0.096721 0.093382 0.0370823 0.0148352 0.00325698 0.00176546 0 
827 0.789604 0.103912 0.0276625 0.0416759 0.0232109 0.00856977 0.00391709 0.000697874 0.000750214 0 
828 0.754664 0.0678249 0.0762364 0.0432661 0.0329203 0.0153353 0.00658012 0.00210126 0.000791363 0.000279943 
829 0.563925 0.0986662 0.0829699 0.114877 0.0808707 0.0382233 0.0152916 0.0033572 0.00181978 0 
830 0.787772 0.159367 0.0140561 0.0184181 0.0127898 0.00525589 0.000883744 0.00130146 0.000142785 1.3301e-05 
831 0.736219 0.129483 0.0500251 0.0374122 0.0292815 0.0108111 0.00494156 0.000880395 0.000946423 0 
832 0.758367 0.0705836 0.0512521 0.0590392 0.0345953 0.0159925 0.00686213 0.00219131 0.000825279 0.000291941 
833 0.759304 0.184868 0.0139708 0.0198668 0.0137958 0.00566928 0.000953251 0.00140382 0.000154015 1.43472e-05 
834 0.751331 0.0725885 0.0526537 0.0464474 0.0353557 0.0311539 0.00706396 0.00225576 0.000849551 0.000300527 
835 0.525037 0.0884139 0.102094 0.124121 0.102598 0.0332455 0.0194667 0.00249421 0.00184325 0.000687757 
836 0.736219 0.129447 0.0348862 0.0372022 0.0292815 0.0108111 0.00494156 0.00287203 0.0143394 0 
837 0.755054 0.120207 0.0324109 0.0488141 0.02719 0.0100389 0.00458859 0.000817509 0.000878822 0 
838 0.73686 0.119844 0.0531367 0.0385174 0.0293071 0.0136522 0.00585792 0.00187063 0.000704506 0.000249218 
839 0.563925 0.0986662 0.0827817 0.114585 0.0813505 0.0382233 0.0152916 0.0033572 0.00181978 0 
840 0.345449 0.101874 0.0669528 0.267676 0.143538 0.0414691 0.0244881 0.00718472 0.00136819 0 
841 0.752619 0.0785579 0.0550839 0.0485912 0.036972 0.0172227 0.00738999 0.00235987 0.000888761 0.000314398 
842 0.408263 0.0810787 0.0867748 0.171011 0.170103 0.0468171 0.0250532 0.00751434 0.00240546 0.000979361 
843 0.37018 0.100669 0.0651932 0.249214 0.141363 0.0408408 0.0241171 0.00707586 0.00134746 0 
844 0.714243 0.132514 0.0716896 0.0360917 0.0284074 0.0104884 0.00479405 0.000854114 0.000918172 0 
845 0.589202 0.0929486 0.077967 0.0939175 0.0906753 0.0360074 0.0144052 0.00316258 0.00171429 0 
846 0.666076 0.0789053 0.0643836 0.0849539 0.0613209 0.0288897 0.0115576 0.00253742 0.00137542 0 
847 0.627151 0.09319 0.0891455 0.0798848 0.0641048 0.0302989 0.0121214 0.00266119 0.00144251 0 
848 0.740216 0.127485 0.0343577 0.0366386 0.0288378 0.0106473 0.0200182 0.000867056 0.000932084 0 
849 0.408263 0.0810787 0.0849054 0.157498 0.170101 0.0468268 0.0404281 0.00751435 0.00240546 0.000979361 
850 0.512149 0.104772 0.107114 0.120415 0.0995351 0.0322531 0.0188856 0.00241975 0.00178823 0.000667227 
851 0.827815 0.102434 0.0209647 0.0215906 0.0169937 0.00627429 0.00286787 0.000510943 0.000549264 0 
852 0.50389 0.0860312 0.129369 0.122804 0.101043 0.0327418 0.0191717 0.00245641 0.00181532 0.000677336 
853 0.352831 0.138516 0.0889351 0.246067 0.108555 0.0314298 0.025121 1.44814e-07 0.00854469 0 
854 0.510967 0.0824381 0.12534 0.130189 0.0966756 0.0313182 0.0183382 0.00234961 0.00173639 0.000647887 
855 0.503944 0.093696 0.11231 0.132136 0.101051 0.0327418 0.0191717 0.00245641 0.00181532 0.000677336 
856 0.768363 0.0676167 0.0490473 0.0432661 0.0329203 0.0153356 0.0202784 0.00210126 0.000791363 0.000279943 
857 0.566392 0.120299 0.0768532 0.106861 0.0750942 0.035493 0.0141994 0.0031174 0.0016898 0 
858 0.511642 0.0864238 0.102094 0.124121 0.102598 0.0398613 0.0282355 0.0024942 0.00184325 0.000687757 
859 0.364988 0.098833 0.0652414 0.259399 0.139253 0.0402312 0.0237571 0.00697025 0.00132735 0 
860 0.74558 0.136328 0.0353029 0.0366386 0.0288378 0.0106473 0.00486669 0.000867056 0.000932084 0 
861 0.402077 0.0798502 0.0853493 0.177535 0.173673 0.0461077 0.0246736 0.00740049 0.00236901 0.000964522 
862 0.576942 0.0957209 0.0802943 0.0967793 0.0933131 0.0370928 0.0148352 0.00325698 0.00176546 0 
863 0.744093 0.125583 0.0338449 0.0360917 0.0284074 0.0104884 0.00479427 0.0157793 0.000918172 0 
864 0.606321 0.0890736 0.0747183 0.103893 0.0730082 0.0345071 0.0138049 0.0030308 0.00164286 0 
865 0.434369 0.0775017 0.0811596 0.163501 0.164351 0.0447516 0.0239479 0.00718282 0.00229934 0.000936154 
866 0.396551 0.0138138 0.109813 0.338728 1.06706e-05 0.0820998 0.0448737 0 0.0141094 0 
867 0.519041 0.0851144 0.100547 0.12224 0.101043 0.0327418 0.0192669 0.0175128 0.00181532 0.000677336 
868 0.589197 0.092954 0.0779678 0.108409 0.0761825 0.0360074 0.0144052 0.00316258 0.00171429 0 
869 0.496369 0.083844 0.0990463 0.120553 0.144173 0.0322531 0.0188856 0.00241975 0.00178823 0.000667227 
870 0.519041 0.0851144 0.100547 0.122248 0.116186 0.0327418 0.0191717 0.00245641 0.00181532 0.000677336 
871 0.76591 0.0656032 0.0522765 0.0482724 0.0441532 0.0145387 0.0062383 0.0019921 0.000750253 0.000265401 
872 0.590708 0.0702208 0.0938776 0.1149 0.083382 0.027012 0.0158167 0.00202654 0.00149764 0.000558802 
873 0.570531 0.097172 0.0815109 0.104834 0.0881496 0.0376441 0.0150599 0.00330633 0.00179221 0 
874 0.937648 0.0382109 0.0176921 0.00319199 0.00157508 0.00142163 0.000130354 0 0.000130365 0 
875 0.511642 0.0864239 0.102094 0.128078 0.114025 0.0332455 0.0194667 0.00249421 0.00184325 0.000687757 
876 0.419761 0.0917998 0.0842886 0.155111 0.167524 0.0461077 0.0246736 0.00740049 0.00236901 0.000964522 
877 0.687049 0.221125 0.0191293 0.0273039 0.0341725 0.00776255 0.00130522 0.00192215 0.000210882 1.96446e-05 
878 0.47031 0.163634 0.0629428 0.116333 0.125643 0.0345808 0.0185052 0.00555036 0.00177676 0.000723391 
879 0.606321 0.0890736 0.0747183 0.0907018 0.0861955 0.0345112 0.0138049 0.0030308 0.00164286 0 
880 0.568003 0.0997005 0.081585 0.113239 0.0796704 0.0376441 0.0150599 0.00330633 0.00179221 0 
881 0.718445 0.12808 0.0731203 0.035561 0.0279897 0.0103341 0.00472355 0.000841554 0.000904669 0 
882 0.747619 0.0736719 0.0534396 0.0471407 0.0358683 0.0167086 0.00731395 0.0170702 0.000862285 0.000305013 
883 0.747619 0.073672 0.0680236 0.047482 0.0358683 0.0167086 0.00716939 0.00228943 0.000862231 0.000305013 
884 0.751428 0.128959 0.0310631 0.0331253 0.0302614 0.0190207 0.00451535 0.000783913 0.000842706 0 
885 0.355366 0.100331 0.0651932 0.249215 0.156513 0.0408408 0.0241171 0.00707586 0.00134746 0 
886 0.653553 0.218849 0.0416332 0.0367259 0.0279439 0.0130172 0.00558545 0.00178362 0.000671738 0.000237626 
887 0.736625 0.0872835 0.0526646 0.0464474 0.0353542 0.0311555 0.00706396 0.00225576 0.000849551 0.000300527 
888 0.518364 0.0857916 0.100547 0.122282 0.116118 0.0327764 0.0191717 0.00245641 0.00181532 0.000677336 
889 0.562016 0.110646 0.0952196 0.0967209 0.0784566 0.0370823 0.0148352 0.00325698 0.00176546 0 
890 0.614294 0.102846 0.0726989 0.0875717 0.071035 0.0335745 0.0134318 0.00294889 0.00159846 0 
891 0.751276 0.075195 0.0518906 0.0507198 0.0443759 0.0162243 0.00696158 0.00222307 0.000837239 0.000296172 
892 0.731234 0.200702 0.0170329 0.0242211 0.0168195 0.00691186 0.00116218 0.0017115 0.000187772 1.74918e-05 
893 0.739854 0.0759388 0.0550839 0.0485912 0.036972 0.0172227 0.00739102 0.0177434 0.000888763 0.000314398 
894 0.72934 0.113147 0.0602364 0.0415583 0.0316208 0.01473 0.00632038 0.00201831 0.000760125 0.000268893 
895 0.761861 0.116865 0.0314945 0.0359213 0.0379877 0.00976001 0.00446113 0.000794801 0.00085441 0 
896 0.55912 0.0780225 0.0921722 0.125938 0.0926229 0.0300133 0.0175741 0.00225171 0.00166405 0.000620891 
897 0.519033 0.0851229 0.100547 0.12224 0.101043 0.0334558 0.0336092 0.00245641 0.00181532 0.000677336 
898 0.714243 0.125583 0.0338479 0.0659183 0.0289223 0.0249199 0.00479405 0.000854114 0.000918172 0 
899 0.419663 0.0775017 0.0811596 0.150855 0.191691 0.0447633 0.0239479 0.00718282 0.00229934 0.000936154 
900 0.739367 0.0692152 0.0490473 0.0451527 0.0721093 0.0153556 0.00658012 0.00210126 0.000791363 0.000279943 
901 0.803135 0.103975 0.0241309 0.0363558 0.0202478 0.00747575 0.00341704 0.000608784 0.000654442 0 
902 0.350832 0.0728244 0.13532 0.17903 0.170678 0.0554997 0.0255243 0.00820164 0 0.00209053 
903 0.355367 0.10033 0.0651934 0.264365 0.141363 0.0408408 0.0241171 0.00707586 0.00134746 0 
904 0.760808 0.0662127 0.0610723 0.0421127 0.0330954 0.0272067 0.00640466 0.00204522 0.00077026 0.000272478 
905 0.754752 0.113739 0.0441573 0.0461856 0.0257253 0.00949623 0.00434056 0.00077332 0.000831318 0 
906 0.743795 0.0747882 0.0542493 0.0628389 0.0365794 0.0169618 0.00727802 0.00232412 0.000875295 0.000309634 
907 0.736625 0.073021 0.0669271 0.0465081 0.0499861 0.0164629 0.00706396 0.00225576 0.000849551 0.000300527 
908 0.408263 0.0818663 0.0995024 0.157498 0.170101 0.0468171 0.0250532 0.00751434 0.00240546 0.000979361 
909 0.511642 0.0864239 0.102398 0.138414 0.103385 0.0332455 0.0194667 0.00249421 0.00184325 0.000687757 
910 0.50389 0.0851144 0.100547 0.122652 0.130934 0.0327423 0.0191717 0.00245641 0.00181532 0.000677336 
911 0.52622 0.083844 0.0990463 0.120416 0.107909 0.0388044 0.0188856 0.00241975 0.00178823 0.000667227 
912 0.751331 0.0725885 0.0526708 0.0611362 0.0353409 0.0164629 0.00706396 0.00225576 0.000849551 0.000300527 
913 0.754644 0.0718269 0.0518906 0.0458415 0.0492448 0.0162338 0.00696158 0.00222307 0.000837239 0.000296172 
914 0.613924 0.124986 0.0759491 0.0771465 0.0625785 0.0295775 0.0118328 0.00259783 0.00140816 0 
915 0.511642 0.0864239 0.102103 0.139496 0.102598 0.0332455 0.0194667 0.00249421 0.00184325 0.000687757 
916 0.603339 0.100326 0.0861736 0.0875726 0.071035 0.0335745 0.0134318 0.00294889 0.00159846 0 
917 0.690768 0.22273 0.0180203 0.0256323 0.0322802 0.00731255 0.00122956 0.00181072 0.000198657 1.85058e-05 
918 0.846201 0.0513931 0.0306707 0.0284254 0.027504 0.00972084 0.00410555 0.00131104 0.000493756 0.000174665 
919 0.355367 0.10033 0.0651932 0.264366 0.141363 0.0408408 0.0241171 0.00707586 0.00134746 0 
920 0.732694 0.0736719 0.0534396 0.0620472 0.038564 0.0255519 0.0105747 0.00228943 0.000862231 0.000305013 
921 0.75208 0.13851 0.0342618 0.0397299 0.0221314 0.00817117 0.0037349 0.000665415 0.00071532 0 
922 0.568809 0.078141 0.0909184 0.121283 0.0901338 0.0292022 0.0170991 0.00219086 0.00161907 0.000604111 
923 0.350093 0.112615 0.0661962 0.253048 0.143537 0.0414691 0.0244881 0.00718472 0.00136819 0 
924 0.511642 0.0864635 0.112795 0.128764 0.102598 0.0332455 0.0194667 0.00249421 0.00184325 0.000687757 
925 0.549432 0.11097 0.0897379 0.109025 0.0901196 0.0292022 0.0170991 0.00219086 0.00161907 0.000604111 
926 0.568457 0.0943132 0.079116 0.109849 0.0921615 0.036537 0.014617 0.00320909 0.0017395 0 
927 0.76119 0.15477 0.0246479 0.0262842 0.020688 0.00763827 0.00349132 0.000622018 0.000668669 0 
928 0.743322 0.141279 0.0338449 0.0360917 0.0284074 0.0104884 0.00479405 0.000854114 0.000918172 0 
929 0.509691 0.0854475 0.0990463 0.121187 0.128614 0.0322531 0.0188856 0.00241975 0.00178823 0.000667227 
930 0.783815 0.107039 0.0283725 0.0426994 0.0237912 0.00878401 0.00401502 0.000715321 0.000768969 0 
931 0.734468 0.133233 0.0343577 0.0517901 0.0288378 0.0106473 0.00486669 0.000867055 0.000932084 0 
932 0.518481 0.082611 0.111078 0.134525 0.0981146 0.0317788 0.0186079 0.00238417 0.00176193 0.000657414 
933 0.627038 0.0843886 0.0708186 0.0983669 0.0691911 0.032691 0.0130784 0.00287129 0.00155639 0 
934 0.355367 0.100331 0.0651932 0.249941 0.155787 0.0408417 0.0241171 0.00707586 0.00134746 0 
935 0.538058 0.0833086 0.103016 0.124577 0.09665 0.0313182 0.0183382 0.00234961 0.00173639 0.000647887 
936 0.725064 0.127485 0.0343577 0.0366636 0.0590281 0.010735 0.00486669 0.000867055 0.000932084 0 
937 0.712203 0.120398 0.0610088 0.0485905 0.0273641 0.0241504 0.00458859 0.000817509 0.000878822 0 
938 0.801767 0.0763048 0.0397829 0.0350936 0.026702 0.0124386 0.00533721 0.00170435 0.000641883 0.000227065 
939 0.548713 0.0846878 0.101006 0.118808 0.0939275 0.030436 0.0178216 0.00228343 0.00168748 0.000629636 
940 0.373044 0.0986622 0.0632758 0.241884 0.137205 0.0396396 0.0238619 0.0211195 0.00130783 0 
941 0.912987 0.0715674 0.00944135 0.00297185 0.00146645 0.00132359 0.000121364 0 0.000121374 0 
942 0.519041 0.0851144 0.100547 0.125699 0.112736 0.0327419 0.0191717 0.00245641 0.00181532 0.000677336 
943 0.681466 0.229229 0.018778 0.0264075 0.033233 0.00753152 0.00126626 0.00186477 0.000204587 1.90582e-05 
944 0.402077 0.0798502 0.0987709 0.170262 0.167524 0.0461077 0.0246736 0.00740049 0.00236901 0.000964522 
945 0.570532 0.0971712 0.0815109 0.0981864 0.0796454 0.0376441 0.0302114 0.00330633 0.00179221 0 
946 0.606321 0.0890741 0.0747183 0.0900042 0.0730219 0.0483699 0.0138174 0.0030308 0.00164286 0 
947 0.725083 0.194259 0.0168142 0.0373824 0.0166056 0.00681845 0.00114648 0.00168838 0.000185234 1.72554e-05 
948 0.350832 0.0728244 0.135185 0.17997 0.169873 0.0554997 0.0255243 0.00820164 0 0.00209053 
949 0.350832 0.0728244 0.135184 0.17998 0.169863 0.0554997 0.0255243 0.00820164 0 0.00209053 
950 0.488228 0.510517 2.34413e-05 0.000329841 0.000817624 4.72721e-07 0 8.33895e-05 0 0 
951 0.750029 0.140512 0.0370271 0.0328736 0.0247181 0.00912625 0.00417145 0.00074319 0.000798929 0 
952 0.730341 0.118508 0.0319508 0.0623825 0.0407237 0.00989748 0.00452396 0.000805995 0.000866444 0 
953 0.728644 0.0747882 0.0543855 0.0628702 0.0515633 0.0169618 0.00727802 0.00232412 0.000875295 0.000309634 
954 0.552897 0.0791394 0.107546 0.113632 0.0939275 0.030436 0.0178216 0.00228343 0.00168748 0.000629636 
955 0.756848 0.113396 0.0566717 0.0324715 0.0253773 0.00936961 0.00428268 0.000763009 0.000820234 0 
956 0.57053 0.0971731 0.0815109 0.0981864 0.0796454 0.0376441 0.0150623 0.0184555 0.00179221 0 
957 0.44418 0.0742315 0.104843 0.145244 0.155727 0.0428607 0.022936 0.00687933 0.00220218 0.000896598 
958 0.739854 0.0759388 0.0550839 0.0485912 0.036972 0.0172227 0.00739784 0.0177366 0.000888761 0.000314398 
959 0.728644 0.0747882 0.0542493 0.0478849 0.0515333 0.0218639 0.0175274 0.00232412 0.000875295 0.000309634 
960 0.600828 0.105178 0.0946107 0.083082 0.0673922 0.0318527 0.012743 0.00279767 0.00151648 0 
961 0.399098 0.0724621 0.127347 0.155057 0.160013 0.0522823 0.0240446 0.00772618 0 0.00196934 
962 0.757182 0.071902 0.0653012 0.0451204 0.0343311 0.0159925 0.00686213 0.00219131 0.000825278 0.000291941 
963 0.611705 0.087862 0.0740451 0.0939924 0.0801354 0.0340344 0.0136158 0.00298929 0.00162035 0 
964 0.935757 0.021374 0.028326 0.0111605 0.00163567 0.00147631 0.000135368 0 0.000135379 0 
965 0.417228 0.0798504 0.0937783 0.160103 0.167524 0.0461077 0.0246736 0.00740049 0.00236901 0.000964522 
966 0.563577 0.0950307 0.10937 0.102429 0.0750943 0.035493 0.0141994 0.0031174 0.0016898 0 
967 0.563925 0.0986662 0.0827649 0.099697 0.0808707 0.038232 0.0306675 0.0033572 0.00181978 0 
968 0.751511 0.121943 0.0367198 0.0456824 0.027584 0.0101844 0.00465509 0.000829357 0.000891558 0 
969 0.736219 0.129447 0.034892 0.0525811 0.0292815 0.0108111 0.00494156 0.000880395 0.000946423 0 
970 0.803248 0.0629291 0.0436641 0.0385174 0.0293071 0.0136522 0.00585792 0.00187063 0.000704506 0.000249218 
971 0.754605 0.104808 0.0747547 0.0291343 0.0229313 0.00846652 0.00386989 0.000689466 0.000741175 0 
972 0.743259 0.126417 0.0338449 0.0361406 0.0432839 0.0104884 0.00479405 0.000854114 0.000918172 0 
973 0.739854 0.0759388 0.0550839 0.0486945 0.0522533 0.0172227 0.00738999 0.00235987 0.000888761 0.000314398 
974 0.696542 0.143925 0.0709837 0.0331253 0.0397712 0.00962631 0.00440002 0.000783913 0.000842706 0 
975 0.743795 0.0747882 0.0542495 0.0624793 0.0369388 0.0169618 0.00727802 0.00232412 0.000875295 0.000309634 
976 0.737364 0.0853008 0.0607022 0.0559474 0.0352493 0.0155483 0.00667151 0.00213044 0.000802354 0.000283831 
977 0.728644 0.0747882 0.0693989 0.0478567 0.0364118 0.0321079 0.00728339 0.00232412 0.000875295 0.000309634 
978 0.55538 0.0971712 0.0826363 0.12304 0.0839697 0.0376441 0.0150599 0.00330633 0.00179221 0 
979 0.751653 0.0943567 0.0540841 0.0426814 0.0324754 0.0151281 0.0064912 0.00207286 0.000780669 0.00027616 
980 0.563925 0.0986662 0.0880423 0.109804 0.0808707 0.0382233 0.0152916 0.0033572 0.00181978 0 
981 0.750898 0.0730216 0.0526537 0.0464595 0.0500347 0.0164629 0.00706396 0.00225576 0.000849551 0.000300527 
