4872 55 8.879e-07
6787 49 2.41533e-06
6515 4 3.63291e-06
1595 8889 1.31002e-06
246 25 3.5647e-07
1089 49 3.01259e-06
5919 49 1.31215e-05
5885 4 3.61933e-06
3370 4 5.12324e-06
5703 55 2.59524e-06
0 2430 1.21993e-07
5529 55 2.98623e-06
186 1092 1.0816e-05
619 1092 2.36949e-05
1145 55 3.42254e-06
683 4 1.81287e-06
5289 51 7.28791e-06
164 628 2.22874e-06
3037 51 3.56628e-06
4804 10 1.35674e-06
304 2301 2.89544e-06
3367 51 2.91545e-06
4570 51 2.95575e-06
1407 51 1.02329e-05
800 51 2.61598e-06
431 238 1.11798e-06
1796 4 3.71309e-06
3804 46 2.03312e-06
330 4 2.74095e-06
3627 55 1.34965e-05
3444 49 2.13598e-06
3316 55 2.33276e-06
3233 55 1.60534e-06
1482 1044 3.47649e-06
344 3380 9.50674e-07
3 678 2.25568e-07
147 815 1.07639e-06
1613 822 1.82437e-06
1865 4 5.10529e-06
1597 405 6.24398e-06
1271 1714 3.4683e-05
600 1714 8.71351e-06
115 1714 2.50592e-06
1595 1714 1.81742e-05
1582 1714 4.35747e-06
0 1714 2.27761e-07
920 16 1.39688e-06
3693 9180 1.05507e-05
728 1660 3.76593e-06
3084 9057 0.000122756
624 9057 1.11568e-05
6427 10 0.000173623
2307 8579 3.48364e-05
0 7795 2.28554e-07
376 1261 1.63331e-06
5627 1435 1.43315e-05
33 1435 3.05831e-07
5712 1435 0.495576
3482 51 0.00015099
5152 4 6.04693e-05
4927 51 0.000189003
5135 51 0.000161095
650 19 1.59813e-05
4829 229 4.62665e-05
4492 55 5.46291e-05
31 6233 1.31914e-07
1071 4 0.000161056
4754 49 0.000136644
24 8 4.90793e-07
1068 2301 6.69962e-05
28 2301 2.53497e-06
2307 2301 0.000272184
3 2301 3.84301e-06
1908 414 0.00049458
2307 329 0.000315786
1806 329 0.000884324
4221 575 0.0176275
4104 49 9.30614e-05
1942 51 0.000647778
3389 55 0.000140714
3371 25 0.000157449
918 167 0.168917
3308 49 3.73509e-05
3078 51 0.00140875
765 49 2.33953e-05
2946 55 0.000128162
49 3315 2.72853e-05
2862 55 7.12093e-05
2765 51 4.86258e-05
884 258 0.00153973
372 1178 3.15849e-06
431 2646 3.57848e-05
147 822 1.19879e-05
1761 1923 0.28303
812 1923 0.000145539
33 1923 4.64625e-07
276 1923 0.00022126
1760 1923 0.000346057
855 4 0.000139209
257 1530 5.2104e-06
1405 55 0.000193599
244 51 3.0286e-05
1031 55 0.000174293
637 376 2.36828e-05
36 376 7.79174e-05
16 9556 4.95665e-06
65 4 2.8485e-07
673 825 8.61696e-05
8 9057 3.74356e-06
6469 73 0.0455399
6347 4 0.0192694
30 4555 0.000209668
52 8658 2.57337e-05
1292 8579 0.000390534
432 8579 0.000746446
1888 3770 4.36636e-05
6126 49 0.034583
4922 4 0.196946
4160 403 1.12603e-05
39 7821 0.0132802
755 730 8.72655e-05
5727 49 0.000216782
5701 55 5.85456e-06
42 315 8.98185e-05
4849 55 0.00715936
5096 55 0.00729514
641 7418 0.000268413
1860 593 0.000205399
5280 55 0.0364416
3 6722 0.000144576
1409 4767 0.000266113
674 414 0.10886
5096 3904 0.000643924
2084 19 0.0683262
650 631 0.00158941
3478 298 0.0147814
4828 229 0.136824
1367 10 0.00216957
4773 51 0.00479582
24 380 1.01404e-06
4741 49 0.0473609
632 5987 7.57504e-06
168 5959 1.00789e-06
3654 83 2.75598e-05
985 380 0.0245747
1673 238 1.1976e-06
4393 51 0.0653121
2217 4 0.0118383
4083 49 0.000108304
1246 49 0.000473503
359 444 0.000391084
3155 155 0.104356
164 4363 0.000916004
1199 4363 0.000455904
3589 51 0.0050607
918 3901 0.00162169
2207 4 0.00359718
235 181 0.00272577
41 191 0.00685352
947 414 1.12705e-05
2078 444 0.215303
2848 444 0.0184676
879 678 0.00189823
1369 3158 2.5447e-05
420 3158 0.00446366
1257 62 5.5259e-05
824 376 0.00468194
280 2646 0.000334851
227 730 2.50813e-05
838 376 0.00407203
2086 23 0.000394551
40 2006 4.86897e-05
1829 2006 0.00108704
1828 2006 0.000737779
382 1735 0.00117565
0 1630 1.47069e-07
1530 49 0.00212015
838 387 0.11443
437 822 0.0241969
137 55 0.000693133
86 791 3.45555e-06
53 601 0.000456058
1179 55 0.000899981
959 10 0.0669964
413 141 0.000128373
758 141 0.128987
22 141 2.32295e-06
757 141 0.00587855
265 141 9.25285e-05
755 141 0.00113712
425 675 0.00488268
147 675 0.000427681
24 675 9.77835e-07
229 239 0.00162958
494 298 0.108082
41 180 5.02933e-05
108 42 0.0109697
92 74 5.23227e-06
10 4 0.00848261
6803 9556 0.204042
4872 601 0.061275
261 26 1.05906e-05
372 10 0.000102305
2040 1660 0.134389
113 49 0.00124259
51 4891 5.93096e-05
422 4555 9.46134e-05
557 4555 0.187549
2885 49 0.0162118
6325 49 0.163333
14 8579 2.84696e-05
1308 1314 0.326148
1219 112 4.93564e-05
370 112 2.01944e-05
4295 4 0.166475
6209 55 0.0344548
1527 822 0.417031
3693 730 0.0965472
6034 51 0.0321914
65 2430 0.00597386
2967 1224 0.166158
179 8034 0.0519152
597 403 2.27368e-06
2509 1913 0.166502
2774 730 0.138834
2330 7759 0.12266
5727 403 0.228222
5710 55 0.108766
2045 315 0.0208909
288 315 0.0131507
3140 10 0.00711426
504 10 0.388205
64 10 0.00018832
878 10 0.0137744
5576 10 0.00827612
1984 7418 0.000449104
344 3435 0.0929823
1465 42 0.196136
619 554 0.175965
248 554 1.96139e-07
48 4 5.01886e-06
2069 4 5.23666e-05
232 4 7.17063e-06
14 4 1.80655e-06
370 376 0.048773
31 315 1.85895e-06
2687 4767 0.0465405
5101 4767 0.112778
24 4767 7.23214e-06
44 509 0.155054
4352 51 0.152133
1903 298 0.111119
1649 482 0.151521
4977 5162 0.153644
4974 414 0.124863
150 51 1.88699e-06
1094 46 0.239322
4769 1183 0.1987
288 2301 6.93584e-05
4575 2394 0.0385551
147 2394 0.0358449
422 2394 7.56885e-05
157 444 0.0309526
767 5987 0.00438861
2825 2739 0.107546
624 2739 0.000139515
1249 83 0.18875
2307 1792 0.000646113
0 5612 2.11978e-05
4372 10 0.195443
4311 51 0.239585
4259 5360 4.79497e-06
299 5360 2.79598e-06
3188 4 0.270385
312 229 0.265878
165 5097 1.05979e-06
115 451 1.34276e-06
608 51 0.0837678
4037 92 0.249694
4021 49 0.165139
138 4933 0.000195582
3953 1424 0.332797
90 4891 0.46762
129 4891 7.18696e-05
251 444 0.129955
1386 387 0.128971
1003 4627 0.0211433
1184 4627 0.00428774
66 4627 0.00810581
3677 4618 0.190543
755 10 0.159708
248 204 0.00371122
142 4363 9.43712e-05
165 4363 0.0666864
261 4363 0.00133609
28 4363 1.92692e-06
3606 294 0.0120299
3522 49 0.177389
87 3423 0.00132652
2002 1044 0.145172
406 4058 7.27522e-06
248 4029 1.90808e-05
2708 49 0.0115835
147 143 7.42236e-05
248 3423 0.020645
78 55 5.81895e-06
1428 3090 7.85168e-05
2639 25 0.14968
3203 55 0.283544
641 3671 0.000232751
927 3671 0.000216583
920 55 0.100309
386 191 0.0969341
179 141 0.00373897
344 74 0.00242364
921 586 9.98121e-05
50 403 0.165943
2815 678 0.00550116
2788 51 0.0749653
2765 1424 0.0340661
3 1424 2.70513e-06
420 1424 0.086212
36 25 3.52649e-05
2094 25 4.49312e-06
668 25 0.105576
847 25 5.89822e-05
628 25 6.93627e-06
665 25 0.0844213
951 25 0.000345871
489 49 0.0008577
2219 49 0.00635202
2218 49 0.192651
1703 1108 1.72376e-05
2160 730 0.247469
1213 730 0.00160594
256 37 0.000679766
255 37 0.475173
2019 49 0.0728079
1890 989 1.24151e-05
303 106 9.67851e-06
105 249 0.00643446
1880 249 0.15486
1868 298 0.212391
918 1904 3.15058e-05
127 1904 0.0232737
1744 1904 0.160955
1529 49 0.239169
1525 238 0.209987
288 340 4.7121e-06
137 340 0.115035
1348 791 0.176083
976 207 0.123438
24 1224 1.34356e-06
616 601 0.0195797
1216 51 0.174218
1206 1238 1.68811e-06
53 1230 2.44529e-06
53 42 9.24933e-06
97 42 0.112058
3 233 3.34595e-06
934 115 1.58781e-05
227 114 0.133726
87 114 0.0197673
87 670 0.0542051
227 670 0.000919632
825 815 1.06254e-05
248 141 4.38363e-05
494 453 0.181492
452 400 0.108532
326 10 0.0254687
91 74 0.19977
91 73 0.199811
283 9589 0.000169479
142 55 1.59709e-05
95 7931 7.16122e-05
4112 565 0.000935125
233 6047 6.16792e-06
142 3895 0.00307623
1112 1640 0.200054
1956 678 0.109619
6836 1434 0.199874
6836 317 0.199873
1018 39 0.110492
6835 9630 0.199899
6834 9629 0.249817
6834 78 0.249586
6834 9105 0.249817
6834 9628 0.249817
3347 1149 0.499802
6833 78 0.104637
6833 9627 0.223746
6833 55 0.223134
6832 9626 0.2498
6832 9625 0.2498
6831 9624 0.250151
6831 9623 0.248585
6706 543 0.263377
6829 1839 0.333015
913 9619 0.248744
2963 7398 0.142873
2963 298 0.142795
2963 9618 0.142873
2963 9617 0.142873
4764 16 0.369739
3951 5258 0.00050875
2651 112 0.138565
5414 9611 0.00038688
6827 9611 0.249761
6827 19 0.249742
6827 575 0.249758
6827 9610 0.249777
1424 9609 0.475865
922 4581 0.000407799
922 114 0.29414
922 5570 0.325793
2093 9608 0.0173017
396 1147 0.339947
2093 9607 0.193662
6826 3838 0.333012
6825 2698 0.168136
6825 9606 0.168141
6825 9605 0.168141
6825 229 0.32648
6824 6 0.322219
6824 1100 0.338409
6823 9603 0.251149
6823 9602 0.251149
6823 712 0.245589
4354 6947 0.167894
4354 5831 0.167894
4354 2430 0.167894
6822 4284 0.249772
6822 9601 0.249772
981 9599 0.247975
6821 1805 0.334968
6821 425 0.000136479
6820 425 0.377192
6820 1694 0.237768
5910 8078 0.0118708
5910 2835 0.329056
145 2835 0.137037
145 1945 0.137036
5357 9597 0.332961
5357 4956 0.332961
6818 4956 0.199808
6817 9594 0.499519
6817 8844 0.499519
6816 2981 0.333012
6816 9593 0.333012
6815 3941 0.58462
6814 9592 0.249772
6814 9591 0.249772
277 4084 0.0801348
830 4084 1.94552e-05
283 4084 0.00717662
277 9589 0.0903834
830 9589 0.00921253
3406 1702 0.108885
6288 9588 0.252852
6288 9587 0.252852
4407 642 0.986893
2527 6 0.000546763
4407 229 0.0121443
6813 9584 0.249801
6813 9583 0.249801
6813 601 0.249635
6812 9582 0.249715
6812 19 0.249709
6812 2430 0.249715
6812 4697 0.249714
6812 1791 0.000185108
3248 2881 0.166507
3248 7994 0.166507
364 347 7.33101e-05
721 2052 0.00235381
362 2052 0.107771
362 100 0.111652
362 1429 0.111624
202 9581 0.166241
6811 9478 0.325855
6810 9578 0.111644
69 694 0.221518
69 85 0.22166
69 9578 0.333226
69 592 0.222633
5186 233 0.251606
5186 9575 0.251606
6809 9575 0.199938
6809 9574 0.199938
6809 1180 0.199478
6781 9573 0.0908285
6781 9572 0.0908285
6808 69 0.350384
6808 9571 0.350384
6808 9570 0.294249
6807 9570 0.0770527
6808 2199 0.00402128
6807 9569 0.48095
6805 583 0.594875
6805 732 0.404162
1311 2657 0.161884
1197 9566 0.210336
1311 137 0.161902
866 2103 0.199809
6804 8187 0.333157
6625 9562 0.194534
6625 9561 0.194534
6625 9560 0.194534
6625 9559 0.194534
6625 1047 0.194534
6625 9558 0.0263686
6803 9558 0.177835
6803 2628 0.20572
6803 9557 0.205719
427 9556 0.999037
1891 9555 0.199455
1891 9554 0.199454
1155 9553 0.125674
1155 2083 0.125674
1042 9552 0.160492
1042 4907 0.160492
1042 9551 0.16049
799 143 0.326009
6801 9549 0.00511934
6801 7097 0.993918
6802 9546 0.015476
6799 9546 0.416859
6799 9545 0.582179
380 9544 0.162858
6798 2752 0.249804
6796 9541 0.00482024
6796 288 0.494129
6796 8 0.500088
1077 9540 0.0775731
1077 3238 0.0775732
1077 2430 0.077573
821 7951 0.499519
2466 1100 0.110134
1077 9539 0.0775731
1077 601 0.155096
6795 9538 0.378343
2466 2416 0.110134
2466 249 0.116993
2466 601 0.111777
6794 1453 0.202217
6794 10 0.1903
6794 233 0.202088
6794 4039 0.202217
6793 652 0.292153
6793 4589 0.292153
6793 6 0.000391009
6793 4947 0.292152
6793 1289 0.122189
6792 1289 0.401325
1589 1526 0.0828848
1589 971 0.0828847
1589 852 0.0828846
1018 852 0.110753
6791 4101 0.249754
6791 1221 0.249754
6791 293 2.14243e-05
5838 642 0.142951
5524 543 0.000230821
6790 6 0.318624
6790 82 0.297934
6788 892 0.211601
6789 9531 0.451535
6787 9528 0.199019
6787 9527 0.199019
6785 9526 0.33302
6785 25 0.332997
1496 5430 0.166508
1496 1694 0.166508
6782 19 0.166458
6782 444 0.166439
6782 662 0.166535
6781 1689 0.181656
6781 2430 0.0908285
6781 794 0.0908285
6781 220 0.0908285
674 543 0.158606
4871 543 0.0171184
4871 9521 0.346005
4871 628 0.345424
793 2429 0.333162
793 9520 0.333162
5387 9517 0.384539
6779 4972 0.281149
6779 3479 0.281149
6779 9516 0.281149
6778 739 0.182359
6778 3344 0.408341
6777 9515 0.423304
6777 712 0.420537
6777 112 0.155196
6776 112 0.999037
1578 267 0.260162
1578 9514 0.260162
1578 3362 0.260009
6775 6 3.08766e-06
6773 9511 0.333012
6773 3794 0.333012
6773 9510 0.333012
6772 9509 0.131204
6772 831 0.131204
6772 543 0.131204
6772 112 0.131194
6770 9506 0.249758
6770 3793 0.249732
6770 1100 0.249758
6770 1017 2.98574e-05
6769 9505 0.303882
6769 2942 0.303882
6769 9504 0.303882
6769 1968 0.0873917
6768 1968 0.164838
6768 1694 0.834199
6767 9503 0.249763
6767 556 0.249763
6767 5836 0.249749
3989 5836 5.27551e-05
6766 299 0.385149
2400 9502 0.176999
2400 2762 0.406828
2400 9501 0.415211
6765 3330 0.285933
6765 9500 0.356552
6765 9499 0.356552
2291 9498 0.192522
2291 1094 0.192522
930 578 0.317514
6764 9497 0.142736
6764 231 0.142737
6764 6300 0.142737
6764 1340 0.142737
6764 1614 0.142737
6764 509 0.142697
1559 9495 0.182528
1559 1136 0.182528
1559 2086 0.182528
6763 678 0.999037
6762 9494 0.333164
6762 678 0.332709
6761 9492 0.406384
6761 1694 0.191498
6760 5765 0.189908
6760 3576 0.189908
6760 55 0.18796
6760 9491 0.189908
6760 1055 0.189908
6760 10 0.0514469
3455 10 0.233567
2566 896 0.0901335
2566 4717 0.0968118
2641 9490 0.167331
2641 16 0.0357409
2641 661 0.167331
2641 9489 0.167331
6759 4717 0.333012
6759 115 0.333012
2671 9487 0.330187
2671 229 0.00841253
258 190 0.260978
2548 9484 0.000690328
952 9484 0.0995816
952 3044 0.0992808
952 9483 0.100033
952 9482 0.100033
952 1945 0.100033
635 1374 0.241238
635 141 0.24128
635 1694 0.239886
6522 2437 0.0239799
6522 33 0.0417969
4753 6285 3.24287e-06
6756 6 0.00378744
6756 9479 0.324366
6756 9478 0.324366
6756 42 0.322604
4695 9477 0.199804
4695 9475 0.199804
6754 500 0.000133425
4695 55 6.38056e-05
6754 2742 0.588259
943 9475 0.199279
943 33 1.03266e-05
3305 583 0.306576
957 9473 0.245463
957 16 3.8458e-05
2825 9472 0.111105
2990 5190 0.179782
2990 9471 0.179782
6753 9469 0.34324
6752 464 0.175705
6752 670 0.823333
6751 4401 0.324822
6751 1455 0.324822
6751 4400 0.324666
6751 4399 0.00739842
6750 9468 0.445965
6750 9467 0.445965
6750 5949 0.107108
6748 719 0.166522
6748 569 0.166492
6747 569 0.310781
6746 453 0.135404
6746 9463 0.135404
6746 9142 0.135404
6746 25 0.135268
6746 9461 0.135404
6746 1694 0.0514972
6745 1694 0.999037
3712 9448 0.249642
6743 10 0.333005
6743 3636 0.333016
6742 2399 0.00719393
6740 9458 0.334462
6739 9456 0.618607
6739 3126 0.38043
6738 3126 0.999037
5663 130 0.215055
4839 1725 0.219028
4839 85 0.218875
4839 3126 0.12378
243 35 0.125276
6737 9455 0.26102
6737 1039 0.26102
5 2063 0.169094
5442 2066 0.332483
6735 240 0.243343
6735 714 0.251897
6734 69 0.248886
6734 2199 0.249988
6734 9452 0.250082
6734 9451 0.250082
1222 74 0.249679
1222 1854 0.249786
1222 1880 0.249786
6732 9448 0.348985
6732 2042 0.348921
6731 240 0.166498
6731 239 0.166508
6731 2459 0.166512
6731 387 0.166496
6731 9447 0.166512
6731 3014 0.166512
6730 2733 0.153548
6730 543 0.212792
6730 364 0.212792
316 2563 0.322904
3816 18 0.249752
3816 9446 0.249762
974 7287 0.0838188
974 9445 0.0838188
6 82 0.228344
6729 16 0.00103467
6729 9443 0.249501
6729 1694 0.249501
6728 76 0.168533
6728 134 0.168533
9 9171 0.142832
6727 8 0.3093
6727 9439 0.3093
230 9438 0.119849
230 601 0.00012674
6726 9171 0.499519
4156 332 0.249759
299 9171 0.120048
6725 1495 0.333498
5263 191 0.49496
6723 6 2.69402e-06
6723 9430 0.249759
6723 9431 0.249759
6723 794 0.249759
6723 2139 0.249759
3527 801 0.499504
6722 16 0.00148195
6722 9430 0.372691
6722 678 0.252174
1484 9429 0.143012
6721 100 0.199877
6721 2394 0.199642
6721 9428 0.199877
6720 896 0.999037
6719 896 0.171065
6719 2898 0.413986
6718 3576 0.332999
1250 2430 0.333012
1250 9425 0.333013
6717 2234 0.199938
6717 26 0.199287
6717 436 0.199936
3289 9424 0.213422
3053 9423 0.24985
3053 10 0.249487
883 7469 0.494709
883 1280 0.00961798
6716 1280 0.264233
6716 33 0.19586
297 9420 0.186499
297 332 0.186499
6715 9419 0.223437
6780 9517 0.999037
6715 2 0.223418
6715 5841 0.223437
6715 9418 0.223437
6715 501 0.105308
6714 102 0.166542
6714 10 0.166414
6714 9417 0.166542
6714 137 0.166524
6714 1277 0.166475
6713 4975 0.249759
6712 137 0.333206
6711 229 0.333012
6711 9413 0.333012
6710 6681 0.499519
342 9411 0.330931
2037 9411 0.000315608
342 444 0.00481587
2037 712 2.30451e-06
4367 444 0.238906
6709 2563 0.249703
6709 9409 0.249817
6709 8023 0.249809
6708 9408 0.333167
6708 1960 0.333051
6708 112 0.33282
6599 678 0.200236
6599 25 0.200011
6707 9405 0.26118
6707 9404 0.26118
6707 678 0.215498
5333 578 0.166339
5333 9403 0.166351
5333 2430 0.166351
5333 9402 0.166351
5333 55 0.00125044
6705 9401 0.204888
6705 9400 0.204888
1562 19 0.317864
3960 254 0.244418
3960 25 0.0814661
6704 9397 0.577114
5127 3749 0.250547
5127 72 0.241255
1993 9395 0.946441
6703 64 0.263473
6703 9394 0.263473
6703 9393 0.263473
6703 78 0.0223386
6702 9392 0.16652
6702 8901 0.166521
6702 2 0.166517
6701 9391 0.333274
6701 9390 0.333274
6701 249 0.332489
6700 601 0.999037
1458 543 0.000169894
4823 543 3.88551e-05
4823 444 0.0934222
4823 9389 0.301914
4823 9388 0.301913
6699 9387 0.333012
6699 9386 0.333012
6699 9385 0.333012
4762 9383 0.199756
4762 100 0.199756
4762 23 0.000258836
2302 9383 0.178336
2302 8464 0.178336
2302 249 0.00639892
481 9382 0.169422
481 7235 0.169422
4449 1092 0.249468
4449 5273 0.24989
4449 9380 0.24989
6617 9379 0.499552
6617 3848 0.499485
6170 83 0.105963
6170 332 0.105967
6170 9378 0.105967
6170 16 0.208001
6698 9377 0.249795
6698 9376 0.249795
6698 82 0.249709
6697 9375 0.556416
6696 9374 0.999037
6695 498 0.0982342
6695 182 0.450312
6695 9374 0.450491
3828 69 0.225529
3828 25 0.257786
3828 9373 0.257861
3828 9372 0.257861
6694 3660 0.249671
6694 498 0.249671
6694 9371 0.249671
6694 25 0.249476
6693 25 7.26171e-06
6693 71 0.498949
5917 9369 0.37133
5917 9368 0.37133
6691 9366 0.337664
6691 9365 0.323527
6690 16 0.775901
6690 9364 0.157504
1812 9364 0.442812
1812 5155 0.492274
6689 380 4.51543e-05
6689 25 0.165973
6689 2139 0.166677
6689 2430 0.166677
6689 9362 0.166677
6689 333 0.166312
6688 9360 0.31113
6688 141 0.311021
6687 9361 0.00172463
5188 488 0.0421279
4860 9360 5.04043e-05
4860 216 0.329844
6686 6343 0.240695
6686 9358 0.240695
6686 9357 0.240695
6685 2032 1.26284e-05
6685 141 0.263067
6684 141 5.40257e-05
6684 2471 0.332995
6683 9354 0.333012
6683 5664 0.333012
6682 9353 0.333037
6682 9352 0.333037
6681 1727 0.514974
6681 942 0.484063
6680 9351 0.499519
6679 9350 0.249161
6679 9349 0.249161
6679 7481 0.249161
6678 9348 0.499759
6678 2117 0.499278
957 9347 0.245463
957 1777 0.245463
2329 239 0.256251
6677 16 0.468023
6677 9344 0.531014
6676 9342 0.306686
6676 2250 0.345886
675 9342 0.356559
2161 9341 0.16021
6832 2669 0.2498
2161 9340 0.16021
675 9339 0.319122
6675 9337 0.258498
6675 2758 0.25837
6675 112 0.22521
6674 2876 0.193112
6674 55 0.194531
6674 233 0.203799
6673 2733 0.333012
6673 763 0.333012
6672 55 0.550604
6669 9333 0.326373
6669 5866 0.326373
6669 1960 0.325746
6669 8108 0.0205465
6637 8108 0.000852326
6637 971 0.332793
6637 3899 0.332792
6754 55 0.410645
6668 451 0.243485
4708 9332 0.232353
4708 1346 0.232178
3982 9330 0.256489
3982 105 0.229658
1650 9329 0.249727
6667 9327 0.200074
6667 3899 0.200074
2952 9325 0.23513
2952 28 0.234405
2009 9324 0.990783
6666 1694 0.313022
2952 9322 0.235116
2952 293 0.0447349
6665 9321 0.301189
6665 9320 0.301189
1687 9319 0.974542
6664 9319 0.0704769
6664 2571 0.185712
6664 594 0.185712
6664 593 0.185712
6663 10 0.444308
6662 10 0.0648243
2050 9316 0.249767
2050 9315 0.249767
2050 9314 0.249756
6661 9313 0.488215
6661 25 0.48807
6661 16 0.0174762
6661 9312 0.00527569
6660 8113 0.500797
6660 238 0.00285418
6659 9311 0.249785
6659 4107 0.249681
6658 187 0.26659
6657 9309 0.508186
596 758 0.00236315
596 194 0.991856
5686 8472 0.388362
5686 9308 0.388361
4586 6438 0.334018
4586 593 0.333969
4586 9307 0.33105
5387 9307 0.0472029
6656 583 0.33302
6656 834 0.33302
6656 8 0.332987
6655 8 3.55833e-05
6655 6 0.288408
6655 3020 0.355297
6644 240 0.249767
6644 8904 0.249767
6644 747 0.24974
6644 143 0.249763
3626 644 0.0832532
6654 2445 0.166513
6654 380 0.166478
6654 4 0.166513
6654 9305 0.166513
6654 4360 0.166513
6654 19 0.166508
6653 4360 0.333459
6653 9304 0.333459
6653 730 0.332119
1931 9303 0.166644
1931 9302 0.166644
1931 9301 0.166644
6652 9300 0.249765
6652 2763 0.24974
6651 253 0.339492
6651 9298 0.339492
6651 100 0.319868
6649 100 0.0004682
6651 1640 0.000185886
6650 1640 0.88055
6649 1640 0.224236
6658 2756 0.198967
6649 9297 0.387377
6649 2005 0.386957
549 9296 0.199822
549 75 0.199748
549 9295 0.199822
549 28 0.199818
6648 69 0.426296
6647 9294 0.999037
90 9339 0.000490738
6646 1763 0.253801
6646 55 0.237707
6506 126 0.249852
6506 9293 0.249852
6506 9292 0.249852
3549 744 0.199604
3549 33 0.199563
5368 126 0.28899
6645 1539 0.24974
6645 9290 0.249767
6645 6438 0.249767
6645 288 0.249765
5747 9289 0.335216
5747 33 0.328596
6643 9286 0.376563
6643 85 0.376339
3260 1694 0.253202
3306 9286 0.323639
3612 2657 0.199808
3612 9285 0.199808
1155 82 0.113915
3612 1680 0.199807
6641 9281 0.333012
6640 9279 0.499519
2605 62 0.000354236
3895 16 0.581687
6638 9277 0.333024
6638 444 0.333023
521 9276 0.333012
521 9275 0.333012
521 9174 0.333012
1832 69 0.332202
1832 9274 0.333418
6636 3150 0.263849
6636 1971 0.26385
6636 25 0.263749
6636 1258 0.20737
6635 1258 0.0966259
6636 9273 0.000219819
6635 9273 0.451018
6635 9272 0.451394
5195 9271 0.996997
5195 10 0.00204062
2992 2890 0.144395
6634 8493 0.200399
1009 9266 0.000233203
6633 4637 0.0332124
6632 4637 0.999037
6631 9261 0.999037
6630 9261 0.388686
6630 9260 0.424593
6630 1694 0.185758
6628 9257 0.333012
6628 9256 0.333012
6627 62 0.452405
6627 9253 0.0942266
6626 9253 0.44447
6623 9251 0.999037
6622 9250 0.250805
6622 9249 0.250805
6622 9248 0.250805
6491 9247 0.265589
6491 9246 0.207843
6621 9246 0.999037
6620 9244 0.207652
4117 9243 0.318138
6619 2938 0.196655
6619 9242 0.267521
6619 1694 0.26752
6618 3218 0.199808
6616 6 0.000824225
6616 9238 0.332738
6616 9219 0.332738
6616 9237 0.332738
176 9235 0.173077
6615 509 0.249918
6614 9232 0.301011
6614 9231 0.301011
6614 1694 0.0963146
4968 436 0.331408
4218 9230 0.223436
4218 1694 0.0865926
6613 1694 0.999037
3844 4280 0.155828
3844 82 0.0565969
3844 9228 0.156014
3844 9227 0.156014
6612 5280 0.333039
6612 239 0.332958
4432 9226 0.355402
4432 3923 0.355414
6611 112 0.388215
1177 222 0.0308479
1177 1374 0.147658
1221 1180 1.47469e-05
1221 9223 0.25884
1992 272 0.0318063
1990 272 2.87487e-05
1990 9222 0.142411
6610 133 0.333012
6610 267 0.333012
6609 9219 0.333015
6608 9218 0.499525
6608 670 0.499513
6607 9217 0.386879
6607 9216 0.386879
6606 3427 0.212839
6606 9215 0.385651
6606 9214 0.385651
3151 4520 0.175949
3151 7712 0.175949
15 9213 0.0813037
15 9212 0.0813037
15 254 0.162607
6605 69 0.492522
6605 9211 0.477039
6603 9211 0.00093618
6605 9210 0.0294761
6603 9210 0.998101
6602 69 0.059069
2243 751 0.380491
2243 9206 0.380491
2243 238 0.238055
1727 995 0.330868
6601 7702 0.332916
6601 9204 0.000352026
4651 1694 0.333002
6598 9200 0.261494
6598 9199 0.261494
2192 76 0.202564
2192 233 0.202565
576 2099 0.199251
6596 9195 0.354916
5485 9194 0.316846
5485 9192 0.158423
5485 1684 0.048617
1009 1684 0.538546
1009 238 0.460258
6595 8355 0.33293
6595 2402 0.333135
6595 2679 0.332973
6594 9191 0.999037
1319 509 0.188851
1319 732 0.000695363
6593 6 0.278665
6593 9189 0.360186
6593 8742 0.360186
6592 1427 0.280477
6592 9188 0.280477
6592 1759 0.156754
6591 1759 0.999037
3391 1759 0.0429496
6592 8 0.000851432
3391 8 0.952451
874 9186 0.375839
874 754 0.235184
6590 9185 0.249736
6590 3460 0.249736
6590 2191 0.249736
6590 4332 0.249736
6589 9184 0.249636
6409 9183 0.330824
6588 9182 0.404711
6588 6191 0.404711
6588 9181 0.189615
6587 9181 0.999037
3693 8 0.0967216
3693 9179 0.0967216
5805 9178 0.328978
6586 9177 2.90978e-05
6586 6 0.00142488
6586 2359 0.49849
6586 315 0.499094
6585 46 0.249759
6585 9174 0.24976
6553 9173 0.166506
6553 892 0.166506
6553 3373 0.166506
6759 9488 0.333012
6553 9172 0.166506
6584 2553 0.163138
6584 1259 0.0223931
6584 6157 0.163138
6584 5755 0.160956
6583 2733 0.142746
6583 9169 0.142746
6583 18 0.142732
6583 2811 0.142611
6583 33 0.142713
6582 4965 0.249787
6582 10 0.249677
6582 9168 0.249787
5222 9167 0.0945199
6581 9164 0.237519
2397 9164 0.972841
6580 9163 0.751226
6579 9162 0.999037
6578 269 0.258299
6578 267 0.224507
6577 2398 0.178454
6577 3362 0.178337
6577 9160 0.178484
6577 9159 0.178484
6577 2395 0.106793
51 9158 0.000206875
6576 3023 0.249736
6576 10 0.249666
6576 391 0.000163002
4903 3262 0.196772
6575 6083 0.332995
6575 42 0.332995
6575 4505 0.332995
6574 9154 0.360593
6574 33 0.277852
86 2568 0.0925152
6573 2095 0.333061
6573 5680 0.333029
6573 9152 0.332931
6572 9152 0.000122057
6573 982 1.64343e-05
6572 62 0.249732
6572 9151 0.249732
6572 9150 0.249732
2527 9585 0.255181
6571 9148 0.333195
4028 9147 0.180554
4028 26 0.179818
6570 9146 0.333012
6569 9145 0.499519
6569 3137 0.499519
6568 9144 0.249605
5599 9460 0.166894
6568 9143 0.249605
6568 9142 0.249605
6568 500 0.249424
6568 9141 0.000798968
4839 9141 0.437355
3838 69 0.182028
6567 8275 0.275374
6567 19 0.172915
2929 9138 0.249796
2929 9137 0.249796
6566 9136 0.167082
6566 9135 0.167082
6566 28 0.164348
6566 9134 0.167082
6566 9133 0.167082
6566 4 0.000311095
3171 993 0.16666
6565 4577 0.395834
6565 9129 0.395834
6565 601 0.207369
6564 845 0.168532
6564 6583 0.168532
6564 72 0.156377
6564 735 0.168532
6564 9128 0.168532
6564 5338 0.168532
6563 33 0.499509
6362 9126 0.200868
6562 559 0.333012
3208 1022 0.332969
6561 9121 0.333012
6560 642 0.575365
3868 642 4.11386e-05
2418 2172 0.30492
6560 9120 0.423672
2418 9120 0.389198
2418 9119 0.30492
6559 9117 0.249693
6559 9116 0.249693
6559 9115 0.249693
6558 9114 0.551345
6556 33 0.240378
6555 33 0.999037
6554 9110 0.333876
6554 25 0.333821
6553 25 0.166509
6554 9109 0.33133
6554 9108 1.09876e-05
3872 9108 0.0967535
6551 6 0.107092
6551 9106 0.238214
6550 9106 0.999037
1535 9103 0.24988
4551 9102 0.11101
4551 521 0.110956
4551 742 0.11101
2738 9101 0.296598
2738 23 0.296052
2738 9100 0.296599
2738 601 0.109788
6548 1414 0.262871
6548 2510 0.262871
6548 1436 0.210424
6547 9098 0.39623
6546 184 0.249641
6546 448 0.249641
6546 16 0.000471849
6545 3262 0.250235
6545 9096 0.250386
6545 662 0.250383
6545 9095 0.248034
6544 5688 0.497183
6543 3055 0.332069
6542 4 0.334307
4166 9090 0.676399
6540 1824 0.332991
6539 69 0.604734
6537 46 0.246328
6537 143 0.250802
4074 2419 0.15334
4074 3489 0.153489
6536 9085 0.249775
6535 678 0.250858
6535 16 0.0347151
6535 1641 0.250783
6535 1640 0.211639
6534 10 0.000209679
6534 2234 0.394395
6534 9083 0.210024
6533 9083 0.999037
6532 229 0.329312
6531 325 0.176635
6530 325 0.999037
2055 956 0.0996109
1995 9078 0.200813
1995 9077 0.200813
1995 2334 0.200813
1995 5709 0.200813
6529 7287 0.329815
6529 730 0.00960734
2980 9075 0.117082
6528 9073 0.252541
6528 16 0.241414
6528 9072 0.252541
6527 55 0.00112497
6527 436 0.997912
6526 3963 0.333013
6526 23 0.333011
6526 3962 0.333013
6525 3961 0.421322
6525 94 0.420333
6524 94 0.000897789
6525 652 0.157383
6524 652 0.238075
6524 2231 0.380032
6524 254 0.380032
6523 9071 0.333033
6523 6032 0.332971
6523 9070 0.333033
6522 1414 0.397788
6522 10 0.198821
6521 9067 0.013583
6498 9067 0.332081
6498 25 0.333462
6498 362 0.333494
6520 253 0.333012
6520 9066 0.333012
6520 33 0.333012
1485 8013 0.333428
1485 10 0.332181
6519 9064 0.249812
6519 9063 0.249812
6519 25 0.249757
6828 9612 0.456195
2799 238 1.18769e-05
741 25 0.126629
6516 9061 0.249759
5831 9060 0.207596
5831 9059 0.207596
5831 593 0.207536
5831 892 0.207549
5831 876 0.168761
6515 9058 0.333248
6515 708 0.333233
6515 1694 5.98382e-05
6514 240 0.210802
6514 4938 0.262792
6514 757 0.262948
6513 5999 0.111004
6512 16 0.999037
6513 9055 0.111004
6513 2898 0.111004
6513 3576 0.111004
6513 9054 0.111004
6513 971 0.111004
6513 2864 0.111004
6 7287 0.580229
136 9053 0.227212
136 194 0.244735
4293 5393 0.333011
6511 3507 0.00247692
6511 6390 0.249259
6511 23 0.24921
6511 4522 0.249259
6510 9050 0.262743
6510 365 0.262743
6510 1727 0.262743
6509 2917 0.933746
6509 19 0.0652911
4520 453 0.0749408
4520 9049 0.237194
4520 691 0.237194
297 31 0.186499
4728 5608 0.333619
4951 3029 0.228026
4951 4 0.257003
4951 608 0.257004
4951 9047 0.257004
6508 240 0.249739
3815 4600 0.199835
3815 9025 0.199835
6507 9042 0.450493
6507 730 0.449817
6507 451 0.098728
421 5389 0.298983
110 9041 0.249818
110 1147 0.249818
110 4538 0.249583
676 9039 0.281335
5525 145 0.378184
5525 286 0.230052
5850 1694 0.710942
6505 69 0.0776603
6504 69 0.161455
6504 122 0.418791
6212 387 0.24973
6212 9034 0.249769
6212 9033 0.249769
2961 16 0.392284
6212 9032 0.249769
6503 25 0.249239
6503 9030 0.249547
3164 1235 0.123811
3164 167 0.124465
3164 9029 0.124498
6502 9028 0.333033
6502 9027 0.333033
3126 203 0.00184672
3126 482 0.249212
3126 9026 0.249324
6501 589 0.166503
6501 1323 0.166511
6501 9023 0.166511
6501 33 0.166501
6500 3411 0.194907
6500 9022 0.201033
6500 426 0.201033
6499 6 0.124925
6499 1183 0.291304
5391 9019 0.981894
5391 1183 0.0171436
768 4956 0.166439
5431 42 0.000247901
6497 8911 0.333148
6493 9015 0.0168541
2912 4179 0.198079
4930 33 0.499491
5587 9011 0.333107
3837 9009 0.475494
3837 9008 0.0287642
6496 9008 0.326219
120 9006 2.46138e-06
2134 5280 0.183042
2134 239 0.182851
6494 1610 0.568698
6493 7528 0.19656
6493 10 0.195942
6493 4309 0.196565
6492 167 0.333365
6492 436 0.332228
554 737 0.16495
6491 6 0.232749
6490 9000 0.230021
6490 8998 0.256339
6490 8997 0.256339
6489 7598 0.250107
6489 2005 0.248816
6488 8996 0.266122
6488 8995 0.266122
6486 8994 0.337908
6486 8993 0.337908
2395 8992 0.120518
2395 249 0.87852
6469 1418 0.31785
6469 10 0.317798
6469 8991 0.31785
6485 8990 0.333012
6485 8989 0.333012
6484 8988 0.330536
6484 8987 0.330501
6483 8987 0.000324488
6484 451 0.00746491
6483 451 0.998713
5516 8986 0.497636
6482 2624 0.00445622
6482 8985 0.518171
6481 8985 0.0663299
6481 3059 0.466354
6481 6170 0.466354
6480 298 0.199752
2566 3576 0.134414
2842 8983 0.382426
2842 1147 0.382426
6479 8982 0.253179
6479 6 0.239499
6479 2942 0.253179
6477 3773 0.45548
6476 547 0.364016
6476 130 0.270873
6474 130 0.00131843
6475 3374 0.473194
6474 3374 0.278119
6474 1280 0.3598
2745 1474 0.124943
6473 8975 0.334658
6472 3072 0.0235003
6473 1694 2.41869e-05
6472 1694 0.975537
6471 267 0.410649
6471 8973 0.410649
6471 1694 0.17774
6470 8972 0.249759
1678 8969 0.151477
6468 42 0.333012
6467 700 0.499519
6466 8965 0.499519
4612 7842 0.171242
6465 482 0.249419
6465 8961 0.249873
6465 8960 0.249873
6464 8959 0.206682
6464 8958 0.206682
6464 6 0.000393347
6464 8938 0.206682
6464 8957 0.171914
2887 8957 0.106157
6463 1012 0.199808
6463 8953 0.199808
4367 962 0.238795
5292 78 0.0989468
5292 444 6.72024e-06
5292 238 0.146576
5292 8952 0.1627
6462 834 0.983167
2538 652 0.14272
2538 8 0.285439
2538 619 0.14272
6460 6463 0.195673
6459 8946 0.314462
6459 8945 0.314462
6459 7021 0.314462
6430 55 0.185106
6430 1391 0.185434
6430 112 0.0721961
6458 8944 0.497442
6458 4039 0.497442
6458 115 0.00415297
6457 8943 0.998759
6456 8943 0.248063
6456 8941 0.272899
6456 954 0.205177
6455 954 0.999037
6201 315 0.192232
4685 8939 0.111004
4685 444 0.111004
4685 583 0.111004
4685 8936 0.111004
3900 625 0.223682
4896 8933 0.498065
6453 2807 0.325839
6453 662 0.297796
6454 1791 0.333023
6454 444 0.332992
6454 8931 0.333023
3354 564 0.204142
6537 1295 0.250954
3354 8930 0.204142
6452 240 0.264041
1993 2760 1.35232e-05
6810 3820 0.221848
6450 155 0.207314
6450 1692 0.207329
6449 583 0.249759
6449 444 0.249759
6449 2234 0.249759
6449 8928 0.249759
6448 8927 0.220899
6448 8926 0.220899
6448 10 0.358273
801 69 0.0860522
801 8925 0.0861937
801 436 0.0856597
252 8924 0.19984
6447 8923 0.333122
6447 10 0.332841
4565 267 0.333012
6446 49 0.375231
2768 8921 0.265374
2768 8478 0.265374
2768 1018 0.265339
2768 444 0.178828
6444 444 0.00186414
6444 1306 0.493457
6443 8919 0.270256
6443 4575 0.270256
6443 712 0.18827
6442 712 0.999037
6441 8918 0.200296
6441 3576 0.198698
6441 249 0.198988
6441 8917 0.200527
6441 719 0.200527
6440 8915 0.249761
6440 3576 0.249754
6440 1180 0.249761
1049 8914 0.249759
1049 8913 0.249759
1049 444 0.249759
1049 1936 0.249759
6439 8912 0.314454
6439 2616 0.314454
6439 1640 0.314454
6439 19 0.055675
6438 8911 0.333477
6438 675 0.332377
6438 732 0.333184
795 8910 0.162462
6437 191 0.00107323
6437 133 0.249664
6437 8908 0.249664
2051 1655 0.333015
2051 414 0.333015
1175 2401 0.190935
6436 74 0.16668
6436 8907 0.166682
3248 967 0.166507
6436 1861 0.166682
6436 787 0.166682
6436 8905 0.165628
626 8904 3.99548e-05
1709 8904 0.145845
6435 8902 0.394319
6435 4788 0.205745
6433 8899 0.249774
6433 625 0.249724
6433 33 0.249766
6432 10 0.224076
6252 2867 0.199812
6252 301 0.199812
3215 6343 0.999037
6431 8896 0.283477
6430 8894 0.370868
6429 10 0.31858
6429 625 0.0401833
6428 625 0.465649
6426 444 0.332758
6426 8888 0.332758
1492 3115 0.164814
6424 8886 0.0110849
6425 25 0.182018
6424 25 0.204935
6424 23 0.260884
5963 238 0.248417
5963 282 0.249982
6423 8881 0.249983
6423 8879 0.249083
6422 8879 0.000718967
6422 8878 0.199671
6422 282 0.199645
6422 8877 0.199676
6421 8875 0.25032
6421 1968 0.250276
6421 23 0.249196
113 8874 0.0278746
113 8873 0.13856
3558 652 0.199808
3558 717 0.199808
3558 5792 0.199808
6420 69 0.249659
6420 73 0.249784
6618 204 0.199808
113 3784 0.277121
113 3014 0.138559
6417 1968 0.249662
6417 601 0.249792
6241 1018 0.127065
6241 3231 0.126982
6416 444 0.00322128
6414 414 0.249487
2576 8857 0.238719
1902 8852 0.249787
1902 1018 0.249677
3947 8850 0.498544
1010 8850 0.000612396
1010 8849 0.151853
6413 6 0.0468099
6413 8846 0.42003
6413 23 0.112169
1372 444 0.249759
1372 8844 0.249759
1372 8843 0.249759
29 453 0.142343
6412 8841 0.333012
6412 8554 0.333012
6412 8840 0.333012
6411 8839 0.271887
6411 8838 0.271887
6411 5906 0.183398
6410 5906 0.999037
907 8837 0.167494
6408 8834 0.999037
6407 8834 0.191778
6409 8836 0.666122
6407 8836 0.40226
6407 8835 0.404999
6406 8834 0.25546
6405 8832 0.227564
6405 4038 0.771391
6405 8831 8.25605e-05
1241 7287 0.200467
2576 414 0.0230066
1241 414 0.19717
4820 8829 0.168459
4820 8828 0.168459
6404 8826 0.442847
6404 8827 0.442847
6404 732 0.113344
6403 625 0.457029
6403 8826 0.457039
6403 414 0.019142
6403 451 0.0658275
6402 444 0.0712986
6402 2074 0.927739
6401 8824 0.282152
6401 1968 0.282091
6401 3117 0.282152
6401 238 0.152643
6400 2666 0.186934
6400 8823 0.186934
6400 521 0.186364
6400 8822 0.186934
6400 8821 0.186934
6400 1470 0.0649398
6473 3072 0.329697
1687 444 0.0244955
994 2258 0.302496
6399 8820 0.295274
6399 16 0.350982
6399 2981 0.352782
6106 2640 0.150391
166 5727 8.3718e-05
4892 5727 2.01729e-05
5770 675 0.332845
5770 143 0.332845
5770 667 0.000127025
695 667 0.332259
5636 8819 0.14274
6398 8818 0.199829
6398 4940 0.199829
6398 8817 0.199829
6398 730 0.199721
6398 8816 0.199829
3430 8815 0.112216
601 6584 0.333012
601 8813 0.333012
601 8812 0.333012
6396 8811 0.0229399
6395 10 0.249573
6395 8808 0.249821
6394 8806 0.349582
6394 444 0.349534
6394 65 0.299921
3787 69 8.86917e-06
3787 3576 0.332963
3787 8805 0.333028
3787 8804 0.333038
3300 6880 0.252436
3300 2763 0.241729
322 1183 0.192971
322 233 0.198595
322 8802 0.198595
322 1581 0.198583
4599 3072 0.242
4599 293 0.0310375
6393 2408 0.166506
3879 8795 0.249791
3879 3576 0.249763
1709 8903 0.145858
6392 3056 0.249551
6392 8793 0.249829
6392 8792 0.249829
6391 8791 0.335623
6391 1609 0.335623
6391 8790 0.323489
6390 8790 0.0353768
6391 1581 0.00430244
6390 1581 0.96366
6389 8054 0.352426
6389 254 0.293978
6389 444 0.000133632
6388 444 0.456924
6388 8788 0.464926
6387 457 0.199584
6387 8787 0.199584
6387 730 0.199471
6387 901 0.199584
6386 1379 0.333012
6386 8373 0.333012
6386 8785 0.333012
6200 8784 0.156092
6385 1376 0.258683
6384 8783 0.333068
6384 8782 0.333062
1274 3957 0.249816
1274 85 0.249587
6383 8779 0.396565
6383 8778 0.396565
6382 229 0.165843
6382 1828 0.165778
6382 754 0.00394936
6381 2274 0.249759
6381 8777 0.249759
953 8776 0.142903
6380 6 0.149034
6380 5071 0.283269
6380 8108 0.283367
6379 74 0.334621
6379 8775 0.334621
6379 3423 0.329796
1520 652 0.492838
1520 444 0.025086
994 444 0.289679
1684 444 0.279204
1684 1014 0.355571
6378 2000 0.25119
6378 8772 0.251335
6378 8771 0.245305
6377 8771 0.0118439
6377 8769 0.493597
6376 4357 0.199814
6376 8768 0.199814
6376 238 0.199814
6376 8767 0.199782
6375 8767 0.000299459
6375 19 0.998738
6374 19 0.999037
6172 155 0.199916
6172 4293 0.199916
6172 444 0.199679
6172 3694 0.199916
6172 4805 0.19961
1905 5240 0.249806
1905 2230 0.249595
6372 8765 0.24979
6369 2199 0.347041
1506 2199 0.512958
6369 8764 0.346304
6371 8763 0.513689
6370 8763 0.025178
625 3957 2.64414e-05
6368 444 0.199811
6205 8757 0.344221
6205 8756 0.344221
1268 8755 0.47688
1268 8754 0.476966
6367 8753 0.333019
6367 10 0.332999
6367 1159 0.333019
6366 28 0.280019
6366 180 0.158482
5824 1847 0.195676
5824 42 0.195661
5824 6535 0.195671
6364 8748 0.999037
6210 3104 0.166614
6210 3820 0.166614
6210 8747 0.166571
4069 8747 0.000259049
6210 8746 0.16601
6210 8745 0.333228
6362 336 0.401735
6362 10 3.87245e-06
6361 8744 0.499508
6360 8743 0.333012
6360 8742 0.333012
3122 661 0.000103287
6359 2271 0.476575
6357 2271 0.0147649
6357 3961 0.507423
6358 8741 0.249773
6358 8740 0.249718
6689 9363 0.166676
6358 4283 0.249773
6358 581 0.249773
6356 8738 0.461552
2192 9198 0.202564
6356 760 0.075934
6354 801 0.332842
3649 8737 0.162312
6353 8735 0.249907
6353 8736 0.249907
6352 238 0.333004
6352 4 2.5021e-05
6351 102 0.340454
6351 42 0.305814
6350 42 0.0492118
6351 2516 0.0123417
6350 8735 0.48368
6349 1791 0.249762
6349 543 0.249751
6349 1429 0.249762
6687 732 0.997313
6349 8734 0.249762
6688 732 0.0661808
606 8731 0.100495
482 2771 0.248331
6348 8731 0.221991
6348 2923 0.111204
6348 19 0.221861
6348 8733 0.221991
6347 4727 0.169
6347 2401 0.134894
6347 1684 0.169
6347 8730 0.169
6347 737 0.168875
6345 49 0.332753
6345 249 0.000103917
6344 498 0.270495
6344 111 0.364224
6344 8725 0.364318
5341 6367 0.166599
6384 1581 0.332907
5341 4003 0.166573
5341 10 0.166069
5341 8724 0.166599
6307 8723 0.167076
6307 4 0.164608
6307 7488 0.167076
6307 2032 0.167076
3135 8722 0.166508
6343 51 0.249794
2323 158 0.237521
2323 8719 0.277513
6342 8718 0.27501
6342 607 0.274852
6342 8717 0.27501
6342 5566 0.174166
6341 1376 0.352805
6341 8716 0.352805
6340 6935 0.333012
6340 6717 0.333012
463 8715 0.199316
463 6458 0.199281
5234 6458 3.52027e-05
463 8714 0.000467856
6629 46 0.332997
2302 8713 0.178336
2302 3122 0.178336
2302 293 0.101379
591 8712 0.333017
1902 8853 0.249787
591 1429 0.333004
6339 8710 0.333013
6338 69 0.354922
6338 8709 0.355225
6336 8707 0.499519
6336 8706 0.499519
6335 4128 0.464824
6335 229 0.0395644
6334 229 0.321091
6333 1386 0.242084
6393 8799 0.166506
6333 967 0.242084
6333 3548 0.242084
6333 8704 0.242084
4747 8703 0.998505
6333 8703 6.0102e-05
6276 4600 0.170095
6276 240 0.170094
6333 1018 0.0306398
6276 1018 0.318657
6276 8701 0.170096
6332 8700 0.333027
6331 2 0.398253
6331 143 0.198267
6330 143 0.999037
6329 8699 0.469459
6329 2876 0.469324
6329 55 0.0602544
2632 8698 0.199826
2632 8697 0.199826
2632 27 0.199826
3197 832 0.424408
3197 1876 0.424414
3197 8695 0.150193
3197 1536 2.32604e-05
6328 1536 0.606893
6327 8070 0.270616
6327 543 0.27061
6327 444 0.270545
1693 8694 0.254025
6326 69 0.33229
6326 8693 0.333374
6326 8692 0.333374
3490 8691 0.499168
3490 242 0.499168
3490 2699 0.000702304
6325 6626 0.278568
6325 8690 0.278568
6323 5138 0.199811
6323 8689 0.199793
6323 8688 0.199811
6323 8687 0.199811
6321 2657 0.2498
6321 2663 0.249755
6320 1441 0.169914
6320 1047 0.169914
6320 713 0.169914
6320 55 0.165369
6320 8684 0.169914
6320 2401 0.154013
6319 8682 0.257761
6319 8355 0.257761
6319 3362 0.225754
6318 832 0.199807
6318 2666 0.199808
6318 8681 0.199808
6318 581 0.199807
5826 19 0.100941
6317 1052 0.275235
6317 8678 0.275235
6317 49 0.173332
5531 49 0.00897034
6637 10 0.3326
5531 8677 0.49414
587 8677 1.29939e-05
587 3928 0.500469
5114 8676 0.262023
6821 74 0.334955
6316 1133 0.249759
6316 370 0.249759
6316 1176 0.249759
6316 1227 0.249759
6315 1295 0.200694
6315 5319 0.200694
6315 238 0.196263
6170 2430 0.105967
3964 5319 0.249726
5357 315 0.332959
3964 708 0.249649
6314 227 0.197337
6314 3770 0.197306
6314 51 0.0128304
6313 207 0.0320154
6313 13 0.0408018
6312 8673 0.249764
6656 6 1.07451e-05
6312 3996 0.249764
6312 8672 0.249764
3325 8671 0.257833
6622 4 0.246621
3325 46 0.225041
6311 1292 0.4789
6311 5853 0.0412011
6310 5853 0.481114
6309 49 0.255046
6308 2269 0.498203
6308 12 0.00111859
4253 3907 0.143081
4253 3334 0.143081
4253 8668 0.14308
6304 662 0.333083
6304 1221 0.332871
4254 8664 0.199808
4254 5585 0.199807
6302 55 0.000217716
6302 293 0.99882
6300 267 0.199751
6300 1226 0.199751
6300 5566 0.000309615
6299 6298 0.166885
6332 7388 0.332987
6299 8659 0.166885
6299 8658 0.166855
1736 8657 0.249759
1736 5668 0.249759
1736 8655 0.249759
6298 817 0.251311
6298 662 0.251146
6297 8654 0.0114414
6741 2399 0.00159195
6740 2399 0.329998
6297 4285 0.472159
6297 2074 0.463595
6298 229 0.251359
5717 229 0.109929
4468 8653 0.490194
4468 760 0.490121
6296 16 0.000147711
6295 184 0.249759
6295 8651 0.249759
6295 5133 0.249759
6294 8650 0.999037
6292 238 0.00340781
6292 732 0.0130263
6291 8646 0.33103
6291 1757 0.33103
6291 8645 0.331015
6291 2149 0.00596272
3071 8642 0.499519
6289 16 6.48946e-06
6288 16 0.240482
6287 8637 0.329043
6287 8636 0.329043
6287 249 0.0132045
4112 8635 0.181027
4112 601 0.0928462
6286 16 0.0700927
6286 8633 0.000869558
6285 8633 0.332599
6285 46 0.333214
6284 8631 0.333012
6284 942 0.333012
6283 229 0.200396
6283 794 0.200396
6283 85 0.197452
6281 2832 0.335022
6281 233 0.335022
6280 8626 0.357696
6280 5759 0.357696
6280 273 0.283645
6279 2711 0.250662
6279 8490 0.250662
6279 3423 0.24705
6278 8624 0.333037
6278 1084 0.332963
6278 8623 0.333037
6277 605 0.352005
6277 16 0.268931
6277 8621 0.026095
6275 8621 0.329623
6275 8620 0.356015
6275 7239 0.313399
2730 8619 0.238548
2730 19 0.00204763
5735 19 0.0113733
5735 995 0.293016
5735 69 0.293016
5735 1581 0.292948
1757 1881 0.108597
1757 112 0.108427
2718 6 0.73811
6274 6 0.0114227
2718 298 0.249733
6274 8618 0.357818
6274 2197 0.357818
6273 7879 0.321166
6273 229 0.321166
6273 4516 0.31735
6272 4516 0.0301691
6273 8617 0.0393563
6272 8617 0.956244
6271 8617 0.935019
6270 8617 0.167833
6270 42 0.831204
868 2815 0.332942
6269 8614 0.0742601
6268 333 2.50175e-05
6268 8613 0.499676
178 8612 0.111205
6267 238 0.249304
6267 4 0.24747
6267 8610 0.249555
6267 85 0.00315282
6266 62 0.14272
6266 8609 0.14272
6266 8608 0.14272
6266 8607 0.14272
6265 8606 0.333032
6361 3820 0.499508
3935 8604 0.000146889
3670 8603 0.0988434
3670 592 0.0955893
6264 8602 0.386749
6264 8601 0.386749
6264 730 0.225539
6263 8600 0.333012
6263 5836 0.333012
6262 6003 0.258499
6262 8598 0.258499
6261 8597 0.470013
6261 6759 0.470013
6259 238 0.998858
6258 238 0.411728
6259 8596 0.000179424
6258 8596 0.587309
6257 1694 0.03805
6256 1694 0.998915
6255 4975 0.333042
6255 8593 0.333042
6255 115 1.08762e-05
3333 8592 0.291458
3333 8591 0.291458
3333 586 0.285114
6254 586 0.00130756
6254 3390 0.99773
6500 2666 0.201033
6253 1818 0.246241
6253 82 0.0140733
6251 986 0.249605
465 4128 0.157227
465 3479 0.0103264
3374 3479 4.52163e-06
687 3479 0.223038
2493 832 0.329844
2493 1240 0.329844
6250 6 9.51799e-05
6249 8585 0.329056
6267 8611 0.249556
739 2419 0.110473
1308 90 2.17653e-05
1308 7528 0.00141838
1930 8582 0.28042
1930 2815 0.245281
3992 233 0.125379
6070 8578 0.24913
6247 8579 0.246816
6247 1357 0.250314
6247 1335 0.250133
1308 8578 0.00268011
6246 5744 0.0165066
6246 8577 0.436101
6245 8577 0.999037
6686 16 0.0362704
6244 1902 0.249654
6244 1424 0.249635
6243 8574 0.426777
6243 3002 0.426776
6242 2244 0.23078
6242 5296 0.230782
6242 8574 0.230782
326 51 0.0016755
3900 238 0.281233
682 451 6.55352e-06
4572 64 0.252213
3518 2369 0.00826705
5334 8572 0.000865473
4722 6119 0.249759
4722 6118 0.249759
5334 70 0.249585
5334 241 0.249567
4311 5441 0.253132
4722 6117 0.249759
6240 8569 0.199808
6239 3023 0.16552
6239 25 0.164888
6239 2109 0.16552
3576 19 8.72579e-06
6239 8566 0.16552
6239 46 0.172529
3717 4540 0.347105
6238 593 0.249857
448 6681 0.498861
4793 238 0.118396
1960 8566 0.0829256
6237 8564 0.333042
6237 164 0.333042
5606 55 0.0991041
6236 2149 0.999017
1216 1248 0.203849
1274 8781 0.249817
6237 16 3.8981e-05
6236 16 2.05699e-05
1216 1247 0.203849
5172 3798 0.212612
6235 8562 0.250699
1274 8780 0.249817
6235 500 0.250692
4768 788 0.199697
6234 8561 0.333011
1221 1573 0.258839
6233 5307 0.278391
6233 42 0.278279
6233 2738 0.163978
6232 2738 0.999037
5179 8559 0.150361
5179 10 0.150003
5179 2305 0.150361
4984 229 0.288266
3850 1340 0.333
6231 391 0.225396
6231 16 0.000146245
6231 6 8.04699e-05
6058 444 0.019944
3586 8 0.265466
6102 444 0.199709
1091 8554 0.0100537
4295 892 0.166513
4295 8553 0.166513
6652 2437 0.249746
4211 114 0.199829
3835 2000 0.000282641
4295 1176 0.166513
4295 8551 0.166511
2117 2332 0.235866
5763 8550 0.317924
5763 316 0.317901
5763 55 0.310454
6230 25 0.251977
400 1579 0.249838
400 99 0.249838
1810 8547 0.159679
1436 8336 0.261095
2260 5656 0.199808
1764 335 0.199405
4283 7977 1.54636e-05
4997 8543 0.122664
459 115 0.190278
4997 2074 0.0375015
937 3016 0.0835202
6227 85 3.88179e-05
6226 85 0.239084
6226 317 0.0143444
6789 583 0.451538
1981 49 0.19944
6227 8540 0.253458
6227 8539 0.253457
5540 319 0.199814
6226 8538 0.242468
6225 1068 0.258605
6225 3481 0.258611
6225 229 0.0277871
6224 8537 0.331628
3290 3871 0.200027
4548 4089 0.173485
6224 283 0.331628
3229 6 0.000292109
6224 2419 0.000101022
5489 75 0.166521
2540 2855 0.328736
6224 188 0.00405146
1121 112 0.22153
6109 2657 0.321219
299 4677 0.120048
4440 2758 0.16763
6109 1424 0.320721
6221 8534 0.499518
4846 5427 0.199903
1232 2748 0.166515
2323 203 0.206399
6220 8533 0.499495
6795 6418 0.378304
6223 6909 0.499496
6222 16 0.999037
3463 4126 0.297568
6128 8411 0.14272
6174 2232 0.249758
6174 444 0.24976
6795 6417 0.241164
6174 8532 0.24976
3371 6 1.84039e-05
4331 49 0.00135252
2077 450 0.0958101
1505 5996 0.997988
2851 3104 0.167594
6217 1273 0.272971
6217 536 0.272971
6217 20 0.180125
6215 8527 0.299345
5555 7486 0.305872
6215 5949 0.299345
6215 8526 0.297882
6214 8526 0.0069225
6215 950 0.0961678
6213 1880 0.245635
3278 3859 0.329041
6213 4 0.0164994
3195 6 3.53084e-05
3883 19 0.000157386
3883 685 0.249739
5593 315 0.110534
3883 8524 0.249739
5988 4959 0.333012
3278 3858 0.329041
3883 8523 0.249739
3278 3857 0.329041
4887 1316 0.332986
3733 1213 0.250113
48 34 0.0907443
5018 241 0.142379
5018 19 0.142261
5018 560 0.142384
4158 5204 0.323344
5018 8520 0.142384
5018 10 0.000343845
5018 8519 0.142383
1859 1065 0.25286
5228 1610 0.249767
6103 8371 0.925565
6208 4 0.0569636
6208 2484 0.189419
6208 25 0.177125
1596 1253 0.0340651
6204 8518 0.385094
3168 46 0.332997
3168 8516 0.333005
6203 83 0.404212
6203 8515 0.404212
5018 233 0.144517
6203 3736 2.71332e-05
3813 892 0.020254
4710 8514 0.249688
4710 8513 0.249689
4612 49 2.23078e-06
4612 826 0.202704
6201 1435 0.230117
6200 1435 0.281425
6199 8511 0.415859
6199 1144 0.415737
4804 181 0.247758
6198 8510 0.249905
6198 8509 0.249905
6197 143 0.332881
258 112 0.216011
3792 1289 0.505211
6196 25 0.199673
6196 3437 0.199841
4938 239 0.427759
6196 457 0.199841
418 2486 0.493067
2693 3065 0.343931
6195 829 0.199779
6195 8504 0.199805
6195 730 4.11968e-05
6194 1694 0.999037
6193 8503 0.281995
6193 833 0.281995
6193 8 0.281995
5745 2657 0.166515
5624 564 0.142786
6193 8502 0.153053
6192 8502 0.995516
6192 842 0.00352177
6191 842 0.241248
6191 229 0.252599
6191 8501 0.252611
6191 911 0.252579
6190 8500 0.249818
1774 7193 5.06176e-06
6189 8499 0.367159
6189 8498 0.367159
6189 8497 0.0230811
6133 8497 0.717989
6188 1028 0.249759
6188 8496 0.249759
6188 8495 0.249759
4421 55 0.199313
3783 2606 0.316576
6101 46 0.137781
4834 6346 0.19912
6101 23 0.0154996
6187 6672 0.233361
6543 9092 0.331922
6187 1121 0.233361
6187 822 0.0656061
1376 3389 0.166548
6186 3063 0.249808
6185 8489 0.294693
6184 8489 0.00249095
475 62 0.928873
6185 8488 0.114072
6184 8488 0.379434
6184 112 0.617112
6183 8485 0.333012
6068 613 0.199808
6183 8484 0.333012
6182 2410 0.331895
773 3380 0.177254
6181 1183 0.221864
6181 876 0.777173
742 8480 0.204665
773 3379 0.187884
1458 788 0.209885
6180 8475 0.333882
6180 559 7.65914e-06
6179 559 0.250488
6179 55 0.247138
5481 8478 0.4745
6178 8477 0.557993
6177 8477 0.00179151
6178 8476 0.00267911
6177 8476 0.997246
2755 33 0.126633
2755 8474 0.231017
6176 6 0.295831
459 46 0.143527
6176 3423 0.348556
2259 500 0.249754
2651 9616 0.215167
5732 8471 0.14272
5732 1726 0.14272
1523 1617 0.333055
4855 2234 0.267158
4855 8470 0.267165
6173 8466 0.199821
4038 5481 0.266749
6173 8468 0.199821
1111 150 1.61465e-05
386 4587 0.0299097
6171 5728 0.312418
6170 6 3.89178e-05
6108 6 0.146654
6108 2890 0.285119
6169 712 0.325299
5676 8463 0.249843
5676 8462 0.249843
5676 8461 0.249843
4164 23 0.374222
6230 51 0.242954
6168 8459 0.266887
6168 3231 0.209564
1118 1138 0.281421
6168 732 4.9836e-06
2446 670 0.000448939
6778 3673 0.408337
6167 6 0.100777
6167 85 0.0754131
3455 4117 0.459788
6166 6 0.0601861
6166 2890 0.312953
3454 4116 0.464399
6165 1461 0.999037
6164 450 0.249759
6164 8456 0.249759
6164 5280 0.249759
6164 8455 0.249759
2492 8226 0.0051045
6163 825 0.00893604
6163 55 0.990101
6162 46 0.249739
6162 458 0.249766
573 1496 0.249923
573 3262 0.249912
3225 3650 0.150663
6161 3770 0.256374
6161 8453 0.256402
6160 2715 0.20073
6290 8644 0.335019
6160 1176 0.20073
463 25 0.199161
452 25 0.111325
6159 4003 0.296925
6159 4727 0.296957
3839 4716 0.24965
6157 835 0.24962
6157 33 0.249843
6156 8449 0.249784
6156 785 0.249784
1471 8448 0.249523
1199 130 0.117147
6445 444 0.939701
1471 3526 0.249523
6155 521 0.175149
6155 332 0.206019
6155 185 0.205825
6000 7199 0.487961
6000 137 0.510465
5513 7432 0.943122
6154 8446 0.333053
6154 2096 0.333053
6153 7151 0.493214
6153 10 0.0126091
6152 10 0.000100445
6152 42 0.332979
6151 4116 0.295298
2177 6000 0.158605
1167 8442 0.142852
4056 3885 0.332924
4306 4 0.249351
4164 4 0.249959
2681 2430 0.251644
3135 4603 0.166508
6150 8441 0.282626
3617 4342 0.351351
5495 2884 6.12292e-06
1949 2008 0.117782
2815 8438 2.65143e-05
1735 229 0.999037
497 457 0.333152
6148 8437 0.499519
5484 882 0.404507
6148 8436 0.499519
4192 444 0.273708
2387 376 0.34343
5877 737 0.198525
6146 1849 0.333041
6229 8546 0.420782
6146 1800 8.87229e-05
6145 1800 0.499322
2886 16 0.268837
745 670 0.99842
6144 4642 0.449455
6144 7739 0.100126
6143 7739 0.988904
6143 12 0.0101335
5310 112 0.0266223
6142 8430 0.3333
6142 85 5.70586e-05
6581 5399 0.25384
6141 6522 0.166506
45 750 3.12208e-05
3057 888 0.224201
79 3855 0.107953
79 436 0.106734
6139 6 0.278664
6139 1094 0.360187
6138 100 0.250375
6138 986 0.250293
6138 1108 0.247995
6137 8422 0.333068
6137 33 0.332901
2264 3608 0.325859
6136 8419 0.000184156
6135 204 0.24975
4986 6602 0.111414
2847 325 0.166512
3246 19 0.141391
6134 4767 0.165765
6134 3416 0.165631
6705 3623 0.204888
2178 2417 0.271364
6132 1913 0.275591
6132 229 0.274843
2979 425 0.142727
3728 8416 0.999037
5251 7000 0.28399
6131 49 0.00807422
6131 8414 0.429364
6131 8415 0.429364
6131 1694 0.132236
6130 1694 0.999037
6129 8414 0.166511
1071 2876 0.180415
4797 85 0.0669424
6732 2756 0.301132
6129 2813 0.166512
6198 2398 0.249905
6129 8413 0.166512
6129 6055 0.16648
6129 8412 0.166511
5155 6853 0.249621
6128 8410 0.14272
4498 2763 0.166507
6128 6971 0.14272
6127 8408 0.333057
1937 8407 0.333024
1937 888 0.33299
1937 2072 0.333024
676 655 0.281184
3874 8406 0.249753
3874 8405 0.249753
2614 2965 0.256124
1598 762 0.142726
6126 8403 0.321485
6126 8402 0.321485
6125 8401 0.245955
1092 82 0.0930452
6125 2199 0.245935
2203 6040 0.232064
6125 55 0.245822
6124 55 0.153932
6124 49 0.0514009
3493 92 0.367224
6124 8399 0.16099
2472 683 0.326413
2350 298 0.000306715
2612 2958 0.252678
2351 298 0.239192
6123 2775 4.28479e-06
6122 2775 0.50119
643 622 0.125205
4922 7461 0.267377
4922 49 0.267301
3983 4962 0.332991
4922 8396 0.267414
2068 565 0.178523
5505 143 0.224576
595 562 0.000357917
5627 1434 0.166968
3450 8394 0.249726
1717 74 0.197663
6120 837 0.199839
4096 5106 0.999037
6119 4332 0.249783
6119 3608 0.249779
6119 2739 0.249692
2298 2401 0.249735
6117 444 0.249904
1119 91 0.186026
6115 8384 0.420937
6115 2 0.405217
6115 49 0.172884
5612 7571 0.253167
6114 1183 5.18421e-06
6113 8381 0.999037
6112 8381 0.200837
3031 387 0.166496
6112 3020 0.3991
6111 233 0.274356
6111 444 0.274321
6110 8378 0.272506
6110 8377 0.272506
6106 6281 0.150417
6106 16 0.0962708
6002 3330 0.26522
1980 16 0.0805463
3165 554 0.206746
6105 8372 0.252646
6105 229 0.252646
6227 317 0.238449
6104 8371 0.992841
635 444 0.000223299
6102 8370 0.200121
1073 8369 0.197292
6101 1379 0.1379
1386 1454 0.128975
6039 8283 0.000455441
6161 51 0.22986
6100 8367 0.288965
882 1258 0.142965
6100 4125 0.288906
6100 8366 0.132201
5718 141 0.316003
2921 8365 0.177225
6098 49 0.249732
6098 8364 0.249841
1104 46 0.292029
1151 46 0.332931
6097 8362 0.33077
3434 599 0.244668
1119 42 0.25497
6095 444 0.330359
4077 16 0.252815
4077 8358 0.231857
3369 593 0.24966
2598 7243 0.329173
6093 436 0.332944
4911 25 0.000388246
6090 8351 0.000219152
6089 504 0.999037
6088 3998 0.27416
3632 670 0.33148
3086 1144 0.000145195
6088 133 0.483256
4857 893 0.172018
6085 7555 0.499439
6084 8348 0.570789
6083 1052 0.307015
6083 719 0.307014
6082 8346 0.969122
6082 10 0.0299149
2431 683 0.276442
6081 1435 0.982232
6079 8345 0.200018
6079 8344 0.2
6081 8344 0.0168056
6079 8343 0.200018
6078 267 0.00424776
6080 8342 0.00188825
4955 2912 0.521319
6078 238 0.12906
5014 3576 0.117868
6077 8340 0.332949
6051 229 0.315174
6077 8339 0.332949
6077 8338 0.332515
4701 249 0.202419
6076 2683 0.0543199
6075 2683 0.999037
6074 2683 0.999037
5812 8335 0.143639
1402 1478 0.19425
6072 2600 0.199236
6072 16 0.00285825
5495 7414 0.33301
6072 1428 0.199236
4308 599 0.249834
6071 4491 0.499519
1018 1434 0.221506
1532 10 0.24778
4048 446 0.380314
3558 8872 0.199808
2681 444 0.244126
2619 8326 0.249761
1585 317 0.249759
2619 1429 0.249755
4130 500 0.166264
6069 8323 0.199803
1067 5107 0.494112
6069 8322 0.199803
6069 16 0.000475392
6069 8321 0.199803
491 450 0.999037
6069 3038 0.199803
648 8224 0.146087
6070 4 0.249933
6151 8076 0.295298
6067 1379 0.166508
6067 2074 0.166508
6067 317 0.166508
2369 2639 0.249659
2852 5431 0.199781
2036 3327 0.000493841
6067 100 0.166506
6314 2760 0.197337
6066 8320 0.249759
6582 107 0.249787
3933 4882 0.249386
6066 7869 0.249759
1101 1121 0.277083
3406 4983 0.108885
4489 4187 0.00631869
2681 8442 0.251644
6067 294 0.166505
4689 229 0.199884
4429 46 0.49926
6068 8315 0.199807
5951 444 0.136193
6061 397 0.999037
6122 444 0.478055
6060 74 0.249832
6060 8314 0.249832
6060 1694 0.249819
6059 8313 0.317748
6059 5718 0.317748
6059 444 0.313544
6059 7974 0.0499968
6055 444 0.984334
5832 5439 0.24267
6053 2516 0.00138968
5832 2516 0.241323
6053 1270 0.258015
2935 3385 0.411087
5832 1694 0.238137
6052 1190 0.249759
6052 4072 0.249759
2224 448 0.983518
6051 8308 0.315174
6051 8307 0.315174
6051 7587 0.0535152
6049 7587 0.326272
6049 8306 0.672765
2412 249 0.199725
3901 2483 0.499519
5601 8304 0.142756
5601 8303 0.142756
2459 8302 0.200133
2459 583 0.198514
531 493 0.249758
2466 2379 0.110136
1532 3907 0.249589
2336 249 6.96698e-05
6048 238 0.164524
4104 5118 0.19979
332 112 0.319751
6046 8299 0.505247
4418 5637 0.248469
1329 155 0.249808
6044 993 0.232711
6044 5949 0.232804
6044 18 0.0679147
4982 62 0.166506
6043 8293 0.687485
6042 8293 0.00825132
6043 8292 0.311552
6042 8292 0.990786
63 7534 0.21179
63 10 0.211651
4196 293 0.141217
63 1295 0.211773
5114 1295 0.262044
63 3276 0.152032
6016 3276 0.123452
1391 1904 0.249687
565 529 0.457452
1391 33 0.249778
6692 288 0.432563
2058 49 0.171613
862 474 0.24962
2058 27 0.16549
2058 242 0.165466
2058 8288 0.16549
1901 2074 0.350672
46 8286 0.253433
46 1280 0.238546
6041 1280 0.0315393
2329 240 0.230072
6041 229 0.428745
1585 316 0.249759
6041 8285 0.538753
6040 8284 0.488012
928 4533 0.955139
6040 8283 0.487597
6038 5273 0.0351143
6038 306 0.481962
6038 1212 0.481962
6037 8282 0.537907
6035 8280 0.576136
6034 8278 0.161168
1014 1035 0.107579
6033 8277 0.124881
1143 624 0.248432
6033 8275 0.249762
3546 1353 0.307454
373 316 0.339842
3546 8274 0.345792
3112 3618 0.000474694
6031 8273 0.333044
6033 49 0.124873
1233 1284 0.219725
3112 3617 0.998563
4774 1782 0.249772
3522 4213 0.201143
3764 2155 0.199792
3764 8271 0.199791
5224 450 0.231956
6030 8269 0.00464504
6029 8268 0.50158
6028 8267 0.298994
5447 46 0.895268
584 19 0.350073
5297 4107 0.51395
5297 482 0.485087
6026 461 0.333945
6026 967 0.333945
6706 4717 0.208909
6026 8263 0.331148
4696 8262 0.210871
4447 485 0.0670407
4696 3044 0.394083
2429 825 0.195224
5564 8260 0.333005
556 519 0.249769
5564 8259 0.333005
3508 8 0.236618
6024 444 0.388185
6024 1029 0.222629
6023 8258 0.363142
6022 56 0.231799
6022 8256 0.25543
1772 712 0.241407
2339 155 0.19984
6021 637 0.998391
2457 3425 0.166681
2457 7949 0.166661
6122 49 0.0197922
6018 42 0.258902
6018 428 0.258841
5674 7655 0.196526
390 444 0.249548
390 8250 0.249809
4031 5023 0.453976
6017 8249 0.198321
6017 444 0.000121861
5429 8248 0.249797
514 485 0.533635
5429 33 0.249645
5429 8065 0.249797
1154 593 0.419772
1322 8246 0.172623
1228 1256 0.166516
5739 10 0.346509
6014 10 0.20071
1706 239 0.495426
6562 9124 0.333012
6012 8241 0.000383828
6013 16 0.137729
1845 740 0.249717
3240 42 0.249647
3551 229 0.279086
6012 8240 0.348545
6011 3576 0.199808
6011 1715 0.199808
6011 8239 0.199807
6010 891 0.335992
6010 1434 0.335992
518 476 0.284667
6010 8238 0.327017
518 475 0.284667
6010 8237 3.7252e-05
6009 8237 0.340094
6009 8 0.340131
4794 8236 0.353576
552 474 0.43568
2847 3257 0.166476
5619 1389 0.353644
5769 1138 0.198679
5193 8235 0.00899166
5193 5744 0.982596
6007 8234 0.413841
1933 25 0.166458
1710 25 0.16643
1844 46 0.332115
6006 3698 0.333028
6005 8231 4.56778e-05
6005 25 0.332701
2979 239 0.14268
6005 8230 0.333114
6005 8229 0.333114
6005 529 6.33966e-05
4423 1507 0.137268
253 6124 0.205129
5141 7454 0.132475
5832 8228 0.276907
2967 8227 0.166429
4219 683 0.276171
6173 8469 0.199821
1571 1682 0.357083
1205 1238 0.0540666
6003 8220 0.199825
3686 8219 0.135949
6459 498 0.055652
3686 3943 0.0476337
274 8218 0.332945
274 2454 0.332945
4000 19 0.332726
6002 8217 0.26522
6002 888 0.203624
6001 10 0.311734
6001 8215 0.311772
6001 2923 0.0637582
6000 451 4.5054e-05
4298 1675 0.253474
5999 10 0.249711
2868 130 0.195798
5999 8212 0.249775
5998 1581 0.249618
5998 521 0.249757
3523 4212 0.3059
2854 4600 0.0917743
2854 457 0.181428
366 8210 0.180299
5413 6531 0.333012
1164 1189 0.333
5997 8208 0.302353
5997 760 0.302083
140 3677 0.142677
5996 112 0.997926
285 3986 0.157268
5262 6288 0.249758
5262 8208 0.24976
117 95 0.492431
5262 8097 0.24976
5995 444 0.249668
3190 8 0.142808
5994 6 0.252615
1006 4667 0.258368
898 895 0.0911258
5168 6869 0.185798
6282 8627 0.00987156
4916 7744 0.249825
2380 2652 0.39657
4916 7743 0.249825
2950 744 0.141402
1095 2109 0.249528
5810 1880 3.81788e-05
2380 2651 0.39657
2393 100 0.166513
1182 167 0.19967
32 8196 0.25002
32 6143 0.25002
5993 6468 0.308154
5993 3072 0.308154
742 8481 0.140506
5993 2301 0.0745764
2001 2301 0.0777744
2666 23 0.248903
5991 6 0.0671024
3155 2786 0.149168
5991 8193 0.408551
1782 2884 0.00292209
276 6 0.427958
5991 8192 0.408551
362 986 0.111471
5991 33 0.114834
5990 33 0.999037
6020 55 0.998709
5989 33 0.999037
1655 46 0.397063
5951 8191 0.136266
872 2413 0.00034642
872 8190 0.194718
6241 2074 0.127095
5987 3720 0.412625
6209 6426 0.240747
5987 2224 0.412625
5982 8188 0.333013
4902 6465 0.249721
5982 8186 0.333007
5293 7063 0.332998
6044 444 0.232804
4941 1612 0.265801
4941 8182 0.265801
4941 730 7.78986e-06
3082 6 0.207934
3058 6 0.00319869
916 8002 0.331456
6265 8605 0.333032
6265 8604 0.332974
6002 2739 0.264975
5812 5639 0.143639
2778 3402 0.68277
2867 5150 0.168932
2867 892 1.02432e-05
5983 6 0.184713
5983 114 0.267026
5976 2430 0.333012
5981 16 0.0849675
5981 5738 0.246563
2617 9270 0.163693
5980 8168 0.499515
5980 55 7.07634e-06
5979 1289 0.292425
5979 8166 0.121764
230 8165 0.119849
5978 1141 0.333012
5978 362 0.333012
3976 293 0.203864
6251 8589 0.249811
1884 8163 0.368182
6251 8588 0.249811
1884 193 0.262673
5977 193 0.0304757
1093 8 0.142592
2796 403 0.992019
5922 730 0.0241354
5922 4637 0.30788
6162 537 0.249766
2201 2441 0.333616
2825 5439 0.111286
5975 521 0.405417
5975 1694 0.188112
5973 8161 0.143732
3488 4159 0.166512
5973 8160 0.13854
5973 238 0.143446
1003 229 0.601693
5973 436 0.142121
3702 2231 0.285442
5970 1470 0.20394
6513 342 0.111004
5970 7461 0.123823
5969 1470 0.267594
2894 1733 0.200286
5968 8154 0.249799
5968 8153 0.249799
5966 4891 0.999037
5965 4891 0.999037
578 7593 0.0570375
5962 763 0.200726
5962 8147 0.266104
5851 238 0.249663
911 55 0.0928195
2284 8144 0.333015
2824 8143 1.73115e-05
5960 3753 0.250016
5960 1183 0.249438
3157 3753 0.1001
6054 5899 0.432593
2824 1697 0.00227535
5959 8140 0.503629
2824 1183 5.18944e-05
5959 1183 0.494042
5959 451 0.00136717
5958 8138 0.28892
5958 46 0.288901
5958 8139 0.28892
3755 8138 0.166505
3755 8137 0.166505
3755 1694 0.166505
5957 91 0.166498
5957 8135 0.166509
5957 444 0.166504
5957 2430 0.166509
2245 4488 8.76983e-05
1418 8133 3.36488e-05
4779 6245 0.332964
4336 8131 7.48226e-06
173 8131 0.897868
5955 8130 0.999037
3989 8129 0.998985
5953 8128 0.999037
668 8127 0.0856104
5949 6 0.326813
5949 5706 0.336112
5948 8122 0.298056
5947 8122 0.0023455
5947 678 0.996692
5946 8121 0.328746
6228 8545 0.333012
5946 8119 0.328746
2351 19 0.0476815
6228 8544 0.333012
407 356 0.996721
5945 8118 0.500852
5944 16 0.224461
5944 7318 0.407189
5943 661 0.252459
5943 6381 0.252459
2930 2361 0.0494741
5942 16 0.000147804
5942 8116 0.332963
5942 185 0.332963
297 6246 0.208225
5941 6246 0.227784
5941 8115 0.257818
5116 6790 0.24977
5940 2353 0.484646
5940 207 0.0297446
5939 10 0.498186
5938 8114 0.499519
2750 8113 0.174543
5791 3374 0.333153
5791 10 0.332731
5936 329 0.332085
5936 7974 0.333441
5936 8111 0.333512
5935 8110 0.255205
4863 893 0.499242
5935 10 0.255168
5935 8108 0.233459
5933 1273 0.273769
5933 229 0.115803
5933 5280 0.273769
1794 1962 0.288117
2497 8107 0.199864
1210 3669 0.298163
4172 900 0.499519
4172 8106 0.499519
1794 1961 0.288084
5189 6 0.156746
2472 6 0.00477085
1150 1169 0.163797
4171 7172 0.176651
4171 16 0.292976
1847 216 1.12415e-05
6209 433 0.240735
2497 444 0.399529
3230 5990 0.266979
1794 1960 0.134769
2497 8105 0.199864
5931 1810 0.238529
5931 1808 0.253464
5931 1761 0.253523
5931 8104 0.253523
3408 112 0.000231614
5930 8103 0.333022
5930 8102 0.332986
5929 46 0.499077
2026 655 0.000693789
3798 4666 0.308464
5928 2739 0.24965
5928 993 0.24965
5928 207 0.249625
5927 207 2.86009e-05
2216 240 0.198255
3153 3674 0.333807
5927 2231 0.2831
5353 2699 0.255374
5353 55 0.232916
5925 8097 0.326218
5924 3516 0.314216
5144 2427 0.19881
5924 8096 0.314334
4664 6023 0.249818
5627 16 0.327431
5922 482 0.0512631
5922 8094 0.30788
5922 194 0.30788
5913 636 3.63033e-05
3110 414 0.23599
5920 2325 0.166711
5920 7949 0.166708
5920 4319 0.165517
5918 619 0.000584379
2091 229 0.408795
3046 3534 0.616083
5919 444 0.371368
576 791 0.201987
728 2103 0.166533
3597 8087 0.14424
2357 2620 0.13885
4413 178 0.166564
3597 4179 0.0111239
3597 8086 0.14424
3597 8085 0.14424
481 143 0.150421
5854 7986 0.188693
5110 6 0.000416375
3842 6329 0.266215
1925 1539 0.098461
3295 2095 0.12488
2151 2382 0.499483
1900 8083 0.483522
2995 92 0.165281
2700 6443 0.124435
5624 1203 0.142789
5916 8082 0.199806
4001 4988 0.20217
1970 2167 0.287068
5916 317 0.199808
6811 115 0.0173785
282 5228 0.206899
1575 1685 0.263914
5916 900 0.199808
5915 6567 0.333041
2913 3798 0.976386
3712 167 0.249683
1068 1290 0.142115
5914 167 0.249848
5914 8079 0.249783
2002 258 0.148825
2002 8078 0.293227
1191 8077 0.125718
5913 8076 0.202461
5913 8029 0.535758
5913 55 0.260783
4026 18 0.328246
959 8074 0.103623
959 8073 0.103623
4484 5740 0.269421
3040 3527 7.35438e-06
6694 71 0.000548731
3432 4072 0.236217
92 8073 0.180459
5911 8072 0.332888
217 8226 5.61489e-06
5911 8071 0.332888
5911 444 0.333262
5909 8069 0.333012
5411 852 0.336677
1753 1913 0.499516
4276 5396 0.333012
5908 2666 0.249759
5144 26 0.19873
5908 255 0.249759
5908 1926 0.249759
5908 8066 0.249759
5907 8065 0.299425
5907 8064 0.299425
5907 33 0.100786
5906 8063 0.333011
6343 1282 1.59922e-05
5580 2840 0.249759
5906 229 3.78136e-06
3383 8061 3.58494e-05
5905 8061 0.579287
2441 2726 0.199814
5905 55 0.41975
5904 8060 0.249777
4795 6270 0.167796
5903 8058 0.200182
5917 6801 0.00591064
4795 6269 0.167796
4015 8057 4.38141e-05
5902 2 0.321689
5902 8056 0.338403
4792 6266 0.247161
2261 2516 0.199808
4015 8054 0.397655
2773 6 0.00154016
5900 1792 0.24976
6327 2597 0.187266
5898 5192 0.355573
5898 3872 0.355573
5898 451 0.287892
6208 224 0.189419
5897 1774 0.250113
5897 2212 0.250113
5897 55 0.248699
5896 1774 0.357425
5896 8045 0.357425
2855 3270 0.166523
5895 283 0.249787
5895 8044 0.249787
5894 760 0.348439
5893 8042 0.392156
5466 7359 0.333012
4121 403 0.199848
4183 1068 0.124974
5891 8040 0.345636
5891 8039 0.307674
4784 6251 0.334422
1779 298 0.254843
2178 18 0.00370778
5314 7104 0.0714419
6783 9523 0.499519
1494 733 0.00111825
5889 189 0.280539
5889 10 0.437924
6589 2269 0.249636
1494 732 0.000290079
5888 8036 0.96471
2846 7316 0.233177
5885 7752 3.65441e-06
5885 8034 0.373531
5884 6 0.0166715
5884 8033 0.497204
5883 187 0.12488
5883 370 0.124882
5883 49 0.124869
1235 1270 0.27651
5883 1100 0.124882
5883 1752 0.124881
5883 5808 0.124882
1808 26 0.373038
1808 436 0.624131
5882 370 0.254564
5882 444 0.254545
5882 3532 0.235361
5882 8032 2.75862e-06
5881 8032 0.928962
2596 6 0.181543
5880 5808 0.253051
5728 8029 0.492116
5687 7678 0.249759
3030 3513 0.133763
5878 2739 0.332784
5878 8026 0.333102
5878 46 4.93639e-05
5877 8025 0.200132
5876 8022 0.49783
5876 8021 0.495028
5876 175 0.00617994
6147 8434 0.432622
5875 8020 0.501172
5843 1289 0.249661
6691 16 0.000186988
6248 1902 0.464441
5874 444 0.450104
5874 8017 0.462147
6388 254 0.0771874
5874 8016 0.0867867
5872 7587 0.333
5872 8014 0.333018
5871 8012 0.242881
5871 7803 0.242513
2357 6452 0.14774
5870 2600 0.258219
5025 8011 0.333012
5025 1361 0.333012
5869 8010 0.249808
5869 238 0.249612
5869 2600 0.249809
5869 436 0.249809
5867 6067 0.254464
5867 1694 0.252715
3654 8008 0.157675
6753 670 0.000313054
3654 8007 0.00621429
4098 7342 0.276388
4160 8007 0.174114
5866 8006 0.199676
5866 7146 0.199676
5866 238 0.199674
5866 16 0.000657762
5010 6661 0.150863
5865 4740 0.471398
5582 2609 0.207858
3943 4942 0.195404
446 396 0.249453
3943 8004 0.195404
3687 8003 0.169934
2209 2453 0.180945
6541 9091 0.988185
2209 2452 0.204787
3687 8001 0.169934
2114 3541 0.199922
3776 7999 0.333021
5926 51 0.676035
5988 229 0.333012
5864 112 0.999037
2997 229 0.199807
5863 7961 0.333028
6196 4740 0.199841
5862 55 0.332415
5862 7995 0.333311
5924 62 0.314334
5862 18 0.333311
5861 1792 0.49947
5860 7594 0.249796
2522 26 0.130579
5860 1694 0.249796
5670 2432 0.317674
5114 10 3.90075e-05
5858 7990 3.70358e-05
1515 601 0.0138215
4660 4872 0.233265
5859 155 0.0489558
4529 5813 0.388365
5858 155 0.296308
5858 954 0.351346
1394 4732 0.261808
5857 7989 0.333626
4878 6430 0.183544
5857 229 0.333625
776 891 0.243237
5857 7988 0.331753
5856 7988 0.00186564
4878 6429 0.271831
4169 10 0.0278573
5857 1340 3.37791e-05
5856 1340 0.332368
5856 2869 0.332402
5855 1506 0.28267
5855 7986 0.151028
5854 311 0.405172
5854 1783 0.405172
1021 2322 0.29037
5581 7522 0.507719
6717 2430 0.199938
1021 7983 4.08146e-06
2002 7983 0.149305
330 4145 0.249057
820 811 0.249759
5852 1683 0.250868
3398 233 0.167164
5852 4 0.246217
5852 7981 0.250976
5851 371 0.249791
5850 238 1.2175e-05
1182 8198 0.199841
960 969 0.653401
1182 8199 0.199841
41 8000 0.0426129
5895 293 0.249678
2233 1176 0.199811
1515 1335 0.86054
5847 7974 0.244233
3622 92 0.332483
5847 7973 0.201544
6195 6322 0.199804
2464 2032 0.498966
2464 25 0.00505382
3351 3970 0.351538
6599 9406 0.200273
5846 7967 0.249719
5846 7966 0.249719
5846 19 0.00016268
2075 1235 0.000284482
2075 7965 0.124257
2449 529 0.338923
2075 7964 0.124257
5181 1235 0.166621
5845 7963 0.48399
5845 55 0.0323825
5844 7962 0.340879
5844 1694 0.340879
5843 7961 0.249658
5843 444 2.73036e-05
2713 7960 0.515721
5842 7959 0.034894
2713 3306 0.00306078
5842 439 0.504637
5841 7957 0.333013
5841 4012 0.333012
5840 732 0.999037
3707 4466 0.111165
3202 5687 0.335207
1304 83 0.24977
5418 1958 0.250599
5643 7603 0.185557
2149 7951 0.249988
5643 7602 0.185557
2149 7950 0.249988
590 2920 0.203222
5838 101 0.142312
5838 2 0.141162
5838 49 0.142837
6022 8255 0.255303
5838 444 0.000925417
1566 288 0.249774
6022 8257 0.25543
5588 7949 0.530105
5836 42 0.272456
5835 10 0.33274
1929 345 0.166307
1875 92 0.0157784
5834 7944 0.379218
5834 62 0.000114378
2244 2495 0.399614
1878 8573 0.287751
5833 7943 0.359536
5833 7942 0.359536
4048 7941 0.380314
5830 7938 0.23278
5830 78 0.0680856
4658 1581 0.249586
2767 3162 0.000869169
1925 8264 0.098461
2439 501 0.310954
5829 7935 0.476356
5829 7934 0.476356
4322 444 0.275694
5625 7584 0.999037
198 7933 0.128612
6457 115 0.000278052
5828 1640 0.249759
5828 1264 0.249759
6431 8895 0.283477
5985 340 0.199914
570 249 0.200686
5980 8167 0.499515
5827 4950 0.331809
5827 333 0.00360993
5951 92 0.136234
5827 6781 0.331809
6238 436 0.24922
4261 49 0.247318
664 7931 0.00594993
4225 49 6.11787e-05
5483 267 0.332284
243 7931 0.119716
2686 7929 0.322606
6770 591 0.249759
2222 7928 0.0152485
2222 7926 0.524918
5825 7922 0.249759
477 1391 0.421795
4180 7921 0.333024
4180 7920 0.333024
4484 5741 0.269421
5823 2942 0.000201149
6387 240 0.00123094
3430 8814 0.112216
5822 7920 0.482328
5821 7919 4.02259e-05
5819 3904 0.335313
1948 23 0.143281
5819 591 0.335313
1866 2586 0.249759
5819 2600 0.32841
4012 4998 0.260642
6324 49 0.999037
5818 7916 0.249855
5818 7915 0.249855
654 591 0.199818
2479 888 0.999037
3299 586 0.337566
5814 240 0.250181
5815 7911 0.999037
3844 9229 0.156014
3313 7909 0.24518
5812 7908 0.143639
5812 7907 0.143639
5811 7905 3.33643e-05
5810 19 0.451451
5811 1183 0.160669
3101 55 0.172816
386 4586 0.0969854
5811 1880 0.209573
5809 7903 0.124929
5809 2286 0.124929
5809 7902 0.124929
5809 2462 0.124929
5818 1270 0.249855
5809 7901 0.124929
3721 46 0.324011
2609 2717 0.332664
2609 78 0.332585
6055 254 0.000171114
4478 5736 0.496637
5807 7900 0.332391
5806 7898 0.333012
5806 7897 0.333013
5805 6 0.0118618
5907 3330 0.299402
4866 230 0.891941
6118 1820 0.199812
3715 10 0.28098
4105 10 0.33289
2033 2103 0.249759
4375 7970 0.162487
5803 6818 0.12488
2666 8194 0.250126
5803 7889 0.12488
4184 100 0.499176
893 885 0.142721
5163 6859 0.105331
4184 7888 0.499862
465 418 0.337637
3548 298 0.280549
2972 7395 0.226085
3094 101 0.333023
4531 5815 0.4381
1155 233 0.125747
4259 236 0.119645
4259 229 0.118142
6015 1180 0.3331
5801 767 0.332975
5801 593 0.332975
5801 283 0.332974
5800 1280 0.280658
3843 6138 3.711e-06
5800 589 0.157159
5799 267 0.249759
5799 593 0.249759
2467 253 0.303317
5798 2793 0.338932
801 1463 0.172387
3073 767 0.196406
4288 5411 0.999037
3073 2074 0.196406
3073 7880 0.196405
4189 892 0.249722
6663 9317 1.8486e-05
5920 8090 0.166711
5795 7879 0.249765
3667 662 0.271313
5795 7878 0.249765
5795 593 5.04275e-06
3370 25 0.345371
6247 9015 0.228851
287 8438 0.00402847
3323 3924 0.864184
2140 794 0.205097
3554 1839 0.123532
2855 2177 0.16652
4689 2846 0.199893
3227 4824 0.364855
2653 49 5.61274e-06
3227 74 0.269315
4365 233 0.342203
4365 414 8.25368e-05
1432 5633 0.333
2509 3931 0.166508
2509 1292 0.166505
5468 1759 0.310949
2509 3209 0.166508
6662 9317 0.327004
2118 2109 0.0272946
5794 2109 0.257662
2120 5680 0.199865
5793 7872 0.33119
5882 3440 0.254564
4344 763 0.318064
5610 7565 0.249064
902 678 0.351857
4400 3312 0.00165917
5792 7869 0.166451
688 669 0.981364
5792 7868 0.166451
5792 678 0.166383
1331 7866 0.199805
1331 7865 0.199805
5575 7516 0.199808
6307 3101 0.167076
5575 7515 0.199808
5575 7514 0.199808
4296 90 0.199808
5790 7863 0.249759
5575 7513 0.199808
5790 7862 0.249759
5790 7861 0.249759
5790 7860 0.249759
5788 7859 0.309567
3930 3301 0.485199
5788 7858 0.344735
5077 5296 0.333012
1441 3217 0.249967
5786 3581 0.24866
3012 3494 0.999037
5787 7856 0.983447
5786 7856 0.0496497
5994 7887 0.265192
6597 16 0.00549587
137 333 0.11522
5786 7855 0.250843
5786 7854 0.250843
5784 7852 0.486399
5784 7851 0.486382
5783 7851 1.58846e-05
5784 16 0.0262292
5784 7850 2.75115e-05
5783 7850 0.461895
3267 124 0.148128
5783 560 0.461921
1318 26 0.166597
3958 1792 0.254283
857 3419 0.199971
296 8186 0.000370021
5782 7849 0.320359
5368 1694 0.355111
3884 62 0.00605215
420 2733 0.182243
358 4207 0.000544484
2342 4872 0.333901
2658 1536 0.197528
1917 238 0.199547
1917 7847 0.199876
5781 2 0.21138
5780 6 0.305772
5780 112 0.318191
932 1130 0.392657
5779 7846 0.33322
5779 2023 0.332524
3327 529 0.148035
5776 7842 0.999037
5775 7841 0.271027
4888 4 0.166541
2164 2400 0.199791
5774 7838 0.510905
5774 3719 0.000655082
5773 3719 0.318398
5773 49 0.318749
5773 450 0.343149
5772 7836 0.312306
1488 444 0.249593
6118 670 0.19979
2344 4600 0.199802
2344 5399 0.199802
2257 2510 0.201787
2344 112 1.30384e-05
759 737 0.166518
1219 7387 0.140535
3603 7834 0.166506
759 736 0.166527
3603 240 0.166506
2076 2283 0.241529
542 69 5.99103e-05
2972 7394 0.226966
5771 457 0.281359
665 5112 0.183012
5488 2756 0.417091
2617 7828 0.163693
2617 7827 0.154108
2393 2669 0.166513
5181 33 0.16648
171 135 0.992379
5768 7825 0.236146
4338 51 0.199563
4368 51 0.331172
5768 167 0.220566
6431 8897 0.283477
1408 1484 0.249827
4898 376 0.289343
5099 7821 0.452519
5099 238 0.0713937
6835 1563 0.199899
5099 1694 0.475108
5766 413 0.199891
5289 4189 0.224293
6179 51 0.000438557
1377 7817 5.15784e-06
5765 6 0.0313991
3689 599 0.455844
5765 7816 0.403112
5765 6390 0.403112
5981 6544 0.235676
5764 7815 0.329476
5764 7814 0.330104
664 7813 0.165514
604 111 0.249759
5537 7460 0.151085
687 7808 0.000674914
617 46 2.40446e-05
2370 7807 0.199788
2477 7806 0.201181
2477 583 0.19431
6203 6 0.00157266
1161 1213 0.202771
5762 2325 0.446467
2836 3299 0.499492
3783 500 0.316576
3783 1183 0.0493108
5760 178 0.252438
4440 2616 0.276912
2995 403 0.166233
4420 586 4.76191e-06
5759 7802 0.249629
5759 7801 0.249629
3944 7799 0.249839
4226 26 0.375825
2444 5926 0.333012
2444 283 0.333012
2444 7798 0.333012
1493 5926 0.10954
1226 2425 0.249759
1226 7796 0.249759
1226 1880 0.249759
1226 7039 0.249759
3759 2034 0.199809
3915 46 0.249758
6013 8241 0.861308
2470 7795 0.142681
5866 3238 0.199676
4428 5665 0.333012
4428 5664 0.333012
5758 7794 0.373802
5758 7793 0.373802
5758 49 2.96602e-05
1293 1336 0.000616305
1292 1336 0.355845
5757 2764 0.999037
5756 7790 0.268519
5755 7790 0.2092
3382 3996 0.254823
5754 565 0.333012
5754 7790 0.333012
5754 7789 0.333012
6018 8251 0.258902
2774 7788 0.143339
205 145 0.166515
3288 25 0.249906
2774 7787 0.286678
2649 3012 0.44043
6250 8586 0.36587
5753 7786 0.320317
1143 133 0.248432
2649 3011 0.44342
2980 3449 0.234164
5752 2422 0.249812
5752 7783 0.249812
5752 730 0.249602
5752 33 0.249812
1594 1904 0.199516
1784 238 0.185025
5751 7781 0.333016
6767 444 0.249763
5748 732 0.999037
4276 5395 0.333012
2125 2342 0.00416197
1339 3540 0.000305612
526 16 0.259239
6033 8276 0.124881
4819 6321 0.142741
5745 347 0.166479
5745 437 0.166501
5744 7777 0.454369
5744 7776 0.454369
1969 238 0.254341
5743 892 0.999037
5804 51 0.199028
5742 7775 0.14272
5742 2516 0.14272
5693 837 0.332872
5742 624 0.14272
4365 74 4.20432e-06
5742 276 0.14272
1481 662 0.283695
223 444 1.48561e-05
3558 444 0.199805
5741 7774 0.333012
323 340 0.103387
2680 55 0.932304
2829 258 0.251547
2829 10 0.252469
2530 403 0.167841
2829 26 0.000723327
328 8 0.477118
1839 4705 0.152541
5365 16 7.18946e-05
4217 5296 0.166522
5365 3020 0.32617
760 6341 0.125815
5740 7769 0.333012
5740 7768 0.333012
539 6 0.000233402
4085 1215 0.197101
4885 7767 0.249766
3764 8272 0.199792
3051 7766 0.249761
528 491 0.19981
3051 455 0.249761
3051 33 0.249754
5738 7763 0.266187
5738 7762 0.200477
4420 4233 0.167348
268 7760 0.193196
5734 7759 0.998877
5733 7759 0.00785486
6540 9089 0.333018
2208 2450 0.333012
5734 444 0.00015982
192 3419 0.331811
192 2432 0.331568
2899 7756 0.142594
2899 317 0.285347
2899 204 0.28526
5732 7758 0.142718
5732 565 0.142718
5732 7757 0.14272
2459 2379 0.20013
683 7756 9.71437e-05
1243 25 0.0013492
3701 559 0.333018
5730 7754 0.249728
5995 8207 0.24979
5730 7752 0.249751
2082 2291 0.496443
5729 7751 0.29269
5729 593 0.29269
910 6 4.20223e-06
1461 6 0.0064394
5727 7749 0.256659
5727 3038 0.256633
1015 3660 0.0173592
1058 7747 7.01457e-05
1058 7746 0.471143
5308 642 0.20413
5308 1579 0.20413
5308 207 0.184654
2014 207 0.0187098
2014 1694 0.31524
1969 2195 0.248203
4916 25 0.249756
904 8380 0.287435
5726 78 0.169386
5725 7741 0.465913
1907 2083 0.760568
5724 7741 0.0706387
4210 7740 0.499519
2899 315 0.285346
4210 7739 0.499519
4886 97 0.333006
5722 170 0.322398
5721 7736 0.333099
5721 46 0.33284
5721 362 0.333099
5720 7735 0.499519
5719 7734 0.16662
1582 92 0.247581
5719 2234 0.166614
4973 3662 0.249765
5719 3326 0.16662
5719 16 0.499184
5718 7733 0.341517
4855 69 0.266953
6058 7974 0.979093
6057 7974 0.999037
5716 7732 0.249759
1382 1092 0.999036
5714 7731 0.243711
5714 7730 0.755326
5713 7729 0.333174
1912 7727 0.264847
1912 19 0.264847
1912 7726 0.202747
3253 7726 0.140438
3155 1539 0.149041
5702 4914 0.201738
396 7725 1.62038e-05
585 23 0.249431
5627 6141 0.166968
4034 6 1.73039e-05
5627 6 0.0037384
1566 283 2.63565e-06
4034 1435 0.0205885
1433 1068 0.19971
5712 501 0.503461
4731 501 0.706315
3343 7724 0.371571
3188 6 0.169453
5711 526 0.337078
5711 509 0.324848
5710 7721 0.143265
5710 744 0.143266
4575 1856 0.106762
5710 5397 0.143266
5710 7720 0.143266
5710 10 0.173944
5710 7719 0.143266
1176 1515 0.0899323
5709 7718 0.999037
5708 7717 0.225864
5803 5177 0.12488
5708 2600 0.225865
1024 158 0.249717
3854 7704 0.201307
5707 240 0.249794
5707 3830 0.249859
5707 85 0.249525
2624 387 0.166513
5706 267 0.332929
5706 345 0.332919
5705 345 1.03171e-05
3375 3989 0.233879
5705 2430 0.333099
5704 3785 0.208228
5165 3373 0.265413
5704 606 0.113376
1818 3451 0.210486
4136 7710 0.25001
4136 3785 0.25001
5703 3581 0.255657
5703 7708 0.254485
4091 7708 0.00229937
4014 2111 0.304778
663 8170 0.199789
5703 1741 0.00349459
5695 1016 0.216968
5695 6509 0.216968
1962 2158 0.323768
663 8169 0.199789
2984 4156 0.107188
5695 46 0.216936
3854 6509 0.201307
3854 7705 0.201307
1958 2156 0.199808
4116 5141 0.335253
2617 7702 0.190238
5702 7701 0.201738
5702 2764 0.201738
5772 4938 0.312491
5701 7700 0.249059
604 7810 0.249759
5701 7699 0.249059
4497 7696 0.124907
4497 233 0.124907
6691 104 0.337659
6409 8905 0.00209206
6415 2909 0.499519
4497 7695 0.124907
4497 1394 0.124907
4497 101 0.12485
3673 4456 0.335903
1522 102 0.165195
1522 7693 0.165195
5699 40 0.249362
5699 1428 0.00158473
2015 3139 0.249757
5699 7691 0.249363
4849 6597 0.141687
4849 444 0.000197918
5224 8269 0.231209
5698 1968 0.249479
5698 586 0.249843
5697 7688 0.448428
5697 7687 0.447617
5694 7687 0.00234395
5697 42 0.102993
5690 335 0.0195428
5690 123 0.244602
5692 7686 0.300066
5692 7685 0.300066
5692 7684 0.0988396
1297 380 0.0272018
5691 7684 0.41448
6296 238 0.0754172
5038 19 0.197345
5689 7682 0.316274
4105 5120 0.166537
5688 23 5.2407e-05
5688 4 0.294413
5688 436 0.352286
4104 5119 0.19979
3230 355 0.266983
5688 7681 0.352286
5687 7680 0.249759
1197 25 0.144465
5687 7677 0.249759
5732 5094 0.14272
5685 1792 0.255846
5685 75 0.255872
5552 7482 0.350413
5685 2271 0.255883
939 6556 0.38867
3464 451 0.48995
5683 730 0.425129
5683 1694 0.573908
4100 5111 0.999037
1842 794 0.248781
4101 5111 0.999037
5681 7671 0.332855
5681 451 0.000472817
1476 16 0.349235
6083 730 0.0771571
5680 444 0.142723
5141 529 0.109113
5680 5533 0.142723
5680 7667 0.142723
5680 4899 0.142723
618 591 0.111027
5420 1452 0.0257879
3524 7666 0.132672
3669 6990 0.1771
618 590 0.111021
5679 7665 0.328722
3524 7664 0.144401
3524 7663 0.144401
1143 10 0.00546713
3524 7662 0.144401
1602 4663 0.249745
3524 8 0.144361
5678 6 0.190824
5678 1280 0.269405
5678 7660 0.269405
5678 501 0.269405
5677 6974 0.355926
5677 2756 0.287151
217 7812 0.49273
4093 5096 0.499259
3931 451 0.320291
5674 7657 0.173177
4093 5095 4.31943e-05
5782 1694 0.0380316
5674 418 0.196526
5674 7656 0.196526
5674 7654 0.039755
5673 1306 0.249036
5672 7652 0.339562
5672 42 0.283931
5672 7651 0.0359578
6835 1000 0.199446
2619 8327 0.249761
5671 455 0.330629
5670 455 0.317888
5781 8050 0.211427
4829 737 0.201133
4829 732 4.38067e-06
5669 7646 0.333012
1491 3316 2.49468e-05
5667 7642 0.200421
1278 1318 0.223067
5666 7638 0.500133
5666 16 0.00106406
5666 498 0.247774
1386 583 0.257963
5665 7630 0.0887379
1410 51 0.200273
1100 26 0.335112
5756 1539 0.365254
3962 1684 0.249757
2312 376 0.332839
1457 49 0.249262
6382 5577 0.165768
1457 498 0.00169163
5662 7631 0.499602
5661 7630 0.333012
3442 3419 0.000242679
5661 7629 0.333013
2475 858 0.117297
5660 1589 0.496218
5660 2898 0.496218
5660 16 0.00530057
5659 16 0.002459
5660 7627 0.00130054
5659 7627 0.331619
1131 55 7.20151e-05
1289 16 0.235543
1846 747 0.176299
2537 1521 0.377517
1289 2199 0.234471
5658 2274 0.177857
6531 1316 0.277249
2331 101 0.391917
1432 7874 0.333
1254 298 0.998616
5658 7625 0.109756
5658 444 0.355711
5658 7624 0.177857
83 3056 0.3325
5657 1235 0.336596
5657 4940 0.336596
5550 732 0.249189
5656 8 0.329435
2284 7618 5.35851e-06
490 7536 0.124446
4108 7618 0.0789686
5655 7618 0.292615
26 414 0.00042011
1637 4 0.35938
5652 730 0.279449
5651 7616 0.38686
2962 1261 0.24976
5650 7615 0.249389
5650 7614 0.249143
5650 82 0.00172676
5649 82 0.997568
5648 7613 0.24986
5826 8679 0.299366
5647 7610 0.3263
5647 7609 0.325044
5646 7609 0.0162225
5647 732 0.0213931
2153 333 0.249791
5645 7607 0.265323
5645 444 0.26526
5645 78 0.203132
5676 26 0.249509
5644 1441 0.303834
5792 5215 0.166451
5644 4 0.0875589
1548 2569 0.00131144
5643 7604 0.185557
5485 9266 0.158307
5037 1715 0.329648
5643 5688 0.185557
5642 638 0.428274
5638 5108 0.338389
5638 49 0.00122451
5637 444 0.296131
5638 7600 0.338371
5637 7600 0.351462
5637 7599 0.351444
6225 2301 0.195423
5636 20 0.14274
1749 1910 0.402355
2185 8530 0.306748
5635 4341 0.283903
5635 19 0.14733
2039 3330 0.00670914
2039 176 0.185547
176 7597 0.17308
2039 7597 0.185544
2039 141 0.18556
5634 55 0.235549
5634 1424 0.23578
5634 82 0.0558525
2558 5006 0.272764
1921 18 1.71655e-05
5633 2881 0.298136
5633 7594 0.298136
5633 815 0.296242
5633 1694 0.106524
176 7593 0.000134314
6671 6132 0.34589
5069 1792 0.263226
2037 5662 0.337629
1671 2648 0.190842
2923 5584 0.111067
495 46 0.0203916
2923 6544 0.111067
3179 3710 0.222732
5453 3119 0.188435
330 4374 0.249621
2999 3480 0.17232
5529 2437 0.21633
3061 6 0.2889
1275 601 0.00502024
5630 7588 0.249922
5630 229 0.249922
5630 7587 0.249337
5629 7587 0.00316387
5628 7586 0.40266
5628 7585 0.40266
5628 19 0.192931
2264 2515 0.0211961
4900 6461 0.125342
5624 957 0.142789
5624 7583 0.142789
4916 4340 0.249633
4592 494 0.312405
1985 46 0.380397
5812 7906 0.143639
6419 298 0.273172
5623 167 0.994106
4979 6 0.236561
5621 1170 0.401489
832 1149 0.331043
194 7581 0.187175
194 8 0.187175
5619 6 0.29175
5619 7579 0.353644
5775 7840 0.271027
5403 7576 0.199979
5418 892 0.250057
5403 6055 0.200016
5617 7575 0.328593
5617 500 0.328591
5617 7574 0.328593
2497 815 0.199781
5617 599 0.0132602
5616 599 0.999037
5615 599 0.999037
5614 599 0.237423
5614 7573 0.761614
5613 145 0.327152
270 225 0.0230432
5613 7572 0.0175983
5612 347 0.253158
6301 8661 0.249774
1998 3957 0.546782
5363 70 2.62685e-05
2707 46 0.209112
5285 1147 0.141356
5611 25 0.166489
5285 18 0.137109
5611 18 0.166515
5610 6139 0.249064
5610 6141 0.00536251
5610 42 0.246556
5608 7564 0.369818
5608 294 0.259392
5607 294 0.129809
5608 7563 8.87127e-06
4884 6440 1.35612e-05
5607 7563 0.43472
5607 670 0.434509
5606 444 7.80274e-05
5606 2430 0.0331798
3078 3571 5.92032e-06
3450 7561 1.86108e-05
5606 7561 0.146715
5606 2437 0.13083
5606 7560 0.146726
5606 762 0.146726
5272 7032 0.0107592
5605 1702 0.320124
3727 1289 0.14297
3727 7559 0.14297
644 414 0.100206
3727 294 0.141196
455 7558 0.499519
3126 7558 0.24933
5604 586 0.387345
3899 46 0.273946
5604 7556 0.223119
5603 7556 0.174949
5768 1034 0.236146
5603 7555 0.412735
5809 6586 0.124929
614 3330 0.890757
5290 7550 0.332171
3350 16 1.78969e-05
5290 7549 0.332171
2984 3330 0.106425
5602 33 0.000144751
5600 7546 0.199818
5606 913 2.40066e-06
5542 7543 0.254343
5598 7543 0.93205
5597 7543 1.67554e-05
1886 2063 0.998969
5598 2052 0.0669877
1485 9065 0.333428
5596 7542 0.318438
5596 6974 0.31835
5596 55 0.311983
5596 732 0.0502664
5595 102 0.147909
5593 7539 0.444252
5590 7537 0.386237
2331 7625 0.150064
5589 7536 0.447879
6601 4743 0.332758
4416 5636 0.248631
2972 3423 0.221498
5586 7532 0.386371
5394 315 0.166761
2054 46 0.398627
1708 5318 0.147608
5585 7495 0.249543
441 71 0.325079
5585 1536 0.249831
5585 770 0.249831
5557 19 0.148196
5584 100 0.333531
4554 3234 0.167435
5584 1141 0.333531
6151 6 0.113143
5584 6241 0.331942
5583 6241 0.00231718
3705 661 0.19997
5583 7529 0.498476
3758 4191 0.249782
1484 7080 0.143012
3992 7526 0.125387
198 3265 0.128612
1025 117 0.160527
2912 444 0.265032
2912 5796 0.00584235
4848 92 0.249759
5582 5796 0.203036
4799 376 0.169048
5681 7670 0.332855
5582 7525 0.207858
5581 238 0.00087707
5581 3353 0.16924
4561 5871 0.196419
6421 7528 0.249246
3841 370 0.166535
3841 3020 0.166536
4609 5653 0.19662
4858 6400 2.30906e-05
5636 2864 0.14274
4858 6399 0.497629
5580 1036 0.249759
5580 3301 0.249759
1204 1754 0.235417
5579 7521 0.986427
5578 7521 0.00193444
5579 1435 0.01261
5578 1435 0.251421
5578 7520 0.254651
5578 7519 0.254651
3531 5513 0.171479
1643 238 0.12716
419 369 0.166619
5575 2571 0.199807
1018 10 0.113275
5576 6134 0.165161
3889 4793 0.33306
4983 1183 0.018213
5576 49 0.164955
3262 1578 0.199467
5576 6294 0.165161
5576 229 0.165161
5576 1827 0.165161
1653 1084 2.88026e-06
3853 4736 0.199808
757 1866 0.425984
1620 33 0.334566
192 444 0.334875
4794 591 0.353576
2278 4642 0.190373
6180 2 0.333881
5574 7510 0.330112
5573 1694 0.578109
5572 593 0.303828
5572 7509 0.0877611
5571 7509 0.997485
4850 6386 0.33318
5127 9395 0.00614249
5570 7509 0.999037
5969 293 0.195713
5659 384 0.332469
5396 661 0.198855
1720 5377 0.267986
5396 347 0.198855
3252 3821 0.0865909
4306 49 0.126372
5565 229 0.234748
5564 229 0.333028
5565 1715 0.234759
5565 7506 0.234759
3387 4006 0.221421
3015 16 0.110591
4293 9052 0.333011
2401 69 0.0955959
2557 733 0.0348707
1889 25 0.00727707
3496 4166 0.332154
1889 7502 0.165382
1889 273 0.164853
4091 3351 0.501527
1427 3351 6.03262e-06
178 4678 0.111073
178 7500 0.111205
178 414 0.109681
1487 7499 0.127612
4829 6338 0.194394
5096 78 0.171833
3340 4148 0.936346
3638 1694 0.249673
13 2977 0.249616
243 837 0.125276
5168 7494 0.0695544
3521 7493 0.491397
1073 1520 0.197292
5559 7491 0.999037
2412 55 0.199891
5558 7490 0.999037
2278 7489 0.00289278
581 543 0.252328
5557 3828 0.283806
5556 19 0.000398713
5556 7488 0.499264
5556 7487 0.499375
1639 238 0.000385202
2321 7553 0.700314
5554 7484 0.188778
5553 7484 0.999037
2281 7483 0.498749
2281 1144 0.498749
4168 343 0.248957
5798 4551 0.310332
2281 16 9.02044e-05
3072 178 0.249788
5552 760 0.350413
5552 7481 0.294895
5551 7481 0.195897
5551 238 0.803141
1523 42 0.332985
5550 7480 0.374924
5549 942 0.249759
5548 7477 0.333017
5548 7476 0.333017
5548 33 0.333004
5547 7475 0.244544
5547 788 0.244512
5547 1555 0.0210097
857 1555 0.598988
202 267 0.166193
5544 62 0.288591
5543 7471 0.000546777
4233 46 0.169066
4862 155 0.261539
5544 7470 0.133349
5543 7470 0.998491
3183 7469 0.142718
1333 444 0.166507
5541 7467 0.333012
5541 7466 0.333012
5541 7465 0.333012
5540 2469 0.199782
5539 7462 0.354482
5538 7460 0.999037
5536 2733 0.332947
5536 7459 0.332947
5536 7458 0.332947
1334 143 0.460151
4809 7457 0.333011
4809 105 0.333009
4809 178 0.333011
5535 238 0.199372
6031 7285 0.333044
5535 7455 0.199372
5141 316 0.104518
2009 2217 0.00825431
2687 233 0.236411
3402 4022 0.321688
5535 115 0.199372
5534 6305 0.249765
1820 18 0.111024
5533 735 0.252348
5533 1428 0.25218
5533 233 0.243252
5532 7453 0.329061
268 220 0.193196
6166 8457 0.312953
5647 7611 0.3263
5532 892 0.329062
615 2099 0.20153
615 3765 0.201531
615 837 0.201531
5636 4341 0.285336
3116 3620 0.294346
3347 6305 0.226309
6423 8878 6.29963e-06
5530 380 0.200387
5530 436 0.197294
4555 5858 0.111008
5529 3765 0.21633
5529 1047 0.21633
5529 3032 0.21633
3465 4133 0.473568
6246 6 0.54643
5528 678 0.249484
2566 6977 0.0968119
3221 1646 0.210114
2566 794 0.193624
3232 3792 0.353035
2853 7449 0.118454
2853 7448 0.118454
4888 6448 0.166542
5526 16 3.72764e-05
5526 7447 0.333021
5526 7446 0.333021
5524 6 0.220846
5523 730 0.0218584
5522 2425 0.475887
5522 655 0.474405
5522 306 0.00343637
5522 451 0.0436401
4695 1665 0.199804
3510 8 0.226463
6025 444 0.226218
4695 500 0.399562
5535 7456 0.199372
5521 10 0.431654
5520 10 0.0285325
6288 444 0.252852
5520 18 0.320453
847 37 0.188571
5519 78 0.00181486
5519 30 0.332415
5519 2139 0.332393
5519 7441 0.332415
5518 62 0.166509
5518 364 0.166509
4908 6 0.0642646
1609 4769 0.166518
4908 55 0.308726
1887 2065 0.341325
4908 1280 0.000963914
3972 1280 0.498795
3972 7440 0.500243
1378 7438 0.142839
6592 9187 0.280477
3084 111 0.249497
1017 8141 0.250005
2291 2095 0.0364472
2291 7436 0.192522
3583 229 0.248672
5515 2142 0.199887
997 376 0.256056
3110 6241 0.236743
5515 5235 0.199798
5515 7433 0.199578
2109 7433 0.000521611
5514 4975 0.252912
376 320 0.0744191
5629 7017 0.995118
5514 298 0.252869
5514 191 0.252693
5514 7432 0.00249748
5512 102 0.236456
5512 763 0.254194
4371 5533 0.253975
5509 7429 0.154629
5820 5207 0.249832
5509 1115 0.281503
5508 7426 0.333012
5507 7425 0.199812
5505 4021 0.22018
1116 19 0.249697
5504 7287 0.250243
5504 7422 0.250361
5504 414 0.248238
5503 7420 0.401456
5502 7421 0.999037
5501 7420 0.326033
5501 1226 0.326033
5501 46 0.000150307
5080 2437 0.298317
5500 7420 0.279211
5500 7419 0.205801
2439 6 9.91607e-05
5126 2413 0.333012
5497 1149 0.249768
3858 4752 0.250984
5497 2419 0.249737
5497 7416 0.249768
1918 2096 0.199827
5496 7415 0.166506
6230 8549 0.252053
2283 7413 0.00125175
4920 744 0.999037
3688 403 0.539819
5494 7411 0.465296
5493 306 0.200044
4550 5848 0.199825
3121 7406 0.113088
1443 7404 0.164087
5043 8831 0.59104
179 317 0.0778527
3315 7403 0.199807
53 4012 0.0561747
905 7402 0.199741
905 4012 0.199687
3393 42 6.06483e-06
5771 240 0.357498
5492 42 0.310659
5491 708 0.322534
5490 794 0.000373981
1646 2756 0.24523
5830 317 0.23278
5489 1739 0.166524
5489 7396 0.166486
6638 2947 0.332991
2102 7395 0.000982805
5487 141 0.200012
5487 25 0.19899
20 230 8.10836e-06
5486 7392 0.200576
5486 46 0.200486
6106 444 0.15028
5486 4 0.197574
2972 170 0.0845871
2020 2900 0.166506
5483 35 0.332284
5484 49 0.00371733
2164 12 8.26415e-05
5483 55 0.00209609
5349 5218 0.260483
5482 62 0.250863
1141 233 0.357243
5482 331 0.247304
5482 1709 0.250863
4595 5481 0.000196554
4594 5481 0.164367
5482 336 0.250007
5480 336 0.00163324
931 930 0.295387
5480 892 0.0394745
5699 158 0.249364
3028 233 0.199807
5511 26 0.24981
5480 2500 0.478965
2407 969 0.169344
5479 7389 0.253536
1367 6276 0.16614
6692 9367 0.140795
5479 2401 0.209529
623 1181 0.174007
2714 23 0.198085
5478 3119 0.409106
2713 23 0.000196121
5822 141 0.034438
1008 3362 0.164246
5485 9193 0.316846
981 9598 0.247975
166 7494 0.210364
558 8174 0.122568
514 16 0.230856
700 679 0.166423
6105 8371 0.00020421
3094 7886 0.333024
1959 712 0.402454
5476 5247 0.24923
5476 7382 0.24923
2648 7381 0.243627
2648 7380 0.243627
6241 1264 0.127095
674 5446 0.339535
5157 989 0.166532
4730 7377 0.26997
5473 7376 0.249782
2556 4 0.261964
4853 661 0.199864
5473 7311 0.249782
4988 6188 0.249594
365 8 0.999037
822 3126 0.6531
5473 6549 0.249782
5472 7375 0.276247
5605 6 0.00101908
5472 6549 0.276247
5472 7374 0.276247
5472 1110 0.170295
5471 6549 0.333016
5471 33 0.333005
2016 7373 0.175383
6452 450 5.85079e-06
4605 7372 0.250141
5470 1052 0.199824
5470 3798 0.199824
5470 583 0.199824
5470 25 0.19974
3413 4035 0.250502
5470 7371 0.199824
6091 8352 0.999037
2911 69 0.998762
2911 7370 0.000238342
1515 7978 0.000187685
3105 2469 0.116791
5469 69 0.26439
5968 4940 0.249799
5844 4872 0.316019
2233 4 0.199811
1096 1116 0.261227
3993 49 0.0728891
3476 1270 0.199838
2793 7058 0.241284
5468 7365 0.311573
5468 1602 0.0402669
5468 16 0.0253865
5467 500 0.246104
5466 108 0.333012
3402 4023 0.0339829
1818 2002 0.420971
1465 7357 0.196261
5464 740 0.166012
5464 7356 0.166624
5464 735 0.166624
5464 23 0.16653
5464 7355 0.166624
5846 7969 0.249719
490 7618 0.124443
5463 55 0.254217
5775 7839 0.185955
5515 7435 0.199887
5462 760 0.278126
4213 593 0.332876
4080 5804 0.245828
5462 7352 0.278126
5460 6108 0.470385
5460 7350 0.470385
5460 1183 0.0582667
3631 451 7.58056e-06
5459 6 0.00121772
5459 7348 0.39573
5459 3176 0.206359
5458 3176 0.999037
2604 2947 0.204403
5207 3994 0.18397
5207 644 0.18397
2574 2905 0.355378
4469 794 0.166638
501 7346 0.199058
21 5133 2.63343e-06
6014 403 0.196208
5457 7345 0.333006
5455 1312 0.499495
6158 8449 0.377648
5455 7343 0.499543
5839 669 0.332531
5777 4 0.286794
3102 4743 0.304324
3042 16 0.00861008
4098 7341 0.276388
916 5249 2.07026e-05
4098 178 0.170042
5452 178 0.999037
4535 7340 0.249822
5450 453 0.333012
1683 143 0.185401
5449 3454 0.33341
5448 7089 0.00324625
3773 2312 0.246867
5448 655 0.343952
5448 25 0.345904
5447 7337 0.103769
540 504 0.166506
5446 7335 0.845008
6663 9318 0.554711
1010 4892 0.303706
5444 7333 0.249759
5444 5808 0.249759
5444 7332 0.249759
619 7330 0.196365
5443 4269 0.937625
5441 705 0.333022
5442 5463 0.332503
2048 2258 0.200038
5441 5463 0.333002
5442 662 0.332726
3050 1338 0.201699
2908 3351 0.166514
5439 7328 0.318607
5439 5926 0.3156
5438 5926 0.00481624
5440 1880 0.374466
5438 1880 0.45797
5438 7327 0.536251
5437 7326 0.340259
1140 10 0.33244
5437 7325 0.31852
2590 7325 0.349857
5435 7323 0.0138416
6517 3202 0.00389592
5435 342 0.985196
5433 7321 0.925506
4360 4128 0.490635
5432 2351 0.249813
2982 3452 0.125061
5432 19 0.249598
5555 137 0.0814202
4160 7316 0.384481
5430 2686 0.200039
5430 7314 0.200039
5110 3454 0.211287
5428 7313 0.27435
2860 7312 0.93626
1384 1950 0.204109
3845 2 0.166508
5427 238 0.252292
5427 61 0.186355
184 146 0.255444
5425 2 0.249752
1545 7308 0.44911
3121 7188 0.113088
1545 46 0.100169
5424 7306 0.265516
5424 1694 0.202611
679 100 0.249759
5421 825 0.241294
5421 3315 0.0338923
5420 517 0.243312
5420 7304 0.243312
5419 10 0.381442
5418 6 0.000176838
5418 4 0.247605
5418 7299 0.250599
5417 7297 0.332865
5417 7296 0.00114813
5416 7296 0.759811
5416 233 0.237591
6129 744 0.166512
5413 7295 0.333012
1224 4661 0.000244278
847 107 1.13406e-05
2567 2898 0.332954
5411 408 0.336677
4959 317 0.166738
5410 7293 0.499519
5571 403 0.00155269
4924 6501 0.208549
891 418 0.255992
719 229 0.244742
3771 2571 6.7987e-06
5409 7290 0.24977
5409 10 0.249722
5409 7289 0.24977
5409 815 4.13916e-06
5493 7409 0.200044
4017 5000 0.249638
5408 2912 0.442114
5408 7288 0.11506
5407 7288 0.424817
13 7287 0.249808
6505 9036 0.460689
3353 64 0.17022
4764 4021 0.212459
5406 4 0.249191
1608 1735 0.327985
1583 46 0.20005
4648 3231 0.340332
2566 7450 0.0968119
2189 7283 0.679254
5404 7281 0.999037
4784 4 0.000526375
4374 7439 0.251447
505 463 0.26236
2951 7279 0.249769
2951 7278 0.249769
2951 356 0.249769
1345 1401 0.250521
5402 7277 0.333249
5137 6819 0.28084
490 7621 0.124446
5402 1694 0.33254
3133 1610 0.118944
5401 1047 0.258941
5401 7275 0.258941
5400 1702 0.329208
2916 6128 0.248124
5400 7274 0.329208
5400 7273 0.329208
5399 10 0.333021
5399 7271 0.333048
2765 3160 0.243808
5398 46 0.211541
5398 25 0.211557
5398 1868 0.211648
5398 4 0.152644
6072 8331 0.199236
5397 155 0.249767
5605 7559 0.320124
5397 774 0.249767
5397 55 0.249627
5397 7269 0.249767
5396 6 0.00476486
2835 3245 0.511949
5395 16 0.202669
6023 298 0.272753
5395 189 0.159694
5572 6773 0.303849
5395 10 0.159505
5557 376 0.283637
5395 7266 0.1597
4965 267 0.145237
548 509 0.0145157
424 837 0.461413
5394 1044 0.165484
34 8889 8.44213e-07
5394 4 0.166723
5393 7264 0.199855
5393 1258 0.199855
5393 7263 0.199855
6229 601 0.157856
5392 7262 0.332938
5392 5766 0.332938
637 607 0.544623
5390 2756 0.266622
5380 7258 0.166553
5380 3135 0.166553
5467 376 0.246104
5380 42 0.332905
5380 7257 0.166553
5389 16 0.0543838
5388 16 2.11408e-05
5388 7255 0.345276
5334 49 0.249432
5388 593 0.308465
4905 46 0.124874
4338 601 0.199408
5444 1214 0.249759
5386 6 0.0566704
5386 7250 0.241007
6494 9005 0.430339
5386 112 0.219347
97 43 0.112232
5386 7249 0.241007
5386 7248 0.241007
5385 3257 0.291777
2514 967 0.241407
2514 2823 0.241499
3356 3975 0.31596
6753 464 0.311339
2995 3473 0.166889
2598 3326 0.329142
2598 451 0.00199691
5383 7242 0.265313
5383 7241 0.265313
5382 1149 0.166552
5382 78 0.166545
5382 4 0.166285
5382 794 0.166552
5382 7240 0.166552
1757 3678 0.108597
5879 4766 0.406988
1757 7239 0.238968
6097 8360 0.00672651
1757 5280 0.108597
1654 8404 0.371868
4929 239 0.0626227
5035 7237 0.124671
4691 6065 0.339946
5035 7234 0.124672
5381 7235 0.249795
5035 46 0.124484
5035 4 0.00195931
5378 1460 0.133045
5379 7233 0.00919201
5378 7233 0.2877
5378 10 0.289143
6034 4997 0.161031
5377 3257 0.265246
5376 678 0.114782
5375 115 0.00187789
6802 7097 0.226505
5373 16 0.177495
5373 1641 0.197799
5373 1640 0.228599
5079 315 0.0434946
5371 62 0.30652
5844 238 0.0012618
5845 238 0.482665
1092 583 0.181012
5371 16 0.0772108
3870 7225 0.0023046
5371 543 0.00508003
3870 543 0.243504
5370 6 0.320074
3998 18 0.178539
3659 6 0.349775
5369 7222 0.199894
5369 4678 0.199895
5369 25 0.19946
5369 7217 0.199895
5367 2258 0.249803
1542 3389 0.249789
6762 9493 0.333164
1553 85 0.167354
1880 3748 0.222109
3108 2074 0.24973
1880 7217 0.222109
5415 4412 0.274917
2745 8976 0.291365
6534 9084 0.394408
3265 7209 0.199807
569 1610 0.199725
5366 7212 0.168366
5366 229 0.168366
5366 7211 0.168366
3166 1214 0.999037
1712 8397 0.260915
614 112 0.0282568
5365 7209 0.325004
5364 7208 0.505124
4430 100 0.249785
6106 8374 0.150417
3482 4744 0.249722
2140 2049 0.199738
5425 51 0.249762
3538 345 0.0841524
4645 107 0.0858307
5362 7204 0.205332
5362 7203 0.205332
5362 55 0.180596
6372 4760 0.24979
5362 7202 0.205332
1835 2013 0.217812
5361 7200 0.250029
5361 730 0.250029
2389 569 0.251125
2709 3085 0.167579
4161 7784 0.220099
2837 3944 0.121681
4033 55 0.374605
1145 241 0.310946
1145 3720 0.31095
1145 1428 0.31095
1145 112 0.0661882
5360 1092 0.33206
5360 238 0.333386
5359 708 0.277852
5979 444 0.292424
1833 2010 0.199828
5359 4 0.161729
711 1426 0.166907
5359 7193 0.0037514
5359 7194 0.277852
5213 453 0.199641
711 1424 0.166839
5213 7191 0.199968
5213 143 0.199569
4382 989 0.0115839
3704 6514 0.175841
5358 2923 0.199871
5358 7189 0.199871
5358 229 0.399417
5358 5833 7.64742e-06
1305 1346 0.416842
3121 187 0.112871
3121 72 0.113074
5356 46 0.216379
5356 6911 0.218681
4038 5971 0.266749
2210 3257 0.146516
4038 6146 0.266748
5355 2883 0.203634
5355 229 0.795403
4541 7185 0.248053
4134 1136 0.249856
4669 3330 0.252027
4541 7186 0.248053
2716 1082 0.246356
4541 744 0.248053
5354 7185 0.249816
5600 317 0.199818
5354 25 0.24959
3029 7180 0.287395
772 82 0.112333
273 4907 0.201598
298 252 0.348287
273 3516 3.14583e-06
5351 7177 0.498866
1123 7176 0.148358
971 267 0.245513
1197 7175 0.210336
4085 4985 0.197102
5350 7174 0.249807
5350 7173 0.249807
5349 2711 0.260483
4561 5872 0.196419
2461 2746 0.4988
5349 7172 0.260503
5348 7171 0.452039
1697 683 0.249749
711 692 0.166921
2840 193 0.171377
5347 7170 0.208522
5347 2 0.208503
5347 7169 0.208521
2483 141 0.327679
5346 376 0.999037
1265 2 0.199885
1265 141 0.199473
5345 7164 0.303122
5345 760 0.303122
5345 7163 0.303121
370 6038 0.300963
1996 489 0.313425
1843 7162 0.100423
1043 1066 0.512483
1043 1065 0.486554
1366 6 7.15493e-05
1831 6 0.260426
4154 1044 0.199605
4154 19 0.000535175
825 7158 0.156853
1139 708 0.396313
2583 2921 0.166277
683 114 0.14707
683 78 0.11652
247 1983 0.134156
5343 892 0.200079
5342 892 0.167988
5341 7151 0.166599
5340 825 0.000382513
5340 1176 0.279556
649 7 0.499617
5340 7150 0.279557
4409 5621 0.199798
5667 5839 0.200421
5339 1332 0.249765
5339 19 0.249722
5339 7149 0.249832
614 49 0.0732078
5338 376 0.317422
2944 1270 0.00064774
5338 7145 0.317977
5421 7306 0.241346
1898 19 0.348429
5426 10 0.491541
3096 482 0.000273564
876 3073 0.0465032
3902 7142 0.204603
3902 1446 0.204591
3902 25 0.204514
3902 638 0.204603
3578 4290 0.164968
3156 62 0.361874
5663 7632 0.215135
5332 329 0.259871
5332 2107 0.259871
1247 7998 0.293407
2751 638 0.134592
2751 7139 0.864445
1247 7997 0.293407
5331 1335 0.000928638
1757 7238 0.108597
5331 3137 0.499054
1379 815 0.108943
5331 7138 0.499054
739 7137 0.110496
5506 6057 0.249823
