non mando 4.16667e-09
diossen malvados 9.63851e-10
non permanece 7.02377e-09
yoiti destiempo 1.1733e-07
ea libró 3.0366e-09
ibonra suyos 4.69492e-07
menia gracia 4.01611e-08
diossenra santa 1.13902e-07
yoiai demás 3.71013e-07
ikax admiren 2.88274e-09
raroshaman orgulloso 1.27306e-06
keskáakin moneda 9.03313e-08
yorama casa 9.44083e-05
wishaxontibo cartas 2.01891e-05
itan debería 5.64668e-10
jaton causarles 4.10039e-09
noia afligido 1.26719e-07
akáx compararme 2.32264e-07
itan quiere 8.64095e-09
wetsa espigas 1.90866e-08
wetsa recoger 8.6632e-09
nokon muestra 1.35183e-08
yoia muestra 4.16032e-09
noemíman bendito 9.86499e-07
noemíman booz 2.89655e-05
rabiamaibora gracia 0.000165455
ankianobaon resiste 3.17489e-07
neskati revístanse 2.46429e-08
mawataboribi viven 1.29551e-05
ikanon tinieblas 2.32977e-07
ikanon él 4.10324e-06
ikanon proclamar 2.45077e-07
iikanainbi para 0.00014052
ikanon ustedes 6.0708e-06
ikonhabo rey 1.98766e-06
oinnoxiki alabanza 2.98311e-06
jesukristo alabanza 2.05313e-07
iken alabanza 8.50427e-09
betan sincero 2.6403e-09
yoina mancha 1.9241e-06
yoia mancha 6.62211e-09
yoixonai obras 1.51564e-06
kikinhakin estaban 1.26962e-06
jaskárakana todos 5.34461e-05
jakon nuestros 2.05437e-08
bake jóvenes 1.18616e-08
jakon oración 2.82622e-08
iketian negaba 1.88743e-09
jaki perseguidor 8.87803e-09
jaki un 8.16596e-07
ikon humanos 7.5055e-08
jawen caerá 1.92224e-09
noa permita 1.00526e-07
non permita 2.81684e-08
jatíbi damos 3.50629e-09
noa dependemos 1.65101e-09
ibon doy 6.70186e-08
xobo recibido 4.48601e-07
xobo espíritu 2.47944e-07
jakonma mí 1.2667e-07
jatíbi piensen 3.15978e-09
mawata pecados 9.28965e-08
jatianparira es 2.91035e-05
tsoabi interpretar 3.63761e-08
onantiakin canto 9.55234e-08
kriston son 6.72622e-07
jaskáribi cuerpo 9.20475e-06
ikanaitian otro 1.31458e-06
en comunión 7.61944e-09
moisés recibieron 5.86411e-07
moisés todos 3.14913e-06
jesukristo nos 5.93224e-07
diossenra este 1.93404e-07
akinti vuelvan 6.60616e-08
en vuelvan 1.0923e-08
itan vuelvan 4.93721e-09
mato vuelvan 2.27404e-08
maton expresan 2.18881e-09
mato expresan 1.58068e-09
yokatai discursos 3.68415e-07
aká vergonzosa 1.55684e-09
sakerdotebaon seguramente 1.08971e-07
sakerdotebaon impuros 6.41008e-08
sakerdotebaon altar 5.77206e-08
katota era 2.46457e-06
omisa era 5.14918e-05
apo saco 3.46303e-08
mia anuncia 7.16391e-09
jema anuncia 1.08146e-07
jakon monte 1.53986e-08
winikanwe digan 4.00173e-06
icha producir 1.85083e-08
diossen proclamando 5.24719e-10
jainxonra fue 1.2625e-06
jainxonra seguida 3.86019e-07
jato llevará 1.68498e-09
janeya simón 1.46355e-06
jaskáaxonra invitó 2.10277e-07
saulonbiribi destruir 3.92208e-05
saulonbiribi saulo 5.5788e-05
mato oídos 1.07496e-08
noa sinaí 1.92905e-09
meranxon apareció 1.74898e-07
moisés nació 2.95563e-07
jeman mandó 3.24206e-07
jeman pueblo 1.87126e-06
jeman estimada 5.5146e-07
nato gamaliel 1.40564e-09
joni echarnos 1.11608e-08
jonibo echarnos 3.02093e-09
jatianribira cantidad 1.31173e-06
yoinon ahora 2.84401e-06
jesús afirmaban 3.21346e-08
jati señor 5.68286e-08
non miran 8.35409e-09
nokon césar 3.68024e-09
pablo roma 2.87118e-08
ikenra esperanza 8.97776e-08
mia protegeré 4.6173e-09
judíobaon jerusalén 5.56123e-07
judíobaon reclamarme 5.13991e-06
itan reclamarme 6.89225e-10
nobé reclamarme 1.60825e-07
feston reclamarme 4.99558e-07
yoikana ha 4.48159e-06
judíobaon ha 6.06309e-05
feston ha 2.23621e-05
feston judíos 9.49348e-06
mia llamaré 1.52615e-08
bebon voz 6.80954e-08
baritia vuelto 8.31361e-08
kaibobo soy 4.7296e-06
sakerdotebaon sabía 1.10851e-07
basiora sentado 7.37764e-06
ikonhaax conversión 2.88994e-08
kaa consuelo 1.31746e-08
joi eso 4.92567e-08
pablo acercó 1.45502e-07
pablo enseñando 1.31476e-07
ankianobaon recibidos 4.332e-07
menia aliento 5.2163e-08
menia mensaje 1.10875e-07
jato leyeron 2.02728e-09
ikonbiresi leyeron 3.83245e-08
jatian leyeron 4.51377e-10
judíobo ciudad 4.71796e-07
betan distinguidas 4.27836e-09
jakobo matar 1.94749e-06
jeman jope 1.10331e-07
joi tomó 4.22387e-08
nokókana cornelio 3.83378e-07
nokókana cesarea 1.13096e-06
boax otro 8.12456e-07
nato ninguna 2.56163e-08
jara camino 9.68181e-08
jara hora 1.52939e-08
jara de 2.3362e-06
jaskati tiempo 9.51571e-08
jaskati misericordia 1.23465e-08
jaskati tu 2.46007e-07
jaskati vas 2.23033e-07
kopíra ti 9.10374e-08
bakebo cam 7.60203e-08
yora cumplieron 1.84587e-08
efraín pueblos 4.16291e-06
kaai descendencia 2.05377e-07
kaai grande 3.36874e-07
kaai menor 1.67122e-07
kaai hermano 4.59079e-07
jake mejor 5.71907e-08
mia son 1.31207e-07
awinyabi sus 5.84739e-05
itan benjamín 1.40251e-09
kati antes 2.54909e-06
kati pero 3.94766e-06
neno dense 7.80394e-08
banéti culpa 1.62603e-06
jakobnin comer 4.35999e-07
jakobnin él 2.35828e-06
xobonko dio 1.23325e-06
josé gobernador 4.23191e-08
yoia tengo 1.32643e-08
maton tengo 1.62141e-08
inontianra siete 5.41771e-07
kaínman lanzó 4.65116e-07
jawebi tiene 7.55437e-07
jakonhakin campo 1.3847e-05
judakan tiempo 5.06703e-06
jaskata bastante 1.14325e-07
jawé casa 1.4503e-05
noa atando 2.45841e-09
ainbobaonra e 1.67233e-05
bake e 3.19377e-06
bakebaon e 1.50913e-05
benbo e 3.63906e-06
jatíbi e 5.72461e-08
wetsaboyaxonbi tus 0.00214397
bake rahuel 7.66568e-09
jaskáakin muertos 1.33792e-08
retekin varones 1.25412e-06
keyokana entraron 5.69363e-05
itin hacen 4.35352e-07
nokon guarda 1.71995e-08
rabé siervas 7.94971e-09
en corderitos 1.71928e-08
yoiribia parían 3.51292e-07
jatian parían 4.43259e-10
ixonra pronunció 5.57957e-08
jain hiciste 4.65137e-09
jakobnin robustas 1.36584e-08
labánman rayados 2.98677e-07
jakobnin tomó 4.65278e-07
pikotaio oriente 2.20908e-05
biketianra casa 3.09799e-05
en perderlos 1.81577e-09
kenaxon rebeca 2.05476e-07
nokon bendición 8.88048e-09
nokon primogénito 1.42593e-08
aká después 2.46313e-08
isaaknin caza 1.55769e-07
diossenra yavé 1.30981e-07
min pasar 2.60596e-08
wetsa antiguo 7.46739e-09
ibo finca 1.28916e-08
manan sara 3.36319e-07
nokon sepulta 6.3532e-09
jainxon hijas 1.04101e-09
abrahamman continuó 5.54115e-08
abraham quedaba 1.07859e-07
papa multitud 2.53888e-08
imanoxiki nación 1.82083e-06
ixon hablaba 7.92814e-09
betanbi hablaba 4.51815e-07
ibon llegó 1.49042e-07
axon alianza 2.43694e-07
jawékibo pertenencias 6.42158e-09
jema dan 2.00891e-07
abramman trescientos 2.38165e-07
ra lot 6.52226e-05
ainbo hermosa 1.32784e-08
semman hijos 2.92824e-05
semman son 4.41306e-05
semman estos 0.00010224
janea peleg 7.10886e-08
kamman son 3.60528e-05
iwé luz 4.34149e-06
oveja gentío 3.97736e-07
bautizanai le 4.85717e-06
jaonmea siguieron 1.31703e-07
maestró seguiré 6.4251e-08
oveja feroces 3.09193e-07
biti secreto 1.51983e-07
mato perdonará 3.17045e-09
jatinko reino 1.53931e-05
onanmaibora reino 0.000200714
yoiaibo definitivo 8.6298e-08
jonibo venían 5.90088e-09
ikaxbi pués 1.77256e-09
jaskáakin lloró 5.65113e-09
jaskáakin fuera 1.91535e-08
chopa rasgó 2.92473e-08
ea detuvieron 2.38117e-09
jainra novio 2.20954e-07
oveja unos 1.47826e-06
ea entregaste 2.04532e-09
rabé recibió 1.8894e-07
ibo vendrá 2.34058e-08
ramianoxiki ciudad 0.000147884
ramianoxiki o 0.000314314
jaskati otros 1.14574e-07
kaman salmo 1.65607e-08
dios él 1.58613e-07
esekanra tener 2.06386e-05
reken acercó 8.21493e-08
ibon egipto 3.56011e-08
titabi egipto 2.69874e-05
aká mandamientos 7.55849e-09
jato verdugos 1.45186e-09
kaman verdugos 2.33612e-08
ja verdugos 4.92198e-10
jaskáakin ofreció 3.33905e-09
jene nos 8.408e-07
jesussen monte 1.86454e-08
jesussen aparte 7.97289e-09
moiséssen esposa 1.18581e-06
bero buena 4.44402e-07
xewina plantas 3.99165e-07
jato oyendo 1.11612e-09
nete tres 2.51866e-07
jonin calumnie 4.10179e-09
tsonbira hijo 4.45034e-06
tsonbira conoce 1.59061e-06
jaskara vuestro 9.01749e-10
mia traído 1.48e-08
tsinkíribia juntó 1.65776e-05
jatíbira hace 3.58891e-06
jesús aguas 8.28644e-08
jesussen hombre 4.86409e-08
jesussen sal 2.38492e-08
akin a 1.75222e-06
jatianra sumo 3.80629e-09
jesussen negación 4.29481e-08
pedro negación 2.67888e-08
jainxon sus 3.17673e-08
kanchis pasó 1.17757e-07
boribakana caminando 2.57639e-06
orani solitario 7.24467e-08
tsinkíkana puerta 1.0942e-06
yoiti cielo 5.82592e-07
koshi ángeles 6.22921e-08
papan gloria 1.79511e-07
ikenbi jesús 1.95201e-06
jato bautismo 3.37796e-09
jabora doce 7.1216e-08
yoia enseñar 5.01564e-09
xobonko sígueme 4.84742e-08
ointaanan paralítico 8.03252e-07
jesussen leproso 2.88889e-09
bake aminadab 5.60788e-09
ja eliaquim 2.78924e-10
neri melquí 7.27277e-06
bain ellos 2.73471e-06
chonka jerusalén 1.49359e-07
chonka kilómetros 2.02332e-08
jesús consejo 2.47773e-08
pedro mirada 1.56536e-07
maton tronos 5.04964e-09
jikia sobrenombre 8.67417e-08
aríbaa esto 1.96981e-05
aríbaa dio 2.21475e-05
ikantira cerca 5.3609e-05
jaskara hago 2.27346e-09
jainxon sabiduría 2.0155e-09
jainoax jesús 4.33295e-08
ibo dijeron 3.17575e-08
iti siento 5.90943e-08
nai pasen 1.74709e-08
mawata mío 1.69892e-07
bake haberes 2.54868e-09
jatianra preguntó 5.59824e-09
jawen repartirá 6.57737e-10
meran jueces 2.68395e-09
meran sinagogas 1.97926e-08
jakon recibirá 6.93776e-09
kastigameti aseguro 4.34979e-06
jaskarabo ciudad 2.22944e-07
nokon viejo 9.93017e-09
joá llevar 2.0098e-07
diossen recibirían 2.09147e-09
jaskati NULL 7.28385e-06
pimati gente 1.85431e-05
nokon escucho 1.69465e-09
pichika pórticos 5.77626e-07
non hora 6.37244e-08
xeai daré 7.32814e-07
atipanyamake entrar 2.18576e-07
nato hablo 5.50656e-09
iká crucificados 5.60647e-10
ea hubieras 1.40428e-09
jaskara patio 1.53198e-09
ninkáxonyamakin tampoco 0.00035353
jawebi pidan 6.06909e-08
jawebi nombre 4.08165e-07
jawékibo propio 4.32693e-08
iti caminos 1.63056e-08
judas entró 6.93825e-07
nokon mandato 4.01624e-09
akin alma 1.34117e-08
ea alma 1.82506e-08
judíobo entre 2.80589e-06
enki te 0.00011634
maría marta 1.75075e-07
mia apedreamos 6.61988e-09
naman te 4.04399e-06
naman crees 3.51334e-07
iketian carga 7.34576e-08
diossenbi dios 3.92644e-06
iamaa por 0.000121367
kopí nacido 9.82216e-09
jara estaba 1.10871e-07
jananra nuestro 0.000163753
jan libertad 1.96552e-08
jaweratoboki palabra 2.52838e-07
jakonhakin segura 7.40302e-08
jakoni rebeldes 8.68156e-06
yoiti podemos 5.20309e-08
bakekonshaman esperamos 2.06425e-05
papá gritar 4.14972e-07
jawéki necesariamente 2.57985e-07
ocha habría 2.38895e-07
noa actuaban 1.74112e-08
ochabo muerto 1.74572e-07
ocha obedeciendo 2.3527e-08
kopíres nuestro 4.7189e-07
wetsa hacemos 6.02482e-09
yamaatianbira ley 2.73293e-06
jesukristo eso 3.36225e-07
ikonhaketian señor 1.34727e-05
ikai comprobará 8.47584e-09
aká cuya 6.281e-09
ixonra juicio 8.40425e-07
benai escritas 6.81726e-08
benai leyes 1.39121e-07
benai obra 1.86554e-06
benai debe 6.22274e-06
ixon afirmas 2.34935e-09
jawékibo judío 1.33317e-08
jawe disculpa 1.32345e-08
jabicho sabio 5.8483e-07
jaton cumplir 2.08433e-08
moa tropiezo 3.82582e-09
imaa muéstrate 1.40188e-07
ixon ayudas 2.29715e-09
maxkatabo capaz 0.00553862
ochaomabi conviene 0.000522618
jatiobi ternura 7.06364e-07
ochaomabi ruego 1.6131e-05
noa construir 1.61441e-08
jabaonra justicia 5.9922e-07
jabaonra verdadera 6.57745e-07
jabaonra nos 3.87553e-06
akinna todos 2.44379e-06
akinna gracias 2.24054e-07
iketian doy 2.76674e-08
jaton apasionan 2.09026e-09
imaa evangelio 8.29359e-08
jatianra abrahán 1.63173e-08
yoia david 8.45299e-09
maxkatatianshaman gracia 6.23199e-05
jesús nuestro 3.13379e-08
joi prestar 1.16915e-09
akinyamai ventaja 6.89585e-07
moatianra voz 5.03845e-06
kopí debían 9.86065e-09
rarotitianbi consideró 3.19779e-06
iti consideró 9.26594e-09
ikax sincero 2.07638e-08
imati dios 1.50623e-05
shinan recibimos 2.2138e-09
joni hacerse 1.42418e-08
jabaon nosotros 6.21054e-07
jabobiribi la 0.0135263
jabaon considerados 1.7338e-07
jayamake ahora 3.7699e-06
akábo privada 1.83379e-07
dios vivir 1.27579e-08
jawéki anatema 7.54447e-09
mawákasai quiero 3.23408e-05
jakon necesario 3.81736e-08
iti pareció 6.31866e-08
iken cárcel 1.38115e-08
ea en 2.90761e-07
janenko siempre 1.3551e-07
noa talento 2.5686e-09
joi otros 6.38878e-08
jaskákinra quiere 5.40546e-06
westíorabicho ellas 1.79764e-06
kriston somos 1.70611e-07
papa sea 1.27458e-07
neskarabora digo 1.17267e-06
joni marcados 2.25376e-08
jemameabo nación 4.15129e-05
min compraste 2.72483e-09
jakonmabires libro 7.77641e-07
jan cristalino 9.74652e-10
jabora reinaron 2.31486e-06
chii lago 6.29095e-07
jainxon nombre 9.19645e-09
jainxon mi 1.57001e-08
jainxon sufrido 1.63463e-09
jainxon has 8.08832e-09
jainxon constancia 1.43438e-09
jainxon falta 3.66209e-09
jainxon te 1.1743e-08
onanke servicio 1.2786e-07
diossena gloria 4.32548e-06
raromati ropa 1.62611e-05
raromati mantiene 3.08332e-06
raromati feliz 3.06444e-05
riki mancharon 9.11556e-10
kordero sión 9.2697e-07
riki cifra 1.2185e-09
ikana muerte 2.25638e-07
jabo muerte 3.85895e-07
korderon sangre 2.39971e-06
bebon dueño 8.95471e-08
jainoax relámpagos 1.2353e-09
kopí escapando 5.69379e-08
jabora escapando 2.64725e-07
ea elegir 1.733e-08
onanmaa posee 2.94821e-07
non comienzo 8.21038e-09
non libró 1.08302e-07
neten gracias 1.43664e-06
mia gracias 5.17684e-08
akinoxiki misericordia 3.36e-05
ramara nuestro 2.27528e-07
ramara venida 6.86363e-07
iketian encuentren 5.27606e-08
noa ajusticiados 2.07249e-08
benbobo hijas 1.64205e-05
bebon recibir 1.95204e-06
jara hombres 6.24798e-08
jara edificio 3.6274e-08
jonibaon campaña 7.18366e-07
en causarles 1.17895e-08
bebonxon cristo 5.62536e-06
wetsa horrores 1.5624e-08
wetsa lamentarme 1.61082e-06
nato combate 1.20858e-07
ikibo intrépido 2.78213e-07
wetsa partes 9.90499e-05
wetsa cambio 2.48581e-08
wetsa o 2.54953e-06
wetsa rescate 3.98171e-08
nato conveniente 5.62376e-08
min conveniente 7.67693e-08
ayamake tuyo 4.00645e-05
onpax cántaros 6.07334e-07
mato respuesta 1.13174e-07
min desconocido 3.08883e-07
koshi afirmarlos 7.1412e-09
kopíres jesús 4.83229e-06
jakonmaatai amenazas 4.18242e-05
jakonmaatai teman 0.000134899
jakonmaatai mal 3.55788e-05
ikaxbi opone 6.35727e-08
ikanon luz 0.0583529
ikanon llamado 1.49223e-05
ikanon maravillas 2.78662e-05
ikanon para 0.00499884
ikanon pueblo 6.86919e-06
iikanainbi ustedes 0.000183375
jainoax afirmarse 1.8676e-07
ninkáxonaibaon obedezcan 3.55856e-05
ikonhaa sólo 2.59501e-06
jimi mancha 0.00401112
jawékinin oro 3.50712e-06
ochara muerte 0.00148662
ochara lleva 9.57364e-05
ochara pecado 0.000137688
meniti vida 4.79961e-07
jati dará 6.53246e-08
ochara hermano 2.27442e-05
jaweratoboki jesús 9.61025e-06
jaskaakin cambio 0.000284469
atipanyamake quien 3.67444e-06
yoyo reconocer 6.98656e-08
jake confiesa 4.38951e-09
jakon habrían 6.18536e-08
nonbi visto 4.14849e-05
oinna conocer 5.89514e-07
non estaría 2.75283e-08
joi estaría 3.23948e-08
axeaishamanbores enseñanza 0.00155918
yoiananbi enseñanza 0.000140836
jiria casa 1.41585e-05
jatíbinin dios 2.12421e-05
jatíbinin paz 1.17742e-06
en pronunciadas 1.67434e-07
jatíbitian reuniremos 5.45068e-07
ibo quiénes 1.73183e-07
bebonxon padre 4.02465e-06
ochan libertad 4.26067e-06
shinan libertad 5.5666e-07
en permitido 7.28238e-08
kaai miembros 2.0009e-06
kaai caso 4.50741e-05
iki cuestión 1.35416e-09
betan trabajo 3.8043e-08
maton cuales 3.99148e-08
iketian muriendo 1.65529e-06
maton muriendo 1.80962e-07
mato muriendo 3.95086e-08
en muriendo 1.48515e-07
ea muriendo 1.26687e-07
iká tocará 1.41163e-09
itan partió 1.70289e-08
yoiai están 3.4322e-06
mato reserven 1.55207e-08
tsoabi reserven 3.47413e-05
dios cabeza 2.96869e-07
iken todas 4.05095e-07
aká advirtió 6.89147e-09
moisés fueran 4.11648e-06
meniti fuerza 5.85771e-07
rabítima ante 0.000147308
rarebobo nobles 0.000181268
jainoax nobles 4.18561e-08
ea maldigo 2.24619e-07
jakonma ahora 8.09964e-08
akin permití 3.68151e-09
ibon ejércitos 1.48883e-07
jawéki preferido 2.12987e-07
kaketianra tienes 0.000737133
kaketianra te 2.6487e-05
kaketianra allí 0.000254938
ja helenistas 5.02813e-09
janra una 1.23968e-06
westíora damasco 7.08391e-08
kopí recibió 3.22225e-08
shinanmati sinaí 2.67373e-05
joibo sinaí 2.29193e-05
jaton cesaban 1.51343e-06
akin echarnos 1.11444e-08
jaton pies 1.42495e-07
onantibo señales 2.25921e-05
ratékana seguridad 7.63777e-06
iken pablo 3.80316e-08
ea comparecerás 5.47029e-08
apo levantó 1.069e-06
min cristiano 2.38689e-07
profetabaon rey 6.30651e-06
yoiaibo verdaderas 2.8325e-06
yoiaibo estoy 0.00316845
yoiaibo festo 6.03576e-07
kesareankobipari respondió 0.000136649
jainxon agripa 6.72323e-09
bebon alta 2.59359e-07
jaweti años 3.90335e-06
yoiai camino 8.55164e-07
bená padres 4.09929e-06
sakerdotebaon insultando 3.63305e-07
kirika entregaron 1.99277e-06
yoia golpearan 2.3674e-08
basiora pablo 2.90156e-05
basiora ventana 4.35584e-05
kaman medianoche 4.67948e-08
shinan recibirán 4.55022e-07
keskáma pensar 0.000106068
koiranke artemisa 0.000101046
tsinkíti crispo 4.72994e-05
sóstenes chusma 0.00375302
jatian comentaban 8.5038e-10
kabékona ánimo 4.70061e-06
kabékona dieron 5.36833e-05
kabékona hermanos 5.23893e-06
kabékona encontraron 2.37034e-06
jawen anunciaron 8.66696e-09
pablo llevarlo 2.19759e-07
pablon visión 2.18658e-07
diossen guardó 3.21976e-09
meran sepulcro 1.52453e-08
isaíkan david 1.60059e-05
jan cayeron 8.88393e-08
jerusalénhain traían 2.65477e-07
ikaxbi puerta 1.56566e-06
ikaxbi primera 2.511e-08
aká éxtasis 1.76286e-08
klaudio sobrevino 9.20522e-06
senen año 3.74277e-07
yoinabo clase 1.46136e-06
judas uno 1.7539e-06
jawen media 1.91526e-09
kati media 3.06539e-07
jainxonra incienso 3.33786e-06
kanaánman vio 5.24156e-05
kanaánman canaán 3.40466e-05
jaskáxon puras 8.11851e-06
raanai existe 3.32967e-06
raanai cuanto 3.33721e-05
raanai cielo 2.27571e-05
raanai bajo 8.58486e-06
raanai aliento 2.31525e-05
raanai todo 4.64721e-05
raanai acabar 7.67088e-06
raanai tierra 0.000171883
jaskara josé 7.88974e-09
enós tenía 0.000113304
natobo esta 0.000110665
rubén orgullo 0.000279266
mia orgullo 1.72322e-07
jaki arrebatado 2.43174e-06
iti patrimonio 1.4378e-07
israel ustedes 4.09351e-06
jainoax burros 8.33831e-09
iká dina 3.17864e-09
nato dueño 2.0991e-05
raana gran 4.08533e-06
raana suceda 6.04263e-07
raana este 1.10446e-06
neno enviado 4.89821e-08
min diles 1.42538e-08
xobon padre 4.20066e-07
mawáresti pena 0.000185034
masá moriré 1.87925e-07
jaskáakin nuestro 1.14546e-08
moa admitiré 1.80215e-09
mia admitiré 2.08042e-07
boax rostro 3.79367e-06
peokin benjamín 9.2484e-06
akana bolsas 1.60244e-07
jaweatimein es 7.85511e-05
jake falta 2.36575e-07
jaskáa les 1.01216e-06
egiptonko josé 1.35104e-06
baneta josé 8.5149e-07
koshi yo 6.42324e-07
onannon soy 4.80383e-07
senenketianra días 1.52408e-05
moa maduraron 7.75868e-09
jawen maduraron 4.06485e-08
jawebi preocupa 3.31458e-06
jaskara preocupa 4.54741e-08
ainbo estaba 3.23584e-07
yokata judá 1.69066e-06
dotánhin vámonos 0.000253322
jainoax hija 7.26785e-09
ismaelnin basemat 3.48227e-06
jainoax zara 3.44965e-09
bake zara 4.43419e-08
jaskati así 8.7642e-08
jaskati tierra 7.34387e-08
westíora traía 2.33397e-08
westíora pasar 4.52394e-06
westíora hizo 1.88352e-06
westíora también 6.99107e-07
wetsa noche 1.30777e-07
ainbo otras 6.73513e-07
min descubras 4.77278e-08
bakebaonaribi hijos 0.00016343
bakearibaa jacob 8.18284e-06
bakearibaa raquel 1.50738e-05
jakob servicios 1.3892e-07
rakel esclava 9.18784e-07
baritia parecieron 2.81435e-05
yoyo vio 5.52227e-07
yoyo jacob 4.66687e-07
bia hijo 2.83297e-06
labánman mujer 2.64662e-06
nai menos 4.50447e-06
ángelbo escalera 2.27957e-07
bixon usó 4.91219e-07
bixon lugar 4.2514e-05
bixon piedras 0.00132762
bixon escogió 0.0015566
bixon puesto 3.05757e-05
bixon ya 3.39596e-05
bixon había 7.91049e-06
bixon sol 0.000114461
bixon noche 0.000103584
bixon allí 6.44554e-05
bixon pasar 7.39957e-06
jaskara bendijo 1.53288e-09
isaak abimelec 4.0244e-07
jakon fueron 2.72894e-07
jaiba despidió 3.34063e-05
abékonxon despidió 0.000163375
janetaanan despidió 7.06945e-06
apo filisteos 2.99033e-07
kaa reunirse 4.54115e-08
jakobnin ahora 5.69538e-07
jakobnin NULL 1.24953e-05
esaú llamaron 3.82943e-06
bakebo ismael 2.4864e-07
abrahamman soy 2.29045e-07
itiribira oh 7.07413e-05
onpax trajo 3.37541e-07
yonoti ciudad 2.88653e-07
karo sacrificio 4.85021e-05
kaa ficol 6.91401e-08
kenaxon agar 1.7386e-06
agar angel 4.88492e-06
jawékibo esclava 2.35757e-08
jaskáketianra guerar 5.99686e-06
papan hija 1.74715e-07
ikaxbira hermana 4.2942e-07
bake hermana 5.0028e-07
papan hermana 3.99151e-06
kopi matarme 4.77057e-07
oi cultivara 0.00893076
yamake unirse 1.26792e-06
piá levadura 0.000164107
mia entregué 1.0934e-05
nokon únete 2.62524e-08
min pastores 1.46316e-08
wakaya rebaños 0.00186424
jema gomorra 4.11543e-07
sarai palacio 6.60855e-06
sem años 1.70223e-05
bakebo yoctán 8.82806e-08
judíobaon postró 2.74914e-07
non debilidades 1.56005e-07
icha comenzó 1.82634e-07
pedron cama 7.23296e-06
pedron jesús 3.42431e-06
jakon pisotearlas 5.54658e-06
wetsabo hermano 1.08637e-07
ikai frutos 1.10286e-07
mia premiará 3.56195e-07
papa perdonan 4.10984e-08
koshi sacerdotes 1.40185e-07
jesús hirió 6.17085e-08
jaskataanan sus 0.000105546
non vid 1.04175e-08
bená vid 1.20254e-07
bakera como 1.61766e-05
akin compartir 2.64755e-08
westíora dio 2.68806e-07
tenenoxiki ustedes 0.29457
tenenoxiki NULL 0.0753399
ikai sino 2.23753e-06
atipana entienden 3.20986e-07
pekáo murió 2.35721e-07
esekanra moisés 2.65608e-05
jain maldición 1.5472e-07
jonin hablen 2.85668e-07
jene cae 7.63866e-05
jesussen juan 6.21007e-08
mia sucederán 1.02973e-07
joni recuperaban 1.38434e-05
dios recuperaban 1.93232e-08
ratékana recuperaban 6.0715e-07
jonibo recuperaban 1.40617e-08
jaskara recuperaban 1.39292e-08
apo molesto 6.64736e-07
jaskáara rey 3.6188e-06
koshiora viento 0.00140767
kaax un 2.27748e-06
yoii gente 2.26961e-06
bebonbires sábado 2.49258e-08
bebonbires oveja 1.7033e-06
jabé demonio 1.56897e-06
jabé llamado 8.40025e-07
rabé gehenna 3.99167e-08
ikenbi tome 1.40132e-06
atipanke decir 1.5931e-06
jeman los 0.000838575
bochoanaana olas 0.000763918
ninkatax hacía 6.00637e-06
oinnax fariseos 7.46654e-08
oinnax cuanto 1.24599e-06
jaskatai enterarse 3.73412e-06
ochabo perdonar 8.44511e-07
mia perdonan 4.67304e-08
icha estuvo 1.6637e-06
levikan estuvo 1.75572e-05
iká alejandro 1.32736e-07
ea entregar 5.95757e-09
yoinoxiki mis 4.09948e-05
kristo allá 2.8802e-07
jatianmein qué 0.000102716
tsinkixon y 0.000154237
neskákin también 0.000217299
mawata herederos 3.15895e-07
noa maravillados 1.46738e-07
boribakana estaba 9.2724e-06
boribakana jerusalén 4.79324e-06
apo bendito 6.02489e-07
yatanxon va 1.72218e-05
ikonra verdad 3.77279e-06
maxko recorrer 7.27568e-06
jesussen intervención 1.36235e-08
jesussen reunió 1.17564e-07
tsonra alguien 3.41969e-05
iketian demonios 4.90246e-08
galilea lado 6.31553e-06
jesús anunciando 1.05723e-08
tae derramado 2.55475e-06
jaskáa simón 4.32255e-07
pichika debía 6.41591e-06
vino pan 2.94818e-06
jesussen viuda 3.5983e-08
jesussen sábado 1.2219e-08
jesussen sanado 7.81406e-08
ainbaon desapareció 2.16192e-07
mia sé 4.03127e-08
iká sidón 2.01054e-08
jonibo bautizado 1.86565e-08
jesussen llevó 2.21143e-07
yokata cuerpo 2.9671e-07
kristo sálvate 3.43801e-08
jaweakiki ladrón 4.38799e-06
kaa sacerdotes 5.18534e-08
jikia judas 1.20448e-06
aríbaa es 7.47297e-05
jaskaribiakinra vean 2.62596e-05
jainshamanra maestro 3.49107e-05
ibó ahora 4.197e-07
reken presentó 6.15785e-07
onanaibaon apóstoles 6.38518e-06
lot azufre 1.76536e-06
keská perdido 1.1129e-07
ixon envía 2.44552e-08
jatian envía 5.12829e-09
matonra digo 2.2026e-07
jaskáakana creen 8.54934e-07
beparametaibo ustedes 5.89308e-05
xobon invitó 2.29624e-07
apo santificado 1.7591e-07
belzebúkan echa 0.000576857
ixon santo 2.30352e-08
yokatai pide 5.8066e-06
yokatai todo 3.5366e-06
aká rigor 4.15281e-09
noa polvo 1.49882e-08
diossen imposible 8.42447e-09
riki haber 1.58594e-07
rama sabemos 7.45723e-08
ikai realizar 2.54162e-07
jawékiati tendrá 2.50621e-06
ratéti jesús 9.06909e-06
jesussen señal 3.50433e-08
moiséssen escribió 2.28577e-07
ikonshamanribira escuchen 0.00035425
enribi muertos 5.1749e-05
mainmeax pedirle 1.61464e-06
joáx galilea 1.71063e-06
mainmeax judea 5.45329e-06
jatíbi nosotros 9.028e-08
raana cosechar 6.90605e-07
onpax salta 1.96803e-07
jaton espíritu 2.99427e-07
ikonhayamakanai testimonio 1.32241e-05
tsonbi acepta 5.4943e-08
ja acepta 2.03016e-09
ikonhayamakanai nadie 2.5644e-05
jawékibo oído 4.68353e-08
min ponías 1.0189e-07
yoiai tú 5.98774e-07
jaskáakenbi ninguno 1.324e-05
yora sentados 1.78236e-06
fiestatian muchos 1.40532e-05
jawe contestó 6.51532e-08
boxon preguntó 0.000251007
kini respetar 1.9409e-06
yora jesús 2.01507e-06
yoia discípulo 2.33175e-08
korosen crucificaran 9.7871e-07
judíobaon contestaron 9.89145e-08
judíobo pagano 2.96797e-07
miaribimarin no 5.89663e-05
onanna habló 3.68486e-07
onanna sacerdote 2.32183e-07
jonibaon crea 1.33672e-06
jonibaon como 1.93709e-05
ixonra saques 2.72114e-07
janenko llevaba 1.17177e-06
papá padre 6.13574e-06
jainxon creen 2.10554e-08
papanra padre 2.02905e-05
jainxon caminos 4.54798e-08
ati producir 1.56097e-07
nokon mandamiento 2.79358e-08
judas salió 7.00033e-06
judas comió 8.96943e-06
mato limpios 1.59938e-08
netemeax ir 0.00396199
ikana también 1.4068e-06
ikana jesús 4.93888e-07
já causa 3.12067e-07
kaa marta 1.02712e-07
joékanra tinieblas 7.11728e-06
oinkin he 5.3481e-06
tsoarin enviaron 6.59417e-07
orobo han 0.000760555
yoiai importante 3.76259e-08
jakonma rige 3.66903e-08
aniparo porque 3.31606e-05
itan perfectos 2.56665e-08
jawerato manda 2.76757e-05
keyotaibores campo 0.000247526
jawékibaonra igual 0.00134331
aniparo espuma 2.31949e-06
jatíbibo pacíficos 1.03125e-06
kopíra encargado 1.39611e-07
omisa injusto 0.0755775
jatíbiain falta 3.35853e-06
bake entregó 1.64724e-07
teneai redención 2.48504e-05
neskati permite 0.000131886
dios permite 5.12194e-07
papá de 0.000843244
keskábores carne 1.3742e-05
ikaxbi resumen 1.01191e-08
ikenbi sepultados 1.99897e-07
jawékibo promesa 1.58199e-05
jawékibo debiéramos 5.59666e-07
iketianres fe 7.19655e-05
yoia descendencia 1.13201e-08
jaskara físicamente 2.27499e-08
min cumples 6.09699e-08
minbixbi ciegos 0.000150154
minbixbi tú 0.0172982
nete plan 2.71522e-07
jan paz 3.95941e-08
joibo cumplido 6.81749e-07
jatiobi gran 3.77639e-05
jaskákanketianra entonces 0.000105931
joni construir 2.27897e-07
jabaonra cómo 8.11861e-06
yoikanaitian gracias 3.65637e-06
jaskarabo deshonraron 8.66435e-08
keská contrario 1.19983e-05
onanti podemos 7.08576e-05
ochabo multitud 9.47053e-07
wishá testamento 2.63478e-07
iti testamento 5.78573e-09
westíora testamento 2.07493e-07
jaskatax hay 1.83146e-07
diossen le 2.05621e-06
mawatai son 7.11545e-06
nokota santuario 2.78524e-07
benota comprender 0.000131739
piti rojizo 2.05541e-06
itan italia 2.30022e-07
jakon olviden 5.33804e-08
jakon pueblo 3.19548e-07
diossen voz 9.36768e-09
jonibo desiertos 8.24223e-09
jakon apoyándose 6.3322e-08
jakon moribundo 2.20334e-08
akonkin mancha 1.51788e-06
akonkin todo 1.16061e-06
akonkin interiormente 5.34283e-07
akonkin limpios 8.29892e-07
akonkin plena 1.68094e-06
ochaoma desligado 6.54391e-06
yoyo sea 8.62827e-07
yoyo abbá 8.69272e-08
iken compartir 2.96402e-08
iken puede 1.94965e-07
bakea porque 0.000210299
bakea su 4.24166e-05
jerusalén sinaí 2.2098e-05
ikon vuelto 5.24604e-07
joibo me 1.68906e-06
kristo diferencia 4.85433e-08
yonoai judío 5.43402e-06
keskábo ley 6.53825e-07
keskábo resultar 6.17106e-07
esé herencia 7.41468e-07
icha descendientes 4.83191e-08
icha dice 1.87915e-07
jaskara crucificado 2.35835e-08
keskati verdad 1.56931e-07
akábo trabajo 1.58643e-05
pedro antioquía 4.24039e-07
iká especialmente 5.28997e-08
jainoax tierra 6.61704e-08
kristo través 1.28142e-07
diossen noticias 3.37584e-08
jakon tribuirá 2.19845e-08
chipókanwe verdad 4.21463e-05
moatianra tiempo 8.88098e-05
oinna arruga 6.86636e-05
en prisionero 2.4458e-08
iká prisionero 1.44769e-08
rabé habiendo 4.91105e-07
dios revelación 3.35614e-08
rabiti servir 6.00751e-06
rabiti dinero 1.02095e-05
meran libertinaje 6.20655e-08
janenko háganlo 2.13655e-07
noimisti vestidura 6.34949e-07
kopí sufrimientos 1.09428e-05
orana gracia 1.94541e-06
jainra muchos 3.92723e-06
bikanti gastes 1.0818e-05
trigo tres 2.52206e-06
trigo moneda 1.27347e-05
korderonin segundo 5.77459e-06
shinanya honor 1.20344e-06
atipanyamake cerrar 6.529e-07
joxon grande 1.14674e-06
jabora daré 5.13027e-08
eséra misterios 5.01365e-06
eséra heriré 2.51464e-05
eséra doctrina 0.002634
ainbo tiempo 1.77404e-06
ainbo dado 3.20717e-06
jawéki profetisa 6.47205e-08
jawéki mujer 5.37149e-08
jawéki jezabel 1.65361e-08
reken perseverancia 4.30128e-07
jaton servidores 8.57669e-08
jatíbiainoa volaba 1.12147e-06
onan cifra 0.000507469
nenora inteligente 0.000158465
tsonbi marcado 1.01695e-06
bakebo guerra 2.1554e-07
nete contemplan 3.15394e-06
xepoti poder 3.52383e-06
ibo tierra 2.17711e-07
mai dueño 6.73389e-07
ibo ante 6.67033e-07
yoia enviaré 6.9714e-08
jonia siglos 2.92178e-06
raroke alegría 0.00584084
jaskataibo alegría 4.81787e-05
neskara así 9.3305e-06
jainoax purificado 8.25899e-08
jabora grande 6.42332e-06
mato aumenten 6.44904e-07
papa palabra 5.39262e-06
neskara partida 4.41101e-06
neskara mi 7.97196e-07
yoiti enseñanza 0.00407561
yoiti insiste 2.31036e-05
jonibo egoístas 3.98333e-05
riki acuérdate 1.76174e-08
iti útil 3.71674e-06
jakon misericordia 2.62017e-07
betanbi nuestro 1.67797e-06
kristo compartir 5.63215e-07
ramara cristo 1.85501e-06
joxon ángeles 9.951e-06
jawékininra justo 9.40206e-06
ikax santos 0.000479715
atikonmabo enfrentamientos 0.111541
tantiti enfrentamientos 0.00250941
rama cariño 9.20003e-06
rama siente 9.55009e-06
rama recibieron 5.40051e-06
rama obediencia 4.5316e-06
tee circunstancia 8.06653e-06
inóxiki pueblo 3.88636e-05
joni antiguo 2.51337e-05
moa antiguo 3.62661e-07
kristo antiguo 1.81363e-06
noia tristeza 0.0132177
ixon afligido 3.79073e-09
masá afligido 0.00262707
shinanni afligido 0.00168271
shinanni preocupado 0.000191538
mato preocupado 2.7907e-07
jan hablamos 1.29437e-07
noa victorioso 3.13965e-06
ixonbira gracias 1.67559e-06
noaboribi fuerza 4.65701e-06
jesukriston siglos 7.06044e-07
earibi descendientes 8.27433e-06
rabíkanaitianra israelitas 0.0219041
keskati alabanzas 1.16636e-05
ikaxbi alabanzas 8.47511e-07
wanoti rut 9.07404e-05
janekana obed 0.00314335
bia casa 7.18158e-07
noemíman suegra 2.11698e-06
diossen enterrada 7.55503e-10
nato casarme 2.25539e-07
ikax resiste 1.91071e-07
mawataboribi muerto 0.000263649
mawataboribi evangelio 6.66616e-06
mawataboribi razón 0.00290729
kopíres resurrección 0.000165104
kopíres renovación 8.81136e-06
jawen resucitó 1.09367e-07
kristo conciencia 3.049e-08
onanke honor 1.11281e-05
oro material 1.67834e-05
oro aprendieron 2.38563e-05
onankaskin sino 1.01147e-05
ángelbaonribi sino 0.00039002
joi suspenso 2.22348e-06
riki mandatos 7.57015e-08
jaweratoboki todo 9.45452e-06
jakanabo como 7.44016e-05
noa pensemos 1.26246e-05
wetsabo sigue 2.43859e-07
jatianra víctima 0.000150257
koríkires enseñar 0.000199498
wetsabo sírvanlos 3.98687e-06
jati porvenir 2.26888e-07
jawe fe 4.28447e-07
ponté fe 2.13637e-06
icha raíz 0.00120973
jake inscribas 9.101e-08
jan peor 4.0939e-08
akai madres 8.60759e-07
min aconséjalo 2.09732e-07
noa ascesis 7.77577e-08
yoyo dedícate 1.81266e-06
ainbobo juicio 1.27463e-07
ainbobo buen 5.03561e-05
jatíbi rescatar 6.12774e-08
iti recta 1.41439e-05
jatíbinin misericordia 1.61457e-05
mia realizar 1.59875e-06
kishpinmai cuales 5.80464e-05
ea obraba 6.37477e-08
já creemos 6.6732e-07
joi probaron 7.96131e-07
oveja cuida 1.71445e-06
pedro demás 5.50309e-06
jawékibo reclamarles 5.99924e-07
satanássen caigan 4.39271e-05
awin cumpla 9.81032e-07
jake situación 4.33245e-07
kopíapakenoxiki alabanza 0.000978342
senenresibi trabajo 0.000297877
shinankin gente 1.67712e-05
shinankin otra 7.13057e-05
shinankin como 0.000217935
jawékibo leche 4.73453e-07
wetsa leche 0.000136998
wetsa cimientos 0.00057843
kriston pensar 2.0939e-05
iamai hablamos 3.00791e-07
ibon esperanzas 1.10023e-06
maton limosnas 0.000537713
jerusalénhain limosnas 8.54212e-05
riki poderoso 8.40853e-08
jaki universo 2.18725e-06
jirii tocará 0.0131651
jatianparira iglesia 0.00763999
jatianparira interprete 0.00143085
jatianparira haya 0.00215736
jatianparira lenguas 7.14064e-05
jatianparira hable 0.000675032
jatianparira quien 0.00583898
jatianparira profetas 0.00030883
jatianparira tener 0.00185324
jatianparira mejor 0.000131489
jatianparira mucho 0.000502838
ikax profetas 2.8579e-08
jatíxonbi sean 1.2073e-05
jato limitación 4.39048e-10
dios habla 1.27492e-07
min espíritu 4.11394e-07
ikaxbi limitado 2.06361e-07
kriston cuerpo 8.12481e-07
ikon pero 9.1218e-07
jatíbi oler 1.50358e-07
jaskáribi solo 6.65117e-05
jainxonra después 1.11232e-06
ikantinin comunión 8.97501e-06
jaskáaxon tentación 6.68969e-06
iti ordinarias 9.51627e-09
joni ordinarias 2.71331e-07
nete ejércitos 7.96782e-08
jakonma incluso 2.6341e-05
dios tontería 3.40803e-07
jawéki desagradan 5.55325e-06
maton inútilmente 2.01762e-07
bebonbires mil 1.60913e-07
yakata quitó 1.04906e-06
ixon griegos 3.64391e-07
nokon jerusalén 7.68709e-08
nokon santo 9.73808e-06
maton rasguen 1.10869e-07
jainxon pónganse 3.96643e-07
ikana matarle 7.35012e-07
jerusalénhain convivir 3.74254e-07
joi recobró 6.55894e-06
janra tener 4.89868e-05
janra acaba 1.3955e-05
jaskáaxonra felipe 5.18361e-05
jainxon señor 2.76438e-08
jainxon un 3.28567e-08
pekáo predicar 6.35304e-07
min maldad 1.22755e-06
iboamayamawe pecado 0.000365366
jesús derecha 2.54856e-07
papashokobora desierto 3.35064e-06
israelitabo es 4.67513e-05
mia enviar 2.74733e-07
nokon visto 3.71511e-07
moisés egipcios 1.14559e-05
nete creció 4.46882e-07
jaweakiki qué 9.65672e-06
westíora teudas 1.32174e-06
jato echarnos 2.20876e-07
jatian encontraron 5.47757e-08
jatianribira mujeres 0.000119972
tsinkíkana jerusalén 1.7839e-06
jesús muertos 7.9954e-07
jaweatiki hombres 1.26213e-06
rakétanma quedaron 1.68025e-05
ibo mataron 7.08745e-07
jain quedarnos 6.42709e-06
yokákana amaneciera 1.07303e-05
niweaba esperanza 2.72015e-05
niweaba estrellas 8.07772e-05
niweaba pasaban 0.000629015
apo acusan 0.00127286
jakonma cárcel 1.08109e-07
ixonbora dejara 1.85324e-05
retemanon gritos 0.854214
retemanon pidiendo 6.4903e-05
retemanon aquí 7.39783e-05
retemanon contra 0.000210738
nobé agripa 2.38878e-07
jikia años 7.15862e-07
ichaakin conversar 0.000415399
joiboribi juicio 6.90256e-07
jaweti muchos 7.88035e-05
jaweti después 4.22024e-06
jake admiten 2.82804e-06
mainbi soldados 0.000173954
jato conjuración 3.08576e-07
oinkana luz 5.64279e-05
joé vieron 3.40935e-05
iká fanático 1.15836e-07
miikiriti de 0.00301962
romano comandante 0.00158788
pablon terminaba 7.61137e-06
basiora borde 0.000365765
já supo 7.96924e-07
ikonhaax nuestro 2.79154e-06
ikonhaax jesús 1.40981e-05
kaax samos 2.96037e-05
raanabaon señales 7.58719e-06
oinxon realizara 8.1713e-06
keska sangre 2.5853e-06
jimi tinieblas 1.39506e-06
rama acusados 8.17213e-06
rama podríamos 7.90851e-06
jaton presenten 2.23663e-07
ainbo templo 1.02484e-07
xobo caída 1.64554e-06
naikanmeax imagen 5.0138e-06
naikanmeax artemisa 8.17017e-06
naikanmeax guarda 8.10056e-06
naikanmeax ciudadanos 3.91664e-05
jonibo erasto 6.99656e-06
dios pelo 3.1609e-07
jatianra temen 4.95715e-07
jatianra griegos 4.57519e-08
pablo salió 3.66576e-06
jawékibo ignorancia 3.4101e-06
jatíbi estableciera 2.20104e-07
kabékona allí 0.000108997
kabékona casa 1.68321e-05
kabékona cárcel 7.08236e-06
xobonko dejaron 0.00274877
yoia palabra 5.42157e-07
pablon gritó 3.12541e-06
mia ordeno 6.67839e-07
westíora derbe 6.95984e-08
silassenra silas 0.0174072
jawetii asamblea 1.86154e-05
jeman apedrearon 6.53611e-06
janeyaton lleno 0.000239506
janeyaton pablo 6.27331e-05
janeyaton saulo 0.000585135
joni apartar 2.06736e-06
judíobaon temían 5.21231e-08
ikonhaakana eterna 3.72227e-06
oinxon asómbrense 2.96052e-05
kini cumplieron 2.83159e-06
jawékibo planes 0.000423913
joi aliento 4.98217e-07
meshkáaketana llevase 0.000245073
mia llevase 1.88292e-08
kireneainoa manahem 0.000144256
bernabé cirene 6.11922e-06
simón bernabé 1.18664e-06
iká parecían 3.24344e-07
jawen juzgarlo 3.03533e-07
jaskaa después 0.000162042
jan ejecutar 1.96411e-07
kaa lugar 1.7003e-06
ikaxbi llegaron 9.61224e-09
yoinabo cuadrúpedos 2.25722e-05
aká parecía 5.19517e-07
jope ciudad 0.000311522
klaudio tiempos 0.000582803
klaudio vendría 0.000250529
jakon anunciaron 2.02952e-07
menia la 5.60819e-05
jonibo jope 5.29468e-07
dios dispuestos 3.02343e-07
yoiti estamos 1.01418e-05
judas compartir 8.93323e-06
judas llamado 1.23232e-05
judas grupo 0.00011337
judas nuestro 5.67217e-05
jainoax maría 2.35747e-08
bechiakexon ti 0.77999
jainoa ti 0.0767694
bechiakexon pueblos 6.53201e-06
aká naciones 8.74011e-07
jakonma muchas 2.28165e-06
bechiakexon muchas 0.0171883
chiikan trabajen 3.11441e-05
ati malvados 3.72743e-06
jakonma pasa 9.7632e-07
ikanai pasa 5.93419e-05
ibanon jafet 2.86969e-05
rakata ropas 0.00120288
chopa tendido 1.71042e-06
noekan hijos 1.28089e-05
nato animado 8.28545e-07
kopí inclinados 1.14543e-07
bakebo nueras 8.45268e-07
raanai aguas 0.000293447
raanai o 8.11048e-05
shinanai hicimos 0.0003214
jaskáaxonti respecto 0.000889
set tenía 0.000202294
jared ochocientos 0.00252657
jared henoc 0.000194244
ikai cruel 3.07491e-05
rama deshonraste 0.000395164
min lecho 4.77074e-06
rubén eres 2.19851e-05
jaskáakin oh 5.47509e-07
mia vio 2.87978e-08
wetsa manasés 3.55776e-05
jara pueblos 2.35029e-07
efraín descendencia 1.19517e-05
efraín grande 0.00438531
jara llegará 3.59565e-07
kaai llegará 2.00467e-06
min coloca 6.66152e-06
yoinaboribi mejor 0.302096
koirannaibobiribi mejor 0.805397
yoiai nuestros 5.06397e-07
mia pastores 9.03313e-08
egipto duró 7.50414e-06
ikaxbi perdura 9.37343e-07
jainxon nuestras 2.0372e-07
ea ganados 9.11756e-09
jaskáakana josé 5.39298e-07
itima vas 0.000134232
kopíres vas 4.15341e-06
josekan cambio 6.75811e-07
bokana descendientes 7.21919e-08
bake personas 1.54214e-06
jan personas 8.90477e-07
zabulónman hijos 0.00375641
faraónman gobernador 3.84511e-06
akinnai gobernador 1.06049e-05
raana aquí 4.40126e-06
kopí sobreviva 7.67004e-08
wetsabo josé 2.4867e-07
neno cuidaré 9.58338e-06
mawáresti culpa 0.0129572
mawáresti ancianidad 0.00943087
mawáresti mi 0.00162987
noa pidió 3.01113e-06
noa admitiré 7.96464e-05
noa dijiste 6.59763e-08
faraón algunas 0.000107431
nokon haría 0.000301782
ikonhayamaitian encontró 0.00161523
jaton benjamín 4.94213e-07
meraa registró 1.36136e-05
jakobnin comían 4.99402e-06
jakobnin egipcios 1.09789e-05
jakobnin aparte 3.79692e-05
jakobnin separado 6.12392e-06
axonhibake bolsas 0.867913
axonhibake ustedes 0.132087
bokana benjamín 2.06928e-06
bokana dinero 2.37253e-06
aká les 7.27886e-08
jaweatimein nos 5.9692e-05
jaweatimein dios 0.000174611
jaweatimein esto 0.000338468
yoia asustados 1.00626e-07
kárkel volvió 4.64793e-06
kati quede 4.13621e-06
namá adivinos 0.00323333
faraónman llamar 0.000281364
faraónman mandó 7.66398e-06
egiptonko países 1.70655e-05
jaskati egipto 2.58677e-08
jaskáakin manasés 2.32094e-06
aká lino 1.58218e-07
yamake sabio 0.00012704
jaskáketian faraón 4.31247e-07
mia respuesta 3.17341e-06
min respuesta 1.62401e-06
jaskara requerían 1.0524e-07
jaskáakin falta 1.21653e-06
namábekona panadero 0.000167764
ibon invocó 6.03522e-05
lámeknin mavael 0.00284297
yonotibo les 2.49806e-05
yonotibo y 0.000658324
ainbo insistía 2.96551e-05
yoikana judá 2.32704e-06
betan bastón 2.35993e-07
betan cordón 1.40001e-07
jawekeska echémoslo 2.21884e-06
jakonmanankanaitiibi tenían 0.000602675
jakonmanankanaitiibi adolescente 0.994289
bakebo adolescente 1.99544e-05
koirankin ovejas 0.000473483
jawen hebrón 1.60641e-07
min envió 4.90725e-08
josé dijo 2.26674e-06
wetsabo siquem 9.14067e-06
jaskatax jacob 2.36488e-07
bake badad 6.68387e-06
riki reinaron 1.24042e-07
ismaelnin hija 2.47136e-05
esaúkan estos 8.16047e-05
padán cuando 3.74937e-05
jaskati es 3.16954e-07
kaa hija 4.60795e-08
mia hermano 9.16815e-07
bakebo dado 1.62536e-05
jakana acampó 3.32633e-06
sikemhain llegó 1.73754e-05
jakon replicó 1.84794e-07
ea llegada 9.59866e-08
nokon dijo 4.72585e-05
nokon y 1.48823e-06
ainbo testigo 4.05362e-06
jakobnin mandó 9.40689e-06
min cabras 4.4858e-08
mia cuídate 4.57711e-07
pikóni levántate 0.304009
nokoanana hiciste 0.373388
jaskáa hiciste 3.2543e-06
ikax betel 3.43359e-07
jaskáaxon esclava 1.57421e-07
jisábobiresbiribi cabritos 0.00153418
bakeaa concibió 0.000237578
jatianra mujer 5.39837e-07
jaskáati podemos 1.67094e-05
lea nuevo 1.26845e-05
yoinabo removían 4.89356e-07
menia esclava 2.9806e-08
min servido 1.27915e-05
bixon jacob 8.98471e-07
oxakiina tomó 0.000569217
bake supo 6.61566e-06
jainxon jacob 2.67713e-07
jakobnin temprano 9.5249e-07
biketianra mujer 7.59377e-05
rama mío 3.68769e-06
rama hijo 3.30429e-06
jainoax yugo 6.39802e-07
min bendición 1.90166e-07
jaskáakin vino 3.0254e-07
moa platos 1.70829e-07
jaskáakin platos 6.19808e-08
jaskáaxonra cumpliendo 0.00100787
bake seor 1.05918e-05
mainko cambio 4.42203e-06
isaaknin gustaba 4.55254e-05
esaúkan talón 0.000750789
esaúkan salió 6.91689e-05
moa rebeca 1.72464e-07
oxakana mañana 9.1651e-05
oxakana noche 0.000510233
jain pasaron 2.54289e-07
jatianra servidor 1.44752e-07
jakon háganmelo 9.17068e-07
rabia adoré 0.000130516
ibo adoré 4.92002e-07
dios llegar 4.18735e-07
yamake oh 0.00441835
labán rebeca 0.000128595
xewina servidor 1.46556e-07
jatíbi ciudad 2.41157e-08
jatíbi registrados 3.83556e-08
jaskáketian y 0.000232685
pikónontianra isaac 5.97189e-05
ixonbi abraham 3.85389e-06
jabo abimelec 2.82724e-06
iketian temprano 1.42478e-07
jake compartir 6.55379e-08
dios oró 9.3406e-06
papa acostó 2.60091e-06
yamake pueda 2.53973e-05
baneta sal 1.57077e-05
baneta una 8.10664e-06
mato laven 4.06075e-07
onpax laven 9.78779e-06
jakon laven 1.58433e-06
min laven 1.66961e-05
abrahamman insistió 9.28921e-06
jabi abraham 3.8201e-06
jaskáakenbi abraham 1.06158e-05
yoiabo cumpla 0.000311442
bokana abraham 2.19946e-07
ea placer 4.50402e-07
jatíbi sara 8.22548e-08
xobomeax familia 0.000980168
betan señora 4.69146e-07
nokon ella 3.63398e-07
nokon medio 8.42388e-07
agarnin nombre 7.18708e-05
agarnin dándole 0.000277918
jatíbi salvaje 5.84478e-06
jatoaresa tus 2.77476e-05
min enemigos 6.88268e-07
dan ciudad 0.000212323
mananman huyeron 6.94732e-05
mananman huían 0.000625721
jatíribi huían 1.2359e-06
en ves 4.60683e-07
jordán trasladó 0.0556497
iketianra entonces 5.23892e-07
kamman hijos 2.5699e-05
kamman estos 0.00158582
netebo señalar 0.000103806
benai venido 6.61275e-06
eara palabra 3.17234e-06
miara metas 0.000138047
tsoabi camino 1.39648e-05
tsoabi pasar 9.96403e-06
pedron suegra 2.17697e-06
katanwe hágase 4.67628e-06
jawékibo pisotearlas 3.66092e-06
oveja presentan 1.91749e-05
oveja falsos 1.55689e-06
jawékibora ladrones 7.04806e-07
jawékibora donde 7.2699e-06
jawékibora estragos 1.32122e-05
jawékibora hacen 4.04347e-06
winiaibora felices 5.55341e-05
jaton divorcie 4.33379e-08
benoya pagado 6.64781e-05
esé sal 4.44518e-05
tashi profetas 2.244e-05
onannaibo hoy 7.14614e-06
onannaibo hasta 6.56467e-06
bexon noche 0.000175047
maría sepultan 9.04927e-05
já crucificaron 3.81914e-06
westíora detenido 5.18369e-08
yoikana pedro 5.62408e-07
jesús sacó 1.02316e-05
oranbeirani volvió 0.0126171
pekáo crucificado 3.75164e-07
pekáo días 2.72878e-07
pekáo pascua 1.06641e-06
jainra viene 1.45531e-05
maton anduve 6.68085e-06
menia uno 4.04178e-07
menia tercero 5.01109e-05
oinxon fin 1.64003e-06
wetsa quedará 9.95009e-06
maton sinagogas 2.09985e-08
jakonma interior 1.57189e-06
dios puestas 1.10356e-07
rotokani constructores 0.00602494
bokana trabajar 5.926e-06
moa recobraron 0.000131822
ja recobraron 4.07674e-08
iki recobraron 1.52741e-07
ikai judá 1.49189e-07
bake regalos 2.01883e-06
bake ofrecieron 1.13363e-06
betanbi maría 1.1379e-05
nokókana jerusalén 1.74048e-06
reteyamawe adulterio 2.91941e-05
jatíribi entienda 7.82061e-08
jesussen añadió 2.51212e-06
joni recobrar 4.60902e-07
pedron acercó 6.40267e-06
nokobainxon pedro 1.89345e-05
jaskáketian discípulos 6.00664e-06
jakonma fe 1.27543e-07
kaax fue 1.38109e-05
mai compra 8.92704e-07
ángelbo enviará 3.40936e-05
ninkáyamakana oír 3.23038e-05
jawen prohibidos 2.37294e-06
oinxon adúltera 6.20419e-06
westíora todo 2.00335e-07
ea complacido 5.91085e-08
natoriki elegido 2.72174e-05
já personas 1.19808e-05
jesús manera 3.46944e-06
en dichoso 6.93829e-07
yoiai cojos 4.98462e-07
jake conocer 1.02176e-05
nokóketianra juicio 7.27323e-05
jesussen reprochar 4.88353e-06
jonin recompensa 1.65747e-08
mato recibe 7.11625e-08
jaton antepone 6.03111e-07
ikaxbi antepone 4.11106e-08
kristo catorce 5.03758e-07
jatíbi reordenado 9.01595e-07
xobon mandó 1.52974e-06
kenaxon dijo 4.89292e-06
jonin dedos 5.04314e-05
yamake sus 1.14305e-05
boten mientras 9.3643e-06
jonibo comido 6.90557e-07
jaskáakinribi pronunció 3.1529e-06
jaonmea eran 6.30615e-05
jaonmea porque 6.02404e-05
nato joset 2.73668e-08
juanman recoger 7.85565e-05
herodes pensaba 6.84984e-06
bautizanai ungiéndoles 0.0019062
jesussen permitió 1.61941e-07
mostaza semejante 0.000347469
nete esté 6.74796e-08
nete o 5.23587e-07
jakiribi enseñar 9.79482e-07
ninkatax verlo 2.28787e-05
jonibo jordán 2.3515e-08
diossenra perdonará 8.84139e-06
aká sábado 7.25505e-09
diossen sábado 1.1301e-08
jaonmea comiendo 7.39086e-06
kaa llevado 4.01827e-06
jesús vivía 1.48105e-08
jakobonin maría 4.44971e-05
jesús sepultado 1.08536e-05
neno siempre 0.000204753
neno tendrán 0.0112803
jaskáara ha 4.39761e-05
jainxon lista 1.94005e-06
manan frente 4.18132e-05
jatianmein ahora 7.45164e-05
joi importante 7.4022e-07
boribakana mientras 3.70305e-05
jaskáabaini llegaron 1.68952e-05
ikonra contestó 2.41649e-06
riki imposible 6.87256e-07
juanman cintura 1.90827e-06
já partes 1.69701e-05
yoiti consuma 2.96929e-06
akin polvo 2.5843e-07
diossen intervención 1.7446e-06
elías con 0.000180261
ikábora visto 2.32481e-05
ikenbi hombres 4.93506e-06
noara tenemos 4.58314e-06
jairo oyó 0.000632471
kaa volver 6.78587e-06
oinnax huyeron 2.90558e-05
ea acogen 1.49681e-07
raana bautista 5.54816e-07
juanman alrededores 5.79793e-06
jawetianbira bueno 0.0114801
jawetianbira árbol 0.00645465
jawetianbira no 2.11327e-05
onan encima 2.96228e-05
jaton perdonen 2.78483e-07
jaskáashokoti serán 0.000548212
rabéres doce 3.55278e-05
benxoaa lugares 0.000152086
icha todo 4.8829e-07
bake ragau 4.59106e-07
bake resí 1.40238e-05
jainxonra jesús 0.000182445
riki testigos 4.17728e-08
jonira sacerdotes 2.28268e-06
jonira sumos 1.94983e-05
ikax alegró 1.3009e-06
apo sálvate 2.62919e-06
raroshamanra hijos 0.000111479
raroshamanra mujeres 0.00211176
keenkanai asesino 0.000379809
pilato herodes 0.000165919
jaonmea hacia 4.09251e-05
aríbaa mi 6.71758e-05
nokon pieza 2.18641e-05
netetiibira jesús 0.00117256
jaton criando 3.67744e-05
kaa arrendó 3.70996e-07
uva arrendó 4.13973e-06
reken casó 2.31353e-06
iken padres 2.69685e-07
iká fanuel 4.22778e-08
manótiain señal 1.3404e-05
ramara paz 7.39314e-07
ramara ya 1.71281e-05
xobo reconocido 8.85671e-08
manan olivos 1.21038e-05
jayáomacha tiene 0.334086
ikaxbi monedas 4.12676e-06
inoxikanai más 9.1515e-06
diossé te 4.2343e-05
piti ponte 1.79726e-05
aniparo atada 5.62447e-05
jaskáribira cuando 3.31185e-05
joi la 1.58164e-06
jaskáabi rico 1.97528e-06
jaskáaketian abraham 5.82297e-06
já lázaro 1.14987e-06
keskati pero 9.70411e-07
joni servir 4.35057e-07
kaman busca 2.4025e-06
mawata perdido 4.98516e-06
keská muerto 1.21138e-05
jawen echarse 2.33458e-08
moa echarse 9.55687e-08
eara ser 5.69643e-06
ikaitian suegra 0.0310886
pichika división 1.29351e-05
jawebi hacer 0.000205287
moa amontonaré 3.5219e-07
bokana van 4.98778e-07
iti señal 2.37459e-07
belzebúkan demonios 0.00149008
belzebúkan este 0.000688949
baneti coman 5.96693e-05
mato rechaza 8.80994e-08
yoia rechaza 1.60059e-06
maton rechaza 5.01656e-06
jema digan 1.63486e-05
jema plazas 7.12326e-05
jema vayan 1.03789e-05
wetsa mientras 1.40412e-07
iamai quería 0.00290963
yoyo señas 8.35961e-06
pikóti bautista 6.77196e-05
jaskarabo maría 7.07116e-06
iti virgen 7.65036e-08
rama abrió 4.41348e-06
ea lavé 2.90448e-07
westíora fueron 2.07457e-07
westíora palabras 5.97779e-08
tsoaki quién 1.54356e-05
jan esclavo 1.25065e-07
ikaxbi ha 8.25229e-08
ikaxbi soy 8.2782e-09
ikenra tiempo 1.90901e-05
ike hay 5.04354e-05
riki dicho 1.29428e-06
yakáxonra gentío 4.73156e-05
tee creer 1.43919e-06
neno venido 1.53136e-06
jonibo dirigieron 2.23387e-07
pimaibata muy 0.0161915
ikonhakashamai vida 1.60555e-05
jarake otro 1.1381e-06
ochóma betesda 5.3749e-06
jesussen puso 2.07198e-06
vinoayantanainko vino 0.0030975
ati enviado 3.51842e-07
papa verdaderos 5.31774e-07
papa estamos 1.45047e-06
xeai agua 1.91705e-05
noa aceptan 6.94277e-08
jiriti entendido 5.77511e-06
jain medio 0.00391222
jain puso 5.58174e-07
meran casa 2.1502e-07
meran vez 8.1705e-07
fiestatian milagrosas 0.00125086
vino mejor 7.38832e-06
yora retirar 0.000127431
yora pidió 5.74572e-05
yora judíos 6.05181e-06
yora miedo 9.67615e-06
yora decía 6.81518e-07
yora pero 1.41405e-06
natobo buscan 1.59649e-05
riki costumbre 1.3096e-07
judío eres 6.2836e-07
nete antes 1.84191e-05
ikaxbi serían 2.78992e-08
noia hago 8.32727e-06
ikaxbi doy 1.79387e-06
raana reciba 2.20193e-05
natora digo 2.39409e-06
joi nuestras 3.73344e-07
kopí muchos 4.45734e-08
janenko señor 1.67883e-06
mia allá 1.52905e-07
xaran judíos 6.90405e-06
jaonmea NULL 4.47962e-05
kopí iba 6.09489e-06
ikaxbi año 1.067e-08
makan quiten 3.17e-05
yokatabo cualquier 0.000201594
baneribia nuevo 0.000770819
ikonhayamakana creen 0.000134027
jamanox venido 3.3334e-05
naman embargo 0.00025024
naman higuera 7.34985e-05
natanael encontró 0.486002
iki betsaida 2.43149e-08
rabé siguieron 4.00101e-07
tsoarin judíos 0.000249295
ikaxbi jesucristo 1.57483e-07
já recibió 1.69735e-08
iananbi habla 2.90467e-05
mato ambiciones 2.491e-07
jake frutos 1.9064e-07
tsoaboki sabiduría 5.57012e-05
tsoaboki cambio 0.00496466
jaweratoboki cometes 8.28389e-06
koshi perfectos 4.6397e-06
koshi queremos 2.2637e-05
jakon hijos 3.89816e-08
kaín balaán 0.00015635
ianankanainkobo útiles 0.00133182
onanmataanan hombres 4.05719e-05
ixon culpable 2.65334e-07
noa entregó 9.72328e-07
jakonhakin rebatir 1.97605e-05
esekan sepa 7.32918e-06
esekan capaz 6.9506e-06
westíora tendrá 6.9995e-07
bakebo considerados 1.86112e-06
abrahamman suyos 3.22575e-06
abrahamman hijos 6.6175e-07
akinoxonribi promesas 0.00881487
jain vio 2.45083e-08
senenhaax observancias 0.00392057
nobé está 9.32655e-06
janra bien 4.82553e-06
teneai nuestro 1.66416e-05
shinanmakin muerta 2.8148e-06
shinanmakin cosa 1.77073e-05
shinanmakin codicias 0.00182696
shinanmakin suerte 0.3138
shinanmakin toda 0.0280489
shinanmakin mí 0.0241358
shinanmakin despertar 4.7149e-06
shinanmakin precepto 6.07329e-06
ochabo es 2.66992e-06
yoiai sirviendo 0.000344522
axonti vale 2.13717e-05
nokon pecado 2.37719e-08
ocha miembros 9.42895e-07
jawékiboreskayara hago 0.00314276
ea vendido 1.7313e-07
iketian muerte 4.53914e-05
itaanan jesús 5.05544e-05
manátia esperanza 4.03199e-05
jatíbitian aprovechan 1.14481e-05
jakon aprovechan 0.000194063
já fuimos 1.24274e-08
keská cuenta 9.05261e-08
jakon realizado 7.28389e-05
jakon alguien 3.5582e-07
onanti justicia 1.96334e-06
imaa señal 0.00026623
benai espiritual 0.0176943
dios ídolos 4.58297e-09
itan afirmas 7.41545e-06
jan ciegos 5.75414e-08
jawékibo cambio 8.47611e-07
meran anuncio 3.96373e-08
jan hechas 3.909e-07
jakánnon jesús 0.000202131
shinanman poder 1.09101e-06
jatíbi alimentos 1.3864e-06
non claro 3.85457e-08
diossenra gracia 2.57118e-07
jatiobi persona 0.0154029
jatiobi propia 0.000656331
atipanyamake indagar 2.27384e-07
iketian medio 1.72359e-06
masá castigo 2.82389e-06
keská perdieron 2.61931e-06
dios manifestó 3.8624e-07
jatíbi estando 2.2324e-07
pan y 4.07057e-05
mawata esperar 0.00628307
ikai descuidé 1.90104e-05
jato descuidé 1.32339e-07
dios viviendo 1.47231e-06
atipanke salvar 5.83309e-05
kishpinmati capaz 0.00117188
riki significa 2.2475e-06
pikota moisés 3.05536e-06
melkisedek derrotar 0.000140074
abraham promesas 4.97808e-06
kristonra ruegos 3.56505e-05
iti sacrificios 1.98454e-06
já descubierto 1.31494e-05
já desnudo 1.47813e-06
onanmati dicho 1.22978e-05
onanmati conocer 0.000185315
jainxon quiere 1.57308e-06
jainxon milagros 3.23788e-08
yoina sagrado 6.21154e-05
ichabiresakin mala 0.000160964
ichabiresakin gente 8.02249e-06
non salvaron 1.98216e-06
jan salvaron 1.10989e-06
chii junto 8.13012e-05
janra esaú 7.80419e-07
kopí mejor 8.40614e-09
menia sacrificio 1.4128e-05
ikonhaa mancha 4.68202e-07
akonkin sincero 0.00905693
dios acerquémonos 4.37231e-08
bai nuevo 1.01262e-05
noa seguiría 3.30038e-05
beneya dolores 6.92941e-05
riki reconocemos 2.42498e-07
kaman sufro 9.9886e-06
joibo verdad 1.42562e-05
imati fe 0.00111605
imati partir 0.000810979
imati justicia 1.85985e-05
imati verdadera 0.000222591
imati paganos 4.7368e-05
imati daría 0.000398656
ainbo diferencia 2.38121e-07
jesús cristo 4.54771e-07
jakonma hacerse 0.00149681
jakonma ley 4.5137e-06
jakonma maldición 0.000314105
jayamake carne 0.000769449
jaskáakin entrevisté 4.198e-05
noara pecadores 1.5113e-05
noara pueblos 8.34008e-05
noara esos 0.000329043
beibaxon hice 0.00354808
jawéki maldito 7.81192e-07
ikaxbi santiago 1.07438e-08
iiti pasados 0.00022602
iiti tarde 2.57832e-05
kaa arabia 3.29332e-07
jan saludan 7.70656e-09
jawebioma o 4.43706e-05
joi amadísimos 2.03753e-07
kopí sienten 7.49083e-08
axonkanwe voluntad 0.000877556
jakon espíritu 6.51896e-08
jawéki donde 4.49049e-07
kikinhakin cosa 1.83545e-05
betan anchura 2.7498e-06
akinmisti riqueza 0.000641858
maton vida 4.74518e-08
ayananbi gracias 0.00010039
griego distinción 0.000317059
itiakin señor 6.49584e-06
noa desprecio 1.88083e-06
kristo real 1.63569e-05
meranxonra todos 6.68985e-05
meranxonra encima 0.00176585
meranxonra él 0.000753493
meran verdad 1.57865e-06
meran palabra 2.96979e-08
ea completo 1.50899e-06
jaskáaketian algo 6.82238e-06
icha perfumes 3.39481e-06
westíora caballo 2.06938e-07
kaman iban 3.00559e-06
korderon primero 0.000151885
tsoabi abrir 1.32229e-05
jawékibo existen 1.18092e-06
diossen fiel 7.88849e-07
ibo voy 8.11192e-07
meniai enviado 2.91948e-07
jan profetas 5.07693e-08
jawékibo salario 8.44473e-06
jatíbi hago 1.57023e-07
betan morada 4.55107e-08
iskon topacio 0.00762752
espada sale 0.000158174
jan triunfo 8.85927e-08
betanbi bestia 1.42545e-07
jonibo terremoto 9.16539e-06
jainxon vencerlos 1.91869e-08
iká surgía 7.31589e-09
nete NULL 1.06869e-06
rabé lámparas 1.35849e-06
senen meses 0.000471646
rama suceder 0.000201323
akinnabora ante 0.00100525
akinnabora caridad 0.0071274
jatíbi hermanos 4.10188e-08
onananmabo hace 0.000931826
joi dichas 6.26792e-06
yoiai arrastre 8.86879e-07
yoiai advertidos 3.53712e-05
bonoxikanai escrituras 5.11485e-06
bonoxikanai demás 0.000482138
meniatonin sabiduría 5.96815e-05
jaskati universo 9.24765e-05
ikonhabo jesucristo 0.000196546
notsina locura 0.00142478
notsina detuvo 0.000498368
notsina burra 0.0197046
jakana falsos 0.0154837
aká pasados 2.82773e-07
moatian purificado 3.76127e-05
jaton tiene 0.00271662
maton fraterno 3.51782e-08
maton constantemente 1.46245e-05
neskara constantemente 4.21424e-05
neskara recuerden 0.000357206
neskara necesario 0.000271681
shinankanwe elegido 0.0227943
shinankanwe dios 8.56857e-05
shinankanwe llamado 0.000349833
bomai jesucristo 0.0777888
bomai tuvimos 0.000248177
bená señora 0.00067632
akáshamakin escrito 0.0001756
akáshamakin escribirles 0.326463
yoiti escribirles 0.000169616
jatíbi ultimas 6.50165e-06
yoiai combatido 0.000181853
onanmanon captar 5.45334e-05
yoiti tiempo 0.00102767
jakonma alejandro 1.11024e-05
keenyamanoxikanai bien 0.942417
papan santo 1.88771e-07
jaton calumniadores 1.37194e-07
jatíbi libró 0.000192247
shinan caridad 0.000238505
ati buena 0.00521945
jawéki puestos 1.68523e-06
jawéki cimientos 1.08553e-07
ikai sólidos 0.000667449
jawéki sólidos 7.46497e-08
jato desconciertan 3.43818e-07
riki cierta 3.78533e-06
kopí sostenido 2.53178e-05
miki constantemente 0.0372238
itima para 6.38956e-05
itima hubiéramos 0.0170873
bomai letra 0.00233963
aká carrera 1.87723e-05
akana manifestaciones 9.20342e-05
jaskatax compartir 2.20978e-06
betanbi mediante 0.00292839
jakon activa 1.54738e-05
rabibainshamankin dije 0.00236745
ikax generosidad 6.43845e-06
teetai ayudante 0.0132126
non personal 2.32912e-07
shinan orgulloso 0.000208279
akinti escribirles 5.11462e-05
akáx inspira 0.000173278
akáx tristeza 0.113423
non pasamos 1.48019e-07
jakoni defendernos 0.000787246
non procedemos 6.22645e-05
xobo vivo 0.000406489
ixonbi agradar 0.00970278
nato quitase 1.19023e-05
rama mirarlo 0.000101315
ikenbi tinieblas 0.00805686
yamé brille 2.64755e-06
chopa antigua 0.000238683
chopa sentido 0.00890773
jara comprobar 0.000362415
en aflijo 1.88666e-05
ikax hablamos 8.37698e-06
koshimashokobo fuerza 0.912685
koshimanon duro 1
shinan duro 0.000179008
mia debilidad 3.46948e-08
yoii forme 0.000789508
yoii gloriarme 3.38464e-06
iamax sabe 1.46052e-06
yoraomaki cuerpo 0.000581629
yoraomaki fuera 0.00240037
keskatibo encuentren 0.00736438
keskatibo quisiera 0.000522482
noa llamé 2.58795e-06
joi dificultad 0.00030951
jesús dificultad 0.000460641
yoia dificultad 6.91418e-07
westíora vacila 9.71802e-05
westíora quién 8.07372e-07
wetsa cosas 9.29785e-06
raketa fuimos 0.000839976
ikax méritos 0.000852946
keskati mis 1.28663e-06
keskati poco 2.78704e-06
keskati cante 4.51274e-06
koshi vaya 8.86341e-07
yoyo orador 0.000476056
akai lejos 0.0057218
icha consuelo 3.4079e-07
nonribi capaces 0.177857
meranoax predicamos 0.00573187
enra predicamos 2.04283e-05
kopí beneficio 4.43524e-07
nato motivos 3.55596e-07
nato asegura 1.55373e-07
wetsa diera 1.9531e-07
bia rut 0.00134301
keyotimaa entre 1
kaa sentó 0.00162062
kaai siguiente 4.16639e-07
kaai tanto 1.1338e-05
kaai debes 0.0176573
kaai tú 1.85799e-06
kaai tarde 7.62484e-05
kaai cebada 2.98983e-07
mia vacías 0.000606887
jawekeskaki te 0.000187269
ikaxbi prometo 1.82088e-05
kaman mañana 1.81552e-07
winoa jóvenes 5.83627e-06
ikaxbira tuyo 1.35713e-07
kebada siega 0.00640244
betan tendrás 1.2578e-06
mia anduviste 7.63761e-05
jaai desconocido 0.00809445
ea casas 2.4559e-08
kaa hijos 1.01057e-06
kaa esposo 2.0213e-05
kaa noemí 0.000165711
jeneti mueras 0.000133411
main judá 9.80177e-06
ankianobaon humildes 5.37067e-06
kristo manifestarse 1.38584e-08
jakon confíen 8.10808e-08
jake para 0.000544513
ikax santas 5.47276e-08
dios injustos 2.20282e-06
rabinkanti sufrir 0.824639
keska cambio 0.0011638
keska honor 0.000464811
yoiaibo visita 3.91359e-07
yoiaibo calumnian 0.0053635
jakoinra alabanza 0.998687
joxon alabanza 0.00399289
janra gran 5.3784e-07
janra sea 0.0609968
jakon ámense 8.59678e-05
kopíres han 6.79163e-06
maton aprendieron 0.000129585
naikanmeax sino 0.142242
onanmaa preparando 0.00666929
onanmaa estaban 0.000117151
pedro apóstol 4.9156e-06
oranti pido 0.000115459
onannatonra nos 0.0338728
onannatonra conoce 0.776621
jara oído 2.01202e-08
yoyo espíritu 2.54251e-07
jakanabo es 0.000411604
jakanabo mundo 0.000187969
betan ama 4.22989e-06
joi auténtico 7.94179e-05
jakon nosotros 9.36834e-07
ikábo habrían 0.00938311
jaskárakana habrían 0.00455559
ikaxa habrían 0.00653846
jakonma carnal 0.000401382
shinanbo codicia 2.78856e-07
dios decimos 4.794e-06
oinna anunciamos 8.14901e-07
riki hablamos 7.62668e-07
jawe está 0.00543923
jake enseñar 7.7576e-05
itima dinero 6.09691e-06
itima amor 0.0781392
koríkires amor 0.00068719
jake creyentes 2.84909e-07
jati sólido 4.71135e-07
jati capital 0.000295805
joninbira amén 0.000308174
ponté procura 0.0155532
jaweratonki casa 0.000840483
jaweratonki especialmente 0.028342
jaweratonki suyos 0.000460422
jaweratonki preocupa 0.0536539
jaweratonki quien 0.00148316
ochabo sientan 0.000349855
jakon enseñanza 1.57108e-05
jakon peso 3.28519e-08
shinantaanankaya aconséjalo 0.996844
min reprendas 7.856e-05
jatíxonbi progresos 0.000650999
mia testigos 3.12331e-07
mia profética 0.000105336
koshimawe enseñanza 0.00270494
jan doctrinas 2.72236e-06
jakoni modales 0.00435871
diossenra presentado 0.00135191
jatíbiainra presentado 0.265385
iamax rebuscados 0.0012346
jaton adornarse 3.38581e-05
jainoax mediador 5.88115e-06
dios ciones 1.88993e-05
mia detuvieras 8.22694e-05
jatíbinin gracia 0.000270217
jatíbinin timoteo 0.00162488
nokon pronunciadas 8.59306e-05
jake cuales 0.000139114
ixon obraba 1.76345e-07
já obraba 0.000256625
janra llamarme 0.000893132
yoyo humanos 0.00216446
non fe 3.30242e-08
ratéresi escapar 0.0595571
ratéresi podrá 5.35814e-06
tsoabi caerá 0.00464374
ratéresi caerá 0.0254789
ratéresi seguridad 0.00190939
ixon ladrón 4.87206e-09
jakon constantemente 0.000417415
betan estaremos 3.31401e-05
naikanmeax bajará 0.00359877
jake divina 0.000772008
ángelbaon divina 6.90897e-05
ikai trompeta 0.00085773
keskati aprendieron 0.00157672
janenko aprendieron 0.000165863
noa completar 8.23053e-05
moa comenta 1.31629e-05
jainoax demás 1.72558e-07
ikai viajes 0.000147526
keskaribi judío 0.06932
senenhakinres pesar 0.927331
ochan débiles 0.036163
noa comerlo 0.000161546
jainoax dependemos 5.28356e-05
jaweratoki algo 0.000291097
piti formada 0.00465589
pii salón 0.00982579
shinanya propia 0.0387534
satanássen dominar 0.000480164
tee enteramente 1.13789e-06
bene agradar 0.000827438
shinanya santas 0.00569579
ainbo virgen 9.38754e-05
axonairibi libre 0.0332502
westíorabo situación 0.00823836
jabé homosexuales 0.00186499
jakonmashoko haya 0.585491
kaai iglesia 0.000167351
ikonkon panes 3.16212e-06
ikonkon masa 0.00693731
jatianra reunidos 1.53335e-08
yoike espíritu 2.58828e-05
yoike pero 0.00557237
joni sienten 1.37823e-05
jake juzgar 0.00018215
noa asiento 1.01413e-05
mia fijen 2.54279e-05
jainxon uno 4.22107e-07
kopíapakenoxiki merece 0.0731432
jaskáakinra digo 1.98721e-05
nokon amonestarlos 8.17568e-05
riki desecho 1.40452e-05
diossen trabajo 1.21674e-07
anoxiki cada 0.000619756
anoxiki obra 0.000439224
anoxiki probará 0.000220085
anoxiki fuego 0.288152
jaton sabiduría 7.52612e-08
ikaxbi perfectos 3.14783e-09
onanna forma 1.09876e-05
onanyamaxon juzgar 2.05079e-05
non esperanzas 1.14535e-05
iti apóstol 5.70362e-08
iká siembras 3.11206e-07
jawéki juro 1.90039e-06
jawéki estoy 0.00334854
raroai estoy 1.09977e-05
riki universo 4.26963e-08
jatíribi ahí 0.00279889
riki creído 0.000189576
joibaonkaya serviría 0.982276
joi partió 0.000651025
yoyo limitación 0.00024633
joibo crecer 8.3944e-06
onantiakin enseñanza 1.12838e-05
joi entra 8.7097e-06
joibo extranjero 0.00959382
jainoax dones 7.10939e-08
iti amor 1.88806e-06
raroai verdad 0.000788643
kimisha válidas 0.000641094
shinanyabo sabiduría 2.94732e-07
kikinhakin sabiduría 3.7807e-06
meranxonra sabiduría 0.124509
yora dividiera 0.000546179
icha miembros 7.35295e-08
beroma soy 0.000825452
ikax solo 3.39373e-05
onantiakin a 0.000408916
onantiakin profecía 1.42347e-07
itan examine 6.05229e-07
jainxonra gracias 0.000178226
ikanaitian hambre 0.00220627
iken maneras 1.25928e-05
onpax seguía 3.28578e-05
onpax roca 0.00964038
iboamakana ídolos 0.00698187
ati está 0.000532772
yoshinbo mesa 1.10399e-06
kopí tentados 3.11604e-08
iti tentados 0.000137338
kopí es 2.00352e-06
kopí nada 0.000305543
rarebobo condición 2.4598e-06
xewina sabiduría 1.97992e-06
jawéki épocas 3.33557e-08
jabo tienen 0.00995659
yoia paraíso 2.81796e-05
jato apartaba 1.08354e-06
awin juventud 0.00151734
anoxon jacob 0.00712016
jake cantidad 2.13105e-07
katanwe anuncia 0.0251212
aká esperanzas 5.56375e-06
jawe eres 6.69974e-08
mainmea eres 0.000274175
jaskara embravecía 4.9837e-06
oinnax aquellos 1.37747e-06
maton griegos 0.000437854
teshanpa acacias 0.037268
jakiribi pasará 0.00378698
joi ruge 6.15989e-07
ibon ruge 1.10611e-07
sión ruge 0.000128693
netera valle 5.19216e-05
ibo aquellos 0.0187834
yoia salvados 1.09402e-08
jakon desierto 6.86213e-09
jain jardín 0.000350947
higo vid 0.00562479
xabáxon niebla 0.999781
nete niebla 6.41035e-05
ichabires niebla 9.47817e-05
akonkin vestidos 0.0332789
maton vestidos 1.36055e-06
jatíbi rasguen 1.15823e-06
winiai yavé 5.09667e-05
winiai hay 0.0680516
ikai padres 9.89722e-05
ikai sucedido 0.00143322
jaskákankenbi entonces 0.00099359
jainxonra sinagogas 7.93014e-05
damaskoain seguidores 2.40704e-05
jain damasco 6.30262e-06
damaskoain sinagogas 6.61874e-05
janra visión 0.0012609
sakerdotebaon presentó 0.000110723
felipe espíritu 3.10878e-05
jake agua 3.38045e-06
ea culto 6.24717e-08
ibo recibe 3.99416e-06
diossen oídos 6.9447e-07
bakeomabobipari descendencia 0.0305813
ikaxbi prometió 2.07878e-06
abraham propiedad 0.00230313
noa sacó 2.78277e-06
israelitabo dijo 0.000130011
israelitabo moisés 0.00627765
mia rechazó 0.000120241
iti compañero 9.70612e-07
jakob bajó 0.00401614
imaa gobernador 5.00061e-08
imaa faraón 9.42886e-05
esteban discutir 0.0347362
ninkáke moisés 0.00186197
jesussenronki nazareno 1.41728e-05
moa negligencia 1.09585e-05
jawebi ocurrido 7.866e-06
jonibo proyecto 6.26779e-06
akábo conversión 0.00347042
pedron apóstoles 0.000165809
jatíbi predicación 3.01654e-07
joxon uno 7.42081e-06
meran enseñar 1.08459e-07
jatianribira hombres 4.54136e-05
keskáakin tenían 6.63088e-07
ikana bienes 9.90738e-05
keskáakin bienes 1.70719e-06
ikana propios 0.00259154
keskáakin propios 0.00589049
ikana nadie 9.20099e-06
ikana alma 0.000151661
ikana sola 0.000124963
ikana una 3.52769e-06
ikana corazón 1.96819e-06
ikana solo 3.90826e-05
ikana un 2.75719e-06
ikana tenía 0.000253259
mawataxbi afirmaban 0.00842846
atipanyamakana contra 8.15415e-06
iti podían 2.25864e-05
iti sanado 0.000523756
ratékana admirados 0.00169139
jane debamos 7.45679e-07
riki despreciaron 4.37011e-07
jara entregaron 0.000446854
maton propio 5.47142e-07
yoinike isaías 0.00138769
jain llegamos 6.02734e-07
jain semana 3.21644e-07
niweaba toda 0.00148361
niweaba estábamos 0.00308216
niweaba sol 0.00468961
niweaba veían 0.00417982
icha tempestad 0.00022617
nanékana subimos 0.0233912
jain noroeste 1.55018e-05
pablon levantó 0.0250657
pablon momento 0.00277902
pablon ese 0.00049209
minra perfectamente 0.000210631
ikana llegado 1.05324e-06
ikana donde 3.41573e-06
ikana hasta 1.46064e-06
ikana hoy 7.99692e-07
ikana tú 4.50097e-05
profetabaon crees 0.000310292
yoiaibo sentido 0.0262219
jeneyamai hoy 0.000627858
jeneyamai día 0.000232925
jeneyamai hasta 0.000362524
jeneyamai pequeños 0.00020573
ea deslumbró 5.37859e-09
ikaxbi digno 3.76578e-07
nobé aquí 6.42984e-05
yoyo defenderse 0.000724159
poi berenice 0.0135376
joni así 3.29332e-06
jawéki juicio 1.08425e-06
iibaxon voz 0.000255599
jakon empezó 0.00132496
jeman empezó 0.0284001
icha purificado 0.000440408
ea encontraron 4.37e-06
benai conciencia 1.45946e-06
benai siempre 0.0128102
bain según 1.91823e-06
iitaitian sorprendió 2.68292e-06
xobonko sorprendió 2.78679e-06
jainxon sorprendió 3.14662e-05
pablo dijeron 2.52656e-07
joni arrancarlo 6.81671e-06
kenaxon doscientos 0.000173953
ikanai listos 0.000155111
jonira listos 0.000109193
jonira hombres 0.00049031
jonira cuarenta 2.14955e-07
bakish pedirte 0.0130884
ikonrin eres 4.25017e-06
joni oigas 6.45422e-06
jain evan 0.000139905
ja arrestar 1.44945e-07
jaskákinra entera 0.0445177
jaskata concluiría 0.00139136
noa recibieron 0.000901875
noa hospedar 3.96992e-07
judíobaon extranjeros 4.24693e-06
neskáakin cinturón 0.00161528
jerusalénhainxon cinturón 0.218879
kaman barco 0.00592966
joi supervisores 3.44161e-06
rama pierden 0.000363147
rama culpable 0.000199912
rama siento 0.000190705
rama me 9.70056e-06
mato pasé 7.26826e-08
jesús fe 5.6958e-05
wetsa siguiente 3.46799e-08
pablo vivo 3.06216e-05
aká resucitó 1.35915e-06
nato resucitó 1.93222e-06
inoxikanai proféticos 0.0292175
shinannai estamos 4.21545e-06
jaskákanaitian pedro 5.8826e-06
xobo artemisa 0.000172689
jaskáakin muchísimas 5.0261e-05
jaskáakin mente 3.0601e-05
teetai figuritas 0.0162916
jonibo auxiliares 9.79559e-07
jonin maltrató 0.000626949
kaa efeso 7.28878e-05
ikax pelo 1.3592e-06
tsinkíti sóstenes 2.70502e-07
tsinkíti chusma 0.0180839
esekan mismos 0.0073601
esekan ustedes 2.23968e-05
nato podrá 5.03712e-06
jato escucharemos 1.37228e-09
nato estableciera 1.11846e-08
iti dioses 1.21279e-06
jan cárcel 3.14203e-06
jato vigilarlos 4.0353e-06
noa suplicó 1.2103e-05
westíora listra 5.97667e-07
nokókanketianra presbíteros 0.00082461
iketian trabajos 4.51703e-05
jaskáakin iglesia 2.34872e-07
rabékinaibo apóstoles 0.000754437
judíobo dividió 0.000212807
judíobaon importantes 0.00290329
ikaxbi temían 1.99574e-07
jonibo distinguidas 6.5489e-05
neskákana creyeron 0.0224436
ixon llevarás 1.38754e-06
mato llevarás 4.61154e-06
ochabo esto 1.45591e-05
ochabo este 6.21778e-05
ochabo cree 0.00811204
keská escrito 0.00212915
oinna habían 0.000528195
yoiai leen 1.61429e-05
dios dio 6.08725e-05
iwekanon mano 0.026008
benche llevase 0.00399539
iwekanon llevase 0.00938368
jawe llevase 1.50155e-07
metsonxon envuelto 0.000394195
netebi envuelto 0.0454751
jawe envuelto 0.000675314
ángelnin parecían 0.000522278
chorokootax cayeron 0.999984
jan seguida 3.28732e-06
ikaxbi iglesia 3.07682e-08
kopí hasta 9.32197e-08
kopí comían 4.38111e-07
espadanin santiago 2.08021e-06
wetsa santiago 9.12021e-08
jatianribira rey 0.00122378
klaudio emperador 0.594062
masá antioquía 5.72131e-05
iká soldado 5.76463e-07
jemankoxonribi jerusalén 2.16459e-05
jerusalén misma 0.150547
judea misma 0.00212749
jonibaon señor 1.66888e-05
jonibaon mensaje 1.293e-05
jaskáxon pedro 0.000311791
min ordenado 1.48215e-06
westíora dudar 4.71854e-07
noa cornelio 5.28807e-07
shinanman bautizados 4.40881e-05
manákanwe prometido 0.268
judas ministerio 0.000233286
nokon sentirlo 0.000108621
min retraso 7.88161e-05
aká emborráchate 4.99291e-05
menoti trabajen 0.0445848
ake propia 2.88162e-06
ake destruir 0.0365121
riki tenaces 9.29203e-07
jakon quema 5.38346e-05
jabo instrumento 1.23236e-05
koshi instrumento 9.69931e-06
keskáakin introducirán 0.000652787
jakonma fuerza 4.66024e-05
yamake fuerza 4.55082e-06
ikanai como 0.000702764
yamake como 0.00048811
keska pasa 1.54093e-06
ibanon canaán 0.00256822
bipakea puros 0.638264
noekan altar 0.00373135
nete quitó 4.30599e-07
nete noé 0.000772636
joni noé 1.44685e-06
raanai diluvio 0.0426504
nato violencia 0.000486675
min entierra 7.56935e-07
baritiayanix años 0.00167868
joséra josé 4.14839e-05
jainxon josé 1.89029e-08
bonóxiki jacob 0.000785821
jabo jacob 7.55515e-07
bonóxiki país 0.706512
bonóxiki yo 0.0036577
yoiniain yo 0.00473039
senenres años 0.0427073
shinanai mal 0.191065
joibo respecto 1.30457e-05
beaxa cana 0.322566
josekan solemnes 0.00123681
josekan besó 3.25798e-05
josekan llorando 0.00358014
set novecientos 7.54596e-05
set morir 0.300335
adán morir 6.34597e-05
lámek morir 1.69814e-05
matusalén morir 0.000169334
jared morir 0.0121738
mahalalel morir 0.375174
kainán morir 0.016639
kainán setenta 0.00255921
enós morir 0.132973
nokon encumbrarás 0.000105029
chipónoxikanai orgullo 0.0290872
joniakin orgullo 0.136057
nokon brazos 6.77018e-05
nokon mantenido 0.000343216
jaskáakin yavé 0.000566266
mia país 0.000188766
min descanso 1.75654e-06
min encontró 1.18277e-07
koshiti aquel 0.0135432
yamake entre 0.0174556
jawetianki mando 0.000105246
yamake mando 0.00395313
apo bastón 0.000137716
neten bastón 0.00710304
jawetianki bastón 0.000815965
jawetianki arrebatado 3.31718e-06
koshiti arrebatado 0.0353624
jaki será 2.90115e-07
chiní tuyos 0.00544365
pekáo palabras 5.3598e-06
joá verte 1.56768e-05
oinni venido 0.000123505
ani pueblos 0.00587948
bake llegará 5.26826e-05
ikenbi izquierda 1.69616e-07
ikenbi manos 1.29748e-05
ikenbi menor 1.17225e-05
mia nuestros 7.67832e-07
faraónman desolada 2.61317e-06
betan tierras 3.06126e-08
bekana ganados 0.00333799
iokana carretas 1.40201e-06
iokana llevaron 0.0823449
bokana total 6.96255e-06
ainbobo dina 0.00659557
bakebo zabulón 8.26149e-08
yoina bersebá 0.00807934
akinnai faraón 8.59939e-06
mato hambre 2.63217e-06
mato vendieron 1.5243e-08
tantipakea jacob 0.899944
yoyo creyó 0.00118324
jawebi creyó 0.00496789
yoyo dieron 1.66561e-06
jaresparia dieron 0.471872
kati fueron 0.00265968
yoábo familias 0.0421127
yoixontankanwe tengo 0.746964
jaskati aquí 6.91929e-05
jan obrado 3.52136e-05
papa ancianidad 4.44962e-07
papan pena 0.00169455
papan morirá 0.000803162
papa nuestro 1.47777e-07
papan culpa 0.00153897
mia menor 3.08627e-06
jatianra nosotros 2.73745e-08
betanbi josé 9.60911e-07
eki algunas 0.00259966
nokon cosa 5.02744e-07
jaskáabi josé 0.000111002
ikonhayamaitian copa 0.0429189
ikonhayamaitian poder 0.00136922
ikonhayamaitian adelante 0.00101769
chiní benjamín 0.00311804
nokon quedarán 0.000160724
trigo acabó 0.000396265
moatian tenido 0.00147113
boax llegar 1.78741e-06
boax trigo 0.0332293
iketianra trigo 0.0124804
jaweatimein qué 0.000631183
kárkel presencia 0.00995778
axon simeón 2.48083e-05
diossen tengo 2.48248e-07
maton sabré 5.99999e-08
josekan egipcios 0.00112531
jaskati cuando 3.81896e-06
josé durante 9.46417e-07
yoiribia josé 3.27551e-07
jain quedó 2.12479e-05
nanémaa delante 0.988983
iketian delante 0.00646749
joni gritando 2.94917e-09
jabé gritando 0.00390738
meosoti dedo 0.16186
jati ministro 0.000112128
jati primer 0.000445678
bichinkanti abundancia 0.0243674
yoábo anterior 0.0524785
noa interpretó 2.15901e-05
hebreo joven 0.196224
betanbi guardia 0.00026473
namata tenido 0.206058
namata hemos 8.03561e-05
keska clase 0.00709991
bochoaa canastos 0.0368257
jaskáakin sueño 1.66748e-06
iribati volverás 0.00113307
jakiribi faraón 7.37729e-08
maxkáyamakinra tiene 0.0151165
eki tanto 0.000304972
potifarnin esposa 0.000104263
jaskati estuvo 0.000281408
akí dijo 0.017531
yonotibo dijo 0.0406907
iká personal 3.01511e-09
tee personal 5.50841e-05
ainbo personal 1.98141e-06
jaskara personal 2.51503e-07
iikinra judá 0.190606
jan salió 0.000495804
bake salió 2.4117e-05
neskata judá 4.40519e-05
judá contaron 0.00218661
janeya sué 5.7081e-05
janeya hija 0.000395032
westíora hija 2.00941e-07
westíora conoció 1.25941e-06
judakan esquilando 4.23255e-06
iitira judá 2.45301e-05
iitira después 0.000529383
iitira tiempo 0.584909
jaskata tiempo 0.00348161
wainko gavillas 3.33971e-06
non atando 5.4031e-06
ayamakinra saludo 0.00287878
yoyo negaban 9.30398e-05
papan negaban 6.19077e-05
betan faraón 6.09228e-09
ikai feroz 0.000606573
raana siquem 0.000123159
akin hebrón 1.26217e-05
oinni envió 0.00114676
sikem hermanos 0.0177611
jaton éstas 6.08421e-09
nebaiotnin hermana 0.000141795
seir habitaban 0.053018
padán jacob 6.68778e-05
jaskáketianra extraños 0.0139847
papan rubén 0.00382098
jaskáakin tumba 1.02623e-06
jaskáakin piedra 2.12528e-08
jaskati raquel 1.83769e-06
janea benjamín 0.00634226
jainxon hablado 0.000138403
maton hijas 6.21013e-07
sinákana infamia 0.0157537
sinákana hijos 0.00243517
iketian sobre 0.0380961
yorana sobre 0.883043
itin circuncidar 6.37981e-05
noa circuncidar 3.86461e-08
kaa allí 6.80133e-06
kaa reunidos 4.66568e-05
dina salió 0.0359385
kaa dina 1.46285e-05
esaúkan le 0.0209664
bake postraron 3.502e-07
senenainbi raquel 0.000268666
makan llamando 0.00289349
chinitainbires después 0.00263672
lea colocó 0.00118054
lea situó 0.000695032
jakana ciudad 0.000142279
jakobnin contigo 0.0134049
nokon regalo 1.51985e-06
paro campamento 3.6069e-05
bake campamento 0.000201698
paro aquella 0.199427
bake aquella 1.9777e-05
bake quedó 0.000224099
jaskatax envió 7.46012e-06
nokon otro 1.01146e-07
nato grupo 1.49282e-08
nokon grupo 8.95867e-07
nato distancia 0.000411094
nato cierta 1.59938e-08
rabé regalo 0.00121012
nokon hijas 5.8722e-07
oinxon hijas 3.75867e-06
aká sentencia 0.000295686
ixonra pruebas 8.95917e-05
ixonra mis 0.000144657
ixonra visto 6.2983e-05
jaskati entró 0.00192087
ikax descubras 0.000205223
mia regresa 6.10238e-06
min prisioneras 7.88273e-05
jawen esquilar 1.82496e-07
bakebaonaribi nuestros 0.000471671
ebé hiciste 0.0124246
ikax hiciste 0.000118471
ángelnin respondí 2.49212e-07
kopí llamó 4.62003e-06
diossen llamó 3.35607e-07
bakearibaa bilá 0.000456016
jakobna jacob 0.00017242
labánman hijos 0.00156592
jaskáaketian ella 0.00810494
jaskáa jacob 6.72633e-07
jayakax concibió 0.00010268
diossen durmió 0.000109616
kopí pagado 4.81774e-07
nokon mandragoras 0.000173781
awin brisa 0.000958954
dios serán 8.32843e-07
iketianra así 4.00212e-06
jatíbi podemos 2.02805e-07
jonibaon contestaron 0.00228418
onanna contestaron 4.35147e-08
onanna labán 8.42431e-06
labán conocen 0.000323451
kopi servicios 0.00599672
bixonra lía 0.40545
yoinabo volvían 0.00304897
labánman esclava 1.16734e-05
awinhati esclava 0.0106743
jakob aceptó 0.0027286
oxakiina jacob 0.000206612
iká parecieron 3.33076e-06
rama conmigo 0.00737264
rama pues 3.49319e-07
teeti salario 0.000693624
teeti tu 4.55315e-05
teeti cuál 0.00537192
labán corrió 7.69345e-06
koka labán 0.000210429
labán supo 0.000167464
jatianbi labán 0.0357012
onantaanan labán 0.0609992
ishto pozo 0.116727
bia hermana 3.79622e-05
keenma isaac 0.140814
jakob promesa 0.000346248
mia aram 5.97793e-06
neno menos 0.000451508
min mejores 1.61051e-07
min cabritos 0.00020641
biketianra mujeres 0.00200413
hitita mujeres 0.0283167
hitita estas 0.632654
kenaxon menor 0.00135562
kenaxon hijo 6.2737e-05
kenaxon jacob 1.78787e-05
mawatamatianbi sirves 0.0542489
iti tus 2.19583e-06
joni tus 9.40342e-05
en hecho 3.49317e-07
iketian primogénito 0.0010319
papa guiso 4.57744e-07
xetetaanan bendijo 3.727e-05
yoia sentir 1.09658e-06
yoia bebió 8.26234e-07
miakonrin verdad 0.00419397
min después 1.96237e-07
jonibo isaac 1.3497e-07
beabo despidió 0.0913403
joi contigo 3.73461e-06
ibo aquella 0.000581273
pozo excavaron 0.00556524
senenresa años 0.350244
senenresa abraham 0.161308
minkana este 5.98885e-05
minkana envió 2.55433e-05
minkana cambio 2.37062e-05
minkana abraham 0.924515
manókenbi derechos 0.0744972
jakob derechos 0.00331818
wanonontianra hija 0.00104881
wanonontianra rebeca 0.0332179
wanonontianra cuando 0.000479221
wanonontianra isaac 0.770553
wanonontianra fue 0.00110173
wanonontianra abraham 0.167886
kaa juntarse 5.00745e-05
ismaelnin descendientes 0.00295719
pozo roi 0.0103343
isaak bendijo 0.000124824
isaak muerte 3.94956e-05
rebeka amó 0.00734608
tsoa viene 6.5569e-06
oxakana allí 0.00464958
menia rebeca 7.33012e-05
akin díganmelo 6.92118e-08
en díganmelo 3.99464e-05
rabia patrón 0.000629805
betuelnin soy 0.00312305
jain bendito 2.15355e-06
jatianra camellos 0.00038495
jatianra junto 3.52432e-07
nokoa corrió 0.0499414
labán llamado 0.000486413
ikibo mi 2.32492e-06
ikibo hermano 5.50623e-05
xeakin trajo 0.0943381
jara mayordomo 1.00102e-06
xewina abraham 2.8722e-06
jema camellos 0.000581845
ibo propiedad 1.33162e-05
kini finca 4.76771e-07
mai borde 7.97777e-07
mai suya 4.74004e-06
mai macpelá 0.00113039
ibo cueva 0.00124093
efrónman contestó 0.00281745
ibó sepulta 0.00512106
abrahamman respondió 0.00143653
katanwe moriah 0.0039944
menia abimelec 8.59931e-06
jaa desierto 2.37604e-05
jaweki te 0.000308096
jaweki qué 0.000188998
agar desierto 2.98442e-06
menia agar 0.000458647
jawékibo despide 1.08313e-05
iti despide 0.000424856
jatianra colocó 6.60194e-05
adánman aves 0.00319508
janepakea formó 0.0206007
paro brazos 0.0322671
paro cuatro 0.0126329
meratabaon panes 0.00039887
baneta estatua 0.000957449
mia concedo 7.51004e-05
min concedo 9.9033e-06
mawánake muerte 0.0163764
awin fuera 0.0306664
kaa casarse 7.00141e-05
jaweati la 0.691429
jaweati diez 0.000382056
jaweati esos 8.26941e-06
akáma cincuenta 4.12631e-05
sodoma cincuenta 0.00868545
bewakeexon vio 0.672096
bewakeexon abraham 0.000540197
enra naciones 7.47569e-07
enra todas 2.67554e-07
jaai bendecidas 2.75645e-05
shinanxonti bendecidas 0.018149
shinanna preguntó 4.42916e-06
sara escuchando 6.97111e-05
imanoxiki estableceré 2.88622e-06
bakebora reyes 7.82192e-06
apo manera 0.0398219
bakebora manera 0.00678554
chiní manera 8.07902e-06
saraikan llamarás 0.0297413
saraikan esposa 0.00593345
bake ocho 3.16249e-07
bake varón 2.17556e-07
peoa señora 6.70989e-05
ibo estado 7.29872e-06
ibo agar 0.000167411
nokon hijo 1.61128e-06
nokon algún 1.86227e-05
agarnin eres 2.21983e-05
westíora correa 0.000177314
apon abram 2.03258e-05
jakon trescientos 4.03573e-09
jatianra sodoma 0.000279324
abram país 1.48378e-05
abram etapas 0.00208259
bokana saray 0.000115652
poi respetarán 0.000756859
nato mujer 1.87685e-08
bari emigrar 0.0022819
sem edad 0.0021843
bakebaon familias 0.000909345
joktánman hijos 0.00320805
joktánman estos 0.0134857
kanaánman primogénito 0.0253501
natobo jafet 8.86476e-06
keskati propias 0.00661135
iti frutales 7.89103e-07
iketianra bueno 6.29631e-05
bimi especie 0.00224724
meskó semilla 0.0181772
meskó plantas 1.39261e-06
meskó hierba 3.5445e-06
janeya mateo 0.0116398
jaskáaketian algunos 0.0183381
nokóketian cafarnaúm 0.000305291
jatíbi calma 1.01581e-06
dioski miedosos 0.000433716
chibanti enfermedades 0.21503
benxoaa comenzó 0.0515953
jesussen fiebre 5.42299e-07
pedron fiebre 8.16535e-05
pedron encontró 0.00154167
jesussen sano 2.30516e-05
ainbo sano 2.81111e-07
non expulsado 2.93087e-05
oveja profetas 2.39716e-06
oveja cuídense 0.0288597
betan háganlo 1.21683e-06
jawéki premiará 1.26728e-06
ikax premio 0.000691338
jawékibora rompen 0.00720677
jawéki óxido 8.31214e-06
min aléjala 1.28631e-05
min tíralo 1.70702e-07
yoii pagado 0.000242403
mia encerrarán 1.45018e-07
min ofrenda 1.12173e-05
koshibo insultado 0.000632241
yoii cielos 0.00234978
yoii reino 5.78928e-06
yoii maestros 4.96502e-08
yoii proponen 4.01662e-05
esekan definitivo 0.00425257
esekan traer 0.000109052
esekan venido 2.19046e-07
esé luz 0.000202517
jaskáabi pero 0.000221469
jesussen proclamar 3.6342e-05
ikaxbi nazaret 1.5896e-07
satanás dejó 0.000784242
jaskáaketian mujeres 6.19142e-06
senenai enséñenles 0.00320405
jato enséñenles 3.33405e-08
jatíbi enséñenles 6.12879e-10
jainoax nombre 1.20543e-08
onannaibo día 5.51583e-06
maría madre 6.76096e-05
mawata judas 0.000453728
pikotininki quieren 0.133682
jaskáakin saliendo 6.49709e-05
yatannabaonra sumo 0.000170017
yatannabaonra llevaron 0.985965
jaskataanan donde 0.0145071
jaskataanan volvió 0.0170076
já lo 1.16184e-06
já vid 0.000155503
jaskara escrituras 2.54087e-08
pekáo hombre 2.35256e-06
pekáo hijo 1.88279e-06
mia ayudamos 6.57883e-05
kaa ayudamos 2.48049e-07
isinai vimos 0.0123752
chopa recibimos 0.000138709
mia confiaré 1.19265e-05
kopíra compartir 0.000890066
hora piensa 1.15979e-05
betan esperan 2.42969e-07
ibo despiertos 2.37189e-05
oinxon historia 0.00757592
oinxon venida 0.00100758
bari oscurecerá 0.0015992
naikan sentado 0.000659613
naikan trono 1.83786e-06
xobo sagrada 0.000877496
masá ustedes 0.00945735
bebonbires ustedes 0.00553469
kopíra ustedes 0.00663559
orakiónbo ustedes 0.999238
nenké ustedes 0.780514
jaskati fueron 0.00762441
ninkáxonyamaa fueron 0.0284564
chaniabaon fueron 0.00220477
ikanti sino 0.0911788
raana servidores 0.00184529
iketian sucedió 6.49461e-07
imati difunto 1.48651e-06
ibon servidores 7.16597e-05
aniparo dirán 0.0100682
sinákana NULL 0.00149545
nazaret expulsa 0.0587961
betan moneda 1.464e-06
westíora contestó 3.12092e-08
kaman avise 0.000392893
betanbi vieron 0.00208405
yora sola 0.0064284
neteyaribi eterna 0.000430859
jatíribibaon niños 9.2348e-05
iti entienda 0.000247311
joni casarse 0.000320292
jabora amarraran 7.28682e-06
ea suplicaste 4.50832e-05
yoiribiai digo 0.00656442
kopí tres 1.5787e-08
arai respondió 0.000141406
jatian brillaba 8.27938e-11
tsakake agua 0.350766
jawekopíki maestros 0.00558562
jawekopíki dicen 0.106451
jawekopíki qué 0.0655663
enbiribira te 0.00437341
enbiribira ahora 0.00233479
naikan sangre 5.02499e-05
naikan revelado 0.000226771
naikan esto 1.19994e-05
jakonma saduceos 0.001434
jaskati cumpleaños 0.000232955
bichinxon permite 0.23241
moiséssen permite 6.13638e-05
herodesninra herodes 0.000794584
joni despidió 2.39408e-07
jonibo siguieron 4.77463e-07
kaax día 3.66894e-05
ani compra 9.91133e-06
jonibo semilla 1.82213e-06
yoii mundo 2.38495e-06
profeta cumplía 4.61212e-07
kaax barca 0.000873636
jenekana jonás 0.0064208
yapa estuvo 3.00732e-05
ochakanabora calumnie 0.899409
jaskatiribi internas 0.437623
jatíbi asombrada 6.87515e-05
já siguieron 1.2168e-06
iti acabar 8.1171e-06
jesús acabar 7.60053e-05
jaskáaxon salir 0.000211868
yoiai pobres 3.04093e-06
yoiai llega 9.31915e-05
yoiai nueva 0.000254597
nokon conoce 0.000361078
mia entendidos 0.000131078
nete carguen 4.07687e-05
ikaxbi borracho 1.47089e-05
nokóti la 0.0931068
yamatianbira juan 0.163623
joi decididos 8.40798e-05
jaskarabo niegue 0.000192912
jonibo cielos 1.06737e-06
nokon cielos 0.00280144
jane demás 3.63848e-06
jane demonio 0.0103167
wetsa demonio 5.22792e-05
riki demonio 2.12565e-07
iti sirviente 9.14745e-07
jainoax deportación 4.52185e-05
joni quisieron 3.17617e-07
nato necesitan 5.63114e-05
jonin avergonzará 6.33181e-06
jakonrin qué 5.13369e-05
profeta alguno 0.000878131
pan tenemos 0.00946647
tiro saliendo 0.0304741
ainbaon respondió 0.000416599
jonibo decirles 7.67785e-05
yamake padres 0.000190613
yoiti madre 0.00066183
jesussen compasión 1.11615e-06
jatianra compasión 0.000700061
jaskatax todos 2.84926e-05
raanabo habían 0.000188531
joi contaron 2.523e-07
juanman vinieron 0.00495016
chonkabo treinta 1.48733e-05
jainoax cayó 1.56987e-05
mostaza semilla 0.0981807
ikai granos 0.0024583
ikai llena 3.36549e-05
ikai espiga 3.52782e-05
nete despierto 0.00046743
joni duerma 0.000188673
keská incluso 0.0123278
keská produce 4.44278e-06
keská dará 1.51938e-07
akin convertirían 3.18174e-05
diossen convertirían 4.02883e-05
jesús distancia 1.51911e-06
jakiribi orillas 2.92629e-06
jaonmea orillas 8.56718e-07
jatianra discípulos 1.60074e-05
akai mío 5.4019e-08
jakiribi gente 1.29201e-06
jesussen quiso 0.000512593
akinni pecadores 0.000500205
yokákana discípulos 0.0206459
yokákana grupo 5.69121e-07
oinxon acompañaban 5.96556e-06
bokana lugares 8.93095e-07
bokana todos 6.10047e-07
bokana parte 1.55492e-06
onannaibo tampoco 0.000477072
onannaibo pero 4.24109e-05
onannaibo demás 0.00312401
westíora roca 2.75588e-05
iká verdaderamente 6.6369e-07
papa llevara 3.9348e-08
pilaton coronación 0.00371515
jonira quien 0.000969774
ikon eres 1.02072e-06
judassen acercó 0.0014358
jaonmea acompañaba 0.00194733
kakin y 0.000201281
onannaibo pieza 0.000222111
joni pieza 3.24367e-06
ikaibopari serán 0.996026
peokooti serán 6.49059e-05
ikaibopari lugares 2.99072e-05
ikaibopari diversos 4.76924e-06
jawékibo recoger 1.33691e-05
jaskarabo vean 0.0127159
jatíribi mataron 0.00093679
jatianra tercero 2.68212e-08
tsinkixon dijo 0.0421947
ikai maestros 4.42278e-08
neskákin decía 0.00502215
kikin mandamiento 0.000149285
awin cuál 0.00017515
jaráa bien 0.000241961
onanmai franqueza 3.06872e-05
jakantiakinres enseñas 0.99967
joibo escritura 2.77789e-07
joibo leído 0.00269693
joni trabajadores 0.000575027
yoishokoa contestó 0.0963702
ea concederá 2.14734e-07
itan dedicaban 1.19817e-08
meran dedicaban 1.09286e-08
jesussen maldice 1.02473e-05
apo nuestro 4.66253e-07
bain siguió 1.4811e-06
jonibaon abusan 5.59202e-05
betan enojaron 6.98991e-08
kaai jerusalén 6.29832e-05
jabaonra mundo 0.00434775
bebonbires campos 0.00340806
bebonbires persecuciones 4.66514e-06
jabaonra persecuciones 9.61222e-05
ikonra digo 0.000134844
kaketian casa 0.000633898
juanman ceñíala 0.00268911
jonibo reunido 9.46452e-06
xobon andrés 0.000152742
jaboribi jesús 0.0143174
yoinabo tentado 0.000133219
naikanmeax fuego 4.43275e-05
westíora alojamiento 0.000149144
ikanai ellos 0.0441256
ikanai testimonio 4.11701e-06
ikanai polvo 5.46795e-07
juanman momento 0.00326171
benxoa epiléptico 0.00930421
elías él 0.000942656
jatianra elías 3.00375e-07
ikábora aquí 4.48992e-05
matonbiribiki soy 0.00112436
betan discípulos 2.88461e-07
betan apartado 7.54795e-06
noara cinco 6.92869e-05
jainoax permitió 5.09947e-07
jesús rogaba 0.0002363
kaa barca 0.00011072
namanbi sentado 1.26363e-05
jaskáketian ver 0.000732202
riki multitud 7.91105e-08
herodesnin cuza 3.66773e-05
janeya administrador 3.25666e-07
yamake luz 0.000110843
yamake salir 0.0204638
yamake descubierto 1.59771e-05
ikonhakin acogen 0.013466
inínhaxonke pies 0.0526662
simonman contestó 0.000710649
koríki debía 0.00540991
joáx lágrimas 0.042573
joáx llorar 0.00140428
saweaibo visten 0.320883
oinke cojos 0.0309401
jaskáakin cuéntenle 5.61297e-07
jainbi llevaban 0.105046
jatianra llevaban 7.13142e-06
ikana acompañaba 7.73981e-06
miinkini acompañaba 0.999649
já número 8.73068e-05
jain entrado 3.68025e-07
jakon ingratos 0.000160899
ani recompensa 6.28582e-06
wetsabaonbires quita 0.704902
jakonmaapaokanike profetas 2.84051e-05
yamé oración 0.0246119
jesussen enseñando 1.04231e-06
joxon postró 2.58132e-06
jesussen desapareció 9.53656e-05
jatianbi fiebre 3.76423e-07
notsina jesús 0.0046282
koshiaxon poder 7.08158e-06
raana sidón 0.00513941
kirika enrolló 0.00132936
kaa sinagoga 8.87115e-07
bake arní 0.000147846
bake elmada 0.00011869
juanman pueblo 5.0043e-06
galilea lisanias 0.00384499
ioa manos 1.68729e-05
joni muertos 4.68029e-06
kaa arriba 0.000173295
jerusalén ciudad 0.00710787
mato enviar 3.08334e-06
moa inmediato 1.20672e-05
jatíbi profetas 2.99211e-08
jonira nuestros 0.000778578
westíora kilómetros 2.75523e-09
westíora emaús 5.98609e-05
raroshamanra felices 0.431225
jesús cruz 5.60489e-06
westíora cirene 3.57502e-05
nato acusándolo 9.03202e-05
matonra traído 0.0108685
joni palos 6.78192e-08
maton gobernar 1.52141e-07
ikibo quién 0.000582601
ikaxbi trazado 1.04066e-06
aríbaa cuerpo 0.0021987
ikaxbi recursos 1.89859e-06
netetiibira día 0.00363248
netetiibira durante 0.103156
mawákanamabi generación 0.00156537
jonibaon cumplan 7.95313e-08
jain harán 9.38497e-09
jaskákinra contestaron 2.07164e-06
jainshamanra has 0.00481149
ikax resurrección 7.21948e-07
jaskarabo cuestión 0.000304753
westíora esa 0.00482779
moiséssen templo 2.99481e-06
jainoax descendiente 4.41654e-08
jainoax david 1.37731e-08
kopíra josé 3.99293e-06
janra saldrán 0.00355333
ramara dejar 0.00119452
ramara puedes 0.000127393
shinan esperaba 4.41053e-09
bake contaron 0.000141713
xobon salvación 0.00321764
jatíbi pendiente 3.67392e-06
jatianra sacerdotes 1.21356e-05
jatianra jefes 7.85338e-07
xobo visita 0.00245139
en depositado 3.92628e-06
ixon hazme 8.16475e-08
jan hazme 3.48068e-06
ainbora viuda 9.78024e-07
jemanribi había 0.00246371
wainko interior 0.0221136
katima interior 5.74373e-06
katima buscar 0.420514
jaskáribira todo 5.13806e-05
jaskáribira hayan 0.00501196
nokon tenían 0.0034069
jainra mis 5.24614e-05
jake recibiste 2.69863e-06
mia cargo 5.0676e-06
riki pasen 9.59789e-07
onanke corazones 1.99987e-06
keskati perfecta 1.29786e-05
esé nueve 0.00323406
koríki igual 6.20662e-07
kaman encuentra 0.000289782
yoiara quiso 0.000543965
bakeya hijos 4.31146e-06
jan invitó 1.72051e-05
onanai podrá 0.0266801
riki llegar 1.81329e-07
jaskáyamaxonra cimientos 0.481621
riki seguir 0.00026857
min mandaste 6.32832e-06
yoia inválidos 7.63457e-07
rama últimos 3.93831e-06
beparametaibo son 0.0193531
akin suegra 0.000286192
kopi cuentas 0.00771107
jesús cuentas 0.000748702
icha merece 0.00229757
icha algo 0.000362408
bebonbires aves 3.03059e-06
riki inquieten 5.947e-07
jaskara inquieten 5.58472e-06
maton reconocen 2.13239e-05
keskábo ustedes 0.0278069
riki lámpara 0.000210224
jonibaon generación 7.52177e-06
dios conmigo 1.58378e-06
meniti hijos 1.22302e-05
tsonbi necesaria 2.93463e-06
jaskara necesaria 5.18381e-09
maríanra necesaria 4.36858e-05
yoikin rigor 0.000968754
ikonhaayamai rigor 0.0416924
inoxikanai rigor 5.3876e-05
jain adonde 9.95367e-09
pekáora otros 0.000848205
wetsa zacarías 6.25302e-05
jonibo recibir 0.000272945
karibaa casa 1.02507e-05
jeman judá 2.23854e-05
jeman cerros 0.000273616
jaskarabo entonces 3.86356e-05
zakarías temas 0.00800879
nato estoy 0.00067487
moa reconocieran 2.20323e-05
ikana trabaja 1.09772e-05
ikana fariseos 1.27434e-06
westíora estas 7.11298e-06
westíora oír 0.000519936
janso conozco 0.00429737
tsoaki te 2.5153e-05
miaki grande 0.00059132
naikiama demonio 0.00280658
ikaxbi dijeron 1.12514e-08
jaabo pecado 0.00228359
jonibo creyeron 2.36617e-06
joá adónde 7.98981e-06
yoiboreskin jesús 0.0137559
matonara tiempo 0.0521685
tsamábo origen 0.216399
ikax discusión 7.80433e-07
iká recibirían 8.80639e-08
jato recibirían 1.53419e-05
neskáakin recibirían 2.50498e-05
raanaiba enviado 9.20067e-05
moara nuestros 6.16878e-06
jawe libertad 1.24833e-06
aká juzguen 0.000363315
ikenbi circuncisión 3.1279e-05
shinanmanbi habla 0.0380082
diossen doctrina 1.11512e-07
onanmaiboki doctrina 0.000535503
nokon doctrina 0.000635036
pekáo fueron 0.00154212
bokana después 9.89436e-07
ike aquí 0.00428223
judío discutían 7.23394e-07
jato resucitaré 7.7792e-07
shinan enviado 0.000248683
kopí tenemos 9.70811e-08
kikinhakin través 4.81211e-05
kikinhakin visto 4.40544e-05
kikinhakin buscan 3.01225e-05
kikinhakin me 1.39032e-06
kikinhakin digo 0.00459549
pimaibata pan 0.00188566
pimaibata cerca 0.371105
jesussen tiberíades 1.92979e-07
ratéti hecho 4.91156e-05
maton ellas 5.43022e-05
jaskáakin escrituras 1.23661e-07
eara personalmente 0.00364423
kopí pasado 3.60367e-08
jawen ga 1.668e-08
bebonbires atónitos 0.000690229
yoiti resucitar 0.00554247
yoii judíos 0.000231345
min cuestas 3.42897e-05
kanontian galilea 0.0100486
xobon pedirle 2.09466e-08
vinoayantanainko agua 0.0422842
onpax convertido 0.00263042
wetsa siembra 4.68041e-07
ikaxbi digo 1.18255e-08
iká pueblo 2.56882e-08
papa hora 0.00450478
papa llega 0.00019435
neskaa mujer 6.80993e-07
tsonbi testimonio 1.55566e-06
judea territorio 0.00170374
joxon luz 6.91319e-07
icha libros 0.000120952
nato libros 2.687e-05
jaskáakin corrió 9.65676e-09
jaskáakin razón 1.58193e-08
jaskáakin esta 1.47676e-07
mia entregar 3.20084e-07
jiriti habían 0.171718
tomassen contestó 2.09265e-05
jaton descarguen 7.30972e-06
jainoa jesús 0.0120674
jaskáaxon probar 0.00301244
ikaxbi cometió 6.14711e-09
fiestatian pascua 0.0088052
onanke creyeron 8.33799e-05
jatíbi creyeron 5.93965e-05
joiboribi creyeron 0.0503415
neskarabo después 7.57717e-06
nikodemoribi había 0.000997218
yora pilato 7.03064e-06
ketaxnankana labios 1.35423e-05
ketaxnankana acercaron 0.999819
jaskáakin repartieron 0.000133236
yoikana pilato 3.11885e-07
pilato dijeron 0.000505089
pilato sacerdotes 0.132005
pilaton dejarlo 0.00586728
ea escucharon 8.99111e-07
en escucharon 0.0001466
jainoax sinagogas 1.97737e-05
min mensaje 3.68607e-07
keskábo guardado 8.11555e-05
ikanon verdad 0.00192866
iketian mundo 9.18008e-08
jonibaon tampoco 0.0145986
moa voy 1.99875e-07
papá llegado 0.00436654
nato encontrarán 8.4705e-08
jaskáaketian discípulos 2.46801e-05
maton salí 0.000184527
kopí aman 1.15455e-05
jatíbi comparaciones 6.01524e-07
jainxonra volverán 0.0051252
ikana decir 3.05232e-05
ikana quiere 2.42131e-05
jaskáa algunos 0.00624238
atipanyamake fruto 4.14005e-05
jaskakinra he 0.00927964
akin permanezco 3.51652e-05
ea permanezco 2.71359e-06
betanbipari ustedes 0.00749453
papanakaya enviado 0.0754384
iskariotema preguntó 7.88527e-05
ikonhakanwe estoy 0.000109756
ibó manos 0.00228771
ibó también 0.00035347
ibó sino 0.000237185
ibó pies 0.022885
ibó sólo 0.00147914
mia digo 1.50004e-05
xewina patrón 0.000149148
ati deben 7.5266e-06
nokon hablado 5.39681e-08
joá salvarlo 0.0039658
joé permanezca 1.14726e-06
basima sea 2.35559e-05
basima mientras 0.00383407
nato alma 0.000474483
papan siga 0.000114694
ikana venía 0.00105069
ikana siguiente 1.15043e-05
ikana día 8.60981e-05
kaa mesías 2.35544e-07
jaskáaxon jefes 1.17532e-06
jaskáaxon entonces 2.057e-05
mia volver 2.41982e-05
jaonmea quedó 0.0133614
xaran quedó 3.10888e-05
jesussen contaron 3.10728e-06
westíora cerrada 6.696e-05
westíora cueva 2.93551e-07
maría rápidamente 0.000173288
jaskaketian discípulos 0.000343259
jara saldrá 3.28348e-06
jonibo caso 0.00151205
jonibo ladrones 8.85153e-08
riki ladrones 3.24669e-07
icha creyeron 8.7108e-06
ovejabo míos 4.82112e-07
onanke pastor 0.00470631
enra pastor 0.0002511
jamanox vida 0.000167249
jamanox tengan 0.115938
pedro piedra 0.0004008
pedro decir 1.41925e-05
pedro quiere 6.21388e-05
pedro llamarás 0.00161279
jonassen simón 3.60647e-06
jawen encontró 7.55225e-07
enbishamanra visto 0.0980141
mato hablaba 6.2049e-06
sakerdotebo preguntarle 0.000134162
tsoarin jerusalén 1.90915e-05
sakerdotebo juan 0.00230605
yoikin NULL 0.000120184
shinanya amoroso 7.85296e-05
menia gloria 0.000478845
nato sólo 1.0735e-05
kopí serían 1.70282e-05
jawékibo otro 7.03753e-06
mibé juzgar 0.0369532
jakonmaires te 0.000447266
jakonma vida 1.58719e-06
chii rige 1.85601e-05
maxkoshoko devora 0.0777724
yora sometemos 0.000543239
jake bueno 4.85652e-05
jake todo 3.35582e-06
ikaibo comprender 0.0313126
ikonhabo ricos 3.48466e-05
joni asiento 6.14544e-06
nato asiento 7.51092e-07
jawéki ocurre 9.17498e-06
jawékininbichores salvará 1
joni alegrarse 0.000121499
jara mar 1.73202e-08
jara olas 5.28986e-08
koshi ser 6.61631e-07
jawerato nadie 1.51456e-06
já soporta 0.000209297
joni soporta 0.00013859
keyotaibores flor 0.1337
esea NULL 0.000169853
mawata arrastradas 3.44618e-05
itan polémicas 1.54038e-07
ikai hubiéramos 0.000847738
noa odiábamos 3.19615e-07
noa malicia 2.34226e-07
abánon saludan 4.32324e-07
yoia culpable 6.53965e-06
jonibo fuese 4.3874e-05
esekan rebatir 0.000294666
esekan segura 0.00488863
mia instrucciones 1.8889e-08
mia acuerdo 1.28536e-06
mia presbíteros 2.4793e-06
mia creta 0.000275792
mia compartimos 3.68116e-06
jakoni sirven 0.0297151
yoitimabo sirven 0.00278553
omisaibores sirven 0.0719176
iti rebeldes 0.000569569
jatíbi bendito 9.93723e-07
jawékibaon promesas 0.0420412
jaskáshamaankin alianzas 1
jawékibaon descansa 1.96888e-07
janra vasijas 0.00150603
omisa NULL 0.0580042
jatíbitian anhela 0.000577354
shinanman según 7.23448e-06
jakanabaonra carne 1.61749e-05
shinanman viven 0.0115395
jawékiati falta 0.0194783
noa hambre 4.53914e-07
yoyo murió 0.00224981
ochabo enfrentar 0.000295692
jatíbi enfrentar 1.63171e-07
imanoxon primogénito 0.0663536
janra aman 1.34907e-05
jatíbi sabemos 2.89721e-08
kopí secretos 1.85333e-06
diossen manifestarse 2.31973e-08
en vivía 6.34479e-06
en codiciarás 3.43062e-06
ikenmein pecado 0.000404035
ochabo nuevo 0.000431349
atipanke escrita 1.91373e-07
ochabo sirviendo 0.0029717
nokon conciencia 5.35555e-07
ocha habita 0.000125861
ocha santa 4.67217e-07
ibo vida 0.000328674
ayosma obedeciendo 0.009704
ikai quien 1.43257e-05
ikai esclavos 7.07037e-05
ixon ofrézcanse 9.40537e-08
maton ofrézcanse 6.81989e-05
kastiganti santos 0.271689
joni tratándose 2.23217e-06
jainxon eterna 2.87949e-07
kopíra multitud 4.40068e-06
kopíra toda 0.0045984
mawáti aprovechan 0.00300838
jonibo solo 2.20646e-07
kopíra solo 0.00369431
keskati adán 3.25468e-05
keskati abiertamente 0.00300783
já nuestra 5.02847e-07
kishpinmeeti fuimos 0.0401843
kopí cuenta 8.2402e-07
iamax incircuncisos 0.000158694
ochaoma justo 2.71063e-06
keská toma 0.000399117
keská justos 0.00252172
baneta suyos 0.0145699
ikonhaibaon suyos 0.319409
jaskataxiki aquellos 5.11536e-05
noa transgresión 3.90479e-05
jawékibo cumplir 2.99206e-06
jakon sí 6.90961e-05
jaskara saldrás 9.45873e-05
esé bien 7.8548e-06
jawékibo ley 2.28218e-07
esé fe 5.34944e-05
noa consigue 8.2705e-07
diossenra nos 2.2151e-06
diossenra ahora 5.9656e-06
riki garganta 5.69969e-06
jaa siquiera 0.0168005
jaa extraviado 2.20764e-05
jakonma extraviado 0.000329616
ixonra justo 2.43085e-06
jonibo preparando 1.67095e-05
ixonbi físicamente 0.00231731
rabiti templos 0.00204585
ikai ciegos 3.97731e-05
jainxon voluntad 1.16034e-07
jainxon conoces 1.96568e-06
mia conoces 5.35262e-07
keská juzgar 0.00172359
ampliassibi saluden 0.107486
rabia hermano 0.00415972
jawékibores mal 1.87099e-05
jawékibo quiero 3.70483e-06
jatíbi jesucristo 2.19187e-06
menia pueda 0.00327083
iketianra material 0.00216696
akai espirituales 0.00148919
yoiti fundamentos 1.39272e-05
jakopira buena 5.44527e-06
akaibo tropiezo 0.0020781
jaton obediencia 0.000332257
mia felicitarán 9.47636e-05
mia autoridades 2.59215e-06
rakéyamai miedo 7.41331e-05
jakon dejemos 0.000415334
yamé avanzada 0.00167248
ikax adelántense 2.68382e-05
dios criaturas 0.000171747
jainoax piedra 1.31933e-07
dios pensamientos 4.86748e-06
onanti decisiones 0.00359117
rekenbo elección 0.0395701
diossenra elección 0.00156465
iti justo 3.89027e-06
ibo salvación 6.95725e-06
jatíbi visitarlos 1.0219e-07
jakantinin fe 0.00016585
keena fe 0.00215965
en misión 7.12844e-08
jan actúan 1.46013e-05
jakonma aprueban 0.000225968
bake descendencia 0.00137882
meskóaxon chismes 0.999995
jakonma engaños 0.000275783
meskóaxon engaños 4.66284e-06
masá persona 0.0170758
jabé torpezas 0.00021604
ainbobo normales 0.00133089
ikana normales 7.56366e-08
keská corresponde 2.10452e-07
dios captamos 5.20115e-06
jake visible 3.03319e-06
dios podemos 3.79103e-07
dios escritura 9.11642e-07
