2 0.809415 0.172763 0.00973298 0.00229103 0.00202998 0.000791209 0.00106637 0.000363532 0.000488634 0.0010588 
3 0.895519 0.101464 0.000771414 0.00135649 0.000839108 1.13759e-05 1.16304e-05 1.28074e-05 2.52909e-06 1.15682e-05 
4 0.995855 0.000890517 0.00202172 0.000909661 0.000305969 8.21683e-06 2.73957e-06 3.01682e-06 5.95735e-07 2.72492e-06 
5 0.385993 0.0470677 0.0975934 0.0679678 0.055147 0.0483612 0.0575357 0.0623492 0.014668 0.163317 
6 0.976233 0.00399961 0.0192064 0.000441179 1.22759e-05 1.60195e-06 1.62347e-06 1.78777e-06 3.77963e-07 0.000102303 
7 0.452473 0.173793 0.0948925 0.0303944 0.0360017 0.0419744 0.0298512 0.0235841 0.0106808 0.106354 
8 0.703622 0.292923 0.00174284 0.000484869 0.000429544 0.00016742 0.000225645 7.69236e-05 0.000103395 0.000224043 
9 0.993485 0.00417536 0.0022688 3.60576e-05 1.49643e-05 4.5074e-06 4.60825e-06 5.07462e-06 1.00209e-06 4.58361e-06 
10 0.922942 0.0614198 0.0126559 0.00127853 0.000545939 0.000376481 0.000278101 0.000113711 0.000137909 0.00025144 
11 0.973474 0.0156639 0.0083483 0.00113467 0.000483821 0.000188019 0.000253408 8.63882e-05 0.000116117 0.000251609 
12 0.576822 0.102412 0.0704581 0.0434781 0.0511325 0.0247223 0.0403588 0.0230244 0.00816059 0.0594313 
13 0.992666 0.00674165 0.000137094 0.000447543 5.98543e-06 7.13271e-07 0 3.01199e-07 3.0113e-07 0 
14 0.948738 0.0455962 0.0020896 0.00318436 0.0001257 8.66628e-05 6.40167e-05 2.61753e-05 3.17456e-05 5.78794e-05 
15 0.484456 0.0968455 0.122671 0.053453 0.0454546 0.0417354 0.0272095 0.0214971 0.00973557 0.0969426 
16 0.976107 0.00218755 0.0205652 0.000712801 0.000399655 6.35258e-06 6.49462e-06 7.15189e-06 1.41229e-06 6.45989e-06 
17 0.995643 0.000999785 0.00300946 0.000252816 5.50442e-05 1.30675e-05 9.59805e-06 3.92447e-06 4.75963e-06 8.67788e-06 
18 0.946162 0.0163727 0.0104252 0.00751096 0.012719 0.000103313 0.00646922 0.000113064 2.23269e-05 0.000102124 
19 0.536855 0.110353 0.0995737 0.0588938 0.0287447 0.0208665 0.0368293 0.0162452 0.01926 0.0723789 
20 0.6976 0.122847 0.0771518 0.0288063 0.0160947 0.011128 0.0165926 0.00702907 0.00360884 0.0191421 
21 0.586006 0.241641 0.0753316 0.0329518 0.0212634 0.00893411 0.00759565 0.00589899 0.00323227 0.0171446 
22 0.932056 0.0641167 0.00136682 0.0024023 2.51071e-05 7.40231e-06 7.56793e-06 8.33382e-06 1.64569e-06 7.52746e-06 
23 0.461039 0.429964 0.052742 0.0177727 0.00952578 0.00604316 0.00513823 0.00399049 0.00218654 0.0115978 
24 0.674413 0.124489 0.0715426 0.0372508 0.0149914 0.0148862 0.0158581 0.0119431 0.0175773 0.0170481 
25 0.586856 0.10837 0.0759533 0.04974 0.0329961 0.0233981 0.0228953 0.0253537 0.00898698 0.0654497 
26 0.54892 0.214507 0.0882503 0.0247974 0.0289292 0.0151513 0.0148257 0.0164175 0.00581944 0.0423813 
27 0.674403 0.187029 0.124648 0.00407201 0.00344746 0.00134369 0.001811 0.000617378 0.000829836 0.00179814 
28 0.00253301 0.996948 3.80824e-07 0.000505502 1.20743e-05 3.5826e-07 0 1.56448e-07 1.56412e-07 0 
29 0.575311 0.0826956 0.080431 0.0410749 0.0350164 0.0396125 0.0378666 0.0274375 0.00972564 0.0708291 
30 0.839311 0.15414 0.0046669 0.000759811 0.000359616 0.000247992 0.000183189 7.49025e-05 9.08423e-05 0.000165626 
31 0.995237 0.00457573 0.000142268 2.26274e-05 9.50689e-06 2.86357e-06 2.92764e-06 3.22393e-06 6.36632e-07 2.91199e-06 
32 0.507878 0.0776838 0.331087 0.00983248 0.0280281 0.0100147 0.00698008 0.00523182 0.00203505 0.0212283 
33 0.84241 0.130327 0.0159658 0.00626856 0.00176576 0.000685135 0.00092341 0.000314795 0.000423125 0.000916854 
34 0.972208 0.00782803 0.018092 0.000725692 0.000490871 0.000498208 7.69877e-05 1.81831e-05 2.20526e-05 4.0207e-05 
35 0.50616 0.184262 0.290915 0.00460337 0.00774863 0.00133599 0.00111558 0.00086639 0.000474727 0.00251805 
36 0.988102 0.0117772 2.3347e-05 9.24702e-05 4.31661e-06 5.46879e-07 0 2.38817e-07 2.38762e-07 0 
37 0.727664 0.0456207 0.0620326 0.136743 0.00194475 0.0235723 0.000862453 0.000352631 0.000427673 0.000779746 
38 0.762432 0.214854 0.0173859 0.00338483 0.000622643 0.000429375 0.000317173 0.000129686 0.000157285 0.000286766 
39 0.565207 0.10196 0.0706009 0.043456 0.0370288 0.0267892 0.0262135 0.0290281 0.0104828 0.0892345 
40 0.915763 0.0817302 0.00168623 0.000331281 0.000156794 0.000108126 7.98709e-05 3.26578e-05 3.96076e-05 7.22137e-05 
41 0.842214 0.0199307 0.0331654 0.0539205 0.0420282 0.00741044 0.000473803 0.000193729 0.000234956 0.000428379 
42 0.646966 0.129806 0.0760993 0.0310984 0.0249136 0.0158052 0.0134385 0.0104367 0.00571899 0.0457171 
43 0.956727 0.0228694 0.0150211 0.00297715 0.000883475 0.000319402 0.000430483 0.000146754 0.000197256 0.000427427 
44 0.486007 0.0769248 0.137337 0.115323 0.0401504 0.0231057 0.0226091 0.0250367 0.00887464 0.0646315 
45 0.545301 0.107982 0.0765694 0.0428272 0.0262295 0.0190056 0.0211418 0.0150732 0.0465544 0.0993166 
46 0.989727 0.00282367 0.00739212 2.97743e-05 1.20168e-05 3.61958e-06 3.70056e-06 4.07507e-06 8.04708e-07 3.68077e-06 
47 0.832034 0.167242 0.00055825 8.36153e-05 3.5131e-05 1.05818e-05 1.08186e-05 1.19135e-05 2.35256e-06 1.07607e-05 
48 0.560839 0.148389 0.207777 0.0369812 0.0107024 0.00905991 0.00658359 0.0047977 0.00272259 0.0121484 
49 0.74856 0.147953 0.0420391 0.0278506 0.011762 0.00458436 0.0061787 0.00210635 0.0028312 0.00613483 
50 0.553838 0.0929306 0.090246 0.0461303 0.0393075 0.0284377 0.0278266 0.0308144 0.0109226 0.0795465 
51 0.99173 0.00532496 0.00240978 0.000216188 0.000102294 7.05422e-05 5.21086e-05 2.13063e-05 2.58404e-05 4.71129e-05 
52 0.382042 0.557165 0.0258938 0.012819 0.00517698 0.00433673 0.00315139 0.00229653 0.00130323 0.00581509 
53 0.493847 0.103892 0.120543 0.101262 0.0436828 0.0192496 0.0277926 0.0202317 0.00723882 0.0622611 
54 0.67857 0.134825 0.0978462 0.0207408 0.0155398 0.018991 0.00955331 0.00583816 0.00331303 0.0147829 
55 0.574892 0.110786 0.077779 0.0519118 0.0317933 0.0230371 0.0257868 0.0326649 0.0102419 0.0611077 
56 0.545446 0.0914398 0.0889213 0.0455516 0.0537763 0.028014 0.027405 0.0303476 0.0107571 0.0783413 
57 0.557997 0.12236 0.104761 0.0503872 0.0308582 0.0223596 0.0248727 0.0171709 0.00992366 0.0593104 
58 0.642579 0.126104 0.103506 0.0301701 0.0241699 0.0153334 0.0130373 0.0101251 0.00554793 0.0294274 
59 0.393866 0.0807936 0.0750993 0.048117 0.06997 0.0514389 0.0612619 0.0368074 0.0166685 0.165977 
60 0.541013 0.0880503 0.0700843 0.0574995 0.0498758 0.02645 0.035493 0.0473372 0.0103318 0.0738646 
61 0.675511 0.314177 0.00302687 0.0061199 8.09808e-05 1.63638e-05 0.00102932 1.79849e-05 3.55148e-06 1.62447e-05 
62 0.646966 0.129806 0.0760993 0.0310984 0.0249136 0.0158052 0.0136644 0.0255949 0.00571914 0.0303328 
63 0.905385 0.0282821 0.0575521 0.00292318 0.000600316 0.000414001 0.00428984 0.000125036 0.000151645 0.000276484 
64 0.741799 0.134569 0.05859 0.0247244 0.0133657 0.0109508 0.00361698 0.00278026 0.00152341 0.00808046 
65 0.682105 0.0841288 0.0602471 0.0438713 0.0297731 0.0150541 0.016746 0.0115606 0.00669605 0.049818 
66 0.687699 0.0882884 0.0578629 0.0323225 0.0197958 0.0144151 0.0253153 0.0110188 0.00636925 0.056913 
67 0.905089 0.0378142 0.034283 0.0107521 0.00299662 0.00189197 0.00160866 0.00124933 0.000684551 0.003631 
68 0.376741 0.0916602 0.0849656 0.0469117 0.0666766 0.0551942 0.0534472 0.0352054 0.0160904 0.173107 
69 0.742488 0.194569 0.0401753 0.0189138 0.00123509 0.000851711 0.000629147 0.000257247 0.000311991 0.000568831 
70 0.837985 0.0814959 0.0392174 0.01349 0.00531685 0.00478863 0.00791441 0.00239332 0.00135459 0.00604425 
71 0.995589 0.00312213 0.000649416 0.000536534 3.31786e-05 2.26429e-05 1.6726e-05 6.83896e-06 8.29434e-06 1.51225e-05 
72 0.63544 0.0410646 0.146399 0.176001 0.000471606 0.000142044 0.000145222 0.000159919 3.15794e-05 0.000144446 
73 0.517254 0.460589 0.0147254 0.00403666 0.00119504 0.000461832 0.000622447 0.000212195 0.000285218 0.000618027 
74 0.610205 0.359276 0.014602 0.00375725 0.00301 0.00190955 0.0016236 0.00126094 0.000690912 0.00366474 
75 0.569606 0.133517 0.0897503 0.0497615 0.0559076 0.0173811 0.0187927 0.0129736 0.00749788 0.0448123 
76 0.978421 0.0188262 0.00188902 0.00063542 7.30745e-05 5.03922e-05 3.7224e-05 1.52202e-05 1.84592e-05 3.36554e-05 
77 0.580279 0.0990762 0.0961324 0.0463273 0.0283562 0.03406 0.0228582 0.027525 0.0108841 0.0545015 
78 0.971814 0.00737983 0.0137779 0.00364007 0.000569001 0.00136531 1.14165e-05 4.43479e-05 0.00107171 0.000326775 
79 0.582034 0.10206 0.0714455 0.0750714 0.0292879 0.0213479 0.0370768 0.0162894 0.00937235 0.0560154 
80 0.831306 0.123469 0.0231599 0.00971045 0.00286968 0.00243364 0.00176846 0.00128874 0.000731333 0.00326325 
81 0.804254 0.107618 0.0630091 0.0105669 0.00509437 0.00198558 0.00267612 0.000912304 0.00122625 0.00265712 
82 0.4759 0.0474593 0.112998 0.0587782 0.0473155 0.0402386 0.0413942 0.042391 0.0116807 0.121844 
83 0.658241 0.129306 0.0814476 0.0276905 0.0221833 0.0140731 0.0176196 0.0173377 0.00509193 0.0270087 
84 0.716043 0.124472 0.0572568 0.0238179 0.014986 0.0137109 0.0220875 0.00676496 0.00381918 0.0170414 
85 0.772687 0.0822411 0.0499134 0.0279495 0.0114158 0.00843659 0.0178043 0.00600714 0.00312748 0.0204172 
86 0.575103 0.0839233 0.0861476 0.0480366 0.0391802 0.0344045 0.0252122 0.0274375 0.00972564 0.0708291 
87 0.866133 0.108177 0.0222145 0.00061979 0.000547626 0.00188845 0.000149052 6.094e-05 7.39086e-05 0.000134752 
88 0.566149 0.124212 0.0766267 0.051137 0.0313188 0.0226933 0.0252439 0.0174272 0.0100728 0.07512 
89 0.725789 0.152437 0.0583228 0.0136841 0.0121183 0.00711603 0.0189465 0.0023484 0.002917 0.00632073 
90 0.64782 0.124095 0.0737058 0.0581742 0.0238144 0.0151079 0.0128456 0.00997623 0.00546634 0.0289946 
91 0.68943 0.136587 0.0624619 0.0259832 0.0163484 0.0138644 0.0109951 0.0166014 0.00913827 0.0185907 
92 0.86865 0.0663249 0.0231825 0.0283157 0.00474133 0.00184459 0.0024861 0.000847525 0.00113918 0.00246845 
93 0.593212 0.106132 0.0743973 0.0496548 0.030411 0.0223752 0.0386653 0.0169221 0.00977984 0.0584508 
94 0.625733 0.131075 0.0825896 0.0371803 0.0410894 0.014343 0.0155082 0.0199346 0.00516266 0.0273838 
95 0.67939 0.193727 0.0676523 0.0206308 0.0141693 0.00627 0.0045544 0.00331895 0.00188343 0.00840399 
96 0.667401 0.122312 0.0719286 0.0431554 0.0238613 0.0148889 0.0126594 0.00983165 0.00538712 0.0285744 
97 0.646966 0.129806 0.0760993 0.0310984 0.0249136 0.0158052 0.0134385 0.0104367 0.00657052 0.0448655 
98 0.399926 0.0820366 0.0762546 0.0480909 0.0564282 0.0519215 0.0619028 0.0379839 0.0169249 0.168531 
99 0.669704 0.140396 0.0580632 0.0242962 0.0431586 0.0129527 0.00936568 0.0209091 0.00387303 0.0172815 
100 0.574894 0.110784 0.077779 0.0519118 0.0317933 0.0230371 0.0289498 0.0295003 0.0102435 0.0611077 
101 0.433389 0.0477262 0.105081 0.0501455 0.0764672 0.043801 0.055728 0.0319028 0.012443 0.143315 
102 0.672771 0.0898273 0.0684052 0.0414035 0.0228825 0.0318972 0.0163176 0.0112272 0.00648855 0.0387799 
103 0.753783 0.130356 0.0386869 0.0222414 0.0358949 0.00399786 0.00538656 0.00183631 0.00246823 0.00534831 
104 0.823895 0.0925944 0.0599866 0.0106891 0.00449332 0.00175133 0.0023604 0.000804673 0.00108158 0.00234364 
105 0.502274 0.13538 0.215832 0.0522022 0.017948 0.0127769 0.014213 0.00981196 0.00567066 0.0338917 
106 0.867773 0.0470415 0.0387013 0.0107005 0.0199774 0.00471196 0.00278219 0.00202748 0.00115055 0.00513382 
107 0.487368 0.0782526 0.099084 0.0725464 0.0490982 0.0334011 0.0445744 0.0249106 0.0096896 0.101075 
108 0.820178 0.116138 0.034613 0.0108174 0.00674371 0.00241656 0.00325699 0.00111032 0.00149242 0.00323386 
109 0.723288 0.137048 0.0606906 0.0370608 0.0106071 0.0164566 0.00531839 0.00181306 0.00243699 0.00528061 
110 0.684943 0.109929 0.0859674 0.0405982 0.0168686 0.0107014 0.00909895 0.00706649 0.00446313 0.0303634 
111 0.69024 0.135776 0.0624619 0.0259832 0.0163484 0.0153588 0.0236361 0.00743777 0.00416638 0.0185907 
112 0.715447 0.120305 0.0542433 0.024273 0.0256453 0.0120413 0.00874925 0.00637589 0.00361882 0.0293018 
113 0.737638 0.145882 0.0413728 0.027504 0.0119399 0.0186622 0.00608916 0.00207582 0.00279017 0.00604592 
114 0.790617 0.119906 0.0282162 0.00893729 0.00791891 0.0033217 0.0138257 0.00153128 0.0177236 0.00800179 
115 0.633104 0.138811 0.0727419 0.0297264 0.0238144 0.0151364 0.0421223 0.0100828 0.00546634 0.0289946 
116 0.788721 0.18103 0.0230804 0.00289419 0.00136981 0.000944625 0.000697782 0.00028531 0.000346026 0.000630885 
117 0.825643 0.149477 0.0124089 0.0029626 0.00235375 0.00149322 0.00126962 0.000986022 0.000540278 0.00286575 
118 0.910158 0.0464195 0.0252342 0.00498763 0.00387708 0.00390913 0.00138487 0.000982895 0.000557771 0.00248881 
119 0.581217 0.109152 0.0766181 0.051137 0.0313188 0.0226933 0.0252439 0.0174272 0.0101163 0.0750765 
120 0.469175 0.0484278 0.106627 0.0495552 0.0497291 0.0431973 0.0430029 0.0322372 0.0126182 0.145431 
121 0.982711 0.0162401 0.000372281 6.76735e-05 5.78185e-05 0.000522361 8.75709e-06 9.64207e-06 1.90403e-06 8.70912e-06 
122 0.711608 0.107941 0.0856431 0.0300938 0.029726 0.00899331 0.00651905 0.00475066 0.0026959 0.0120293 
123 0.730185 0.151622 0.0419094 0.0133375 0.0263879 0.00460128 0.0061787 0.00213389 0.0175095 0.00613484 
124 0.647079 0.124022 0.0953931 0.0343445 0.0373805 0.012881 0.0222735 0.00607097 0.00326062 0.017295 
125 0.569494 0.423705 0.0033525 0.000743549 0.000658823 0.000292323 0.00113427 0.000117984 0.000158585 0.000343632 
126 0.638678 0.15601 0.134584 0.0191111 0.0119888 0.0101672 0.00738825 0.00538408 0.00305535 0.0136331 
127 0.388183 0.450558 0.1483 0.00943028 0.00198716 0.000323721 0.000436294 0.000148735 0.000199919 0.000433197 
128 0.986201 0.0126463 0.000465283 3.82071e-05 1.63928e-05 0.00033615 0.000285408 5.44618e-06 1.07294e-06 4.90769e-06 
129 0.653268 0.156168 0.0797706 0.0239724 0.0244979 0.0142776 0.0102407 0.0179333 0.00372717 0.0161445 
130 0.588779 0.107639 0.286794 0.00644801 0.00899626 0.000437402 0.000322504 0.000131866 0.000159928 0.000291586 
131 0.947222 0.0247085 0.019578 0.00454519 0.00344223 0.000440942 1.9204e-05 2.11322e-05 4.173e-06 1.90875e-05 
132 0.711668 0.111383 0.0619827 0.0349568 0.0150997 0.0108604 0.012081 0.00834017 0.00482007 0.0288079 
133 0.633129 0.12408 0.0731559 0.0461624 0.0363703 0.0158526 0.0267461 0.0100427 0.00546634 0.0289946 
134 0.774586 0.130368 0.0456428 0.00859693 0.00761724 0.00333042 0.0226876 0.00136411 0.00183354 0.00397303 
135 0.681289 0.117186 0.0687007 0.0280749 0.0224914 0.0142686 0.0121319 0.00942199 0.00524996 0.0411854 
136 0.676529 0.222716 0.0434598 0.0445269 0.00297017 0.00251388 0.00182677 0.00133123 0.000755443 0.00337083 
137 0.683921 0.147435 0.0876355 0.0187623 0.0217473 0.0167819 0.00441669 0.00952846 0.00180414 0.00796742 
138 0.699484 0.186743 0.0396715 0.00932383 0.028798 0.00374897 0.0140939 0.00157719 0.0114798 0.0050802 
139 0.976282 0.00879999 0.0144841 0.000214073 7.04826e-05 4.86009e-05 3.59008e-05 1.46792e-05 1.7803e-05 3.2459e-05 
140 0.635624 0.128547 0.080391 0.0459618 0.0225475 0.0211897 0.0119739 0.006057 0.0103186 0.0373899 
141 0.726979 0.150366 0.0459417 0.0269032 0.0105004 0.010368 0.00805624 0.00338862 0.00206592 0.0154303 
142 0.652315 0.12784 0.0749462 0.0306272 0.0245361 0.0155657 0.0132348 0.0102785 0.00577591 0.0448808 
143 0.803706 0.0905865 0.0392455 0.0363458 0.0104789 0.00411903 0.00348008 0.00270272 0.00148092 0.00785511 
144 0.550442 0.0605764 0.175993 0.157167 0.0354042 0.00808443 0.00309276 0.0022538 0.00127898 0.0057069 
145 0.918362 0.0171958 0.0601831 0.00105593 0.00169391 0.000319011 0.000426117 0.000145265 0.000195255 0.000423091 
146 0.7266 0.208937 0.0464642 0.0085355 0.00813667 0.000435932 0.000317173 0.000129686 0.000157285 0.000286766 
147 0.707517 0.174312 0.0687082 0.0165801 0.00926371 0.00605994 0.00440359 0.00320905 0.00182107 0.00812572 
148 0.799803 0.0741693 0.0874385 0.0162551 0.00518747 0.00439928 0.00319684 0.00232965 0.00132203 0.00589896 
149 0.671215 0.0799405 0.066856 0.0368383 0.0245672 0.0177736 0.0173916 0.019259 0.00684183 0.0593168 
150 0.955187 0.0170874 0.0187133 0.00619081 7.34605e-05 8.04481e-05 0.00132488 0.00107857 0.000242724 2.12928e-05 
151 0.815403 0.0665695 0.0808272 0.00773133 0.00643375 0.00368953 0.00361024 0.00399788 0.00141711 0.0103204 
152 0.823969 0.109643 0.0268853 0.00851572 0.00754538 0.00306324 0.0132753 0.00135125 0.00181624 0.00393555 
153 0.657401 0.126035 0.0738276 0.03017 0.0241699 0.0153334 0.0130373 0.0101251 0.00581235 0.0440883 
154 0.696356 0.281412 0.0151296 0.00126489 0.00380974 0.000425879 0.000573977 0.000195672 0.000263008 0.000569902 
155 0.651356 0.106785 0.163984 0.0284331 0.0110655 0.00592645 0.00724553 0.00737173 0.00255613 0.0152769 
156 0.583366 0.0871751 0.0642339 0.0256434 0.0420268 0.0443105 0.0346187 0.018972 0.00858917 0.0910645 
157 0.56847 0.147105 0.086633 0.0577235 0.0241217 0.0174765 0.019577 0.0247488 0.0077866 0.0463575 
158 0.372463 0.0346641 0.101017 0.0476687 0.0577911 0.0519172 0.0610923 0.0529745 0.0160187 0.204393 
159 0.630977 0.35731 0.00880991 0.00274613 6.81788e-05 2.03182e-05 2.07728e-05 2.28751e-05 4.51716e-06 2.06617e-05 
160 0.556097 0.284938 0.0457457 0.0198716 0.0169205 0.0122414 0.0119783 0.0132645 0.0047018 0.0342419 
161 0.677369 0.121619 0.0503762 0.0817249 0.0132218 0.0111772 0.0202861 0.00590939 0.00335343 0.0149632 
162 0.892392 0.0428658 0.0378785 0.00492045 0.00224894 0.00155088 0.00114561 0.00046842 0.000569461 0.0159598 
163 0.818479 0.119829 0.0259283 0.00835776 0.00539218 0.00914202 0.00322788 0.00235227 0.00133486 0.00595623 
164 0.757183 0.0649176 0.0816528 0.0297251 0.0137997 0.00846523 0.00825904 0.00914584 0.00324188 0.0236097 
165 0.361813 0.0359773 0.123972 0.0467423 0.0583007 0.0625587 0.0593468 0.051461 0.0152457 0.184582 
166 0.50162 0.0955124 0.0613371 0.178992 0.0646092 0.0191078 0.0176182 0.0121627 0.00702926 0.0420115 
167 0.739191 0.0827181 0.0550269 0.0306207 0.0173418 0.0125657 0.013978 0.00964978 0.00557693 0.0333315 
168 0.610387 0.0677835 0.0676201 0.0590246 0.0582286 0.029265 0.020097 0.0222549 0.00788857 0.0574503 
169 0.731164 0.116967 0.0691113 0.0258435 0.0145178 0.0100821 0.00588445 0.00428821 0.00296143 0.0191799 
170 0.801984 0.117436 0.0356708 0.0148106 0.00791249 0.0029294 0.0124244 0.00138834 0.00171895 0.00372472 
171 0.772913 0.213971 0.00633489 0.00192057 0.00170172 0.000663269 0.000893939 0.000304748 0.000409621 0.000887592 
172 0.632493 0.14963 0.0587271 0.0383597 0.041071 0.0133432 0.0148363 0.0102423 0.00591938 0.0353781 
173 0.92759 0.0362441 0.0179118 0.00727796 0.00271725 0.00172372 0.0014656 0.00113823 0.000623676 0.00330811 
174 0.833613 0.0915277 0.0324383 0.0120853 0.0104865 0.00414249 0.00352217 0.00273542 0.00149883 0.00795013 
175 0.631978 0.181537 0.0972298 0.0448034 0.00849603 0.00720513 0.00523577 0.00381549 0.00216522 0.0175346 
176 0.663293 0.146148 0.12879 0.0226663 0.00952156 0.00371115 0.0050018 0.00170514 0.00229195 0.016871 
177 0.574585 0.10167 0.063361 0.0412793 0.0291103 0.045515 0.025497 0.0140678 0.010236 0.0946787 
178 0.554956 0.0781639 0.0996303 0.098915 0.0581182 0.0430435 0.042527 0.00532071 0.00238587 0.0169398 
179 0.75671 0.0633397 0.0155873 0.120231 0.0274676 0.00963847 0.00622383 0.000181411 0.000220017 0.000401141 
180 0.846559 0.0703658 0.0504167 0.00883504 0.0055333 0.00469257 0.00340996 0.00248496 0.00141016 0.00629222 
181 0.875926 0.0641892 0.0252301 0.00863798 0.0051362 0.0085757 0.00314978 0.00223303 0.00126719 0.0056543 
182 0.910859 0.0408796 0.0389706 0.00244786 0.000762547 0.00169568 0.00399976 8.6969e-05 0.000105437 0.000192237 
183 0.762744 0.125322 0.0641512 0.00980872 0.00616568 0.00524169 0.00950113 0.0033213 0.00673324 0.00701135 
184 0.504741 0.148694 0.0774224 0.0304044 0.03561 0.0326573 0.0298512 0.0235841 0.0106808 0.106354 
185 0.833817 0.0797037 0.0409801 0.0163371 0.00757169 0.00450587 0.00383114 0.00297537 0.00163031 0.00864751 
186 0.836629 0.0891879 0.0581405 0.00763105 0.00295308 0.00114609 0.00154467 0.000526588 0.000707801 0.00153371 
187 0.631933 0.0844652 0.16104 0.0831788 0.00915828 0.00775467 0.00563511 0.0041065 0.00233035 0.0103982 
188 0.608978 0.35253 0.0160813 0.00533957 0.00564587 0.00387611 0.00169283 0.0013147 0.00072037 0.00382099 
189 0.622398 0.241089 0.130933 0.00137763 0.00104007 0.000659818 0.000561014 0.000435699 0.000238735 0.0012663 
190 0.557705 0.107909 0.0926966 0.0813035 0.0293816 0.0197461 0.0219655 0.0151639 0.00876385 0.0653649 
191 0.74909 0.117006 0.0531403 0.0101503 0.00898663 0.00723737 0.0115011 0.0037948 0.0284961 0.0105977 
192 0.705831 0.177655 0.0426915 0.0174258 0.0139602 0.00885636 0.00753017 0.00584813 0.00320441 0.0169968 
193 0.649059 0.115845 0.0940621 0.028944 0.0342316 0.0102596 0.00976344 0.0217971 0.00700044 0.0290386 
194 0.916407 0.041369 0.0244478 0.00641832 0.00263815 0.00223729 0.00162578 0.00118476 0.000672326 0.00299996 
195 0.737149 0.0856418 0.0987225 0.019923 0.0109862 0.00796048 0.0088552 0.00611321 0.00353303 0.0211157 
196 0.635694 0.266822 0.0934191 0.00164113 0.000776697 0.000535612 0.000395649 0.000161774 0.000196201 0.000357718 
197 0.693819 0.128127 0.057442 0.0466505 0.0346188 0.0136008 0.00645576 0.00470454 0.00266972 0.0119125 
198 0.727788 0.157265 0.090745 0.00683698 0.00708618 0.00214616 0.00182359 0.00141625 0.000776015 0.00411614 
199 0.657745 0.328007 0.0126861 0.000661063 0.000288657 0.000199059 0.000147042 6.01228e-05 7.29174e-05 0.000132945 
200 0.775249 0.0615921 0.0595764 0.0714357 0.0278202 0.0020328 0.000816553 0.000333874 0.000404925 0.00073827 
201 0.648304 0.244628 0.0463889 0.0229628 0.00942561 0.00590424 0.00502011 0.00389876 0.00213627 0.0113312 
202 0.398462 0.077789 0.0849503 0.0452547 0.0660124 0.0488196 0.0575151 0.0347024 0.0160745 0.17042 
203 0.487258 0.355392 0.0378308 0.0335237 0.0160524 0.0112027 0.010962 0.012139 0.00430286 0.0313365 
204 0.518583 0.140683 0.137618 0.0603164 0.0568366 0.0241118 0.0135316 0.0151621 0.00475576 0.0284022 
205 0.647765 0.0800379 0.0778563 0.0341639 0.029034 0.0210052 0.0205537 0.0227607 0.00806786 0.0587559 
206 0.740576 0.191235 0.0214889 0.00860809 0.00861752 0.00474927 0.00461411 0.00510954 0.00181115 0.0131901 
207 0.800531 0.126813 0.0294888 0.00935623 0.0185043 0.00321383 0.00433146 0.00147662 0.00198476 0.00430071 
208 0.576749 0.0815793 0.161107 0.0259108 0.0230681 0.0211553 0.0193376 0.0152778 0.00691899 0.0688963 
209 0.498238 0.389082 0.0914474 0.00823829 0.00606967 0.00294147 0.00100058 0.000727579 0.000412885 0.00184232 
210 0.929903 0.0643726 0.00371788 0.000358588 0.000169537 0.00123614 8.68584e-05 3.5184e-05 4.26714e-05 7.77997e-05 
211 0.737613 0.0859392 0.0985861 0.0216925 0.019992 0.00769809 0.00964717 0.00696207 0.00234551 0.0095248 
212 0.580884 0.158509 0.193087 0.0140923 0.0260277 0.0136282 0.00347862 0.00251071 0.00142477 0.00635743 
213 0.522599 0.110853 0.243501 0.0490945 0.0127831 0.0103592 0.0287995 0.00550681 0.00302177 0.0134833 
214 0.714046 0.162099 0.0570407 0.0241947 0.00989903 0.00839496 0.00610039 0.00444557 0.00252276 0.0112567 
215 0.658966 0.118118 0.10304 0.0474845 0.0138463 0.0245519 0.00852496 0.0062124 0.0035254 0.0157306 
216 0.675871 0.120357 0.0914399 0.0361046 0.0244088 0.0108162 0.00919473 0.00714088 0.00391275 0.020754 
217 0.770235 0.207924 0.0128632 0.00246224 0.00151332 0.00128338 0.000932599 0.000679618 0.000385668 0.00172087 
218 0.710881 0.0858793 0.0542768 0.0391822 0.0191712 0.0213913 0.0162858 0.0105191 0.00607936 0.0363343 
219 0.367774 0.0365395 0.104078 0.0491132 0.0595423 0.0538289 0.0777566 0.0545799 0.0161487 0.180639 
220 0.469158 0.0484446 0.106627 0.0495552 0.0497291 0.0431973 0.0430029 0.0322372 0.0125445 0.145504 
221 0.762953 0.19007 0.0216364 0.00683223 0.00429878 0.00364562 0.00264917 0.00193055 0.00109554 0.00488838 
222 0.627013 0.0677212 0.189289 0.0300208 0.0155867 0.0112711 0.0110288 0.012213 0.00432909 0.0315276 
223 0.934892 0.0155045 0.0242656 0.00973663 0.00107506 0.0134775 0.000434667 0.000138868 0.00016842 0.000307068 
224 0.888582 0.0492179 0.0488331 0.00195282 0.00172745 0.0017688 0.00551728 0.00108351 0.000415814 0.000901012 
225 0.85435 0.0709055 0.0413351 0.00992694 0.00734625 0.0032334 0.00234962 0.00171225 0.000982093 0.00785877 
226 0.744807 0.150161 0.0425349 0.0134726 0.0119375 0.00465278 0.00627092 0.00213779 0.00287972 0.0211455 
227 0.679386 0.134302 0.0636821 0.0383683 0.0161044 0.0136575 0.0104633 0.0212239 0.00449924 0.0183132 
228 0.749871 0.0740606 0.0456729 0.0557879 0.0470529 0.00381337 0.0109962 0.000753601 0.0100601 0.00193134 
229 0.740952 0.0985061 0.0825123 0.0267064 0.00980904 0.00887517 0.0145793 0.00440516 0.00249983 0.0111544 
230 0.284611 0.0366449 0.125579 0.126451 0.0815595 0.0441778 0.0293331 0.0593547 0.0142119 0.198076 
231 0.576499 0.326695 0.0266181 0.0210439 0.0153626 0.00565228 0.00628752 0.00434061 0.00250858 0.014993 
232 0.762727 0.207812 0.0072232 0.00834437 0.00302111 0.00356035 0.00211154 0.000883231 0.000600475 0.00371715 
233 0.553838 0.0928465 0.0749456 0.0461303 0.0393075 0.0284377 0.0278266 0.0308144 0.0109672 0.0948866 
234 0.639897 0.116593 0.0589339 0.0380687 0.0233151 0.0169927 0.0408909 0.0129988 0.00749788 0.0448123 
235 0.366213 0.0427498 0.0854617 0.0690244 0.0408537 0.080773 0.046719 0.0789985 0.00691028 0.182297 
236 0.48979 0.0713186 0.0627412 0.0411402 0.0575147 0.0425785 0.0389199 0.0322787 0.025054 0.138665 
237 0.774978 0.145586 0.037498 0.0118772 0.0105238 0.0041018 0.00552831 0.00188463 0.00253318 0.00548906 
238 0.646966 0.129806 0.0760993 0.0310984 0.0249136 0.0158052 0.013444 0.0258155 0.00571885 0.0303328 
239 0.758382 0.116183 0.0710534 0.0216653 0.00759984 0.00644402 0.0046827 0.00341245 0.00193649 0.00864073 
240 0.340179 0.0427084 0.0892321 0.0720696 0.0432491 0.0972645 0.0372612 0.0804817 0.00709519 0.190459 
241 0.696627 0.243559 0.0415584 0.00558565 0.00777851 0.00107104 0.00136857 0.000466553 0.000627107 0.00135885 
242 0.402913 0.0795877 0.0742752 0.057528 0.0586539 0.0649719 0.0458943 0.0362562 0.0164197 0.1635 
243 0.675956 0.114478 0.0803308 0.0273178 0.0309946 0.0182837 0.011804 0.00916735 0.00502312 0.0266437 
244 0.758897 0.194728 0.0261114 0.00546846 0.00343629 0.00291417 0.00211765 0.00154321 0.000875737 0.00390759 
245 0.558814 0.088752 0.0716392 0.0473198 0.0488714 0.0273663 0.026599 0.029455 0.0106945 0.0904892 
246 0.657072 0.131637 0.150183 0.0109923 0.0326483 0.00366749 0.00494296 0.00168508 0.00226496 0.00490786 
247 0.761644 0.132608 0.0505077 0.0140034 0.0215687 0.00423221 0.00552831 0.00188463 0.00253318 0.00548906 
248 0.725789 0.15275 0.0563995 0.0152951 0.0121183 0.00473794 0.0215024 0.00217056 0.002917 0.00632073 
249 0.566316 0.109132 0.0916526 0.0659483 0.0313188 0.0226933 0.0252439 0.0174272 0.0100718 0.0601956 
250 0.584851 0.104503 0.0733344 0.0490455 0.0440339 0.021849 0.024162 0.0166803 0.00966164 0.07188 
251 0.553838 0.0928465 0.0749456 0.0461303 0.0393075 0.0286898 0.0429093 0.0308643 0.0109226 0.0795465 
252 0.680049 0.148688 0.0763228 0.0256038 0.0161044 0.0136575 0.00992452 0.00723235 0.0041042 0.0183132 
253 0.572485 0.121413 0.0765161 0.050385 0.0308582 0.0223596 0.0248727 0.0202443 0.0215561 0.0593104 
254 0.683569 0.145044 0.0615297 0.0255954 0.0161044 0.0136575 0.0101446 0.0179016 0.00814027 0.0183132 
255 0.684671 0.131757 0.0606248 0.025219 0.0158676 0.0134566 0.0106036 0.0349746 0.0047819 0.0180439 
256 0.755133 0.144336 0.040712 0.0156889 0.0229179 0.00445339 0.00600216 0.00204617 0.00275031 0.00595955 
257 0.553838 0.0928465 0.0749456 0.0461303 0.0393075 0.0284377 0.0278729 0.0441443 0.0129311 0.0795465 
258 0.574897 0.110781 0.077779 0.0519118 0.0317933 0.0230371 0.0296989 0.028658 0.0103366 0.0611077 
259 0.699198 0.100309 0.0547513 0.0458321 0.0237096 0.0188753 0.0128132 0.00884563 0.00511219 0.0305538 
260 0.652939 0.122768 0.0856839 0.0293059 0.037962 0.0148889 0.0126594 0.00983164 0.00538712 0.0285744 
261 0.46978 0.0468451 0.114591 0.0468021 0.0469664 0.0408051 0.0544828 0.0304586 0.0118455 0.137423 
262 0.682371 0.261599 0.0188543 0.0104178 0.00597744 0.00470595 0.00300092 0.00332162 0.0011774 0.00857467 
263 0.55644 0.105189 0.139833 0.094333 0.0312845 0.025002 0.0152007 0.00740575 0.00362801 0.0216834 
264 0.751773 0.0820835 0.0620436 0.0270536 0.0207304 0.00839755 0.0152203 0.00551656 0.00342551 0.0237561 
265 0.402391 0.0948002 0.0742134 0.0466554 0.0547438 0.051625 0.0575767 0.038075 0.0164197 0.1635 
266 0.700202 0.196974 0.0575369 0.019478 0.00599497 0.00508361 0.00369413 0.00269204 0.00152767 0.00681657 
267 0.399926 0.0820366 0.0762546 0.0480909 0.0564282 0.0517492 0.0473026 0.0373718 0.016936 0.183904 
268 0.597499 0.288251 0.0569928 0.0128682 0.0150881 0.00611511 0.0051994 0.004038 0.00221257 0.0117359 
269 0.707987 0.0914959 0.0465899 0.0382603 0.0184098 0.0133373 0.0194235 0.0231673 0.00595112 0.0353781 
270 0.490545 0.113431 0.105117 0.165965 0.0221849 0.0255114 0.0172908 0.0119145 0.00688581 0.0411542 
271 0.646966 0.129806 0.0760993 0.0310984 0.0249136 0.0158052 0.0134385 0.0104367 0.00582227 0.0456138 
272 0.781706 0.136803 0.040389 0.0108148 0.00749714 0.00475619 0.00404398 0.00314066 0.00172088 0.00912793 
273 0.634414 0.0891389 0.0787154 0.0426056 0.0248925 0.0340001 0.0270533 0.0137927 0.00793893 0.0474483 
274 0.588997 0.117557 0.067653 0.059354 0.0496462 0.0197817 0.0216839 0.0149695 0.0086514 0.0517065 
275 0.929361 0.0223467 0.0193683 0.00243507 0.0113668 0.00584301 0.000585938 0.000240108 0.00792342 0.000529936 
276 0.646623 0.0949075 0.0583496 0.0502821 0.0243133 0.0281732 0.0192198 0.0132684 0.00781162 0.057051 
277 0.941867 0.0279716 0.00996761 0.00488452 0.00423658 0.00278134 0.00288667 0.00177717 0.000664206 0.00296373 
278 0.841256 0.0791647 0.033911 0.0276023 0.0158989 0.000835853 0.000473802 0.000193729 0.000234956 0.000428379 
279 0.444675 0.050663 0.111548 0.0518424 0.0520243 0.045191 0.0449876 0.0337251 0.0131567 0.152187 
280 0.611975 0.119276 0.0871318 0.0368323 0.0707423 0.0128517 0.0109187 0.00847979 0.00468408 0.0371077 
281 0.56081 0.101958 0.0814374 0.0527397 0.0552058 0.0304944 0.0231691 0.0159948 0.00927087 0.0689198 
282 0.56715 0.0900811 0.0727084 0.0498399 0.0479725 0.0275892 0.026996 0.0298946 0.0105966 0.077172 
283 0.553838 0.0928465 0.0749456 0.0461313 0.0546697 0.0284591 0.0278266 0.0308144 0.0109226 0.0795465 
284 0.646966 0.129806 0.0760993 0.0310984 0.0249136 0.0158052 0.0144704 0.024076 0.00643201 0.0303328 
285 0.692491 0.122812 0.0701781 0.0371289 0.014835 0.0262336 0.00910881 0.00663791 0.00376687 0.016808 
286 0.77442 0.0808559 0.0433507 0.0279219 0.0180386 0.00927308 0.0103131 0.00711966 0.00411469 0.0245921 
287 0.581108 0.103538 0.0829906 0.0492292 0.0302014 0.0311558 0.0283594 0.0280223 0.00938028 0.0560154 
288 0.447296 0.070174 0.0924055 0.0534136 0.0508031 0.054873 0.0404582 0.0319627 0.0144753 0.144138 
289 0.701285 0.113996 0.0811873 0.0381055 0.0162007 0.0102734 0.008735 0.00678383 0.00371711 0.0197163 
290 0.484944 0.0447445 0.097984 0.0590481 0.045697 0.0404144 0.0638267 0.0316203 0.0115228 0.120198 
291 0.563441 0.0990161 0.0686122 0.0425758 0.0497188 0.0260497 0.0390047 0.0287577 0.0099996 0.0728243 
292 0.790424 0.0611997 0.05999 0.0297544 0.012778 0.00846421 0.0111601 0.0052126 0.00301254 0.0180049 
293 0.752754 0.137699 0.0362812 0.0246057 0.0200285 0.0151039 0.0033926 0.00247228 0.00140297 0.00626012 
294 0.856042 0.0674906 0.0460257 0.00791298 0.00803034 0.00371977 0.00270302 0.00196979 0.00111781 0.00498774 
295 0.671908 0.119555 0.0812664 0.0243554 0.0197482 0.0241881 0.0105242 0.0081733 0.00448491 0.0357964 
296 0.595911 0.109967 0.0739735 0.0428272 0.0287981 0.0282695 0.0218093 0.015191 0.0190835 0.0641697 
297 0.560598 0.0914397 0.07381 0.0454313 0.038712 0.0280069 0.027405 0.0303476 0.0110675 0.0931825 
298 0.853832 0.102488 0.0233383 0.00437869 0.0101409 0.00122251 0.00164765 0.000561693 0.000754988 0.00163595 
299 0.695478 0.0822868 0.0646342 0.0316226 0.0429294 0.0133215 0.0130124 0.0144096 0.00510771 0.037198 
300 0.678853 0.136487 0.0836327 0.0236915 0.0147807 0.0125349 0.00960653 0.0198123 0.00379337 0.016808 
301 0.660704 0.13548 0.0543375 0.0225643 0.0183378 0.0451188 0.0111727 0.0167693 0.00938083 0.0261352 
302 0.772431 0.104637 0.0557367 0.0211245 0.0114042 0.00723477 0.00615141 0.00477735 0.00261768 0.0138847 
303 0.890476 0.0660409 0.0190755 0.0152306 0.00405781 0.00416227 0.000375645 0.000131314 0.000159259 0.000290366 
304 0.883314 0.0401366 0.0641339 0.00321013 0.00334818 0.00150304 0.00109186 0.000795677 0.000451529 0.00201475 
305 0.938188 0.0599998 0.00134182 0.00023879 9.98955e-05 3.00895e-05 3.07628e-05 3.38761e-05 6.68954e-06 3.05983e-05 
306 0.732293 0.109592 0.062099 0.0198598 0.0322041 0.00917302 0.0077991 0.00605699 0.00331885 0.0176039 
307 0.918235 0.0494771 0.024388 0.00305265 0.00260896 0.000471923 0.000632758 0.00021571 0.000289942 0.000628265 
308 0.653512 0.122343 0.0774333 0.0288221 0.0356334 0.0142686 0.012132 0.00942201 0.00516267 0.0412715 
309 0.647496 0.227108 0.051574 0.0174258 0.0139602 0.00885636 0.00753017 0.00584813 0.0032044 0.0169968 
310 0.759147 0.141738 0.0401386 0.0127136 0.0112649 0.00439066 0.00612815 0.0158187 0.00278419 0.00587561 
311 0.662541 0.12408 0.0727419 0.0297264 0.0238144 0.0151079 0.0176241 0.0198797 0.00549015 0.0289946 
312 0.545504 0.0816218 0.0810994 0.0799282 0.0446353 0.0246487 0.0245119 0.0396391 0.00947086 0.0689403 
313 0.568752 0.0772536 0.0654449 0.0672365 0.0498465 0.0260491 0.0454151 0.0255653 0.00898698 0.0654497 
314 0.727539 0.150338 0.0385113 0.0141408 0.033552 0.00665165 0.0190929 0.00193557 0.00260165 0.00563741 
315 0.431988 0.0724377 0.0744323 0.060189 0.0511934 0.0454562 0.0550622 0.0328266 0.0154691 0.160945 
316 0.9421 0.0226723 0.0257131 0.00201374 0.000768771 0.000530146 0.000391612 0.000181254 0.00427623 0.00135294 
317 0.814765 0.0613689 0.0767129 0.0119263 0.0143709 0.00372454 0.00836626 0.00313998 0.00102989 0.00459544 
318 0.596215 0.079216 0.0733932 0.0499809 0.0444374 0.0231057 0.022666 0.0374798 0.00887468 0.0646315 
319 0.595684 0.137681 0.0640518 0.0417827 0.026864 0.0294629 0.0206262 0.0142393 0.00822946 0.0613793 
320 0.508045 0.167746 0.204824 0.0301678 0.0161751 0.0116991 0.0114477 0.0126768 0.00449349 0.0327248 
321 0.569667 0.148423 0.0794543 0.0623886 0.0241202 0.0174764 0.0194407 0.013421 0.00780108 0.0578071 
322 0.634606 0.0908982 0.0544196 0.0473848 0.0338728 0.0323082 0.0198792 0.0220103 0.00780188 0.0568189 
323 0.476833 0.0477613 0.107814 0.0605976 0.0490084 0.0425713 0.0423797 0.03177 0.0123578 0.128908 
324 0.737599 0.178849 0.0515352 0.00917094 0.0079981 0.00311737 0.00420151 0.00143232 0.00192522 0.00417168 
325 0.553838 0.0928465 0.0749456 0.0461303 0.0393075 0.0284377 0.03305 0.0409598 0.0109385 0.0795465 
326 0.669164 0.147821 0.0824326 0.0544256 0.0188517 0.00342568 0.00461705 0.00157398 0.00218877 0.0155001 
327 0.275553 0.340799 0.0948916 0.149813 0.040825 0.0174945 0.0156741 0.0108931 0.00493327 0.0491234 
328 0.444675 0.050663 0.111548 0.0518424 0.0520243 0.045191 0.0449876 0.0337251 0.0190046 0.146339 
329 0.509304 0.475762 0.00747939 0.00725678 8.54375e-05 2.55956e-05 2.61683e-05 2.88166e-05 5.69045e-06 2.60284e-05 
330 0.661352 0.282514 0.0473527 0.00448095 0.00419458 2.49812e-05 2.44237e-05 2.68955e-05 5.31108e-06 2.42931e-05 
331 0.409018 0.0807936 0.0750993 0.0473623 0.0555732 0.0509651 0.0465859 0.0368056 0.0166705 0.181127 
332 0.646966 0.129806 0.0760993 0.0310984 0.0249136 0.0160907 0.0282524 0.0107218 0.00571863 0.0303328 
333 0.72321 0.16031 0.0440125 0.0248644 0.0116581 0.018944 0.00608918 0.00207582 0.00279017 0.00604592 
334 0.682771 0.135328 0.0736056 0.0252732 0.0158676 0.0134566 0.00988351 0.020056 0.0057148 0.0180439 
335 0.35889 0.0362584 0.10568 0.0498688 0.0604584 0.0543134 0.0639119 0.0554195 0.0165543 0.198645 
336 0.715239 0.179174 0.0522039 0.0148076 0.0227941 0.00393215 0.00424395 0.00144679 0.00194467 0.00421382 
337 0.74094 0.152436 0.0431794 0.0136768 0.0121183 0.00472328 0.00657403 0.0159005 0.00413006 0.00632073 
338 0.454219 0.119527 0.103056 0.250521 0.0478008 0.00549705 0.00434577 0.00337504 0.00184931 0.00980912 
339 0.546839 0.0989739 0.076751 0.111942 0.0828567 0.0104143 0.0505528 0.00736597 0.00261887 0.0116856 
340 0.891066 0.0343556 0.0186883 0.0152716 0.0135279 0.023987 0.00146991 0.000369225 0.000447799 0.00081644 
341 0.684671 0.131757 0.0606627 0.0399313 0.0305291 0.0134567 0.00977857 0.00712599 0.00404384 0.0180439 
342 0.714896 0.100464 0.0699869 0.0248683 0.0192783 0.0122302 0.0103988 0.00807599 0.0044293 0.0353724 
343 0.652628 0.11807 0.082549 0.0281155 0.0224914 0.0142686 0.0121319 0.00942199 0.00555707 0.0547671 
344 0.51724 0.0594617 0.0823723 0.0743615 0.0382082 0.0350385 0.0320278 0.0253038 0.0114596 0.124526 
345 0.574897 0.110781 0.077779 0.0519118 0.0318507 0.0379291 0.0258285 0.0176913 0.0102244 0.0611077 
346 0.444675 0.050663 0.111548 0.0518424 0.0520243 0.045191 0.0449896 0.0491075 0.0131184 0.136841 
347 0.738969 0.143664 0.0370125 0.0117229 0.0103871 0.00409282 0.0177172 0.0283696 0.00264685 0.00541777 
348 0.30639 0.0431732 0.0995496 0.0803634 0.0617773 0.0522052 0.0349256 0.0855199 0.0168292 0.219266 
349 0.615594 0.100224 0.0703207 0.046934 0.0287446 0.0208281 0.0231691 0.0159948 0.00929198 0.0688985 
350 0.756004 0.161296 0.0352236 0.0134444 0.010733 0.00466863 0.00417302 0.00677742 0.00141941 0.00626012 
351 0.620941 0.36096 0.0153309 0.00116876 0.000512514 0.000353431 0.000261075 0.000106749 0.000129466 0.000236046 
352 0.839949 0.102841 0.0299656 0.00591557 0.0116866 0.00202426 0.00272826 0.000930077 0.00125014 0.00270889 
353 0.55223 0.090075 0.0727084 0.0447532 0.0381342 0.0425142 0.0279005 0.0439154 0.0105966 0.077172 
354 0.574723 0.12413 0.0796555 0.0456824 0.0279798 0.0377138 0.0317751 0.0155683 0.00899745 0.0537748 
355 0.566163 0.395375 0.0174085 0.00847036 0.00451321 0.00169422 0.00228343 0.000778434 0.00104631 0.00226722 
356 0.626591 0.32096 0.0253795 0.00738562 0.00457201 0.00387733 0.00281755 0.00205325 0.00116517 0.00519908 
357 0.786866 0.0890313 0.0907965 0.0202494 0.00728896 0.00265206 0.00111836 0.000379925 0.000510668 0.00110655 
358 0.393866 0.0808123 0.0902321 0.0473623 0.0555732 0.0510274 0.0616751 0.0368057 0.0166685 0.165977 
359 0.674932 0.142812 0.0578982 0.0242531 0.060281 0.00866221 0.006988 0.00542707 0.00297369 0.0157731 
360 0.698164 0.0819688 0.0451769 0.0360712 0.0327054 0.0169949 0.0165938 0.0183756 0.0065135 0.047436 
361 0.553838 0.0928465 0.0749456 0.0461303 0.0393075 0.0284377 0.0278266 0.0308144 0.0111584 0.0946953 
362 0.806855 0.161472 0.0149852 0.004726 0.00418749 0.00163213 0.00219975 0.000749905 0.00100797 0.00218413 
363 0.564896 0.134448 0.0888902 0.0496548 0.030411 0.0220355 0.0245122 0.0169221 0.00977984 0.0584508 
364 0.581242 0.109127 0.0766181 0.051137 0.0313188 0.0226933 0.0252439 0.0174272 0.010084 0.0751087 
365 0.569492 0.0966567 0.0858413 0.0522378 0.0354865 0.025673 0.0251212 0.0278186 0.00986071 0.0718128 
366 0.786684 0.027358 0.175812 0.00817551 0.000165321 8.09258e-05 5.97788e-05 2.44425e-05 3.34041e-05 0.00160715 
367 0.684673 0.131755 0.0606248 0.025219 0.0158775 0.0280858 0.00984539 0.00712599 0.00460612 0.0321875 
368 0.586658 0.0804681 0.0649528 0.0399796 0.034843 0.0501332 0.0259768 0.0385818 0.00946629 0.0689403 
369 0.765404 0.101118 0.047334 0.0296887 0.01079 0.00915051 0.00664943 0.00576322 0.011099 0.0130031 
370 0.65278 0.083765 0.0788231 0.0306021 0.0260716 0.0188619 0.0184566 0.0204383 0.00724468 0.0629563 
371 0.949349 0.038162 0.00581659 0.00438968 0.0010908 0.000387719 0.000286403 0.000117105 0.000142026 0.000258946 
372 0.631559 0.0931838 0.0769815 0.044026 0.0265615 0.0194585 0.0336955 0.0149399 0.00854189 0.051052 
373 0.562741 0.0864305 0.0822785 0.0559354 0.0379932 0.0381116 0.0254752 0.0282104 0.0099996 0.0728243 
374 0.461992 0.0481086 0.105081 0.0497875 0.0625506 0.0425713 0.0424042 0.0440067 0.0145893 0.128908 
375 0.469175 0.048428 0.106627 0.0495552 0.0497291 0.0431973 0.0430029 0.0363508 0.0231317 0.130804 
376 0.574301 0.100812 0.108301 0.0496581 0.0287446 0.0208281 0.0231691 0.0159948 0.0123666 0.065824 
377 0.694345 0.208031 0.0519173 0.00802813 0.0103828 0.00728697 0.0041132 0.00268136 0.00146928 0.0117455 
378 0.399926 0.0820366 0.0762546 0.0480909 0.0564282 0.0531719 0.0597366 0.0388997 0.0169249 0.168531 
379 0.399926 0.0820366 0.0762546 0.0481016 0.0717918 0.0517595 0.0473026 0.0373718 0.0169249 0.168531 
380 0.621137 0.275775 0.0804062 0.0107295 0.00123315 0.00872963 0.000861195 0.000255155 0.000309455 0.000564206 
381 0.706191 0.119732 0.0636896 0.0194473 0.0164838 0.0119255 0.0116692 0.0129222 0.00458046 0.0333582 
382 0.28146 0.0233651 0.122689 0.0645295 0.00856735 0.0844068 0.0700768 0.00483412 0.0179048 0.322167 
383 0.607197 0.0777914 0.0859149 0.0380134 0.035204 0.0330641 0.0230252 0.0253537 0.00898698 0.0654497 
384 0.368704 0.0384421 0.08864 0.0715565 0.0555701 0.0733159 0.0309429 0.062607 0.0149849 0.195237 
385 0.589436 0.0945965 0.0571035 0.0666916 0.0814711 0.027034 0.0191007 0.012831 0.00741548 0.0443199 
386 0.747441 0.0275039 0.197723 0.00459457 0.0112418 0.000169537 0.000180045 0.0109368 3.76916e-05 0.000172403 
387 0.755118 0.104434 0.0533604 0.0178634 0.0112395 0.00953178 0.00700915 0.015 0.0136601 0.0127835 
388 0.568931 0.105754 0.0808349 0.0620812 0.0365139 0.0200059 0.0231024 0.0275788 0.013117 0.0620816 
389 0.717535 0.12728 0.0708181 0.0229131 0.0124034 0.0210257 0.00628635 0.00488046 0.00267418 0.0141844 
390 0.664173 0.0971976 0.0739464 0.0502107 0.0201976 0.0142527 0.0249578 0.0110645 0.00630663 0.0376926 
391 0.444675 0.0514417 0.126154 0.0518425 0.0520243 0.045191 0.0449876 0.0337251 0.0131182 0.136841 
392 0.684673 0.131755 0.0606248 0.0279493 0.0248942 0.0311114 0.0097786 0.00712599 0.00404384 0.0180439 
393 0.6214 0.0574163 0.254996 0.0294049 0.0192796 0.00596694 0.00520974 0.00154329 0.000875736 0.00390759 
394 0.653785 0.140366 0.0874448 0.0257645 0.0184583 0.0256302 0.0108695 0.0147822 0.00375797 0.0191421 
395 0.902175 0.0541769 0.0414709 0.000965219 0.000388348 0.000267806 0.000197825 8.08869e-05 9.81003e-05 0.000178859 
396 0.536521 0.213979 0.0564083 0.136082 0.0179114 0.0125583 0.00702069 0.00387919 0.00224189 0.013399 
397 0.55223 0.090104 0.0876047 0.0447532 0.0381342 0.0275889 0.026996 0.0298946 0.0105967 0.0920972 
398 0.294562 0.0395451 0.0911369 0.0735885 0.126437 0.0483189 0.031812 0.0644121 0.0294375 0.200749 
399 0.632287 0.0843936 0.0726165 0.0555799 0.0258968 0.0360325 0.0173916 0.019259 0.00682665 0.0497166 
400 0.790456 0.069881 0.0667076 0.0266707 0.00873331 0.00628286 0.00698902 0.00482489 0.00278847 0.0166657 
401 0.587161 0.0928365 0.080566 0.0507385 0.0319398 0.0276306 0.0305804 0.0250405 0.00887464 0.0646315 
402 0.643639 0.134793 0.0849495 0.0288771 0.023134 0.0146786 0.0267508 0.00970237 0.00531016 0.0281662 
403 0.749144 0.0688529 0.07173 0.0303819 0.0199937 0.010116 0.0111273 0.00768173 0.00443953 0.0265336 
404 0.473034 0.0551318 0.105554 0.0440036 0.0552707 0.0389276 0.0619318 0.0283596 0.0109789 0.126807 
405 0.596961 0.157717 0.125576 0.0211754 0.0178671 0.0129262 0.0126485 0.0140066 0.00496483 0.0361575 
406 0.674126 0.138605 0.07101 0.0372619 0.0155726 0.012709 0.00923532 0.00693639 0.0171142 0.017429 
407 0.501199 0.0720777 0.241607 0.0767637 0.0500858 0.00976138 0.0108419 0.00748477 0.0043257 0.0258532 
408 0.601653 0.193243 0.171763 0.0129358 0.00381032 0.00302944 0.00997066 0.000690941 0.000916771 0.00198652 
409 0.741161 0.1583 0.0407204 0.0128952 0.0114259 0.00445338 0.00600216 0.00204617 0.00292132 0.0200743 
410 0.560598 0.0914397 0.07381 0.0454313 0.038712 0.0280069 0.027405 0.0303476 0.0111397 0.0931102 
411 0.662533 0.124088 0.0727419 0.0297264 0.0238144 0.0151079 0.0128456 0.00997623 0.00548283 0.043684 
412 0.35889 0.0362584 0.10568 0.0498688 0.0615741 0.0685822 0.0639119 0.0554195 0.0163972 0.183418 
413 0.399926 0.0820366 0.0762546 0.0480909 0.0564773 0.0670377 0.0473496 0.0373718 0.0169249 0.168531 
414 0.409018 0.0807936 0.0750993 0.0474748 0.0705252 0.0510522 0.0465859 0.0368056 0.0166685 0.165977 
415 0.67427 0.148324 0.0542433 0.0230641 0.0293141 0.0358933 0.00875321 0.00637589 0.00361817 0.0161445 
416 0.372469 0.0346588 0.101017 0.0476687 0.0577911 0.0519172 0.0610923 0.0529745 0.0160638 0.204348 
417 0.702558 0.078623 0.0662661 0.0303496 0.039216 0.0127798 0.0138637 0.00957081 0.00557277 0.0412004 
418 0.655391 0.106721 0.0694675 0.0443953 0.019222 0.0254673 0.0298482 0.0101544 0.00437396 0.0349595 
419 0.568357 0.112485 0.0789756 0.0527104 0.0322824 0.0233916 0.0260207 0.0179634 0.0104669 0.0773471 
420 0.65135 0.305047 0.03599 0.00214775 0.000770803 0.00369207 0.000486362 0.00011667 0.000141498 0.000257983 
421 0.67144 0.0951787 0.142152 0.0225722 0.0183075 0.0223143 0.00629538 0.00488046 0.00267418 0.0141844 
422 0.606924 0.106953 0.0675973 0.0581726 0.0276241 0.0200059 0.0222545 0.0153635 0.009918 0.0651861 
423 0.662536 0.124085 0.0727419 0.0297264 0.0238144 0.0151079 0.0128456 0.0136703 0.0160207 0.0294521 
424 0.756143 0.16773 0.0354068 0.00805699 0.0153284 0.00361866 0.0030757 0.00238867 0.00130884 0.00694237 
425 0.825149 0.102735 0.0319371 0.00631604 0.0115205 0.00203238 0.00961636 0.00678521 0.00123412 0.00267416 
426 0.790158 0.204767 0.00245972 0.00249863 9.40578e-05 1.19274e-05 0 5.20858e-06 5.20739e-06 0 
427 0.510242 0.0656049 0.100392 0.0512122 0.0432672 0.0368347 0.0468425 0.0267343 0.0103986 0.108471 
428 0.541194 0.131741 0.0782987 0.0520358 0.044879 0.0243222 0.0237991 0.0263545 0.00934173 0.0680332 
429 0.444675 0.050663 0.111548 0.0518424 0.0520243 0.045191 0.0449876 0.0337251 0.0131382 0.152205 
430 0.667723 0.136744 0.088792 0.0301732 0.0167438 0.0103771 0.00882323 0.00685236 0.0041716 0.0295996 
431 0.447753 0.045222 0.141284 0.0707772 0.0919375 0.0392073 0.0394496 0.022835 0.00888213 0.0926525 
432 0.764906 0.13708 0.0347541 0.0110081 0.00975379 0.00380167 0.0051238 0.00252533 0.0259556 0.00509133 
433 0.699377 0.131757 0.0612186 0.0393255 0.0158732 0.0134566 0.00977857 0.00712599 0.00404384 0.0180439 
434 0.739046 0.122009 0.0595273 0.0455431 0.00927407 0.0129854 0.00415992 0.00141814 0.00190616 0.00413038 
435 0.395216 0.0715429 0.155466 0.205835 0.0411932 0.0318762 0.0454307 0.0117765 0.00597176 0.0356912 
436 0.756376 0.089504 0.0606413 0.0294817 0.0204347 0.00909152 0.00773009 0.00600339 0.00328948 0.0174481 
437 0.42022 0.0772808 0.0718776 0.0565393 0.05637 0.0487492 0.0454201 0.0476178 0.0171644 0.158761 
438 0.37241 0.0347172 0.101017 0.0476687 0.0578107 0.0665703 0.0620467 0.0636038 0.0188292 0.175326 
439 0.627654 0.125932 0.0812036 0.0386519 0.0528789 0.0155425 0.0130373 0.0101251 0.00554792 0.0294274 
440 0.632421 0.153714 0.0931779 0.0212919 0.0173265 0.0414025 0.00918991 0.00706649 0.00387199 0.0205378 
441 0.453088 0.0498963 0.109858 0.0510569 0.0512361 0.0445063 0.044306 0.0332141 0.0129196 0.149919 
442 0.685504 0.137836 0.0634229 0.0263829 0.0165999 0.0140777 0.0102299 0.00745488 0.00468885 0.0338029 
443 0.647289 0.120836 0.0933476 0.0355351 0.04043 0.0233748 0.0126622 0.00649942 0.00366642 0.0163598 
444 0.556682 0.100953 0.0695923 0.0428352 0.0364999 0.0264065 0.029991 0.0382671 0.0110221 0.0877507 
445 0.96121 0.0342085 0.00173683 0.00255787 0.000123577 3.71861e-05 3.80181e-05 4.18657e-05 8.26726e-06 3.78148e-05 
446 0.689243 0.133793 0.0699698 0.0251752 0.0156376 0.0166064 0.0201187 0.0076888 0.00398524 0.0177824 
447 0.766366 0.0612892 0.061582 0.0232064 0.0246813 0.00870539 0.0258476 0.00477736 0.00386909 0.0196756 
448 0.916992 0.0564531 0.0107542 0.00342733 0.0067707 0.00117636 0.00158548 0.000540497 0.000726498 0.00157422 
449 0.571629 0.0513205 0.0985162 0.0370486 0.0354576 0.0489321 0.0327269 0.0228347 0.00888213 0.0926525 
450 0.631948 0.116424 0.0641568 0.0429422 0.0249531 0.0234961 0.0247875 0.0178724 0.00862939 0.0447903 
451 0.353453 0.0357999 0.118778 0.049474 0.0595423 0.0534904 0.0700728 0.0625062 0.0162446 0.180639 
452 0.741177 0.105608 0.0474793 0.0421405 0.0201842 0.0132804 0.00755617 0.00550645 0.00312479 0.013943 
453 0.708704 0.107479 0.066262 0.0332585 0.0159708 0.011432 0.0127169 0.00877913 0.00507375 0.0303241 
454 0.397991 0.0586908 0.376022 0.0304452 0.0248057 0.0179462 0.0175605 0.019446 0.00689293 0.0501993 
455 0.609745 0.229881 0.0660097 0.0219858 0.013899 0.0236808 0.00933032 0.0062124 0.0035254 0.0157306 
456 0.561793 0.0865793 0.0699598 0.0559096 0.0481173 0.0270467 0.0261428 0.0416019 0.0100248 0.0728243 
457 0.62917 0.0931797 0.0731856 0.0339131 0.0351446 0.0184854 0.0183423 0.0297736 0.00719606 0.0616096 
458 0.638373 0.090947 0.0634921 0.043105 0.0277718 0.0200919 0.0196836 0.0324086 0.00792561 0.0562013 
459 0.734831 0.150811 0.0683455 0.0209061 0.00878916 0.00342568 0.00461705 0.00157398 0.00211562 0.00458427 
460 0.396988 0.0784174 0.0728905 0.0459693 0.0542786 0.0764687 0.047285 0.0357231 0.0308841 0.161096 
461 0.454434 0.0484626 0.116581 0.0543067 0.0497291 0.0431973 0.0430029 0.0322372 0.0143911 0.143658 
462 0.36367 0.0771457 0.171011 0.0423629 0.0501954 0.0545416 0.0453468 0.0328266 0.0148665 0.148034 
463 0.486134 0.0940966 0.193079 0.0448216 0.0273737 0.0314344 0.0248861 0.0249951 0.00875166 0.0644268 
464 0.585089 0.135554 0.0643593 0.103617 0.0344646 0.0133421 0.0113442 0.00979989 0.0168247 0.0256056 
465 0.470867 0.045758 0.114592 0.0468021 0.0469664 0.0407975 0.040787 0.0579492 0.0119445 0.123537 
466 0.691585 0.124945 0.0722645 0.02129 0.0186691 0.0197174 0.0091948 0.00714088 0.00399944 0.0311937 
467 0.933824 0.0366681 0.0292161 0.000155583 5.84863e-05 1.76167e-05 1.80108e-05 1.98336e-05 3.91656e-06 1.79145e-05 
468 0.646719 0.0822042 0.0797781 0.0452064 0.0653931 0.0160248 0.0144559 0.00997969 0.0057676 0.034471 
469 0.568357 0.112485 0.0789756 0.0527104 0.0322824 0.0233916 0.0260207 0.0179634 0.0105671 0.0772469 
470 0.558815 0.0887504 0.0716392 0.0440951 0.0375734 0.0273277 0.0411582 0.0294571 0.0104621 0.0907216 
471 0.707318 0.164848 0.115075 0.00946115 0.00145137 0.000600628 0.000443676 0.000181411 0.000220017 0.000401141 
472 0.574398 0.100324 0.0841848 0.0741656 0.0287447 0.0208281 0.0231691 0.0159948 0.00998375 0.0682069 
473 0.452156 0.0508286 0.109858 0.0510569 0.0512361 0.0445063 0.044306 0.0332141 0.0135582 0.14928 
474 0.454469 0.0484279 0.121329 0.0495591 0.0497291 0.0431973 0.0430029 0.0322372 0.0125555 0.145493 
475 0.574897 0.110781 0.077779 0.0519118 0.0317933 0.0230371 0.0256264 0.0176913 0.0103553 0.0761282 
476 0.301748 0.0425191 0.113237 0.0942532 0.0608412 0.0514142 0.034222 0.0692471 0.0165742 0.215944 
477 0.850621 0.069948 0.0266164 0.0240517 0.00781545 0.00437165 0.00371702 0.00288674 0.00158175 0.00838993 
478 0.636422 0.14374 0.0812364 0.029298 0.0235863 0.0291106 0.0128135 0.00983164 0.00538712 0.0285744 
479 0.67938 0.129415 0.0712354 0.0250344 0.0154142 0.0136222 0.0298223 0.0146091 0.00393979 0.0175283 
480 0.623608 0.156261 0.0927356 0.040169 0.0215918 0.0136978 0.0116467 0.00904511 0.00495615 0.0262884 
481 0.686984 0.243405 0.0155156 0.00948882 0.00808541 0.00584954 0.00572383 0.00633841 0.00224675 0.0163624 
482 0.719148 0.152426 0.0664602 0.0136625 0.0117619 0.00507266 0.0203939 0.00210869 0.0028312 0.00613483 
483 0.576827 0.124657 0.0785639 0.0611524 0.0372541 0.0183303 0.0203776 0.0140678 0.0087779 0.0599922 
484 0.393866 0.0807936 0.0750993 0.0516171 0.066277 0.0513541 0.0615412 0.0368057 0.0166685 0.165977 
485 0.911015 0.0475711 0.0151534 0.00460809 0.00392471 0.00283941 0.00277839 0.00307671 0.00109059 0.00794243 
486 0.444675 0.050663 0.111548 0.0518424 0.0520243 0.045191 0.0449876 0.0337251 0.0131203 0.152223 
487 0.740142 0.132561 0.0484249 0.0251612 0.0200639 0.00863276 0.00627305 0.00457139 0.00259416 0.0115753 
488 0.536199 0.0874917 0.0902167 0.0528232 0.0515125 0.0267976 0.0263571 0.0433772 0.0102895 0.0749351 
489 0.773524 0.191075 0.0134065 0.0153425 0.0023365 0.000906211 0.00122137 0.000416371 0.000559657 0.0012127 
490 0.676338 0.168992 0.0515332 0.0393379 0.0279431 0.009341 0.00664943 0.00484567 0.00274981 0.0122698 
491 0.627092 0.126255 0.0785629 0.0537902 0.0353555 0.0270087 0.0116467 0.00904511 0.00495615 0.0262884 
492 0.704378 0.0988483 0.064401 0.0317959 0.0337182 0.00980262 0.0141289 0.00874766 0.00420718 0.029972 
493 0.610322 0.101549 0.0712974 0.0475858 0.0291439 0.0211174 0.0234909 0.016217 0.00937235 0.0699042 
494 0.722522 0.123333 0.0509299 0.0211715 0.0173496 0.0196128 0.00821025 0.006833 0.0148088 0.0152289 
495 0.444675 0.050663 0.111548 0.0518424 0.0520243 0.045191 0.0449876 0.0337251 0.0132762 0.152067 
496 0.504319 0.09123 0.242065 0.0509549 0.0636376 0.00997641 0.00848058 0.00658625 0.00360884 0.0191421 
497 0.752083 0.150921 0.0396359 0.0123653 0.0109563 0.00427036 0.0057555 0.00196208 0.00264974 0.0194008 
498 0.658866 0.106834 0.0894089 0.0367641 0.0331985 0.0256219 0.011057 0.00858713 0.0047052 0.0249574 
499 0.772038 0.105516 0.0396103 0.0235784 0.0185811 0.00836192 0.00588445 0.00428821 0.0024812 0.0196599 
500 0.686706 0.116968 0.0626133 0.0258026 0.0329395 0.0130061 0.011057 0.00858713 0.00498721 0.0373336 
501 0.545446 0.0955942 0.0848071 0.0454313 0.038712 0.0280069 0.027521 0.0453831 0.0107571 0.0783413 
502 0.566316 0.124053 0.0766181 0.0515695 0.0457695 0.0227354 0.0252439 0.0174272 0.0100718 0.0601956 
503 0.387987 0.0798866 0.102636 0.0475499 0.0547438 0.0525459 0.0584745 0.0362562 0.0164197 0.1635 
504 0.553838 0.0928465 0.0749456 0.0461303 0.0401525 0.0429565 0.0278475 0.0308144 0.0109226 0.0795465 
505 0.697993 0.126198 0.0721966 0.0381823 0.0151971 0.012888 0.00936539 0.00682489 0.00387298 0.0172815 
506 0.503937 0.0496568 0.121473 0.0392858 0.0571143 0.0491529 0.0371886 0.0240894 0.00945515 0.108647 
507 0.667209 0.108307 0.0643796 0.0377229 0.0217268 0.019801 0.0164731 0.00869722 0.00512084 0.0505631 
508 0.595426 0.158393 0.135014 0.0309334 0.0172276 0.0113137 0.0162951 0.010468 0.00395437 0.0209748 
509 0.618101 0.166769 0.114667 0.0132453 0.0210011 0.0186008 0.022068 0.0113421 0.00225732 0.0119493 
510 0.911393 0.0819345 0.0050077 0.00067469 0.000317219 0.000218755 0.000161592 6.60719e-05 8.01324e-05 0.0001461 
511 0.355441 0.0707523 0.103253 0.0754018 0.10311 0.0508272 0.0483056 0.0418868 0.0123932 0.13863 
512 0.762652 0.148147 0.0591948 0.0167847 0.00308921 0.00259958 0.00188904 0.00137661 0.000781197 0.00348575 
513 0.665042 0.133721 0.0620652 0.0548102 0.0162047 0.0136575 0.0110221 0.0210372 0.00412713 0.0183132 
514 0.394332 0.0950614 0.0755169 0.0473623 0.0555732 0.0509651 0.0465859 0.0368056 0.0167082 0.181089 
515 0.528823 0.0398154 0.0873569 0.0405994 0.0407419 0.0354518 0.0472177 0.0384079 0.0103368 0.131249 
516 0.35889 0.0362584 0.10568 0.0498688 0.0604584 0.0543134 0.0639119 0.0554195 0.0164309 0.198769 
517 0.540844 0.0679037 0.0882405 0.0510185 0.0562255 0.0322253 0.0304838 0.0325711 0.00879057 0.0916973 
518 0.609618 0.1351 0.143267 0.0401868 0.015423 0.00978417 0.00831905 0.0064608 0.00563877 0.0262024 
519 0.444675 0.050663 0.111548 0.0518424 0.0520243 0.045191 0.0469038 0.0471936 0.0131182 0.136841 
520 0.652932 0.300724 0.0199813 0.00965164 0.00388134 0.00329155 0.00239188 0.00174305 0.000989141 0.00441361 
521 0.568357 0.112485 0.0789756 0.0527104 0.0322824 0.0233916 0.0260207 0.0179634 0.0119089 0.0759052 
522 0.714418 0.157771 0.0792622 0.0192582 0.010254 0.00399662 0.00538656 0.0018363 0.00246823 0.00534831 
523 0.831128 0.09039 0.025695 0.019313 0.00624861 0.0025863 0.00973964 0.00232343 0.00281376 0.00976194 
524 0.640963 0.124982 0.0892871 0.0581666 0.0242908 0.0130043 0.011057 0.00858713 0.0047052 0.0249574 
525 0.418202 0.0970643 0.393851 0.0132698 0.068155 0.00198608 0.00267612 0.000912305 0.00122625 0.00265712 
526 0.69936 0.0893656 0.108821 0.0199782 0.0431658 0.0120692 0.00610847 0.00474394 0.00259938 0.0137876 
527 0.907773 0.0448198 0.0281896 0.00816393 0.00113294 0.000781269 0.000577113 0.000235971 0.000289295 0.00803695 
528 0.463839 0.0773713 0.147043 0.0398942 0.0431312 0.0406063 0.0406493 0.0231352 0.0105713 0.113758 
529 0.570604 0.118749 0.0876202 0.0489454 0.0299766 0.0360062 0.0241622 0.0166803 0.00964013 0.0576158 
530 0.393866 0.0809272 0.0901171 0.0473623 0.0555732 0.0509651 0.0465859 0.0368056 0.0166829 0.181114 
531 0.638446 0.122298 0.100656 0.0292958 0.0234693 0.0148889 0.0126594 0.00983165 0.00538816 0.0430661 
532 0.644911 0.0899029 0.0626026 0.0420031 0.0375563 0.0185502 0.0206261 0.0142393 0.00952411 0.0600846 
533 0.560598 0.0914397 0.07381 0.0454313 0.038712 0.0282439 0.0399794 0.0326876 0.0107571 0.0783413 
534 0.543255 0.160744 0.248633 0.00818007 0.00880025 0.00508172 0.00472253 0.00522961 0.00185371 0.0135001 
535 0.574867 0.110811 0.077779 0.0519118 0.0319193 0.0380627 0.0256264 0.0176913 0.0102244 0.0611077 
536 0.758179 0.140143 0.0621713 0.0106523 0.00670182 0.00568354 0.00413008 0.00300973 0.00170796 0.00762101 
537 0.444675 0.050663 0.111548 0.0518424 0.0520243 0.045191 0.0449876 0.0337251 0.0131212 0.152222 
538 0.603294 0.155875 0.070261 0.0659177 0.0205105 0.0140782 0.0156606 0.0108113 0.00624823 0.0373436 
539 0.604592 0.0800717 0.0640983 0.0526113 0.0336183 0.0243218 0.0237991 0.0263545 0.00937191 0.0811609 
540 0.93455 0.0541551 0.00405232 0.00340656 0.000408825 0.00027001 0.00279665 8.15172e-05 9.88647e-05 0.000180253 
541 0.780844 0.0981347 0.0410157 0.0315834 0.00951456 0.0162452 0.00568328 0.0041416 0.00235027 0.010487 
542 0.743846 0.123082 0.0692483 0.0226254 0.013973 0.00698512 0.0050759 0.00369899 0.00209909 0.00936629 
543 0.809389 0.0224898 0.160028 0.000933573 0.000440263 0.00263366 0.00368359 9.09685e-05 0.000110327 0.000201152 
544 0.398771 0.0899321 0.0904632 0.075896 0.0600864 0.0440863 0.052612 0.0315992 0.0142873 0.142266 
545 0.743877 0.100823 0.040258 0.0383581 0.025599 0.0141469 0.00776113 0.0115571 0.00279501 0.0148243 
546 0.59338 0.105964 0.0743973 0.0496548 0.030411 0.0220355 0.0245122 0.0169221 0.00978515 0.0729383 
547 0.589715 0.238149 0.0727077 0.031262 0.0168892 0.0107014 0.00909895 0.00706649 0.00387199 0.0205378 
548 0.628871 0.121004 0.066122 0.0748085 0.0300474 0.0292088 0.0111987 0.00869722 0.00476553 0.0252773 
549 0.823965 0.131075 0.0202592 0.0058137 0.00691922 0.00307066 0.00223135 0.00162606 0.000922756 0.00411739 
550 0.721756 0.165564 0.0593146 0.0132312 0.00993485 0.00630268 0.00535889 0.00416186 0.00228044 0.0120959 
551 0.693663 0.135339 0.0564724 0.0235293 0.0284417 0.0127245 0.0226179 0.00663791 0.00376687 0.016808 
552 0.771546 0.111783 0.0477632 0.0161455 0.0100841 0.00855188 0.00621461 0.0136022 0.00284195 0.0114671 
553 0.757729 0.104417 0.0668416 0.0267696 0.0102761 0.00871477 0.00633279 0.00461493 0.00261887 0.0116856 
554 0.829282 0.10482 0.0276806 0.00716883 0.00579573 0.00237682 0.017297 0.00116034 0.00139509 0.00302296 
555 0.569974 0.119977 0.0945344 0.0558416 0.0415689 0.019833 0.0219655 0.0151639 0.00876375 0.052378 
556 0.703283 0.214825 0.0769006 0.00210695 0.000924412 0.000637477 0.000470896 0.000192541 0.000233515 0.000425751 
557 0.612894 0.0798552 0.0624546 0.0387758 0.0452428 0.0236982 0.0231888 0.0256787 0.00921708 0.0789944 
558 0.854561 0.0817207 0.0221942 0.0240368 0.00434089 0.0016494 0.00222303 0.000757841 0.00114517 0.00737089 
559 0.444675 0.050663 0.111548 0.0518424 0.0520243 0.045191 0.0449876 0.0337251 0.0133675 0.151976 
560 0.782973 0.15796 0.0191489 0.00582365 0.0055422 0.0207918 0.00290278 0.000924076 0.00124208 0.00269141 
561 0.791179 0.0994638 0.0744827 0.0100736 0.0138661 0.000720577 0.00494161 0.000145411 0.000292972 0.00483416 
562 0.656406 0.125205 0.0829578 0.0349379 0.0190515 0.0120863 0.0102765 0.00967783 0.0144575 0.0349439 
563 0.724744 0.108527 0.0600289 0.0208169 0.0335874 0.0129503 0.00882323 0.00685236 0.00375466 0.0199155 
564 0.730852 0.155949 0.0448419 0.0220118 0.0113479 0.00553109 0.0188483 0.00203078 0.00271158 0.00587561 
565 0.572694 0.107522 0.0754942 0.079788 0.0308641 0.0223596 0.0248727 0.0171709 0.00992366 0.0593104 
566 0.646966 0.129806 0.0760993 0.0310984 0.0249136 0.0158052 0.0134443 0.0258154 0.00571869 0.0303328 
567 0.439454 0.0920505 0.0901662 0.243712 0.0287402 0.0169583 0.0165939 0.0183756 0.0065135 0.047436 
568 0.863 0.0830288 0.0225409 0.00644696 0.00442463 0.0105906 0.00249981 0.00182168 0.00103376 0.00461272 
569 0.779413 0.169066 0.031907 0.00536453 0.0033098 0.0028069 0.0020397 0.0014864 0.000843501 0.00376375 
570 0.444675 0.050663 0.111548 0.0518424 0.0520243 0.045191 0.0449876 0.0337251 0.0131182 0.152225 
571 0.764237 0.086328 0.0805624 0.02149 0.0155798 0.00914105 0.00568327 0.0041416 0.00235027 0.010487 
572 0.668436 0.119954 0.0646217 0.0391191 0.0186014 0.0134664 0.023806 0.0103331 0.00597176 0.0356912 
573 0.69757 0.126614 0.0580632 0.0241534 0.0151971 0.0131142 0.0230859 0.00696272 0.00402068 0.0312182 
574 0.495429 0.0594003 0.110132 0.0492164 0.0447832 0.0376592 0.0379912 0.0404231 0.010932 0.114034 
575 0.568357 0.112485 0.0789756 0.0527104 0.0322824 0.0245085 0.0402884 0.0179634 0.0103817 0.0620478 
576 0.772024 0.124096 0.0442556 0.0123299 0.0302018 0.00360867 0.00482933 0.00164634 0.0022129 0.00479504 
577 0.764102 0.182152 0.0246597 0.0106329 0.00449336 0.00187535 0.00785436 0.000804674 0.00108158 0.00234364 
578 0.399926 0.0820366 0.0762546 0.0480909 0.0564282 0.0517492 0.048925 0.0511298 0.0169292 0.168531 
579 0.803576 0.128392 0.0341342 0.0210627 0.00449334 0.00175133 0.0023604 0.000804673 0.00108158 0.00234364 
580 0.695565 0.141534 0.0505948 0.0552412 0.0140941 0.0110247 0.00801136 0.00583816 0.00331303 0.0147829 
581 0.646966 0.129806 0.0760992 0.031428 0.0399685 0.0158052 0.0134385 0.0104367 0.00571863 0.0303328 
582 0.553838 0.0928465 0.0749456 0.0461303 0.0393076 0.0438223 0.0278266 0.0308144 0.0109226 0.0795465 
583 0.399926 0.0820366 0.0762546 0.0480909 0.0564282 0.0517492 0.0473026 0.0373718 0.0171041 0.183736 
584 0.84585 0.0586119 0.0324929 0.0144741 0.0209227 0.00498576 0.0085887 0.0032255 0.00172088 0.00912793 
585 0.824588 0.0639445 0.0369414 0.0395717 0.0156523 0.00713041 0.00305894 0.00222279 0.00126138 0.00562836 
586 0.702189 0.124437 0.0572568 0.0238179 0.0288749 0.0135657 0.0222676 0.00673011 0.00381918 0.0170414 
587 0.748947 0.184502 0.0452719 0.00451443 0.00863983 0.00212536 0.00150439 0.00109631 0.000622129 0.00277598 
588 0.799679 0.100641 0.0714018 0.00763142 0.00479553 0.00406689 0.0029553 0.00215363 0.00122214 0.00545326 
589 0.55223 0.0900754 0.0727084 0.0447532 0.0381342 0.0275889 0.0338191 0.0511154 0.0124033 0.077172 
590 0.352304 0.0827595 0.103849 0.0674499 0.0696132 0.0414005 0.0275445 0.0584749 0.0227954 0.173809 
591 0.568647 0.101557 0.0751733 0.057599 0.0430199 0.0218884 0.0503404 0.0163869 0.00937235 0.0560154 
592 0.745293 0.126391 0.0455707 0.0195695 0.0168193 0.0205261 0.00581897 0.00449261 0.00246166 0.0130572 
593 0.562722 0.094571 0.0789834 0.0933366 0.0306433 0.0306357 0.033753 0.0149971 0.0086514 0.0517065 
594 0.498887 0.0782784 0.0604458 0.0381209 0.0447297 0.0410207 0.037496 0.029624 0.0136351 0.157763 
595 0.669967 0.145378 0.0619727 0.0392346 0.0195792 0.0248597 0.00979495 0.00712599 0.00404384 0.0180439 
596 0.697917 0.126268 0.0580661 0.0381947 0.0152374 0.012888 0.00936539 0.00682489 0.00428216 0.0309568 
597 0.757687 0.152167 0.0444266 0.0213599 0.0132791 0.00232644 0.00313546 0.00106889 0.00143673 0.0031132 
598 0.931439 0.0271334 0.0232005 0.00208267 0.000984832 0.00205297 0.0121915 0.00021337 0.000248777 0.000453578 
599 0.779842 0.14868 0.0465193 0.00749383 0.00452338 0.0017252 0.00729505 0.000745999 0.00100272 0.00217275 
600 0.653498 0.1172 0.0687096 0.0555899 0.0227661 0.0279813 0.0122873 0.00942199 0.00516265 0.0273838 
601 0.718964 0.173868 0.0513369 0.0120364 0.0106641 0.00415888 0.0189329 0.00190976 0.00256696 0.00556225 
602 0.581383 0.123336 0.081058 0.0559676 0.0272514 0.0197461 0.0219655 0.0151639 0.00887733 0.0652514 
603 0.601977 0.309315 0.0502988 0.0174377 0.00734955 0.00285997 0.0038546 0.00131405 0.00176626 0.00382723 
604 0.512791 0.206786 0.0694527 0.0462997 0.0283562 0.0205466 0.0265735 0.0255745 0.00911923 0.0545015 
605 0.546367 0.128697 0.0864118 0.0506273 0.054667 0.0251317 0.0241621 0.0166803 0.00964013 0.0576158 
606 0.736955 0.154782 0.0438437 0.0138872 0.0161061 0.0127802 0.0100629 0.00220357 0.00296187 0.00641798 
607 0.690243 0.135773 0.0624619 0.0259832 0.0163484 0.0159426 0.0231263 0.00736385 0.00416638 0.0185907 
608 0.583888 0.0930819 0.0978843 0.0630426 0.0382496 0.0292742 0.0270441 0.013421 0.00775643 0.0463575 
609 0 0 0 0 0 0.396993 0.438904 0 1.49161e-07 0.164102 
610 0.662741 0.114376 0.0801348 0.0273162 0.0221503 0.0271294 0.0118043 0.00916734 0.00506724 0.0401131 
611 0.899779 0.0523824 0.0417026 0.00249097 0.00116806 0.000805494 0.000595008 0.000243288 0.000295061 0.000537964 
612 0.580678 0.109691 0.076637 0.066043 0.0313193 0.0226933 0.0252439 0.0174272 0.0100718 0.0601956 
613 0.568357 0.112485 0.0789756 0.0527104 0.0322824 0.0233916 0.0260207 0.0180993 0.0203099 0.0673683 
614 0.558482 0.0890833 0.0716391 0.0440951 0.0380079 0.0413101 0.0267434 0.029455 0.0105311 0.0906527 
615 0.620487 0.144863 0.0859039 0.0429353 0.0362212 0.0147274 0.0123028 0.0095547 0.00523537 0.0277695 
616 0.414217 0.0761809 0.0850894 0.0449807 0.0663586 0.0482998 0.0579398 0.0347253 0.015716 0.156493 
617 0.638627 0.0974258 0.0593287 0.0585256 0.0340067 0.016898 0.0187927 0.0129736 0.00800412 0.0554172 
618 0.660258 0.130137 0.102932 0.0248535 0.0156376 0.0132616 0.00963685 0.00722032 0.0182803 0.0177825 
619 0.528805 0.0584751 0.0928118 0.0405994 0.0407427 0.047438 0.0352313 0.0264112 0.0102895 0.119196 
620 0.30639 0.0431732 0.0995496 0.0803634 0.0617773 0.0522052 0.0347484 0.0703125 0.0183823 0.233098 
621 0.568357 0.112485 0.0789788 0.0680918 0.0322824 0.0233916 0.0260207 0.0179634 0.0103817 0.0620478 
622 0.572682 0.107534 0.0901972 0.050385 0.0308582 0.0226329 0.0393053 0.0171709 0.00992366 0.0593104 
623 0.637164 0.127856 0.10523 0.0306302 0.0245361 0.0155657 0.0132348 0.0102785 0.00563198 0.0298732 
624 0.35889 0.0362584 0.10568 0.0498688 0.0604584 0.0555462 0.0780532 0.0554301 0.0163972 0.183418 
625 0.545446 0.0914398 0.0889615 0.0454313 0.038712 0.0280069 0.0337461 0.039158 0.0107571 0.0783413 
626 0.573495 0.0936506 0.0815307 0.0416628 0.035486 0.025673 0.0251212 0.0278186 0.0107038 0.0848586 
627 0.657897 0.120535 0.0849493 0.028877 0.023134 0.0146762 0.0125771 0.0238782 0.00531037 0.0281662 
628 0.775789 0.119941 0.0619097 0.00918211 0.00807889 0.00314885 0.00424395 0.00144679 0.00252701 0.0137325 
629 0.551391 0.109127 0.089409 0.0534847 0.045766 0.0229582 0.0252439 0.0174272 0.0102929 0.0748999 
630 0.573521 0.0887504 0.0716391 0.0440951 0.0375734 0.0271831 0.026599 0.029455 0.0104436 0.0907401 
631 0.582282 0.1141 0.120868 0.037851 0.0233417 0.0377049 0.0192848 0.012831 0.00741548 0.0443199 
632 0.519075 0.220109 0.0817146 0.0394763 0.0253615 0.0183015 0.0179082 0.0198311 0.00702942 0.0511933 
633 0.447882 0.047729 0.119571 0.0488375 0.0490084 0.0425713 0.0423824 0.0480901 0.0205194 0.133409 
634 0.545446 0.0914397 0.0738101 0.0561162 0.0431785 0.0280069 0.027405 0.0303476 0.0107639 0.093486 
635 0.628802 0.114167 0.0814071 0.0510824 0.057018 0.0138917 0.0204261 0.00745487 0.00408474 0.0216663 
636 0.581242 0.109127 0.0766181 0.051137 0.0313188 0.0226933 0.0252439 0.0174272 0.0102901 0.0749027 
637 0.642577 0.125934 0.0738276 0.0301703 0.0390948 0.0153336 0.0130373 0.0102938 0.0196633 0.0300687 
638 0.463434 0.0470827 0.1155 0.0474667 0.0476279 0.0413721 0.0411859 0.0308751 0.0121197 0.153336 
639 0.464794 0.175177 0.224656 0.031801 0.0194292 0.0140783 0.0156606 0.0108113 0.00624823 0.0373436 
640 0.737711 0.160301 0.041302 0.0130821 0.0115915 0.00451792 0.00608915 0.00207582 0.00279042 0.0205384 
641 0.76229 0.083685 0.0343545 0.0142907 0.00926559 0.0585316 0.0126505 0.00408193 0.00230855 0.0185412 
642 0.570282 0.113198 0.0953318 0.0587123 0.0279781 0.0202727 0.0279766 0.0234763 0.00899746 0.0537748 
643 0.829043 0.0168982 0.0778923 0.0618335 0.00851803 4.66253e-05 4.57464e-05 0.00566737 9.8464e-06 4.50379e-05 
644 0.808281 0.109425 0.0484591 0.00912424 0.00573933 0.00486729 0.00353693 0.00257749 0.00146267 0.00652651 
645 0.568357 0.112485 0.0789756 0.0527104 0.0322824 0.0233916 0.0260207 0.0180147 0.0253844 0.0623785 
646 0.565404 0.0865147 0.160851 0.0586941 0.0318624 0.016175 0.017993 0.0124215 0.00717882 0.0429054 
647 0.646848 0.085936 0.0702106 0.0294013 0.0348527 0.0215393 0.0325847 0.0209753 0.0069605 0.0506914 
648 0.634757 0.117526 0.0997083 0.0350225 0.0211955 0.0153581 0.0170843 0.0117942 0.00681625 0.0407385 
649 0.570575 0.104492 0.075421 0.0591003 0.0320208 0.0217207 0.024162 0.0166803 0.0132161 0.0826112 
650 0.545879 0.0565025 0.133003 0.0457945 0.0397637 0.0279754 0.0309437 0.0267217 0.00870618 0.0847109 
651 0.841301 0.0737593 0.0457206 0.0181687 0.00888646 0.00634129 0.00211396 0.000705575 0.000948383 0.00205502 
652 0.634378 0.137536 0.0727435 0.0310272 0.0519254 0.0151079 0.0128456 0.00997623 0.00546634 0.0289946 
653 0.744396 0.146211 0.0527962 0.0122101 0.0108082 0.00421266 0.00567772 0.00193556 0.00273435 0.0190182 
654 0.647835 0.12408 0.0727419 0.0297264 0.0241134 0.0442189 0.0128474 0.00997623 0.00546634 0.0289946 
655 0.658641 0.123722 0.0827036 0.0281591 0.0202423 0.0128417 0.0179932 0.0258969 0.00515475 0.0246454 
656 0.646966 0.129806 0.0760993 0.0310984 0.0249136 0.0158052 0.0134385 0.0104367 0.0058073 0.0456288 
657 0.557289 0.131807 0.0736476 0.0631755 0.0340505 0.0319323 0.0241623 0.0166803 0.00964013 0.0576158 
658 0.481531 0.0440309 0.0967626 0.0626354 0.0531337 0.0706677 0.040778 0.0254921 0.010251 0.114718 
659 0.461252 0.0491507 0.108218 0.0502948 0.0504713 0.0438421 0.0585653 0.0327232 0.0127266 0.132756 
660 0.61273 0.0602925 0.0977115 0.0349302 0.0310237 0.0269488 0.0268275 0.0201113 0.0078228 0.0816022 
661 0.476868 0.047726 0.105081 0.048837 0.0490084 0.0425713 0.0423797 0.03177 0.0128924 0.142866 
662 0.675118 0.136026 0.0773355 0.0411343 0.0163484 0.0138644 0.0100749 0.00734193 0.00416638 0.0185907 
663 0.5663 0.109143 0.0766181 0.0643866 0.0329945 0.0226933 0.0252439 0.0195529 0.0228714 0.0601957 
664 0.553838 0.0928465 0.0749456 0.0461303 0.0393075 0.0284377 0.028868 0.0451576 0.0109227 0.0795465 
665 0.561841 0.108517 0.0888848 0.04966 0.0304432 0.0364945 0.0245138 0.017115 0.0240796 0.0584509 
666 0.710923 0.122996 0.0650821 0.0288065 0.032116 0.0115656 0.00714992 0.0052104 0.00295679 0.0131934 
667 0.409018 0.0807936 0.0750993 0.0473623 0.0555732 0.0509651 0.0477296 0.0473113 0.0201706 0.165977 
668 0.428747 0.0922821 0.113105 0.0542952 0.0672905 0.0512462 0.0379766 0.0284693 0.0110738 0.115515 
669 0.757748 0.0972748 0.0552334 0.0290359 0.0116056 0.00983926 0.00714992 0.00547942 0.0134405 0.0131934 
670 0.566278 0.109166 0.0766181 0.051137 0.0313188 0.0232621 0.0393374 0.0176902 0.0103409 0.0748519 
671 0.734469 0.13266 0.0786728 0.012794 0.0102492 0.00650213 0.00552848 0.00429357 0.0023526 0.0124787 
672 0.71462 0.103952 0.0543589 0.0230511 0.0279054 0.0113304 0.00969258 0.0179788 0.00448649 0.0326249 
673 0.297245 0.0717299 0.0968399 0.0926309 0.059935 0.0506469 0.0337112 0.0682136 0.0163268 0.212721 
674 0.553838 0.0928465 0.0749456 0.0461303 0.0393075 0.0284377 0.0278266 0.0308144 0.0112274 0.0946264 
675 0.66979 0.127541 0.0831243 0.042218 0.0125994 0.0106649 0.019335 0.00563454 0.00320709 0.0258855 
676 0.648091 0.0803882 0.155032 0.0351259 0.0245345 0.0102077 0.00831904 0.00646079 0.00354012 0.0283013 
677 0.658663 0.107052 0.0844187 0.0417302 0.0221944 0.0355712 0.0121209 0.00858713 0.0047052 0.0249574 
678 0.625195 0.0983772 0.0787313 0.0321384 0.036505 0.0288365 0.0189437 0.0206489 0.00731929 0.0533044 
679 0.680282 0.113233 0.0787841 0.0271414 0.0215917 0.0148246 0.0238532 0.00904512 0.00495615 0.0262884 
680 0.687995 0.124743 0.0575395 0.0374241 0.014986 0.0127123 0.0231197 0.00673136 0.0038199 0.0309293 
681 0.760272 0.0999983 0.0445643 0.0182107 0.014589 0.00925529 0.00786937 0.00611156 0.003493 0.0356362 
682 0.741051 0.211918 0.0210707 0.00699955 0.00440406 0.0037349 0.00271405 0.00197783 0.00112237 0.00500809 
683 0.673118 0.148169 0.0608638 0.0214658 0.0198264 0.0197735 0.0245128 0.00860046 0.00375466 0.0199155 
684 0.573558 0.120685 0.0636437 0.0716488 0.0336357 0.0318394 0.0324517 0.0144151 0.00833098 0.0497914 
685 0.646303 0.142203 0.0728957 0.0292956 0.0234693 0.014889 0.0126594 0.00983165 0.00540555 0.0430482 
686 0.572849 0.122068 0.0754965 0.050385 0.0308582 0.0223596 0.0248727 0.0171709 0.00992583 0.0740141 
687 0.67466 0.129935 0.0597462 0.0248535 0.017288 0.0264771 0.034447 0.010825 0.00398524 0.0177824 
688 0.755151 0.118141 0.0446196 0.0326837 0.0323328 0.00358776 0.00482933 0.00164634 0.0022129 0.00479504 
689 0.646591 0.138929 0.0719578 0.0382718 0.0269374 0.0127094 0.00923532 0.00968251 0.0135679 0.0321181 
690 0.901447 0.0364988 0.022696 0.00953248 0.0276511 0.00128344 0.000317173 0.000129686 0.000157285 0.000286766 
691 0.373855 0.0478539 0.101141 0.0476687 0.0577911 0.0519172 0.0610923 0.0529745 0.0156802 0.190025 
692 0.426183 0.0786337 0.0728905 0.0459693 0.0539387 0.0494661 0.0452158 0.035723 0.0162068 0.175773 
693 0.662875 0.11402 0.0803573 0.0273162 0.0219318 0.0273481 0.0118041 0.00916735 0.00505931 0.040121 
694 0.556877 0.0934401 0.0935184 0.0547901 0.0365079 0.0264065 0.025839 0.0286134 0.0101424 0.0738646 
695 0.553838 0.0928465 0.0749571 0.061502 0.0393089 0.0284377 0.0278266 0.0308144 0.0109226 0.0795465 
696 0.746838 0.101796 0.0789626 0.0161201 0.0120849 0.0076667 0.00651865 0.00536004 0.00993876 0.0147141 
697 0.685504 0.137836 0.0634229 0.0263829 0.016661 0.0293946 0.0102366 0.00745488 0.00423048 0.0188767 
698 0.904467 0.0595462 0.0238552 0.00489786 0.00231814 0.0015986 0.00118086 0.000482833 0.000585583 0.00106765 
699 0.604778 0.124746 0.0634685 0.0520783 0.0347142 0.0192548 0.0188409 0.0208639 0.00739554 0.0538596 
700 0.574897 0.110781 0.077779 0.0519118 0.0317933 0.0230371 0.0260147 0.0314422 0.0112367 0.0611077 
701 0.581842 0.111892 0.0863805 0.0482561 0.0295543 0.0214148 0.0238217 0.0164454 0.0104357 0.0699575 
702 0.685504 0.137836 0.0634229 0.0263829 0.0165999 0.0148063 0.0248827 0.00745806 0.00423048 0.0188767 
703 0.69328 0.131764 0.0679621 0.0263442 0.0154142 0.0130722 0.00949918 0.00692239 0.00394465 0.0317977 
704 0.399926 0.0820366 0.0762546 0.0480909 0.0587692 0.0647928 0.0473026 0.0373718 0.0169249 0.168531 
705 0.48518 0.0445089 0.0979824 0.0590497 0.0456971 0.0396948 0.0395162 0.0296234 0.0128881 0.14586 
706 0.545446 0.0914397 0.07381 0.045631 0.0536638 0.0280069 0.027405 0.0303476 0.0108788 0.0933712 
707 0.783939 0.088002 0.0793478 0.0197435 0.00554968 0.00469257 0.00340996 0.00248496 0.00162828 0.0112023 
708 0.560598 0.0914397 0.07381 0.0454313 0.038712 0.0280069 0.027405 0.0303476 0.0107654 0.0934846 
709 0.827538 0.0927596 0.0552783 0.0156325 0.00308087 0.00119899 0.00161597 0.000550892 0.000740469 0.00160449 
710 0.74094 0.152436 0.0431794 0.0136768 0.0124304 0.0195524 0.00637622 0.00217018 0.002917 0.00632073 
711 0.563382 0.0986864 0.0749456 0.0461303 0.0393075 0.0284377 0.0278266 0.0308144 0.0109226 0.0795465 
712 0.444675 0.050663 0.111548 0.0518424 0.0520243 0.045191 0.0508429 0.0432416 0.0131311 0.136841 
713 0.581242 0.109127 0.0766181 0.051137 0.0313188 0.0226933 0.0252439 0.0174272 0.0101566 0.0750362 
714 0.550188 0.0889671 0.0984892 0.0435785 0.0370288 0.0267892 0.0262135 0.0290281 0.010818 0.0888993 
715 0.444675 0.050663 0.111548 0.0518424 0.0520243 0.045191 0.0449876 0.0343562 0.0278553 0.136857 
716 0.769874 0.150548 0.0403309 0.0109745 0.0115837 0.00348464 0.00296102 0.00229961 0.00126004 0.0066835 
717 0.622809 0.190671 0.080323 0.0335087 0.0179932 0.0114149 0.00970555 0.00753759 0.00413012 0.021907 
718 0.622759 0.0917429 0.0873605 0.0448085 0.0312348 0.0153582 0.0170843 0.015739 0.0150435 0.0588694 
719 0.900814 0.0488502 0.0165574 0.0206453 0.00135354 0.000927759 0.000685323 0.000280216 0.00134497 0.00854093 
720 0.742883 0.091958 0.0375909 0.0223766 0.0190671 0.0137944 0.013498 0.0149473 0.00529829 0.038586 
721 0.702182 0.124445 0.0711455 0.0238179 0.014986 0.012709 0.00923532 0.0067301 0.0039819 0.0307676 
722 0.563329 0.114459 0.0873467 0.0722175 0.0410954 0.0183369 0.02113 0.0253636 0.00813023 0.0485917 
723 0.437938 0.0498953 0.109858 0.0510569 0.0512361 0.0445063 0.044306 0.0336234 0.0279633 0.149617 
724 0.504349 0.0392351 0.115203 0.0633974 0.0584194 0.0371648 0.0443272 0.0258662 0.00980098 0.102237 
725 0.446329 0.0640736 0.108218 0.0502948 0.0504713 0.0438421 0.0436447 0.0327184 0.0143098 0.146098 
726 0.756632 0.100084 0.0467116 0.0220574 0.0203441 0.0301094 0.00663575 0.00425059 0.00241212 0.010763 
727 0.670011 0.0855623 0.13877 0.0202367 0.0161939 0.0225227 0.0164652 0.00680424 0.00371711 0.0197163 
728 0.751314 0.114891 0.0572754 0.0378435 0.0130245 0.016341 0.00333459 0.00113676 0.00152795 0.00331086 
729 0.769825 0.122591 0.0339266 0.0116483 0.0178124 0.00642286 0.00509338 0.0132366 0.00285654 0.0165882 
730 0.52738 0.0912546 0.0599191 0.149851 0.0582312 0.0171067 0.0197052 0.0204019 0.0108343 0.0453158 
731 0.859475 0.0576368 0.0439372 0.0181997 0.00656514 0.00296063 0.00251729 0.001955 0.00107121 0.00568194 
732 0.724885 0.135803 0.0396922 0.0164893 0.0114916 0.0461434 0.00639373 0.0046593 0.00264405 0.0117979 
733 0.67209 0.129422 0.0785499 0.0473984 0.0268144 0.0117314 0.00852491 0.0062124 0.0035254 0.0157306 
734 0.553838 0.0928465 0.0749456 0.0461303 0.0393075 0.0284377 0.0278266 0.0308144 0.0109274 0.0949264 
735 0.53481 0.265286 0.106796 0.0219999 0.017602 0.0111667 0.00949456 0.00737373 0.00404034 0.0214308 
736 0.526523 0.356748 0.0435385 0.0172769 0.0138409 0.00878066 0.00746581 0.00579815 0.00317702 0.0168516 
737 0.58127 0.0815932 0.0891475 0.0389874 0.0458535 0.0242896 0.023771 0.0386529 0.00928572 0.0671497 
738 0.562908 0.0850754 0.109018 0.0505214 0.0925149 0.0147786 0.0238852 0.0233314 0.00544205 0.0325251 
739 0.651909 0.0855576 0.0826582 0.0555199 0.0215388 0.0255532 0.0173084 0.0119145 0.00688581 0.0411542 
740 0.735828 0.125877 0.0615526 0.0157741 0.00989903 0.00853514 0.0166486 0.0121058 0.00252276 0.0112567 
741 0.35889 0.0362584 0.10568 0.0498688 0.0604584 0.0543134 0.0639119 0.0554195 0.0164259 0.198774 
742 0.765782 0.137819 0.0390389 0.0123653 0.0109563 0.00427036 0.0057555 0.00196208 0.00270754 0.019343 
743 0.758895 0.132097 0.0601504 0.00954943 0.00733771 0.00285997 0.00408362 0.0193361 0.00186385 0.00382723 
744 0.35889 0.0362584 0.10568 0.0498688 0.0604584 0.056554 0.0770559 0.0554195 0.0163972 0.183418 
745 0.644299 0.115841 0.0728006 0.0520131 0.0338747 0.0141138 0.012126 0.0228303 0.00509286 0.0270087 
746 0.646966 0.129806 0.0760993 0.0310984 0.0249136 0.0158052 0.0140821 0.0251774 0.00571889 0.0303328 
747 0.681289 0.117186 0.0687007 0.0280749 0.0224914 0.0142686 0.0121319 0.00942199 0.00516758 0.0412678 
748 0.63373 0.113347 0.105388 0.057889 0.0199689 0.0120863 0.0108778 0.0167635 0.00675394 0.0231957 
749 0.70432 0.120831 0.0662725 0.0222716 0.0250523 0.0138312 0.0104309 0.017376 0.00368006 0.0159348 
750 0.652315 0.12784 0.0749462 0.0306272 0.0245361 0.0155657 0.0132348 0.0103519 0.0202677 0.0303157 
751 0.73454 0.153799 0.0396148 0.012537 0.0111085 0.00432968 0.0197243 0.00198933 0.00342622 0.0189306 
752 0.690269 0.135747 0.0624619 0.0259832 0.0163484 0.0138644 0.0100749 0.00734193 0.00430016 0.0336084 
753 0.545446 0.0914398 0.07381 0.0463452 0.0529496 0.0280069 0.0279298 0.0449743 0.0107572 0.0783413 
754 0.870152 0.0964034 0.0206989 0.00221821 0.00442198 0.000765937 0.00103231 0.000363217 0.0028979 0.00104582 
755 0.652843 0.136871 0.0716878 0.0292955 0.0234693 0.0148889 0.0126594 0.00983164 0.00549555 0.0429587 
756 0.461252 0.0491506 0.108218 0.0502948 0.0504713 0.0438421 0.0436447 0.0327184 0.0127439 0.147664 
757 0.587399 0.107523 0.0754913 0.050385 0.0308582 0.0223596 0.0248727 0.0171709 0.0105681 0.0733718 
758 0.733164 0.103738 0.0682282 0.0305369 0.0142196 0.0299128 0.00695677 0.00323045 0.00183321 0.00817989 
759 0.402911 0.0795901 0.0739784 0.0466554 0.0550715 0.0648022 0.0458907 0.0362562 0.016426 0.178419 
760 0.453459 0.0503528 0.137397 0.0537564 0.0479241 0.0483785 0.0384763 0.0288438 0.0112201 0.130192 
761 0.611804 0.0955013 0.0858078 0.0811795 0.0305577 0.0237538 0.0159664 0.0110153 0.00636612 0.0380482 
762 0.850542 0.0763786 0.0633023 0.00385874 0.00509895 0.000266437 0.00019681 8.04721e-05 9.75972e-05 0.000177942 
763 0.575461 0.127043 0.0786067 0.0786555 0.0266426 0.0190056 0.0211418 0.0145953 0.00843511 0.0504138 
764 0.887117 0.0526736 0.0222292 0.0314689 0.00213391 0.00142341 0.00105145 0.00042992 0.00052141 0.000950649 
765 0.564385 0.105973 0.0754927 0.0775317 0.030424 0.0220355 0.0245122 0.0169548 0.0230458 0.0596448 
766 0.730163 0.132733 0.047343 0.0284097 0.024101 0.00646285 0.0101359 0.00591359 0.0023378 0.0124002 
767 0.537305 0.104902 0.0796661 0.0527971 0.039463 0.0411642 0.0270395 0.0298946 0.0105966 0.077172 
768 0.54704 0.100436 0.0991626 0.072736 0.0288068 0.0481632 0.0231691 0.0159948 0.00924396 0.055248 
769 0.737696 0.145827 0.0510353 0.0178383 0.0115915 0.00451792 0.00608915 0.00208265 0.0123 0.011022 
770 0.660664 0.0948133 0.0578729 0.0384964 0.023577 0.0170837 0.0190039 0.0131194 0.00799158 0.0673783 
771 0.549287 0.0990901 0.0826837 0.0563252 0.035986 0.0260346 0.025837 0.0419329 0.0099996 0.0728243 
772 0.638419 0.136801 0.0716878 0.043788 0.0234695 0.0148889 0.0126594 0.00983164 0.00556056 0.0428937 
773 0.646966 0.129806 0.0760993 0.0310984 0.0402981 0.0158052 0.0134385 0.0104367 0.00571863 0.0303328 
774 0.568357 0.112485 0.0789756 0.0527104 0.0322824 0.0233916 0.0260207 0.0179634 0.0104656 0.0773485 
775 0.44935 0.0486909 0.12798 0.0474636 0.0476794 0.0621386 0.0485369 0.0308751 0.0120096 0.125277 
776 0.557589 0.107922 0.0754975 0.0659255 0.044634 0.0224489 0.0256677 0.0264221 0.0145834 0.0593104 
777 0.626828 0.139773 0.131402 0.0215836 0.0298016 0.0217918 0.00722764 0.00526704 0.00298893 0.0133368 
778 0.876747 0.0784227 0.0323214 0.00422801 0.00467673 0.000756643 0.00101978 0.00034765 0.000467286 0.00101254 
779 0.581242 0.109127 0.0766181 0.051137 0.0313188 0.0226933 0.0293928 0.0281917 0.0100837 0.0601956 
780 0.657898 0.134607 0.0708759 0.028877 0.023134 0.0146763 0.0124786 0.00969119 0.00822876 0.0395333 
781 0.673737 0.226865 0.00135587 0.00298245 0.0934466 0.0015908 0 1.11225e-05 1.11199e-05 0 
782 0.841863 0.112914 0.029241 0.00346726 0.00682821 0.00120917 0.00160363 0.000546686 0.000734816 0.00159225 
783 0.545446 0.0914398 0.0889602 0.0459995 0.0526085 0.028695 0.027405 0.0303476 0.0107571 0.0783413 
784 0.5874 0.107522 0.0754914 0.050385 0.0308582 0.0223596 0.0248727 0.0173162 0.0243318 0.0594629 
785 0.905914 0.0434931 0.0234937 0.00482365 0.00228302 0.00157437 0.00116297 0.000475517 0.000589259 0.0161904 
786 0.679119 0.129044 0.0724739 0.0387131 0.015457 0.0273112 0.00950313 0.00692239 0.0039283 0.0175283 
787 0.57359 0.134219 0.0723052 0.0623321 0.0295627 0.0214148 0.0238217 0.0164454 0.00950435 0.0568043 
788 0.701975 0.124803 0.0709944 0.0238179 0.014986 0.0128857 0.0227272 0.00695038 0.00381918 0.0170414 
789 0.444675 0.050663 0.111548 0.0518424 0.0521905 0.0604092 0.0449879 0.0337251 0.0131182 0.136841 
790 0.564591 0.0880828 0.0706009 0.043456 0.0370288 0.0267892 0.0303686 0.0535898 0.010558 0.0749351 
791 0.652185 0.137528 0.0716878 0.0292955 0.0234693 0.0163338 0.0257072 0.00983176 0.00538712 0.0285744 
792 0.725888 0.164789 0.0458794 0.0136768 0.0121183 0.00523226 0.0210051 0.00217356 0.002917 0.00632073 
793 0.553838 0.0928465 0.0749456 0.0461303 0.0393075 0.0284377 0.0279466 0.0460769 0.0109248 0.0795465 
794 0.587399 0.107524 0.0754913 0.050385 0.0308582 0.0223596 0.0250949 0.0316152 0.00996308 0.0593104 
795 0.699379 0.131755 0.0606248 0.025219 0.0158676 0.0134566 0.00977857 0.00712719 0.0186237 0.0181687 
796 0.719148 0.148443 0.0551844 0.0142151 0.0264366 0.00461555 0.00745522 0.0155357 0.00283121 0.00613483 
797 0.833622 0.0618567 0.0543577 0.0137287 0.0078231 0.0049632 0.00905051 0.00327722 0.00179571 0.0095248 
798 0.399926 0.0820366 0.0762546 0.0480909 0.0564282 0.0517492 0.0473026 0.0373718 0.0186293 0.182211 
799 0.865288 0.0589855 0.0232831 0.00966817 0.0101942 0.00460374 0.00485071 0.0129192 0.0033851 0.00682256 
800 0.657494 0.125942 0.0738276 0.03017 0.0241699 0.0153334 0.0130373 0.0101251 0.00569077 0.0442099 
801 0.732195 0.107294 0.0492016 0.0321957 0.0128452 0.0136426 0.0170712 0.00576912 0.00384011 0.0259452 
802 0.766013 0.105223 0.0532884 0.0196763 0.0235682 0.00677279 0.00570915 0.00443388 0.00242948 0.0128865 
803 0.646966 0.129806 0.0772655 0.0453167 0.0249136 0.0158052 0.0134385 0.0104367 0.00571863 0.0303328 
804 0.58816 0.10459 0.0880772 0.0384604 0.0327563 0.0236981 0.0231888 0.0256787 0.0091022 0.0662888 
805 0.409014 0.0807967 0.0750993 0.0473623 0.0555732 0.0509651 0.0466714 0.0518716 0.0166685 0.165977 
806 0.356871 0.0355508 0.101017 0.0476687 0.0637166 0.0875205 0.0636811 0.0529745 0.0156737 0.175326 
807 0.545446 0.0914398 0.0747388 0.0596536 0.0387124 0.0280069 0.0291141 0.0421873 0.0123598 0.0783413 
808 0.652315 0.12784 0.0749462 0.0306272 0.0245361 0.0155657 0.0132348 0.0102785 0.00568518 0.0449716 
809 0.543994 0.102903 0.0724645 0.0586401 0.0375782 0.0271831 0.0315273 0.0390802 0.0105931 0.0760371 
810 0.48364 0.0436232 0.121127 0.0915951 0.0429291 0.0358222 0.0356609 0.0267333 0.0103986 0.108471 
811 0.699258 0.112512 0.0853934 0.0217407 0.0175609 0.0216511 0.0093925 0.00729445 0.00399689 0.0212004 
812 0.560598 0.0914398 0.07381 0.0454313 0.038712 0.0280069 0.027405 0.0303476 0.0107768 0.0934732 
813 0.693646 0.128027 0.0588927 0.0244985 0.0294129 0.013359 0.00957572 0.0211316 0.0039283 0.0175283 
814 0.42018 0.0773203 0.0718343 0.0603478 0.0670974 0.0487494 0.0445605 0.0352053 0.0159438 0.158761 
815 0.950089 0.0277562 0.00510246 0.012295 0.00164567 0.000539276 0.00224515 7.41738e-05 8.9771e-05 0.000163673 
816 0.411567 0.0785434 0.0728905 0.0459693 0.0539389 0.0788774 0.0452161 0.035723 0.0161782 0.161096 
817 0.453089 0.0498953 0.109858 0.0510569 0.0512361 0.0445063 0.044306 0.0386737 0.0226112 0.134768 
818 0.67549 0.153348 0.0533267 0.0379162 0.01547 0.0107833 0.0119953 0.00828102 0.00478588 0.0286036 
819 0.439627 0.0632694 0.106627 0.0495552 0.0497291 0.0436481 0.057258 0.0322373 0.0126409 0.145408 
820 0.671188 0.124735 0.0650859 0.0265973 0.0252026 0.0227805 0.0114934 0.0089261 0.00495939 0.039032 
821 0.318302 0.0505069 0.0967489 0.0779645 0.074652 0.0508534 0.0337112 0.0682136 0.0163268 0.212721 
822 0.771527 0.115697 0.0326955 0.0205257 0.00916438 0.00397384 0.0378986 0.00166824 0.00216317 0.00468729 
823 0.437938 0.0498965 0.125008 0.0510572 0.0512361 0.0445153 0.0594478 0.0332148 0.0129195 0.134767 
824 0.69601 0.230503 0.0252926 0.0108278 0.00940612 0.00467832 0.00520413 0.00359269 0.00207634 0.0124096 
825 0.606082 0.0559936 0.0783577 0.0421905 0.0444441 0.0287174 0.0265836 0.0199431 0.0126696 0.0850188 
826 0.588216 0.107356 0.0667415 0.080357 0.0280042 0.019493 0.0241395 0.0247084 0.00927737 0.0517065 
827 0.368604 0.0357091 0.104078 0.0491132 0.0595423 0.0534904 0.0629436 0.0545798 0.0161487 0.19579 
828 0.637164 0.127846 0.090068 0.0306511 0.0257609 0.0294898 0.0132374 0.0102785 0.00563198 0.0298732 
829 0.740478 0.124273 0.0320207 0.0116111 0.0749335 0.00350274 0.0047208 0.00160935 0.00216317 0.00468729 
830 0.573521 0.0887504 0.0716392 0.0440951 0.0375734 0.0271831 0.026599 0.029455 0.01062 0.0905637 
831 0.616049 0.204421 0.127608 0.019207 0.00759855 0.00644402 0.0046827 0.00341245 0.00193649 0.00864073 
832 0.674677 0.197715 0.0535053 0.0245809 0.00946487 0.00802676 0.00583283 0.00466094 0.0107159 0.0108208 
833 0.387987 0.0795911 0.103812 0.0466687 0.0547438 0.0502973 0.0607232 0.0362562 0.0164197 0.1635 
834 0.570615 0.104616 0.0860353 0.075148 0.0337667 0.0217207 0.024162 0.0166803 0.00964013 0.0576158 
835 0.648255 0.102629 0.126298 0.0498075 0.0139882 0.0171897 0.0160061 0.00579821 0.00317702 0.0168516 
836 0.646966 0.129806 0.0760993 0.0310984 0.0249136 0.0171412 0.0274871 0.0104367 0.00571863 0.0303328 
837 0.633546 0.0739373 0.0993457 0.0450163 0.0297703 0.0706475 0.0146123 0.0125318 0.00429868 0.0162945 
838 0.389762 0.0343053 0.098131 0.0488283 0.067902 0.0511054 0.0723081 0.0521158 0.0152259 0.170317 
839 0.622466 0.0932176 0.0766676 0.0428272 0.0262295 0.0211073 0.0312744 0.014861 0.00855525 0.0627937 
840 0.547889 0.0835094 0.0796447 0.0547701 0.0349999 0.0253213 0.024778 0.0548338 0.00982011 0.0844333 
841 0.715039 0.0985941 0.0816541 0.0385632 0.0297383 0.00962866 0.00671659 0.00489462 0.00277759 0.0123938 
842 0.485518 0.0433895 0.106719 0.0856424 0.0445069 0.0386502 0.0384763 0.0288438 0.0112195 0.117035 
843 0.379667 0.08018 0.14074 0.0628314 0.0590919 0.0552307 0.03892 0.0307489 0.0139256 0.138665 
844 0.564394 0.12045 0.079057 0.0739876 0.030411 0.0220355 0.0245122 0.0169221 0.00977984 0.0584508 
845 0.56328 0.0987885 0.0749456 0.0461303 0.0393075 0.0284377 0.0278266 0.0308144 0.0109226 0.0795465 
846 0.316771 0.0481772 0.0995496 0.0803634 0.0617773 0.0522052 0.0347484 0.0703125 0.0168291 0.219266 
847 0.553838 0.0928465 0.0749456 0.0461303 0.0393075 0.028882 0.0385192 0.0350622 0.0109226 0.0795465 
848 0.321706 0.0399094 0.111511 0.0824968 0.0541743 0.10631 0.035191 0.0760105 0.00669838 0.165992 
849 0.511402 0.10723 0.169218 0.0956348 0.0513938 0.0119125 0.00949456 0.00737796 0.01073 0.0256065 
850 0.694315 0.156915 0.0685308 0.0299231 0.0127387 0.00784227 0.00666794 0.0051785 0.00283749 0.0150506 
851 0.690245 0.135772 0.0624619 0.0259832 0.0163484 0.0138644 0.0119465 0.0186905 0.00609776 0.0185907 
852 0.802237 0.104597 0.0293798 0.00930584 0.00824547 0.00943973 0.0187241 0.00162849 0.0121422 0.00430071 
853 0.387175 0.0346589 0.101017 0.0476687 0.0577911 0.0519172 0.0610923 0.0529745 0.0156738 0.190032 
854 0.563163 0.0852137 0.0967014 0.0423074 0.0369946 0.0391103 0.0254751 0.0282104 0.0099996 0.0728243 
855 0.797991 0.0988404 0.0340741 0.0141726 0.0103203 0.0155326 0.0111058 0.00555009 0.00227257 0.0101404 
856 0.574867 0.110811 0.077779 0.0519118 0.0317933 0.0230371 0.0256264 0.0176913 0.0103315 0.0761521 
857 0.570512 0.104555 0.0733344 0.0489458 0.0458243 0.0344678 0.0384239 0.0166805 0.00964013 0.0576158 
858 0.35889 0.0362584 0.10568 0.0498688 0.0604584 0.0543134 0.0639119 0.0554195 0.0164265 0.198773 
859 0.409018 0.0807937 0.0750993 0.0473623 0.0555732 0.0509651 0.0465859 0.0368056 0.0167151 0.181082 
860 0.46125 0.0491529 0.108218 0.0502948 0.0504713 0.0438421 0.0436447 0.0327184 0.0131171 0.147291 
861 0.602537 0.0781091 0.0719657 0.0415573 0.0451466 0.036313 0.0233018 0.0256787 0.0091022 0.0662888 
862 0.362283 0.0448445 0.101017 0.0476687 0.0577911 0.0522104 0.0902102 0.0529751 0.0156737 0.175326 
863 0.846581 0.0684678 0.0296316 0.0164821 0.0202605 0.00476687 0.00346324 0.00252379 0.00143219 0.00639054 
864 0.524698 0.321501 0.0490577 0.0296713 0.0140829 0.0102044 0.0113513 0.0078364 0.00452892 0.0270678 
865 0.316873 0.0425462 0.0980412 0.0791458 0.0608412 0.0514142 0.034222 0.0692471 0.0166042 0.231065 
866 0.603199 0.106252 0.102088 0.0322938 0.0494366 0.0221515 0.0186079 0.0196692 0.00559033 0.0407128 
867 0.629894 0.180217 0.107875 0.0520605 0.00654412 0.00406062 0.00345257 0.00268136 0.00147861 0.0117362 
868 0.642579 0.125932 0.0738276 0.0308334 0.0384318 0.0153334 0.0130373 0.0101251 0.00670967 0.043191 
869 0.70703 0.131239 0.0580632 0.0241534 0.0151971 0.012888 0.00936539 0.00682489 0.00388396 0.031355 
870 0.903954 0.0484158 0.00944118 0.00268586 0.0111604 0.000185523 0.000189643 0.000208836 5.37133e-05 0.0237055 
871 0.722288 0.154241 0.0527764 0.0211696 0.00946726 0.00802676 0.00583283 0.00425059 0.0025393 0.0194078 
872 0.921128 0.0495932 0.0217822 0.00160288 0.00238648 0.0002831 0.000203597 9.85431e-05 0.00273818 0.000184087 
873 0.760877 0.113637 0.0414736 0.0364016 0.0306417 0.00856476 0.00310189 0.00100867 0.00135579 0.00293781 
874 0.781339 0.0786307 0.0649699 0.0336761 0.0207009 0.00826802 0.0031324 0.00226433 0.00128496 0.00573357 
875 0.604935 0.0797295 0.0642924 0.0513317 0.0347038 0.0243218 0.0248264 0.038485 0.00934173 0.0680332 
876 0.399926 0.0820366 0.0762546 0.0480909 0.0564282 0.0517492 0.0473055 0.0527536 0.0169249 0.168531 
877 0.806543 0.16806 0.0169579 0.00461342 0.00356257 5.99854e-05 6.12916e-05 6.74945e-05 1.33282e-05 6.09638e-05 
878 0.652315 0.12784 0.0749462 0.0308557 0.0394537 0.0155711 0.0132348 0.0102785 0.00563198 0.0298732 
879 0.649809 0.114815 0.0903611 0.0468912 0.0184109 0.0133373 0.0148363 0.0102423 0.00591938 0.0353781 
880 0.697731 0.126455 0.0580633 0.0241534 0.0151971 0.0128881 0.00944393 0.0208309 0.00388135 0.0313563 
881 0.639465 0.105247 0.132559 0.0257233 0.0296782 0.0117567 0.0212215 0.00772031 0.00422399 0.0224049 
882 0.649372 0.0922784 0.0634592 0.0332821 0.039679 0.0230295 0.0184564 0.0204381 0.00724461 0.0527604 
883 0.399926 0.0820366 0.0762546 0.0480909 0.0564282 0.0517492 0.0473026 0.0422026 0.0274784 0.168531 
884 0.67826 0.142032 0.0842471 0.0459572 0.0149919 0.00782227 0.0160971 0.00212399 0.00267392 0.00579401 
885 0.333204 0.0131065 0.0431131 0.01927 0.170923 0.00370282 0.110026 0.0786275 8.30438e-05 0.227943 
886 0.568357 0.112674 0.0941704 0.0527113 0.0322824 0.0233916 0.0260207 0.0179634 0.0103817 0.0620478 
887 0.399926 0.0820366 0.0762546 0.048097 0.0718068 0.0517492 0.0473026 0.0373718 0.0169249 0.168531 
888 0.635587 0.128559 0.0849493 0.0288771 0.0284945 0.0236015 0.0124894 0.0239648 0.0053114 0.0281662 
889 0.655245 0.110911 0.0762305 0.0402678 0.0310529 0.0243274 0.0110653 0.0212367 0.00470558 0.0249574 
890 0.767724 0.105055 0.0505481 0.0178655 0.0112395 0.00953178 0.00692649 0.00504758 0.00289786 0.0231643 
891 0.8354 0.10409 0.0223287 0.0238957 0.0050058 0.00194835 0.00262595 0.000895199 0.00120326 0.0026073 
892 0.765029 0.0763994 0.0804637 0.0244834 0.0132758 0.0084208 0.00715983 0.00556052 0.00304681 0.0161609 
893 0.399926 0.0820366 0.0762546 0.0480909 0.0564282 0.0517492 0.0473026 0.0373718 0.016966 0.183874 
894 0.747299 0.106562 0.0640476 0.0241933 0.0178927 0.0167361 0.00584322 0.00425059 0.00241212 0.010763 
895 0.560598 0.0914397 0.07381 0.0454313 0.038712 0.0280069 0.027405 0.0303476 0.0107705 0.0934794 
896 0.6382 0.122528 0.0861309 0.0309807 0.035226 0.0159894 0.0126594 0.00983164 0.00648642 0.0419678 
897 0.614249 0.121326 0.0759954 0.0537795 0.0357175 0.0162067 0.039557 0.00969302 0.00531016 0.0281662 
898 0.554294 0.182997 0.0827713 0.0315629 0.0268946 0.0194574 0.0190393 0.0210836 0.00747338 0.0544266 
899 0.646966 0.129806 0.0760992 0.0310983 0.0249136 0.0161461 0.0284205 0.0104984 0.00571863 0.0303328 
900 0.447718 0.0504309 0.186409 0.0705227 0.0599227 0.0367546 0.0365532 0.0205919 0.00796902 0.0831275 
901 0.568357 0.112485 0.0789756 0.0527104 0.0322824 0.0234069 0.0410351 0.0183183 0.0103817 0.0620478 
902 0.396983 0.0784224 0.0728905 0.0473762 0.0819434 0.0494663 0.0452158 0.035723 0.0162694 0.17571 
903 0.420839 0.0440942 0.18233 0.0533804 0.0578941 0.040513 0.0459103 0.0300739 0.0109319 0.114034 
904 0.555283 0.126416 0.073692 0.0475858 0.0291776 0.0626314 0.0236097 0.016217 0.00937235 0.0560154 
905 0.657102 0.126334 0.0738276 0.03017 0.0241699 0.0153334 0.0130373 0.0101251 0.0074287 0.042472 
906 0.330858 0.0428186 0.0905644 0.0880701 0.0432928 0.0843928 0.0378983 0.0965258 0.00719966 0.178379 
907 0.64978 0.0875095 0.0775414 0.0434749 0.0243995 0.0176797 0.0196668 0.013577 0.00800869 0.0583624 
908 0.668651 0.127365 0.0735509 0.037661 0.0284553 0.0128881 0.00936539 0.00682489 0.0101872 0.0250518 
909 0.601758 0.0920345 0.0649529 0.0399796 0.0340665 0.0246461 0.0241164 0.0267059 0.00970555 0.0820343 
910 0.565136 0.0875375 0.0706009 0.043456 0.0370288 0.0267892 0.0263259 0.0574798 0.0107109 0.0749351 
911 0.551391 0.10924 0.106323 0.0511699 0.0318064 0.0370855 0.0252894 0.0174272 0.0100718 0.0601956 
912 0.596433 0.101549 0.071658 0.060828 0.0294299 0.0211174 0.0241311 0.0294656 0.00937235 0.0560154 
913 0.772381 0.135025 0.0374979 0.0118772 0.0105238 0.0041018 0.00552831 0.00188463 0.00317676 0.0180034 
914 0.728933 0.112043 0.0594845 0.0251675 0.0151536 0.00988195 0.0175647 0.00515504 0.00292543 0.0236912 
915 0.497944 0.086425 0.222437 0.0630776 0.0244499 0.0176797 0.0196668 0.013577 0.00784662 0.0468966 
916 0.675724 0.139817 0.0699336 0.0235205 0.0282264 0.0127593 0.00910881 0.00663791 0.00393084 0.0303419 
917 0.553244 0.272633 0.0563884 0.0248779 0.0159204 0.0236367 0.0119228 0.0082227 0.00475218 0.0284022 
918 0.600969 0.10115 0.0703207 0.046934 0.0287446 0.0208281 0.0231691 0.021479 0.0176811 0.068724 
919 0.545446 0.091668 0.0886874 0.0454772 0.038712 0.0280069 0.027405 0.0303476 0.0111355 0.0931145 
920 0.716957 0.0909415 0.0475469 0.0317239 0.0194292 0.0147189 0.0229993 0.0120912 0.00624823 0.0373436 
921 0.604834 0.102979 0.0723016 0.048256 0.0295543 0.0214148 0.0238217 0.0164454 0.00955171 0.0708414 
922 0.685504 0.137836 0.0634229 0.0263829 0.0165999 0.0140777 0.0102299 0.00745488 0.00471482 0.0337769 
923 0.35889 0.0362584 0.10568 0.0498688 0.0604584 0.0543134 0.0639119 0.0554195 0.0167388 0.198461 
924 0.777423 0.0802209 0.0496382 0.0231259 0.0164028 0.0115784 0.0089136 0.00611249 0.0105549 0.0160295 
925 0.54401 0.101507 0.103243 0.0421738 0.0776714 0.0212565 0.0205537 0.0227607 0.00806786 0.0587559 
926 0.56632 0.124049 0.0915435 0.051137 0.0313188 0.0226933 0.0252439 0.0174272 0.0100718 0.0601956 
927 0.35889 0.0362584 0.10568 0.0499261 0.0757857 0.0543134 0.0639119 0.0554195 0.0163972 0.183418 
928 0.664496 0.137099 0.0599021 0.0468029 0.0160083 0.0393647 0.00911382 0.00663791 0.00376687 0.016808 
929 0.530504 0.131923 0.124189 0.0465988 0.035523 0.0230239 0.0338641 0.0147805 0.00854189 0.051052 
930 0.579702 0.0874643 0.0706009 0.043456 0.0370288 0.0267892 0.0262135 0.0290281 0.0103656 0.0893517 
931 0.484115 0.0472703 0.10358 0.0481393 0.0483083 0.0451547 0.0528408 0.0313438 0.0121812 0.127066 
932 0.669822 0.154185 0.0698814 0.0265981 0.0151971 0.012888 0.00954879 0.0142865 0.0103124 0.0172815 
933 0.709651 0.128619 0.0581416 0.0381376 0.015219 0.012888 0.00936539 0.00682489 0.00387298 0.0172815 
934 0.553277 0.152813 0.0694249 0.0599257 0.0417563 0.0205476 0.022856 0.0157787 0.00911904 0.0545014 
935 0.35889 0.0362584 0.10568 0.0498688 0.0604584 0.0543134 0.0639119 0.0554195 0.016457 0.198743 
936 0.490648 0.096994 0.112886 0.041148 0.0412388 0.0358222 0.0356609 0.0267333 0.0103986 0.108471 
937 0.725135 0.0912725 0.0680376 0.0322228 0.0199739 0.0129952 0.0179953 0.00678102 0.00366744 0.0219191 
938 0.594226 0.11542 0.151961 0.0448351 0.0296277 0.0133422 0.0113442 0.00881017 0.00482742 0.0256056 
939 0.30639 0.0431732 0.102755 0.0914384 0.0628813 0.0522052 0.0347484 0.0703125 0.0168291 0.219266 
940 0.650036 0.122784 0.102681 0.0265625 0.034007 0.0133421 0.0113442 0.00881017 0.00482742 0.0256056 
941 0.568357 0.112485 0.0799385 0.0669383 0.0324761 0.0233916 0.0260207 0.0179634 0.0103817 0.0620478 
942 0.723219 0.160334 0.0558715 0.0274654 0.0115915 0.00451792 0.00608915 0.00207582 0.00279017 0.00604592 
943 0.586659 0.0813839 0.0885432 0.0421392 0.0340665 0.024646 0.0243932 0.0397623 0.00946629 0.0689403 
944 0.553838 0.0928465 0.0749456 0.0461303 0.0411223 0.0407447 0.0290896 0.0308144 0.0109226 0.0795465 
945 0.718534 0.145177 0.0651875 0.0320245 0.00910705 0.0076895 0.00558775 0.00407199 0.00231077 0.0103108 
946 0.958474 0.0178311 0.0136464 0.00205733 0.0061957 0.000583757 0.000431213 0.000176315 0.000213837 0.000389873 
947 0.811008 0.0962828 0.0491289 0.010175 0.00638458 0.0054145 0.00393457 0.00286726 0.00185934 0.0129452 
948 0.677233 0.110548 0.102148 0.023383 0.0195625 0.0223538 0.0100402 0.00779751 0.00427254 0.0226625 
949 0.624542 0.0773504 0.0556152 0.0639744 0.0451855 0.0302237 0.0192428 0.0213079 0.00755289 0.0550056 
950 0.35889 0.0362584 0.10568 0.0498688 0.0604584 0.0543134 0.0639119 0.0554195 0.0178659 0.197334 
951 0.565209 0.0875073 0.0850505 0.043456 0.037031 0.0412798 0.0262135 0.0290281 0.0102894 0.0749351 
952 0.444675 0.050663 0.111548 0.0518424 0.0520243 0.045191 0.0449876 0.0337251 0.0131198 0.152224 
953 0.77831 0.111195 0.0362071 0.0255528 0.0231186 0.00371032 0.0141442 0.00147662 0.00198476 0.00430071 
