0 1 2 100 0.011364
1 1 2 100 0.988636
0 2 2 100 0.0883522
1 2 2 100 0.388921
2 2 2 100 0.522727
0 3 2 100 0.0456223
1 3 2 100 0.549616
2 3 2 100 0.404762
0 4 2 100 0.13745
1 4 2 100 0.34255
2 4 2 100 0.52
0 5 2 100 0.179003
1 5 2 100 0.404331
2 5 2 100 0.416667
0 6 2 100 0.144108
1 6 2 100 0.713035
2 6 2 100 0.142857
0 7 2 100 8.31254e-05
1 7 2 100 0.499917
2 7 2 100 0.5
1 8 2 100 1
0 9 2 100 0.333333
1 9 2 100 0.333333
2 9 2 100 0.333333
0 10 2 100 0.5
1 10 2 100 0.5
0 11 2 100 1
0 12 2 100 0.5
1 12 2 100 0.5
0 13 2 100 0.5
1 13 2 100 0.5
0 14 2 100 0.000499875
1 14 2 100 0.9995
1 15 2 100 0.5
2 15 2 100 0.5
2 16 2 100 1
0 1 3 100 3.70101e-06
1 1 3 100 0.426725
2 1 3 100 0.573271
0 2 3 100 0.198876
1 2 3 100 0.163023
2 2 3 100 0.451434
3 2 3 100 0.186667
0 3 3 100 0.160624
1 3 3 100 0.0639679
2 3 3 100 0.529507
3 3 3 100 0.245902
0 4 3 100 0.0687162
1 4 3 100 0.129475
2 4 3 100 0.584418
3 4 3 100 0.217391
0 5 3 100 0.0560036
1 5 3 100 0.110838
2 5 3 100 0.444269
3 5 3 100 0.388889
0 6 3 100 0.0104127
1 6 3 100 0.0455238
2 6 3 100 0.262245
3 6 3 100 0.681818
0 7 3 100 0.142857
2 7 3 100 0.142857
3 7 3 100 0.714286
3 8 3 100 1
0 1 4 100 5.24482e-06
1 1 4 100 0.544909
2 1 4 100 0.107368
3 1 4 100 0.347718
0 2 4 100 0.246285
1 2 4 100 0.202588
2 2 4 100 0.0828065
3 2 4 100 0.335372
4 2 4 100 0.132948
0 3 4 100 0.185403
1 3 4 100 0.162061
2 3 4 100 0.0863222
3 3 4 100 0.406214
4 3 4 100 0.16
0 4 4 100 0.121848
1 4 4 100 0.153659
2 4 4 100 0.0882845
3 4 4 100 0.38224
4 4 4 100 0.253968
0 5 4 100 0.133968
1 5 4 100 0.135183
2 5 4 100 0.0640583
3 5 4 100 0.390194
4 5 4 100 0.276596
0 6 4 100 0.0505939
1 6 4 100 0.0942863
2 6 4 100 0.0577486
3 6 4 100 0.385606
4 6 4 100 0.411765
0 7 4 100 0.0906225
1 7 4 100 0.0496525
2 7 4 100 1.44155e-05
3 7 4 100 0.23471
4 7 4 100 0.625
0 8 4 100 0.0176846
1 8 4 100 0.0643384
2 8 4 100 0.0023386
3 8 4 100 0.448971
4 8 4 100 0.466667
0 9 4 100 0.125184
1 9 4 100 7.06083e-05
3 9 4 100 0.499745
4 9 4 100 0.375
0 10 4 100 0.388312
3 10 4 100 0.0116879
4 10 4 100 0.6
0 11 4 100 0.0140223
3 11 4 100 0.985978
0 12 4 100 0.000606671
1 12 4 100 0.000986645
3 12 4 100 0.498407
4 12 4 100 0.5
4 13 4 100 1
0 1 5 100 0.00994941
1 1 5 100 0.605381
2 1 5 100 0.169051
3 1 5 100 0.0428817
4 1 5 100 0.172737
0 2 5 100 0.276177
1 2 5 100 0.212617
2 2 5 100 0.235339
3 2 5 100 0.0432638
4 2 5 100 0.182267
5 2 5 100 0.0503356
0 3 5 100 0.280917
1 3 5 100 0.114796
2 3 5 100 0.189979
3 3 5 100 0.0895976
4 3 5 100 0.20457
5 3 5 100 0.120141
0 4 5 100 0.112793
1 4 5 100 0.103991
2 4 5 100 0.193531
3 4 5 100 0.161111
4 4 5 100 0.316123
5 4 5 100 0.11245
0 5 5 100 0.156326
1 5 5 100 0.09961
2 5 5 100 0.150612
3 5 5 100 0.134113
4 5 5 100 0.273819
5 5 5 100 0.18552
0 6 5 100 0.10088
1 6 5 100 0.0830277
2 6 5 100 0.0935094
3 6 5 100 0.120962
4 6 5 100 0.323843
5 6 5 100 0.277778
0 7 5 100 0.0940795
1 7 5 100 0.0602411
2 7 5 100 0.0926136
3 7 5 100 0.0855679
4 7 5 100 0.321344
5 7 5 100 0.346154
0 8 5 100 0.117336
1 8 5 100 0.0129502
2 8 5 100 0.076285
3 8 5 100 0.0705491
4 8 5 100 0.240527
5 8 5 100 0.482353
0 9 5 100 0.0947159
1 9 5 100 0.0425595
2 9 5 100 0.0724836
3 9 5 100 0.0289846
4 9 5 100 0.215802
5 9 5 100 0.545455
0 10 5 100 0.103328
1 10 5 100 0.0999974
2 10 5 100 0.139023
3 10 5 100 0.049305
4 10 5 100 0.308347
5 10 5 100 0.3
0 11 5 100 0.163718
1 11 5 100 0.0714274
3 11 5 100 0.14217
4 11 5 100 0.0512556
5 11 5 100 0.571429
0 12 5 100 0.136916
1 12 5 100 5.32569e-05
3 12 5 100 0.186204
4 12 5 100 0.176827
5 12 5 100 0.5
0 13 5 100 0.000381854
3 13 5 100 0.656714
4 13 5 100 0.342904
0 14 5 100 0.000187566
3 14 5 100 0.666479
5 14 5 100 0.333333
3 15 5 100 0.499999
5 15 5 100 0.500001
5 16 5 100 1
0 1 6 100 1.27907e-05
1 1 6 100 0.572729
2 1 6 100 0.216246
3 1 6 100 0.110306
4 1 6 100 0.0422473
5 1 6 100 0.0584586
0 2 6 100 0.266667
1 2 6 100 0.102343
2 2 6 100 0.300033
3 2 6 100 0.134229
4 2 6 100 0.042189
5 2 6 100 0.13631
6 2 6 100 0.0182292
0 3 6 100 0.353258
1 3 6 100 0.0531652
2 3 6 100 0.153079
3 3 6 100 0.152098
4 3 6 100 0.0700556
5 3 6 100 0.186514
6 3 6 100 0.0318303
0 4 6 100 0.165566
1 4 6 100 0.0536501
2 4 6 100 0.139763
3 4 6 100 0.184543
4 4 6 100 0.100801
5 4 6 100 0.295402
6 4 6 100 0.060274
0 5 6 100 0.182229
1 5 6 100 0.0388107
2 5 6 100 0.0845179
3 5 6 100 0.171848
4 5 6 100 0.0860265
5 5 6 100 0.337442
6 5 6 100 0.0991254
0 6 6 100 0.089822
1 6 6 100 0.0527896
2 6 6 100 0.063333
3 6 6 100 0.137937
4 6 6 100 0.0772026
5 6 6 100 0.323252
6 6 6 100 0.255664
0 7 6 100 0.0974766
1 7 6 100 0.0462745
2 7 6 100 0.0463947
3 7 6 100 0.116565
4 7 6 100 0.0716146
5 7 6 100 0.334717
6 7 6 100 0.286957
0 8 6 100 0.0938145
1 8 6 100 0.0365714
2 8 6 100 0.0425733
3 8 6 100 0.102475
4 8 6 100 0.0658622
5 8 6 100 0.286752
6 8 6 100 0.371951
0 9 6 100 0.0765925
1 9 6 100 0.0290772
2 9 6 100 0.0288995
3 9 6 100 0.0982177
4 9 6 100 0.0433526
5 9 6 100 0.286967
6 9 6 100 0.436893
0 10 6 100 0.124652
1 10 6 100 0.0122835
2 10 6 100 0.0176729
3 10 6 100 0.115852
4 10 6 100 0.0160353
5 10 6 100 0.351436
6 10 6 100 0.362069
0 11 6 100 0.138807
1 11 6 100 0.0272846
2 11 6 100 0.000117006
3 11 6 100 0.107972
4 11 6 100 0.0333225
5 11 6 100 0.260064
6 11 6 100 0.432433
0 12 6 100 0.0514263
1 12 6 100 0.0476191
3 12 6 100 1.39106e-06
4 12 6 100 0.00866771
5 12 6 100 0.320857
6 12 6 100 0.571429
0 13 6 100 0.11114
1 13 6 100 0.111111
2 13 6 100 5.01569e-05
3 13 6 100 3.62742e-05
5 13 6 100 0.55544
6 13 6 100 0.222222
0 14 6 100 0.285714
5 14 6 100 0.142857
6 14 6 100 0.571429
5 15 6 100 0.333333
6 15 6 100 0.666667
0 16 6 100 1
6 17 6 100 1
0 1 7 100 0.00212708
1 1 7 100 0.483311
2 1 7 100 0.204991
3 1 7 100 0.111926
4 1 7 100 0.0619456
5 1 7 100 0.0254463
6 1 7 100 0.110254
0 2 7 100 0.22251
1 2 7 100 0.0785702
2 2 7 100 0.278575
3 2 7 100 0.130721
4 2 7 100 0.100953
5 2 7 100 0.0279627
6 2 7 100 0.154352
7 2 7 100 0.00635594
0 3 7 100 0.314169
1 3 7 100 0.0437705
2 3 7 100 0.147129
3 3 7 100 0.136837
4 3 7 100 0.109
5 3 7 100 0.0443384
6 3 7 100 0.181302
7 3 7 100 0.0234542
0 4 7 100 0.167432
1 4 7 100 0.0768957
2 4 7 100 0.131575
3 4 7 100 0.141004
4 4 7 100 0.156104
5 4 7 100 0.0643117
6 4 7 100 0.21901
7 4 7 100 0.0436682
0 5 7 100 0.16452
1 5 7 100 0.047086
2 5 7 100 0.0872723
3 5 7 100 0.138238
4 5 7 100 0.14603
5 5 7 100 0.0699085
6 5 7 100 0.251054
7 5 7 100 0.0958905
0 6 7 100 0.154808
1 6 7 100 0.0439983
2 6 7 100 0.0728941
3 6 7 100 0.120139
4 6 7 100 0.165121
5 6 7 100 0.0567272
6 6 7 100 0.234797
7 6 7 100 0.151515
0 7 7 100 0.101057
1 7 7 100 0.0501103
2 7 7 100 0.0492726
3 7 7 100 0.126608
4 7 7 100 0.128327
5 7 7 100 0.0615855
6 7 7 100 0.241968
7 7 7 100 0.241072
0 8 7 100 0.123442
1 8 7 100 0.0429242
2 8 7 100 0.0286559
3 8 7 100 0.0747683
4 8 7 100 0.104561
5 8 7 100 0.066706
6 8 7 100 0.217766
7 8 7 100 0.341177
0 9 7 100 0.12639
1 9 7 100 0.0357876
2 9 7 100 0.0230717
3 9 7 100 0.0734925
4 9 7 100 0.0841392
5 9 7 100 0.0528388
6 9 7 100 0.294756
7 9 7 100 0.309524
0 10 7 100 0.103143
1 10 7 100 0.0258983
2 10 7 100 0.0121332
3 10 7 100 0.0867497
4 10 7 100 0.0937802
5 10 7 100 0.0512702
6 10 7 100 0.282197
7 10 7 100 0.344828
0 11 7 100 0.0644077
1 11 7 100 0.0263449
2 11 7 100 0.000117544
3 11 7 100 0.11809
4 11 7 100 0.105094
5 11 7 100 0.0653129
6 11 7 100 0.278528
7 11 7 100 0.342105
0 12 7 100 0.147672
2 12 7 100 0.00399605
3 12 7 100 0.0177337
4 12 7 100 0.0988856
5 12 7 100 0.0601491
6 12 7 100 0.171564
7 12 7 100 0.5
0 13 7 100 0.132169
3 13 7 100 0.0802774
4 13 7 100 0.0796281
5 13 7 100 0.000381303
6 13 7 100 0.307544
7 13 7 100 0.4
0 14 7 100 0.00799263
3 14 7 100 0.192833
5 14 7 100 0.0666862
6 14 7 100 0.332487
7 14 7 100 0.4
0 15 7 100 2.65576e-06
2 15 7 100 0.111115
3 15 7 100 0.111119
4 15 7 100 0.111103
5 15 7 100 0.111111
6 15 7 100 0.333326
7 15 7 100 0.222222
0 16 7 100 0.142895
2 16 7 100 0.142857
3 16 7 100 0.142857
4 16 7 100 0.142819
6 16 7 100 0.142857
7 16 7 100 0.285714
0 17 7 100 0.00936733
1 17 7 100 4.5053e-06
2 17 7 100 0.200028
3 17 7 100 0.0437877
5 17 7 100 0.00039316
6 17 7 100 0.546419
7 17 7 100 0.2
2 18 7 100 0.25002
3 18 7 100 0.25
7 18 7 100 0.49998
0 19 7 100 0.500345
1 19 7 100 7.96949e-05
3 19 7 100 0.499575
0 20 7 100 0.5
7 20 7 100 0.5
2 21 7 100 1
0 22 7 100 1
0 23 7 100 0.0234324
2 23 7 100 0.976568
2 24 7 100 0.993545
5 24 7 100 0.00531527
6 24 7 100 0.00113933
0 25 7 100 1
6 26 7 100 1
7 27 7 100 1
0 1 8 100 0.00172574
1 1 8 100 0.436894
2 1 8 100 0.220279
3 1 8 100 0.105878
4 1 8 100 0.0858093
5 1 8 100 0.0217511
6 1 8 100 0.0320831
7 1 8 100 0.0955801
0 2 8 100 0.228604
1 2 8 100 0.0729502
2 2 8 100 0.253236
3 2 8 100 0.130111
4 2 8 100 0.106943
5 2 8 100 0.0548356
6 2 8 100 0.0244084
7 2 8 100 0.120321
8 2 8 100 0.00859108
0 3 8 100 0.296565
1 3 8 100 0.0411442
2 3 8 100 0.122724
3 3 8 100 0.138036
4 3 8 100 0.112959
5 3 8 100 0.0888961
6 3 8 100 0.040844
7 3 8 100 0.144968
8 3 8 100 0.0138648
0 4 8 100 0.207402
1 4 8 100 0.0349585
2 4 8 100 0.106875
3 4 8 100 0.152769
4 4 8 100 0.129055
5 4 8 100 0.0895628
6 4 8 100 0.0636222
7 4 8 100 0.192909
8 4 8 100 0.0228471
0 5 8 100 0.171816
1 5 8 100 0.0382553
2 5 8 100 0.0911086
3 5 8 100 0.108852
4 5 8 100 0.11831
5 5 8 100 0.0942973
6 5 8 100 0.0810135
7 5 8 100 0.245988
8 5 8 100 0.0503598
0 6 8 100 0.137586
1 6 8 100 0.0295836
2 6 8 100 0.0665795
3 6 8 100 0.0919654
4 6 8 100 0.136243
5 6 8 100 0.0846986
6 6 8 100 0.0699348
7 6 8 100 0.256515
8 6 8 100 0.126894
0 7 8 100 0.113378
1 7 8 100 0.028323
2 7 8 100 0.0498964
3 7 8 100 0.0802418
4 7 8 100 0.101567
5 7 8 100 0.104886
6 7 8 100 0.0591314
7 7 8 100 0.276025
8 7 8 100 0.186551
0 8 8 100 0.132183
1 8 8 100 0.0253602
2 8 8 100 0.0267818
3 8 8 100 0.0601597
4 8 8 100 0.0912666
5 8 8 100 0.0937168
6 8 8 100 0.0483732
7 8 8 100 0.266159
8 8 8 100 0.256
0 9 8 100 0.151947
1 9 8 100 0.00717096
2 9 8 100 0.0256284
3 9 8 100 0.0651579
4 9 8 100 0.0929066
5 9 8 100 0.0725912
6 9 8 100 0.0493428
7 9 8 100 0.25927
8 9 8 100 0.275986
0 10 8 100 0.106016
1 10 8 100 0.0169817
2 10 8 100 0.0222767
3 10 8 100 0.0448042
4 10 8 100 0.103673
5 10 8 100 0.0736039
6 10 8 100 0.0610001
7 10 8 100 0.289465
8 10 8 100 0.282178
0 11 8 100 0.126878
1 11 8 100 0.00685556
2 11 8 100 0.01317
3 11 8 100 0.0656978
4 11 8 100 0.108765
5 11 8 100 0.0627522
6 11 8 100 0.0366057
7 11 8 100 0.220655
8 11 8 100 0.35862
0 12 8 100 0.0740683
1 12 8 100 0.0108003
2 12 8 100 0.0108715
3 12 8 100 0.084641
4 12 8 100 0.0756952
5 12 8 100 0.0555242
6 12 8 100 0.0312457
7 12 8 100 0.205541
8 12 8 100 0.451613
0 13 8 100 0.0805003
1 13 8 100 0.0199442
2 13 8 100 0.038779
3 13 8 100 0.0233464
4 13 8 100 0.0779401
5 13 8 100 0.0766579
6 13 8 100 0.0196331
7 13 8 100 0.173003
8 13 8 100 0.490196
0 14 8 100 0.0754783
1 14 8 100 1.18491e-05
3 14 8 100 0.115262
5 14 8 100 0.0383896
6 14 8 100 0.00155908
7 14 8 100 0.192376
8 14 8 100 0.576923
3 15 8 100 0.181818
7 15 8 100 0.181818
8 15 8 100 0.636364
0 16 8 100 0.00015921
3 16 8 100 0.5
7 16 8 100 0.249841
8 16 8 100 0.25
0 17 8 100 0.333333
3 17 8 100 0.333333
8 17 8 100 0.333333
0 18 8 100 0.499947
3 18 8 100 0.5
4 18 8 100 2.82392e-05
6 18 8 100 2.4807e-05
1 19 8 100 0.5
3 19 8 100 0.5
0 20 8 100 0.0757114
1 20 8 100 0.381252
2 20 8 100 8.63739e-05
4 20 8 100 0.497531
7 20 8 100 0.0454195
1 21 8 100 0.0479905
2 21 8 100 4.17886e-05
5 21 8 100 0.511946
7 21 8 100 0.440022
0 22 8 100 0.0494338
5 22 8 100 0.450566
8 22 8 100 0.5
5 23 8 100 1
5 24 8 100 1
0 25 8 100 1.44163e-05
7 25 8 100 0.999986
8 26 8 100 1
0 1 9 100 0.00152437
1 1 9 100 0.342389
2 1 9 100 0.211302
3 1 9 100 0.113901
4 1 9 100 0.118055
5 1 9 100 0.0518771
6 1 9 100 0.0505058
7 1 9 100 0.0195892
8 1 9 100 0.0908565
0 2 9 100 0.234843
1 2 9 100 0.0505587
2 2 9 100 0.206931
3 2 9 100 0.112396
4 2 9 100 0.0950212
5 2 9 100 0.0809154
6 2 9 100 0.0647015
7 2 9 100 0.0282904
8 2 9 100 0.12164
9 2 9 100 0.0047022
0 3 9 100 0.270205
1 3 9 100 0.0411479
2 3 9 100 0.116514
3 3 9 100 0.103112
4 3 9 100 0.0876378
5 3 9 100 0.108558
6 3 9 100 0.0795988
7 3 9 100 0.0277735
8 3 9 100 0.154429
9 3 9 100 0.0110236
0 4 9 100 0.211296
1 4 9 100 0.0294056
2 4 9 100 0.0967559
3 4 9 100 0.106255
4 4 9 100 0.102194
5 4 9 100 0.127392
6 4 9 100 0.0948121
7 4 9 100 0.0416239
8 4 9 100 0.175934
9 4 9 100 0.0143312
0 5 9 100 0.172907
1 5 9 100 0.0212065
2 5 9 100 0.0689994
3 5 9 100 0.102407
4 5 9 100 0.0988767
5 5 9 100 0.130478
6 5 9 100 0.116964
7 5 9 100 0.0531622
8 5 9 100 0.186534
9 5 9 100 0.0484653
0 6 9 100 0.155388
1 6 9 100 0.0232892
2 6 9 100 0.0345921
3 6 9 100 0.090188
4 6 9 100 0.0872901
5 6 9 100 0.104897
6 6 9 100 0.112979
7 6 9 100 0.0459399
8 6 9 100 0.221497
9 6 9 100 0.123939
0 7 9 100 0.137097
1 7 9 100 0.0169894
2 7 9 100 0.0225006
3 7 9 100 0.0719445
4 7 9 100 0.0594525
5 7 9 100 0.107523
6 7 9 100 0.10316
7 7 9 100 0.0531148
8 7 9 100 0.265428
9 7 9 100 0.162791
0 8 9 100 0.117872
1 8 9 100 0.0250114
2 8 9 100 0.019607
3 8 9 100 0.0484301
4 8 9 100 0.0648045
5 8 9 100 0.0990091
6 8 9 100 0.0927079
7 8 9 100 0.0459929
8 8 9 100 0.259713
9 8 9 100 0.226852
0 9 9 100 0.109519
1 9 9 100 0.0217899
2 9 9 100 0.0239955
3 9 9 100 0.058759
4 9 9 100 0.061663
5 9 9 100 0.0882682
6 9 9 100 0.0771011
7 9 9 100 0.0594903
8 9 9 100 0.250911
9 9 9 100 0.248503
0 10 9 100 0.133734
1 10 9 100 0.0199052
2 10 9 100 0.0221767
3 10 9 100 0.0323959
4 10 9 100 0.0586232
5 10 9 100 0.0844767
6 10 9 100 0.0886737
7 10 9 100 0.0528935
8 10 9 100 0.248157
9 10 9 100 0.258964
0 11 9 100 0.136974
1 11 9 100 0.0225892
2 11 9 100 0.0123027
3 11 9 100 0.0279485
4 11 9 100 0.0483158
5 11 9 100 0.0899586
6 11 9 100 0.0675436
7 11 9 100 0.048319
8 11 9 100 0.255726
9 11 9 100 0.290323
0 12 9 100 0.146048
1 12 9 100 0.030292
2 12 9 100 0.00759102
3 12 9 100 0.0412849
4 12 9 100 0.0581427
5 12 9 100 0.0662584
6 12 9 100 0.0703501
7 12 9 100 0.047745
8 12 9 100 0.267136
9 12 9 100 0.265152
0 13 9 100 0.123791
1 13 9 100 0.0102937
2 13 9 100 0.00943926
3 13 9 100 0.0511933
4 13 9 100 0.0823883
5 13 9 100 0.0434465
6 13 9 100 0.0520616
7 13 9 100 0.0106784
8 13 9 100 0.214646
9 13 9 100 0.402062
0 14 9 100 0.0844301
1 14 9 100 0.0344411
2 14 9 100 0.0170026
3 14 9 100 0.0352003
4 14 9 100 0.0517087
5 14 9 100 0.067517
6 14 9 100 0.000219109
7 14 9 100 0.0172647
8 14 9 100 0.209457
9 14 9 100 0.482759
0 15 9 100 0.18884
1 15 9 100 0.0597346
2 15 9 100 0.0333333
3 15 9 100 0.054179
4 15 9 100 0.0674025
5 15 9 100 0.0666586
6 15 9 100 3.20073e-05
7 15 9 100 0.033374
8 15 9 100 0.163113
9 15 9 100 0.333333
0 16 9 100 0.115303
1 16 9 100 0.09974
2 16 9 100 0.0499765
3 16 9 100 0.00246854
4 16 9 100 0.0499942
6 16 9 100 0.0859822
7 16 9 100 4.20913e-05
8 16 9 100 0.346493
9 16 9 100 0.25
0 17 9 100 0.0977863
1 17 9 100 0.133291
2 17 9 100 0.0666861
4 17 9 100 0.000510679
5 17 9 100 5.51077e-05
6 17 9 100 0.0669058
8 17 9 100 0.301431
9 17 9 100 0.333334
0 18 9 100 0.20413
1 18 9 100 4.07922e-06
2 18 9 100 6.40594e-05
4 18 9 100 1.03829e-06
5 18 9 100 2.56572e-05
6 18 9 100 0.096906
7 18 9 100 0.000591731
8 18 9 100 0.298277
9 18 9 100 0.4
1 19 9 100 0.166667
8 19 9 100 0.166667
9 19 9 100 0.666667
0 20 9 100 0.5
9 20 9 100 0.5
8 21 9 100 1
0 22 9 100 0.00149957
7 22 9 100 0.00205157
8 22 9 100 0.996449
9 23 9 100 1
0 1 10 100 3.87967e-06
1 1 10 100 0.259216
2 1 10 100 0.224994
3 1 10 100 0.107203
4 1 10 100 0.136504
5 1 10 100 0.0780225
6 1 10 100 0.0425478
7 1 10 100 0.0273112
8 1 10 100 0.0180127
9 1 10 100 0.106184
0 2 10 100 0.203296
1 2 10 100 0.0500613
2 2 10 100 0.202292
3 2 10 100 0.0921713
4 2 10 100 0.113122
5 2 10 100 0.0730748
6 2 10 100 0.0736015
7 2 10 100 0.0462333
8 2 10 100 0.020623
9 2 10 100 0.125525
0 3 10 100 0.260188
1 3 10 100 0.0408915
2 3 10 100 0.108449
3 3 10 100 0.0942227
4 3 10 100 0.10393
5 3 10 100 0.0625151
6 3 10 100 0.0789752
7 3 10 100 0.0587401
8 3 10 100 0.0353152
9 3 10 100 0.151872
10 3 10 100 0.00490197
0 4 10 100 0.229342
1 4 10 100 0.0411992
2 4 10 100 0.0692911
3 4 10 100 0.0721322
4 4 10 100 0.114709
5 4 10 100 0.0855491
6 4 10 100 0.10369
7 4 10 100 0.0854907
8 4 10 100 0.0360366
9 4 10 100 0.14614
10 4 10 100 0.0164204
0 5 10 100 0.160532
1 5 10 100 0.0209428
2 5 10 100 0.0600608
3 5 10 100 0.0705272
4 5 10 100 0.0913315
5 5 10 100 0.0892889
6 5 10 100 0.1191
7 5 10 100 0.0798991
8 5 10 100 0.0587358
9 5 10 100 0.212854
10 5 10 100 0.0367279
0 6 10 100 0.15507
1 6 10 100 0.0175712
2 6 10 100 0.0416396
3 6 10 100 0.058692
4 6 10 100 0.0689734
5 6 10 100 0.0698472
6 6 10 100 0.110635
7 6 10 100 0.0763025
8 6 10 100 0.0634908
9 6 10 100 0.237258
10 6 10 100 0.10052
0 7 10 100 0.152182
1 7 10 100 0.0095613
2 7 10 100 0.0306105
3 7 10 100 0.0519688
4 7 10 100 0.0691071
5 7 10 100 0.074851
6 7 10 100 0.108013
7 7 10 100 0.0686254
8 7 10 100 0.0593829
9 7 10 100 0.231189
10 7 10 100 0.144509
0 8 10 100 0.12172
1 8 10 100 0.00713787
2 8 10 100 0.0354178
3 8 10 100 0.0404703
4 8 10 100 0.0537381
5 8 10 100 0.0588924
6 8 10 100 0.114207
7 8 10 100 0.0742773
8 8 10 100 0.0544486
9 8 10 100 0.250501
10 8 10 100 0.189189
0 9 10 100 0.13456
1 9 10 100 3.30287e-05
2 9 10 100 0.0184784
3 9 10 100 0.0313771
4 9 10 100 0.0358747
5 9 10 100 0.0563324
6 9 10 100 0.0880775
7 9 10 100 0.10206
8 9 10 100 0.0518601
9 9 10 100 0.242457
10 9 10 100 0.238889
0 10 10 100 0.1129
1 10 10 100 0.00113087
2 10 10 100 0.0255413
3 10 10 100 0.0284304
4 10 10 100 0.0460785
5 10 10 100 0.04597
6 10 10 100 0.0548743
7 10 10 100 0.0918539
8 10 10 100 0.0416488
9 10 10 100 0.2669
10 10 10 100 0.284672
0 11 10 100 0.127648
1 11 10 100 5.19352e-05
2 11 10 100 0.0155238
3 11 10 100 0.0113312
4 11 10 100 0.041474
5 11 10 100 0.0477207
6 11 10 100 0.081142
7 11 10 100 0.0724076
8 11 10 100 0.03644
9 11 10 100 0.275444
10 11 10 100 0.290816
0 12 10 100 0.101312
1 12 10 100 0.000227403
2 12 10 100 0.0125247
3 12 10 100 0.00919341
4 12 10 100 0.044098
5 12 10 100 0.0707237
6 12 10 100 0.0720449
7 12 10 100 0.0892081
8 12 10 100 0.0698561
9 12 10 100 0.243041
10 12 10 100 0.28777
0 13 10 100 0.0768501
1 13 10 100 6.46353e-05
2 13 10 100 0.0111983
3 13 10 100 0.0298873
4 13 10 100 0.0202152
5 13 10 100 0.0662615
6 13 10 100 0.0702911
7 13 10 100 0.0609747
8 13 10 100 0.0602693
9 13 10 100 0.210048
10 13 10 100 0.39394
0 14 10 100 0.131531
1 14 10 100 0.00217893
2 14 10 100 0.0311572
3 14 10 100 0.0333278
4 14 10 100 0.0166916
5 14 10 100 0.0500006
6 14 10 100 0.000262555
7 14 10 100 0.000167874
8 14 10 100 0.0337854
9 14 10 100 0.33423
10 14 10 100 0.366667
0 15 10 100 0.158869
1 15 10 100 8.11588e-05
2 15 10 100 0.0262962
3 15 10 100 0.000172104
4 15 10 100 0.0263206
5 15 10 100 0.0789144
6 15 10 100 0.000291063
7 15 10 100 1.72391e-05
8 15 10 100 0.0531767
9 15 10 100 0.261124
10 15 10 100 0.394737
0 16 10 100 0.00490347
1 16 10 100 0.0388776
2 16 10 100 0.0870817
3 16 10 100 9.81904e-06
4 16 10 100 0.0793138
5 16 10 100 0.0434765
6 16 10 100 0.00764522
7 16 10 100 0.0869566
8 16 10 100 0.0434783
9 16 10 100 0.260431
10 16 10 100 0.347826
0 17 10 100 0.0759223
2 17 10 100 0.0666667
3 17 10 100 0.000516782
5 17 10 100 0.00013636
7 17 10 100 0.123832
8 17 10 100 0.000106581
9 17 10 100 0.332819
10 17 10 100 0.4
0 18 10 100 0.228354
1 18 10 100 0.000907577
2 18 10 100 0.0115078
3 18 10 100 1.77844e-05
4 18 10 100 3.68664e-05
5 18 10 100 1.21484e-06
6 18 10 100 1.23457e-06
8 18 10 100 0.0926632
9 18 10 100 0.333177
10 18 10 100 0.333334
1 19 10 100 0.166667
2 19 10 100 0.166667
5 19 10 100 0.166667
9 19 10 100 0.166667
10 19 10 100 0.333333
0 20 10 100 0.249983
2 20 10 100 0.250001
4 20 10 100 1.95578e-05
5 20 10 100 5.28101e-05
6 20 10 100 0.491402
9 20 10 100 0.00854225
0 21 10 100 0.000138164
1 21 10 100 0.222297
2 21 10 100 0.249858
6 21 10 100 7.43113e-05
7 21 10 100 0.249929
8 21 10 100 0.0277033
10 21 10 100 0.250001
0 22 10 100 0.0511497
1 22 10 100 0.00448729
2 22 10 100 0.207622
3 22 10 100 0.000171923
8 22 10 100 0.0699025
10 22 10 100 0.666667
8 23 10 100 1
10 24 10 100 1
0 1 11 100 1.97502e-05
1 1 11 100 0.26814
2 1 11 100 0.217798
3 1 11 100 0.108458
4 1 11 100 0.123592
5 1 11 100 0.0671401
6 1 11 100 0.0538159
7 1 11 100 0.0412993
8 1 11 100 0.0129587
9 1 11 100 0.0353392
10 1 11 100 0.0714384
0 2 11 100 0.228409
1 2 11 100 0.0572131
2 2 11 100 0.161024
3 2 11 100 0.0913631
4 2 11 100 0.111982
5 2 11 100 0.0773297
6 2 11 100 0.054483
7 2 11 100 0.047707
8 2 11 100 0.0333568
9 2 11 100 0.0224418
10 2 11 100 0.114691
0 3 11 100 0.251303
1 3 11 100 0.0555934
2 3 11 100 0.0885359
3 3 11 100 0.0862315
4 3 11 100 0.102809
5 3 11 100 0.0798223
6 3 11 100 0.0642859
7 3 11 100 0.0806842
8 3 11 100 0.0427528
9 3 11 100 0.0358675
10 3 11 100 0.110409
11 3 11 100 0.00170649
0 4 11 100 0.214237
1 4 11 100 0.0492361
2 4 11 100 0.0845137
3 4 11 100 0.0601948
4 4 11 100 0.0926357
5 4 11 100 0.102609
6 4 11 100 0.0706091
7 4 11 100 0.0897903
8 4 11 100 0.0617246
9 4 11 100 0.0378
10 4 11 100 0.129813
11 4 11 100 0.00683763
0 5 11 100 0.171124
1 5 11 100 0.0460486
2 5 11 100 0.0658133
3 5 11 100 0.050581
4 5 11 100 0.0851782
5 5 11 100 0.0965583
6 5 11 100 0.071202
7 5 11 100 0.111959
8 5 11 100 0.0773452
9 5 11 100 0.035302
10 5 11 100 0.152744
11 5 11 100 0.0361448
0 6 11 100 0.182262
1 6 11 100 0.0229265
2 6 11 100 0.0517486
3 6 11 100 0.0484358
4 6 11 100 0.0774253
5 6 11 100 0.0867947
6 6 11 100 0.0824949
7 6 11 100 0.0944437
8 6 11 100 0.0841208
9 6 11 100 0.0330014
10 6 11 100 0.164917
11 6 11 100 0.0714287
0 7 11 100 0.146499
1 7 11 100 0.0249655
2 7 11 100 0.0376196
3 7 11 100 0.0499331
4 7 11 100 0.0566346
5 7 11 100 0.0791595
6 7 11 100 0.0729736
7 7 11 100 0.0973749
8 7 11 100 0.0952696
9 7 11 100 0.0511112
10 7 11 100 0.184613
11 7 11 100 0.103846
0 8 11 100 0.116738
1 8 11 100 0.0181178
2 8 11 100 0.0397314
3 8 11 100 0.0484402
4 8 11 100 0.0459541
5 8 11 100 0.0507763
6 8 11 100 0.0579658
7 8 11 100 0.0919875
8 8 11 100 0.0913845
9 8 11 100 0.0461864
10 8 11 100 0.24038
11 8 11 100 0.152338
0 9 11 100 0.11316
1 9 11 100 0.00426992
2 9 11 100 0.0332499
3 9 11 100 0.0315061
4 9 11 100 0.0252119
5 9 11 100 0.0335814
6 9 11 100 0.0374452
7 9 11 100 0.106519
8 9 11 100 0.0806809
9 9 11 100 0.0573883
10 9 11 100 0.246607
11 9 11 100 0.23038
0 10 11 100 0.135233
1 10 11 100 0.00345398
2 10 11 100 0.0232108
3 10 11 100 0.045625
4 10 11 100 0.0165234
5 10 11 100 0.0374769
6 10 11 100 0.0390208
7 10 11 100 0.0748352
8 10 11 100 0.079359
9 10 11 100 0.0554525
10 10 11 100 0.279283
11 10 11 100 0.210527
0 11 11 100 0.0979825
1 11 11 100 0.000179058
2 11 11 100 0.0166899
3 11 11 100 0.0416519
4 11 11 100 0.0208416
5 11 11 100 0.0379436
6 11 11 100 0.0435002
7 11 11 100 0.0481746
8 11 11 100 0.0858485
9 11 11 100 0.043686
10 11 11 100 0.238503
11 11 11 100 0.324999
0 12 11 100 0.108299
1 12 11 100 0.00654606
2 12 11 100 0.0307321
3 12 11 100 0.0431777
4 12 11 100 0.024828
5 12 11 100 0.0264909
6 12 11 100 0.0364252
7 12 11 100 0.0314481
8 12 11 100 0.0847605
9 12 11 100 0.0429061
10 12 11 100 0.255744
11 12 11 100 0.308642
0 13 11 100 0.134117
1 13 11 100 0.000120317
2 13 11 100 0.026792
3 13 11 100 0.0163312
4 13 11 100 0.0262729
5 13 11 100 0.0185279
6 13 11 100 0.0463281
7 13 11 100 0.0361608
8 13 11 100 0.0536509
9 13 11 100 0.0800882
10 13 11 100 0.195539
11 13 11 100 0.366072
0 14 11 100 0.138528
1 14 11 100 3.07092e-06
2 14 11 100 1.1659e-05
3 14 11 100 0.000260066
4 14 11 100 0.0281738
5 14 11 100 0.0282044
6 14 11 100 0.025953
7 14 11 100 0.101552
8 14 11 100 0.0698254
9 14 11 100 0.0154278
10 14 11 100 0.168945
11 14 11 100 0.423116
0 15 11 100 0.130476
2 15 11 100 0.0501512
3 15 11 100 0.000204054
4 15 11 100 0.0249874
5 15 11 100 0.0500091
6 15 11 100 1.62317e-06
7 15 11 100 0.120695
8 15 11 100 0.0499845
9 15 11 100 0.000176717
10 15 11 100 0.223314
11 15 11 100 0.35
0 16 11 100 0.077779
1 16 11 100 9.0852e-06
2 16 11 100 0.0384104
3 16 11 100 0.000174216
5 16 11 100 0.0767867
6 16 11 100 0.000394771
7 16 11 100 0.191782
8 16 11 100 0.0769271
9 16 11 100 4.08282e-06
10 16 11 100 0.23004
11 16 11 100 0.307693
0 17 11 100 0.263546
1 17 11 100 0.00132564
3 17 11 100 0.00101663
4 17 11 100 0.00147386
5 17 11 100 4.67108e-05
6 17 11 100 0.000108181
7 17 11 100 0.164779
8 17 11 100 0.0065051
9 17 11 100 6.66584e-06
10 17 11 100 0.283414
11 17 11 100 0.277778
0 18 11 100 0.00282949
1 18 11 100 1.61053e-06
3 18 11 100 0.000398265
5 18 11 100 0.07726
7 18 11 100 0.299654
8 18 11 100 0.0843804
9 18 11 100 0.00317586
10 18 11 100 0.224608
11 18 11 100 0.307693
2 19 11 100 0.00168549
10 19 11 100 0.109425
11 19 11 100 0.888889
0 20 11 100 0.00175697
5 20 11 100 0.952354
6 20 11 100 0.045889
11 21 11 100 1
0 1 12 100 0.00373859
1 1 12 100 0.265868
2 1 12 100 0.156296
3 1 12 100 0.0987607
4 1 12 100 0.125003
5 1 12 100 0.0627869
6 1 12 100 0.0631949
7 1 12 100 0.0604366
8 1 12 100 0.0479688
9 1 12 100 0.0254117
10 1 12 100 0.00711172
11 1 12 100 0.0834227
0 2 12 100 0.201475
1 2 12 100 0.0537643
2 2 12 100 0.154782
3 2 12 100 0.0986416
4 2 12 100 0.0786668
5 2 12 100 0.0811137
6 2 12 100 0.0622863
7 2 12 100 0.0580217
8 2 12 100 0.0508977
9 2 12 100 0.041686
10 2 12 100 0.0185758
11 2 12 100 0.100089
0 3 12 100 0.252751
1 3 12 100 0.040967
2 3 12 100 0.0815253
3 3 12 100 0.0771869
4 3 12 100 0.0777694
5 3 12 100 0.0724521
6 3 12 100 0.0785361
7 3 12 100 0.0683942
8 3 12 100 0.0583193
9 3 12 100 0.0461483
10 3 12 100 0.0274158
11 3 12 100 0.114589
12 3 12 100 0.00394478
0 4 12 100 0.189971
1 4 12 100 0.0399882
2 4 12 100 0.0551808
3 4 12 100 0.0854855
4 4 12 100 0.0868692
5 4 12 100 0.0669656
6 4 12 100 0.088119
7 4 12 100 0.0775562
8 4 12 100 0.0573051
9 4 12 100 0.0618276
10 4 12 100 0.0403743
11 4 12 100 0.142437
12 4 12 100 0.0079208
0 5 12 100 0.185373
1 5 12 100 0.0325241
2 5 12 100 0.0356093
3 5 12 100 0.0602297
4 5 12 100 0.0710525
5 5 12 100 0.0551008
6 5 12 100 0.0890318
7 5 12 100 0.088823
8 5 12 100 0.0865379
9 5 12 100 0.076529
10 5 12 100 0.0254559
11 5 12 100 0.161797
12 5 12 100 0.0319362
0 6 12 100 0.14953
1 6 12 100 0.02271
2 6 12 100 0.0386966
3 6 12 100 0.0535472
4 6 12 100 0.0664926
5 6 12 100 0.0379545
6 6 12 100 0.0950496
7 6 12 100 0.0605779
8 6 12 100 0.0855399
9 6 12 100 0.0993451
10 6 12 100 0.0457212
11 6 12 100 0.187104
12 6 12 100 0.057732
0 7 12 100 0.144555
1 7 12 100 0.00978135
2 7 12 100 0.0382942
3 7 12 100 0.0387869
4 7 12 100 0.0544253
5 7 12 100 0.0395291
6 7 12 100 0.0690289
7 7 12 100 0.0717673
8 7 12 100 0.0834649
9 7 12 100 0.106632
10 7 12 100 0.0539304
11 7 12 100 0.217436
12 7 12 100 0.0723685
0 8 12 100 0.140207
1 8 12 100 0.00477164
2 8 12 100 0.0191237
3 8 12 100 0.0373544
4 8 12 100 0.0565184
5 8 12 100 0.0484646
6 8 12 100 0.052515
7 8 12 100 0.0556292
8 8 12 100 0.102272
9 8 12 100 0.0902407
10 8 12 100 0.0517547
11 8 12 100 0.194576
12 8 12 100 0.146572
0 9 12 100 0.122889
1 9 12 100 0.00831191
2 9 12 100 0.0167903
3 9 12 100 0.0222797
4 9 12 100 0.036037
5 9 12 100 0.0423418
6 9 12 100 0.0571536
7 9 12 100 0.0421548
8 9 12 100 0.109927
9 9 12 100 0.0588455
10 9 12 100 0.0679266
11 9 12 100 0.190966
12 9 12 100 0.224377
0 10 12 100 0.124331
1 10 12 100 0.00351033
2 10 12 100 0.0127701
3 10 12 100 0.0319419
4 10 12 100 0.0263205
5 10 12 100 0.042423
6 10 12 100 0.0777387
7 10 12 100 0.0469738
8 10 12 100 0.104699
9 10 12 100 0.0602437
10 10 12 100 0.0479317
11 10 12 100 0.178259
12 10 12 100 0.242857
0 11 12 100 0.141671
1 11 12 100 0.0046893
2 11 12 100 0.00468238
3 11 12 100 0.0472965
4 11 12 100 0.0431694
5 11 12 100 0.0320895
6 11 12 100 0.0636424
7 11 12 100 0.0466532
8 11 12 100 0.0780905
9 11 12 100 0.0604349
10 11 12 100 0.0484969
11 11 12 100 0.207385
12 11 12 100 0.221698
0 12 12 100 0.0763245
1 12 12 100 0.00606106
2 12 12 100 0.00606622
3 12 12 100 0.0243682
4 12 12 100 0.0311097
5 12 12 100 0.0479855
6 12 12 100 0.0535786
7 12 12 100 0.0386092
8 12 12 100 0.0933582
9 12 12 100 0.0762564
10 12 12 100 0.0364138
11 12 12 100 0.194717
12 12 12 100 0.315152
0 13 12 100 0.113791
1 13 12 100 2.78696e-06
2 13 12 100 0.00885149
3 13 12 100 0.0353692
4 13 12 100 0.0173767
5 13 12 100 0.0177149
6 13 12 100 0.035826
7 13 12 100 0.0402372
8 13 12 100 0.0526055
9 13 12 100 0.106672
10 13 12 100 0.0269954
11 13 12 100 0.199425
12 13 12 100 0.345133
0 14 12 100 0.101672
1 14 12 100 0.0150913
2 14 12 100 1.29306e-05
3 14 12 100 0.0405912
4 14 12 100 0.0251588
5 14 12 100 0.0273375
6 14 12 100 0.0404607
7 14 12 100 0.0542349
8 14 12 100 0.0737345
9 14 12 100 0.133627
10 14 12 100 0.000661834
11 14 12 100 0.190119
12 14 12 100 0.297298
0 15 12 100 0.0794725
1 15 12 100 0.0386806
2 15 12 100 4.07352e-07
3 15 12 100 0.0574355
4 15 12 100 0.00207294
5 15 12 100 0.0517337
6 15 12 100 0.00010389
7 15 12 100 0.0578917
8 15 12 100 0.0736568
9 15 12 100 0.079216
10 15 12 100 0.000559426
11 15 12 100 0.251484
12 15 12 100 0.307693
0 16 12 100 0.119112
1 16 12 100 0.0500344
3 16 12 100 0.0311651
4 16 12 100 4.77428e-05
5 16 12 100 0.102874
6 16 12 100 5.69788e-05
7 16 12 100 0.0833283
8 16 12 100 0.0280121
9 16 12 100 0.0838739
10 16 12 100 0.00149205
11 16 12 100 0.138892
12 16 12 100 0.361111
0 17 12 100 0.171178
1 17 12 100 0.0857192
2 17 12 100 0.00247231
3 17 12 100 0.0830423
4 17 12 100 1.07947e-05
5 17 12 100 0.0434784
6 17 12 100 1.16897e-06
7 17 12 100 0.130408
8 17 12 100 0.0830515
9 17 12 100 0.0473543
10 17 12 100 0.0441656
11 17 12 100 0.0917259
12 17 12 100 0.217392
0 18 12 100 0.166909
2 18 12 100 0.00122004
4 18 12 100 0.00372833
5 18 12 100 0.0555564
6 18 12 100 0.0555511
8 18 12 100 0.0627899
9 18 12 100 0.0555631
10 18 12 100 0.0557663
11 18 12 100 0.154026
12 18 12 100 0.388889
0 19 12 100 0.26219
2 19 12 100 0.00470449
3 19 12 100 0.0907929
4 19 12 100 0.00494877
5 19 12 100 0.00011622
6 19 12 100 0.0909091
7 19 12 100 5.17276e-06
9 19 12 100 0.0912396
10 19 12 100 0.0909091
11 19 12 100 0.000548715
12 19 12 100 0.363636
0 20 12 100 0.401445
3 20 12 100 0.142409
4 20 12 100 0.000430252
5 20 12 100 0.0171443
6 20 12 100 0.140607
7 20 12 100 0.0100671
8 20 12 100 0.000104682
9 20 12 100 0.00701513
10 20 12 100 6.31311e-05
11 20 12 100 0.137857
12 20 12 100 0.142857
0 21 12 100 0.166665
2 21 12 100 4.01882e-06
3 21 12 100 0.166666
6 21 12 100 0.333103
8 21 12 100 0.00022341
9 21 12 100 4.73416e-06
10 21 12 100 0.166667
12 21 12 100 0.166667
0 22 12 100 0.00087788
2 22 12 100 0.2
3 22 12 100 0.2
5 22 12 100 0.000286343
8 22 12 100 0.0569989
9 22 12 100 0.000639768
10 22 12 100 0.199999
11 22 12 100 0.341197
0 23 12 100 0.148465
1 23 12 100 8.7065e-06
2 23 12 100 0.196112
3 23 12 100 0.197173
4 23 12 100 2.54681e-05
8 23 12 100 0.00282645
11 23 12 100 0.25539
12 23 12 100 0.2
0 24 12 100 0.250318
2 24 12 100 0.25
6 24 12 100 4.80013e-06
11 24 12 100 0.499677
0 25 12 100 0.00024425
3 25 12 100 0.499756
12 25 12 100 0.5
0 26 12 100 0.00112664
1 26 12 100 7.29274e-05
3 26 12 100 0.500026
4 26 12 100 0.000605087
10 26 12 100 0.49817
0 27 12 100 0.5
12 27 12 100 0.5
0 28 12 100 0.846681
4 28 12 100 0.00265509
10 28 12 100 0.150664
7 29 12 100 1
7 30 12 100 1
0 31 12 100 2.32601e-05
6 31 12 100 0.999977
0 32 12 100 0.962359
4 32 12 100 0.0271951
6 32 12 100 0.0104459
12 33 12 100 1
0 1 13 100 0.0024445
1 1 13 100 0.255535
2 1 13 100 0.20935
3 1 13 100 0.129508
4 1 13 100 0.0919769
5 1 13 100 0.10007
6 1 13 100 0.0463508
7 1 13 100 0.0326223
8 1 13 100 0.0199558
9 1 13 100 0.0344836
10 1 13 100 0.0120873
11 1 13 100 0.0112656
12 1 13 100 0.0543499
0 2 13 100 0.215896
1 2 13 100 0.0384088
2 2 13 100 0.174096
3 2 13 100 0.108653
4 2 13 100 0.0971539
5 2 13 100 0.0914623
6 2 13 100 0.0651662
7 2 13 100 0.0529754
8 2 13 100 0.0222017
9 2 13 100 0.0324015
10 2 13 100 0.0255916
11 2 13 100 0.00530344
12 2 13 100 0.0682332
13 2 13 100 0.00245701
0 3 13 100 0.233523
1 3 13 100 0.051707
2 3 13 100 0.0779973
3 3 13 100 0.107904
4 3 13 100 0.067167
5 3 13 100 0.0811241
6 3 13 100 0.104791
7 3 13 100 0.0783612
8 3 13 100 0.0402785
9 3 13 100 0.0519525
10 3 13 100 0.0291491
11 3 13 100 0.0125992
12 3 13 100 0.0609825
13 3 13 100 0.00246306
0 4 13 100 0.183982
1 4 13 100 0.03043
2 4 13 100 0.0680483
3 4 13 100 0.0925175
4 4 13 100 0.0787185
5 4 13 100 0.087199
6 4 13 100 0.0980666
7 4 13 100 0.0983829
8 4 13 100 0.0697854
9 4 13 100 0.0467775
10 4 13 100 0.0386736
11 4 13 100 0.0264355
12 4 13 100 0.0735759
13 4 13 100 0.00740742
0 5 13 100 0.206848
1 5 13 100 0.0316276
2 5 13 100 0.0332635
3 5 13 100 0.0632975
4 5 13 100 0.0525688
5 5 13 100 0.0999189
6 5 13 100 0.0735829
7 5 13 100 0.0857351
8 5 13 100 0.072656
9 5 13 100 0.0832351
10 5 13 100 0.0255528
11 5 13 100 0.0325403
12 5 13 100 0.109322
13 5 13 100 0.0298508
0 6 13 100 0.15998
1 6 13 100 0.0231762
2 6 13 100 0.0370294
3 6 13 100 0.0438064
4 6 13 100 0.0504318
5 6 13 100 0.0831371
6 6 13 100 0.0727933
7 6 13 100 0.0730164
8 6 13 100 0.0823401
9 6 13 100 0.0612279
10 6 13 100 0.0622404
11 6 13 100 0.0477813
12 6 13 100 0.151758
13 6 13 100 0.0512821
0 7 13 100 0.140114
1 7 13 100 0.0216866
2 7 13 100 0.0381945
3 7 13 100 0.0274074
4 7 13 100 0.0481989
5 7 13 100 0.0616995
6 7 13 100 0.0658029
7 7 13 100 0.0762701
8 7 13 100 0.0797142
9 7 13 100 0.0848523
10 7 13 100 0.0737014
11 7 13 100 0.0363982
12 7 13 100 0.181095
13 7 13 100 0.0648649
0 8 13 100 0.142736
1 8 13 100 0.017409
2 8 13 100 0.026056
3 8 13 100 0.0314421
4 8 13 100 0.0375162
5 8 13 100 0.03652
6 8 13 100 0.0485932
7 8 13 100 0.0776127
8 8 13 100 0.0685464
9 8 13 100 0.0691158
10 8 13 100 0.0811415
11 8 13 100 0.0374709
12 8 13 100 0.195782
13 8 13 100 0.130058
0 9 13 100 0.117358
1 9 13 100 0.0134639
2 9 13 100 0.0273604
3 9 13 100 0.0286921
4 9 13 100 0.0313846
5 9 13 100 0.0403943
6 9 13 100 0.0342521
7 9 13 100 0.0568407
8 9 13 100 0.0657838
9 9 13 100 0.0734801
10 9 13 100 0.0928209
11 9 13 100 0.0605733
12 9 13 100 0.228027
13 9 13 100 0.129568
0 10 13 100 0.0680147
1 10 13 100 0.0149054
2 10 13 100 0.0299944
3 10 13 100 0.0123884
4 10 13 100 0.0417997
5 10 13 100 0.021797
6 10 13 100 0.027737
7 10 13 100 0.0625596
8 10 13 100 0.0577477
9 10 13 100 0.0784644
10 10 13 100 0.10644
11 10 13 100 0.0586201
12 10 13 100 0.201974
13 10 13 100 0.217557
0 11 13 100 0.162405
1 11 13 100 0.00487851
2 11 13 100 0.0239435
3 11 13 100 0.0163272
4 11 13 100 0.0289636
5 11 13 100 0.04262
6 11 13 100 0.0194159
7 11 13 100 0.0503022
8 11 13 100 0.0370962
9 11 13 100 0.0738511
10 11 13 100 0.0954189
11 11 13 100 0.0264007
12 11 13 100 0.179353
13 11 13 100 0.239025
0 12 13 100 0.117247
1 12 13 100 0.0134888
2 12 13 100 0.00844821
3 12 13 100 0.0172293
4 12 13 100 0.0139601
5 12 13 100 0.0430879
6 12 13 100 0.026597
7 12 13 100 0.070929
8 12 13 100 0.0195814
9 12 13 100 0.0824811
10 12 13 100 0.0650079
11 12 13 100 0.0770271
12 12 13 100 0.214146
13 12 13 100 0.23077
0 13 13 100 0.116757
1 13 13 100 0.0156798
2 13 13 100 0.0137867
3 13 13 100 0.0174665
4 13 13 100 0.00887776
5 13 13 100 0.0332073
6 13 13 100 0.0139287
7 13 13 100 0.0499938
8 13 13 100 0.0251019
9 13 13 100 0.0579302
10 13 13 100 0.0727896
11 13 13 100 0.0579705
12 13 13 100 0.283177
13 13 13 100 0.233334
0 14 13 100 0.118503
1 14 13 100 0.021902
2 14 13 100 2.43824e-05
3 14 13 100 0.021577
4 14 13 100 7.12194e-06
5 14 13 100 0.0116646
6 14 13 100 0.0116099
7 14 13 100 0.0441903
8 14 13 100 0.0430318
9 14 13 100 0.068294
10 14 13 100 0.064099
11 14 13 100 0.0218304
12 14 13 100 0.279788
13 14 13 100 0.293479
0 15 13 100 0.10004
1 15 13 100 0.0153821
2 15 13 100 2.75851e-05
3 15 13 100 0.000618856
4 15 13 100 1.20566e-05
5 15 13 100 0.0593907
6 15 13 100 0.0154177
7 15 13 100 0.0307992
8 15 13 100 0.0158294
9 15 13 100 0.092717
10 15 13 100 0.077384
11 15 13 100 0.0404657
12 15 13 100 0.259607
13 15 13 100 0.292308
0 16 13 100 0.134902
1 16 13 100 1.83504e-05
2 16 13 100 0.000660832
3 16 13 100 1.81089e-05
4 16 13 100 5.30505e-05
5 16 13 100 0.0261532
6 16 13 100 0.0659431
7 16 13 100 0.0567607
8 16 13 100 0.0212907
9 16 13 100 0.129855
10 16 13 100 0.0672389
11 16 13 100 0.0435024
12 16 13 100 0.192734
13 16 13 100 0.26087
0 17 13 100 0.118801
1 17 13 100 1.20208e-05
2 17 13 100 5.42139e-07
3 17 13 100 5.40868e-06
4 17 13 100 0.000186232
5 17 13 100 3.56287e-05
6 17 13 100 0.0589642
7 17 13 100 0.0576534
8 17 13 100 0.0882466
9 17 13 100 0.031773
10 17 13 100 0.0876707
11 17 13 100 0.0882381
12 17 13 100 0.233119
13 17 13 100 0.235294
0 18 13 100 0.0799292
1 18 13 100 0.0384615
5 18 13 100 0.000109032
6 18 13 100 0.038577
7 18 13 100 0.0235102
8 18 13 100 0.0740848
9 18 13 100 0.00580194
10 18 13 100 0.151441
11 18 13 100 0.0860123
12 18 13 100 0.117457
13 18 13 100 0.384616
0 19 13 100 0.0695071
1 19 13 100 7.1073e-06
3 19 13 100 1.33679e-06
5 19 13 100 6.00508e-06
6 19 13 100 0.0626826
7 19 13 100 0.0625043
8 19 13 100 0.00020012
9 19 13 100 0.0618088
10 19 13 100 0.190968
11 19 13 100 0.000663636
12 19 13 100 0.176651
13 19 13 100 0.375
0 20 13 100 0.0997188
1 20 13 100 0.10101
3 20 13 100 9.44102e-05
5 20 13 100 8.92821e-06
6 20 13 100 0.105105
7 20 13 100 0.100005
10 20 13 100 0.1
11 20 13 100 0.000296376
12 20 13 100 0.293761
13 20 13 100 0.2
0 21 13 100 0.374992
2 21 13 100 7.28694e-06
6 21 13 100 0.125
10 21 13 100 0.00515689
12 21 13 100 0.119843
13 21 13 100 0.375001
0 22 13 100 0.411204
1 22 13 100 0.2
2 22 13 100 8.59096e-06
10 22 13 100 0.0345403
11 22 13 100 0.0875681
12 22 13 100 0.266679
0 23 13 100 0.399285
1 23 13 100 0.000482964
5 23 13 100 0.000237599
7 23 13 100 0.199775
12 23 13 100 0.200218
13 23 13 100 0.200001
0 24 13 100 0.280517
2 24 13 100 0.00566692
4 24 13 100 0.000129732
5 24 13 100 0.260926
7 24 13 100 0.000590846
10 24 13 100 0.197037
11 24 13 100 0.00513258
13 24 13 100 0.25
5 25 13 100 0.333333
13 25 13 100 0.666667
0 26 13 100 0.000117693
3 26 13 100 0.00165056
6 26 13 100 0.996702
8 26 13 100 0.00152951
13 27 13 100 1
0 1 14 100 7.47165e-06
1 1 14 100 0.184813
2 1 14 100 0.150259
3 1 14 100 0.193879
4 1 14 100 0.155018
5 1 14 100 0.0990736
6 1 14 100 0.0488007
7 1 14 100 0.0476704
8 1 14 100 0.0425771
9 1 14 100 0.0228332
10 1 14 100 0.0187278
11 1 14 100 7.33154e-05
12 1 14 100 0.00614006
13 1 14 100 0.0301279
0 2 14 100 0.209814
1 2 14 100 0.0194333
2 2 14 100 0.128894
3 2 14 100 0.112113
4 2 14 100 0.133692
5 2 14 100 0.090696
6 2 14 100 0.0773678
7 2 14 100 0.0674367
8 2 14 100 0.0411893
9 2 14 100 0.0437846
10 2 14 100 0.0352232
11 2 14 100 6.25918e-06
12 2 14 100 0.00721431
13 2 14 100 0.0331358
0 3 14 100 0.206976
1 3 14 100 0.0187703
2 3 14 100 0.0999823
3 3 14 100 0.0695983
4 3 14 100 0.087293
5 3 14 100 0.113852
6 3 14 100 0.100601
7 3 14 100 0.0805422
8 3 14 100 0.0424305
9 3 14 100 0.0371033
10 3 14 100 0.0618996
11 3 14 100 0.00630265
12 3 14 100 0.00657159
13 3 14 100 0.0680769
0 4 14 100 0.175289
1 4 14 100 0.0120808
2 4 14 100 0.0610797
3 4 14 100 0.0700152
4 4 14 100 0.0711285
5 4 14 100 0.108248
6 4 14 100 0.0987028
7 4 14 100 0.0811042
8 4 14 100 0.0642443
9 4 14 100 0.0524628
10 4 14 100 0.068653
11 4 14 100 0.0218719
12 4 14 100 0.0118659
13 4 14 100 0.0973715
14 4 14 100 0.00588236
0 5 14 100 0.170565
1 5 14 100 0.00634877
2 5 14 100 0.0552497
3 5 14 100 0.0557855
4 5 14 100 0.0362239
5 5 14 100 0.0762509
6 5 14 100 0.0824258
7 5 14 100 0.0992166
8 5 14 100 0.102103
9 5 14 100 0.0640047
10 5 14 100 0.0781185
11 5 14 100 0.0342099
12 5 14 100 0.0160247
13 5 14 100 0.099805
14 5 14 100 0.0236687
0 6 14 100 0.217144
1 6 14 100 0.00989888
2 6 14 100 0.025451
3 6 14 100 0.0476596
4 6 14 100 0.0326811
5 6 14 100 0.0777508
6 6 14 100 0.0474434
7 6 14 100 0.0584995
8 6 14 100 0.0837842
9 6 14 100 0.0465834
10 6 14 100 0.0857868
11 6 14 100 0.0527285
12 6 14 100 0.0242009
13 6 14 100 0.147964
14 6 14 100 0.0424243
0 7 14 100 0.124198
1 7 14 100 0.00633407
2 7 14 100 0.0376913
3 7 14 100 0.0520335
4 7 14 100 0.0206695
5 7 14 100 0.0730334
6 7 14 100 0.0704891
7 7 14 100 0.0951311
8 7 14 100 0.0454317
9 7 14 100 0.080687
10 7 14 100 0.0578546
11 7 14 100 0.0620135
12 7 14 100 0.0357025
13 7 14 100 0.143794
14 7 14 100 0.0949369
0 8 14 100 0.0965092
1 8 14 100 0.00699474
2 8 14 100 0.057908
3 8 14 100 0.0352602
4 8 14 100 0.0348
5 8 14 100 0.0507234
6 8 14 100 0.0447381
7 8 14 100 0.04843
8 8 14 100 0.0774641
9 8 14 100 0.0489662
10 8 14 100 0.0688272
11 8 14 100 0.112797
12 8 14 100 0.0625809
13 8 14 100 0.156099
14 8 14 100 0.0979023
0 9 14 100 0.14125
1 9 14 100 0.0226047
2 9 14 100 0.0387854
3 9 14 100 0.0311796
4 9 14 100 0.0212521
5 9 14 100 0.0382382
6 9 14 100 0.0467927
7 9 14 100 0.0794806
8 9 14 100 0.0298996
9 9 14 100 0.0654895
10 9 14 100 0.0710956
11 9 14 100 0.0988714
12 9 14 100 0.022267
13 9 14 100 0.16101
14 9 14 100 0.131783
0 10 14 100 0.102974
1 10 14 100 0.00893108
2 10 14 100 0.0178613
3 10 14 100 0.0176345
4 10 14 100 0.0183878
5 10 14 100 0.0342736
6 10 14 100 0.0352796
7 10 14 100 0.0333248
8 10 14 100 0.0448502
9 10 14 100 0.0675383
10 10 14 100 0.082716
11 10 14 100 0.0992617
12 10 14 100 0.0516744
13 10 14 100 0.197793
14 10 14 100 0.1875
0 11 14 100 0.115241
2 11 14 100 0.0223301
3 11 14 100 0.00270695
4 11 14 100 9.18166e-05
5 11 14 100 0.0110023
6 11 14 100 0.0327779
7 11 14 100 0.0489379
8 11 14 100 0.0497156
9 11 14 100 0.0623298
10 11 14 100 0.0272698
11 11 14 100 0.117632
12 11 14 100 0.0722436
13 11 14 100 0.22893
14 11 14 100 0.208791
0 12 14 100 0.145573
1 12 14 100 1.33303e-05
2 12 14 100 0.000100334
3 12 14 100 0.0151674
4 12 14 100 1.64136e-06
5 12 14 100 0.0144137
6 12 14 100 0.0138846
7 12 14 100 0.0411936
8 12 14 100 0.0699385
9 12 14 100 0.041728
10 12 14 100 0.0281517
11 12 14 100 0.0966014
12 12 14 100 0.0408486
13 12 14 100 0.29794
14 12 14 100 0.194445
0 13 14 100 0.169413
1 13 14 100 1.80568e-05
2 13 14 100 0.0172416
3 13 14 100 0.0171093
4 13 14 100 0.0153947
5 13 14 100 0.0514867
6 13 14 100 0.0353347
7 13 14 100 0.0172425
8 13 14 100 0.0366936
9 13 14 100 0.0415433
10 13 14 100 0.0344896
11 13 14 100 0.0791677
13 13 14 100 0.209003
14 13 14 100 0.275862
0 14 14 100 0.0779596
2 14 14 100 0.0004963
3 14 14 100 0.00517596
4 14 14 100 3.91468e-05
5 14 14 100 0.0242433
6 14 14 100 0.0377579
7 14 14 100 0.000227346
8 14 14 100 0.0950094
9 14 14 100 0.0104048
10 14 14 100 0.0471297
11 14 14 100 0.0744023
12 14 14 100 0.0420127
13 14 14 100 0.275617
14 14 14 100 0.309524
0 15 14 100 0.10811
2 15 14 100 0.00157229
3 15 14 100 3.37728e-05
4 15 14 100 2.97908e-05
5 15 14 100 1.49174e-05
6 15 14 100 0.0345377
7 15 14 100 4.20415e-06
8 15 14 100 0.103086
9 15 14 100 0.0131306
10 15 14 100 0.0674115
11 15 14 100 0.0560535
12 15 14 100 0.0689388
13 15 14 100 0.34018
14 15 14 100 0.206897
0 16 14 100 0.0871522
1 16 14 100 0.000187932
2 16 14 100 3.94793e-06
3 16 14 100 0.000180841
5 16 14 100 4.24965e-06
6 16 14 100 5.00958e-05
7 16 14 100 2.09934e-06
8 16 14 100 0.0434741
9 16 14 100 0.0434783
10 16 14 100 5.06826e-06
11 16 14 100 0.130422
12 16 14 100 0.0434542
13 16 14 100 0.347236
14 16 14 100 0.304348
0 17 14 100 0.065376
2 17 14 100 3.4269e-06
8 17 14 100 0.0618732
9 17 14 100 0.0625001
10 17 14 100 0.0628875
11 17 14 100 0.0602098
12 17 14 100 0.124199
13 17 14 100 0.124945
14 17 14 100 0.438007
0 18 14 100 0.109252
8 18 14 100 0.111111
9 18 14 100 0.00185898
11 18 14 100 0.222222
12 18 14 100 0.222222
13 18 14 100 0.111111
14 18 14 100 0.222222
0 19 14 100 0.143198
10 19 14 100 0.142857
11 19 14 100 0.142515
12 19 14 100 0.142857
13 19 14 100 0.285715
14 19 14 100 0.142857
4 20 14 100 7.82754e-05
10 20 14 100 0.166588
12 20 14 100 0.166667
13 20 14 100 0.170026
14 20 14 100 0.496641
12 21 14 100 0.333333
14 21 14 100 0.666667
12 22 14 100 1
14 23 14 100 1
1 1 15 100 0.285168
2 1 15 100 0.0714287
3 1 15 100 0.142853
5 1 15 100 0.142857
6 1 15 100 0.0714287
7 1 15 100 0.0719749
9 1 15 100 0.0714284
12 1 15 100 0.00817703
14 1 15 100 0.134684
0 2 15 100 0.144181
2 2 15 100 0.142857
3 2 15 100 0.142704
4 2 15 100 0.0714287
5 2 15 100 0.213108
7 2 15 100 0.0714287
9 2 15 100 0.142859
12 2 15 100 0.000663498
13 2 15 100 1.8376e-06
14 2 15 100 0.0707687
0 3 15 100 0.0712937
1 3 15 100 0.000915936
3 3 15 100 0.238913
4 3 15 100 0.0762508
5 3 15 100 0.283284
6 3 15 100 0.00032583
7 3 15 100 0.132104
8 3 15 100 0.0344697
9 3 15 100 0.0715313
10 3 15 100 0.000246131
11 3 15 100 3.00347e-06
12 3 15 100 2.02768e-05
13 3 15 100 0.0170941
14 3 15 100 0.0735487
0 4 15 100 0.354378
1 4 15 100 2.73739e-05
2 4 15 100 2.97696e-05
3 4 15 100 0.142706
4 4 15 100 0.142807
5 4 15 100 0.142939
6 4 15 100 0.00208587
7 4 15 100 9.0672e-07
8 4 15 100 0.00228498
9 4 15 100 0.0689743
10 4 15 100 0.0713516
11 4 15 100 1.49823e-05
12 4 15 100 0.00012171
13 4 15 100 4.20675e-05
14 4 15 100 0.0722359
0 5 15 100 0.214109
2 5 15 100 0.000130102
3 5 15 100 0.142857
5 5 15 100 0.214319
6 5 15 100 0.0353514
7 5 15 100 7.37075e-05
8 5 15 100 0.0115175
9 5 15 100 0.0232319
10 5 15 100 0.142857
11 5 15 100 0.0724742
12 5 15 100 0.0716497
14 5 15 100 0.0714285
0 6 15 100 0.213802
3 6 15 100 0.0714265
4 6 15 100 0.0715757
5 6 15 100 0.0714303
7 6 15 100 0.00984267
8 6 15 100 0.0714291
9 6 15 100 0.0714286
10 6 15 100 0.0615279
11 6 15 100 0.142857
12 6 15 100 0.053128
13 6 15 100 0.000336535
14 6 15 100 0.161216
0 7 15 100 0.155936
3 7 15 100 0.071433
4 7 15 100 0.00956585
6 7 15 100 0.167017
7 7 15 100 1.82468e-05
8 7 15 100 0.0681612
9 7 15 100 0.0711835
10 7 15 100 2.34767e-05
11 7 15 100 0.0538082
12 7 15 100 0.0233305
13 7 15 100 0.000217416
14 7 15 100 0.307887
15 7 15 100 0.0714198
0 8 15 100 1.45692e-05
3 8 15 100 0.00201796
5 8 15 100 0.0748965
6 8 15 100 0.10235
8 8 15 100 0.0758167
10 8 15 100 0.202048
11 8 15 100 0.159325
13 8 15 100 0.000118764
14 8 15 100 0.30649
15 8 15 100 0.0769232
0 9 15 100 0.179791
4 9 15 100 1.29365e-06
7 9 15 100 3.64446e-06
10 9 15 100 0.0833334
11 9 15 100 0.0833334
13 9 15 100 0.153537
14 9 15 100 0.249999
15 9 15 100 0.25
0 10 15 100 0.333322
3 10 15 100 0.111111
4 10 15 100 6.55623e-06
6 10 15 100 0.00128622
8 10 15 100 4.64646e-06
9 10 15 100 3.94444e-05
10 10 15 100 0.194986
11 10 15 100 0.110112
13 10 15 100 0.13802
14 10 15 100 0.111111
0 11 15 100 0.222224
1 11 15 100 9.22714e-05
3 11 15 100 0.111111
6 11 15 100 0.000538627
7 11 15 100 0.0273213
9 11 15 100 0.000379473
11 11 15 100 0.110585
13 11 15 100 0.114284
14 11 15 100 0.302352
15 11 15 100 0.111111
0 12 15 100 0.132199
1 12 15 100 0.0010831
2 12 15 100 4.51273e-05
3 12 15 100 0.118278
6 12 15 100 0.000926475
8 12 15 100 0.00180167
10 12 15 100 0.12502
11 12 15 100 0.12064
12 12 15 100 2.81053e-05
13 12 15 100 0.124997
14 12 15 100 0.249982
15 12 15 100 0.125
0 13 15 100 0.142912
7 13 15 100 0.142856
9 13 15 100 5.64368e-05
10 13 15 100 0.143082
11 13 15 100 0.142683
13 13 15 100 0.142858
14 13 15 100 0.285553
0 14 15 100 0.153524
1 14 15 100 0.000939462
2 14 15 100 0.000423735
7 14 15 100 0.000429951
8 14 15 100 0.13193
10 14 15 100 0.136302
11 14 15 100 0.00502201
12 14 15 100 1.01713e-05
13 14 15 100 0.142847
14 14 15 100 0.285715
15 14 15 100 0.142858
0 15 15 100 0.166667
4 15 15 100 0.00116911
5 15 15 100 9.50104e-06
9 15 15 100 0.167674
10 15 15 100 0.165488
11 15 15 100 0.165613
14 15 15 100 0.166713
15 15 15 100 0.166667
0 16 15 100 0.000107118
2 16 15 100 1.03256e-05
3 16 15 100 0.00157778
4 16 15 100 0.000462082
6 16 15 100 1.36452e-05
8 16 15 100 0.0418331
9 16 15 100 0.0114604
10 16 15 100 0.128862
11 16 15 100 0.264984
13 16 15 100 0.156248
14 16 15 100 0.394442
0 17 15 100 0.400718
3 17 15 100 0.000277849
4 17 15 100 6.55353e-06
5 17 15 100 0.00159444
6 17 15 100 0.000906347
8 17 15 100 8.38412e-06
10 17 15 100 2.85128e-05
11 17 15 100 0.198615
13 17 15 100 7.9706e-06
14 17 15 100 0.197837
15 17 15 100 0.2
0 18 15 100 0.512713
2 18 15 100 4.39866e-05
3 18 15 100 1.49962e-05
11 18 15 100 2.33383e-05
12 18 15 100 0.00416768
14 18 15 100 0.483037
0 19 15 100 0.25
11 19 15 100 0.25
14 19 15 100 0.25
15 19 15 100 0.25
0 20 15 100 0.619436
1 20 15 100 0.0009118
2 20 15 100 5.10066e-06
3 20 15 100 0.00268182
9 20 15 100 0.0436305
14 20 15 100 0.333335
0 21 15 100 0.334789
6 21 15 100 6.8857e-05
8 21 15 100 9.35278e-06
10 21 15 100 5.4087e-06
11 21 15 100 0.330955
14 21 15 100 0.000838288
15 21 15 100 0.333334
10 22 15 100 0.000122932
11 22 15 100 0.999877
9 23 15 100 0.5
15 23 15 100 0.5
0 24 15 100 0.0364845
1 24 15 100 0.000125317
3 24 15 100 0.000125029
9 24 15 100 0.963265
0 25 15 100 1.22276e-05
9 25 15 100 0.983365
11 25 15 100 0.000325435
14 25 15 100 0.0162974
15 26 15 100 1
1 1 16 100 0.333334
2 1 16 100 0.333334
4 1 16 100 0.333327
8 1 16 100 5.16828e-06
0 2 16 100 0.33333
2 2 16 100 3.856e-06
4 2 16 100 5.8608e-06
5 2 16 100 0.333328
9 2 16 100 0.333332
0 3 16 100 0.333257
4 3 16 100 0.333333
7 3 16 100 7.62263e-05
9 3 16 100 0.333333
0 4 16 100 2.15183e-05
5 4 16 100 0.329531
6 4 16 100 0.333333
7 4 16 100 0.0045612
9 4 16 100 0.332553
6 5 16 100 0.000401204
7 5 16 100 0.333333
8 5 16 100 0.333333
9 5 16 100 0.332932
0 6 16 100 0.000167442
5 6 16 100 0.000728939
6 6 16 100 0.000205903
7 6 16 100 0.333128
9 6 16 100 0.336828
10 6 16 100 0.328943
6 7 16 100 0.333333
7 7 16 100 0.234217
8 7 16 100 0.0991164
15 7 16 100 0.333333
9 8 16 100 0.333333
10 8 16 100 0.333333
14 8 16 100 0.000410484
15 8 16 100 0.332923
0 9 16 100 7.474e-06
3 9 16 100 6.44753e-06
6 9 16 100 0.197784
10 9 16 100 0.331568
11 9 16 100 0.0695253
15 9 16 100 0.401109
0 10 16 100 0.333301
10 10 16 100 3.22051e-05
16 10 16 100 0.666667
0 11 16 100 7.00414e-05
10 11 16 100 0.000726165
12 11 16 100 0.00311978
14 11 16 100 0.996084
13 12 16 100 1
14 13 16 100 1
15 14 16 100 1
3 15 16 100 3.42468e-05
10 15 16 100 8.93434e-05
14 15 16 100 0.999876
0 16 16 100 0.196388
3 16 16 100 0.00217723
14 16 16 100 0.801435
16 17 16 100 1
8 1 17 100 0.997936
9 1 17 100 0.00206356
8 2 17 100 1
8 3 17 100 1
8 4 17 100 1
3 5 17 100 0.029305
8 5 17 100 0.922913
10 5 17 100 0.0450906
14 5 17 100 0.00269164
0 6 17 100 0.999984
15 6 17 100 1.56023e-05
8 7 17 100 0.985134
10 7 17 100 0.0148655
4 8 17 100 2.97225e-05
11 8 17 100 0.99997
12 9 17 100 1
16 10 17 100 1
16 11 17 100 1
10 12 17 100 6.48427e-05
17 12 17 100 0.999935
